<?xml version="1.0"?>
<MethodSetup Method="MLP::MLP">
  <GeneralInfo>
    <Info name="TMVA Release" value="4.2.1 [262657]"/>
    <Info name="ROOT Release" value="6.26/02 [399874]"/>
    <Info name="Creator" value="s1412595"/>
    <Info name="Date" value="Sat May  7 00:03:16 2022"/>
    <Info name="Host" value="Linux root-ubuntu-2004-1 5.4.0-73-generic #82-Ubuntu SMP Wed Apr 14 17:39:42 UTC 2021 x86_64 x86_64 x86_64 GNU/Linux"/>
    <Info name="Dir" value="/home/s1412595/Desktop/MSc/TMVA/runs/run_fs8_hp1"/>
    <Info name="Training events" value="120000"/>
    <Info name="TrainingTime" value="8.75964709e+02"/>
    <Info name="AnalysisType" value="Classification"/>
  </GeneralInfo>
  <Options>
    <Option name="NCycles" modified="Yes">600</Option>
    <Option name="HiddenLayers" modified="Yes">N+5</Option>
    <Option name="NeuronType" modified="Yes">tanh</Option>
    <Option name="RandomSeed" modified="No">1</Option>
    <Option name="EstimatorType" modified="No">CE</Option>
    <Option name="NeuronInputType" modified="No">sum</Option>
    <Option name="V" modified="Yes">False</Option>
    <Option name="VerbosityLevel" modified="No">Default</Option>
    <Option name="VarTransform" modified="Yes">N</Option>
    <Option name="H" modified="Yes">True</Option>
    <Option name="CreateMVAPdfs" modified="No">False</Option>
    <Option name="IgnoreNegWeightsInTraining" modified="No">False</Option>
    <Option name="TrainingMethod" modified="No">BP</Option>
    <Option name="LearningRate" modified="No">2.000000e-02</Option>
    <Option name="DecayRate" modified="No">1.000000e-02</Option>
    <Option name="TestRate" modified="Yes">5</Option>
    <Option name="EpochMonitoring" modified="No">False</Option>
    <Option name="Sampling" modified="No">1.000000e+00</Option>
    <Option name="SamplingEpoch" modified="No">1.000000e+00</Option>
    <Option name="SamplingImportance" modified="No">1.000000e+00</Option>
    <Option name="SamplingTraining" modified="No">True</Option>
    <Option name="SamplingTesting" modified="No">False</Option>
    <Option name="ResetStep" modified="No">50</Option>
    <Option name="Tau" modified="No">3.000000e+00</Option>
    <Option name="BPMode" modified="No">sequential</Option>
    <Option name="BatchSize" modified="No">-1</Option>
    <Option name="ConvergenceImprove" modified="No">1.000000e-30</Option>
    <Option name="ConvergenceTests" modified="No">-1</Option>
    <Option name="UseRegulator" modified="Yes">False</Option>
    <Option name="UpdateLimit" modified="No">10000</Option>
    <Option name="CalculateErrors" modified="No">False</Option>
    <Option name="WeightRange" modified="No">1.000000e+00</Option>
  </Options>
  <Variables NVar="9">
    <Variable VarIndex="0" Expression="Kbach_ProbNNk" Label="Kbach_ProbNNk" Title="Kbach_ProbNNk" Unit="" Internal="Kbach_ProbNNk" Type="F" Min="5.10000885e-01" Max="9.99803305e-01"/>
    <Variable VarIndex="1" Expression="Kbach_ProbNNp" Label="Kbach_ProbNNp" Title="Kbach_ProbNNp" Unit="" Internal="Kbach_ProbNNp" Type="F" Min="3.09430192e-07" Max="9.99382198e-01"/>
    <Variable VarIndex="2" Expression="Kbach_PT" Label="Kbach_PT" Title="Kbach_PT" Unit="" Internal="Kbach_PT" Type="F" Min="4.03433502e+02" Max="1.47210791e+04"/>
    <Variable VarIndex="3" Expression="Lc_PT" Label="Lc_PT" Title="Lc_PT" Unit="" Internal="Lc_PT" Type="F" Min="2.52761890e+03" Max="4.00415273e+04"/>
    <Variable VarIndex="4" Expression="pibach_PT" Label="pibach_PT" Title="pibach_PT" Unit="" Internal="pibach_PT" Type="F" Min="2.00006271e+02" Max="3.32139111e+03"/>
    <Variable VarIndex="5" Expression="pibach_ProbNNpi" Label="pibach_ProbNNpi" Title="pibach_ProbNNpi" Unit="" Internal="pibach_ProbNNpi" Type="F" Min="1.00149095e-01" Max="9.99639690e-01"/>
    <Variable VarIndex="6" Expression="pibach_ProbNNp" Label="pibach_ProbNNp" Title="pibach_ProbNNp" Unit="" Internal="pibach_ProbNNp" Type="F" Min="4.44849604e-07" Max="9.56227481e-01"/>
    <Variable VarIndex="7" Expression="Xicst_IPCHI2_OWNPV" Label="Xicst_IPCHI2_OWNPV" Title="Xicst_IPCHI2_OWNPV" Unit="" Internal="Xicst_IPCHI2_OWNPV" Type="F" Min="1.37118786e-05" Max="2.63996133e+04"/>
    <Variable VarIndex="8" Expression="Xicst_ENDVERTEX_CHI2" Label="Xicst_ENDVERTEX_CHI2" Title="Xicst_ENDVERTEX_CHI2" Unit="" Internal="Xicst_ENDVERTEX_CHI2" Type="F" Min="1.72308029e-03" Max="5.99373703e+01"/>
  </Variables>
  <Spectators NSpec="1">
    <Spectator SpecIndex="0" Expression="Xicst_M" Label="Xicst_M" Title="Xicst Mass" Unit="F" Internal="Xicst_M" Type="F" Min="2.92377637e+03" Max="3.90779272e+03"/>
  </Spectators>
  <Classes NClass="2">
    <Class Name="Signal" Index="0"/>
    <Class Name="Background" Index="1"/>
  </Classes>
  <Transformations NTransformations="1">
    <Transform Name="Normalize">
      <Selection>
        <Input NInputs="9">
          <Input Type="Variable" Label="Kbach_ProbNNk" Expression="Kbach_ProbNNk"/>
          <Input Type="Variable" Label="Kbach_ProbNNp" Expression="Kbach_ProbNNp"/>
          <Input Type="Variable" Label="Kbach_PT" Expression="Kbach_PT"/>
          <Input Type="Variable" Label="Lc_PT" Expression="Lc_PT"/>
          <Input Type="Variable" Label="pibach_PT" Expression="pibach_PT"/>
          <Input Type="Variable" Label="pibach_ProbNNpi" Expression="pibach_ProbNNpi"/>
          <Input Type="Variable" Label="pibach_ProbNNp" Expression="pibach_ProbNNp"/>
          <Input Type="Variable" Label="Xicst_IPCHI2_OWNPV" Expression="Xicst_IPCHI2_OWNPV"/>
          <Input Type="Variable" Label="Xicst_ENDVERTEX_CHI2" Expression="Xicst_ENDVERTEX_CHI2"/>
        </Input>
        <Output NOutputs="9">
          <Output Type="Variable" Label="Kbach_ProbNNk" Expression="Kbach_ProbNNk"/>
          <Output Type="Variable" Label="Kbach_ProbNNp" Expression="Kbach_ProbNNp"/>
          <Output Type="Variable" Label="Kbach_PT" Expression="Kbach_PT"/>
          <Output Type="Variable" Label="Lc_PT" Expression="Lc_PT"/>
          <Output Type="Variable" Label="pibach_PT" Expression="pibach_PT"/>
          <Output Type="Variable" Label="pibach_ProbNNpi" Expression="pibach_ProbNNpi"/>
          <Output Type="Variable" Label="pibach_ProbNNp" Expression="pibach_ProbNNp"/>
          <Output Type="Variable" Label="Xicst_IPCHI2_OWNPV" Expression="Xicst_IPCHI2_OWNPV"/>
          <Output Type="Variable" Label="Xicst_ENDVERTEX_CHI2" Expression="Xicst_ENDVERTEX_CHI2"/>
        </Output>
      </Selection>
      <Class ClassIndex="0">
        <Ranges>
          <Range Index="0" Min="5.1000088453292847e-01" Max="9.9980330467224121e-01"/>
          <Range Index="1" Min="3.0943019169171748e-07" Max="9.9368906021118164e-01"/>
          <Range Index="2" Min="4.0367718505859375e+02" Max="1.0992476562500000e+04"/>
          <Range Index="3" Min="2.5326340332031250e+03" Max="4.0041527343750000e+04"/>
          <Range Index="4" Min="2.0000627136230469e+02" Max="3.3213911132812500e+03"/>
          <Range Index="5" Min="1.0023375600576401e-01" Max="9.9963968992233276e-01"/>
          <Range Index="6" Min="4.4484960426416364e-07" Max="9.5622748136520386e-01"/>
          <Range Index="7" Min="1.3711878636968322e-05" Max="5.0999150390625000e+03"/>
          <Range Index="8" Min="1.7230802914127707e-03" Max="5.7858459472656250e+01"/>
        </Ranges>
      </Class>
      <Class ClassIndex="1">
        <Ranges>
          <Range Index="0" Min="5.1001447439193726e-01" Max="9.9980223178863525e-01"/>
          <Range Index="1" Min="3.1790315802027180e-07" Max="9.9938219785690308e-01"/>
          <Range Index="2" Min="4.0343350219726562e+02" Max="1.4721079101562500e+04"/>
          <Range Index="3" Min="2.5276188964843750e+03" Max="3.0730033203125000e+04"/>
          <Range Index="4" Min="2.0001296997070312e+02" Max="3.2623430175781250e+03"/>
          <Range Index="5" Min="1.0014909505844116e-01" Max="9.9933230876922607e-01"/>
          <Range Index="6" Min="2.0500285700109089e-06" Max="8.9968401193618774e-01"/>
          <Range Index="7" Min="2.6691805032896809e-05" Max="2.6399613281250000e+04"/>
          <Range Index="8" Min="4.3928395025432110e-03" Max="5.9937370300292969e+01"/>
        </Ranges>
      </Class>
      <Class ClassIndex="2">
        <Ranges>
          <Range Index="0" Min="5.1000088453292847e-01" Max="9.9980330467224121e-01"/>
          <Range Index="1" Min="3.0943019169171748e-07" Max="9.9938219785690308e-01"/>
          <Range Index="2" Min="4.0343350219726562e+02" Max="1.4721079101562500e+04"/>
          <Range Index="3" Min="2.5276188964843750e+03" Max="4.0041527343750000e+04"/>
          <Range Index="4" Min="2.0000627136230469e+02" Max="3.3213911132812500e+03"/>
          <Range Index="5" Min="1.0014909505844116e-01" Max="9.9963968992233276e-01"/>
          <Range Index="6" Min="4.4484960426416364e-07" Max="9.5622748136520386e-01"/>
          <Range Index="7" Min="1.3711878636968322e-05" Max="2.6399613281250000e+04"/>
          <Range Index="8" Min="1.7230802914127707e-03" Max="5.9937370300292969e+01"/>
        </Ranges>
      </Class>
    </Transform>
  </Transformations>
  <MVAPdfs/>
  <Weights>
    <Layout NLayers="3">
      <Layer Index="0" NNeurons="10">
        <Neuron NSynapses="14">
          -2.1885487813220161e-01 7.2558913871404784e-01 1.3421500904414593e-01 1.8322152143183110e-01 -1.2082228444110332e+00 -2.1918925663835101e-01 -2.6937236325657610e-01 3.4694086339485901e+00 1.1183172919218962e-01 8.0403220925003821e-02 -1.6587789173168255e+00 -3.4035922666737795e-01 4.3031813944319131e-01 2.2359690394717222e-02 
        </Neuron>
        <Neuron NSynapses="14">
          8.3288320233381764e-03 4.8288771070125158e-01 4.9694540817373456e-01 2.9476324343490989e-01 1.4979120080061779e+00 -3.8147237469236106e-01 -1.4792290250701992e+00 -4.5774876022271554e-01 -2.5343148776925617e-01 3.4609704665243596e-01 1.5148489635892716e-02 -2.6278303809532366e-01 3.1450274328963296e-01 -7.3503889573509326e-02 
        </Neuron>
        <Neuron NSynapses="14">
          -1.4774955080187928e+01 -2.0129879357810556e+00 1.3602558244496139e+00 1.8709297594728717e+01 -3.3796208727862589e+00 -1.1076388752882760e+00 5.0246248774446070e+00 2.1500537801295518e+00 -2.6378456039208260e+01 3.0866437310883916e+00 -1.5120156425317133e+00 1.1920743650730268e+00 1.6186796420421361e+00 2.5236040121218640e+01 
        </Neuron>
        <Neuron NSynapses="14">
          1.5911430358893860e+01 -2.1993041151896672e-01 -4.9294299268591696e-01 -6.7694333829198738e+00 -1.2173538254524983e+00 -1.0959382459412617e+00 8.7483293724652944e-01 3.0929255073298929e+00 5.3805352605014161e+00 8.7420495288962929e-01 -2.3365391729174463e+00 1.3818033110083019e+00 -9.2370908141250274e-01 -1.6229662341905076e+01 
        </Neuron>
        <Neuron NSynapses="14">
          2.5002481473643683e+00 -3.5702021141989690e+00 1.5878433600811988e+00 -1.3695760007343547e+00 -6.6726236531945062e+00 -2.7224523714159377e-01 -4.8129544183226836e-01 1.8309230519017829e+00 1.1519734473343277e+00 -4.0243444751215369e+00 -2.2832071536782630e-01 -1.1520048306029600e+00 1.0617923469661977e-01 -2.1456937506664628e+00 
        </Neuron>
        <Neuron NSynapses="14">
          1.4082445933058935e-01 3.4605769754961507e-01 3.6614612043971717e-01 3.6453879829124802e-04 -1.8708905267709236e-01 -8.7570748429272505e-01 -4.1101770876525584e-03 2.3201616343183201e-01 -1.1037381931591907e-01 1.3655117619734124e+01 1.3467205654071963e+00 6.7569933168111640e-01 1.9173966166881995e+00 1.1807177748855043e-02 
        </Neuron>
        <Neuron NSynapses="14">
          8.4023456824425768e-01 -2.0063147521980498e+00 -9.7283316950178722e-02 2.6530886478159726e-01 1.0117968866238145e+00 -2.3876489425602636e+00 6.3964644358708922e-01 -1.0723136358139849e+00 -1.8810125884711471e-01 6.6437902428510451e+00 -6.0896005489103977e-01 1.6172331576766046e+00 -7.2240411483583389e-01 -3.4479651683648294e-01 
        </Neuron>
        <Neuron NSynapses="14">
          -4.3769874586872506e+00 4.0682664223109670e+00 -2.5926895795793148e+00 -5.4535563278934163e+00 4.7239168133808542e+00 1.9818346684481916e+00 -2.1813258768790966e+00 -3.1092699607850958e-02 9.6744193053696712e+00 3.4971178995586523e+00 -2.9348122924080094e-01 3.8144523604033809e-01 -1.9393974445284767e+00 -2.0036532064259163e+00 
        </Neuron>
        <Neuron NSynapses="14">
          -2.5166168016466250e-01 -5.3460466781588178e-01 -9.1192308087663876e-01 -2.6032413804342891e-01 7.1100359638108424e-01 2.8425572409678445e-03 -8.9312360236087726e-02 -1.4934394707783567e+00 7.2254018342290327e-01 1.9948188683884507e-02 -7.9149998281182921e-01 1.7241266685686429e+00 3.9383185247217772e-01 6.9264070050070159e-01 
        </Neuron>
        <Neuron NSynapses="14">
          2.4212859018108364e+00 -3.7094136361454431e+00 -1.1354167067928387e+00 4.7373318363558070e+00 -3.7208561050012889e+00 -2.1234140255786964e+00 1.5124123514473038e+00 1.5277425544906539e-01 -1.1045799828192521e+01 -3.2230708479102144e+00 2.0389609626054526e+00 -1.9254792390625652e+00 4.9274715420096871e-01 4.0893742567460398e+00 
        </Neuron>
      </Layer>
      <Layer Index="1" NNeurons="15">
        <Neuron NSynapses="1">
          3.9036936593959473e+00 
        </Neuron>
        <Neuron NSynapses="1">
          -6.3727384964923073e-01 
        </Neuron>
        <Neuron NSynapses="1">
          6.7948809615468686e-01 
        </Neuron>
        <Neuron NSynapses="1">
          1.1409835784066475e+00 
        </Neuron>
        <Neuron NSynapses="1">
          -7.7807874025709944e-01 
        </Neuron>
        <Neuron NSynapses="1">
          -7.8708118155257245e-01 
        </Neuron>
        <Neuron NSynapses="1">
          8.9555115081034331e-01 
        </Neuron>
        <Neuron NSynapses="1">
          5.5940953287612905e-01 
        </Neuron>
        <Neuron NSynapses="1">
          -4.4067183797891367e+00 
        </Neuron>
        <Neuron NSynapses="1">
          8.4234756233276931e-01 
        </Neuron>
        <Neuron NSynapses="1">
          -3.4774798117170258e+00 
        </Neuron>
        <Neuron NSynapses="1">
          2.8640185359242953e+00 
        </Neuron>
        <Neuron NSynapses="1">
          6.2945649678129278e-01 
        </Neuron>
        <Neuron NSynapses="1">
          -1.1984549458380316e+00 
        </Neuron>
        <Neuron NSynapses="1">
          -2.8804506908842051e+00 
        </Neuron>
      </Layer>
      <Layer Index="2" NNeurons="1">
        <Neuron NSynapses="0"/>
      </Layer>
    </Layout>
  </Weights>
</MethodSetup>
