<?xml version="1.0"?>
<MethodSetup Method="MLP::MLPBNN">
  <GeneralInfo>
    <Info name="TMVA Release" value="4.2.1 [262657]"/>
    <Info name="ROOT Release" value="6.26/02 [399874]"/>
    <Info name="Creator" value="s1412595"/>
    <Info name="Date" value="Sun May  1 19:11:37 2022"/>
    <Info name="Host" value="Linux root-ubuntu-2004-1 5.4.0-73-generic #82-Ubuntu SMP Wed Apr 14 17:39:42 UTC 2021 x86_64 x86_64 x86_64 GNU/Linux"/>
    <Info name="Dir" value="/home/s1412595/Desktop/MSc/TMVA/runs/run_fs9_hp1"/>
    <Info name="Training events" value="120000"/>
    <Info name="TrainingTime" value="3.18111609e+02"/>
    <Info name="AnalysisType" value="Classification"/>
  </GeneralInfo>
  <Options>
    <Option name="NCycles" modified="Yes">60</Option>
    <Option name="HiddenLayers" modified="Yes">N+5</Option>
    <Option name="NeuronType" modified="Yes">tanh</Option>
    <Option name="RandomSeed" modified="No">1</Option>
    <Option name="EstimatorType" modified="No">CE</Option>
    <Option name="NeuronInputType" modified="No">sum</Option>
    <Option name="V" modified="Yes">False</Option>
    <Option name="VerbosityLevel" modified="No">Default</Option>
    <Option name="VarTransform" modified="Yes">N</Option>
    <Option name="H" modified="Yes">True</Option>
    <Option name="CreateMVAPdfs" modified="No">False</Option>
    <Option name="IgnoreNegWeightsInTraining" modified="No">False</Option>
    <Option name="TrainingMethod" modified="Yes">BFGS</Option>
    <Option name="LearningRate" modified="No">2.000000e-02</Option>
    <Option name="DecayRate" modified="No">1.000000e-02</Option>
    <Option name="TestRate" modified="Yes">5</Option>
    <Option name="EpochMonitoring" modified="No">False</Option>
    <Option name="Sampling" modified="No">1.000000e+00</Option>
    <Option name="SamplingEpoch" modified="No">1.000000e+00</Option>
    <Option name="SamplingImportance" modified="No">1.000000e+00</Option>
    <Option name="SamplingTraining" modified="No">True</Option>
    <Option name="SamplingTesting" modified="No">False</Option>
    <Option name="ResetStep" modified="No">50</Option>
    <Option name="Tau" modified="No">3.000000e+00</Option>
    <Option name="BPMode" modified="No">sequential</Option>
    <Option name="BatchSize" modified="No">-1</Option>
    <Option name="ConvergenceImprove" modified="No">1.000000e-30</Option>
    <Option name="ConvergenceTests" modified="No">-1</Option>
    <Option name="UseRegulator" modified="Yes">True</Option>
    <Option name="UpdateLimit" modified="No">10000</Option>
    <Option name="CalculateErrors" modified="No">False</Option>
    <Option name="WeightRange" modified="No">1.000000e+00</Option>
  </Options>
  <Variables NVar="9">
    <Variable VarIndex="0" Expression="Kbach_ProbNNk" Label="Kbach_ProbNNk" Title="Kbach_ProbNNk" Unit="" Internal="Kbach_ProbNNk" Type="F" Min="5.10000885e-01" Max="9.99803305e-01"/>
    <Variable VarIndex="1" Expression="Kbach_PT" Label="Kbach_PT" Title="Kbach_PT" Unit="" Internal="Kbach_PT" Type="F" Min="4.03433502e+02" Max="1.47210791e+04"/>
    <Variable VarIndex="2" Expression="Lc_PT" Label="Lc_PT" Title="Lc_PT" Unit="" Internal="Lc_PT" Type="F" Min="2.52761890e+03" Max="4.00415273e+04"/>
    <Variable VarIndex="3" Expression="pibach_PT" Label="pibach_PT" Title="pibach_PT" Unit="" Internal="pibach_PT" Type="F" Min="2.00006271e+02" Max="3.32139111e+03"/>
    <Variable VarIndex="4" Expression="pibach_ProbNNpi" Label="pibach_ProbNNpi" Title="pibach_ProbNNpi" Unit="" Internal="pibach_ProbNNpi" Type="F" Min="1.00149095e-01" Max="9.99639690e-01"/>
    <Variable VarIndex="5" Expression="Xicst_IPCHI2_OWNPV" Label="Xicst_IPCHI2_OWNPV" Title="Xicst_IPCHI2_OWNPV" Unit="" Internal="Xicst_IPCHI2_OWNPV" Type="F" Min="1.37118786e-05" Max="2.63996133e+04"/>
    <Variable VarIndex="6" Expression="Xicst_ENDVERTEX_CHI2" Label="Xicst_ENDVERTEX_CHI2" Title="Xicst_ENDVERTEX_CHI2" Unit="" Internal="Xicst_ENDVERTEX_CHI2" Type="F" Min="1.72308029e-03" Max="5.99373703e+01"/>
    <Variable VarIndex="7" Expression="pibach_IPCHI2_OWNPV" Label="pibach_IPCHI2_OWNPV" Title="pibach_IPCHI2_OWNPV" Unit="" Internal="pibach_IPCHI2_OWNPV" Type="F" Min="8.96283200e-06" Max="8.99967575e+00"/>
    <Variable VarIndex="8" Expression="Kbach_IPCHI2_OWNPV" Label="Kbach_IPCHI2_OWNPV" Title="Kbach_IPCHI2_OWNPV" Unit="" Internal="Kbach_IPCHI2_OWNPV" Type="F" Min="1.30371254e-05" Max="8.99991798e+00"/>
  </Variables>
  <Spectators NSpec="1">
    <Spectator SpecIndex="0" Expression="Xicst_M" Label="Xicst_M" Title="Xicst Mass" Unit="F" Internal="Xicst_M" Type="F" Min="2.92377637e+03" Max="3.90779272e+03"/>
  </Spectators>
  <Classes NClass="2">
    <Class Name="Signal" Index="0"/>
    <Class Name="Background" Index="1"/>
  </Classes>
  <Transformations NTransformations="1">
    <Transform Name="Normalize">
      <Selection>
        <Input NInputs="9">
          <Input Type="Variable" Label="Kbach_ProbNNk" Expression="Kbach_ProbNNk"/>
          <Input Type="Variable" Label="Kbach_PT" Expression="Kbach_PT"/>
          <Input Type="Variable" Label="Lc_PT" Expression="Lc_PT"/>
          <Input Type="Variable" Label="pibach_PT" Expression="pibach_PT"/>
          <Input Type="Variable" Label="pibach_ProbNNpi" Expression="pibach_ProbNNpi"/>
          <Input Type="Variable" Label="Xicst_IPCHI2_OWNPV" Expression="Xicst_IPCHI2_OWNPV"/>
          <Input Type="Variable" Label="Xicst_ENDVERTEX_CHI2" Expression="Xicst_ENDVERTEX_CHI2"/>
          <Input Type="Variable" Label="pibach_IPCHI2_OWNPV" Expression="pibach_IPCHI2_OWNPV"/>
          <Input Type="Variable" Label="Kbach_IPCHI2_OWNPV" Expression="Kbach_IPCHI2_OWNPV"/>
        </Input>
        <Output NOutputs="9">
          <Output Type="Variable" Label="Kbach_ProbNNk" Expression="Kbach_ProbNNk"/>
          <Output Type="Variable" Label="Kbach_PT" Expression="Kbach_PT"/>
          <Output Type="Variable" Label="Lc_PT" Expression="Lc_PT"/>
          <Output Type="Variable" Label="pibach_PT" Expression="pibach_PT"/>
          <Output Type="Variable" Label="pibach_ProbNNpi" Expression="pibach_ProbNNpi"/>
          <Output Type="Variable" Label="Xicst_IPCHI2_OWNPV" Expression="Xicst_IPCHI2_OWNPV"/>
          <Output Type="Variable" Label="Xicst_ENDVERTEX_CHI2" Expression="Xicst_ENDVERTEX_CHI2"/>
          <Output Type="Variable" Label="pibach_IPCHI2_OWNPV" Expression="pibach_IPCHI2_OWNPV"/>
          <Output Type="Variable" Label="Kbach_IPCHI2_OWNPV" Expression="Kbach_IPCHI2_OWNPV"/>
        </Output>
      </Selection>
      <Class ClassIndex="0">
        <Ranges>
          <Range Index="0" Min="5.1000088453292847e-01" Max="9.9980330467224121e-01"/>
          <Range Index="1" Min="4.0367718505859375e+02" Max="1.0992476562500000e+04"/>
          <Range Index="2" Min="2.5326340332031250e+03" Max="4.0041527343750000e+04"/>
          <Range Index="3" Min="2.0000627136230469e+02" Max="3.3213911132812500e+03"/>
          <Range Index="4" Min="1.0023375600576401e-01" Max="9.9963968992233276e-01"/>
          <Range Index="5" Min="1.3711878636968322e-05" Max="5.0999150390625000e+03"/>
          <Range Index="6" Min="1.7230802914127707e-03" Max="5.7858459472656250e+01"/>
          <Range Index="7" Min="2.5563955205143429e-05" Max="8.9967641830444336e+00"/>
          <Range Index="8" Min="2.9180013370933011e-05" Max="8.9999179840087891e+00"/>
        </Ranges>
      </Class>
      <Class ClassIndex="1">
        <Ranges>
          <Range Index="0" Min="5.1001447439193726e-01" Max="9.9980223178863525e-01"/>
          <Range Index="1" Min="4.0343350219726562e+02" Max="1.4721079101562500e+04"/>
          <Range Index="2" Min="2.5276188964843750e+03" Max="3.0730033203125000e+04"/>
          <Range Index="3" Min="2.0001296997070312e+02" Max="3.2623430175781250e+03"/>
          <Range Index="4" Min="1.0014909505844116e-01" Max="9.9933230876922607e-01"/>
          <Range Index="5" Min="2.6691805032896809e-05" Max="2.6399613281250000e+04"/>
          <Range Index="6" Min="4.3928395025432110e-03" Max="5.9937370300292969e+01"/>
          <Range Index="7" Min="8.9628319983603433e-06" Max="8.9996757507324219e+00"/>
          <Range Index="8" Min="1.3037125427217688e-05" Max="8.9995861053466797e+00"/>
        </Ranges>
      </Class>
      <Class ClassIndex="2">
        <Ranges>
          <Range Index="0" Min="5.1000088453292847e-01" Max="9.9980330467224121e-01"/>
          <Range Index="1" Min="4.0343350219726562e+02" Max="1.4721079101562500e+04"/>
          <Range Index="2" Min="2.5276188964843750e+03" Max="4.0041527343750000e+04"/>
          <Range Index="3" Min="2.0000627136230469e+02" Max="3.3213911132812500e+03"/>
          <Range Index="4" Min="1.0014909505844116e-01" Max="9.9963968992233276e-01"/>
          <Range Index="5" Min="1.3711878636968322e-05" Max="2.6399613281250000e+04"/>
          <Range Index="6" Min="1.7230802914127707e-03" Max="5.9937370300292969e+01"/>
          <Range Index="7" Min="8.9628319983603433e-06" Max="8.9996757507324219e+00"/>
          <Range Index="8" Min="1.3037125427217688e-05" Max="8.9999179840087891e+00"/>
        </Ranges>
      </Class>
    </Transform>
  </Transformations>
  <MVAPdfs/>
  <Weights>
    <Layout NLayers="3">
      <Layer Index="0" NNeurons="10">
        <Neuron NSynapses="14">
          3.5533891249744454e-01 1.6971410906133968e+00 8.9648223240454616e-01 1.1080392388060283e+00 -1.7207155544860053e+00 -9.1099976797909243e-01 -3.1723785095091284e-01 1.8921033633720701e+00 -1.4442232040834004e+00 -3.2825664291669727e-02 -6.2428161909515689e-01 -4.1173453924402675e-01 5.1987469961711441e-01 -4.2763280857622155e-01 
        </Neuron>
        <Neuron NSynapses="14">
          -1.1390954507612239e+00 9.8026019342942494e-01 -1.3028570870377749e+00 2.4649183784412227e+00 -1.2547194235038890e+00 2.8470761610150350e+00 -8.5016035028235248e-01 -8.2814884594002747e-01 9.2622399670496369e-01 -3.2563030022740927e-02 -3.0022632193768226e+00 -2.2422204035956006e-01 2.9437827351110242e+00 -1.0852301763683343e+00 
        </Neuron>
        <Neuron NSynapses="14">
          -2.3550734852397111e+00 6.5227038344477539e-01 4.9264888924793404e-01 6.1566465599943709e-01 -3.4762750242889229e-01 -3.1780773887681185e-01 2.8438441710691725e-01 -3.4244530211737723e-01 -1.4354540021777764e+00 2.2417556006562900e+00 5.1261430401819807e-01 1.1093788625518204e+00 1.4941078586088947e+00 8.3719435140497767e-01 
        </Neuron>
        <Neuron NSynapses="14">
          1.2839053557376379e+00 1.6613520106477297e+00 -1.3931501242819757e+00 -2.2419025413773697e+00 -2.1466572217028179e-01 7.7330097548797405e-01 1.2854054128516963e+00 1.3925297998608668e+00 1.6422723349361732e+00 2.1805116151137636e+00 -1.1960778582621179e-01 1.3137886540729655e+00 -5.0189172313413544e-01 -9.2490124600410117e-01 
        </Neuron>
        <Neuron NSynapses="14">
          -5.6957406094910257e-01 -1.6903303693434661e+00 2.0614652352057772e+00 -1.8568918690743706e-02 -5.6353847438014082e-01 2.4633790496244376e-01 2.1851442503314417e-02 6.7985292806649844e-01 1.6497623752344412e+00 1.0719993559559915e+00 1.5312984774985491e-01 -1.1994152038805705e+00 2.5364421015667800e+00 -8.4172363708139131e-01 
        </Neuron>
        <Neuron NSynapses="14">
          -1.4900984585783501e+00 -1.1645644578638361e+00 6.7627534756649399e-01 5.4595263290290375e-01 2.0243824450155010e+00 -7.6919368309650993e-01 -2.4288538512842850e+00 -1.9229264508965385e+00 1.1632000500949542e+00 -3.2063252328353103e-01 3.4109897749364508e+00 6.4326046561577732e-01 4.6936169975888398e-01 -8.1728982559355745e-01 
        </Neuron>
        <Neuron NSynapses="14">
          -1.3750896851394450e+00 5.6832092894694868e-02 9.1253997057423686e-01 -1.7812452699132089e+00 -1.2997469396478349e+00 -1.7921977341516875e+00 -8.7687076132327402e-01 -1.7467984067044301e-01 1.7619976143489757e+00 -1.5463557043364891e+00 -9.6173483415913052e-01 1.6052690463817170e+00 -2.4015986829808818e-02 -1.4707279344432205e+00 
        </Neuron>
        <Neuron NSynapses="14">
          -1.2387028813434429e+00 3.7662289946761418e-01 -3.5492314471174202e-01 -1.3156646773532832e+00 -1.6059893982652906e-02 8.4976744182757669e-01 -5.6404790667519056e-01 1.6256289442231626e+00 -8.7227542024280158e-01 1.3596798161968629e-01 -3.3680290185111775e-02 3.3558150294984268e-01 -4.7745240403315126e-01 2.4017695338276188e-01 
        </Neuron>
        <Neuron NSynapses="14">
          -8.7635970274787048e-02 -3.5254460768071927e-01 3.2916863387164486e-02 1.4155535483160431e+00 4.1530297650885123e-01 -1.9087732729421955e-01 2.3098201999665494e-01 -1.1036800668423501e+00 -1.2964798107239381e+00 3.7604017981220300e-01 4.1575698859416488e-01 1.7801897759767515e+00 2.5902875312428841e-01 -4.7987299995654278e-02 
        </Neuron>
        <Neuron NSynapses="14">
          4.0815516771838267e-01 -1.0604039465257985e-01 -1.7267066466873016e+00 1.6458115708322993e+00 -5.3998606067226484e-01 -1.4039525448023407e+00 1.1552489725739736e+00 -1.3804222518728981e+00 -1.0346992110654474e-01 1.9819516564811512e+00 3.4019575868826907e-01 -1.8814845643070539e+00 8.6489437386062051e-01 1.5442017586687080e+00 
        </Neuron>
      </Layer>
      <Layer Index="1" NNeurons="15">
        <Neuron NSynapses="1">
          1.2260974035864349e+00 
        </Neuron>
        <Neuron NSynapses="1">
          9.0994558010373372e-02 
        </Neuron>
        <Neuron NSynapses="1">
          -6.8366740614844257e-01 
        </Neuron>
        <Neuron NSynapses="1">
          1.0959963438138449e+00 
        </Neuron>
        <Neuron NSynapses="1">
          4.0035950351819566e-01 
        </Neuron>
        <Neuron NSynapses="1">
          1.7883754381760852e+00 
        </Neuron>
        <Neuron NSynapses="1">
          8.3558848087642412e-01 
        </Neuron>
        <Neuron NSynapses="1">
          -1.3744537813334329e-01 
        </Neuron>
        <Neuron NSynapses="1">
          3.5883388743742956e-01 
        </Neuron>
        <Neuron NSynapses="1">
          1.8387955766051505e+00 
        </Neuron>
        <Neuron NSynapses="1">
          -2.7417601921867769e+00 
        </Neuron>
        <Neuron NSynapses="1">
          5.3610500983082598e-01 
        </Neuron>
        <Neuron NSynapses="1">
          8.6057127170052150e-01 
        </Neuron>
        <Neuron NSynapses="1">
          -4.6174862650934945e-01 
        </Neuron>
        <Neuron NSynapses="1">
          -5.3663182246971197e-01 
        </Neuron>
      </Layer>
      <Layer Index="2" NNeurons="1">
        <Neuron NSynapses="0"/>
      </Layer>
    </Layout>
    <InverseHessian NElements="24025" NRows="155" NCols="155">
      <Row Index="0">
        9.7859327570716772e+01 -4.7727275831974192e-01 2.1872185054896146e-02 1.6585150510303501e-02 -2.5735229584739366e-02 -5.0560875903342142e-02 9.3589483654971044e+00 -3.4104907531790185e-01 2.1905008183470822e-02 -3.4626969584084996e-03 7.8158876118777695e-03 -7.8011048045275730e+00 1.7926068631923392e-02 -2.5664095030338512e+00 -9.8781229123831579e+01 2.5479587032505302e-01 -5.9261780664211769e-02 -4.7621723305144981e-01 -3.0774187148003973e-01 -4.2327387534795102e-01 -2.8294363615828395e+00 -2.0530052809623783e-01 -7.1168956409636996e-02 4.2040261038002014e-02 5.7011665606183148e-02 -3.1646601363798936e+00 7.2507484274361753e-02 2.9583747726276748e+01 -2.5347505725243917e+02 -1.8780662404074717e+00 1.3657138861327750e-01 -4.3303469296323371e-01 -2.3875731493388441e-01 5.2509848146928584e-01 -1.9916647324615354e+02 6.0009420705748984e-01 1.8094216591303774e-01 1.8939880180931035e-01 3.3631668888432546e-02 -5.2689523714889219e-02 -1.0259261389255064e-02 2.1625104875723764e+01 1.1301289377111841e+02 -4.0888646129143114e-01 -2.5866959547142998e-01 4.1349948988818880e-01 2.0654962717222222e-01 -3.8506010727701545e-01 -4.4441078909936877e+01 -1.0661025284422171e-01 -2.2984484347999162e-01 -1.4339830750510746e-01 1.8198218551091452e-02 5.5953978507500779e+01 -6.1978151518200117e-02 -4.6296735051101479e+00 -6.9124204082658267e+01 4.8625751165772307e-01 1.8988787740364596e-02 -4.8172427643354471e-02 5.0690120708232617e-02 5.1061657326323881e-03 -3.0863467790011832e+01 -9.3816585568940875e-02 -1.4464355826468361e-01 -4.2843450049771525e-02 1.9331249442305569e-02 -1.2740077596271789e+01 2.4938653943466726e-02 3.4455000656904851e+00 9.0791638169139688e+01 4.5616766774120109e+01 6.1067673755390697e+00 1.8224273241829811e+00 -5.8579128361899251e+00 1.7118009112644302e+01 -2.2874658982882906e+01 -4.3376585351674819e+01 1.3248082373255855e+01 -2.3075588164441694e+00 1.6362554950477310e+00 -1.0925218113659378e+02 7.2040156675587355e+00 5.5203589070790194e+01 -9.1599397100944316e+01 -1.1857858960541232e+00 1.8245906907355267e-01 -1.4395259177603520e-01 -6.3981721447215367e-02 9.8568969461153266e-01 -1.2628499494141849e+01 5.7350577342090259e-02 2.4038163087827497e-01 1.7485286314312515e-01 -9.9867008484202900e-03 3.5175687821133664e+01 -3.1172735648935157e-01 6.2914176175693335e+00 -1.2071206043937984e+02 1.1119714242129544e-01 6.1201981415306417e-03 3.9673640919963227e-02 4.7512932116477669e-02 -1.1331052549309176e-01 -1.8705290472206464e+01 -6.8016494829600427e-01 1.2116420942901929e-01 6.8193799416113018e-02 3.3151551848266805e-02 -6.7961477900094991e-01 1.0064350415868520e-01 1.8111421508910915e+01 -1.3579157554643327e+01 3.0499691396528439e-01 2.7745451244275660e-02 -1.7019685929478201e-01 -3.0647880802128696e-02 -9.0601839846047305e-03 -2.7536594268718218e+01 4.2795784499024947e-01 7.0125523752201810e-02 9.9329536488908937e-04 -4.6924345864684724e-03 3.1480545338410252e+01 -1.0220876500294018e-02 2.8780849859691742e+00 -4.4322273125871129e+02 4.3735611890131175e+01 6.1294160929060322e+00 1.1847042023487095e+00 -6.2448861233279667e+00 1.7285941601695413e+01 -2.2436915828681754e+02 -4.3418899330844312e+01 1.3622938693087352e+01 -1.9926521652393658e+00 1.7211999824234849e+00 1.7537121082267549e+02 6.9594738613300180e+00 8.4681211739524002e+01 -1.2863854327542786e+03 8.6280307762002934e-03 2.3569552764024379e-02 1.4514254606922378e-01 -5.7495267591892052e-02 1.3437006966245999e+00 9.9023384765066155e+01 -6.3730224053631712e-02 2.4198525364005130e-02 1.0581054335647944e-01 -2.9792244561686484e-02 -2.9531439948671357e+02 -1.2699120398094576e-02 1.2990718390669830e+01 8.8021264191032481e+02 
      </Row>
      <Row Index="1">
        -4.7727269768966352e-01 1.0815564169063352e+01 -7.1465619217441573e-02 1.1713540761748929e-02 3.6019511792419440e-02 -6.3878759099725096e-02 -9.9132623515383278e-01 -2.7046747737048960e-02 -5.7347852337540486e-02 -3.9375462748534595e-03 6.6580021283867497e-03 1.2177959045817488e+00 -4.1240856965123335e-02 -2.5068225112405429e+00 -5.8049519611172684e-01 4.9049096876548015e-01 1.7494746248412993e-01 2.5478457139471458e-02 -2.5969729004262548e-01 2.3862884378822635e-01 4.9963387844505647e+00 -1.9509199187639181e-01 -3.3654531783071873e-01 -6.5938016077250750e-02 2.9363969255596578e-01 2.6212982213319003e+00 -8.2260013073457192e-02 -1.9187012736672298e+00 -3.0447726751361515e-01 3.1871742234712377e+00 -9.5908857165206085e-02 7.4296066073094302e-03 -1.0974718626429830e-01 -1.8015348803224085e-02 4.4265219623249372e+00 -2.0802126097374346e-01 -1.0372522608033494e-01 -9.9909744334814414e-03 -8.2986624152994071e-02 -1.0053804025440058e+01 4.9248665026400851e-02 3.3980959618423139e+00 1.9514890749582001e+00 6.2519010323735769e+00 2.8027451984621043e-01 4.5670176344512869e-02 -1.4370376754839087e-01 2.1434289029953724e-01 -4.0853766835301641e-01 -1.5986408783996803e-01 -4.2019590554827030e-01 -1.6442261832656964e-02 -2.7069679832191045e-02 1.0997641103878664e+00 -9.7711387059193092e-02 -6.1298688212226615e+00 1.2105159554835190e+00 -5.4899804275982023e+00 -4.5552370027752570e-01 -4.1708040793792200e-02 -1.8502644710751207e-01 -6.2070123691568835e-02 -1.0445401286488556e+00 -1.1329839602932440e-01 3.4157454414892846e-01 -1.8496905744272762e-02 3.0836698564343269e-03 2.0013133610347040e+00 1.5110920876440095e-01 -2.8722016841755469e+00 -8.3454634817022146e+00 -4.1858881981487794e-02 -9.3168016166663770e-01 -1.0083686626703037e-01 1.4646495419864005e+00 -6.8113061213228565e-01 -5.2951393610172026e-01 -6.5996817878652969e-01 9.0482085127642209e-01 -3.7334091317039486e-01 -1.7363445901981547e-01 -7.0625454001954608e+00 1.2913548276039351e+00 -1.8586021121831084e+00 -5.6961189452334171e-01 1.0777730780334238e+00 -7.8091312978186639e-02 -1.0191486310942577e-02 -1.1723662267936252e-02 -2.6609679828314992e-01 8.6327415638728411e-01 -2.0905136730234947e-01 -4.8209844288620185e-02 -3.2943926302095652e-03 8.0952166852919130e-02 -6.0855665669396490e+00 -3.4993645447819882e-02 -5.1318652243908822e+00 2.2911184972024046e-01 1.0058074692828733e+00 6.1017352144446785e-02 6.4881288583597818e-03 2.0975733302542758e-02 9.0415221633651954e-02 1.2733004604912130e+00 1.4777708874549600e-03 1.5582184238664376e-01 6.3434957502981511e-03 -1.3231421829689978e-03 7.7755658443382458e-01 -2.6946514654780526e-02 1.1166323778804479e+00 1.4291409802187260e-01 -1.4885871771095649e+00 -3.0897348776998429e-02 9.3023192934462602e-03 2.2259178887932260e-02 -6.7624719217741179e-03 -1.3583502249709412e-01 2.0963332410292079e-02 4.0826466904504602e-02 2.9136082183721553e-03 -2.8699083502366288e-02 -6.5250080148369705e+00 5.6040209729605647e-02 -5.2803256054890424e-01 -1.4089769278766369e+01 -2.7473053174658091e-03 -4.1504788470863385e-01 -8.9465006981421721e-03 1.1540265328547248e+00 -5.2292718557214102e-01 6.0336759032237328e+00 -1.2950061700312707e+00 1.2354924368546349e-02 -4.3554098750632597e-01 7.0201900850621432e-02 2.8582048178898276e+00 1.0820752661242354e+00 -8.0448313099506166e+00 -1.2514533356325980e+01 -3.3909227023261745e-01 -1.3917225655363716e-01 4.5944628336411844e-03 1.1038706480285265e-02 -3.2849972808821981e-01 -3.5521365734826347e+00 -1.3901295900765193e-03 3.8442291366839298e-02 2.7607398571454771e-02 -3.4003965270555780e-01 -7.2699930260100851e+00 -3.8629851399007500e-02 9.5973703101536056e+00 -1.3710262191222560e+00 
      </Row>
      <Row Index="2">
        2.1872200614055259e-02 -7.1465619101335420e-02 6.1251817946434861e-02 1.2471059284186689e-03 1.4610036598679241e-02 7.2340785402295795e-03 -1.0809053629450965e-01 7.0263025694881787e-03 -6.6935084421017414e-03 -6.7380988959404159e-04 3.0769151774601581e-03 -2.3537010447735796e-01 -4.2544004850926156e-03 -1.7189895973480446e-01 2.0128399191923108e-02 -1.8577771064988386e-02 -1.0124151592861444e-01 -1.5456353966479906e-03 -4.8709753682547097e-02 -1.5088257695026613e-03 4.2636168731616741e-01 -6.5610778145052756e-02 -1.3267805958695332e-02 2.1164715390102409e-03 -1.3954916410671842e-03 6.6256378614974665e-01 4.9389526486084946e-02 -9.6160939112864563e-01 -2.1307861438554676e-01 -4.5563447638654123e-02 1.5982087857578278e-02 1.4711501075903959e-03 -3.8290390380640339e-03 -4.4717659621960996e-03 -3.1861939588048527e-01 -1.1770050034985761e-02 -3.7186548086742315e-02 7.1630832196830849e-03 -1.6389947947141794e-03 -5.2149717866768697e-02 1.5145465412534687e-02 4.4619274627354816e-01 2.5877848324800112e-02 -1.3055142986769039e-01 -7.0503894309894954e-02 -7.0586200601398530e-03 -1.6825725355192798e-02 9.4809159319424741e-03 -8.3504583295084434e-01 -5.2398072930737484e-02 4.3671601923768719e-02 7.3140875953808960e-03 -4.1770681621936655e-03 -5.8416469624424394e-01 -3.5945425942550471e-03 -4.7837233522834266e-01 1.4361028486674163e-01 1.5139688533014511e-01 7.4524897411971297e-02 -2.4609559719051786e-03 -9.4842832958849134e-04 -1.6230409168693623e-02 -2.3016015075520790e-01 -4.4736812188777217e-03 2.7781082142325875e-02 -2.0398019875977739e-05 3.8070552220413750e-03 8.0297240896292976e-01 2.9657067215085833e-02 -8.0115339811462638e-01 1.7115423244497545e+00 2.1496519574616746e-01 -1.7952286602633122e-01 5.7716990240579399e-02 -2.4772003261355507e-02 -3.2605565026641015e-01 3.8935670176608117e-01 1.1512560459689691e-01 3.3784466944338801e-02 -5.3326026991646285e-02 1.2997243384243969e-02 -5.3428308683495818e-01 1.7214340342469009e-01 -2.9545689036393608e-01 -1.2218208823568077e-01 4.5252438893815916e-02 4.5855408730846467e-02 -2.9978529422997856e-03 2.6338089580569476e-02 -4.7760955680845735e-04 2.9117071860315535e-01 -1.5154988572846056e-02 2.1411395601996223e-02 -5.9210267112170265e-03 7.2390879575198967e-03 -4.2350476855747843e-01 -3.7954244026515356e-04 -7.2702958815960894e-01 -9.8734490129789965e-02 -3.6629383027176853e-02 -1.7352377812381935e-02 -2.1525376926422382e-03 -7.6423617429358659e-03 -1.5372537358319047e-03 3.5448876414960567e-01 1.5457673348089125e-02 -1.3198891706745734e-02 8.2102237341031767e-04 -2.7641969398528869e-04 -3.0682180828581807e-01 -4.7804123034190810e-03 1.6014317288947533e-01 -2.0967981104141276e-02 2.1835124360514394e-02 1.2897137646192235e-03 3.4848583090284400e-03 -5.0971239687312465e-03 -3.5466641851386316e-03 9.3023800530323442e-02 2.4711231334204053e-03 -3.8191368413697045e-02 1.5723466013631885e-03 -1.9944247092047651e-03 5.6443016144442026e-02 3.3969195775217227e-03 -4.6961468632160996e-02 1.0954317247939160e+00 1.7959052066938752e-01 -3.2933738873694346e-01 5.3730558099588085e-02 -7.9515073909831965e-02 -3.2537982176934488e-01 -9.6520057681889704e-02 3.5243321105012382e-03 -1.3913999704173605e-02 -4.4468906892285179e-02 7.9479480600134697e-03 3.9016648404907528e-01 1.9626920029620398e-01 -1.3056892227570676e+00 -1.1236205826201389e+00 6.5623753632119688e-03 3.4732119208244490e-02 -3.1033440807307962e-03 2.2976637058807203e-03 3.3209174299362848e-02 7.6100660748153381e-01 1.1702810029009698e-03 -1.0699564978948268e-02 -8.1912666077651949e-03 -6.7971301580139806e-03 -1.6359261349284973e-01 -1.6602612646302192e-02 1.3297902627173777e+00 -1.1076913867391966e+00 
      </Row>
      <Row Index="3">
        1.6585165812514902e-02 1.1713540979208403e-02 1.2471059605922588e-03 3.4483171826834594e-02 1.9829934886983869e-02 -3.6436489468063575e-03 4.7052604418625510e-01 4.8853533766787693e-02 -2.6852986562984071e-03 -2.1549075698447991e-05 1.1868756203342380e-04 -3.6801072878813956e-02 2.0514086900489704e-04 -2.7060480871281756e-01 2.9227126042267515e-01 3.5656491203375607e-02 -1.1807871274333885e-03 6.5043314811730646e-02 1.8018093374597019e-02 2.8741305924358224e-02 1.5698443202516807e+00 2.3396333334906462e-02 9.9957211733196806e-03 -6.0874364317185467e-04 4.9878491958873540e-06 1.2674469925174847e-01 -2.0133730081415072e-04 -2.4111308233986167e-01 9.6046675253907754e-02 1.8721551094149774e-02 1.1209793364512959e-03 1.8819387630392023e-02 4.0315628797197127e-03 1.7296692824660875e-03 -8.3950282244211569e-02 -2.7206791656794738e-04 -6.5592425968961331e-03 3.7272020590414117e-04 -1.2210082642098844e-03 -8.6067573367094496e-01 2.2307321364713351e-03 1.5216393367446990e-01 -2.2748691411977107e-01 -5.8436001518161071e-02 -1.2915041978289465e-03 -6.0545538322286797e-02 -1.0866745053184496e-02 -7.4068835371666683e-03 -3.1011994960722813e+00 -4.3806745686054693e-02 1.2812597526336258e-02 3.5966935531206738e-04 2.1148546784519138e-03 2.7266552118581799e-01 -2.1139445667266365e-03 -1.7055743114620692e-01 3.6476676457687152e-02 1.4235997889246975e-03 2.6302336115201692e-03 1.3272861301179620e-05 5.7552275737232216e-03 5.4162915307200245e-03 -8.4174929306769564e-02 1.1395220151752929e-02 -5.1602064069514123e-03 3.6583125344188234e-04 -3.7327046554791465e-05 6.9866482105526739e-01 3.8387782477249006e-03 -2.3878791805014424e-01 3.0498828360777659e+00 4.4027646326593256e-01 3.3666560891932401e-02 1.6526704057392599e-01 -2.2344365130435129e-01 -4.6252023853116880e-01 2.2083562791369924e+00 8.4171247791356851e-01 4.5442373507920304e-03 -1.0024367043962288e-02 -3.7179748528716278e-02 1.4161630638351852e-01 -9.3530906450568177e-02 -4.0881606184234803e-01 9.2334343650238293e-02 -4.4138204401640013e-02 4.0348591268536838e-03 -4.4314052261607402e-02 -9.1298345488842469e-04 -2.4092356407354468e-02 5.5070609569682460e-01 -5.4075825353137222e-02 1.0793365617717959e-03 6.5578939040927874e-04 2.0848994272054371e-03 -5.3583230769234858e-01 -1.0950966160058425e-04 -2.0153719973547873e-01 7.2373509921396739e-02 -9.0108783779494564e-03 -1.1023241588556335e-03 -2.8513126094348164e-02 2.4633265420252685e-03 6.0711119158058735e-04 2.6587940748566280e-01 1.7525851742377984e-02 -3.8495272315375653e-03 4.6487457683274725e-04 1.6827763447175904e-03 -3.3081564650195516e-01 3.3025651110379873e-04 2.0955090101399954e-02 2.6075869634041487e-02 1.4774359880564233e-02 -1.7585200977555530e-03 3.5087388295674211e-02 8.4637694833681817e-04 1.5640156902603014e-03 3.8831000994509440e-01 4.8323431372583187e-03 2.1231585318501230e-03 -4.4426967634108233e-04 -1.6257772701584470e-03 -4.0505577372626789e-01 5.1836579393493409e-04 1.9755777564437138e-02 3.6088375323205271e+00 3.9774188420839207e-01 3.3193634492954371e-02 1.7746001727876862e-01 -2.1579538703704898e-01 -4.6782834876188523e-01 5.7630120456240053e-01 7.8053840207493674e-01 1.6369337028329808e-02 -9.3650588641002071e-03 -3.3584291811853004e-02 -1.4452378142419064e-01 -9.5676126542845089e-02 -7.2830705785173955e-01 1.3079551946286019e+00 -1.8319773036392295e-04 1.5313450073620898e-03 -2.7867020653795718e-02 3.6147245937814126e-03 -1.8296982492391360e-02 1.2759714136251323e+00 2.3349322769123382e-03 4.7365827816414760e-04 -6.3487953025445664e-04 -4.7769062449072898e-03 7.8798281576757656e-01 -1.1302279829425521e-03 5.8282896426616682e-01 -2.3682355644753836e+00 
      </Row>
      <Row Index="4">
        -2.5735215957879087e-02 3.6019511922314229e-02 1.4610036593058781e-02 1.9829934849050455e-02 1.0274696939615857e+00 1.9484008177060013e-02 1.9051020443951078e-01 6.9717919167918629e-01 -2.6199288283208243e-02 4.5850171063864728e-03 -1.1463176080811988e-02 1.3652396629093317e+00 -2.5470532179007105e-02 3.5197280502455508e-01 1.7481358386769763e-01 -2.2672830736485361e-01 -1.2922784476794640e-02 1.5005713929241882e-02 1.5423308317738921e-01 7.1370996178968110e-02 -9.9434562018175265e-01 -5.0111979952292995e-01 1.4793007780276923e-01 3.8510586363686332e-03 1.9103416806042781e-01 2.9724084918114215e+00 2.5365376969493335e-03 -2.2415056939478419e+00 9.2300521319100604e-02 -4.9626199337036395e-02 4.2824830611308366e-03 8.6612518026158800e-03 3.9490087990991074e-01 2.4833225659724799e-04 8.4251503024216756e-01 -3.2441937605853682e-01 -1.0658134003442676e-01 -1.7780076293417671e-02 -5.9304456086455480e-02 -1.2080112713871074e+00 3.0586530234316033e-02 1.1616568765312130e+00 -2.9156077038139783e-01 7.6339882524201791e-02 -5.7263282937950202e-02 -1.6649519209731022e-02 6.1183705736212630e-02 -2.0033810623000525e-03 -2.5842343865481552e+00 6.0842772262394151e-01 7.4362010012241408e-02 -1.4458359674239533e-02 2.2117193676328998e-03 -1.0443290526958435e+00 -3.5871565933178647e-03 -7.2271861262773585e-01 1.7207618911989964e-01 -1.7522182118592389e-01 9.8010056587898117e-02 8.5847121539343110e-03 3.4580389632060515e-01 5.3421430230104372e-02 -3.8270802427569339e-01 2.0764848788844498e-01 9.0806926947538391e-03 -4.0125853823777501e-03 -3.4249243572905881e-02 8.4253163344335746e-01 1.5766860031087550e-02 -1.3503757787579960e+00 2.6066518247442279e+00 5.0114643292477934e-01 3.0029399206812285e-01 8.5219897162977773e-02 -8.3235495704190088e-01 2.7592964670100186e+00 2.5242393913221770e+00 -2.0535651059395184e+00 2.1088210469648705e-02 -1.0379664043668260e-01 -2.6980730528069313e-01 3.0307105627702491e-01 2.3582357096769990e-01 4.7790987359772164e-02 1.4671809903458666e-01 -9.0322013518854327e-02 1.6213721540541355e-02 -9.8736498468447280e-03 8.1078215396643127e-01 -1.4505500616783448e-03 2.2555968560520112e-01 -2.8085327978412045e-01 9.8705880216156811e-02 1.3703617472803832e-02 3.8362497908762817e-02 2.9046328300765367e-01 -2.8395286963253975e-02 -1.4333411524131927e+00 -2.4686395933643190e-02 -1.0040606136017035e-02 -1.0770797714905085e-02 -3.5105203883025776e-03 -6.5480074042167519e-02 1.6251973196673979e-02 4.7611774838220094e-01 8.0541261392045516e-01 -1.6595022702513430e-02 -6.5288382398358182e-04 5.5421196915574839e-03 -1.6877323829685338e+00 -1.2796410934391853e-02 1.9211346936040263e-01 1.6137773898385488e-01 8.0785773808162584e-02 6.9184002382243100e-03 5.8243835314128797e-03 -1.6342441902886143e-01 -1.9287168018896253e-02 1.9064996821817420e-01 -4.7302571537025773e-01 -6.1884491299578612e-02 -3.6314174006727654e-03 -2.3773945095016683e-02 -1.9586756894719883e+00 2.2182776465224423e-02 -1.1663536936594254e-01 2.1147254829005386e+00 1.9412001634986198e-01 2.0905494779453737e-01 8.2554065768289719e-02 1.8519670571001218e-01 2.7670226234432351e+00 -3.0396602386370186e-01 -2.3170684688284515e+00 1.4735188881136180e-01 -1.1728096521847296e-01 -1.1596480682930026e-01 6.8124249070663723e-01 2.4612604248584674e-01 -2.0353582408720676e+00 -8.3462511133777884e-01 3.5203247190956563e-03 3.8945937645443657e-02 -7.9615927713858857e-03 3.9556684904381850e-01 -4.6353390104008622e-02 8.7109087738644464e-01 8.2517751134056724e-02 -7.6030354547249801e-03 1.5566205470597212e-02 -3.2479595704906417e-01 2.0242585939891082e+00 -2.2244031355099027e-02 1.9818282591844580e+00 -1.1925565160726936e-02 
      </Row>
      <Row Index="5">
        -5.0560851281602481e-02 -6.3878758732698770e-02 7.2340786283463581e-03 -3.6436488924573851e-03 1.9484008250860784e-02 1.9760646157696909e-01 5.8021510296022405e-01 2.9900682201239554e-02 -7.4020128649436856e-03 3.0420036077488735e-03 -1.3605611034924105e-03 -7.1730780021425744e-01 8.6286291468690504e-03 4.0975913738849751e-01 -2.5478204762046053e-01 -1.1840050785827522e-01 2.2695736730244179e-02 -4.3556525247677703e-02 -1.0698238747415735e-01 -5.6078902908307737e-01 -2.4452862322877666e+00 -2.6176478143830251e-01 -6.0946430135211740e-02 8.6925340100232852e-04 -1.2725869781345860e-02 1.6643489360543064e+00 3.3267313088466664e-03 -4.6343198544096031e-01 1.1653176760968678e+00 -3.9356262041431632e-02 1.0699919994057198e-02 9.1488913649050863e-03 1.9289627207574128e-02 5.7247145919576692e-02 5.1287663927447369e-01 -2.9642477831749049e-02 -1.6177791750371092e-02 1.1563813750210823e-02 -1.1337952782845750e-03 -1.2219983340426666e+00 1.2843859607496528e-02 1.8980078876709211e-01 -8.6493278804571883e-01 -6.1523284938770809e-02 -1.5547139635181543e-02 1.3859590294950035e-02 -2.7790685580275910e-02 -1.6977668540091309e-01 -2.1289206670625846e+00 4.9925803074560585e-02 2.5018099591426361e-02 1.1649574514085288e-02 -4.5736644652132931e-03 1.5013603577352796e-01 -1.8755166768933598e-03 1.7664216261123666e-01 2.7402014187342538e-01 6.3918402522153361e-02 5.1155554437488607e-02 -3.1214953363787722e-03 -8.5341989167563980e-03 -2.0523107405438761e-02 -2.0339942071960762e-01 6.8545246454245444e-03 9.5073621880873045e-03 3.5388472758068230e-03 -1.0825130308295106e-03 -2.5386793548584663e-01 -3.3763822080841374e-03 -7.6188672580495886e-02 -5.7866407748656545e-01 -4.8553818116542882e+00 3.0934301282175775e-01 -1.5932911913310219e-01 4.5492125663131222e-01 6.5044174790009845e-02 1.6036634470123894e+00 -1.9564165975121504e+00 -1.1650894422966544e-01 -5.3079563615168183e-02 -9.2673686863102511e-02 -6.6381438653715463e-01 -2.8825546908624444e-01 -1.7592881940697542e+00 6.7924689653407588e-01 1.4900570198032664e-01 -1.0104784960976276e-02 2.8301543027862301e-02 7.4953198914315275e-02 4.3480745434098156e-01 3.7118073761864689e-01 9.2462284829092134e-02 9.4764596894023334e-03 -3.2773331318261736e-03 -2.6041798036855225e-03 -5.3786977573210315e-01 2.5176768902151887e-02 2.0102985542144902e-01 3.4458652250977551e-01 -3.0758429638617524e-02 6.8622764986511313e-03 5.9785611909071853e-03 -4.8778028226132975e-02 -1.6197368908934562e-01 4.0163152490148707e-01 3.7331910428583054e-02 3.3973205110792272e-03 1.4921734279807596e-03 2.0412358639690462e-05 -8.4006748838990397e-02 -1.5325295785580405e-02 -1.6506328468875181e-01 1.5301274517650287e-01 1.3071103631450740e-02 -4.3096591427667103e-04 -1.0909502120956992e-02 7.4789512933079345e-03 2.4762737421594485e-02 1.2291871571319835e-01 -4.0159058275644588e-02 -1.3082682821965596e-02 5.5922514130012351e-04 4.9641876927000901e-04 1.0601126441260078e+00 1.7946480482780112e-03 -1.9899331872609310e-02 9.8851033176633329e-01 -4.8661551109208361e+00 3.0527101774110205e-01 -1.7010515343885424e-01 4.0510619935699665e-01 -1.0141867660219006e-01 -2.7692176777096180e+00 -2.0712612708898694e+00 -1.8633345014508085e-01 -3.8237156737643330e-02 -1.1089037103386033e-01 1.2677639084648717e+00 -2.6760694649484179e-01 -1.2698494504684961e+00 5.1123710269975788e+00 7.4237408122927295e-03 1.7144582486572746e-02 1.2806321563741556e-02 1.2615962878603976e-02 6.8823522046297292e-01 4.0935102065449003e-01 1.0481944947509389e-02 -5.5892864087958268e-04 -1.2088836824841210e-02 7.0804973751775755e-03 -2.2005021417662074e+00 -6.7628591242834026e-03 -8.7223463906483478e-01 -6.1816190521506638e+00 
      </Row>
      <Row Index="6">
        9.3589506455155060e+00 -9.9132621244916663e-01 -1.0809053273474904e-01 4.7052604325486413e-01 1.9051021011345698e-01 5.8021508942044875e-01 3.6000827137099054e+02 1.3604052222328111e+00 -3.3548787100596655e-01 -6.7033088982868638e-02 -3.5805066278724623e-02 8.4625321283820085e+00 -3.7267813612608847e-01 5.1417791619290725e+01 -4.0118408256122962e+00 2.9410718394687283e+00 6.0824883491607329e-01 3.3730277846230572e+00 6.0830101558446714e-01 1.1240416400290065e+00 5.4550757293835872e+00 4.6420570541210848e+00 -3.4606737122781448e+00 3.1128736544257590e-01 2.2872835924986679e-01 -7.6084183027485011e+01 1.4550936674731019e-01 1.9323299788191374e+01 -1.1673243057017065e+02 4.7282382347901191e+00 -9.3100123414834757e-02 -3.1178271587345235e-01 -1.3105276523530169e+00 -1.2121892839076354e+00 -9.6959300145795311e+01 -1.8026459427129193e+00 1.0135023822435270e+00 2.9121955576699415e-01 -1.0526195631284026e-01 -1.0251602276285121e+02 8.6590204085539302e-02 1.4554286223995931e+01 -1.1153028460483483e+01 6.8857167596520243e+00 5.6951243062914736e-01 -1.6349931917425393e+00 -1.3535223058065879e+00 -1.0603413073415884e+00 -3.2883936116072067e+02 -3.0760602159009398e+00 1.1011059530543199e+00 1.4408528482134678e-01 2.7347154062271595e-01 7.0098953943720062e+01 4.2250982060861131e-01 -7.7553449281422218e+00 -7.7923219121674848e+01 -3.0540143119502625e+00 -3.3977188973394545e-01 -1.2615336306551361e-01 -8.2238181387869577e-02 3.3788340617594892e-02 -1.1709055686347241e+01 -7.5187249321073013e-02 -1.3254659132032209e+00 1.0350954143776245e-01 -4.7528467048097024e-02 -9.1625646809566206e+00 1.4042691466583790e-01 -5.3799476725719728e+00 7.9194528359944309e+02 -4.0350911345015663e+02 -1.4572579663259074e+01 2.5263083968953488e+01 2.5830842703906882e+01 -8.0145265290466696e+01 2.8846415012785957e+02 -3.3596619870292493e+01 -6.9399568844614819e+01 -2.0492053144961435e+01 -1.0289129114419667e+01 5.9593392788489837e+01 1.1000468422013508e+01 1.5595985633217117e+02 -2.1680843980302392e+01 2.5132882807502881e+00 -4.4582085661031989e-01 -9.3393821883999006e-01 2.1261303076668536e-01 7.9065980408410397e-02 9.3760281818394688e+01 9.7422111122103061e-01 2.6306891989648560e+00 4.9170353297877112e-03 -1.0222181463651364e-02 -1.1964951002698513e+01 -3.8268819521324737e-01 2.3441996756995060e+01 -6.9308868821699107e+01 7.7358459226771537e-02 6.0579086394638604e-02 -2.5343968089691771e-01 6.8134201719741783e-01 -1.7117547623577944e-01 2.8864095774481655e+01 1.5647760987329562e+00 -8.8946735225690077e-01 1.0361848331748907e-01 -5.2954869770764079e-02 8.6842311352145032e+00 6.5371510560135557e-02 2.6112754195413601e+01 -1.9216431115462143e+01 2.3856755233004634e-01 4.8001879375011436e-03 8.2653687148247157e-01 -2.9854794841794430e-01 1.7337826466275619e-01 -2.6734388662162303e+01 -6.2238345507978288e-01 -5.9858455455582249e-01 3.6022923800253681e-02 -2.7484202745019629e-02 -9.3867728020586128e+01 -3.6451371019558046e-03 -7.0634927820366578e-01 8.8359126448186441e+02 -3.8881489607222670e+02 -1.3802702563518082e+01 2.6632458954415664e+01 2.4886125562841848e+01 -8.0561977892960655e+01 -2.8009159074672846e+02 -3.1527833144668250e+01 -6.8765099198829802e+01 -1.9755063563293753e+01 -9.8981770952206887e+00 -2.0552971964945755e+01 1.1443099435659875e+01 2.1135422079717219e+02 2.1494676424287672e+01 -3.2424149120789325e-01 -2.2301472077346257e-01 -1.0045651845819119e+00 -1.9100894125055490e-01 1.5357757370527114e-01 3.4762287790154181e+02 -1.3395825935517358e-02 2.5003654378805695e-03 -2.0427588742229885e-01 -2.7282885240742588e-01 7.9647175798148282e+01 -5.1790243598678259e-02 -5.1621698096081680e+01 -2.3665260054108859e+02 
      </Row>
      <Row Index="7">
        -3.4104923586562563e-01 -2.7046748525947351e-02 7.0263024670667688e-03 4.8853533890401479e-02 6.9717919157908137e-01 2.9900682899878461e-02 1.3604052079567737e+00 3.1000604620364807e+00 -5.8781947286156822e-02 2.9398970871595933e-03 -2.0538904687268334e-03 5.0369807216411573e+00 -1.7767899536378497e-02 1.7816627597347736e+00 3.4403908268725303e-01 -1.9430590214214899e-01 -1.1485855106542694e-03 -2.3604261607582555e-02 6.8146543245729563e-01 1.1082962890220173e-01 -5.1385103734014024e+00 -3.6236117600474791e+00 2.6689184007047695e-01 1.9171021160795030e-02 -3.7970064812451201e-02 7.9425051297716465e+00 -1.8874775078852934e-02 1.5219394670053177e-01 1.8354786607009679e+00 1.0193852398977146e-01 -1.1115773106304282e-02 -5.9221692611587384e-03 2.7410988714018208e-01 2.0558331429504761e-02 1.8002632562662209e+00 -9.5393123468369800e-01 -1.5084933955521562e-01 8.0596551868633310e-03 -1.8148619709918826e-02 -1.1249557435635779e+01 1.4672058571341587e-02 -5.0490605829175772e-01 -8.2851006531676497e-01 -3.5406021800937604e-02 2.1288874196392041e-02 -2.1056321293785082e-02 -6.8686331667329958e-02 -4.4658405073155327e-02 1.4523674280124546e+00 2.9965251479379980e+00 1.1367423176597580e-01 1.1362160404281190e-03 2.2887577308128640e-02 -8.1730808237260817e+00 2.5360103880056002e-02 4.0546770936066423e-01 1.7286102740566456e-01 2.8588422210635622e-02 2.8478683099179027e-02 2.0899117658100375e-02 2.0748984787410485e-01 2.6678373794284265e-02 1.5236055999131912e+00 1.1554477764229532e+00 6.0031876215561157e-02 3.4481527532135951e-03 -6.7080328971130740e-03 7.9816782956487202e+00 2.3055687357999080e-03 5.9150633128944374e-01 7.0028846932535842e+00 -4.2160199976061872e+00 -6.2309341165976051e-01 4.2165452909967216e-01 -4.1111064658603613e-01 -4.2856630082464819e-02 -1.5874158614503342e+00 -6.1677261506425718e-02 -1.2506817343534258e+00 -2.0798555197152463e-01 -1.1570887763235446e-01 5.7549697072508366e+00 1.5052161401267294e-01 2.5492905938118935e+00 1.2459463518941889e+00 -1.3700435101512820e-01 -3.3283919932836303e-02 -5.7218665635193983e-02 1.0705036677593098e+00 1.2853217535132577e-03 -2.7888397534183662e-01 -1.3719600372413896e+00 1.8007029535069774e-01 -7.4956410108211954e-03 -9.7848781149148661e-03 -7.7692399302872559e+00 -1.6575604321806825e-02 1.3443428728750455e+00 1.2056657862014486e+00 -1.0617364022095047e-01 7.0401183918544774e-03 -4.5043835953320760e-03 -3.3052716748630673e-01 -4.1603031132284723e-03 -4.8253871683653876e-01 3.7417793974773277e+00 -1.2339772736876825e-01 -7.2897672905848504e-03 2.1969521968119500e-02 -5.3707247456459299e+00 -4.1410528216672248e-03 7.7771813829580339e-01 2.0813870879194951e-01 1.0597532585661257e-01 -9.0952118029147509e-03 -4.6828535734095330e-04 -7.1718850033052381e-02 -1.1672200258537643e-02 -1.3304133858433453e-01 -2.0624808679035329e+00 -5.2486173853185339e-02 5.9380036007989478e-03 -1.4419853040346858e-02 -1.6061732551327395e+01 1.0178917732798541e-02 -1.6459371343222173e-02 8.8599517507147318e+00 -4.3936701240871159e+00 -6.5012366779844077e-01 3.2307327065587699e-01 9.6883834988953277e-01 1.2126592233751898e-02 -2.6824990462888367e+00 -1.6838255997102802e+00 -1.0623362733050705e+00 -1.9502765972078584e-01 -1.3971189398060413e-01 -4.9329999095729136e+00 1.6258644403737646e-01 5.4180903187310001e+00 4.9870576066189694e+00 1.0807232483712589e-03 5.4756100775200725e-03 -2.5573558441145214e-02 3.6491178041368133e-01 -2.0841077876106853e-02 1.9217489061327162e+00 3.4088963905199965e-01 -3.1156031735132469e-02 -3.6821726168308191e-03 -1.4178029000799487e-02 2.2439728064287685e+01 -1.1811275006550060e-02 -4.0853460628403839e+00 1.9601612117436339e+01 
      </Row>
      <Row Index="8">
        2.1905029648280561e-02 -5.7347851950453332e-02 -6.6935084023931743e-03 -2.6852986674770207e-03 -2.6199288251874984e-02 -7.4020128806111529e-03 -3.3548787126244406e-01 -5.8781947786859301e-02 4.2881078514451332e-01 2.7225227660240591e-03 -2.7866936637969543e-03 1.8025595596373023e-01 1.4461203498151325e-02 -1.5993030507409971e+00 3.1379478569931729e-01 7.7687350203859140e-02 -2.2791541512035222e-03 -2.7516325095177398e-02 -2.0716235750250209e-02 1.0044018897634368e-02 9.8588702351381485e-01 1.5490132618282443e-02 -3.2560440227100484e-01 -6.5532153423381138e-03 1.2563848258447292e-02 5.0503544165263747e-01 -7.2162094239851191e-03 -9.5398163857725726e-01 4.7579595134498376e-01 -1.0542736578463435e-01 -4.4188898396882101e-03 7.3194259873973419e-03 1.5212058698703840e-02 1.6319401081517498e-02 -7.6532598800531793e-01 1.1036396045432131e-01 4.5369269643490051e-01 5.4056753894865146e-03 -5.4465478767946555e-03 7.7679318733402170e-01 1.0042908633747663e-02 7.3625622123503986e-01 -2.4902222686253911e-01 1.4345011701140650e-01 8.9671692496578227e-03 1.2005075941587371e-02 2.2445801326529673e-02 -1.2464782342549080e-02 1.3710984699173820e+00 -1.4157715330822018e-01 -4.9316152975652261e-01 1.4170555799261110e-03 1.1075191666379608e-03 -1.1513462337133831e+00 -1.2398292596254339e-02 -1.1675775581634733e+00 -2.1047546390666749e-02 7.4943830635730846e-03 -3.3628946169293045e-05 -4.8092979274644027e-03 1.9090860859843559e-03 -7.6586393536930211e-03 1.0958246218980522e-01 -4.9535920035447434e-02 -4.3704180925953678e-01 9.3838895139394547e-04 1.4901493640898759e-03 -1.1453861910283081e-01 -1.8893720351006584e-02 -1.3267312203752386e+00 -7.0871367536776031e-01 2.7304796661094506e+00 2.6732095917130444e-01 -1.2592042090127548e-01 -3.7167591828864099e-01 3.7223904910489662e+00 -2.8669191343941158e-01 -1.4833537024721661e+00 4.5863303628404312e-01 7.2489677407228531e-02 1.1647510136911594e-01 9.4822714146715015e-01 -4.1635658464970721e-02 -3.3489328721634898e-01 1.8170678830937348e-01 1.8817091094577892e-01 1.4285340193893541e-02 1.3142037415497429e-02 -9.7281110747058044e-02 -1.7933211913685326e-03 3.1801605968273916e-01 3.9464778894187827e-02 -5.0864526365359275e-01 -4.1713806107002462e-03 -1.2136739227876590e-03 3.0437830819286660e-01 -1.9376874910459380e-02 -1.6105835308678169e+00 2.5126629236430365e-01 -4.8426847117521127e-02 -8.6689792265214564e-03 2.3514303791652435e-02 2.8019046401731258e-02 1.3659978756192867e-02 -4.2616800420527168e-01 -6.0251789749972764e-02 3.0051594405993515e-01 1.7355675319969364e-03 -6.9883830981252483e-04 4.8949152664863504e-01 1.3102422381141517e-02 1.0234946482606566e-01 4.7264961173692832e-02 -7.5612739246351465e-02 -1.0414118434710143e-03 -2.2740064471729426e-03 3.0664244802564640e-02 -1.4672070592494507e-03 -9.1832314582188346e-01 9.0285240186107132e-02 3.8418627840220576e-01 2.0060768467749669e-03 -9.5386408647967109e-04 -2.1044898553179792e-01 1.5026415653232187e-02 -6.5964515951985347e-01 6.0120216346371080e-01 2.9499514326663459e+00 2.8015187996535895e-01 -1.2411565883446520e-01 -4.1990811077081552e-01 3.7358030221073220e+00 3.6726618524967547e-01 -1.4690215557137529e+00 6.1033092320812421e-01 6.8941426702786010e-02 1.2053287242392853e-01 -2.6171993908974400e-04 -4.8547967029583555e-02 -2.4215859554652281e+00 3.0549437093435361e+00 -3.6699553662187072e-03 -4.7359829737189238e-03 1.7784611131642192e-02 -4.0833541230664572e-03 -3.7680088959442005e-02 -9.5358981800411391e-01 -9.1474348590404042e-03 1.0685043612412538e-01 -4.5281405578624810e-03 -1.2954498601860605e-02 1.5193365471850067e+00 3.0419811131810106e-03 3.8567587989796559e+00 -4.3951279507465264e+00 
      </Row>
      <Row Index="9">
        -3.4626976586435987e-03 -3.9375462886486190e-03 -6.7380989182663775e-04 -2.1549076276883294e-05 4.5850171040176541e-03 3.0420036095913927e-03 -6.7033089056039330e-02 2.9398970983387416e-03 2.7225227637769911e-03 3.4918135117406029e-03 7.0452603040290526e-04 6.6869028972860178e-03 9.2696000995632277e-04 3.6133986877667071e-02 -4.9234266647758540e-03 -1.4045856991729957e-02 5.3560976578481689e-04 -3.3292816773030816e-03 6.1342850922414581e-03 -3.1866309669980365e-03 -3.6110851767166344e-02 -9.5448393298766948e-03 -2.0391638516421839e-05 -3.1628028749327939e-03 -4.4287893637300242e-03 3.1235108247219756e-02 -2.4877194679864259e-03 -3.1482737855330845e-02 4.2528387130613021e-02 1.2936465393776981e-02 5.0820434647314569e-03 2.5063518393648836e-04 -1.3913449591723853e-03 -9.9791627034260220e-04 4.7231249999463598e-02 4.5929541479986114e-03 -7.4834328600711757e-03 1.1115722456945388e-03 4.5261698086708664e-04 1.7064697624471137e-01 2.3974898383561510e-04 -4.7074355429314957e-02 -8.8766733415908128e-03 2.1347799448368829e-02 7.7511069391477559e-03 7.9850613234227000e-04 -6.6614707953337763e-03 -3.1549601622534720e-03 -5.9194148910135524e-02 1.0180351377248931e-02 -1.4420127514381386e-02 -6.4993053148841486e-04 -5.0669296024537377e-04 -5.8727852025434402e-02 4.0238873794555367e-03 5.1532163459896752e-02 4.0708456524055026e-02 -9.6171869492333011e-04 -1.8951474065480325e-03 1.2623044559552897e-04 -1.6321997801293535e-03 -1.9597169480543037e-03 -1.5484009258444481e-02 5.1703016017015310e-04 -4.8064171326932942e-03 6.4671727822631741e-04 -5.6188932988855949e-04 -7.9328557385902609e-02 -4.0120219800037060e-03 2.8748496725036737e-02 -1.4165318607995214e-01 3.6823321874685205e-02 1.8852669234181309e-02 -3.6122755453101840e-03 -9.6879492624863423e-02 3.4536314982894412e-01 8.1859744319059180e-02 -2.4412384691818834e-01 6.7933200589121445e-03 4.9265056853606045e-03 6.4830615611703672e-03 5.8303182757182270e-02 -8.1733881474108025e-03 6.9120490577734672e-02 -5.8059754816336406e-04 -7.2747087167381042e-03 -5.3766808308308069e-03 6.9625248358783087e-04 5.4782233691159903e-03 9.9552700165878444e-03 1.0536618240801765e-03 -6.7271876631518554e-03 7.1595614413277886e-05 1.1435338071754666e-03 -2.9075519300215220e-04 9.2628123866005829e-02 -2.6450763240954566e-04 3.0016271734920719e-02 1.9944731226621770e-02 -1.0317115171306693e-03 8.4440806247087184e-04 3.5625997481641042e-04 -2.1983080216413792e-03 -1.6926119942419467e-03 3.4662421662215948e-02 5.2308054600062855e-03 7.8223907768671091e-04 -1.8298476910541582e-04 -9.9765695480754073e-05 4.5608648370262017e-02 9.6483329946355466e-04 -2.8248863022332205e-02 1.3444677203563300e-02 3.2081425624913736e-03 1.2080988270563317e-03 -3.7587607093356380e-04 -9.5978804466895912e-06 -1.4789916137165461e-03 -6.9937074160080215e-03 -1.2562662085870702e-03 9.8852305141330639e-04 1.4565667889710469e-04 4.0469238067335797e-04 1.5462211404411619e-01 -3.0761091382740030e-04 1.6112182717610057e-02 -2.2997034826029195e-01 5.1576751349322131e-02 2.6900075831247764e-02 -5.6372155675678895e-03 -9.4719545415889436e-02 3.4877511473589812e-01 -1.0899876040386780e-02 -2.4393807735219469e-01 -3.6335777797152384e-03 1.4514978936603050e-03 2.5059324798208989e-03 7.2827551418754410e-02 -4.4820191437186527e-03 -5.7603899732264208e-02 -8.8889889385847964e-02 2.3073157283730501e-04 -2.3013030547148613e-03 6.6829545269371689e-04 8.4994124573791081e-04 6.2283131641308487e-03 -1.2354834292074758e-01 8.5079006615888450e-04 4.4140370350953962e-04 3.5210572406985043e-04 4.5315638863547697e-03 -1.0098039172710929e-01 1.5128950742004067e-03 -1.7179032446659120e-02 1.3752174517935498e-01 
      </Row>
      <Row Index="10">
        7.8158879365171074e-03 6.6580021212523377e-03 3.0769151750652535e-03 1.1868755901645045e-04 -1.1463176082278786e-02 -1.3605611097477488e-03 -3.5805066709141187e-02 -2.0538904380112376e-03 -2.7866936677697351e-03 7.0452603054364500e-04 3.7557211395195540e-03 -7.4045980942514689e-02 2.1839929144811593e-03 -4.6364056844586166e-02 4.4405411604278022e-02 -1.0963029618615806e-01 -1.9546456267119173e-03 -2.5415866083786862e-03 8.7740477723370729e-03 1.3689405119791451e-02 9.5568155335484684e-02 -1.2200834654850674e-02 -8.7597251354995555e-03 -3.9333016168268302e-03 1.1801999599628239e-03 -2.9434458989184620e-02 -3.0500256946106529e-03 7.5430408435177343e-02 -7.9040124661314048e-02 1.8989201081170071e-02 1.6821679187906757e-03 1.6594267126740191e-03 -9.0368036633057362e-03 -2.5832386081749976e-03 -9.9383464654664411e-02 -1.8773632152027202e-03 2.2528278282806635e-03 6.6936802264515858e-05 1.7628692653185233e-04 -4.8310226918374610e-02 2.2462423918073347e-03 6.6348864735017998e-03 3.2905091963240735e-02 1.1335430090264470e-03 -9.3224880215393257e-04 -7.2015471070871473e-06 -2.9208649462852789e-03 3.0443860022828866e-03 -2.2100889125058737e-01 -3.2301848168983308e-03 1.1519626086119727e-03 -3.2948352343807000e-04 1.4943668235193003e-04 5.0551235391803395e-02 -9.9155382021604010e-04 -5.0149207528241202e-02 2.2972901692596082e-02 -3.5295978624015033e-03 2.4362083648504069e-03 2.0352154288929419e-04 -1.0860545274923316e-02 -3.1334528230743917e-05 -2.2978723585516558e-02 -3.0959102585278696e-03 9.2347403906409518e-03 -2.0506391151680877e-04 1.9260389892629707e-04 7.0505970590446054e-02 1.8921936023900163e-03 1.7777732303615110e-02 -8.6329122602131214e-02 7.9172031711352897e-02 -2.7746976060690261e-02 2.5604584384159891e-03 -2.7613483398082617e-03 1.5160475055366238e-01 8.2138367675296767e-02 -1.0396577180661233e-02 1.9635824493807935e-02 -5.9791551171797189e-03 1.5063012686997797e-03 -3.3531513751806408e-02 2.4700926360691735e-02 -1.1520969971847056e-01 -7.9308615504306568e-03 -1.5092924933083264e-02 4.1137792149273890e-03 -1.8834789136070416e-04 -8.6638467493867118e-03 -5.7437163672719839e-03 4.0477023434852988e-02 -4.1535113759130077e-03 6.9036655742552369e-04 -2.5497055175704433e-04 2.0565168620641735e-03 -5.9093670360399031e-02 -1.2222242597645710e-03 -1.5262882940462769e-02 -2.4093730596815854e-02 3.4225851354886816e-04 -6.7499232036986705e-04 1.3453579194843096e-04 2.4600043824230932e-04 2.9272611885622270e-03 5.4670175029748691e-02 -1.4415447640969085e-03 -1.2460272130850911e-03 1.4908349760941087e-04 3.2482827477782819e-05 -7.0077126568662607e-02 -1.8884179720715481e-04 8.1032058801085438e-03 -6.5493457450725989e-03 1.1145671211942574e-02 -8.9525243912108067e-04 2.3014137194546272e-04 1.8455823258670891e-03 -1.0051012191564449e-03 2.2109567216583026e-03 3.6369586810695922e-03 5.8545263602310807e-04 1.8604831778671824e-04 -5.5578445843375811e-04 8.1946248048549997e-02 8.9182825410092314e-04 1.0108703250914508e-03 -1.6082582807579296e-01 -2.6431402894824263e-03 -2.8833837626292366e-02 1.4299823967717706e-03 -1.2990013061589954e-02 1.5689933740550710e-01 -1.4578656992701258e-01 -2.6222071235378758e-02 6.4025111741838683e-03 -1.0110207793652225e-02 3.4807735560254908e-03 -3.0811410020817220e-02 1.9408752118589712e-02 -9.2771479470262097e-02 -2.2243537844652450e-01 4.1128177876654896e-05 1.3450046918182849e-03 -1.8317264410966459e-04 -5.9546508087977559e-03 -8.0466094091772664e-03 3.1086498504611041e-02 -2.6223602581607042e-04 -4.5813551411080572e-04 3.7150244154615468e-04 -2.3300496954558637e-04 -4.1613551235136770e-02 -9.4705346475956146e-04 3.8816969012876561e-02 1.0151960793493965e-01 
      </Row>
      <Row Index="11">
        -7.8011915693059564e+00 1.2177954505896196e+00 -2.3537019345894805e-01 -3.6801049542191322e-02 1.3652395668331132e+00 -7.1730743617808912e-01 8.4625167404301465e+00 5.0369808342391709e+00 1.8025619056425057e-01 6.6868996980207311e-03 -7.4045998587032535e-02 2.1949293572753668e+03 4.3592386991984103e-02 5.6196882571008733e-01 1.2020135627446165e+02 -3.3775618340157108e+00 2.3578701465728963e-02 8.1989236690640088e-01 6.7812486886028172e+00 2.3537901906293461e+00 -1.0751026040164344e+01 -1.0354822082429191e+01 5.4452362121221831e-01 8.1664379496734218e-02 -1.8439650058827439e-01 -1.3596720182707681e+03 -1.4218232183780050e-01 -8.6511260997277347e+01 -2.5153838161761975e+01 2.2001187142068757e-01 -5.7028767536712088e-01 -1.8492031061431752e-01 1.1465691590067995e+00 -8.7512737448617406e-01 -3.7930059551779408e+01 -3.2061861673855336e+00 9.4980537822078337e-01 2.0257219137617621e-01 5.3964374526824926e-02 3.2517422773629778e+02 -2.9004777948243904e-01 5.3964423138289966e+01 -3.0188655929468410e+01 6.0996030952338298e+00 2.7023443170613670e-02 -8.8020878108606704e-02 -1.1876559767819612e+00 1.4229933505851848e+00 1.4961297353511371e+01 1.0790849637781710e+01 -1.2672389384853395e+00 3.1760933259834906e-01 1.5631522882341481e-01 -2.7980246643443884e+03 4.8264444473727558e-01 -4.4818150763072204e+01 2.2626578726367555e+01 -2.3426533303624701e+00 -3.6588381250133883e-01 -5.4860572086338488e-02 4.8729905930625633e-01 -1.2842649699956399e-01 2.1624020508208865e+01 1.5548745154139096e+00 -3.9877065724459604e-01 -7.3804954303378550e-02 -1.2877974085391958e-01 5.1852644155553071e+02 -5.4700319128015895e-01 -7.2560121741441563e+01 7.1856462898686664e+02 -4.8006708618310176e+02 -6.1583882374356463e+01 3.0059014897911773e+01 1.2997912631762293e+02 -9.3616355633572454e+01 -2.1269549371171837e+02 6.8401114030001668e+02 -3.8816279143638084e+01 -1.4734629143661117e+01 -4.9087445509747596e+00 4.6698133377146769e+03 8.1824777307926961e+00 2.7000148105804339e+01 -3.2666408822594573e+00 -1.5668640127559472e+01 -1.3382329250276881e-02 -5.4011387094969576e-01 5.3274388664779071e+00 -2.5493172114235039e+00 -2.5061937614089729e+01 -4.8260881817481049e-01 2.3922777276426910e+00 -1.9493233224674172e-01 -2.6711969513799694e-01 -5.6503477737077924e+02 2.0144078867427684e-01 -2.8480233751943938e+01 5.3087296392993633e-01 1.2352660540289153e+00 -1.9949831998104084e-01 1.1301548257305583e-01 -2.3088899207706035e+00 3.7092273508502466e-01 -2.4346867321990430e+01 1.4139149536065155e+01 3.2797896961984430e-02 -5.6492790365040783e-02 1.0578979537267830e-02 1.4134541891515255e+02 7.8217962004562352e-02 1.3613205194103882e+01 -1.7471075290585365e+01 -1.8910411758580947e+00 -1.1462562405476712e-01 2.3304635905271598e-01 5.6860168737802597e-01 4.9677717083651862e-01 -5.8950923407273891e+01 -4.9183565587846712e+00 -5.4938781286756144e-01 1.3398119894212340e-01 6.3663331544355939e-02 -3.3190361865891068e+03 3.5025023988035878e-02 -3.3166850653738109e+00 1.0891744005721885e+03 -4.9229695750434860e+02 -6.1945965620705998e+01 3.0344419874285176e+01 1.3928173563136849e+02 -9.3336532440844110e+01 -8.5829429672797446e+01 6.8750848025533878e+02 -3.6403688459332493e+01 -1.4358960854821351e+01 -4.9583512944558725e+00 -8.2151101011037099e+03 8.8470851347445265e+00 -3.1430638495944343e+01 7.8975651295502996e+02 -2.2676269368505153e-01 -1.4207473179452962e-01 -1.2269386551199091e-01 1.6905908955369064e+00 -2.5805647075518525e+00 3.2044777272305316e+02 1.5624371038790670e+00 1.1700239427729534e-01 -1.4800012136402074e-01 2.5971281776655858e-01 1.3221987125514641e+04 1.5880657154558636e-01 7.0777021252934389e+01 1.2038920620466679e+04 
      </Row>
      <Row Index="12">
        1.7926065184077800e-02 -4.1240857036822121e-02 -4.2544005031284193e-03 2.0514085496481371e-04 -2.5470532197058811e-02 8.6286291400288206e-03 -3.7267813899271118e-01 -1.7767899393921968e-02 1.4461203487690533e-02 9.2696001059584202e-04 2.1839929134979336e-03 4.3592461070602440e-02 2.4692428312254946e-02 1.3168351367508824e-02 -1.3179131922831111e-01 -7.5268369671346202e-02 -9.3741190250327712e-03 -1.0867902120704175e-03 3.4411208593598169e-02 -2.8821957055787949e-02 2.0399327071322082e-01 -3.3763026375423250e-02 -3.0418502235110417e-03 2.9556571689131278e-03 -1.9866453021870796e-02 -1.6478291008366597e-01 9.5301020751693347e-03 -3.5043906098915367e-01 -3.5261506490299910e-02 -1.3603319448281458e-02 -4.7225236216995661e-03 1.8020488854275044e-03 -8.8301081966485697e-04 4.8949953861589599e-03 -3.2286065435425348e-01 9.8300083432622150e-03 5.7213493143708452e-02 -2.2054074106055478e-03 5.4457347580381746e-03 4.4092527671529069e-01 5.5973323817895418e-03 -1.3537274059732213e-01 6.0444376809033251e-02 -4.4773531865047178e-02 1.3671596931377520e-03 6.3427026725337756e-03 -6.3181741574200919e-03 -9.5254070339147786e-03 8.2840261706532470e-02 1.8592756185183360e-02 -4.8794872783443535e-02 2.0896601152418473e-04 5.4828960685574706e-04 -1.7672263638250740e-01 -8.3484426008077657e-03 6.4540155645101960e-02 6.0433199600492316e-02 2.0948828430093699e-03 -7.5647624944959841e-03 -5.8503259267507490e-04 -5.4561587421939010e-03 3.7710437762476651e-03 -1.0923038172712932e-01 -4.3628705993575337e-03 2.5032303494645372e-02 -1.6730889747487360e-03 1.0450482765112178e-03 -2.8326949695692960e-01 1.0498168300493929e-02 -4.2622193957391641e-02 -3.3823406750284857e-01 8.6037195072486972e-01 6.6906896338733868e-02 -1.6675462156243159e-02 -1.0548813720371808e-02 3.1878905582207123e-01 -1.5661395422471588e-01 5.5441310753830808e-01 2.5427221228104268e-02 4.8878046333611383e-02 1.9279492802246657e-02 3.6032560979037953e-01 -1.3963937684885883e-01 -6.0738832811746557e-01 -1.0662447501995698e-01 2.8431895742085531e-02 3.5226166294387296e-04 4.2496614344702845e-03 -2.0155544788216517e-02 2.3662538076358937e-02 -3.0704635761408028e-02 -9.3498113366609556e-03 -2.0842817938751014e-02 3.0943400522534352e-04 -6.3431761056373000e-03 2.2558242767991032e-01 9.2990052372905908e-03 -9.7858133337968833e-02 -3.8004401800639798e-03 -9.7685468708210987e-03 3.0181824852273179e-03 9.8861534486779619e-04 -1.1866004049924418e-02 -1.2525567365398230e-02 -1.4830467123374547e-03 7.5831842313387474e-04 6.1986076985767399e-04 6.4311093820050731e-04 -2.9184005852448845e-04 1.8471630913700210e-01 -3.3787842798243747e-03 -7.6848529112776232e-02 2.1242504252080685e-02 8.6369155296173693e-03 -2.3473432829724172e-03 -3.6773231754263359e-03 1.4955065861753500e-02 2.6133290787299784e-03 -1.0307149652054859e-01 8.9812538319533758e-03 3.1577088833612710e-02 -5.7440767619975144e-04 2.9621992073132070e-03 2.3959820315025038e-01 8.3354768619165538e-04 -3.3491816633114679e-02 -9.3121031489656270e-01 8.2413259510212367e-01 6.1601267070173438e-02 -1.0836376907471496e-02 -2.0845759743626686e-03 3.1271613179566426e-01 1.3262767901210901e-01 5.4987982022950743e-01 1.6975302520433090e-02 4.9050404599293919e-02 1.2032478174823997e-03 -1.8214359169879302e-01 -1.5632033034499954e-01 -9.3265911973879045e-01 -1.0630656944683115e+00 3.2388675207051854e-03 1.7483840164067973e-03 2.8336104567833857e-03 -1.3664441057128222e-02 3.5065364720802454e-02 -1.8577755836284807e-02 1.5201211670282169e-03 5.3377684466039965e-03 5.1653182341326875e-04 2.6061291005522857e-02 2.5867977953225818e-01 -2.8854168124880534e-03 2.5048822277188597e-02 1.3544777212266439e+00 
      </Row>
      <Row Index="13">
        -2.5664145348018792e+00 -2.5068225678569434e+00 -1.7189896137892902e-01 -2.7060479901842882e-01 3.5197280442999901e-01 4.0975915533545049e-01 5.1417792743377504e+01 1.7816627875669999e+00 -1.5993030404067667e+00 3.6133986064060111e-02 -4.6364057613110576e-02 5.6197461416013539e-01 1.3168346802091724e-02 2.2553789025277356e+02 -1.4228927383153888e+01 -7.4618803725818361e-01 1.1994232537866591e+00 -1.1459394729719565e+00 1.6922083448402447e+00 -2.4074463499769387e+00 -3.2373977890558670e+01 8.0179591135733086e-02 -1.0957692890454083e+00 1.2786585482550727e-01 -2.7924892702732496e-01 -3.9262118768421402e+01 -2.2957288375287407e-01 1.7487600355443834e+02 4.5285136045233600e+01 -2.7815654327452133e-01 -5.9106724019680493e-02 -4.6647362312970908e-01 -6.3870028365548048e-01 2.1400023177588007e-01 2.4094929676491205e+01 -2.5207783364779153e+00 -1.8538611737886472e+00 -1.2663756968604262e-01 -3.8174760327160953e-02 5.1696086745493886e+01 6.7035643732205685e-01 -2.2840853197758275e+02 -2.9256599069286771e+01 -4.5305114588860587e+00 8.6312951888415790e-01 9.3056337103236786e-01 3.0226355073960742e-01 -6.2033458974447608e-01 -6.0697872378186545e+01 3.0735357882172689e+00 1.9316207527074554e+00 -7.9493038901052082e-02 1.3906173126355409e-01 1.9408117570950708e+01 -4.0736885904855058e-01 2.6558336074593774e+02 -1.3303348194121906e+01 1.6213865843383246e+00 -5.4343366534409066e-01 1.3442976738362339e-02 3.0149204840103994e-01 1.4236670317594935e-01 -6.0333967795404790e+00 1.3553279189137459e+00 3.1060592302407684e+00 3.4906941987274634e-02 -2.4677189682895714e-02 -4.9926168073209908e+01 -1.2794761478356609e-01 2.0984451208875038e+02 -9.5026819516965347e+01 5.2128376388924927e+01 -2.9782406156757713e-01 -1.0387714449803990e+01 1.5150163512407383e+01 -9.9450418355252364e+00 3.1731007417039407e+01 -1.9646508109977585e+01 7.1523880146188539e+00 1.5675245035435279e+00 2.5440953945184961e+00 1.0853242757889802e+01 3.0034084172033015e+00 5.1634519991987560e+01 -6.6931264761506775e+00 5.2692238844544539e+00 -5.6707918444945360e-01 2.6837839371978389e-01 5.7821735101415976e+00 3.2422948739306436e+00 -3.5824635826913145e+00 1.1311229886703334e+01 4.5232241574843401e+00 1.7538347071664462e-01 1.5865802620778066e-01 3.5270310670137405e+01 -6.8326687729759550e-01 2.6243225106784951e+02 4.1105423513428619e+01 -1.1219152529974599e+00 1.9326637790293960e-01 3.1748486111639124e-01 -7.5076979428207025e-01 -7.7469832590465948e-01 2.0182039391715080e+01 2.5520150504924830e+00 -2.6588250533913977e+00 -3.5623236603892217e-02 -6.6515207927616532e-02 3.8428180291317403e+01 -1.5563675657776166e-02 -6.9317366958372787e+01 6.9080073044807477e-01 3.8062691990020459e-01 1.5063000875519950e-01 -5.4872067940866898e-01 -3.3008829280174506e-01 -2.8299106594043066e-01 -8.9688815785545728e+00 -2.9869154186041529e+00 -2.5453827417508359e+00 -1.5154892056387204e-02 4.5930621492863463e-02 4.1286737046219741e+01 -7.1235011710236856e-02 1.8743033184370134e+01 -1.0563644513883477e+02 5.4675548029734877e+01 1.3160789923564433e+00 -1.1137441162792364e+01 2.0680233901900991e+01 -9.2447331478806731e+00 -7.9975095601838021e+01 -9.2341757273725982e+00 3.7972801056477059e+00 1.6410766152694094e+00 2.4966232926037923e+00 1.0697389160808780e+02 2.4962216079979700e+00 5.9220567222973409e+02 5.7613275848145754e+01 1.3335034810185797e-01 -3.6055865580611046e-01 4.8379824623493300e-01 3.7504947245004905e-01 2.0288267043554664e+00 3.1667146985649815e+01 3.5357646114779007e-01 -8.0736286460166851e-01 7.4735937582033785e-02 3.7262841169778382e-01 -1.4810205333628880e+02 -8.9359612853859655e-02 -7.9680856631090967e+02 5.5990331644971479e+02 
      </Row>
      <Row Index="14">
        -9.8781229955697199e+01 -5.8049491455312818e-01 2.0128465447669441e-02 2.9227132208006878e-01 1.7481364519514464e-01 -2.5478194715833524e-01 -4.0118327249074355e+00 3.4403843319601624e-01 3.1379489199025556e-01 -4.9234294627415326e-03 4.4405412686561625e-02 1.2020101795904338e+02 -1.3179133272931770e-01 -1.4228951221914031e+01 9.2778816454941148e+02 1.8119954240158234e+00 3.2311465496448943e-01 1.2370055601956915e+00 -1.2687251987287579e-01 7.4613344502050716e-01 -1.9753079028123062e+02 -2.2505912195974753e+00 1.8026659294295351e+00 1.5089012495597362e-01 2.5128496828877789e-01 -5.2872717377785352e+02 -2.3294770112802254e-01 9.3240871061346397e+01 1.0942543425755791e+02 1.6352456598761442e+00 -4.5586711707076966e-01 3.2130149986056971e+00 2.9627040944953725e-01 -2.2844558801207926e+00 1.3087014108460957e+02 2.9022798716590970e-01 -2.1330168001534346e+00 -4.5707316021107081e-01 -2.1175721564738384e-01 3.6016512825465350e+02 2.6024836385635514e-01 4.0019160898738100e+01 -1.9012450631227415e+02 6.2591391345852898e-02 5.9380355881957425e-01 -2.8489609007926386e+00 -2.3041111109290971e-01 1.7573118753844388e+00 2.0062261077090213e+01 9.4929300514099690e-01 1.7028706600509675e+00 3.8641024421923076e-01 8.6952000639145918e-02 -1.9415906254494075e+02 -1.6410800610629253e-01 -7.9212956161494233e+01 1.2671063099497525e+02 1.6894446994410828e-01 -2.0483329833541253e-01 2.5319842937427445e-01 9.4276163441154616e-03 -4.4750310953940148e-01 1.3220607339264369e+01 2.6558022281360449e-01 -3.8341820480241040e-03 4.4656638316058345e-03 -2.5325833864691283e-02 3.9624735482901355e+02 -1.3536360685705429e-01 2.8026271475521725e+00 4.4973017502811115e+02 1.2412216384168053e+02 -4.3847841235621905e+00 -2.5819892507493531e+01 7.4030176571557192e+01 -1.3955813196195004e+02 -7.9363528233833406e+01 1.3848216700953088e+02 7.5275336254762770e-01 5.8169444538151396e+00 -1.4248990341094583e+00 1.1486895110217918e+03 -2.1941955874051558e+01 -4.2218904487383259e+02 2.3179762336262849e+02 -1.4097690370822722e+00 1.3776574539623712e-01 -5.2660615462423377e-01 2.1704711555634137e-01 -3.5691556160629281e+00 -6.7000054360638970e+00 1.4484923345037730e+00 -3.1108643575819839e-01 -5.8847887811093513e-02 8.4874080430216159e-03 1.7862911209464073e+01 2.7459650379947692e-01 -6.7936480281672358e+00 1.5593817420428627e+02 -5.1500357197310498e-02 -2.2762457791500357e-01 -1.5789683814910777e-01 -1.6419355359750032e-01 3.3300560366421683e-01 -2.2527395081706345e+00 1.1303990476929149e+00 -2.8999040057990733e-01 -1.5569718983180769e-01 1.1589992974038898e-02 7.9061375465244055e+01 3.1572242670478023e-01 4.8561185989166930e+01 -3.3514317093453947e+01 -1.9421017338707347e-01 -8.6824667121401494e-02 1.2391885773511679e+00 1.4646541548662348e-01 1.6729186504995952e-01 5.1525793238067919e+01 -3.3362057872085593e-01 -3.9998533995252472e-01 -4.5626941697016699e-02 -3.8910115057846084e-02 3.6802819073216938e+01 4.3864707877466436e-02 1.2549806815811522e+00 3.1963229238014046e+03 1.2632854172667992e+02 -4.0080705698085524e+00 -2.4329489531909754e+01 7.4067655714612798e+01 -1.4119195669133768e+02 1.1383191098567596e+02 1.3944312450290806e+02 1.2659662116173820e+00 5.7426564179957582e+00 -1.2966866120746461e+00 -1.2697174020909270e+03 -2.1394217681785513e+01 -3.6155756029218611e+02 5.5545149145375462e+03 -2.1213536506217601e-02 -5.9409737237348208e-02 -9.2457197926685808e-01 1.5482961358318725e-01 -3.8927037281702668e+00 2.5624029569220568e+02 1.1754253601832509e-01 3.2272206979375329e-02 -1.0581702472791221e-02 -2.0082533728233642e-01 2.4527479909845933e+03 1.1939511877015720e-01 4.3143722673314059e+01 -3.4041071084223568e+03 
      </Row>
      <Row Index="15">
        2.5479578866031716e-01 4.9049096952097671e-01 -1.8577770827238993e-02 3.5656491572281013e-02 -2.2672830720161366e-01 -1.1840050688905279e-01 2.9410718835497391e+00 -1.9430590596158287e-01 7.7687350773814501e-02 -1.4045857010475699e-02 -1.0963029619507093e-01 -3.3775640775675129e+00 -7.5268369838205312e-02 -7.4618813120207506e-01 1.8119957060844740e+00 3.3140855561465280e+01 1.4535700557263427e+00 1.5182063628906439e-01 -2.2317557426217816e-01 -2.0162282641191265e-01 -2.7565362333267586e+01 1.5199171499495403e+00 1.7756626915550866e+00 5.8942556092904781e-02 -2.4768942907773076e-01 3.3865462909168855e+01 1.1670955687061935e-01 8.9538957661092127e+00 2.0157770275236402e+00 -7.1433252944063179e+00 -1.6075615924757022e-01 1.9142783852647116e-02 -3.5697558790598044e-01 6.2920908263324860e-02 1.0377575805138129e+01 -4.2117223427326955e-01 -4.0193371207260631e-01 -7.5443131072178149e-03 -4.1685494718678356e-02 -1.5277226315797634e+00 -1.2516640298196885e-01 3.1649472860622172e+00 5.9642546622757919e-01 1.1733228701792244e+00 -2.2849415828951336e-02 7.5339288770979618e-02 -3.5469285731356348e-01 -2.0776805333141679e-01 4.4224967969300977e+00 -1.0498528260006523e-01 -3.8543501869903307e-01 -2.8122148725833185e-03 -1.1005248392244080e-01 -1.9314990244301157e+01 3.6862782246031206e-02 3.5794422266900838e-01 -9.8251090244800476e-01 -1.2661879158441707e+00 8.8479706562977378e-02 -7.6052106329079217e-03 3.0331007405567012e-01 1.8108320743697592e-01 -1.9521308703174380e+00 -3.2143690629959565e-01 -6.7810612271013504e-01 3.3256237713262804e-02 1.3479204080846038e-01 7.7054133135950451e+00 4.6612522225486216e-02 -1.9042548338940009e+00 -7.7876557927246353e+00 5.5524567580247677e+00 2.0104852444758938e+00 -9.4179434661316730e-02 5.5363827349201209e+00 -1.0099001829552382e+01 -6.8461549635005525e+00 -7.4727371791209585e+00 -6.3572486623321822e-02 -8.4093563864814547e-01 7.0147081000792566e-01 -1.3181573768768999e+01 3.1367826343681440e+00 1.5106243084438457e+01 2.7835476009686655e+00 2.0730914922570065e+00 -1.5638599498424333e-02 7.4372598148520486e-03 -2.9687775542698269e-01 9.6523465475266690e-03 -3.0801398892882901e+00 -8.6194959280502914e-02 -2.3111415103767596e-01 2.4673744512838547e-02 -5.6379988648824958e-02 -7.0598141959053464e+00 -7.2410542506958775e-03 -2.2968869269357839e+00 1.4084852605067795e+00 1.3896823450774592e-01 -2.1532238347718780e-02 -2.8531957286527021e-02 1.5606397404726025e-02 3.5918484317686211e-02 -1.7292558944891425e+00 -3.0555256739027881e-01 1.1275374379695746e-01 1.1607680015766619e-03 -1.4073258687362658e-02 -3.8518699047708651e+00 1.5164474079943480e-02 -3.6085260908917149e-01 -2.0289376022221717e-01 -1.9365403032440813e+00 -1.9088754386835216e-02 -2.7135643042665719e-03 8.0734762693908890e-02 1.0515813177631927e-01 -6.2650791400790240e-01 1.5582621364668370e-01 1.7038216526463063e-01 -1.9778120105246183e-03 3.6888612753071509e-02 5.5655919431897019e+00 -1.0548533153422301e-02 -1.1078256638067572e+00 6.1154576273310681e+00 2.9007104207206822e+01 3.0986154302154647e+00 1.3647071067146793e-01 4.4619336413338733e+00 -1.0347198276308511e+01 -2.1332202772421702e+01 -6.5636594095106044e+00 1.5671498775052299e+00 -7.5888115511318244e-01 2.1030930187746633e-01 -4.8781605291587766e+00 3.2236642022415607e+00 2.5021973922614620e+01 2.6913785539656718e+01 -2.3285267511191643e-02 2.8504037520657610e-02 -3.6553752909504467e-03 -3.6698753187550559e-02 -1.7454492638949060e-01 -6.5411870795420386e+00 -3.4178905327877193e-02 7.7042406458113721e-02 -4.8375070228630079e-03 1.4732049225722013e-01 1.0482173798697801e+01 3.8800881290751592e-02 3.4177292030316671e+00 -1.3592559257170841e+01 
      </Row>
      <Row Index="16">
        -5.9261850947706307e-02 1.7494746214103429e-01 -1.0124151590534503e-01 -1.1807869695488193e-03 -1.2922784481746857e-02 2.2695737174702302e-02 6.0824885117449412e-01 -1.1485862859750284e-03 -2.2791539225988089e-03 5.3560975540922762e-04 -1.9546456375010303e-03 2.3578145954161300e-02 -9.3741191118827012e-03 1.1994232352020617e+00 3.2311494563575138e-01 1.4535700567360375e+00 6.5915098883508494e-01 1.2153136259764497e-02 1.2645126942858448e-01 -3.5497340855697335e-02 -1.4890281577425979e+00 9.4058324139847160e-02 2.2067006594498345e-01 2.2521842197460559e-02 1.7113148581053558e-02 -3.9357112207508180e+00 -1.6743159336886329e-01 3.3387728695938037e+00 7.6190071973642115e-01 -2.1276882832237853e-01 -8.4699421719392515e-02 -1.3238553872160774e-03 -3.1095659065391579e-03 5.8905954690233325e-03 4.1604119975016829e-01 -5.5423883546784833e-02 -3.3000687240632529e-02 -2.0122773637547463e-02 2.2646250223112042e-03 -4.1334694919143544e-01 -5.8320793831604899e-02 -7.7108573974511163e-01 -3.9044774633746471e-01 1.9645354825496697e-01 1.4759081295792537e-01 1.2112062611456531e-02 -3.7747471595081933e-03 -2.2254931192111749e-02 6.8633971032072250e-01 5.6643777668346385e-02 -3.7644373509746865e-02 -1.0326441156501819e-02 1.1737832857845585e-02 1.6770376752989478e+00 2.0499315965661895e-02 1.6256879271829305e-01 -4.8275210111416555e-01 -2.5929680518156317e-01 -1.3538882636407440e-01 -5.6172006148557108e-03 -8.6183285924948411e-03 6.6726746252561003e-02 7.0784508221443510e-01 -1.7177327388160080e-02 1.7566281492804592e-02 -9.3162627903105571e-04 -9.1503635641203424e-03 -1.3816192015403601e+00 -1.3638203950863759e-01 2.1574146247856536e+00 -6.5768280079688290e+00 -3.1008198489111127e-01 1.1040477176515486e+00 -1.6144933455018556e-01 3.1719718493215643e-01 2.7882228855088109e-01 1.2048910964913659e+00 -3.1448000503391009e+00 1.7793110115566579e-01 1.5442748930718109e-01 -4.8843067976168414e-02 4.7404883743566870e+00 -3.4664337357465946e-01 1.2520734824223125e+00 5.2560202156696878e-01 -2.2408191355852464e-01 -1.1110153798899165e-01 1.3718591426525095e-02 -1.2783975458058539e-02 8.1605746296967707e-02 -4.0951360017875871e-01 7.2719993906010971e-02 2.8195166238455860e-02 1.1199835649741322e-02 -7.5839612169286376e-03 -6.2396304303547367e-01 1.0970913987634440e-03 1.8432182038263352e+00 3.3716282401543896e-01 5.9498835514781120e-02 3.8025614153223752e-02 -7.6890129864504164e-07 -1.6105500439884735e-02 -2.6116749001508146e-02 -6.7442975760445734e-01 1.8300028089944465e-02 -2.0866763277084366e-02 2.4072843003360156e-04 -3.7747823753131807e-04 1.5492459004599368e-01 1.4043918490289811e-02 -3.7525949746079146e-01 6.5292601137508899e-02 -2.5139348598821554e-02 -5.4559958939605635e-03 -1.0480470153535325e-02 2.6606363187495180e-02 1.0253758174280495e-02 -7.7641683225280644e-02 -2.6027631269959661e-02 5.4987888184221080e-03 -4.2484971782256707e-03 1.7358761309746833e-03 -4.7778470096001513e-01 -7.7728507876726194e-03 7.3248571828666398e-02 -2.8988333970813187e+00 6.9375042670968057e-01 1.7331318253153809e+00 -1.3638375375511755e-01 4.1133985457538896e-01 3.1851422497064807e-01 -7.6050803278890466e-01 -2.9921260149887563e+00 3.2370219614901474e-01 1.6192511365498047e-01 -2.7961094772588152e-02 -1.7101909442148724e+00 -3.6977663225900698e-01 4.8291788131796576e+00 7.2786453717260367e+00 -1.2667754314730578e-02 -7.7537971003836095e-02 5.4095612285024498e-03 1.0628049369784454e-02 -1.2179610719153355e-02 -2.8445530869699249e+00 4.8649732923668476e-03 -2.3212915751241042e-04 1.4301590201565961e-02 -1.8313099260524865e-02 3.5075488850511447e+00 5.0641671882686909e-02 -4.6016094463893333e+00 3.6436246662665992e+00 
      </Row>
      <Row Index="17">
        -4.7621717688872423e-01 2.5478458043522778e-02 -1.5456352544092056e-03 6.5043314832864851e-02 1.5005714096118349e-02 -4.3556525420093806e-02 3.3730277908789503e+00 -2.3604262252206354e-02 -2.7516325015771059e-02 -3.3292816763451057e-03 -2.5415865968329344e-03 8.1989218644594075e-01 -1.0867901650509909e-03 -1.1459395174617839e+00 1.2370053344446656e+00 1.5182063486170172e-01 1.2153135580828393e-02 9.0261849777111069e-01 1.8908702521699591e-01 3.2580238287615487e-01 2.5309234617974283e+00 1.9352066169191684e-01 -6.7498870844321934e-02 1.4242262105366926e-02 3.0169810200594366e-02 1.2702264255422051e+00 6.2235509985174194e-02 -5.1432249365538918e-01 1.6435326040842606e+00 1.8922604695697620e-02 -1.9019885386077830e-02 -5.2761098025410624e-03 3.4564044272902425e-02 1.5047543752460396e-02 1.6689495942307673e+00 -3.3932641842882721e-03 2.0517430967558759e-03 -6.7183976546832547e-03 -2.8084518924565791e-03 -3.5450791043683125e+00 -1.3774779018972430e-02 2.4503084813349607e-01 -1.6397460572075764e+00 -1.2358147345300757e-01 4.1317388866576764e-03 -2.4610327392351355e-01 -5.8453023652346767e-02 -4.3157549645568893e-02 -1.1989002326025100e+01 -1.1249787534450095e-01 7.8712281006281082e-02 1.5239491985456054e-03 -2.2971835356446345e-03 -1.6617223747331877e-01 -2.4709888070371069e-02 -4.8872664924109399e-01 5.3253308941056332e-01 5.3380658252990543e-03 -7.6533434006211074e-03 1.3230600410634334e-02 9.9639590199984696e-05 4.7425408377782766e-02 -5.2513181409665100e-02 -1.7413161327700141e-02 7.4718755295589134e-02 -1.2982790431854971e-03 -3.3214053277359733e-03 2.4487701787989842e+00 3.4844005856231736e-03 -1.2292098162062439e+00 1.6837161519999409e+01 3.4396449182173074e+00 3.1726957342930012e-01 1.4515178994144549e+00 -1.4606267240430948e+00 2.6775060814343052e+00 8.5706187932595022e+00 5.6813846772767480e+00 -1.4173117078021269e-03 -5.9354872265298952e-03 -8.0386867517538541e-02 -4.7088469761351348e-01 -2.8804122016615563e-01 3.8818574509180603e+00 9.6716741124818129e-01 -6.4871634129891831e-02 3.4579507667361620e-02 -1.7760544349063156e-01 -1.0456170797713621e-01 -3.9062287677262031e-01 1.6188703494272945e+00 -2.3914355237002383e-01 4.7511233880329795e-02 -8.0097815148052684e-04 -3.0326925339588130e-03 -2.3742234953388106e+00 -5.6876571834127317e-03 -7.9304645161453968e-01 1.0072280334376202e+00 2.7569476054766451e-02 7.1099657863663568e-03 -1.1083702562995268e-01 -2.1514244070931526e-02 2.9816598685517899e-02 6.6506545678748807e-01 9.2323707080469691e-02 -6.1718838367203266e-02 -1.1728682741175313e-03 -6.6192199445499443e-03 -1.6437919026793679e+00 -1.1054631981926601e-02 2.7240385726824745e-01 1.6017935236420155e-01 2.7641930204605036e-02 -8.2219992595313623e-03 1.3720040553350168e-01 3.1340811127022111e-02 5.9363414731450737e-02 1.1153894898645618e+00 3.7226083918772079e-02 -1.5407240438085413e-02 -1.1855097132098813e-03 6.8332311929154496e-04 -4.2412850847115351e+00 2.1041981488497327e-03 6.8952273951090604e-02 1.9199997436908404e+01 3.4690397546096450e+00 3.5054606814803091e-01 2.0039742607483984e+00 -1.4026158270109124e+00 2.4895041224219234e+00 -2.1857863136968686e-01 5.6191835671401282e+00 -7.1082756062002650e-02 1.0824543078318608e-03 -6.0464743147776973e-02 -9.6736682680284503e-01 -2.8168684336034711e-01 3.2394782978668717e+00 6.6732075239593796e+00 -1.1380340748473536e-03 6.6323541765713617e-04 -1.5122740160566486e-01 1.3980903055460986e-02 -1.5017039786024039e-01 4.3202611059611762e+00 6.8401786448222448e-03 -1.9924275556090575e-02 -9.0893009387293944e-04 -1.0672705406634550e-02 3.8028664232232456e+00 9.0087514959262191e-04 2.4098271130598627e+00 -9.6063282493818996e+00 
      </Row>
      <Row Index="18">
        -3.0774209252444962e-01 -2.5969729157804977e-01 -4.8709753939895961e-02 1.8018093422412562e-02 1.5423308293662330e-01 -1.0698238672725324e-01 6.0830097613416001e-01 6.8146543382130176e-01 -2.0716235197539845e-02 6.1342850824112755e-03 8.7740477275013336e-03 6.7812493034725776e+00 3.4411208429879880e-02 1.6922083408517210e+00 -1.2687161313536421e-01 -2.2317556825395662e-01 1.2645127104469847e-01 1.8908702565686353e-01 4.9447834800484900e+00 4.6171960540904378e-01 4.5872222083982725e+00 1.6514174753431574e+00 -6.3025490204087165e-01 -2.3628918646049352e-04 4.2978588746127803e-02 9.5174228804535232e-01 2.5959418314148719e-02 5.5538790778012270e-01 -7.8545622484252675e-02 -3.3602161309985912e-01 -1.2464590438126378e-02 1.3357268832029368e-02 -3.0715496960449773e-01 -1.5199301665728124e-02 -1.8393656750861442e-01 -1.5857178221666297e+00 1.4963691943766011e-01 -1.5787307888294758e-02 2.2236866870464958e-02 7.2592618269129616e-01 -9.5935636196584934e-02 -7.3289388581060377e-02 5.6185431578295209e-01 -3.1998418483309510e-01 -1.9546851869609000e-02 -7.6131052594906726e-02 -2.9639255902344441e-01 1.4214567267883821e-01 -6.5164728584545628e-01 1.7553779421773492e+00 -1.2758429150414141e-02 -2.7248842215117322e-02 -3.5949393212399150e-03 -9.7395622344265576e+00 1.7796307152732338e-02 1.2526283814057138e+00 -1.8708880031714337e-01 -6.2353570969662542e-02 3.3746454245984173e-02 1.6491753481493003e-03 6.3036835940351921e-02 1.3544136976944027e-01 -1.1167422611344424e-01 4.0564476392149379e-01 1.1718242561340209e-01 -1.1050785264481153e-02 1.2591584079801856e-02 3.4626225146143668e+00 -1.5567716940651039e-01 1.5861627788920920e+00 4.7152496643023625e+00 7.6560676754619621e+00 3.9223765009801215e-01 5.0027593500016965e-01 3.0280936192799079e+00 3.4798494815918568e-02 -2.9439342949465619e-01 1.0754830856004336e+01 -1.8379165046428558e+00 -8.7569169223145768e-02 -3.3529221908178405e-02 1.3906672693614951e+01 -4.4408473575408691e-01 -2.1545264190940125e+00 -1.5906099771751725e-01 -3.0581820737373988e-01 -2.9039208987103882e-03 -7.1681976375787770e-02 8.4405657992672833e-01 -4.7356117429921740e-01 -2.5135948454407497e-01 -1.3049477254234936e+00 8.8551428371199670e-02 6.3397139706935224e-03 -2.0440552923785986e-02 -2.1303194083739072e+00 8.5487856181758488e-03 2.6634951947884815e+00 2.2586999524854701e-01 -8.6284759359327168e-02 -7.6874843298705420e-03 -1.6128776070827605e-02 -4.2627536141498057e-01 1.1907718953839268e-01 -2.3614000614543329e-02 2.2717345963002589e+00 -1.0609637732822819e-01 -3.6839017346142790e-03 -9.7094726310160868e-03 -3.4471168961608782e+00 1.9519305970993550e-02 -3.8380590751244092e-01 -8.2137529188747394e-02 2.6985870647398880e-01 2.6500556237358808e-03 3.6027182559610793e-02 7.1902253395398172e-02 -2.4239701381464140e-02 -4.2505596573606397e-01 -1.0339003419825359e+00 7.1575771991696392e-03 8.5025466978512487e-04 1.7738832457801210e-02 -1.1179007209834097e+01 -1.0386422913717230e-02 3.0998096444863066e-01 3.6433648425767728e+00 6.8984718984984355e+00 4.5253136451197928e-01 6.0033235887081293e-01 7.4655572702017814e+00 -3.7562557023504084e-02 5.0777532820312317e+00 1.2134238950961072e+01 -2.3998194088521738e+00 -1.1777002504734957e-01 1.7783970802102256e-02 -1.0396598098573577e+01 -3.6877200569556134e-01 1.2707268040557480e+00 -3.2917831518780263e+00 3.1188232092702082e-02 6.2196003080570161e-03 -4.1575140989028508e-02 2.5779739360370035e-01 -5.8632367470634394e-01 4.4175032746904073e+00 2.7607958261513066e-01 -3.5139310533705004e-03 2.2852417470620168e-02 1.4228647061133326e-01 3.0291748928869438e+01 6.1150337674538577e-02 -5.6073902615523412e+00 3.4355504183231311e+01 
      </Row>
      <Row Index="19">
        -4.2327390065065629e-01 2.3862884279293439e-01 -1.5088260548701271e-03 2.8741305654417459e-02 7.1370995982379060e-02 -5.6078902946148901e-01 1.1240415890028999e+00 1.1082963199375229e-01 1.0044018688333267e-02 -3.1866309556778938e-03 1.3689405108535028e-02 2.3537919368609437e+00 -2.8821957005640806e-02 -2.4074462825474257e+00 7.4613356753493143e-01 -2.0162282409095683e-01 -3.5497339461875235e-02 3.2580238190776889e-01 4.6171960943722412e-01 2.4861959803833988e+00 2.1600055657598611e+00 5.6978628170696477e-01 2.1440021967520900e-01 6.0228100700535471e-04 1.3423719274910983e-02 4.5260881568538025e-02 1.5175123311163621e-04 7.3513724287188609e-01 -2.7127009870654768e+00 2.0675402652498187e-01 -3.4912755534870769e-02 4.0015499672822884e-02 5.3999400098571758e-02 -3.6911361809237336e-01 -6.6114463965943482e-01 -3.6274110209726436e-02 1.4465807774460504e-01 -3.8104974149699614e-02 5.2121705516545444e-03 4.6476222160707437e-01 -1.2790410246032734e-02 4.4637326615803230e-01 1.0760406310052240e+00 1.2982640059411710e-01 5.9060965934140938e-02 -1.5256503424769166e-01 3.1850566870790360e-02 5.6655089713401208e-01 1.8920236577502658e+00 8.6709779247998719e-02 -5.7747442253850256e-02 -3.4216165080131977e-02 9.4339614598604130e-03 -2.2115979745162804e+00 6.0290521504715571e-03 -2.8679606871982166e-01 -4.6594893330277998e-01 -5.9945524695990571e-02 -1.0717038770652192e-01 7.2320212741093931e-03 2.2883847089048004e-02 1.2090067688985476e-01 4.2905857988343232e-01 4.2910567609138923e-02 -9.1899444900809868e-02 -8.3950923110869668e-03 -4.8154882256976938e-03 2.2507740628498141e+00 1.3801265357414189e-02 -4.7977706023729638e-01 1.3272341450801882e+01 9.9619975778107968e+00 -2.2731078734375176e-01 1.2585136629299498e+00 -2.6082690667020767e+00 9.7360060739549503e+00 4.4179339576772225e-01 5.0130322687908064e+00 -2.0879251798353543e-01 -3.6670104204220622e-02 1.8602288498895725e-01 -1.5974609858543687e+00 8.3452598740043005e-01 8.5099896383188955e+00 -1.4101881749522418e+00 -5.1834699576792542e-02 7.3048049733390685e-02 -1.6656416564632143e-01 -1.6754833165381916e-01 -1.6690563078176677e+00 -6.9830565546751533e-01 -4.9316350989940561e-01 -9.8112242580009737e-02 1.4585255190307584e-02 2.0382224243342760e-02 2.0982490503229201e-02 -5.4498670056641135e-02 -1.0061745887427169e+00 -6.6833604972712735e-01 -4.1802728336952685e-02 -2.9512670393287171e-02 -4.7288811454735520e-02 9.2621285720309532e-02 5.9722002968236509e-01 -1.1695042903447757e+00 2.1737806211856397e-01 1.2547220196662626e-01 -3.8489371480492987e-03 -1.5209941126955104e-03 -1.5306294213514775e+00 3.4035570444058257e-02 7.8599874170793926e-01 -1.8652513449661767e-01 -1.0271275824962345e-03 -4.3351143154559645e-03 1.0176941740316181e-01 -1.0915719984035548e-02 -6.9495787585457436e-02 -5.6588192423989270e-02 -6.9458528498800742e-02 8.6821902859580385e-02 -2.6748489622582215e-03 -2.7971318584806698e-03 -5.3068213151620398e+00 -6.2202910764092706e-04 -1.1440049362953797e-01 5.3766300586382307e+00 9.8750600984155685e+00 -1.6404558930356272e-01 1.4025725916339600e+00 -2.2982444188007851e+00 1.0422074816115572e+01 4.5408662195040410e+00 5.1510705504749321e+00 2.1999827957041262e-01 -8.1488032234548147e-02 2.2386061278668445e-01 -1.8245560635992319e+00 8.1373577134576069e-01 8.2737314524063450e+00 -2.1227424941308168e+01 -1.8049164592370381e-02 -4.1319760516069677e-02 -1.1448894146676371e-01 4.2045193991826296e-02 -2.4514642655168521e+00 1.8249925044847655e+00 1.6809467424926117e-02 3.2427475835028002e-02 3.7902976395447041e-02 -3.8731318243594999e-02 4.2825370326716623e+00 8.0066126823651815e-03 3.9039011747418795e+00 1.7516840372959582e+01 
      </Row>
      <Row Index="20">
        -2.8294327981075185e+00 4.9963387774523653e+00 4.2636168086443149e-01 1.5698443070176609e+00 -9.9434562347469146e-01 -2.4452862672071660e+00 5.4550740791382850e+00 -5.1385102581875799e+00 9.8588700569371213e-01 -3.6110851029756391e-02 9.5568155781187283e-02 -1.0750955029216129e+01 2.0399327688254953e-01 -3.2373975405036617e+01 -1.9753080374023648e+02 -2.7565362349275759e+01 -1.4890281318439749e+00 2.5309234087480164e+00 4.5872223958732352e+00 2.1600056546755440e+00 1.9513300993083465e+03 9.0909190925869332e+00 -2.1556179811477745e+00 -1.6196766262507210e+00 4.3724189969946448e-01 -1.4349034726305399e+02 -9.4155194477191007e-01 2.7818525044473813e+02 -1.4934427938689353e+01 8.9748684037024198e+00 5.2419642629470409e-01 8.8214219215791978e-01 -7.2160790657848861e-01 -6.9438267349398425e-02 -4.2831792761448429e+02 2.7276109580446857e+00 -2.0104681962442328e-01 8.7455842348565038e-01 -5.6515466588839422e-02 -2.7371380834246793e+01 1.2053076242033383e+00 -7.5610503931967656e+01 4.4547572567511907e+01 -1.1774270232180974e+01 -2.1914136961977020e+00 -4.8249280407970225e+00 1.5418066609107255e+00 4.2023355571046253e+00 -7.0758346106983095e+02 -1.4261738578492752e+01 1.2482463574839162e+00 -3.0850893061506240e-01 5.7143388541987861e-01 1.5842787487062014e+02 -7.2231570204927120e-01 -3.4448529440564641e+01 -3.3988896109844418e+01 1.5022010266238794e-01 8.5574059445372308e-01 -5.0690390275902786e-01 -5.0961566934302027e-01 1.7853709589338216e+00 4.3534324262573364e+01 -3.8668578845225960e+00 -2.7702988512679907e+00 1.6867653380363679e-01 8.5997724044357987e-02 -6.9213838764466345e+01 1.3167121697346182e+00 -3.9349680440566672e+01 5.6723065160002466e+02 6.0758107827905644e+02 -6.8270444679562345e+01 -2.6116228078723839e+01 -6.7691225489804197e+01 -7.2284842502027104e+01 6.7160850030286440e+02 4.9773387028270719e+01 5.5895940649225579e+01 5.4188847243713223e+00 6.9271806408990901e+00 -4.5212477110795589e+01 5.2401566817205918e+00 -2.0991993614931690e+02 -9.2047104694425173e+01 1.3426456743560646e+01 8.4015434380297283e-01 -7.7920792528521865e-01 -3.3601598709511364e+00 -9.0046905334656842e+00 3.1746739810939340e+02 -1.8461979291244965e+00 2.0573637041441195e-01 -4.8885374014797400e-01 1.7569269202542176e-01 4.0766713419463485e+01 -5.5089503189449007e-01 -6.9227208700406209e+00 -6.6526107770027011e+01 6.9883455517477984e+00 3.9071812258105076e-01 -1.6935159862812466e-01 -5.4050107091067368e-01 3.4077537896862420e-01 2.0083069523953600e+02 -3.0857812158420823e+00 7.1352451228523428e-01 4.4528018137210257e-01 -4.9219031488468562e-01 -2.2929915116867051e+01 -1.9087275937113768e-01 1.2599042425958089e+01 1.1542023381919819e+01 -1.5402820517856242e+00 2.6782609179938355e-02 1.2285536058951720e+00 3.0417585993721413e-01 4.2660722427474573e-01 -4.7062257105934407e+01 4.8094480655049097e+00 -8.5295936849268006e-02 7.2488164849917547e-02 -1.2573590215195174e-01 -7.3195320749091479e+00 4.0261492659142695e-02 -7.4139687336860547e+00 1.5118035161465002e+02 5.9211986350851885e+02 -7.0473175279045080e+01 -2.6075940963036199e+01 -6.5960541405319361e+01 -7.7677296329354036e+01 1.2050982659297231e+03 4.7701345755208550e+01 5.8196478847330212e+01 4.2128851224729269e+00 7.6265688735605108e+00 1.1465107968082884e+02 3.0447207793044084e+00 -7.9976813963220877e+01 -8.6499069334829608e+02 1.9934316820471532e-02 6.1659962287678927e-01 -1.3010617489165996e+00 -3.9839191014509012e-01 -3.8579752223896708e+00 3.3740477322365723e+02 -6.1738324086277618e-01 2.0772751023270275e-01 -4.5516354417330263e-01 -1.4617531900736924e+00 -2.5956504916052052e+02 -5.2723692950680423e-01 6.9870070272216537e+01 1.9692349978169975e+02 
      </Row>
      <Row Index="21">
        -2.0530022832895156e-01 -1.9509199084620832e-01 -6.5610778016946369e-02 2.3396333024404470e-02 -5.0111979927942707e-01 -2.6176478320154217e-01 4.6420570618765851e+00 -3.6236117574604236e+00 1.5490131715395705e-02 -9.5448393091802086e-03 -1.2200834599207438e-02 -1.0354820269785705e+01 -3.3763026039969696e-02 8.0179641492122755e-02 -2.2505923442587914e+00 1.5199171439731609e+00 9.4058323180936779e-02 1.9352066022432890e-01 1.6514174815413503e+00 5.6978628833753264e-01 9.0909192793920042e+00 2.0302889937939387e+01 -2.7538145288919580e-01 5.5530940034162292e-02 1.7861130086124083e-01 -8.0916366262390511e+00 5.7271410584500110e-02 -2.3643645006003453e+00 -8.9077305257870965e-01 -6.0953858077904810e-01 -7.4138557264028085e-02 6.4358354951713742e-02 -1.3177794154668139e+00 -6.9651935241187762e-02 4.0812155510066432e+00 -1.7566331007363845e+00 5.8708795496539956e-02 -4.4609989546870316e-03 2.0043469020522148e-03 -6.7628096491489487e-01 -9.9777448752132680e-02 -1.4920969102709807e+00 1.8469685630055892e+00 7.0706914146008160e-03 1.3797389565820836e-01 -6.9308244362857152e-02 8.2187438202036323e-01 1.3492590563799867e-01 -1.2540551547649919e+01 -4.3597252485618840e+00 -3.9545356142219212e-02 -7.7253516062034365e-03 -2.2502758458066881e-02 1.9987307932089152e+01 -5.3792983791294408e-03 3.0677676520216863e+00 -1.2370233582253860e+00 -2.7623610945306609e-01 -1.7385337827323899e-01 -6.1947095312396838e-03 2.8422503358640938e-02 3.4833672863940950e-02 1.3775817662641732e+00 -1.0958641172166033e+00 6.6020857274499078e-02 8.2339370282568866e-04 -4.0681577815453729e-02 -9.5489756228635088e+00 -1.6630456105086355e-01 2.5355597586614778e+00 2.0196806197585246e+01 1.8038688215281145e+01 7.7790539619844234e-01 -3.0391221745092367e-01 3.3707295645653668e-01 1.0601544810205390e+01 1.5103091465559592e+01 1.2394288651702574e+00 6.9565747831913305e-01 3.9871617854959029e-01 1.3635447993030481e-01 -1.4755616915519568e+01 -2.5076425968817784e-01 -1.9855828053681632e+00 -1.5011451203426986e+00 -6.4743597734268121e-01 -1.1118785247212032e-01 2.1582208220179977e-02 -1.5688853023052862e+00 -4.9585819075259474e-01 5.1060622603724042e+00 3.4327889678514394e+00 -1.7279104972617443e-01 2.5319170919732403e-02 5.8867872045133704e-02 4.6346220430568792e+00 -7.7314150315866276e-03 3.0018564060838369e+00 -9.2277957005171629e-01 5.1101595071507866e-01 6.2033525408877743e-02 -2.8189705741789993e-02 1.1368399263486051e+00 1.5317150480475650e-01 2.3416478647213808e+00 -5.9410580623733038e+00 1.4896276134772851e-01 5.3891212225049001e-04 -3.6176515179609250e-02 5.5183321633376181e+00 3.2962767042007624e-02 5.0598273605402255e-03 -1.0301954983624739e-02 1.3505147754617641e-01 -2.1136324831721010e-02 4.2282686170146633e-02 -3.0382306181616053e-01 -3.5810378108946939e-04 1.8851940862613503e-01 2.5954599706898289e+00 -9.6577249939369322e-03 3.8354334112697813e-03 2.7650719025979688e-02 1.5214449054401896e+01 1.1039666743055676e-03 -1.1160124931613886e+00 1.2559736909187755e+01 1.8823943737741672e+01 9.1353615930104781e-01 -1.1813266338162431e-01 5.2874056296155381e-01 1.0630181271581730e+01 1.3935103261743896e+01 1.4568534653427864e+01 3.4313321964174959e-01 4.6931667373056063e-01 3.2113846596280771e-01 1.0106620266403525e+01 -1.2177031264902746e-01 -4.0404254902165189e+00 -1.9373084320760515e+01 -1.1596843355201947e-02 -8.9155273636843335e-02 -3.6249442316307889e-02 -5.5909222472086006e-01 -7.0762505996595360e-01 1.0664244933100303e+01 -6.6618754508358202e-01 2.2926270296699885e-02 -1.3678936433041855e-02 -1.5239640288454409e-01 -3.6444113838044515e+01 6.2580741740454943e-02 -3.4202970877537142e+00 -2.4925151888184459e+01 
      </Row>
      <Row Index="22">
        -7.1168986607119678e-02 -3.3654531802169352e-01 -1.3267805962220658e-02 9.9957212351079461e-03 1.4793007777784428e-01 -6.0946429912812849e-02 -3.4606737039711959e+00 2.6689183957433205e-01 -3.2560440222146503e-01 -2.0391642210616095e-05 -8.7597251399657589e-03 5.4452324756437065e-01 -3.0418502695588601e-03 -1.0957692870883999e+00 1.8026660429182897e+00 1.7756626919026974e+00 2.2067006597214206e-01 -6.7498870579253967e-02 -6.3025490297911779e-01 2.1440021901775846e-01 -2.1556179923670840e+00 -2.7538145209318543e-01 4.6341560749667314e+00 3.7836721517186311e-02 -7.3482988836104712e-02 -2.0343905985102992e+00 -1.2187766074099074e-01 6.7687543346963324e+00 4.6327014049809556e-01 -2.2408147454241084e-01 -4.0732114026079423e-02 3.2723923090742943e-02 1.0626358478654763e-01 1.1798665156772742e-01 -8.4118762869741914e-01 -1.2916294112398125e-01 -8.9908518512797553e-01 -8.4953567753041047e-03 2.2460346126272093e-02 4.0557378256338694e+00 1.3785903331854948e-02 -2.0784681912369676e+00 -8.0709699244764721e-01 -3.9419969590805792e-01 -3.6857405774187099e-03 -6.2832588167782810e-02 1.3430395058068664e-01 6.1428794003796527e-02 7.0290687192797598e+00 3.6039524180192406e-01 8.7630137286033527e-02 -6.5167041389643798e-03 -4.7697817183763105e-03 2.7251588298176443e-01 2.9184882452298999e-02 5.7540927833548494e-01 9.5790457067882784e-01 2.3566915345822892e-02 2.2104030274717353e-02 3.2994651104359791e-02 2.6193715982908872e-02 -6.2921070824910094e-02 -5.5225043553177255e-02 9.1605383976369609e-02 3.8139069436753203e-01 -2.9024251271863137e-03 -9.1552010220700003e-03 -2.1119341573921702e+00 -4.8141619782640664e-02 1.3511767988073373e+00 -3.8349705290273022e+00 -3.3307707326507763e+00 -5.4610121642867715e-02 1.2693460820662422e-01 -1.8749861566632389e+00 -1.5759743681297826e+00 -6.0400966167118391e+00 -2.8367282762545241e+00 2.4169055917440492e+00 2.8755127922496543e-01 3.8059568919557729e-01 -1.4263174736825022e+00 5.3452114513332138e-01 6.2035565174155902e+00 5.1965935358472848e-01 -2.8725664055916589e-01 6.2548364953543795e-02 -5.5449164751619345e-02 2.4219932552840051e-02 -3.6220816283352186e-01 -2.6688909716798221e+00 -1.2324950876683710e-01 1.3117935885495513e-01 -8.7444603339024291e-04 -2.7988616745496256e-02 2.9453094233431329e+00 -1.9305220075174937e-02 -9.2146416828000510e-02 4.5072247192999271e-01 3.1767546022628323e-02 -2.0321356597653328e-02 -1.0092717590180594e-01 -2.2528609813473155e-02 2.3035652381827240e-01 -9.2237388047490754e-01 9.8719518115001181e-02 -1.7290892830237059e-01 -1.6710733774467079e-03 1.5544731398879500e-02 9.8460622853281166e-01 1.9712618936729612e-02 -4.2122197701293906e-01 2.0845591262495855e-01 1.8579518561036457e-01 -7.1874090564611123e-03 1.7497664810744412e-02 -9.1496876815389261e-02 6.8125114545851365e-02 1.4991986949841731e+00 -1.8186819688725342e-01 -1.6702329588878403e-01 -1.7104225880076318e-03 4.5465201459235216e-03 3.1316423555716000e+00 -1.7679977308742559e-02 -3.9793101158472144e-01 -3.2278160995526974e+00 -2.1391814419700799e+00 1.3698690306143191e-01 1.1047689272323344e-02 -2.2576468244562777e+00 -1.5379909833677678e+00 1.1435555874286143e+00 -2.9955212203933588e+00 5.4437784726560459e+00 3.0548815663271961e-01 3.3439235728533556e-01 -2.4660709732033865e+00 4.9550143878586483e-01 1.0092996820583467e+01 2.4953788530700112e+00 1.7374726312900185e-02 6.7985532959674022e-03 -6.1342687024674589e-02 4.0997878507695318e-02 -4.0000806061424726e-01 -4.4981731969000069e+00 1.6319635514531527e-02 -5.2658883036161154e-02 6.1758091157745887e-03 5.4088953040814132e-02 -2.0793129753133615e+00 4.7348772685526300e-03 7.4048813385467127e-03 -4.1555815584720385e-01 
      </Row>
      <Row Index="23">
