<?xml version="1.0"?>
<MethodSetup Method="DL::DNN_CPU">
  <GeneralInfo>
    <Info name="TMVA Release" value="4.2.1 [262657]"/>
    <Info name="ROOT Release" value="6.26/02 [399874]"/>
    <Info name="Creator" value="s1412595"/>
    <Info name="Date" value="Sun May  1 13:40:03 2022"/>
    <Info name="Host" value="Linux root-ubuntu-2004-1 5.4.0-73-generic #82-Ubuntu SMP Wed Apr 14 17:39:42 UTC 2021 x86_64 x86_64 x86_64 GNU/Linux"/>
    <Info name="Dir" value="/home/s1412595/Desktop/MSc/TMVA/runs/run_fs3_hp1"/>
    <Info name="Training events" value="120000"/>
    <Info name="TrainingTime" value="8.89980308e+02"/>
    <Info name="AnalysisType" value="Classification"/>
  </GeneralInfo>
  <Options>
    <Option name="V" modified="Yes">True</Option>
    <Option name="VerbosityLevel" modified="No">Verbose</Option>
    <Option name="VarTransform" modified="Yes">N</Option>
    <Option name="H" modified="Yes">False</Option>
    <Option name="CreateMVAPdfs" modified="No">False</Option>
    <Option name="IgnoreNegWeightsInTraining" modified="No">False</Option>
    <Option name="InputLayout" modified="No">0|0|0</Option>
    <Option name="BatchLayout" modified="No">0|0|0</Option>
    <Option name="Layout" modified="Yes">TANH|128,TANH|128,TANH|128,LINEAR</Option>
    <Option name="ErrorStrategy" modified="Yes">CROSSENTROPY</Option>
    <Option name="WeightInitialization" modified="Yes">XAVIERUNIFORM</Option>
    <Option name="RandomSeed" modified="No">0</Option>
    <Option name="ValidationSize" modified="No">20%</Option>
    <Option name="Architecture" modified="Yes">CPU</Option>
    <Option name="TrainingStrategy" modified="Yes">LearningRate=1e-2,Momentum=0.9,ConvergenceSteps=20,BatchSize=100,TestRepetitions=1,WeightDecay=1e-4,Regularization=None,DropConfig=0.0+0.5+0.5+0.5</Option>
  </Options>
  <Variables NVar="14">
    <Variable VarIndex="0" Expression="Kbach_ProbNNk" Label="Kbach_ProbNNk" Title="Kbach_ProbNNk" Unit="" Internal="Kbach_ProbNNk" Type="F" Min="5.10000885e-01" Max="9.99803305e-01"/>
    <Variable VarIndex="1" Expression="Lc_DOCA12" Label="Lc_DOCA12" Title="Lc_DOCA12" Unit="" Internal="Lc_DOCA12" Type="F" Min="6.97496318e-07" Max="1.75438464e+00"/>
    <Variable VarIndex="2" Expression="Xicst_DOCA23" Label="Xicst_DOCA23" Title="Xicst_DOCA23" Unit="" Internal="Xicst_DOCA23" Type="F" Min="3.55930509e-13" Max="9.73069286e+00"/>
    <Variable VarIndex="3" Expression="Kbach_ProbNNp" Label="Kbach_ProbNNp" Title="Kbach_ProbNNp" Unit="" Internal="Kbach_ProbNNp" Type="F" Min="3.09430192e-07" Max="9.99382198e-01"/>
    <Variable VarIndex="4" Expression="Kbach_PT" Label="Kbach_PT" Title="Kbach_PT" Unit="" Internal="Kbach_PT" Type="F" Min="4.03433502e+02" Max="1.47210791e+04"/>
    <Variable VarIndex="5" Expression="Lc_PT" Label="Lc_PT" Title="Lc_PT" Unit="" Internal="Lc_PT" Type="F" Min="2.52761890e+03" Max="4.00415273e+04"/>
    <Variable VarIndex="6" Expression="pibach_PT" Label="pibach_PT" Title="pibach_PT" Unit="" Internal="pibach_PT" Type="F" Min="2.00006271e+02" Max="3.32139111e+03"/>
    <Variable VarIndex="7" Expression="pibach_ProbNNpi" Label="pibach_ProbNNpi" Title="pibach_ProbNNpi" Unit="" Internal="pibach_ProbNNpi" Type="F" Min="1.00149095e-01" Max="9.99639690e-01"/>
    <Variable VarIndex="8" Expression="pibach_ProbNNp" Label="pibach_ProbNNp" Title="pibach_ProbNNp" Unit="" Internal="pibach_ProbNNp" Type="F" Min="4.44849604e-07" Max="9.56227481e-01"/>
    <Variable VarIndex="9" Expression="Xicst_IPCHI2_OWNPV" Label="Xicst_IPCHI2_OWNPV" Title="Xicst_IPCHI2_OWNPV" Unit="" Internal="Xicst_IPCHI2_OWNPV" Type="F" Min="1.37118786e-05" Max="2.63996133e+04"/>
    <Variable VarIndex="10" Expression="Lc_IPCHI2_OWNPV" Label="Lc_IPCHI2_OWNPV" Title="Lc_IPCHI2_OWNPV" Unit="" Internal="Lc_IPCHI2_OWNPV" Type="F" Min="1.04185083e-05" Max="8.99999237e+00"/>
    <Variable VarIndex="11" Expression="Xicst_ENDVERTEX_CHI2" Label="Xicst_ENDVERTEX_CHI2" Title="Xicst_ENDVERTEX_CHI2" Unit="" Internal="Xicst_ENDVERTEX_CHI2" Type="F" Min="1.72308029e-03" Max="5.99373703e+01"/>
    <Variable VarIndex="12" Expression="pibach_IPCHI2_OWNPV" Label="pibach_IPCHI2_OWNPV" Title="pibach_IPCHI2_OWNPV" Unit="" Internal="pibach_IPCHI2_OWNPV" Type="F" Min="8.96283200e-06" Max="8.99967575e+00"/>
    <Variable VarIndex="13" Expression="Kbach_IPCHI2_OWNPV" Label="Kbach_IPCHI2_OWNPV" Title="Kbach_IPCHI2_OWNPV" Unit="" Internal="Kbach_IPCHI2_OWNPV" Type="F" Min="1.30371254e-05" Max="8.99991798e+00"/>
  </Variables>
  <Spectators NSpec="1">
    <Spectator SpecIndex="0" Expression="Xicst_M" Label="Xicst_M" Title="Xicst Mass" Unit="F" Internal="Xicst_M" Type="F" Min="2.92377637e+03" Max="3.90779272e+03"/>
  </Spectators>
  <Classes NClass="2">
    <Class Name="Signal" Index="0"/>
    <Class Name="Background" Index="1"/>
  </Classes>
  <Transformations NTransformations="1">
    <Transform Name="Normalize">
      <Selection>
        <Input NInputs="14">
          <Input Type="Variable" Label="Kbach_ProbNNk" Expression="Kbach_ProbNNk"/>
          <Input Type="Variable" Label="Lc_DOCA12" Expression="Lc_DOCA12"/>
          <Input Type="Variable" Label="Xicst_DOCA23" Expression="Xicst_DOCA23"/>
          <Input Type="Variable" Label="Kbach_ProbNNp" Expression="Kbach_ProbNNp"/>
          <Input Type="Variable" Label="Kbach_PT" Expression="Kbach_PT"/>
          <Input Type="Variable" Label="Lc_PT" Expression="Lc_PT"/>
          <Input Type="Variable" Label="pibach_PT" Expression="pibach_PT"/>
          <Input Type="Variable" Label="pibach_ProbNNpi" Expression="pibach_ProbNNpi"/>
          <Input Type="Variable" Label="pibach_ProbNNp" Expression="pibach_ProbNNp"/>
          <Input Type="Variable" Label="Xicst_IPCHI2_OWNPV" Expression="Xicst_IPCHI2_OWNPV"/>
          <Input Type="Variable" Label="Lc_IPCHI2_OWNPV" Expression="Lc_IPCHI2_OWNPV"/>
          <Input Type="Variable" Label="Xicst_ENDVERTEX_CHI2" Expression="Xicst_ENDVERTEX_CHI2"/>
          <Input Type="Variable" Label="pibach_IPCHI2_OWNPV" Expression="pibach_IPCHI2_OWNPV"/>
          <Input Type="Variable" Label="Kbach_IPCHI2_OWNPV" Expression="Kbach_IPCHI2_OWNPV"/>
        </Input>
        <Output NOutputs="14">
          <Output Type="Variable" Label="Kbach_ProbNNk" Expression="Kbach_ProbNNk"/>
          <Output Type="Variable" Label="Lc_DOCA12" Expression="Lc_DOCA12"/>
          <Output Type="Variable" Label="Xicst_DOCA23" Expression="Xicst_DOCA23"/>
          <Output Type="Variable" Label="Kbach_ProbNNp" Expression="Kbach_ProbNNp"/>
          <Output Type="Variable" Label="Kbach_PT" Expression="Kbach_PT"/>
          <Output Type="Variable" Label="Lc_PT" Expression="Lc_PT"/>
          <Output Type="Variable" Label="pibach_PT" Expression="pibach_PT"/>
          <Output Type="Variable" Label="pibach_ProbNNpi" Expression="pibach_ProbNNpi"/>
          <Output Type="Variable" Label="pibach_ProbNNp" Expression="pibach_ProbNNp"/>
          <Output Type="Variable" Label="Xicst_IPCHI2_OWNPV" Expression="Xicst_IPCHI2_OWNPV"/>
          <Output Type="Variable" Label="Lc_IPCHI2_OWNPV" Expression="Lc_IPCHI2_OWNPV"/>
          <Output Type="Variable" Label="Xicst_ENDVERTEX_CHI2" Expression="Xicst_ENDVERTEX_CHI2"/>
          <Output Type="Variable" Label="pibach_IPCHI2_OWNPV" Expression="pibach_IPCHI2_OWNPV"/>
          <Output Type="Variable" Label="Kbach_IPCHI2_OWNPV" Expression="Kbach_IPCHI2_OWNPV"/>
        </Output>
      </Selection>
      <Class ClassIndex="0">
        <Ranges>
          <Range Index="0" Min="5.1000088453292847e-01" Max="9.9980330467224121e-01"/>
          <Range Index="1" Min="6.9749631848026183e-07" Max="7.0424276590347290e-01"/>
          <Range Index="2" Min="2.9018303848715732e-06" Max="1.2121684551239014e+00"/>
          <Range Index="3" Min="3.0943019169171748e-07" Max="9.9368906021118164e-01"/>
          <Range Index="4" Min="4.0367718505859375e+02" Max="1.0992476562500000e+04"/>
          <Range Index="5" Min="2.5326340332031250e+03" Max="4.0041527343750000e+04"/>
          <Range Index="6" Min="2.0000627136230469e+02" Max="3.3213911132812500e+03"/>
          <Range Index="7" Min="1.0023375600576401e-01" Max="9.9963968992233276e-01"/>
          <Range Index="8" Min="4.4484960426416364e-07" Max="9.5622748136520386e-01"/>
          <Range Index="9" Min="1.3711878636968322e-05" Max="5.0999150390625000e+03"/>
          <Range Index="10" Min="1.0418508281873073e-05" Max="8.9987192153930664e+00"/>
          <Range Index="11" Min="1.7230802914127707e-03" Max="5.7858459472656250e+01"/>
          <Range Index="12" Min="2.5563955205143429e-05" Max="8.9967641830444336e+00"/>
          <Range Index="13" Min="2.9180013370933011e-05" Max="8.9999179840087891e+00"/>
        </Ranges>
      </Class>
      <Class ClassIndex="1">
        <Ranges>
          <Range Index="0" Min="5.1001447439193726e-01" Max="9.9980223178863525e-01"/>
          <Range Index="1" Min="1.0116508519786294e-06" Max="1.7543846368789673e+00"/>
          <Range Index="2" Min="3.5593050859081266e-13" Max="9.7306928634643555e+00"/>
          <Range Index="3" Min="3.1790315802027180e-07" Max="9.9938219785690308e-01"/>
          <Range Index="4" Min="4.0343350219726562e+02" Max="1.4721079101562500e+04"/>
          <Range Index="5" Min="2.5276188964843750e+03" Max="3.0730033203125000e+04"/>
          <Range Index="6" Min="2.0001296997070312e+02" Max="3.2623430175781250e+03"/>
          <Range Index="7" Min="1.0014909505844116e-01" Max="9.9933230876922607e-01"/>
          <Range Index="8" Min="2.0500285700109089e-06" Max="8.9968401193618774e-01"/>
          <Range Index="9" Min="2.6691805032896809e-05" Max="2.6399613281250000e+04"/>
          <Range Index="10" Min="2.8562481020344421e-05" Max="8.9999923706054688e+00"/>
          <Range Index="11" Min="4.3928395025432110e-03" Max="5.9937370300292969e+01"/>
          <Range Index="12" Min="8.9628319983603433e-06" Max="8.9996757507324219e+00"/>
          <Range Index="13" Min="1.3037125427217688e-05" Max="8.9995861053466797e+00"/>
        </Ranges>
      </Class>
      <Class ClassIndex="2">
        <Ranges>
          <Range Index="0" Min="5.1000088453292847e-01" Max="9.9980330467224121e-01"/>
          <Range Index="1" Min="6.9749631848026183e-07" Max="1.7543846368789673e+00"/>
          <Range Index="2" Min="3.5593050859081266e-13" Max="9.7306928634643555e+00"/>
          <Range Index="3" Min="3.0943019169171748e-07" Max="9.9938219785690308e-01"/>
          <Range Index="4" Min="4.0343350219726562e+02" Max="1.4721079101562500e+04"/>
          <Range Index="5" Min="2.5276188964843750e+03" Max="4.0041527343750000e+04"/>
          <Range Index="6" Min="2.0000627136230469e+02" Max="3.3213911132812500e+03"/>
          <Range Index="7" Min="1.0014909505844116e-01" Max="9.9963968992233276e-01"/>
          <Range Index="8" Min="4.4484960426416364e-07" Max="9.5622748136520386e-01"/>
          <Range Index="9" Min="1.3711878636968322e-05" Max="2.6399613281250000e+04"/>
          <Range Index="10" Min="1.0418508281873073e-05" Max="8.9999923706054688e+00"/>
          <Range Index="11" Min="1.7230802914127707e-03" Max="5.9937370300292969e+01"/>
          <Range Index="12" Min="8.9628319983603433e-06" Max="8.9996757507324219e+00"/>
          <Range Index="13" Min="1.3037125427217688e-05" Max="8.9999179840087891e+00"/>
        </Ranges>
      </Class>
    </Transform>
  </Transformations>
  <MVAPdfs/>
  <Weights NetDepth="4" InputDepth="1" InputHeight="1" InputWidth="14" BatchSize="1" BatchDepth="1" BatchHeight="100" BatchWidth="14" LossFunction="C" Initialization="F" Regularization="0" OutputFunction="S" WeightDecay="9.9999997473787516e-05">
    <DenseLayer Width="128" ActivationFunction="3">
      <Weights Rows="128" Columns="14">
        2.715236e+00  -1.895425e-01  -8.048173e-01  -3.848360e+00  5.418139e+00  -7.456636e-01  -2.102291e-03  -1.225267e+00  1.373148e+00  -8.673142e-01  5.864969e-01  -1.229671e-01  3.117040e-02  1.157166e-01  3.440401e+00  -1.004913e+00  -1.744740e+00  -3.572886e+00  9.742017e-01  2.561539e+00  2.572930e+00  1.931901e+00  1.848318e-01  -1.489597e+00  -1.285166e+00  -9.290227e-01  5.992342e-01  4.354565e-01  -1.179182e+00  1.257977e+00  1.347493e+00  -9.097333e-01  -3.290234e-01  1.439420e+00  5.417066e-01  -1.132266e+00  5.912260e-01  1.418372e+00  2.444108e-01  1.498522e+00  1.944014e-01  -9.585477e-01  2.250089e+00  -7.397385e-01  -1.150331e+00  -1.074548e-01  -3.172894e+00  7.505017e+00  2.490673e+00  8.093904e-01  1.847776e+00  -8.793275e-01  -4.030001e-01  -1.341699e-01  -1.206209e-01  -1.251395e+00  2.526492e-01  -1.341446e+00  -1.278966e+00  -3.249233e-01  -4.933336e+00  7.476551e+00  3.868687e+00  5.096538e-01  1.165783e+00  -1.526304e+00  1.013899e-01  -8.446348e-01  4.012429e-01  -4.224955e-02  8.532259e-01  1.643893e+00  1.643577e+00  1.390546e+00  -1.112412e+00  1.408875e+00  1.052572e+00  -9.658086e-01  1.100271e+00  1.794719e+00  1.322532e+00  1.224373e+00  6.868886e-01  1.672391e+00  -9.469514e-01  -3.984834e-02  1.136178e-01  -5.011849e-01  -2.167831e+00  -2.772572e+00  -2.452560e+00  -6.530202e-01  -1.297071e+00  1.916455e-01  -5.181749e-01  -2.498397e-02  -6.487744e-02  -1.224571e+00  -5.010826e-02  1.014940e-01  -3.029738e-01  9.004334e-01  6.507642e+00  -5.538097e+00  -1.814134e+00  -1.007900e-01  -2.101822e-01  -9.721450e-02  2.124536e-01  6.604312e-02  -1.269426e-01  1.082409e-01  1.865782e-01  -1.042058e+00  -1.846220e+00  -7.113656e-02  -3.718621e+00  7.199802e+00  4.274491e+00  5.939921e-01  6.218335e-01  -1.919122e+00  4.551343e-01  -8.469177e-01  2.798312e-01  2.018786e-02  1.355415e+00  -1.490785e+00  -1.780716e+00  -9.337557e-01  1.030862e+00  -8.545438e-01  -6.541967e-01  5.707278e-01  -2.178795e-01  -1.524593e+00  -1.056185e+00  -1.237302e+00  -5.428878e-01  -6.594844e-01  1.555007e+00  -1.496005e+00  -1.668063e+00  -1.570353e+00  -2.142293e-01  -1.547403e-01  -3.401045e-01  3.372409e-01  -5.473254e-01  -1.382169e+00  -4.172254e-01  -1.535224e+00  -4.053319e-01  -6.254100e-01  -1.776562e-01  2.237383e-01  -6.677551e-01  8.998704e-01  1.397619e+00  4.895448e+00  3.091478e+00  5.999846e+00  -7.371014e-01  -4.507413e-01  -4.547328e-01  3.359482e-01  1.060124e-01  -5.100577e-01  2.513228e+00  -6.900515e-01  -8.210021e-01  8.279638e-01  -3.724425e+00  -1.596150e+00  -9.389164e-01  -1.825883e+00  4.263621e-01  -6.100584e-01  1.186293e-01  -7.857015e-01  -7.240615e-01  -4.154313e-02  1.924612e-01  -1.006878e+00  -1.071927e+00  8.778431e-02  -1.143697e+00  -6.433649e-01  -1.037005e+00  2.061529e-02  -7.865543e-01  -9.409177e-01  -1.089805e-01  -9.362522e-01  -6.007808e-01  -3.399399e-01  9.278457e-01  -1.340566e+00  -1.402134e+00  1.595771e+00  1.944698e-01  -4.267392e-01  -2.149433e-01  6.113281e-01  -4.766041e-01  -1.428219e+00  -9.065792e-01  -3.932973e+00  8.856634e-01  3.137425e-01  -3.596588e+00  -3.041453e-01  6.061887e-01  -3.082826e+00  -4.937438e+00  7.341437e-01  -3.080599e-01  -8.449820e-02  -9.800939e-01  4.452147e-01  9.686958e-01  -3.985671e-01  -3.009466e+00  -7.534582e-01  -2.644153e+00  1.058532e+00  1.114839e+00  4.106546e+00  1.175231e+00  -6.230824e+00  -2.140004e+00  1.195090e-01  -1.052090e+00  1.105744e+00  1.060522e+00  -1.826948e-01  9.072617e-01  -2.364987e-01  5.778869e-01  -1.185381e+00  -1.152373e+00  -9.788768e-01  -1.057625e+00  -7.441179e-01  -1.286651e+00  -6.709929e-01  -4.165186e-01  -9.976205e-01  -3.538899e-01  -9.106946e-01  -6.705738e-01  -6.117722e-01  -4.126365e-01  4.074114e-01  1.939603e+00  -6.594655e-02  -7.758703e+00  1.818984e+00  -2.255956e-01  -3.564977e-01  -4.170413e-01  1.774199e+00  -3.344628e-02  3.199010e-01  2.792192e-01  -1.541580e-01  -6.512725e-01  1.229704e+00  1.978037e+00  1.435278e+00  7.606667e-01  -4.918756e+00  -4.156001e+00  -1.762033e+00  -5.665799e-01  1.968006e+00  7.185613e-01  1.730650e+00  1.651755e-01  2.626640e-01  5.333014e-02  -1.006606e+00  -1.421303e+00  -2.522115e-01  -2.950902e+00  7.331224e+00  3.920769e+00  1.681041e-01  1.430629e+00  -1.702800e+00  -3.214914e-01  3.245237e-02  -4.510584e-01  -7.689466e-01  2.393317e+00  -1.875982e+00  -2.226989e+00  -1.838077e+00  1.275308e-01  -8.578114e-01  -1.205781e+00  1.763473e+00  -6.862868e-01  -1.983965e+00  3.113557e+00  -1.191631e+00  1.799339e+00  2.345149e+00  -1.207356e+00  9.404781e-01  1.932251e+00  3.245854e+00  -5.829565e+00  -3.250911e-01  -9.850301e-01  -7.266894e-01  -2.852729e-01  1.750324e+00  6.110716e-01  6.574699e-01  9.956722e-01  -3.210612e-01  4.431276e-01  -1.064477e+00  -1.332942e+00  -1.635141e+00  1.495662e-01  -8.455816e-03  -6.497907e-02  2.374142e+00  4.386954e-01  -1.280782e+00  -2.990986e+00  -1.680582e+00  -3.136132e+00  5.019736e-01  -3.004886e-01  5.525714e-01  2.141744e+00  -7.413831e-02  -8.148572e+00  1.458638e+00  -2.793261e-01  -1.557159e-01  -4.147831e-01  2.031643e+00  3.121600e-01  2.515737e-01  -1.042774e-01  1.012804e-01  3.262098e+00  -1.666289e+00  -1.902240e+00  -3.421605e+00  -9.121301e-01  3.668770e+00  1.291850e+00  1.957052e+00  -2.721861e-01  -1.760342e+00  -9.969338e-01  -9.775971e-01  -3.319851e-01  -1.186104e+00  -1.781124e+00  8.660657e-01  2.014789e+00  7.898309e-01  -6.364917e+00  -1.843044e-01  -1.538583e+00  -2.618248e-01  -7.403704e-01  1.626525e+00  1.328055e-01  5.036351e-01  -6.009718e-01  -7.879223e-01  1.597311e-01  -3.488615e-01  -5.145025e-01  1.104787e+00  -1.796644e+00  -3.812508e+00  -2.427988e+00  1.705253e+00  -1.207944e+00  -6.622402e-01  1.589378e+00  -5.632480e-01  1.876952e-01  -9.401662e-01  -4.197600e-01  9.633245e-01  7.591075e-01  -4.937916e-01  6.764629e-01  4.592920e-01  4.027551e-01  -5.073624e-01  6.563141e-01  9.451529e-01  -4.268918e-01  8.909414e-01  7.938180e-01  -2.520724e-01  -2.074919e-01  5.216823e-01  2.084029e+00  -7.561307e-02  -8.716477e+00  2.023313e+00  -1.189124e-01  -2.458426e-01  -2.710285e-01  1.811624e+00  1.185990e-01  4.659986e-01  -4.695199e-02  -3.922170e-02  -2.771405e+00  3.970075e-01  2.791315e-02  3.477520e+00  3.791459e+00  -3.167021e+00  -9.765768e-01  -1.173899e+00  5.674736e-01  -1.196022e-01  7.501621e-01  5.804111e-01  1.764724e+00  -8.504398e-01  -6.349652e-01  4.404555e-01  1.551848e+00  1.181588e+00  -5.972422e+00  -1.259230e+00  -2.920843e+00  -1.456035e+00  -9.891535e-01  1.344092e+00  -3.030962e-01  5.473773e-01  2.379138e-01  -1.059364e+00  2.960804e-01  -5.781322e-01  -2.074725e+00  2.262182e-02  8.558652e+00  -1.680268e+00  7.231054e-02  2.456172e-01  3.260250e-01  -1.752430e+00  -1.574673e-01  -3.470563e-01  5.611949e-02  8.202667e-04  -1.951643e-01  6.281142e-01  1.972964e+00  5.591216e-02  -8.293802e+00  2.077488e+00  -1.827673e-01  -3.672405e-01  -8.165243e-02  1.509563e+00  1.128265e-01  1.726419e-01  1.663276e-02  1.699977e-01  -3.084757e-01  1.282709e+00  1.277945e+00  -5.474315e-01  6.660026e-01  1.146796e+00  5.943854e-01  -1.756093e+00  2.271609e+00  1.221996e+00  5.715117e-01  1.325883e+00  1.967218e+00  1.008036e+00  1.622000e+00  5.873811e-02  -2.018184e-01  -1.728493e+00  3.229808e+00  1.611645e+00  1.163530e+00  -1.418316e+00  1.557070e+00  -1.296290e-02  4.663733e+00  5.605476e-01  1.924146e+00  2.638940e+00  4.489442e-01  1.004899e+00  9.741170e-01  3.550939e-01  2.076048e+00  4.816175e-01  1.120669e+00  2.015062e-02  1.271268e+00  9.868420e-01  -2.127987e-01  1.216592e+00  8.861599e-01  5.663612e-01  4.262169e+00  -1.259314e+00  -1.104404e+00  1.989191e-01  2.959706e-01  1.621805e+00  1.550394e+00  3.510230e+00  -9.650901e-01  -9.061805e-01  1.705296e+00  -8.965136e-01  5.079257e-01  2.329093e-01  3.013772e-01  -1.198507e+00  -1.279171e+00  -1.698795e-01  -1.091074e+00  -2.354187e-01  -5.305634e-01  4.646387e-02  -4.025050e-01  -1.024755e+00  4.261088e-01  -1.363042e+00  4.085807e-02  -5.658004e-01  1.513601e-01  -7.529117e-01  -1.888586e+00  9.696442e-02  7.492908e+00  -1.191096e+00  3.976710e-01  6.115862e-01  3.495598e-01  -1.564135e+00  -1.046959e-01  -3.587784e-01  1.288877e-01  7.516740e-02  1.136727e-01  6.235892e-01  1.298473e+00  -2.235473e-01  -1.377311e-01  -5.548420e+00  -4.488503e+00  -4.967286e+00  9.146816e-01  1.034334e+00  6.995761e-01  5.704852e-01  3.337519e-01  -7.517763e-02  -5.460200e-03  3.673588e-01  1.037298e+00  -5.254977e-02  -6.418823e-01  -4.850368e+00  -4.026978e+00  -5.659960e+00  1.033109e+00  5.920286e-01  -3.301426e-01  4.618404e-01  -7.838962e-01  1.319820e-01  -9.206941e-01  1.968526e-01  -3.689148e-01  2.238957e-01  9.240639e-01  5.723928e+00  2.839071e+00  5.560602e+00  -9.217176e-01  -1.390442e-01  -1.019964e+00  6.184300e-01  -3.499209e-01  -1.489678e+00  -3.236135e-01  4.878306e-01  2.271599e+00  -4.673221e-02  -8.101205e+00  1.367045e+00  -3.654643e-01  -3.891690e-01  -5.133744e-01  1.809974e+00  7.082222e-02  4.319357e-01  4.036982e-02  -3.486272e-02  -1.564457e+00  1.086487e+00  1.488633e+00  -1.343977e-01  3.696505e+00  -7.508112e+00  -3.913485e+00  -7.712002e-01  -1.186311e+00  1.680169e+00  -2.264022e-01  7.947016e-01  -4.720647e-02  2.549424e-01  -2.139987e+00  1.547452e+00  2.528320e+00  1.636720e+00  -3.040209e+00  -1.523781e+00  -2.828588e+00  -1.671667e+00  -7.911292e-02  2.245243e+00  1.620995e+00  1.661302e+00  9.420278e-01  3.416783e-01  -3.878376e-01  4.616702e-01  2.100785e+00  -8.966566e-02  -8.391779e+00  1.734415e+00  -1.934951e-01  -4.270339e-01  -4.512122e-01  1.915808e+00  9.089829e-02  4.410595e-01  -4.602173e-02  -8.956066e-02  3.187406e+00  2.062048e-01  2.344803e-01  9.114265e-01  1.980258e+00  3.454557e+00  2.098198e+00  -3.240717e-01  1.907494e+00  3.005666e-01  -1.869529e+00  8.550470e-01  -7.622373e-01  2.951083e+00  6.215055e-01  -1.027281e+00  -8.220847e-01  -2.239675e+00  -2.267936e+00  -1.733256e+00  -2.582283e+00  6.163119e-01  -1.408851e+00  -7.511314e-01  -1.841828e+00  3.420121e-01  -9.958523e-01  -8.203678e-01  -1.486523e+00  6.640558e-01  5.759389e-01  3.390349e+00  2.274750e+00  -7.898514e+00  -2.098242e+00  7.610894e-01  -1.756578e+00  4.366198e-01  6.213264e-01  -3.141359e-02  3.267610e-01  7.230635e-01  1.528875e+00  -1.249475e+00  -1.436980e+00  -1.156207e+00  -1.073138e+00  -2.247170e-01  -6.717070e-01  2.162883e-01  -2.749447e-01  -1.417855e+00  -1.459659e+00  -1.272240e+00  -2.034342e-01  -1.222893e+00  6.753824e-01  5.211800e-01  3.909833e-01  8.104004e-01  1.835877e+00  1.526455e+00  1.904531e+00  -1.091356e+00  1.545760e+00  3.877721e-01  8.281286e-01  -1.637153e-02  -3.527114e-01  1.004693e+00  1.685818e+00  -9.347305e-01  -8.738930e-01  -4.205997e+00  6.235096e-01  4.520670e+00  2.067364e+00  -1.503410e+00  2.007493e+00  -1.083495e+00  4.605042e-01  -3.412933e-01  -2.690812e+00  2.104986e-01  1.061764e+00  -7.345921e-01  -1.715456e+00  -1.894517e+00  5.494987e+00  -1.244973e+00  -4.894533e-01  -3.504889e-01  2.348180e-01  -1.547012e+00  2.882005e-01  -4.990001e-01  -9.438474e-01  -1.433367e+00  -1.465163e+00  9.036196e-01  2.342773e+00  1.785283e+00  -5.330882e+00  1.185975e-01  -4.992858e-01  -1.359592e+00  1.753145e-01  1.985879e+00  1.241903e+00  5.389572e-01  3.953403e-01  6.806626e-01  -1.002914e+00  1.299343e+00  2.352376e+00  1.277952e+00  -6.047702e+00  5.545775e-01  -2.043730e-01  -7.621930e-01  -2.845655e-01  1.819420e+00  1.098134e+00  6.914701e-01  -1.275573e-01  2.271735e-01  -2.124933e+00  8.001022e-02  4.323035e-01  4.381144e+00  8.962509e-01  -4.987342e+00  -2.416412e+00  -9.681569e-01  -1.207626e+00  2.835111e-01  -1.024473e+00  3.321674e-03  -1.386327e+00  4.750156e-01  -4.416529e-01  1.506952e-01  -6.920374e-01  -5.372361e-02  1.311619e+00  5.049206e+00  3.479818e+00  5.388868e+00  -6.937255e-01  -3.033182e-01  -8.646556e-01  4.383301e-02  6.235057e-01  2.313775e-01  6.025614e-01  -1.511096e+00  -1.996499e+00  7.233292e-01  1.389407e+00  -1.916669e-01  -3.516409e-01  2.058154e+00  -1.473847e+00  -1.654558e+00  -1.201077e+00  -1.310202e+00  -1.111429e+00  -1.255833e+00  -2.976525e-01  4.916930e-01  1.992148e+00  -1.504155e-01  -8.073701e+00  1.705562e+00  -1.921706e-01  -2.565748e-01  -1.987508e-01  1.792805e+00  2.815323e-01  5.081106e-02  1.784550e-01  -1.005035e-01  2.305437e+00  -1.559140e+00  -1.661215e+00  -6.354092e-01  -5.081705e-01  4.441467e-01  -6.421295e-01  2.687830e+00  -7.027081e-01  -1.648932e+00  -6.707360e-01  -1.919627e+00  -1.291516e+00  -1.378630e+00  5.683795e-01  -2.701822e-01  5.966689e-01  -3.570303e-01  3.018254e-01  -6.508657e+00  -3.123617e+00  -5.524958e+00  7.463469e-01  3.510893e-01  8.336790e-01  -7.703230e-01  4.406589e-01  8.023160e-01  2.863008e-01  -8.902469e-01  -1.265713e+00  -1.014279e+00  -8.873640e-01  -1.186700e+00  -1.066102e+00  -3.947300e-01  -2.931180e-01  -8.857194e-01  -1.025872e+00  -8.522150e-01  -6.415505e-01  1.983674e-01  -2.693555e-01  1.138396e+00  1.528157e+00  2.063636e-01  4.854107e+00  -8.184482e+00  -3.509884e+00  -4.870582e-01  -8.562224e-01  1.655666e+00  -3.164093e-01  5.748470e-01  -4.794338e-02  9.398287e-03  2.010238e+00  -3.236194e-01  -8.957808e-01  -3.430447e-01  -1.740054e-01  2.908220e-01  1.587788e-01  2.702860e+00  1.072826e+00  -6.845664e-01  5.688531e-01  -4.365067e+00  -7.483222e-01  -1.854975e-01  4.915981e-01  9.747496e-01  9.611655e-01  4.534484e-01  2.404381e+00  2.619050e+00  1.804781e+00  7.725546e-01  1.902643e+00  8.729207e-01  6.568286e-01  1.162909e+00  7.563858e-01  1.347787e+00  -1.338512e-01  4.449742e-01  2.651593e-01  -3.528563e+00  1.007779e+00  4.248553e+00  2.838819e+00  5.853754e-01  7.058652e-01  1.089764e-01  -2.882717e+00  6.136823e-01  -2.365310e+00  -1.785908e+00  -8.385034e-01  4.994553e-02  7.633198e-01  1.483117e+00  -2.663635e+00  -4.734716e+00  -3.945932e+00  -3.263950e+00  2.077322e-01  3.155614e-01  1.461577e+00  -3.077975e-01  -3.253198e-01  -2.098469e-01  5.565157e-01  -1.198006e+00  -7.901280e-01  -2.292788e-02  -1.514377e+00  -2.180633e+00  -2.438617e+00  -7.488691e-01  -1.253819e+00  -1.102158e+00  -1.000561e+00  -1.181337e+00  -5.520075e-01  -7.755765e-01  -6.245627e-01  1.326756e+00  1.291050e+00  -1.490870e+00  5.461800e-02  1.313366e+00  9.997134e-01  1.485570e+00  4.372092e-01  1.010730e+00  7.146500e-01  2.325162e+00  6.093541e-01  1.505873e-01  -1.299438e-03  -1.101288e+00  -1.038555e+00  -3.665729e-01  -1.751436e+00  -6.831384e-01  -6.760761e-01  2.284280e-01  -9.474556e-01  -1.003887e+00  1.416000e-01  -1.097566e+00  -4.395294e-01  -1.030975e+00  3.848176e-01  2.585361e-02  1.078626e+00  1.542534e+00  -5.025711e+00  -2.845180e+00  -3.082531e+00  -2.461383e-02  -1.422132e+00  4.769995e-01  3.660064e-01  -1.306176e-01  -4.429985e-03  3.982757e-01  4.883191e-01  -1.147285e+00  -1.091102e+00  5.750663e-01  -6.687475e-01  -1.105503e+00  -1.072561e+00  4.486459e-01  -7.268917e-01  -1.230101e+00  -9.549748e-02  -1.662538e+00  -4.202628e-01  -5.795388e-01  -2.061318e+00  9.533612e-01  9.536662e-01  4.124690e+00  -1.027606e-01  4.807996e-01  -3.292290e-02  2.452025e+00  -1.170564e-02  6.616552e-01  1.757600e+00  1.069532e+00  2.564288e+00  -1.983598e+00  -1.801035e+00  1.558693e+00  2.316963e+00  2.816641e+00  -1.314836e+00  -2.699266e+00  -2.586425e+00  -1.453399e+00  -1.176381e-01  2.336566e+00  1.118603e+00  1.374744e+00  4.336208e-02  3.633733e-01  -6.670120e-01  9.702479e-01  3.060344e-01  2.064362e+00  3.767271e+00  1.694218e+00  2.596615e+00  4.395854e-01  7.410521e-01  7.563275e-01  6.933313e-01  1.192169e+00  5.855308e-01  1.352973e+00  1.009639e+00  -7.328772e-01  -7.235109e-01  -1.591611e+00  6.874913e-02  1.034824e+00  5.898854e-01  1.446522e+00  -9.555045e-01  -3.810855e-01  -1.810145e+00  -1.068406e-01  -1.120444e+00  -1.400070e+00  4.110811e+00  1.734520e-01  3.426583e-02  3.226763e+00  -2.648061e-01  6.757525e-01  4.310665e-01  1.242681e+00  9.947661e-01  7.534384e-02  -1.754613e+00  -2.323605e+00  -1.016024e+00  -2.466684e+00  -3.117217e+00  1.586936e+00  2.166486e+00  1.380937e+00  1.629310e+00  -2.673779e+00  -7.386079e-01  -6.763806e-01  -3.147776e-01  1.564634e+00  1.135252e+00  1.119605e+00  1.360458e+00  -2.774597e-01  -1.350521e-02  -1.323264e+00  -1.080751e+00  9.369676e-02  -1.461458e+00  -1.019493e+00  -1.167166e+00  -1.663379e-01  -6.836720e-01  -1.239155e+00  -2.574263e-01  -1.099869e+00  4.739559e-02  -9.517448e-01  -1.645019e-01  2.492318e-01  1.795330e+00  -7.159947e-02  -7.961479e+00  2.153738e+00  -1.077989e-01  -7.149841e-01  -2.970026e-01  1.676517e+00  2.978198e-01  3.287125e-01  -7.469162e-02  2.188402e-01  -4.474566e+00  1.148273e+00  1.503422e+00  1.744202e+00  -8.812138e-01  -1.922666e+00  -7.363676e-01  2.178430e-01  -9.945111e-01  1.335082e+00  8.776011e-01  3.301698e-01  3.194659e-02  5.601016e-01  -8.523897e-01  1.012403e+00  1.132514e+00  3.076492e+00  1.941272e+00  1.048541e+00  1.141360e+00  1.293785e+00  8.314426e-01  1.151675e+00  4.413132e-01  9.437025e-01  1.644858e+00  -3.418924e-01  -4.663199e-01  -9.627858e-01  -7.125532e-01  -4.900734e-01  -2.760736e+00  -5.999340e-01  -1.230910e+00  2.129334e-01  -1.506961e+00  -9.491257e-01  -2.629221e-01  -1.312904e+00  -5.093346e-01  -1.067849e+00  6.822792e-01  -1.291955e+00  -1.411047e+00  -2.982961e-01  -7.525827e-01  -4.264748e-02  -4.937756e-01  2.064571e-02  -3.788478e-01  -1.054132e+00  -7.821397e-01  -1.198664e+00  -8.065599e-01  -2.548948e-01  -1.450534e-01  -8.515038e-01  -8.485234e-01  -1.340661e+00  -2.385432e+00  -8.686218e-01  -1.122130e+00  -4.969944e-01  -5.342026e-01  -7.861443e-01  -9.585782e-01  -8.260407e-01  -1.935712e-01  -1.199802e+00  3.818555e-01  -1.350770e+00  -9.981826e-01  -6.835775e-01  -1.673698e+00  -9.402853e-02  -6.761681e-01  1.094122e-01  -7.527872e-01  -1.089934e+00  -9.586728e-01  -9.049158e-01  -1.026609e+00  -7.046716e-01  2.010085e+00  -1.307250e+00  -2.220532e+00  -2.735223e+00  3.684623e+00  -1.133260e+00  -3.011791e-01  -1.112449e-01  -4.797181e-02  -2.184901e+00  -4.401048e-01  -1.232171e+00  -1.518675e-01  4.706317e-01  1.212051e+00  -1.731809e-01  -1.119288e+00  -1.737742e+00  5.956924e+00  9.439987e-01  2.166534e+00  5.957940e-01  4.162522e-01  -7.983223e-01  6.077205e-02  4.898067e-02  9.514517e-01  1.435382e+00  -9.385541e-01  1.040465e+00  1.205676e+00  1.448327e-01  3.463761e-01  5.446804e-01  9.773818e-01  -3.818457e-01  2.721914e-01  1.016322e+00  1.113220e+00  1.553699e+00  1.175029e+00  4.580552e-01  -5.392184e-01  1.347871e+00  1.167560e+00  9.732405e-01  4.917129e-01  5.344672e-01  5.893210e-01  -1.488747e+00  1.077109e+00  1.155036e+00  9.997426e-01  1.015936e+00  -1.273018e+00  1.366025e+00  -5.386372e-02  8.741043e-01  -1.235716e-01  1.798082e-01  3.438351e+00  2.979666e+00  1.591166e+00  7.447531e+00  -1.047291e+00  -4.276541e-02  -6.290296e-01  5.768707e-01  9.911668e-03  -4.286472e-01  2.401833e+00  -1.718338e+00  -2.193026e+00  -6.437377e-01  2.028348e+00  1.878151e-01  1.579820e-01  7.191745e-01  4.615808e-01  -1.919567e+00  -2.365130e-01  -9.495954e-01  1.944248e-01  -6.777548e-01  3.007882e-01  -3.895953e-01  -2.207343e+00  4.418059e-02  7.935245e+00  -1.839059e+00  4.228352e-01  2.938789e-01  4.050257e-01  -1.913735e+00  -4.088046e-02  -4.409776e-01  3.648470e-03  -1.008042e-01  1.706669e-01  -1.293236e+00  -1.459297e+00  -7.927293e-02  -4.058100e+00  7.595402e+00  2.929218e+00  6.136596e-01  1.249308e+00  -1.472785e+00  -3.974157e-02  -7.867550e-01  3.664833e-01  1.147302e-01  3.656029e-01  -4.966478e-01  -1.873038e+00  -1.890451e-02  8.614352e+00  -2.238249e+00  2.000745e-01  3.512493e-01  2.157551e-01  -1.828583e+00  -1.225342e-01  -2.746798e-01  -3.740089e-02  -2.149533e-02  -2.684205e+00  1.343781e+00  1.520847e+00  1.987349e+00  1.936109e+00  -5.003601e+00  -1.678640e+00  -2.814631e+00  -3.373390e-01  1.115524e+00  1.473394e+00  3.957901e-01  5.404289e-01  -4.893141e-01  1.629005e-01  -3.342751e-01  -1.910149e+00  -9.305990e-02  8.031128e+00  -1.868140e+00  1.661502e-01  2.093256e-01  2.993975e-01  -1.778730e+00  -2.685507e-01  -1.519082e-01  -1.413338e-01  1.388106e-01  8.300871e-02  -7.015107e-01  -2.047965e+00  -4.605759e-01  7.853042e+00  -9.288818e-01  3.457018e-01  1.228047e-02  4.625474e-01  -1.924035e+00  -2.955356e-01  -2.382236e-01  2.154281e-01  1.597216e-02  -1.803907e+00  -6.754662e-01  -1.907736e-02  4.011189e-01  -2.995196e+00  -3.778644e+00  -3.088801e+00  -4.421978e+00  -1.725219e+00  -3.200316e-01  -4.422575e-01  -7.856714e-01  -7.794811e-01  -2.059281e-01  6.413324e-01  -1.163162e+00  -1.378422e+00  -4.728839e-02  -5.320613e-01  -6.138465e-01  -6.032768e-01  6.273137e-01  -3.497123e-01  -1.294790e+00  -4.426630e-01  -1.139699e+00  -5.367021e-02  -3.031730e-01  -4.402342e-01  1.613121e+00  2.547113e+00  9.609233e-01  -1.205814e+00  -1.941540e+00  -1.412416e+00  -2.215107e+00  2.689040e-01  2.292011e+00  2.518244e+00  1.631864e+00  2.347299e+00  2.664829e-01  -3.577518e-01  1.164358e+00  1.659270e+00  2.877810e-01  5.444803e+00  -8.161014e+00  -3.718115e+00  -6.106871e-01  -1.246101e+00  1.463653e+00  -2.113028e-01  8.101763e-01  -2.148685e-01  -7.886297e-03  2.245360e+00  5.534168e-01  4.378792e-01  -5.292182e+00  -1.794401e-01  2.275376e+00  1.849140e+00  5.050359e-01  1.741563e-01  4.089751e-01  -3.537017e-01  1.691058e+00  -1.858440e+00  -1.875579e+00  2.225281e-01  -2.098097e-01  2.751805e-01  -4.843343e-01  -2.303287e+00  -4.583617e+00  -2.312899e+00  -6.087060e+00  6.608052e-01  2.010018e-01  1.511337e+00  -8.548400e-01  -8.615446e-02  -3.708244e-01  8.194441e-02  -1.185862e+00  -8.754436e-01  -2.700461e-01  -1.152151e+00  -6.789876e-01  -8.587675e-01  -6.009285e-01  -8.486142e-01  -1.067857e+00  -3.667074e-01  -1.356732e+00  -6.425776e-01  -6.815478e-01  -2.394837e+00  -8.802425e-01  1.037388e-02  -2.455109e+00  -3.351727e+00  -3.565913e+00  -2.731299e+00  -6.688589e-01  -1.717818e+00  -3.570455e-01  -1.355806e+00  -1.188621e+00  7.949883e-01  -3.044666e-01  -1.901756e+00  1.823303e+00  1.603436e+00  2.370461e+00  8.691322e-01  7.589554e-01  1.628627e+00  1.393945e+00  4.439203e-01  1.533426e+00  9.378847e-01  1.293262e+00  8.430868e-02  1.003505e+00  1.439663e+00  -1.649582e+00  -1.905790e+00  -2.276855e+00  -4.448979e-01  2.812069e-01  -9.338765e-02  1.441047e-02  -6.396255e-01  -1.742140e+00  -9.035864e-01  -1.539381e+00  -1.240163e+00  1.084353e-01  -1.009400e+00  1.342474e+00  1.793865e+00  1.325965e+00  -1.511097e-01  3.167721e-01  8.966518e-01  -5.357398e-03  3.578891e-01  1.345406e+00  -9.115974e-02  1.209754e+00  7.889833e-01  3.726254e-01  2.591054e+00  -1.315547e+00  -1.548962e+00  -2.457145e-01  -1.186075e-01  1.911489e+00  9.832856e-01  4.282922e+00  -6.988831e-01  -1.387288e+00  1.447077e+00  -1.188713e+00  -2.991603e+00  -9.874839e-02  3.719986e+00  -3.206540e-01  -9.516493e-01  -1.306991e-01  -1.071062e+00  6.431051e+00  3.470122e+00  -2.749670e-01  1.953323e+00  -9.010413e-01  -1.683892e-01  -4.834859e-02  -3.268611e-01  -3.349469e-01  -4.984597e-01  6.102737e-01  1.759470e+00  5.264905e-01  -7.542491e+00  6.273038e-01  -1.187234e+00  -6.824355e-01  -5.479404e-01  1.714274e+00  3.015789e-01  4.749756e-01  -2.535394e-01  -2.004009e-01  -3.321943e+00  1.227595e+00  1.106659e+00  1.219600e+00  1.419923e+00  -1.056283e-01  9.553607e-01  4.583092e-02  6.875626e-01  1.147693e+00  -1.435456e+00  1.404111e+00  2.331567e+00  3.042770e+00  -7.219661e-01  1.135760e+00  1.296419e+00  1.212532e+00  6.523647e-01  -3.365920e-01  5.435390e-01  -4.606307e-01  4.593449e-02  9.251150e-01  5.564812e-01  8.203689e-01  1.408597e+00  1.666465e+00  -1.018963e+00  1.669695e+00  1.884066e+00  -1.012196e-02  9.866114e-01  -1.227234e+00  1.577570e-01  -1.344082e-01  6.766126e-02  1.342475e+00  1.170150e+00  1.389129e+00  4.530009e-01  7.281573e-01  -7.666860e-01  2.782866e-04  6.567135e-01  4.205822e+00  -4.714436e+00  -1.008579e+00  -1.539480e+00  -1.210153e+00  -1.270033e+00  2.921852e-01  -1.718707e-01  3.171875e-01  1.594143e-01  -1.604152e+00  -1.704264e+00  -1.275337e+00  -1.368113e+00  -1.123005e-01  -8.681859e-01  -1.371376e+00  -6.326580e-01  4.920676e-01  -6.349923e-01  -1.436631e+00  -2.521362e-01  -1.038327e+00  -6.303949e-01  -4.428911e-01  1.643802e-01  -1.005625e+00  -1.024574e+00  4.243833e-03  -8.236966e-01  -7.775709e-01  -7.860328e-01  2.973971e-02  -8.119353e-01  -1.071641e+00  2.085534e-01  -1.288892e+00  -4.524403e-01  -2.528102e-01  1.217605e+00  1.799792e-01  -3.356892e-01  7.696206e-01  3.641036e+00  2.656469e+00  2.939573e+00  8.233738e-01  1.118732e+00  -2.390555e-01  1.268569e-01  8.072445e-01  1.178320e+00  1.192254e+00  2.328218e-01  -5.797145e-01  -1.966905e+00  3.046490e-03  8.791311e+00  -1.899878e+00  6.998797e-02  2.560237e-01  5.007944e-01  -2.164732e+00  -7.550251e-02  -3.407192e-01  -1.941840e-02  1.397595e-02  1.220819e+00  -8.697482e-01  -1.329547e+00  -4.372173e-01  -2.980919e+00  7.217360e+00  2.532588e+00  1.123370e+00  1.293047e+00  -1.239182e+00  -6.298546e-01  -2.125849e-01  -1.314707e+00  -1.027616e+00  8.220097e-01  -1.172412e+00  -1.109913e+00  -5.050070e-01  -1.682076e+00  5.030506e-01  -9.290176e-01  9.760905e-01  -6.560443e-01  -1.136442e+00  -7.516411e-01  -8.729334e-01  -8.314454e-01  -8.021857e-01  -3.614252e+00  9.248638e-01  1.471698e+00  -4.058934e-01  1.413918e+00  -6.465550e+00  -3.134238e+00  -5.097180e-01  -1.483944e+00  1.549842e+00  -2.801148e-01  4.142865e-01  -7.619186e-02  -1.182138e-01  -2.977747e+00  2.240406e+00  2.163396e+00  1.776767e+00  8.287093e-01  -2.926578e+00  -9.523957e-01  -5.628398e-01  2.070806e-01  2.306714e+00  1.789492e+00  1.345161e+00  1.676455e+00  1.649477e+00  -2.746722e+00  8.460034e-01  1.516019e+00  -3.841303e-01  2.423109e+00  -7.395950e+00  -3.298932e+00  -7.433680e-02  -1.570762e+00  1.206989e+00  3.102942e-01  -1.462687e-01  5.134241e-01  2.508835e-01  -2.295957e-01  1.158877e+00  2.011509e+00  4.869742e-01  1.390139e+00  -6.053690e+00  -5.367491e+00  -1.112579e+00  -3.736150e-01  1.892275e+00  2.857563e-01  1.123350e+00  -3.359324e-01  -1.001552e-01  -2.747067e+00  5.887176e-01  1.010358e+00  1.417140e+00  3.799183e-01  -6.188862e+00  -2.793218e+00  7.168547e-01  -1.745239e+00  1.080253e+00  9.845855e-01  5.385745e-02  5.457250e-01  9.821039e-02  
      </Weights>
      <Biases Rows="128" Columns="1">
        7.806168e-01  1.535843e+00  -1.466548e+00  1.057566e+00  1.431061e+00  -1.670798e+00  -4.095804e-02  1.922769e-01  1.726573e+00  1.666285e+00  1.570041e+00  5.814428e-01  7.927030e-01  1.077088e+00  1.247014e+00  -2.916600e-01  -1.037929e+00  1.196217e+00  -1.613704e+00  -1.872013e+00  1.547581e+00  2.028765e+00  -1.689232e+00  1.278675e+00  -1.865392e+00  1.624508e+00  -1.685637e+00  5.482425e-01  -7.909631e-01  -1.856060e+00  1.959704e-02  -1.167598e+00  1.914923e+00  -1.650108e+00  -1.214391e+00  6.401449e-02  -9.404877e-01  9.992943e-01  1.091572e+00  1.725338e+00  -1.003505e+00  -7.823994e-01  2.759879e-01  -1.923601e+00  -1.528969e+00  -2.107329e+00  -1.885203e+00  -2.245718e-01  8.068241e-01  -6.117290e-01  1.323103e+00  -5.832039e-01  9.026986e-01  1.368145e+00  -1.996422e+00  -1.962711e+00  -2.845551e-01  3.942617e-01  1.839526e+00  -1.662770e+00  1.452445e+00  -3.860699e-01  1.087128e+00  -1.483397e+00  4.975021e-01  -1.006491e+00  -2.646928e-01  -5.062103e-01  1.092862e+00  -1.177739e+00  1.180651e+00  -6.608748e-01  1.147698e+00  -8.233927e-01  -2.131593e+00  -6.321141e-01  5.582155e-01  3.800619e-02  -1.658368e+00  1.136896e+00  -1.547084e+00  -1.151482e+00  -9.845549e-01  7.993420e-01  1.219156e+00  7.829497e-01  1.073205e+00  2.101065e+00  8.282142e-01  -1.180263e+00  -1.338947e+00  1.149648e-01  1.934083e+00  1.842094e+00  1.525487e+00  1.817234e+00  -1.315834e+00  1.662319e+00  1.748386e+00  2.449142e-01  1.361014e+00  -2.177931e+00  -1.513242e+00  -5.193722e-01  -3.454561e-01  9.895567e-01  2.685860e-01  -1.623857e+00  1.783762e+00  -1.457850e+00  1.536722e+00  8.765997e-01  -1.691537e+00  -1.055402e+00  -1.076323e+00  -1.482439e+00  -2.989632e-01  1.275676e+00  1.165582e+00  2.640784e-02  1.966560e+00  1.234339e+00  1.235768e+00  -1.350039e+00  -2.247813e+00  -1.307353e+00  -1.702405e+00  -1.012531e+00  
      </Biases>
    </DenseLayer>
    <DenseLayer Width="128" ActivationFunction="3">
      <Weights Rows="128" Columns="128">
        2.138232e-01  2.375385e-01  2.109028e+00  7.527826e-01  -3.812745e-01  -2.167217e-01  -6.900391e-01  -1.817092e+00  -5.229121e-01  -1.686400e+00  -2.082622e+00  -6.589460e-02  -1.711748e+00  -3.777465e+00  -2.276961e+00  2.582297e+00  -1.164628e+00  -2.447069e+00  3.964905e-01  2.671889e+00  -2.354952e+00  1.956859e+00  1.763475e+00  -1.657573e+00  1.380690e+00  -8.839051e-01  4.362739e+00  -6.606539e-01  3.155083e+00  5.989650e+00  -2.229787e+00  3.038945e+00  -1.804579e+00  4.770889e+00  2.919396e+00  7.041476e-01  3.484338e+00  -4.090595e+00  -5.695780e-02  -1.442147e+00  2.478326e+00  2.009590e+00  -9.037927e-01  2.148821e+00  1.677488e+00  2.874096e+00  1.753275e+00  -6.622934e-01  1.410621e+00  -1.195001e+00  -9.664482e-01  -4.101994e-02  3.873347e+00  -1.164578e-01  1.212434e+00  1.672732e+00  3.432460e-01  -7.612731e-01  -1.944844e+00  2.818886e+00  -6.332896e-01  6.302049e-03  -3.706233e+00  2.141456e+00  -2.802324e+00  9.826774e-02  2.021002e+00  4.895916e-01  -1.784443e+00  7.905631e-01  -1.627683e+00  3.493384e-01  -2.061671e+00  -1.739709e-01  -3.866357e-01  -3.918373e-01  2.684062e+00  -3.788189e+00  8.171937e-01  -2.411472e+00  3.283526e+00  3.600433e-01  2.413607e+00  -1.910369e+00  -2.175350e+00  1.009418e+00  -1.010964e+00  -2.137446e+00  1.196794e-01  1.739435e+00  -2.936019e-01  -1.386747e-01  -1.653265e+00  -2.128593e+00  -2.144403e+00  -3.261207e+00  -1.240911e+00  -1.191408e+00  -5.583672e+00  2.295895e+00  -3.673551e+00  1.227192e+00  3.369241e+00  -2.194226e+00  5.755399e-01  -2.082627e+00  1.661660e+00  -5.758407e-01  -2.172361e+00  3.135424e+00  5.599930e-01  -3.632792e-01  2.851382e+00  6.188168e-01  1.257840e+00  8.423461e-01  -1.179703e-01  -2.126447e+00  -2.077046e+00  -2.847922e+00  -8.129752e+00  7.628001e-01  -2.020483e+00  2.023807e+00  2.450943e+00  1.128917e-01  5.572344e-02  1.981808e+00  3.296947e-02  1.871168e+00  -2.130534e+00  2.871662e-01  2.457305e+00  -5.186686e-02  3.201202e-01  2.413859e+00  1.467690e+00  -1.869282e+00  -6.312085e-01  2.342518e+00  2.844130e-01  2.874283e-01  9.556454e-01  1.538815e+00  -2.230913e+00  -1.675144e-01  2.814936e+00  2.213765e+00  1.286029e+00  -1.755966e-01  2.585942e-01  -7.205293e-01  9.654632e+00  3.974048e+00  2.961535e+00  -2.606024e+00  -9.423970e-01  9.980943e+00  -1.663786e+00  2.365700e+00  -1.121253e+01  6.438907e+00  2.330177e+00  2.855924e+00  1.473490e+00  2.849108e-01  3.327948e+00  -4.528619e+00  -3.876110e+00  -1.189014e+00  1.174074e+00  7.299196e+00  -5.215493e-01  -4.208960e+00  7.487853e+00  1.723775e+00  1.583904e+00  1.177867e+00  3.014656e-03  -2.187562e+00  -1.038708e+00  -1.836555e+00  3.926980e+00  -4.869916e-01  1.968312e+00  1.464394e-01  2.217537e-01  5.196895e+00  -1.083811e+00  -7.878577e-01  8.544943e-01  -4.959936e+00  1.762607e+00  1.684027e-01  -4.609402e-01  -1.024767e+00  -7.920766e-03  2.320480e-01  2.541262e+00  -2.180388e-01  6.367839e-01  7.853122e-02  1.461802e-01  1.597640e+00  1.099392e+00  4.655981e-01  -1.530497e-02  -6.291438e-01  3.880940e+00  2.373471e-01  1.757563e-01  -4.927819e-01  -1.870736e-01  -1.035212e+00  1.369721e-01  -1.058683e+00  -6.131979e-01  -1.570073e+00  -1.932225e+00  2.343969e+00  4.583100e-02  -8.525298e+00  2.053462e+00  -7.637719e+00  -8.802097e-01  -6.187130e+00  -1.752249e+00  2.541808e+00  -2.626259e+00  1.419694e+00  -3.066535e+00  -1.165125e+00  1.666081e+00  -1.593861e+00  1.215694e+00  -8.702332e-01  -3.800591e-01  -1.076336e+00  -1.105528e+00  -3.492813e-01  3.967599e+00  1.360336e-01  -1.202103e+00  5.070762e-01  7.006245e-01  1.438450e+00  2.074121e+00  1.147062e+00  -1.255482e+01  2.608138e-01  1.120215e-02  -1.647871e+00  -2.766290e-01  1.483422e-01  -1.669213e-01  5.301571e-01  -1.844743e-01  -5.999915e-01  3.653948e+00  1.567489e+00  9.203941e-01  2.108319e+00  2.931689e+00  -2.304755e+00  2.599072e+00  -1.314628e+00  -2.413603e+00  -3.810810e-01  -3.194222e+00  -1.369519e+00  -2.342511e+00  1.077762e+00  -4.459158e+00  -1.787755e+00  -3.175853e+00  6.286329e-01  2.921429e+00  2.893597e-01  -2.704193e+00  -2.078847e-01  -3.566174e+00  9.120484e-01  -2.020140e+00  -2.159008e+00  9.325979e-01  -5.548715e+00  1.425125e-01  -9.005504e-01  2.634503e+00  -2.691697e+00  1.893685e+00  2.374966e+00  -7.461614e-01  -1.634475e+00  -1.657660e+00  6.305932e-01  2.266912e-01  -7.260423e-01  1.046586e+00  -4.459720e+00  -2.329622e+00  -1.642002e+00  -3.958790e+00  8.041175e-02  -3.934051e-01  -2.321350e+00  6.927801e-01  -1.172735e+00  2.611801e+00  -9.089942e-02  -3.144705e+00  -2.715563e-01  -2.361061e+00  5.279757e-01  -8.471789e-01  -8.948609e-01  1.169977e-01  -2.505186e+00  -3.672006e+00  -2.179846e+00  -5.846929e-01  -1.970454e+00  1.267703e+00  1.670810e+00  -1.580675e+00  -1.630354e+00  -4.062543e+00  -2.084066e+00  -1.385810e+00  9.991626e-01  9.042817e-02  8.189966e-01  2.820184e+00  -1.796079e+00  2.057268e+00  2.292765e+00  -2.624991e+00  8.031875e-01  1.284712e+00  -1.818761e+00  -2.373426e+00  -5.004170e-03  -3.434134e+00  2.300275e-01  9.406620e-01  -3.708497e-01  -1.501489e+00  2.111340e+00  -1.219180e+00  1.292892e-01  3.743843e+00  5.968702e+00  8.195440e-01  2.474892e+00  2.100696e+00  -1.342182e+00  -3.259137e+00  7.692151e-01  -2.724275e+00  3.133498e-01  -3.774087e-01  -5.472120e-01  2.354131e+00  3.759163e+00  -5.702420e-01  1.214364e+00  5.403773e-01  5.460607e+00  -1.705603e+00  2.339038e-01  -1.247772e-02  6.156573e-01  -2.539216e+00  4.194749e-01  -3.311430e-01  1.200632e+00  2.044808e+00  4.848853e+00  -7.714410e-01  -1.724830e+00  9.252991e-02  -6.487172e+00  -7.230179e-01  -9.575221e-01  3.598086e-01  2.618598e+00  -3.795598e-01  6.848746e-01  -7.843206e-01  1.165279e-01  4.250919e-02  2.008983e+00  1.931682e+00  -2.393652e-01  1.098171e+00  -1.902080e+00  9.218488e-01  2.711987e+00  1.724511e+00  -1.206826e+00  2.177938e+00  1.248028e+00  3.924713e-01  -2.662926e-01  -1.583302e+00  -3.152565e+00  -1.437104e+00  3.297613e+00  1.752781e+00  2.140806e+00  -5.836891e-01  3.051684e+00  -8.355814e-01  -1.026850e+00  9.538835e-01  -1.111772e+00  3.550536e-01  5.934929e-01  -3.396864e+00  -2.529855e+00  -2.880784e+00  2.725477e+00  1.166786e+00  -4.637473e-01  2.581849e+00  -7.422051e-01  -2.242339e+00  -5.638298e-01  -4.364831e-01  -7.226366e-01  1.262598e+00  7.162784e-01  -4.215183e-01  2.651605e+00  1.282462e+00  8.511196e-01  8.849873e-02  1.424322e+00  -1.212186e+00  7.239093e-02  6.935707e-01  -3.122241e+00  2.752239e+00  -1.306867e-01  3.029461e+00  1.677729e+00  2.626802e+00  2.945011e-01  4.213093e+00  -4.832930e-01  3.373251e-02  3.339894e+00  1.680398e+00  -1.719190e+00  2.571230e+00  1.846937e+00  1.472362e+00  6.722278e-01  6.822866e-02  -6.755866e-01  -2.152334e+00  7.240177e-01  -2.356101e+00  1.277701e+00  1.713605e+00  4.220110e-02  -1.870596e+00  8.935539e-01  2.888356e+00  3.559912e+00  1.722135e+00  -3.734470e-01  -2.595157e+00  -2.762208e+00  -9.483191e-01  -2.991982e+00  -3.877376e-01  4.781681e-01  1.088627e+00  -4.241299e-01  -2.435819e+00  -1.406819e+00  1.065410e-01  3.231152e+00  5.010999e-01  1.405218e+00  -8.951294e-01  1.574832e+00  1.641760e+00  1.267997e+00  -1.844264e+00  -6.633085e-01  2.506506e+00  -5.280226e-01  3.000178e+00  1.881646e+00  1.426510e+00  -1.668361e+00  -1.989313e+00  -8.188555e-01  2.558729e-01  1.173558e+00  1.700548e+00  -2.676257e+00  -2.185309e+00  1.190127e+00  2.063738e+00  -2.652209e-01  5.544543e-01  -9.945771e-01  -2.116341e+00  2.854179e-01  -1.147518e+00  7.976387e-01  -1.339911e-01  2.160558e+00  5.464747e+00  -1.763567e+00  1.387943e-01  -3.500447e+00  5.105964e+00  -2.223271e-01  -7.894412e-01  4.354568e+00  1.482267e+00  1.086815e+00  -1.632776e+00  7.731912e-01  -1.902828e+00  -1.257762e+00  8.823670e-02  -2.067281e+00  3.863770e+00  7.361968e-01  -3.093890e+00  -4.732010e-01  4.614235e-01  -1.329582e+00  -3.601853e+00  1.964935e-01  2.062399e+00  -1.730659e-01  4.136868e-01  -6.311037e-02  -9.630265e-01  3.169806e+00  1.398434e-02  3.728127e-01  1.990075e+00  1.582609e+00  -2.856351e-01  -6.783610e-01  -5.437990e-01  -2.594294e+00  3.038011e+00  -1.804531e+00  -3.119702e+00  -9.377149e-01  4.286089e-01  -6.908470e-01  -4.333845e-01  -1.967802e+00  7.514877e-01  -4.185187e+00  1.652305e+00  -1.219227e+00  -2.126025e+00  -2.007023e+00  -1.663757e+00  1.820109e+00  1.716861e+00  2.419045e+00  8.287286e-01  -7.456747e+00  -7.781929e-01  -7.640157e+00  2.392301e+00  -1.564670e-01  -9.195297e-01  -1.691264e+00  -1.517355e+00  -2.210096e+00  -1.441957e+00  1.440897e+00  6.557925e-01  -1.211331e-01  -3.443084e+00  -6.437669e-01  9.568982e-01  2.303786e+00  -1.946231e-01  -7.029292e-01  4.472570e+00  -3.622208e+00  -1.478770e+00  -7.328557e-01  2.053549e+00  -1.598695e+00  -2.317148e-01  6.119598e+00  -2.040505e+00  -1.378846e+00  3.450165e-01  2.435207e+00  -7.232488e-01  1.330428e+00  5.591984e+00  -1.914669e+00  -6.543855e-01  -1.239404e-02  8.855022e-01  -2.324026e+00  -7.593521e-01  -2.453306e+00  -4.761271e+00  8.422107e-01  -7.489288e-01  1.651945e+00  1.181238e+00  8.149758e-01  7.076365e-01  -1.588503e+00  3.412327e+00  4.300311e+00  4.082657e-01  3.621905e-01  -9.350786e-01  3.545973e-01  -3.978535e-01  -2.587993e-01  2.280283e+00  -1.879971e+00  4.895468e-01  7.402279e-01  -9.451263e-01  -3.091679e+00  -1.426264e+00  -4.981007e+00  -2.958018e+00  -2.656761e-01  1.582310e+00  -1.645176e+00  -2.249992e-01  1.368630e+00  -2.333718e+00  1.548576e+00  5.687553e-01  2.027509e+00  -1.091966e+00  1.585697e+00  -1.901351e+00  -1.665367e+00  -7.047845e-01  -1.399598e+00  -5.099220e+00  1.366292e+00  -1.671128e+00  -4.209401e-01  3.121379e+00  1.868944e+00  -5.418811e-02  1.040178e+00  2.472883e+00  1.192821e+00  2.864732e+00  -9.689412e-01  3.196630e+00  -2.361596e-01  1.957299e+00  4.736960e+00  -8.074414e-01  2.573068e+00  -3.730725e+00  1.685977e+00  3.098981e+00  3.350241e+00  7.389908e-01  5.775355e-01  -2.319587e+00  -1.457801e+00  1.319682e+00  1.853565e+00  -1.601076e+00  2.431834e+00  9.238936e-01  4.765108e+00  1.173468e+00  -2.024315e+00  -4.122581e-02  2.345394e-01  2.045459e+00  1.085245e+00  -2.173753e+00  1.107431e+00  1.207853e+00  9.320195e-01  1.339103e-01  2.458195e-01  2.687874e+00  1.602545e-01  -1.819568e+00  -2.019806e-01  3.952970e-01  4.016305e+00  -2.717197e+00  1.536773e+00  -5.846770e-02  1.474388e+00  -8.034059e-01  1.356758e+00  6.504588e-01  -3.488326e-01  -4.062195e+00  5.420684e-01  2.071428e+00  -6.095578e-01  3.056156e+00  -1.449686e+00  1.503402e+00  -3.268140e+00  2.523311e+00  4.623383e-01  -1.392630e+00  -2.448751e+00  -1.839547e+00  -8.900083e-01  -2.252185e+00  -4.782622e-01  -8.916190e-01  1.619145e+00  9.647139e-01  -3.215550e+00  -1.187522e+00  -4.468517e+00  -5.052124e+00  -2.002911e+00  1.430095e+00  -4.135838e+00  -1.399176e+00  -1.222968e+00  1.352003e+00  5.136570e-01  4.239855e+00  -2.727173e-01  4.584843e-01  -5.094253e+00  7.594079e-01  3.728171e-01  -3.097100e+00  2.319577e+00  9.569985e-01  8.709760e-01  2.679093e+00  3.843727e+00  1.808792e+00  2.076381e+00  -4.648789e-01  -2.825952e+00  -1.294876e+00  7.820429e-01  -4.079614e+00  -7.850187e-02  -2.688005e+00  -2.478491e-01  -7.669727e-02  2.854986e+00  1.686980e+00  -1.756263e+00  1.726489e+00  -9.661331e-02  -1.005202e+00  2.432653e+00  3.035645e+00  -1.064636e+00  -1.247679e-01  1.990064e+00  4.151493e-01  1.574263e+00  1.310533e+00  1.437718e+00  9.327807e-01  1.220326e+00  4.879286e-01  1.057555e+00  -3.615469e+00  5.723091e-01  -1.050813e+00  -4.417341e+00  1.401362e+00  7.956543e-01  -2.348348e+00  6.016422e-01  -1.413118e+00  -4.163443e-01  -4.420802e+00  1.936028e+00  -1.516212e+00  -2.458114e+00  3.900876e-02  -1.583548e+00  5.644581e+00  -4.555011e+00  -1.232571e+00  9.561299e-01  7.665288e-02  1.472339e+00  -3.570064e-01  1.668409e+00  -1.325491e+00  -3.738356e+00  4.841819e+00  -5.714020e+00  -3.349458e+00  -1.617442e-01  -2.634097e+00  2.952859e+00  -1.801465e+00  -1.719565e+00  1.598328e+00  1.420845e+00  2.953882e+00  -1.146224e+00  -3.545402e+00  -5.040369e+00  -2.518283e+00  3.586720e+00  6.410502e-01  -3.350587e+00  2.714044e+00  -4.295958e+00  2.039889e+00  4.561581e-01  1.309753e+00  -1.454164e+00  -2.316305e+00  1.121174e+00  -1.714359e-01  4.851285e-01  1.834640e+00  -2.454825e+00  2.017261e-01  -1.225704e+00  -7.413442e-01  2.602659e+00  8.994069e-01  2.246004e+00  -2.106008e+00  2.510085e+00  -2.231170e+00  6.332682e-01  8.774117e-02  -1.317381e+00  5.023026e-01  7.150448e-01  5.312866e-01  -5.303650e-01  -1.007428e+00  -2.239352e+00  -1.009844e+00  5.507263e+00  4.631673e-02  5.088714e+00  -1.570649e+00  1.739324e+00  -3.742720e-01  4.491365e+00  3.428661e+00  2.158292e+00  2.930685e+00  -2.082827e+00  -4.690646e+00  8.650062e-01  -2.353501e+00  3.209454e+00  -3.501662e-01  -3.288308e+00  -3.520814e-01  -5.846027e-01  3.762342e-01  1.372377e+00  -3.731411e+00  -8.789415e-01  -2.809187e+00  -2.507052e+00  -1.195540e+00  -2.619636e+00  -4.515917e-01  1.445227e+00  1.840089e+00  2.543968e-02  -2.428923e+00  -3.057984e+00  -1.968760e+00  -2.931810e+00  -2.479064e+00  -1.270274e+00  -7.070575e-01  3.797723e+00  4.270543e+00  -2.371125e+00  -4.264718e-01  4.897273e+00  -3.163947e+00  2.388545e+00  -1.273458e+00  -6.836193e-01  2.623944e+00  -2.158864e+00  -1.442979e+00  -1.126024e+00  -8.091266e-01  -4.652203e-03  -1.176682e+00  -9.630111e-01  3.846239e+00  3.750226e+00  -2.223361e+00  -1.921537e-02  -3.731538e-01  1.497006e+00  2.141430e+00  -4.333317e-01  3.439419e-02  2.078356e+00  1.861346e+00  1.004694e-02  -3.765612e-01  6.829821e-01  -9.204906e-01  2.943801e+00  -1.505526e-01  -9.285919e-01  2.760695e+00  -1.095829e+00  -3.441662e-01  -7.367615e-01  3.311182e+00  1.163401e+00  -8.888145e-01  3.120949e+00  -1.118107e+00  -4.747602e-01  3.093309e+00  1.353153e+00  -1.425307e+00  2.315242e+00  -3.476233e+00  -7.279007e-01  -4.234554e-01  -2.736289e+00  4.741683e-01  1.582685e+00  1.125558e+00  -3.876346e+00  -1.597276e+00  5.036563e+00  -1.254130e+00  3.266999e+00  -1.366516e+00  4.070354e+00  -1.412285e+00  2.550662e+00  1.369894e-01  -1.467239e+00  6.634859e-01  -1.104166e+00  -8.876602e-01  -2.574139e+00  5.703964e-01  -3.027464e+00  1.574616e+00  1.691496e+00  4.094637e-01  -4.620297e+00  -1.289207e+00  -7.916026e-01  2.017243e+00  3.551190e-01  3.977009e+00  1.319762e+00  -2.461888e+00  -4.518166e+00  -9.275548e-01  -1.613378e+00  2.354727e+00  2.125904e+00  2.248320e+00  2.741325e-01  -2.201120e+00  -1.276042e+00  2.916021e-01  -1.258399e+00  -2.413607e-01  -2.931970e+00  6.806740e-01  1.671169e+00  -1.281609e+00  3.945990e-01  1.095177e+00  -2.387444e+00  2.704874e+00  -3.316972e-02  5.167667e-01  1.164725e+00  2.216651e+00  2.410446e+00  -3.665506e+00  -1.370381e+00  3.054193e+00  1.376904e+00  -3.260130e+00  1.894505e+00  -3.630419e+00  -7.311196e-01  -2.825064e+00  -2.609963e+00  -9.767551e-01  -3.894002e-01  -5.401416e-01  1.991882e+00  -4.620257e-01  3.892235e-01  -4.970225e-01  9.480143e-01  -9.701903e-01  1.300372e+00  -1.590103e-01  3.381929e-01  -1.552538e+00  4.144305e+00  3.344639e+00  -1.934778e+00  -3.734473e-01  5.281559e-01  -1.186717e+00  -3.843259e+00  1.210653e-01  -6.052713e-01  1.644840e+00  1.941735e+00  -1.157806e+00  2.429104e+00  3.254502e-02  -1.559104e-02  -4.928734e+00  -4.961529e+00  2.481134e-02  -6.871602e-01  3.526854e+00  7.277842e-01  -6.848460e-01  3.090913e+00  -2.253168e+00  1.672365e+00  -3.059537e+00  -2.684774e+00  -3.206674e+00  4.151535e+00  -5.515810e-01  9.503935e-01  -1.339759e+00  1.762199e+00  -9.210628e-01  -7.750081e-01  2.819836e+00  5.984867e-02  -4.966568e+00  1.387521e+00  4.311130e+00  4.982172e-01  3.478932e+00  4.442061e-01  -6.734464e-01  3.921664e+00  -8.149741e-01  7.898439e-01  -1.405823e-01  -1.169516e+00  2.302863e+00  -9.765787e-01  9.690801e-02  -1.417261e+00  1.035054e+00  3.781851e+00  1.314866e+00  1.829332e+00  1.327547e+00  2.061888e+00  -2.391785e+00  -3.146981e+00  -6.943173e+00  1.767398e+00  -1.171643e+00  -1.948505e+00  4.573624e-01  -1.808257e-01  2.367814e+00  1.881901e+00  -1.269883e+00  3.560987e-01  4.602058e-01  1.237632e+00  -1.835363e-01  -8.436235e-01  2.932722e-01  -1.690950e+00  -3.453113e-01  7.359395e-01  2.803891e+00  2.444901e+00  6.285925e-01  1.864276e+00  -2.214713e+00  -2.426950e+00  -1.802283e+00  -2.001820e+00  5.421329e-01  -2.241879e+00  -2.963203e+00  -3.424133e+00  -1.023519e+00  -1.190015e+00  -2.152813e+00  1.785043e-01  -6.264119e-01  1.770966e-02  2.195177e+00  2.115567e-01  1.301970e+00  -3.844157e-01  3.904416e+00  -1.313876e+00  1.792974e+00  -5.391837e-01  -5.530405e-01  -1.030086e+00  1.443592e+00  -4.350480e-02  -1.297796e+00  -1.938862e+00  3.003037e-01  -1.088671e+00  2.292472e+00  -1.881437e+00  -7.388030e+00  -3.967233e+00  5.378355e-01  2.488357e+00  1.955872e+00  3.529451e+00  -3.905964e-01  1.627282e+00  -5.682811e-02  1.521883e+00  3.460209e+00  6.233579e+00  4.960351e+00  5.200427e-01  1.361567e+00  -1.715679e-01  2.204110e+00  9.313725e-01  1.709811e-01  3.477553e+00  -9.051620e-01  -1.031088e+00  -1.644208e+00  -2.617907e+00  -4.809406e+00  -1.687510e+00  -1.856696e-01  -1.618448e+00  2.907274e+00  1.054725e+00  -1.121892e+00  -4.286296e-02  -3.276402e-01  3.577900e+00  -7.263643e-01  5.574582e-01  1.507411e+00  -9.807078e-01  -6.009618e+00  -9.399207e-01  1.365407e+00  1.783233e-01  1.339800e+00  1.657068e+00  4.402960e-01  -5.090292e-01  5.753513e-01  -7.721405e-02  -1.041581e+00  -2.319531e+00  2.926371e+00  4.443205e-01  -2.196788e-01  4.576166e+00  -1.990647e+00  -3.742623e-01  1.607278e-01  -3.323343e+00  3.469557e-01  -1.218662e+00  3.769983e+00  2.571679e+00  -3.435491e-01  2.783242e+00  -5.246818e+00  1.556195e+00  7.071470e-01  -6.702607e-01  1.194893e+00  -2.236161e+00  -1.250059e+00  -3.973909e+00  -8.441225e-01  4.584290e-01  3.870754e+00  1.762466e-01  -3.669321e+00  3.689650e-01  2.210094e+00  -8.185658e-01  8.331277e-02  -1.219817e+00  3.702819e-01  2.027804e+00  7.200516e-02  -2.751068e+00  -1.748741e-01  -1.447286e+00  5.176799e-01  -3.274726e+00  -9.483815e-01  -1.239752e+00  -1.540692e+00  -1.630882e+00  -2.215246e-01  2.614456e+00  4.050923e-01  1.790064e+00  -2.644074e-01  1.203798e+00  -2.373765e+00  3.127380e-01  3.688228e+00  -1.175828e+00  -4.762817e+00  1.064175e+00  1.498192e+00  -1.210145e+00  -1.390779e-01  -1.044176e+00  -3.660713e+00  -8.088226e-02  -1.977940e+00  -3.654011e+00  -2.380459e+00  -8.087538e-01  4.384468e-01  3.410665e-01  1.778293e+00  2.190067e+00  5.297670e-01  2.908436e+00  -1.634627e+00  -7.914948e-02  -1.052559e+00  6.281741e-01  -1.211164e+00  -5.990855e-01  1.565698e+00  5.949022e+00  6.867000e-01  -2.842232e+00  -1.119346e+00  -3.121376e+00  -1.609728e+00  -6.395689e-01  1.968068e+00  -9.581652e-03  -6.031833e-01  2.032288e+00  8.160494e+00  3.109682e+00  8.578271e-02  2.325506e+00  6.246699e+00  2.129755e+00  1.732021e+00  8.215911e-01  -1.226732e+00  -7.686192e-01  -2.178594e+00  2.813280e+00  -2.055018e-01  -3.481986e-01  -9.700482e-01  1.911396e+00  2.304136e+00  -4.460275e-01  -3.420340e+00  -6.709226e-01  -3.586760e+00  3.678282e-01  8.873684e-01  -1.418871e+00  1.359554e+00  -2.925511e+00  1.385413e-01  1.510932e+00  2.293370e+00  -6.067904e-02  5.959874e-02  -8.557864e-01  -2.024262e+00  -1.415667e+00  -5.848042e-01  2.807273e+00  -3.141597e+00  -2.422437e+00  2.440960e+00  -1.397663e+00  -7.286312e+00  -2.906082e+00  -1.003433e+00  1.164344e-01  2.747541e+00  -1.625483e+00  -2.346582e-01  3.834870e-01  1.606089e+00  -8.278823e-01  2.992524e+00  -3.398764e-01  1.930202e+00  1.850974e+00  1.382846e+00  -2.198295e+00  -1.097238e+00  -3.314057e+00  4.149518e-01  -3.935827e+00  -2.148017e-01  2.879908e+00  1.513244e-01  1.532628e+00  1.545706e+00  2.536190e+00  -1.932958e+00  -1.036649e+00  3.282692e-01  -2.410931e+00  -1.234524e+00  2.194652e+00  -2.491730e+00  6.764462e-01  2.297008e-01  2.069522e+00  -1.305407e+00  2.804993e-01  3.556559e-01  -1.929032e+00  -8.083565e-01  1.744084e+00  7.329448e-01  -1.598216e+00  -1.024163e+00  1.315463e+00  2.032964e+00  1.534237e+00  -3.357169e+00  2.416742e-01  1.506019e+00  3.720426e-01  -2.314154e+00  1.046391e+00  1.024553e+00  -2.436231e-01  1.201406e+00  5.902343e+00  -2.890450e+00  -3.474483e+00  -1.042214e+00  1.893040e+00  -1.125745e+00  -6.797598e-01  -2.773182e+00  4.131919e-01  -1.148739e+00  1.648020e+00  -1.385003e+00  3.568735e-03  -1.226321e+00  2.439274e+00  -3.832812e+00  -1.936505e-01  2.187026e-01  -6.342744e-01  -2.435901e-01  2.959784e+00  5.504997e-01  -4.849043e+00  3.478126e+00  -4.506757e+00  -3.132815e+00  -4.743779e+00  -3.135031e-01  -1.912443e+00  1.257356e+00  -1.803225e+00  5.154262e+00  4.553822e-02  2.726695e-01  -2.627280e+00  4.709273e+00  1.412626e+00  -4.008016e-01  -7.161835e-01  3.663522e+00  7.764842e-02  2.253914e+00  -2.117620e-01  2.546322e+00  2.279406e+00  4.284388e+00  -4.306849e+00  2.786797e+00  -1.617725e+00  1.573624e+00  1.047019e+00  -1.053064e-01  2.612513e+00  2.405691e+00  3.102558e-01  -2.469652e+00  1.339660e+00  -1.635113e+00  7.889730e-02  -3.079918e+00  2.089311e+00  -8.767753e-02  1.289643e-01  -1.187864e+00  -2.879628e+00  -2.288719e-01  -5.667276e-01  -2.003084e+00  -2.907820e+00  3.766464e-01  1.224454e+00  -3.758051e+00  -2.335818e+00  1.032528e+00  1.933733e+00  -2.089355e-01  -1.563912e+00  -1.309522e+00  -3.454227e+00  -8.877702e-01  -1.038025e+00  -2.378060e-01  -1.871186e-01  -2.664290e-02  -4.838977e-01  2.577265e+00  1.213405e+00  -3.377284e-02  -3.772546e-01  -6.552325e-01  -4.396827e+00  1.969332e+00  -6.495215e-01  -2.305617e+00  -1.864641e+00  -4.414353e-01  1.770086e+00  1.666699e+00  -9.349246e-01  -3.783151e-01  1.365696e+00  -2.782113e+00  -2.749088e+00  -1.174633e+00  -1.847639e+00  7.756109e-01  1.369926e+00  5.550648e+00  -2.910098e+00  -3.503412e-01  5.216670e-01  1.620525e+00  -1.189542e+00  -6.155561e-01  1.684751e+00  4.706049e-01  1.614640e+00  -1.748433e-01  1.087814e+00  -3.542247e-02  -4.418464e+00  1.535186e+00  -1.045200e+00  -1.089782e+00  -1.171641e+00  -2.495504e+00  -3.507562e+00  2.177735e+00  -1.804760e+00  -7.934395e+00  -1.606590e+00  -2.786806e+00  -1.535525e-01  -1.895269e+00  -5.912906e-01  7.631992e-01  2.452244e-01  4.249120e+00  4.444351e+00  1.993719e-01  1.656131e+00  3.752505e-02  -5.661651e-01  -8.971906e-01  -1.660036e+00  -1.381606e+00  -1.714509e+00  -2.143715e+00  3.445158e-01  4.531037e+00  -2.826049e+00  -1.398339e+00  -2.255642e+00  -4.637290e+00  -3.066034e+00  1.105821e-01  -1.162803e+00  2.002264e+00  7.910718e+00  3.232036e+00  -2.052379e+00  -3.023562e+00  -3.092200e+00  7.679867e-01  -6.563902e-01  -1.433376e+00  -1.298981e+00  2.076868e+00  -9.277782e-01  -1.235004e+00  2.798343e+00  -4.443441e+00  -1.082849e+00  -2.224406e+00  1.479944e+00  3.560783e+00  2.665015e+00  5.289058e-01  -1.598373e+00  -1.337052e+00  1.189453e+00  -4.320517e-01  8.850552e-01  -2.868343e+00  -2.470844e+00  -9.048188e-01  -9.094936e-01  2.348283e+00  -2.549379e-01  4.018175e+00  -1.307225e+00  1.081470e+00  1.030793e+00  4.117660e-01  -7.902607e-01  -1.584268e+00  -2.253972e-01  1.403850e+00  -3.368123e+00  -7.336624e+00  2.494382e+00  -2.313894e+00  -1.688255e-01  1.106833e+00  -3.965254e+00  -8.805239e-01  2.065103e+00  4.964142e-01  -5.803712e-01  -4.855476e-01  3.570024e-01  -4.069983e+00  -1.779257e+00  -8.551900e-01  -2.077364e+00  1.043308e+00  -7.188271e-01  4.302507e-01  -3.265774e+00  -3.560272e-01  -1.887175e-01  -1.641316e+00  1.841407e+00  -3.023653e+00  -8.242659e-01  -1.012452e+00  1.124378e-02  -2.814672e+00  1.769676e+00  6.445872e-01  -2.040248e-01  1.941924e+00  -6.424791e-01  -4.035574e-01  -2.535877e+00  3.164637e-01  -1.534149e+00  -2.728843e-01  -1.937186e+00  -2.047406e+00  1.286345e+00  6.973916e-01  -8.920645e-01  3.885218e-01  -5.291979e-01  -1.497094e+00  -9.654901e-01  -2.099479e+00  1.075417e+00  3.788034e+00  3.550497e+00  6.582248e-01  -1.712486e-01  9.345248e-01  -4.592546e-01  2.986986e-01  7.127136e-01  -4.618510e+00  8.513868e-01  2.589840e+00  -2.175645e+00  -7.676198e-01  1.292634e+00  3.693934e-01  -3.024024e+00  5.082204e-01  3.607101e+00  -1.611440e+00  -2.558309e+00  2.246607e+00  -6.423001e-01  -1.064828e+00  -1.949073e+00  3.950641e-01  8.584796e-01  2.528575e+00  3.182460e+00  -1.247114e+00  -3.014257e+00  -3.931606e+00  -7.579248e+00  -2.545598e+00  -3.146976e+00  3.218098e-01  -2.924693e+00  -2.457727e-01  -3.585332e+00  1.015272e-01  1.094606e+00  -2.431600e+00  1.594833e+00  5.936452e-01  -2.345881e+00  1.428881e+00  5.200868e-01  2.673077e+00  5.447553e-02  8.645821e-01  -6.786201e-01  2.839206e+00  5.087369e-01  1.664473e+00  -1.447527e+00  -5.308625e+00  9.416914e-01  3.520307e+00  1.385608e+00  5.763314e-01  -1.846334e+00  1.572076e+00  1.492073e+00  -2.576840e+00  4.997128e+00  2.751432e+00  1.132070e+00  -2.792664e+00  2.703749e+00  7.277683e-01  -4.100897e+00  7.151265e-02  2.868603e+00  5.739416e-01  -4.052480e+00  3.578411e-01  -8.225387e-01  -4.533867e+00  1.626673e+00  3.727683e+00  2.998902e-01  3.525124e+00  2.485810e+00  -6.477190e-01  7.886960e+00  2.763897e-01  -8.019578e-01  -2.921501e+00  -8.255825e-01  -1.980076e-01  1.321328e+00  1.196030e+00  4.391695e-01  5.461654e-02  2.733862e+00  3.651513e+00  2.718864e+00  2.071414e-03  3.385647e+00  1.188468e-01  -9.930182e-01  -2.586533e+00  3.382872e+00  -4.459290e-01  -8.274740e-01  3.186990e+00  5.978013e-01  1.709618e+00  1.695926e+00  -3.538916e-01  1.265696e-01  -3.564447e-01  -7.129533e-03  -9.446720e-01  -1.785021e+00  2.435849e+00  2.481583e+00  -1.923926e+00  1.612911e+00  -3.308522e+00  -8.797387e-01  2.262370e+00  -3.844655e-01  -4.890352e-01  -2.130274e-01  -2.449029e-01  -1.552868e+00  1.818974e+00  -3.175240e+00  -7.961676e-01  -2.065751e+00  -1.937530e-01  -2.693363e+00  -3.915679e+00  -7.328393e-01  -1.717154e+00  1.424701e+00  3.081839e+00  -2.690602e+00  3.561503e+00  -1.301825e+00  1.083125e+00  1.409725e+00  -2.066376e+00  -2.295803e+00  -1.462839e+00  -3.906574e+00  3.201424e+00  3.014608e+00  -2.601798e+00  -2.536373e-01  2.169621e+00  -1.259467e+00  4.757198e-01  -3.477618e-01  -2.920856e+00  -1.913266e+00  7.390638e-01  1.074565e+00  2.096901e+00  3.048748e+00  1.866000e+00  3.789095e+00  1.791776e+00  2.466640e+00  1.097457e+00  3.749297e+00  4.463935e+00  1.882352e+00  2.956487e-01  -4.652174e+00  3.299606e+00  8.408637e-01  -2.901284e-01  -1.592216e-01  2.793391e-01  -8.717620e-01  -8.028921e-01  -4.387675e-01  -1.561248e+00  4.328258e-01  1.911361e+00  -1.864118e+00  4.944172e+00  1.713973e+00  -1.432427e+00  1.013982e+00  1.829807e+00  -4.970759e-01  1.652563e-01  1.641841e+00  1.030652e+00  2.639669e+00  3.597362e-01  8.054049e-01  -4.364653e+00  2.482018e+00  5.807503e-01  -1.760159e+00  -9.160273e-01  -9.187898e-01  -1.841463e+00  -2.993996e+00  -3.718744e+00  -2.484790e+00  6.557342e-01  2.042915e+00  -5.389524e+00  -4.732715e+00  3.756215e+00  -2.797646e+00  -1.457052e+00  -2.002400e+00  1.339088e+00  -3.345790e+00  1.694918e+00  1.766012e+00  2.195375e-01  -1.789139e+00  -2.819855e+00  1.903633e+00  1.885573e+00  2.818901e+00  -4.419905e-01  -4.139716e+00  -5.772458e-01  -2.323383e+00  3.545409e-01  1.054999e+00  2.149860e+00  -1.094947e+00  -3.180485e+00  5.118625e-01  -7.816411e-01  -1.665500e+00  -1.475042e+00  2.047901e+00  -1.296134e+00  -3.620900e-01  1.313762e+00  -1.244669e+00  -1.662276e+00  -9.021988e-01  5.345688e+00  -1.145070e+00  -1.634280e+00  -3.651536e-01  8.709376e-01  -9.166903e-01  1.583873e+00  1.142681e-01  2.357481e+00  1.485089e+00  -1.659549e-01  1.079258e+00  -1.638504e-01  -1.190946e+00  2.175053e+00  -4.134402e+00  6.662228e-01  -5.297245e+00  -6.187491e-01  2.358426e+00  -2.672596e+00  -1.325903e+00  -5.974850e+00  1.951329e+00  5.823227e-01  -2.907087e+00  -2.921228e+00  -5.223063e-01  -9.938684e-01  2.419941e+00  2.052852e+00  5.664843e+00  1.876957e-01  -2.101319e+00  9.967966e-01  2.378606e+00  -2.952794e-01  -4.900239e-01  1.770524e-01  5.333998e-01  -3.478526e+00  2.837896e+00  -3.332545e+00  -2.405131e+00  -1.774904e+00  -1.620681e+00  -2.536027e+00  -1.457494e+00  3.282905e+00  1.862645e+00  8.153085e-01  3.583690e+00  3.555885e+00  -1.377843e+00  8.474221e-01  -1.477773e+00  4.702617e+00  -5.247014e-01  -1.188173e+00  1.969886e+00  -1.670184e+00  1.249256e+00  7.174254e-01  -2.212925e+00  -2.904998e+00  8.346217e-01  -5.355446e+00  -2.085522e+00  1.210790e+00  -1.340807e+00  4.271733e-01  3.418746e-02  -3.377098e+00  7.675523e-01  -3.328081e+00  1.318950e-01  -1.378544e-01  -4.011406e+00  4.582047e-01  1.751537e+00  6.568242e+00  -2.572676e+00  -2.423145e+00  -3.457672e-01  2.829659e-01  1.889598e+00  -1.071596e+00  6.349291e+00  -3.983168e-01  3.112337e-01  1.623226e+00  -9.637987e+00  -1.914619e+00  -2.726706e+00  -7.849211e+00  2.602348e+00  9.040350e-01  -7.025203e-01  -6.452433e-01  -1.033221e+00  2.369073e+00  4.613019e+00  -6.154242e-01  6.621526e-01  -7.034273e-01  3.600150e+00  -8.435966e-01  -4.973585e+00  2.010443e+00  -1.793122e+00  9.604496e-01  -1.845766e-01  2.742244e+00  1.035575e+00  2.259893e+00  -1.476336e+00  -1.855841e+00  1.600536e+00  -3.557162e+00  -1.945160e+00  2.557023e+00  1.395193e+00  -9.178426e-01  1.228318e+00  -2.549041e+00  2.949950e+00  -1.916108e+00  -8.351687e-01  -4.509513e+00  -2.073678e+00  -1.511494e-01  1.803242e+00  2.024654e+00  1.156642e+00  2.018810e-02  2.264151e-01  1.462549e+00  -1.252040e+00  -7.548036e-02  1.412744e+00  2.985478e+00  5.718149e+00  -1.470002e-01  4.242688e+00  3.727096e-01  1.756271e+00  2.334348e+00  7.312394e-02  -9.502901e-01  -3.973902e+00  -1.977121e+00  2.785223e+00  1.158945e+00  -2.390573e+00  1.886122e+00  1.008284e+00  -2.103383e+00  -7.704678e-01  2.207430e+00  2.828254e+00  -5.736013e+00  -2.298805e-02  -1.092382e+00  -4.631811e-01  -1.611083e+00  2.765004e-02  3.056350e-01  1.370749e-01  4.005860e+00  1.219648e+00  -1.301952e+00  -3.201334e+00  -9.757584e-01  -2.868263e+00  -3.018627e+00  -1.181604e+00  3.427966e+00  2.219832e+00  4.869276e-02  -3.589645e+00  2.819034e+00  1.600360e+00  -1.342161e+00  1.564647e+00  2.494095e+00  1.411183e+00  1.053670e+00  2.616801e+00  -8.299699e-01  -1.498748e+00  1.245664e+00  4.050732e+00  -3.330005e+00  -2.129095e+00  2.295108e-01  -1.613628e+00  2.842872e+00  1.693240e+00  6.183512e-01  -1.174496e+00  1.014881e+00  1.914450e+00  -4.818617e-01  2.685057e-01  -7.570084e-01  2.925490e+00  -4.600351e-01  -2.310082e+00  -4.457627e-01  -1.541325e+00  1.733398e+00  1.516022e+00  -1.783371e+00  1.668723e+00  -8.128521e-02  2.051204e-01  -5.813522e+00  -2.744984e+00  5.163778e+00  -2.375541e+00  -1.646700e+00  -1.755023e+00  -8.051338e-01  1.269112e+00  -2.337690e+00  -3.399909e+00  -2.054783e-01  -3.244072e+00  1.292565e+00  6.654341e-01  -2.381950e+00  2.062766e+00  2.237067e+00  1.122155e+00  -9.117857e-01  2.449881e+00  1.187938e+00  -3.851361e+00  1.435227e+00  -9.030285e-01  2.549267e-01  2.117522e+00  -1.057055e-01  -3.826765e+00  -1.440743e+00  1.154843e+00  -2.572407e+00  -2.890052e+00  -2.106007e+00  -1.987353e+00  -4.344639e+00  2.559533e+00  9.877091e-01  -9.400412e-01  8.986948e-01  -1.001823e+00  7.264819e-01  2.867427e+00  -1.912923e+00  1.396966e-01  -3.551565e+00  -3.230283e+00  -1.564408e+00  1.933200e+00  1.119421e+00  -2.428466e+00  1.535235e+00  3.341940e+00  8.597203e-01  2.372312e+00  1.829195e+00  -1.749562e+00  -2.012683e+00  -3.683837e+00  -2.067181e-01  2.225495e+00  -5.283929e-01  -2.000394e+00  -3.844733e+00  5.706459e-01  1.370824e-02  -9.057109e-01  -6.544881e-01  2.045960e+00  -8.835882e-01  -4.000960e-01  1.279556e+00  2.095797e+00  -6.771778e-01  2.435215e+00  -1.335428e-01  -1.225959e+00  1.063850e+00  5.941262e-01  -4.762470e-01  -5.559239e-01  5.247181e-01  1.886756e+00  1.264042e+00  -3.078372e+00  -1.147281e+00  -3.083523e+00  -6.442301e+00  -2.577221e+00  2.584390e+00  3.429150e+00  3.981948e-01  3.955792e+00  5.360311e+00  -7.138226e-01  3.519196e-01  -3.258299e+00  2.925933e+00  -3.436268e+00  -5.018013e-01  3.787708e+00  -3.468268e+00  -2.258112e+00  -1.368508e+00  -2.705916e-01  -7.208734e-01  1.869770e+00  2.735322e+00  -2.033448e+00  1.705367e+00  -3.391281e+00  5.548048e-01  -1.120236e+00  -1.143259e-01  2.522002e+00  1.557742e+00  -2.196329e+00  2.628395e+00  8.184454e-01  -1.026183e-01  4.196662e-02  -1.421479e-01  -5.384312e-01  -2.533097e-02  -5.115010e-01  3.419967e+00  -1.443536e+00  -2.174357e+00  3.129103e-01  -1.650610e+00  3.782838e-01  2.183884e-01  1.684706e+00  -2.962814e+00  1.299594e+00  1.326928e+00  7.931925e-01  -2.091341e+00  -3.965109e+00  -9.014451e-01  -1.930392e+00  -1.939719e-01  5.178282e-01  -3.198702e+00  8.190624e-01  1.081838e+00  4.346452e+00  -2.004690e+00  -7.833935e-01  -8.604423e-02  1.306421e+00  -2.728389e+00  -2.887130e+00  -2.693937e+00  5.424732e-01  2.668558e-01  2.706842e-01  -2.286314e+00  2.084364e+00  -2.366310e+00  -2.270172e+00  1.289120e+00  -1.494418e+00  5.568552e-01  2.877947e+00  -1.567208e-01  -8.657374e-01  -1.702567e+00  -9.532001e-01  3.326129e+00  1.300567e-01  1.345362e+00  -9.818146e-01  -9.520304e-01  -1.286063e+00  -2.921035e-01  1.203063e+00  1.868059e-01  2.300565e+00  9.706865e-02  2.339708e+00  -3.104166e+00  1.032222e-01  3.165913e+00  -9.525922e-01  3.615372e+00  -1.445365e+00  -5.797254e-01  -2.821545e+00  -3.094494e+00  -2.727047e+00  -3.572760e+00  -2.291646e+00  -6.476597e-01  -6.482479e-01  -4.256406e+00  2.589818e+00  -1.003369e+00  8.788443e-01  2.658843e+00  2.409850e+00  6.864805e-01  2.837721e+00  6.372420e-01  -2.178285e-01  -1.301995e+00  -3.046712e+00  -1.973198e+00  1.461547e+00  -1.755891e+00  3.065718e+00  -1.747099e+00  -5.073173e+00  -1.950112e+00  -6.710296e+00  -6.943476e-01  -3.128134e+00  -3.939649e+00  4.377957e+00  -6.823240e-01  1.271638e+00  5.031540e+00  -1.070573e+00  -9.487792e-01  -4.332698e+00  5.669552e+00  -4.837733e-02  -4.762255e-01  2.388173e+00  -4.198092e+00  -2.451604e-01  -1.129216e+00  8.593586e-01  1.607123e-01  -1.024151e-01  1.644576e+00  -6.394385e+00  4.420976e+00  -1.666650e-01  -8.003799e-01  -2.269629e+00  -1.675387e+00  7.386827e-01  -9.413056e-01  -8.801111e-01  3.307659e-02  -1.133452e+00  -5.130684e-01  -4.990678e-01  -1.410690e+00  -5.945324e-01  -2.537570e+00  4.710036e-01  3.723862e-01  9.530260e-02  1.396077e+00  1.293108e+00  -3.355294e+00  -2.007105e+00  3.042066e+00  -1.275792e+00  -4.453076e+00  -8.268180e-01  -7.082777e-01  -1.788757e+00  2.078071e-01  -9.084508e-01  -2.620482e-01  -5.170149e-01  -1.890561e+00  -1.228278e-01  -9.677395e-01  -4.054824e+00  1.902508e-01  4.137783e+00  1.408249e+00  3.315684e-01  1.254220e+00  -2.305566e+00  1.489390e-01  -5.506827e+00  -4.501131e-01  4.125859e-01  3.125553e+00  -2.445287e+00  -2.783523e-01  -1.302644e-01  -4.270405e-01  -2.951630e+00  3.027644e+00  -1.005319e+00  -1.415674e+00  2.887679e+00  9.783795e-01  2.390184e+00  1.417852e+00  7.526845e-01  -3.258035e+00  3.896875e+00  -1.926615e+00  2.863589e+00  2.461202e+00  -2.174594e-01  3.786974e+00  -2.311768e+00  4.105759e+00  4.119420e-02  -1.064775e+00  -7.809573e-01  -7.870093e-01  3.394581e+00  2.865726e+00  1.595345e+00  1.380676e+00  -1.677246e+00  -3.524538e-01  1.053223e+00  5.837089e-01  -1.312822e+00  -7.175056e+00  4.433412e-02  -7.189416e-01  -7.506300e-01  2.110074e+00  2.215896e+00  8.949760e-02  2.827534e+00  8.025866e-01  6.654691e-01  -3.651824e+00  5.371330e-01  -2.969600e-02  -3.375393e+00  -1.816620e+00  1.176656e+00  1.872633e+00  1.271613e+00  1.621376e+00  1.816899e+00  1.091215e+00  -2.821676e+00  2.266545e+00  -1.078974e+00  -4.886425e+00  1.625535e-01  1.892243e+00  3.229818e-01  -4.153310e-01  -1.427397e+00  2.700407e+00  4.647485e-01  9.136220e-01  -4.678312e-01  1.882653e+00  -1.447050e+00  -2.432963e+00  4.538369e+00  1.412829e-01  -1.272032e+00  -1.110347e-01  6.239646e-01  3.586125e+00  2.186410e+00  -2.921350e+00  -1.665141e-01  1.173735e+00  -9.374195e-01  1.688362e+00  1.983654e-01  -8.420702e-01  1.097313e+00  1.279046e-01  2.734070e+00  3.157103e+00  -4.091534e+00  -2.791602e+00  -4.924279e+00  2.104907e+00  -3.666121e+00  3.031363e+00  7.483265e-01  -9.395130e-01  -5.786715e-01  1.606778e+00  6.682064e+00  -7.667391e+00  -2.434089e+00  1.869678e+00  -2.056455e+00  7.084811e-01  -2.614650e-01  -3.157741e+00  -9.030884e-01  6.447411e-01  2.658812e+00  -1.562933e+00  6.483184e-01  -2.077968e+00  -3.406216e+00  1.695880e+00  -5.069672e-01  1.121943e+00  1.044024e+00  -1.572524e+00  -3.797628e+00  -4.530599e-01  -5.122700e+00  9.769971e-01  7.276613e-01  -3.327890e-02  1.118010e+00  -2.606485e-01  -4.273373e+00  -2.207752e+00  -1.124280e+00  -4.976963e-02  8.821408e-01  -2.055446e-01  8.766177e-01  -5.519130e-01  3.209420e+00  -2.093309e-01  -3.713312e-01  1.232417e+00  6.549169e-01  -2.713238e+00  -4.876162e+00  -2.139298e+00  -3.593175e+00  -1.207329e+00  -3.649357e-01  -1.252032e+00  8.966473e-01  2.705541e+00  2.975977e-01  6.281094e-01  1.783105e+00  2.392034e+00  5.131999e-01  5.962422e-01  2.776286e+00  -5.901579e-01  4.378307e+00  1.061818e+00  -1.001981e+00  6.121150e-01  -1.993036e-01  -4.782436e-01  1.622262e+00  -2.789902e+00  6.961349e-01  2.470193e+00  -1.771408e-01  -1.736797e+00  -2.260075e-01  1.046315e+00  3.001688e+00  -4.397296e+00  3.658996e+00  -1.440740e+00  3.483974e-01  4.968768e+00  -2.535703e-02  -2.089731e+00  2.995184e+00  2.988691e+00  1.132070e+00  -3.725904e-02  3.199806e+00  -3.366926e-02  -2.623123e+00  -3.179509e+00  -5.837709e-01  -5.785104e-01  5.512940e-01  -9.686757e-01  5.292229e-01  -8.053786e-01  1.222084e+00  -1.307716e+00  -2.163726e+00  -2.684182e+00  1.809859e+00  2.365234e+00  -4.317672e+00  2.709216e-01  5.764217e-01  1.123378e+00  -6.887479e-01  -2.047427e-01  6.953823e-01  4.715668e+00  -3.163980e+00  -3.159034e+00  -4.202232e+00  1.014058e+00  1.106040e+00  3.411936e+00  -1.382843e+00  2.778399e+00  3.863786e-01  -1.622369e+00  4.895313e+00  1.769865e+00  -8.718716e-01  -3.958517e+00  7.126822e+00  -2.394871e+00  -3.100445e+00  -6.345978e-02  1.946216e-01  -1.082509e+00  -2.315488e+00  3.010098e+00  2.585134e+00  -3.432947e+00  4.982599e+00  3.673005e+00  4.376851e-01  4.759388e+00  3.709048e-01  5.664661e-01  1.359362e+00  2.305346e-01  -3.003827e-01  -9.355800e-01  -2.841018e-01  5.267933e+00  -4.178865e-01  -2.582601e+00  -2.328220e-01  -8.792846e-01  2.740530e+00  6.194615e-01  7.039282e-01  -1.668566e+00  6.037550e+00  7.893683e-01  7.376956e-01  -3.332803e-01  -7.604733e-01  2.623003e-02  1.220317e-01  3.683896e+00  2.938833e-01  2.618504e+00  -8.947144e-02  1.875384e+00  8.541360e-01  5.427055e-01  4.129764e-01  -1.796282e-01  -3.986034e-01  3.806484e+00  -1.360774e-02  9.043908e-01  8.209149e-01  1.977935e-01  4.012873e-01  -1.828977e+00  -4.035871e-01  9.493930e-01  -2.207614e+00  -4.821173e+00  -4.218574e+00  -6.327294e-01  -5.551418e+00  -7.986572e-01  -5.389794e+00  1.631295e+00  -3.612507e+00  -4.528056e+00  8.607744e-01  1.555058e+00  1.736508e+00  2.003105e+00  -1.770967e+00  1.577212e+00  5.858361e-01  -1.342519e+00  2.359574e-01  -1.403553e+00  -2.085381e+00  5.236575e-01  8.174979e-01  3.752275e+00  1.694720e-01  -2.450811e-01  -4.603792e+00  -1.271118e+00  1.593020e+00  1.224784e+00  -5.234143e-01  -3.229934e+00  -2.673159e+00  -1.466063e+00  2.239924e+00  -8.075296e-01  3.906396e+00  4.033428e+00  -2.367771e+00  -6.650015e-01  2.485027e+00  3.710332e-02  -4.433112e-01  1.940803e+00  1.535453e+00  -3.585849e+00  6.166412e-01  6.573829e-01  -2.109643e+00  -1.328092e+00  4.618567e+00  -2.590833e+00  1.001515e+00  -1.161892e+00  1.121669e+00  -2.531410e+00  -1.622723e+00  -2.934646e+00  -1.156757e+00  1.915335e-02  -1.168730e-01  -2.499106e+00  -1.175596e+00  -4.711809e+00  -8.261653e-01  -2.889952e+00  -1.621844e-01  -1.408453e+00  -4.563927e+00  2.319842e+00  -2.388726e+00  4.383231e+00  -2.756392e+00  1.318012e+00  -3.791364e-01  1.750960e+00  -2.328473e+00  -1.217035e-01  5.407584e+00  -3.364865e+00  -2.520196e+00  1.593294e+00  -5.829327e+00  -2.904395e+00  4.536712e-01  -3.856689e+00  1.562597e+00  4.093015e-01  -3.161437e+00  -2.165224e+00  2.834117e+00  4.440529e-01  -1.259554e+00  -3.392987e+00  -1.140236e+00  1.594241e+00  4.252330e+00  1.661060e+00  -1.848113e+00  -4.437712e-02  -1.626052e-01  -1.119993e+00  -3.419025e+00  9.714307e-01  2.320680e-01  5.740414e-02  -5.176920e+00  -2.547381e+00  2.183424e+00  -9.442431e-01  3.705367e-01  2.439042e+00  -2.253827e+00  -1.494415e+00  3.030733e+00  1.222248e+00  -9.968708e-01  -1.131122e+00  -1.056160e+00  -6.234858e+00  3.058666e+00  1.526925e+00  -1.547602e+00  -2.041130e+00  -6.825307e-01  -7.124206e-01  2.470438e+00  4.693528e+00  -1.432968e+00  -8.405057e-01  4.389470e+00  -1.117231e+00  3.500116e+00  5.356361e-01  2.092480e+00  -7.648581e-01  3.378710e+00  3.242702e+00  2.336531e-01  -8.524925e-01  5.963531e-01  -9.405033e-01  -1.799998e-02  -2.244261e+00  1.109309e+00  -4.249390e-01  6.845978e-01  -2.876770e+00  3.472644e+00  -9.232506e-01  6.602086e+00  -1.617661e-01  9.707404e-01  1.520233e+00  1.954239e+00  -1.629686e+00  -2.207838e+00  -3.262744e+00  -1.250315e+00  2.148915e+00  1.823773e+00  -2.671148e+00  -2.243562e-01  1.761289e+00  -2.766865e+00  -4.634761e-01  1.215427e+00  -1.710836e-01  6.855396e-01  2.029299e+00  -1.627708e+00  -2.881658e+00  1.922534e+00  -1.612563e+00  -4.088618e-01  -2.328682e+00  -2.551936e+00  -7.214864e-01  1.218783e+00  -3.504587e+00  -1.132789e-02  7.512687e-02  -8.359149e-01  2.796996e+00  1.892499e+00  4.070081e+00  -9.359412e-01  -3.114239e+00  -1.010596e-02  4.299510e-01  1.051899e-01  7.423366e+00  -1.835429e+00  3.167280e-02  1.376146e+00  2.213526e+00  7.912587e-01  1.089261e+00  1.742310e+00  -4.897168e+00  4.956729e+00  -1.521847e+00  3.195121e-01  6.537861e-01  -1.527138e+00  -5.541603e-01  -4.011688e+00  -2.124053e+00  -2.898910e+00  2.450631e+00  5.384481e+00  1.594280e+00  -2.510098e-01  7.776340e-01  4.622192e-01  -3.565517e+00  2.751859e+00  -2.087282e+00  -9.188821e-02  -6.778300e-01  -1.458223e+00  2.814608e+00  5.689670e+00  1.865977e+00  -1.859309e-01  -1.545573e+00  -7.510225e-01  -2.238864e+00  1.257299e+00  -7.460093e-01  2.271094e+00  -2.845353e-01  1.426411e+00  -4.997069e-01  1.303222e+00  5.465747e-01  9.665658e-01  -6.064556e-01  3.689387e+00  5.975079e-01  5.632816e-01  8.250444e-01  2.699819e+00  3.827140e+00  -2.484141e+00  3.407683e+00  -2.104048e+00  1.154362e+00  4.729784e+00  3.378542e+00  -9.471117e-01  -9.855865e-01  -4.560036e-01  6.995121e-02  -1.027818e+00  2.956173e+00  -2.336709e+00  -3.556067e-02  1.160256e+00  6.057307e-01  -2.960752e+00  -1.507849e-01  -5.068166e+00  -2.395917e+00  -3.674274e+00  -2.604518e+00  2.128549e+00  -1.445340e+00  5.922253e+00  2.673197e-01  1.900847e+00  6.599917e-01  -1.340610e+00  1.381197e+00  1.228799e+00  -1.827308e-01  -9.874195e-01  4.083868e+00  1.596964e-01  3.191527e+00  8.076215e-01  1.419531e+00  5.232238e-01  9.424086e-01  -1.744455e+00  -4.769471e-01  -1.834677e+00  -1.436358e+00  -2.469521e-02  -4.015440e-01  9.117990e-01  4.240646e+00  2.738708e+00  -1.955535e+00  1.785979e+00  -2.964260e-01  3.622146e+00  -7.935484e-01  -6.344660e-02  -3.554600e+00  2.679680e+00  8.125666e-01  2.021958e+00  -2.145721e+00  1.607614e-01  -6.092530e-01  -2.773579e+00  -9.979739e-01  -1.647201e+00  -9.553177e-02  -6.505598e-01  1.955759e+00  -1.955088e-01  -2.455721e+00  4.502788e-01  5.737194e-01  6.626375e-02  -3.685128e+00  -8.162990e-01  -9.536978e+00  -4.378798e+00  -3.322524e-01  5.554814e-01  5.887892e-01  -1.049649e+01  5.736240e-01  -1.363449e+00  8.459265e+00  -7.769773e+00  3.864426e-01  2.174170e+00  8.550730e-01  -9.348071e-01  5.739277e-01  4.551983e+00  -1.715065e+00  2.270890e-01  2.866498e+00  -3.810785e+00  1.781053e+00  6.301382e-01  -5.515699e+00  5.724396e-01  1.554656e+00  -6.535814e-01  -1.253581e+00  9.333557e-01  2.202639e+00  -2.004495e+00  -6.627252e-01  -3.688271e+00  5.842406e-01  1.506399e+00  -3.730396e+00  -7.589276e+00  -5.514807e-01  -2.395356e+00  -1.212972e-01  2.997063e+00  4.735799e-01  9.398644e-01  1.562091e+00  -4.489551e+00  -1.535655e+00  2.368276e+00  1.870122e-01  1.605820e+00  -1.281929e+00  -2.182023e+00  -1.226947e+00  -7.407577e-03  1.071198e+00  -7.285195e-01  1.393811e+00  -1.432562e+00  -5.002747e+00  1.235390e+00  2.230161e+00  2.430605e+00  -3.365976e+00  -1.725446e+00  2.012960e+00  1.369770e+00  -1.353687e+00  2.069339e+00  1.556917e+00  -1.253017e+00  -1.543033e+00  7.942393e+00  3.183093e-01  3.591842e+00  5.584978e-01  5.507815e+00  3.235607e+00  -4.068573e-01  1.005572e-01  1.239081e-01  2.124679e+00  -9.256390e-01  -3.820633e-01  8.934340e-01  -2.107872e+00  1.271926e+00  -3.931828e-01  8.997735e-02  8.899316e-02  1.447042e+00  -3.890013e+00  7.953737e-01  9.308952e-01  1.287337e+00  8.197793e-02  -1.388359e+00  1.159467e+00  -1.774040e+00  1.049220e+01  -2.950627e+00  -1.543744e+00  -2.401122e+00  2.971353e+00  -7.601010e-01  -8.960602e-01  -5.665270e-01  -8.203361e-02  -7.767702e-01  1.058689e+00  9.541655e-01  1.901340e+00  -2.840165e+00  3.269106e+00  -3.637047e-02  3.672475e+00  2.203318e+00  3.833060e+00  2.243437e-01  1.273781e+00  -2.343373e+00  -2.375805e+00  1.446087e+00  3.844788e+00  -7.974496e-02  -4.671641e+00  -6.010971e-01  3.257265e+00  -4.243671e-01  1.178971e+00  -9.868498e-01  -4.299248e+00  3.175649e+00  -1.184116e-01  -4.215256e-01  -2.957102e+00  -2.841407e+00  -9.730201e-01  -1.998792e+00  4.900812e+00  -2.491506e+00  -1.794790e+00  -1.405505e+00  -1.626299e-01  -8.237018e-01  -2.699307e-01  7.190267e+00  -3.420948e+00  -1.430034e+00  2.153370e+00  -3.209538e+00  -2.360639e+00  -3.271795e+00  -2.866895e+00  -2.353096e+00  -1.940984e-01  9.077706e-01  2.240053e-01  -7.241969e-01  -7.744128e-02  9.628690e-03  -2.289055e+00  -2.452461e+00  -4.030350e+00  2.492511e+00  5.427533e-01  -3.918009e+00  5.611464e-01  -5.968798e+00  6.764647e-01  -2.773852e+00  1.067586e+00  -7.228121e-01  -5.323419e-01  3.526883e-01  -3.008425e-01  -3.905389e+00  -3.517543e+00  4.266912e-01  2.027580e+00  2.714535e+00  -6.366774e-01  2.336795e+00  -1.635102e+00  -1.159518e+00  4.006135e-01  1.369001e+00  -5.100731e+00  -2.120069e+00  8.315135e-01  2.026521e+00  8.044242e-01  4.089368e-01  1.614749e+00  1.034069e+00  3.094238e+00  -1.331466e+00  -4.472103e-02  6.355343e-01  1.740894e+00  4.707124e+00  1.755025e+00  2.995107e+00  1.748198e-01  4.263266e+00  5.641370e+00  2.996081e-01  6.527089e-01  -3.101640e+00  -1.696735e+00  -2.157013e-01  -2.490419e+00  8.608912e-01  1.343706e+00  1.890262e+00  9.017071e-01  2.542632e+00  5.229939e-01  9.221357e-01  -6.503719e+00  -8.514355e-01  1.308779e+00  -9.219637e-01  4.094196e+00  1.898593e+00  8.247453e-01  1.504360e+00  1.348586e+00  3.942633e-02  -2.884053e+00  -1.211985e-01  7.714606e-02  2.689559e-01  -1.944003e+00  1.530376e+00  -3.610857e+00  -2.166358e+00  2.479739e+00  5.295195e-01  1.043401e+00  2.164818e-01  -1.361753e+00  -2.695023e-01  4.788693e-01  1.637614e+00  -5.556357e-01  1.045966e+00  -1.560461e-01  -3.964885e+00  -5.120519e-01  -1.154246e-02  -1.348791e-01  -9.520977e-01  4.719916e+00  -1.032233e+00  -6.452895e-01  -1.397179e+00  -1.437369e+00  2.100528e+00  5.794213e+00  9.667385e-03  -2.742174e+00  -3.365149e-01  -7.947852e-02  7.000509e+00  -2.585692e-01  2.369547e+00  -5.863398e+00  8.756701e+00  -1.435549e-02  1.707277e-01  9.629142e-02  -6.924721e-01  -2.300208e+00  -4.622132e+00  2.220788e+00  5.635055e-01  1.394761e+00  4.205830e+00  8.721962e-01  1.361605e+00  5.264252e+00  -2.233018e-01  -1.409344e+00  2.195592e-01  -2.035451e+00  2.850279e+00  4.196109e-01  2.938664e+00  4.090889e+00  3.648068e+00  -9.768670e-01  3.524819e+00  5.473821e-01  7.125735e+00  1.837117e+00  1.181965e-01  2.348385e+00  -1.405241e+00  -2.051664e+00  2.153570e+00  -1.449088e+00  3.457830e-01  -6.356527e-01  2.762992e+00  -1.561832e-01  1.272426e+00  7.808061e-01  1.738757e-01  3.017690e+00  8.966826e-01  -1.880674e+00  -1.059145e+00  2.130412e+00  -7.797322e-01  5.314717e+00  4.489164e+00  1.963262e+00  3.381976e-02  -2.701177e-03  -2.057214e+00  -3.746734e-01  2.219290e+00  2.693250e-02  -1.094194e-01  1.993454e+00  -1.992993e+00  -9.732254e-01  -6.493186e+00  2.542002e+00  -5.496809e+00  2.090460e-01  -4.643575e+00  -4.180139e+00  1.002295e+00  -5.617036e-01  4.392238e+00  4.025599e-02  -9.321117e-02  -5.241955e-01  4.986744e-01  -9.385136e-01  1.759174e+00  -3.005193e+00  5.352621e-01  5.452364e-03  3.091035e+00  2.063098e+00  8.484416e-01  6.624453e-01  2.700095e-01  -1.332095e-01  1.158532e+00  4.296781e-01  -1.031367e+00  -8.317243e+00  -2.421984e+00  -3.873778e-01  1.362544e+00  1.953555e+00  6.388105e-02  -6.462560e-01  -1.293676e+00  2.589831e-01  -8.618129e-01  -6.854016e-01  -1.611431e+00  -2.108625e+00  2.556756e+00  3.171921e+00  4.868596e-01  -1.667051e+00  1.223483e-01  1.368992e+00  1.041989e+00  9.929155e-01  1.028699e+00  -1.036215e-01  -1.440513e+00  5.096851e-01  2.080297e-01  -5.378981e+00  -5.324156e-02  -1.925192e+00  -1.599194e+00  1.680926e+00  -9.534543e-01  -5.154545e+00  3.906432e-01  -1.365415e+00  1.457648e-01  1.530950e+00  -1.358674e+01  -2.591095e+00  7.896704e-01  1.097684e+01  -6.768831e+00  6.138961e-01  -2.956344e-01  -1.544835e+00  2.329330e+00  1.229877e+00  2.738051e+00  -1.046567e+00  -2.781980e+00  1.774352e+00  -3.920460e+00  4.087509e-01  -1.727049e+00  -9.005150e+00  -2.336035e+00  2.746579e+00  3.046414e+00  2.958793e-02  -3.629785e+00  -1.162854e+00  4.010437e-01  9.422541e-01  1.593149e+00  2.029151e+00  -3.836983e+00  -1.080217e+00  -5.907549e+00  1.790660e+00  3.493282e+00  -2.555002e-01  1.734453e+00  -9.903845e-01  3.888686e-01  4.966705e-01  2.714698e-01  1.117158e+00  2.717232e-01  3.402295e-01  2.900589e+00  6.830384e-01  -2.119946e+00  -7.968056e-01  -7.446555e-01  -7.712541e-01  1.877804e-01  -1.035792e+00  -7.672757e-04  -4.926675e+00  -2.450166e+00  -2.249044e-01  2.741683e+00  2.990885e+00  1.455275e+00  1.365773e+00  1.854845e+00  2.711917e+00  -3.052107e-01  -1.462500e+00  2.658977e-01  2.947167e+00  7.512426e+00  7.282120e-02  8.084293e+00  8.064740e-01  4.485376e+00  1.992312e+00  1.767272e+00  1.142498e+00  5.761701e-01  1.468407e+00  -1.663979e+00  -1.055026e+00  4.204482e-01  2.173913e+00  -7.702419e-01  1.067163e-01  1.181794e-01  1.108675e+00  -1.640224e+00  -3.446059e+00  -7.074948e-01  5.088962e-01  -6.395475e-01  4.529388e-01  1.471197e+00  1.566697e+00  1.438944e+00  1.262658e+01  1.206012e-01  2.666467e-01  -1.675723e-02  -2.991471e-01  4.996344e-01  -3.754783e-01  -8.502970e-01  1.609271e+00  -2.125618e+00  7.328192e-02  1.304215e+00  -5.525095e-01  2.552757e-01  6.390275e-01  -2.512110e+00  8.845437e-02  -2.718244e+00  -1.354685e+00  -3.047918e+00  1.681325e+00  1.725754e+00  -2.389257e+00  -4.913474e-01  2.717979e-01  -7.197161e-01  4.187340e+00  -1.566527e+00  1.628129e+00  -6.392111e-01  4.726793e-01  1.733782e+00  6.425671e+00  5.135240e-01  4.571125e+00  9.524386e-01  1.783933e+00  8.868463e+00  1.044586e+00  2.965902e+00  -9.981934e+00  7.300195e+00  3.514745e-01  -4.334190e-02  -1.352206e+00  7.736149e-01  -6.348249e-01  -6.670875e+00  -3.347320e-02  -1.743516e-01  5.895487e-02  8.947408e+00  -3.176457e+00  1.376451e+00  8.579519e+00  -1.644110e+00  4.232448e+00  -1.212763e+00  -6.611753e-02  -8.307861e-01  -1.815700e+00  -1.410360e-01  -1.065133e+00  5.847452e-01  -5.040364e-01  8.548577e-01  -1.327447e-01  6.233388e+00  -1.046195e+00  -2.605220e+00  -9.267543e-01  -1.660671e+00  1.117479e+00  2.144210e-01  9.018938e-01  -2.549501e-02  6.388865e-01  -1.189079e+00  3.540567e-01  -1.698620e-01  1.116131e+00  2.863531e-01  3.239845e+00  1.728228e+00  -2.814857e+00  1.266447e+00  4.545208e-01  1.492293e+00  5.237396e+00  -4.797365e-01  -7.558682e-01  2.555648e+00  1.214734e+00  2.066493e+00  -2.635827e+00  9.576669e-02  5.906751e-01  2.798047e-01  -1.704244e+00  -2.287555e+00  -2.087937e+00  -7.722485e+00  2.345706e+00  -8.660526e+00  -6.620862e-01  -8.012701e+00  -3.044168e+00  -7.150760e-01  -3.132242e-01  -1.407212e-01  -1.520367e+00  -1.532843e-01  -6.688001e-01  -1.538795e+00  -1.252970e+00  7.513052e-01  -3.830411e-01  -1.117374e-01  2.682853e-01  1.017050e+00  6.152483e+00  -1.773500e+00  6.373688e-01  -1.642866e+00  -3.665689e-02  1.449428e+00  1.446349e+00  1.318874e+00  -8.591942e+00  1.564051e+00  5.683343e-01  -8.302933e-01  6.813411e-01  3.552575e-01  7.924249e-01  2.173239e-01  5.528353e-01  -5.711322e-01  -9.398498e-01  -3.523538e+00  5.315365e-01  8.177281e-01  -4.097669e-01  3.302675e+00  4.554583e-02  -7.221602e-01  -1.444489e+00  -1.185277e-03  -2.700329e+00  2.066708e+00  1.788720e-01  -2.989427e-01  -7.166466e-01  1.001953e+00  -5.506681e+00  2.202763e+00  -1.075026e+00  -2.387493e-01  -2.063166e+00  3.028599e-02  -9.154103e+00  -4.849711e-01  -4.683342e+00  -1.428644e+00  -7.053233e-01  -7.557869e+00  -1.976699e+00  -1.117140e+00  1.119193e+01  -4.833516e+00  9.655592e-01  -1.144073e+00  3.364753e-01  6.521143e-02  -7.048716e-01  4.341106e+00  -5.406646e-01  -1.012080e+00  -9.994437e-01  -7.827466e+00  2.141709e+00  1.326546e+00  -1.003052e+01  -1.111314e+00  1.359398e+00  2.694313e+00  2.735043e-01  3.072832e+00  2.240992e-01  1.467104e+00  -2.860909e+00  1.736223e+00  -2.926612e-01  -2.454258e+00  -8.535740e-01  -8.695354e+00  -1.623734e+00  -8.699203e-01  1.121245e-01  -6.846192e-02  -2.204252e+00  1.504763e+00  2.361860e+00  4.446825e+00  -1.341083e+00  2.554181e+00  -4.584523e-01  1.176708e+00  1.304230e+00  1.842923e+00  1.659497e+00  1.858461e+00  -1.517899e+00  1.249472e-01  1.182092e+00  -1.231856e+00  -3.735013e+00  9.139485e-01  5.928239e-01  -2.765741e-01  3.730542e-01  1.239391e+00  -1.321737e+00  -1.188217e+00  2.338958e-01  1.113836e+00  1.718846e+00  2.733011e+00  -7.245766e-02  7.845894e+00  -1.413784e+00  6.299273e+00  3.545272e-01  9.071815e+00  6.674040e+00  -2.766104e+00  -1.208845e+00  2.211950e+00  1.122720e+00  -2.342933e-01  1.533997e-01  -3.727511e-01  1.358979e+00  -1.872967e-01  3.183835e-01  -1.424159e+00  2.267429e-01  8.120587e-01  -4.552502e+00  1.791011e+00  1.368244e-01  2.063365e-01  -2.537188e-01  -2.130275e-01  -1.179720e+00  -9.768808e-01  9.713034e+00  -1.184482e+00  2.338269e+00  -1.811258e+00  2.061479e+00  -2.716373e-03  -4.933630e-01  1.394515e+00  2.420960e+00  -1.077012e+00  2.233776e+00  -1.398082e+00  -3.451058e+00  2.268879e+00  -1.437499e+00  1.338396e+00  -6.723363e-01  -1.025601e-01  2.144975e-01  1.317988e+00  -5.060429e-01  1.538549e-01  1.234358e-01  -1.765686e+00  -3.151136e-01  -4.655080e-01  -5.452578e+00  1.100805e+00  -2.032022e+00  4.677815e-01  -2.769378e+00  -8.052405e-01  -7.847228e+00  1.482734e+00  -2.990766e+00  -1.179571e+00  2.673346e+00  -6.063663e+00  2.329861e+00  -1.502210e+00  8.942900e+00  -7.014746e+00  -7.951894e-01  9.711349e-01  1.956132e+00  -1.923393e+00  8.841666e-01  4.546429e+00  2.301411e+00  1.841356e+00  1.586733e-01  -3.765803e+00  -1.145031e+00  -7.368106e-01  -8.301519e+00  1.672221e+00  -2.011938e-01  3.821650e-01  9.252894e-01  -1.928186e+00  3.247497e+00  2.808083e+00  1.305193e+00  4.901171e-01  8.173286e-01  -6.224192e-02  -3.195020e-01  -9.063250e+00  -2.121033e+00  1.779210e-01  -1.556379e+00  9.309376e-01  -3.640714e+00  3.087813e+00  3.568376e-01  2.149632e+00  1.782975e+00  5.600922e-01  -1.784503e+00  -9.990791e-01  9.698712e-01  -2.816497e+00  1.939997e+00  -1.310325e+00  -6.955382e-01  6.858317e-01  -1.117775e+00  -9.332637e-02  -4.150214e+00  -3.676586e+00  -7.969345e-01  -1.176375e+00  -6.100879e-01  7.369769e-02  -2.725938e-01  4.316339e+00  6.784311e-01  6.205032e-01  4.069397e-01  8.914506e-01  4.345170e-01  4.562743e+00  -5.379454e+00  7.714727e+00  7.048047e-01  6.740856e+00  3.131698e+00  -1.186222e+00  8.437377e-01  1.263984e-01  1.191540e-01  2.519676e+00  -1.042778e+00  -1.477040e+00  -4.707123e+00  5.364169e-01  -1.900677e+00  8.872514e-01  -6.133810e-01  -1.004514e+00  -2.395270e+00  -6.610301e-01  -1.108472e+00  1.193404e-01  -2.905730e+00  -1.692885e+00  -2.549970e-01  2.237979e+00  5.483382e+00  1.793401e-01  -6.609420e-01  -1.203021e+00  1.910149e+00  -6.362761e-01  2.946404e+00  -3.176739e+00  -3.335818e-01  -1.092971e+00  2.253174e+00  1.426786e+00  6.777753e-01  1.260575e+00  -3.810369e-01  3.640656e-01  -1.329290e+00  -1.086474e+00  -1.446376e+00  2.103655e+00  -1.818038e+00  -2.215105e-02  6.100300e-01  1.550182e+00  1.633004e+00  -2.104043e+00  -4.291795e+00  -1.695936e+00  -1.728306e+00  -2.423428e+00  -3.671515e-01  -1.444570e+00  -6.002302e+00  -1.651213e+00  -3.321780e+00  -6.377399e-01  1.568741e+00  -5.953966e+00  -1.298365e+00  -1.672989e-01  7.774166e+00  -5.525041e+00  -7.764782e-02  1.750278e+00  5.956539e-01  -4.309275e+00  -5.523574e-01  6.526902e+00  1.131584e+00  5.700997e-01  1.629054e+00  -7.025370e+00  1.121135e+00  6.064751e-01  -9.680032e+00  1.069425e+00  -2.145973e+00  1.102088e-03  -1.898614e+00  -1.681381e-01  6.532701e-01  1.249756e+00  -2.973873e+00  -4.747036e+00  -7.112997e-01  1.648092e+00  -3.322090e+00  -3.604956e+00  2.575300e+00  -2.506731e+00  -1.553991e+00  8.260477e-02  -2.780703e-01  -7.338090e-01  9.474344e-01  -1.490137e+00  -4.956555e-01  -1.479747e+00  5.554118e-01  -3.864462e+00  5.409220e-01  -1.611423e+00  3.507373e+00  7.665778e-01  3.783006e-01  -7.411631e-01  1.300005e+00  -1.851286e+00  -3.894969e+00  7.830453e-01  1.322376e+00  -3.569455e-01  -6.516540e-01  -1.143178e+00  -1.927723e-01  -5.366094e-01  1.552335e+00  4.358031e-01  3.270784e-01  9.531571e-01  -4.229194e-01  7.674420e+00  -2.286245e-01  4.048550e+00  -1.094073e+00  5.067258e+00  6.311373e+00  -1.016733e+00  -5.295939e-01  1.300480e+00  2.319642e+00  6.829805e-01  -3.249789e+00  -2.371339e+00  -2.296399e+00  2.639859e+00  -7.438377e-01  9.454954e-02  -7.930320e-01  7.108123e-01  -4.569479e+00  -1.498306e-02  -8.095900e-01  3.943888e+00  -2.096343e+00  -1.847613e+00  -2.121090e+00  6.465173e-01  5.899667e+00  5.801178e-01  -1.313958e+00  2.108593e+00  -2.141411e-01  5.342235e+00  -1.043531e+00  2.384304e-01  -1.621472e+00  1.680762e+00  -1.569367e+00  -2.960171e+00  -2.717374e+00  9.541860e-01  -2.470281e+00  -5.359146e-01  -2.436183e+00  4.345522e-01  2.070219e+00  2.669077e+00  -6.950913e-01  1.089890e+00  7.851682e-01  -5.591353e-01  7.170141e+00  -3.579570e-01  1.291537e+00  1.635863e+00  -1.867840e+00  -1.801246e+00  2.346212e+00  -1.937421e-02  2.478179e+00  3.044158e-01  7.833882e-02  2.750484e+00  -1.111649e+00  1.500689e+00  -1.615091e+00  -4.416316e-01  -1.863050e+00  2.493539e+00  -1.413544e+00  -3.922333e+00  -2.228490e+00  1.325639e-01  1.745542e+00  -6.827525e-01  1.695994e-01  8.318127e-01  -8.264262e-02  2.755915e-01  3.427484e+00  5.196227e-01  2.262381e+00  -1.978084e+00  -2.365178e+00  1.025654e+01  -1.030881e+00  1.347200e-01  -1.290365e+00  -2.237234e+00  -8.925326e-01  -1.533195e+00  1.834223e+00  2.701905e-01  2.485420e+00  2.080273e-01  1.022781e+00  2.517380e+00  1.467521e+00  2.786881e+00  2.787709e+00  -1.296897e+00  -3.880356e+00  -1.719324e+00  1.596318e+00  -2.402746e+00  1.463636e+00  -1.218436e+00  1.830716e+00  1.241633e+00  -1.694441e+00  1.942212e+00  -3.981882e-01  2.126166e+00  2.556950e-01  6.139591e-01  1.537580e+00  2.396282e-01  1.725895e-02  -7.241867e-01  2.426046e+00  2.298338e+00  3.219837e+00  7.822328e-01  -6.164714e-01  -2.477298e+00  5.671613e-01  5.322885e-01  -2.812917e-01  -2.175267e+00  -6.050324e+00  -9.983538e-01  1.139274e-01  7.052594e-02  -1.001711e-01  2.234314e-02  2.498478e+00  1.399389e+00  3.502236e+00  -1.162926e+00  1.676998e-01  -3.395221e-02  2.290706e-01  2.204733e+00  -1.494453e+00  -8.036782e-01  2.373617e+00  -5.777394e+00  -4.932488e-01  -2.298778e-01  -1.717749e+00  8.106918e-01  1.054588e+00  6.346610e-01  8.335595e-01  1.668101e+00  -2.688245e+00  -6.065410e+00  1.277835e+00  5.339198e+00  2.474112e+00  4.916495e+00  -5.183744e-01  8.065355e-01  -4.208916e+00  -5.753514e-01  -8.900092e-01  -2.408188e-01  -1.328093e+00  1.540679e-01  -1.597411e+00  -2.264456e+00  -1.917195e-01  2.222188e+00  3.989564e-01  -7.109234e-01  -1.850808e-01  3.140646e+00  1.197579e+00  3.169972e-01  2.732052e+00  -1.088317e-01  2.915988e+00  -5.584966e-01  5.163644e-01  -1.294678e+00  4.224669e+00  -1.777374e+00  5.683322e+00  1.210735e+00  2.374827e+00  -2.329287e+00  -7.560210e-01  6.733154e+00  -4.483486e-01  2.790637e+00  -6.737639e+00  6.092734e+00  8.951814e-01  -5.299372e-01  -1.561812e+00  2.412555e+00  2.877805e-03  -1.181760e+00  1.172904e+00  1.081553e+00  -5.594400e-01  5.831659e+00  1.345766e+00  -9.324763e-01  1.025699e+01  -1.892093e+00  2.414369e+00  1.048294e+00  2.068361e-01  1.015567e+00  -5.645061e-03  -3.676578e+00  3.013243e+00  4.370975e-02  1.973837e+00  