<?xml version="1.0"?>
<MethodSetup Method="BDT::BDTF">
  <GeneralInfo>
    <Info name="TMVA Release" value="4.2.1 [262657]"/>
    <Info name="ROOT Release" value="6.26/02 [399874]"/>
    <Info name="Creator" value="s1412595"/>
    <Info name="Date" value="Sun May  1 13:43:53 2022"/>
    <Info name="Host" value="Linux root-ubuntu-2004-1 5.4.0-73-generic #82-Ubuntu SMP Wed Apr 14 17:39:42 UTC 2021 x86_64 x86_64 x86_64 GNU/Linux"/>
    <Info name="Dir" value="/home/s1412595/Desktop/MSc/TMVA/runs/run_fs3_hp1"/>
    <Info name="Training events" value="120000"/>
    <Info name="TrainingTime" value="5.96861000e+01"/>
    <Info name="AnalysisType" value="Classification"/>
  </GeneralInfo>
  <Options>
    <Option name="V" modified="Yes">False</Option>
    <Option name="VerbosityLevel" modified="No">Default</Option>
    <Option name="VarTransform" modified="No">None</Option>
    <Option name="H" modified="Yes">False</Option>
    <Option name="CreateMVAPdfs" modified="No">False</Option>
    <Option name="IgnoreNegWeightsInTraining" modified="No">False</Option>
    <Option name="NTrees" modified="Yes">50</Option>
    <Option name="MaxDepth" modified="Yes">3</Option>
    <Option name="MinNodeSize" modified="Yes">2.5%</Option>
    <Option name="nCuts" modified="Yes">20</Option>
    <Option name="BoostType" modified="Yes">AdaBoost</Option>
    <Option name="AdaBoostR2Loss" modified="No">quadratic</Option>
    <Option name="UseBaggedBoost" modified="No">False</Option>
    <Option name="Shrinkage" modified="No">1.000000e+00</Option>
    <Option name="AdaBoostBeta" modified="Yes">5.000000e-01</Option>
    <Option name="UseRandomisedTrees" modified="No">False</Option>
    <Option name="UseNvars" modified="No">4</Option>
    <Option name="UsePoissonNvars" modified="No">True</Option>
    <Option name="BaggedSampleFraction" modified="No">6.000000e-01</Option>
    <Option name="UseYesNoLeaf" modified="No">True</Option>
    <Option name="NegWeightTreatment" modified="No">inverseboostnegweights</Option>
    <Option name="Css" modified="No">1.000000e+00</Option>
    <Option name="Cts_sb" modified="No">1.000000e+00</Option>
    <Option name="Ctb_ss" modified="No">1.000000e+00</Option>
    <Option name="Cbb" modified="No">1.000000e+00</Option>
    <Option name="NodePurityLimit" modified="No">5.000000e-01</Option>
    <Option name="SeparationType" modified="Yes">giniindex</Option>
    <Option name="RegressionLossFunctionBDTG" modified="No">huber</Option>
    <Option name="HuberQuantile" modified="No">7.000000e-01</Option>
    <Option name="DoBoostMonitor" modified="No">False</Option>
    <Option name="UseFisherCuts" modified="Yes">True</Option>
    <Option name="MinLinCorrForFisher" modified="No">8.000000e-01</Option>
    <Option name="UseExclusiveVars" modified="No">False</Option>
    <Option name="DoPreselection" modified="No">False</Option>
    <Option name="SigToBkgFraction" modified="No">1.000000e+00</Option>
    <Option name="PruneMethod" modified="No">nopruning</Option>
    <Option name="PruneStrength" modified="No">0.000000e+00</Option>
    <Option name="PruningValFraction" modified="No">5.000000e-01</Option>
    <Option name="SkipNormalization" modified="No">False</Option>
    <Option name="nEventsMin" modified="No">0</Option>
    <Option name="UseBaggedGrad" modified="No">False</Option>
    <Option name="GradBaggingFraction" modified="No">6.000000e-01</Option>
    <Option name="UseNTrainEvents" modified="No">0</Option>
    <Option name="NNodesMax" modified="No">0</Option>
  </Options>
  <Variables NVar="14">
    <Variable VarIndex="0" Expression="Kbach_ProbNNk" Label="Kbach_ProbNNk" Title="Kbach_ProbNNk" Unit="" Internal="Kbach_ProbNNk" Type="F" Min="5.10000885e-01" Max="9.99803305e-01"/>
    <Variable VarIndex="1" Expression="Lc_DOCA12" Label="Lc_DOCA12" Title="Lc_DOCA12" Unit="" Internal="Lc_DOCA12" Type="F" Min="6.97496318e-07" Max="1.75438464e+00"/>
    <Variable VarIndex="2" Expression="Xicst_DOCA23" Label="Xicst_DOCA23" Title="Xicst_DOCA23" Unit="" Internal="Xicst_DOCA23" Type="F" Min="3.55930509e-13" Max="9.73069286e+00"/>
    <Variable VarIndex="3" Expression="Kbach_ProbNNp" Label="Kbach_ProbNNp" Title="Kbach_ProbNNp" Unit="" Internal="Kbach_ProbNNp" Type="F" Min="3.09430192e-07" Max="9.99382198e-01"/>
    <Variable VarIndex="4" Expression="Kbach_PT" Label="Kbach_PT" Title="Kbach_PT" Unit="" Internal="Kbach_PT" Type="F" Min="4.03433502e+02" Max="1.47210791e+04"/>
    <Variable VarIndex="5" Expression="Lc_PT" Label="Lc_PT" Title="Lc_PT" Unit="" Internal="Lc_PT" Type="F" Min="2.52761890e+03" Max="4.00415273e+04"/>
    <Variable VarIndex="6" Expression="pibach_PT" Label="pibach_PT" Title="pibach_PT" Unit="" Internal="pibach_PT" Type="F" Min="2.00006271e+02" Max="3.32139111e+03"/>
    <Variable VarIndex="7" Expression="pibach_ProbNNpi" Label="pibach_ProbNNpi" Title="pibach_ProbNNpi" Unit="" Internal="pibach_ProbNNpi" Type="F" Min="1.00149095e-01" Max="9.99639690e-01"/>
    <Variable VarIndex="8" Expression="pibach_ProbNNp" Label="pibach_ProbNNp" Title="pibach_ProbNNp" Unit="" Internal="pibach_ProbNNp" Type="F" Min="4.44849604e-07" Max="9.56227481e-01"/>
    <Variable VarIndex="9" Expression="Xicst_IPCHI2_OWNPV" Label="Xicst_IPCHI2_OWNPV" Title="Xicst_IPCHI2_OWNPV" Unit="" Internal="Xicst_IPCHI2_OWNPV" Type="F" Min="1.37118786e-05" Max="2.63996133e+04"/>
    <Variable VarIndex="10" Expression="Lc_IPCHI2_OWNPV" Label="Lc_IPCHI2_OWNPV" Title="Lc_IPCHI2_OWNPV" Unit="" Internal="Lc_IPCHI2_OWNPV" Type="F" Min="1.04185083e-05" Max="8.99999237e+00"/>
    <Variable VarIndex="11" Expression="Xicst_ENDVERTEX_CHI2" Label="Xicst_ENDVERTEX_CHI2" Title="Xicst_ENDVERTEX_CHI2" Unit="" Internal="Xicst_ENDVERTEX_CHI2" Type="F" Min="1.72308029e-03" Max="5.99373703e+01"/>
    <Variable VarIndex="12" Expression="pibach_IPCHI2_OWNPV" Label="pibach_IPCHI2_OWNPV" Title="pibach_IPCHI2_OWNPV" Unit="" Internal="pibach_IPCHI2_OWNPV" Type="F" Min="8.96283200e-06" Max="8.99967575e+00"/>
    <Variable VarIndex="13" Expression="Kbach_IPCHI2_OWNPV" Label="Kbach_IPCHI2_OWNPV" Title="Kbach_IPCHI2_OWNPV" Unit="" Internal="Kbach_IPCHI2_OWNPV" Type="F" Min="1.30371254e-05" Max="8.99991798e+00"/>
  </Variables>
  <Spectators NSpec="1">
    <Spectator SpecIndex="0" Expression="Xicst_M" Label="Xicst_M" Title="Xicst Mass" Unit="F" Internal="Xicst_M" Type="F" Min="2.92377637e+03" Max="3.90779272e+03"/>
  </Spectators>
  <Classes NClass="2">
    <Class Name="Signal" Index="0"/>
    <Class Name="Background" Index="1"/>
  </Classes>
  <Transformations NTransformations="0"/>
  <MVAPdfs/>
  <Weights NTrees="50" AnalysisType="0">
    <BinaryTree type="DecisionTree" boostWeight="6.3035992192454404e-01" itree="0">
      <Node pos="s" depth="0" NCoef="0" IVar="4" Cut="1.0852261962890625e+03" cType="0" res="-9.9000000000000000e+01" rms="0.0000000000000000e+00" purity="5.0000000000000000e-01" nType="0">
        <Node pos="l" depth="1" NCoef="0" IVar="5" Cut="6.1049096679687500e+03" cType="0" res="-9.9000000000000000e+01" rms="0.0000000000000000e+00" purity="7.1653556823730469e-01" nType="0">
          <Node pos="l" depth="2" NCoef="0" IVar="-1" Cut="1.7346254882812500e+03" cType="0" res="-9.9000000000000000e+01" rms="0.0000000000000000e+00" purity="8.3801543712615967e-01" nType="1"/>
          <Node pos="r" depth="2" NCoef="0" IVar="5" Cut="4.5738320312500000e+03" cType="0" res="-9.9000000000000000e+01" rms="0.0000000000000000e+00" purity="4.5835813879966736e-01" nType="0">
            <Node pos="l" depth="3" NCoef="0" IVar="-1" Cut="0.0000000000000000e+00" cType="1" res="-9.9000000000000000e+01" rms="0.0000000000000000e+00" purity="5.7511705160140991e-01" nType="1"/>
            <Node pos="r" depth="3" NCoef="0" IVar="-1" Cut="0.0000000000000000e+00" cType="1" res="-9.9000000000000000e+01" rms="0.0000000000000000e+00" purity="2.4577037990093231e-01" nType="-1"/>
          </Node>
        </Node>
        <Node pos="r" depth="1" NCoef="0" IVar="-1" Cut="7.9302276611328125e+02" cType="0" res="-9.9000000000000000e+01" rms="0.0000000000000000e+00" purity="2.1433679759502411e-01" nType="-1"/>
      </Node>
    </BinaryTree>
    <BinaryTree type="DecisionTree" boostWeight="4.2195767613086488e-01" itree="1">
      <Node pos="s" depth="0" NCoef="0" IVar="0" Cut="9.5315545797348022e-01" cType="0" res="-9.9000000000000000e+01" rms="0.0000000000000000e+00" purity="4.9841845035552979e-01" nType="0">
        <Node pos="l" depth="1" NCoef="0" IVar="5" Cut="6.6814008789062500e+03" cType="0" res="-9.9000000000000000e+01" rms="0.0000000000000000e+00" purity="6.6265344619750977e-01" nType="0">
          <Node pos="l" depth="2" NCoef="0" IVar="-1" Cut="1.4142523193359375e+03" cType="0" res="-9.9000000000000000e+01" rms="0.0000000000000000e+00" purity="8.0436444282531738e-01" nType="1"/>
          <Node pos="r" depth="2" NCoef="0" IVar="7" Cut="9.5679450035095215e-01" cType="0" res="-9.9000000000000000e+01" rms="0.0000000000000000e+00" purity="5.2372610569000244e-01" nType="0">
            <Node pos="l" depth="3" NCoef="0" IVar="-1" Cut="0.0000000000000000e+00" cType="1" res="-9.9000000000000000e+01" rms="0.0000000000000000e+00" purity="6.5048545598983765e-01" nType="1"/>
            <Node pos="r" depth="3" NCoef="0" IVar="-1" Cut="0.0000000000000000e+00" cType="1" res="-9.9000000000000000e+01" rms="0.0000000000000000e+00" purity="4.0858277678489685e-01" nType="-1"/>
          </Node>
        </Node>
        <Node pos="r" depth="1" NCoef="0" IVar="7" Cut="9.5680677890777588e-01" cType="0" res="-9.9000000000000000e+01" rms="0.0000000000000000e+00" purity="3.4484159946441650e-01" nType="0">
          <Node pos="l" depth="2" NCoef="0" IVar="4" Cut="1.0852401123046875e+03" cType="0" res="-9.9000000000000000e+01" rms="0.0000000000000000e+00" purity="4.7576093673706055e-01" nType="0">
            <Node pos="l" depth="3" NCoef="0" IVar="-1" Cut="0.0000000000000000e+00" cType="1" res="-9.9000000000000000e+01" rms="0.0000000000000000e+00" purity="5.9939914941787720e-01" nType="1"/>
            <Node pos="r" depth="3" NCoef="0" IVar="-1" Cut="0.0000000000000000e+00" cType="1" res="-9.9000000000000000e+01" rms="0.0000000000000000e+00" purity="3.9078691601753235e-01" nType="-1"/>
          </Node>
          <Node pos="r" depth="2" NCoef="0" IVar="-1" Cut="9.5458721923828125e+02" cType="0" res="-9.9000000000000000e+01" rms="0.0000000000000000e+00" purity="2.5409767031669617e-01" nType="-1"/>
        </Node>
      </Node>
    </BinaryTree>
    <BinaryTree type="DecisionTree" boostWeight="3.1274674111124118e-01" itree="2">
      <Node pos="s" depth="0" NCoef="0" IVar="0" Cut="9.0650761127471924e-01" cType="0" res="-9.9000000000000000e+01" rms="0.0000000000000000e+00" purity="5.1152795553207397e-01" nType="0">
        <Node pos="l" depth="1" NCoef="0" IVar="5" Cut="8.0265874023437500e+03" cType="0" res="-9.9000000000000000e+01" rms="0.0000000000000000e+00" purity="5.9881937503814697e-01" nType="0">
          <Node pos="l" depth="2" NCoef="0" IVar="4" Cut="1.4139608154296875e+03" cType="0" res="-9.9000000000000000e+01" rms="0.0000000000000000e+00" purity="7.6246559619903564e-01" nType="0">
            <Node pos="l" depth="3" NCoef="0" IVar="-1" Cut="0.0000000000000000e+00" cType="1" res="-9.9000000000000000e+01" rms="0.0000000000000000e+00" purity="8.4369379281997681e-01" nType="1"/>
            <Node pos="r" depth="3" NCoef="0" IVar="-1" Cut="0.0000000000000000e+00" cType="1" res="-9.9000000000000000e+01" rms="0.0000000000000000e+00" purity="3.6851567029953003e-01" nType="-1"/>
          </Node>
          <Node pos="r" depth="2" NCoef="0" IVar="4" Cut="7.1672912597656250e+02" cType="0" res="-9.9000000000000000e+01" rms="0.0000000000000000e+00" purity="5.3378075361251831e-01" nType="0">
            <Node pos="l" depth="3" NCoef="0" IVar="-1" Cut="0.0000000000000000e+00" cType="1" res="-9.9000000000000000e+01" rms="0.0000000000000000e+00" purity="5.6288009881973267e-01" nType="1"/>
            <Node pos="r" depth="3" NCoef="0" IVar="-1" Cut="0.0000000000000000e+00" cType="1" res="-9.9000000000000000e+01" rms="0.0000000000000000e+00" purity="2.9186472296714783e-01" nType="-1"/>
          </Node>
        </Node>
        <Node pos="r" depth="1" NCoef="0" IVar="6" Cut="3.4328866577148438e+02" cType="0" res="-9.9000000000000000e+01" rms="0.0000000000000000e+00" purity="3.6025691032409668e-01" nType="0">
          <Node pos="l" depth="2" NCoef="0" IVar="4" Cut="1.7670319824218750e+03" cType="0" res="-9.9000000000000000e+01" rms="0.0000000000000000e+00" purity="4.3028485774993896e-01" nType="0">
            <Node pos="l" depth="3" NCoef="0" IVar="-1" Cut="0.0000000000000000e+00" cType="1" res="-9.9000000000000000e+01" rms="0.0000000000000000e+00" purity="6.4681059122085571e-01" nType="1"/>
            <Node pos="r" depth="3" NCoef="0" IVar="-1" Cut="0.0000000000000000e+00" cType="1" res="-9.9000000000000000e+01" rms="0.0000000000000000e+00" purity="3.9657834172248840e-01" nType="-1"/>
          </Node>
          <Node pos="r" depth="2" NCoef="0" IVar="-1" Cut="9.1370809078216553e-01" cType="0" res="-9.9000000000000000e+01" rms="0.0000000000000000e+00" purity="2.3487463593482971e-01" nType="-1"/>
        </Node>
      </Node>
    </BinaryTree>
    <BinaryTree type="DecisionTree" boostWeight="2.7373844776743400e-01" itree="3">
      <Node pos="s" depth="0" NCoef="0" IVar="6" Cut="3.4864364624023438e+02" cType="0" res="-9.9000000000000000e+01" rms="0.0000000000000000e+00" purity="4.9807125329971313e-01" nType="0">
        <Node pos="l" depth="1" NCoef="0" IVar="4" Cut="1.7670319824218750e+03" cType="0" res="-9.9000000000000000e+01" rms="0.0000000000000000e+00" purity="5.6901252269744873e-01" nType="0">
          <Node pos="l" depth="2" NCoef="0" IVar="5" Cut="8.1407592773437500e+03" cType="0" res="-9.9000000000000000e+01" rms="0.0000000000000000e+00" purity="7.0506370067596436e-01" nType="0">
            <Node pos="l" depth="3" NCoef="0" IVar="-1" Cut="0.0000000000000000e+00" cType="1" res="-9.9000000000000000e+01" rms="0.0000000000000000e+00" purity="8.3286428451538086e-01" nType="1"/>
            <Node pos="r" depth="3" NCoef="0" IVar="-1" Cut="0.0000000000000000e+00" cType="1" res="-9.9000000000000000e+01" rms="0.0000000000000000e+00" purity="4.8947149515151978e-01" nType="-1"/>
          </Node>
          <Node pos="r" depth="2" NCoef="0" IVar="4" Cut="6.6317230224609375e+02" cType="0" res="-9.9000000000000000e+01" rms="0.0000000000000000e+00" purity="5.1131701469421387e-01" nType="0">
            <Node pos="l" depth="3" NCoef="0" IVar="-1" Cut="0.0000000000000000e+00" cType="1" res="-9.9000000000000000e+01" rms="0.0000000000000000e+00" purity="5.5373191833496094e-01" nType="1"/>
            <Node pos="r" depth="3" NCoef="0" IVar="-1" Cut="0.0000000000000000e+00" cType="1" res="-9.9000000000000000e+01" rms="0.0000000000000000e+00" purity="2.3396667838096619e-01" nType="-1"/>
          </Node>
        </Node>
        <Node pos="r" depth="1" NCoef="0" IVar="7" Cut="9.1378831863403320e-01" cType="0" res="-9.9000000000000000e+01" rms="0.0000000000000000e+00" purity="3.5139054059982300e-01" nType="0">
          <Node pos="l" depth="2" NCoef="0" IVar="7" Cut="9.9127089977264404e-01" cType="0" res="-9.9000000000000000e+01" rms="0.0000000000000000e+00" purity="4.4402000308036804e-01" nType="0">
            <Node pos="l" depth="3" NCoef="0" IVar="-1" Cut="0.0000000000000000e+00" cType="1" res="-9.9000000000000000e+01" rms="0.0000000000000000e+00" purity="5.5974757671356201e-01" nType="1"/>
            <Node pos="r" depth="3" NCoef="0" IVar="-1" Cut="0.0000000000000000e+00" cType="1" res="-9.9000000000000000e+01" rms="0.0000000000000000e+00" purity="4.1439273953437805e-01" nType="-1"/>
          </Node>
          <Node pos="r" depth="2" NCoef="0" IVar="-1" Cut="7.5139855957031250e+02" cType="0" res="-9.9000000000000000e+01" rms="0.0000000000000000e+00" purity="2.7401491999626160e-01" nType="-1"/>
        </Node>
      </Node>
    </BinaryTree>
    <BinaryTree type="DecisionTree" boostWeight="2.3459455214661529e-01" itree="4">
      <Node pos="s" depth="0" NCoef="0" IVar="4" Cut="1.7670187988281250e+03" cType="0" res="-9.9000000000000000e+01" rms="0.0000000000000000e+00" purity="4.8857304453849792e-01" nType="0">
        <Node pos="l" depth="1" NCoef="0" IVar="5" Cut="6.1468959960937500e+03" cType="0" res="-9.9000000000000000e+01" rms="0.0000000000000000e+00" purity="6.4241909980773926e-01" nType="0">
          <Node pos="l" depth="2" NCoef="0" IVar="-1" Cut="7.7613764648437500e+03" cType="0" res="-9.9000000000000000e+01" rms="0.0000000000000000e+00" purity="7.3189753293991089e-01" nType="1"/>
          <Node pos="r" depth="2" NCoef="0" IVar="-1" Cut="0.0000000000000000e+00" cType="1" res="-9.9000000000000000e+01" rms="0.0000000000000000e+00" purity="3.1614169478416443e-01" nType="-1"/>
        </Node>
        <Node pos="r" depth="1" NCoef="0" IVar="4" Cut="7.9302398681640625e+02" cType="0" res="-9.9000000000000000e+01" rms="0.0000000000000000e+00" purity="4.4176337122917175e-01" nType="0">
          <Node pos="l" depth="2" NCoef="0" IVar="7" Cut="8.7114101648330688e-01" cType="0" res="-9.9000000000000000e+01" rms="0.0000000000000000e+00" purity="4.8938384652137756e-01" nType="0">
            <Node pos="l" depth="3" NCoef="0" IVar="-1" Cut="0.0000000000000000e+00" cType="1" res="-9.9000000000000000e+01" rms="0.0000000000000000e+00" purity="5.2450966835021973e-01" nType="1"/>
            <Node pos="r" depth="3" NCoef="0" IVar="-1" Cut="0.0000000000000000e+00" cType="1" res="-9.9000000000000000e+01" rms="0.0000000000000000e+00" purity="4.1016766428947449e-01" nType="-1"/>
          </Node>
          <Node pos="r" depth="2" NCoef="0" IVar="-1" Cut="6.5116972656250000e+03" cType="1" res="-9.9000000000000000e+01" rms="0.0000000000000000e+00" purity="3.1676870584487915e-01" nType="-1"/>
        </Node>
      </Node>
    </BinaryTree>
    <BinaryTree type="DecisionTree" boostWeight="1.7803240450793439e-01" itree="5">
      <Node pos="s" depth="0" NCoef="0" IVar="4" Cut="1.7670187988281250e+03" cType="0" res="-9.9000000000000000e+01" rms="0.0000000000000000e+00" purity="4.8013174533843994e-01" nType="0">
        <Node pos="l" depth="1" NCoef="0" IVar="5" Cut="7.9308237304687500e+03" cType="0" res="-9.9000000000000000e+01" rms="0.0000000000000000e+00" purity="6.1512380838394165e-01" nType="0">
          <Node pos="l" depth="2" NCoef="0" IVar="-1" Cut="9.1393965482711792e-01" cType="0" res="-9.9000000000000000e+01" rms="0.0000000000000000e+00" purity="7.4248933792114258e-01" nType="1"/>
          <Node pos="r" depth="2" NCoef="0" IVar="6" Cut="4.5442395019531250e+02" cType="0" res="-9.9000000000000000e+01" rms="0.0000000000000000e+00" purity="4.6094965934753418e-01" nType="0">
            <Node pos="l" depth="3" NCoef="0" IVar="-1" Cut="0.0000000000000000e+00" cType="1" res="-9.9000000000000000e+01" rms="0.0000000000000000e+00" purity="5.7868313789367676e-01" nType="1"/>
            <Node pos="r" depth="3" NCoef="0" IVar="-1" Cut="0.0000000000000000e+00" cType="1" res="-9.9000000000000000e+01" rms="0.0000000000000000e+00" purity="3.5017749667167664e-01" nType="-1"/>
          </Node>
        </Node>
        <Node pos="r" depth="1" NCoef="0" IVar="-1" Cut="5.9822875976562500e+02" cType="0" res="-9.9000000000000000e+01" rms="0.0000000000000000e+00" purity="4.4041550159454346e-01" nType="-1"/>
      </Node>
    </BinaryTree>
    <BinaryTree type="DecisionTree" boostWeight="1.3883490501991572e-01" itree="6">
      <Node pos="s" depth="0" NCoef="0" IVar="3" Cut="1.4276915788650513e-01" cType="1" res="-9.9000000000000000e+01" rms="0.0000000000000000e+00" purity="5.0918799638748169e-01" nType="0">
        <Node pos="l" depth="1" NCoef="0" IVar="5" Cut="8.3227265625000000e+03" cType="0" res="-9.9000000000000000e+01" rms="0.0000000000000000e+00" purity="5.8412963151931763e-01" nType="0">
          <Node pos="l" depth="2" NCoef="0" IVar="-1" Cut="9.5676070451736450e-01" cType="0" res="-9.9000000000000000e+01" rms="0.0000000000000000e+00" purity="7.1421116590499878e-01" nType="1"/>
          <Node pos="r" depth="2" NCoef="0" IVar="5" Cut="5.5876298828125000e+03" cType="0" res="-9.9000000000000000e+01" rms="0.0000000000000000e+00" purity="5.3245770931243896e-01" nType="0">
            <Node pos="l" depth="3" NCoef="0" IVar="-1" Cut="0.0000000000000000e+00" cType="1" res="-9.9000000000000000e+01" rms="0.0000000000000000e+00" purity="5.8396893739700317e-01" nType="1"/>
            <Node pos="r" depth="3" NCoef="0" IVar="-1" Cut="0.0000000000000000e+00" cType="1" res="-9.9000000000000000e+01" rms="0.0000000000000000e+00" purity="4.7470393776893616e-01" nType="-1"/>
          </Node>
        </Node>
        <Node pos="r" depth="1" NCoef="0" IVar="0" Cut="7.6640385389328003e-01" cType="0" res="-9.9000000000000000e+01" rms="0.0000000000000000e+00" purity="4.7455090284347534e-01" nType="0">
          <Node pos="l" depth="2" NCoef="0" IVar="7" Cut="9.1397392749786377e-01" cType="0" res="-9.9000000000000000e+01" rms="0.0000000000000000e+00" purity="4.9723583459854126e-01" nType="0">
            <Node pos="l" depth="3" NCoef="0" IVar="-1" Cut="0.0000000000000000e+00" cType="1" res="-9.9000000000000000e+01" rms="0.0000000000000000e+00" purity="5.2922183275222778e-01" nType="1"/>
            <Node pos="r" depth="3" NCoef="0" IVar="-1" Cut="0.0000000000000000e+00" cType="1" res="-9.9000000000000000e+01" rms="0.0000000000000000e+00" purity="4.4848829507827759e-01" nType="-1"/>
          </Node>
          <Node pos="r" depth="2" NCoef="0" IVar="-1" Cut="7.6223675537109375e+02" cType="0" res="-9.9000000000000000e+01" rms="0.0000000000000000e+00" purity="3.7698128819465637e-01" nType="-1"/>
        </Node>
      </Node>
    </BinaryTree>
    <BinaryTree type="DecisionTree" boostWeight="1.3758765362212952e-01" itree="7">
      <Node pos="s" depth="0" NCoef="0" IVar="3" Cut="1.4276915788650513e-01" cType="1" res="-9.9000000000000000e+01" rms="0.0000000000000000e+00" purity="5.0616341829299927e-01" nType="0">
        <Node pos="l" depth="1" NCoef="0" IVar="5" Cut="9.7586484375000000e+03" cType="0" res="-9.9000000000000000e+01" rms="0.0000000000000000e+00" purity="5.7389754056930542e-01" nType="0">
          <Node pos="l" depth="2" NCoef="0" IVar="-1" Cut="8.7864422607421875e+02" cType="0" res="-9.9000000000000000e+01" rms="0.0000000000000000e+00" purity="7.3337781429290771e-01" nType="1"/>
          <Node pos="r" depth="2" NCoef="0" IVar="4" Cut="2.5272834472656250e+03" cType="1" res="-9.9000000000000000e+01" rms="0.0000000000000000e+00" purity="5.4123800992965698e-01" nType="0">
            <Node pos="l" depth="3" NCoef="0" IVar="-1" Cut="0.0000000000000000e+00" cType="1" res="-9.9000000000000000e+01" rms="0.0000000000000000e+00" purity="5.6083172559738159e-01" nType="1"/>
            <Node pos="r" depth="3" NCoef="0" IVar="-1" Cut="0.0000000000000000e+00" cType="1" res="-9.9000000000000000e+01" rms="0.0000000000000000e+00" purity="4.1038554906845093e-01" nType="-1"/>
          </Node>
        </Node>
        <Node pos="r" depth="1" NCoef="0" IVar="4" Cut="7.6221014404296875e+02" cType="0" res="-9.9000000000000000e+01" rms="0.0000000000000000e+00" purity="4.7506362199783325e-01" nType="0">
          <Node pos="l" depth="2" NCoef="0" IVar="4" Cut="1.1039117431640625e+03" cType="1" res="-9.9000000000000000e+01" rms="0.0000000000000000e+00" purity="4.9743950366973877e-01" nType="0">
            <Node pos="l" depth="3" NCoef="0" IVar="-1" Cut="0.0000000000000000e+00" cType="1" res="-9.9000000000000000e+01" rms="0.0000000000000000e+00" purity="5.4997390508651733e-01" nType="1"/>
            <Node pos="r" depth="3" NCoef="0" IVar="-1" Cut="0.0000000000000000e+00" cType="1" res="-9.9000000000000000e+01" rms="0.0000000000000000e+00" purity="4.5851251482963562e-01" nType="-1"/>
          </Node>
          <Node pos="r" depth="2" NCoef="0" IVar="-1" Cut="6.5116972656250000e+03" cType="1" res="-9.9000000000000000e+01" rms="0.0000000000000000e+00" purity="4.0721082687377930e-01" nType="-1"/>
        </Node>
      </Node>
    </BinaryTree>
    <BinaryTree type="DecisionTree" boostWeight="1.3160000347931580e-01" itree="8">
      <Node pos="s" depth="0" NCoef="0" IVar="4" Cut="1.7670187988281250e+03" cType="0" res="-9.9000000000000000e+01" rms="0.0000000000000000e+00" purity="5.0622171163558960e-01" nType="0">
        <Node pos="l" depth="1" NCoef="0" IVar="5" Cut="7.9308237304687500e+03" cType="0" res="-9.9000000000000000e+01" rms="0.0000000000000000e+00" purity="5.8016061782836914e-01" nType="0">
          <Node pos="l" depth="2" NCoef="0" IVar="-1" Cut="8.7111860513687134e-01" cType="0" res="-9.9000000000000000e+01" rms="0.0000000000000000e+00" purity="6.8606817722320557e-01" nType="1"/>
          <Node pos="r" depth="2" NCoef="0" IVar="6" Cut="3.4546096801757812e+02" cType="0" res="-9.9000000000000000e+01" rms="0.0000000000000000e+00" purity="4.5679959654808044e-01" nType="0">
            <Node pos="l" depth="3" NCoef="0" IVar="-1" Cut="0.0000000000000000e+00" cType="1" res="-9.9000000000000000e+01" rms="0.0000000000000000e+00" purity="5.0613880157470703e-01" nType="1"/>
            <Node pos="r" depth="3" NCoef="0" IVar="-1" Cut="0.0000000000000000e+00" cType="1" res="-9.9000000000000000e+01" rms="0.0000000000000000e+00" purity="3.3644959330558777e-01" nType="-1"/>
          </Node>
        </Node>
        <Node pos="r" depth="1" NCoef="0" IVar="4" Cut="5.9822875976562500e+02" cType="0" res="-9.9000000000000000e+01" rms="0.0000000000000000e+00" purity="4.8536780476570129e-01" nType="0">
          <Node pos="l" depth="2" NCoef="0" IVar="10" Cut="2.1428771018981934e+00" cType="1" res="-9.9000000000000000e+01" rms="0.0000000000000000e+00" purity="5.0156408548355103e-01" nType="0">
            <Node pos="l" depth="3" NCoef="0" IVar="-1" Cut="0.0000000000000000e+00" cType="1" res="-9.9000000000000000e+01" rms="0.0000000000000000e+00" purity="5.3034234046936035e-01" nType="1"/>
            <Node pos="r" depth="3" NCoef="0" IVar="-1" Cut="0.0000000000000000e+00" cType="1" res="-9.9000000000000000e+01" rms="0.0000000000000000e+00" purity="4.5363217592239380e-01" nType="-1"/>
          </Node>
          <Node pos="r" depth="2" NCoef="0" IVar="-1" Cut="9.5654028654098511e-01" cType="0" res="-9.9000000000000000e+01" rms="0.0000000000000000e+00" purity="3.3449256420135498e-01" nType="-1"/>
        </Node>
      </Node>
    </BinaryTree>
    <BinaryTree type="DecisionTree" boostWeight="8.7165275538829329e-02" itree="9">
      <Node pos="s" depth="0" NCoef="0" IVar="0" Cut="9.7647935152053833e-01" cType="0" res="-9.9000000000000000e+01" rms="0.0000000000000000e+00" purity="4.9762144684791565e-01" nType="0">
        <Node pos="l" depth="1" NCoef="0" IVar="5" Cut="9.3947500000000000e+03" cType="0" res="-9.9000000000000000e+01" rms="0.0000000000000000e+00" purity="5.3832495212554932e-01" nType="0">
          <Node pos="l" depth="2" NCoef="0" IVar="-1" Cut="2.4252333984375000e+03" cType="0" res="-9.9000000000000000e+01" rms="0.0000000000000000e+00" purity="6.6537976264953613e-01" nType="1"/>
          <Node pos="r" depth="2" NCoef="0" IVar="5" Cut="3.8724016113281250e+03" cType="0" res="-9.9000000000000000e+01" rms="0.0000000000000000e+00" purity="5.1244467496871948e-01" nType="0">
            <Node pos="l" depth="3" NCoef="0" IVar="-1" Cut="0.0000000000000000e+00" cType="1" res="-9.9000000000000000e+01" rms="0.0000000000000000e+00" purity="5.2292925119400024e-01" nType="1"/>
            <Node pos="r" depth="3" NCoef="0" IVar="-1" Cut="0.0000000000000000e+00" cType="1" res="-9.9000000000000000e+01" rms="0.0000000000000000e+00" purity="4.1446331143379211e-01" nType="-1"/>
          </Node>
        </Node>
        <Node pos="r" depth="1" NCoef="0" IVar="7" Cut="5.2847796678543091e-01" cType="0" res="-9.9000000000000000e+01" rms="0.0000000000000000e+00" purity="4.7328963875770569e-01" nType="0">
          <Node pos="l" depth="2" NCoef="0" IVar="7" Cut="9.7720676660537720e-01" cType="0" res="-9.9000000000000000e+01" rms="0.0000000000000000e+00" purity="4.8277470469474792e-01" nType="0">
            <Node pos="l" depth="3" NCoef="0" IVar="-1" Cut="0.0000000000000000e+00" cType="1" res="-9.9000000000000000e+01" rms="0.0000000000000000e+00" purity="5.1780760288238525e-01" nType="1"/>
            <Node pos="r" depth="3" NCoef="0" IVar="-1" Cut="0.0000000000000000e+00" cType="1" res="-9.9000000000000000e+01" rms="0.0000000000000000e+00" purity="4.6347698569297791e-01" nType="-1"/>
          </Node>
          <Node pos="r" depth="2" NCoef="0" IVar="-1" Cut="1.2843053340911865e+00" cType="1" res="-9.9000000000000000e+01" rms="0.0000000000000000e+00" purity="3.6549526453018188e-01" nType="-1"/>
        </Node>
      </Node>
    </BinaryTree>
    <BinaryTree type="DecisionTree" boostWeight="8.3311540332423079e-02" itree="10">
      <Node pos="s" depth="0" NCoef="0" IVar="7" Cut="5.2847796678543091e-01" cType="0" res="-9.9000000000000000e+01" rms="0.0000000000000000e+00" purity="4.9549585580825806e-01" nType="0">
        <Node pos="l" depth="1" NCoef="0" IVar="4" Cut="1.7670187988281250e+03" cType="0" res="-9.9000000000000000e+01" rms="0.0000000000000000e+00" purity="5.0344055891036987e-01" nType="0">
          <Node pos="l" depth="2" NCoef="0" IVar="5" Cut="7.9308237304687500e+03" cType="0" res="-9.9000000000000000e+01" rms="0.0000000000000000e+00" purity="5.5835700035095215e-01" nType="0">
            <Node pos="l" depth="3" NCoef="0" IVar="-1" Cut="0.0000000000000000e+00" cType="1" res="-9.9000000000000000e+01" rms="0.0000000000000000e+00" purity="6.5569019317626953e-01" nType="1"/>
            <Node pos="r" depth="3" NCoef="0" IVar="-1" Cut="0.0000000000000000e+00" cType="1" res="-9.9000000000000000e+01" rms="0.0000000000000000e+00" purity="4.4519415497779846e-01" nType="-1"/>
          </Node>
          <Node pos="r" depth="2" NCoef="0" IVar="-1" Cut="5.3329528808593750e+02" cType="0" res="-9.9000000000000000e+01" rms="0.0000000000000000e+00" purity="4.8802080750465393e-01" nType="-1"/>
        </Node>
        <Node pos="r" depth="1" NCoef="0" IVar="8" Cut="1.3048420846462250e-01" cType="0" res="-9.9000000000000000e+01" rms="0.0000000000000000e+00" purity="3.9885315299034119e-01" nType="0">
          <Node pos="l" depth="2" NCoef="0" IVar="-1" Cut="0.0000000000000000e+00" cType="1" res="-9.9000000000000000e+01" rms="0.0000000000000000e+00" purity="5.5461955070495605e-01" nType="1"/>
          <Node pos="r" depth="2" NCoef="0" IVar="-1" Cut="0.0000000000000000e+00" cType="1" res="-9.9000000000000000e+01" rms="0.0000000000000000e+00" purity="3.0381196737289429e-01" nType="-1"/>
        </Node>
      </Node>
    </BinaryTree>
    <BinaryTree type="DecisionTree" boostWeight="7.4814389695302699e-02" itree="11">
      <Node pos="s" depth="0" NCoef="0" IVar="7" Cut="5.2847796678543091e-01" cType="0" res="-9.9000000000000000e+01" rms="0.0000000000000000e+00" purity="5.1061612367630005e-01" nType="0">
        <Node pos="l" depth="1" NCoef="0" IVar="8" Cut="9.1069683432579041e-02" cType="0" res="-9.9000000000000000e+01" rms="0.0000000000000000e+00" purity="5.1940357685089111e-01" nType="0">
          <Node pos="l" depth="2" NCoef="0" IVar="-1" Cut="0.0000000000000000e+00" cType="1" res="-9.9000000000000000e+01" rms="0.0000000000000000e+00" purity="6.3649332523345947e-01" nType="1"/>
          <Node pos="r" depth="2" NCoef="0" IVar="10" Cut="4.2857160568237305e+00" cType="1" res="-9.9000000000000000e+01" rms="0.0000000000000000e+00" purity="5.1360529661178589e-01" nType="0">
            <Node pos="l" depth="3" NCoef="0" IVar="-1" Cut="0.0000000000000000e+00" cType="1" res="-9.9000000000000000e+01" rms="0.0000000000000000e+00" purity="5.2289307117462158e-01" nType="1"/>
            <Node pos="r" depth="3" NCoef="0" IVar="-1" Cut="0.0000000000000000e+00" cType="1" res="-9.9000000000000000e+01" rms="0.0000000000000000e+00" purity="4.5629021525382996e-01" nType="-1"/>
          </Node>
        </Node>
        <Node pos="r" depth="1" NCoef="0" IVar="8" Cut="8.6989849805831909e-02" cType="0" res="-9.9000000000000000e+01" rms="0.0000000000000000e+00" purity="4.0273869037628174e-01" nType="0">
          <Node pos="l" depth="2" NCoef="0" IVar="-1" Cut="0.0000000000000000e+00" cType="1" res="-9.9000000000000000e+01" rms="0.0000000000000000e+00" purity="5.1954585313796997e-01" nType="1"/>
          <Node pos="r" depth="2" NCoef="0" IVar="-1" Cut="0.0000000000000000e+00" cType="1" res="-9.9000000000000000e+01" rms="0.0000000000000000e+00" purity="3.0664044618606567e-01" nType="-1"/>
        </Node>
      </Node>
    </BinaryTree>
    <BinaryTree type="DecisionTree" boostWeight="4.3407031584715226e-02" itree="12">
      <Node pos="s" depth="0" NCoef="0" IVar="7" Cut="3.5714641213417053e-01" cType="0" res="-9.9000000000000000e+01" rms="0.0000000000000000e+00" purity="4.9805471301078796e-01" nType="0">
        <Node pos="l" depth="1" NCoef="0" IVar="8" Cut="9.1069683432579041e-02" cType="0" res="-9.9000000000000000e+01" rms="0.0000000000000000e+00" purity="5.0346446037292480e-01" nType="0">
          <Node pos="l" depth="2" NCoef="0" IVar="-1" Cut="9.2982292175292969e-01" cType="0" res="-9.9000000000000000e+01" rms="0.0000000000000000e+00" purity="6.0569924116134644e-01" nType="1"/>
          <Node pos="r" depth="2" NCoef="0" IVar="7" Cut="6.9372344017028809e-01" cType="0" res="-9.9000000000000000e+01" rms="0.0000000000000000e+00" purity="4.9688908457756042e-01" nType="0">
            <Node pos="l" depth="3" NCoef="0" IVar="-1" Cut="0.0000000000000000e+00" cType="1" res="-9.9000000000000000e+01" rms="0.0000000000000000e+00" purity="5.0443196296691895e-01" nType="1"/>
            <Node pos="r" depth="3" NCoef="0" IVar="-1" Cut="0.0000000000000000e+00" cType="1" res="-9.9000000000000000e+01" rms="0.0000000000000000e+00" purity="3.9697945117950439e-01" nType="-1"/>
          </Node>
        </Node>
        <Node pos="r" depth="1" NCoef="0" IVar="-1" Cut="0.0000000000000000e+00" cType="1" res="-9.9000000000000000e+01" rms="0.0000000000000000e+00" purity="3.6001855134963989e-01" nType="-1"/>
      </Node>
    </BinaryTree>
    <BinaryTree type="DecisionTree" boostWeight="1.0050674487698692e-01" itree="13">
      <Node pos="s" depth="0" NCoef="0" IVar="0" Cut="7.4324011802673340e-01" cType="0" res="-9.9000000000000000e+01" rms="0.0000000000000000e+00" purity="4.8939034342765808e-01" nType="0">
        <Node pos="l" depth="1" NCoef="0" IVar="6" Cut="6.4591839599609375e+02" cType="0" res="-9.9000000000000000e+01" rms="0.0000000000000000e+00" purity="4.9910217523574829e-01" nType="0">
          <Node pos="l" depth="2" NCoef="0" IVar="4" Cut="1.4119270019531250e+03" cType="0" res="-9.9000000000000000e+01" rms="0.0000000000000000e+00" purity="5.4874873161315918e-01" nType="0">
            <Node pos="l" depth="3" NCoef="0" IVar="-1" Cut="0.0000000000000000e+00" cType="1" res="-9.9000000000000000e+01" rms="0.0000000000000000e+00" purity="6.2409561872482300e-01" nType="1"/>
            <Node pos="r" depth="3" NCoef="0" IVar="-1" Cut="0.0000000000000000e+00" cType="1" res="-9.9000000000000000e+01" rms="0.0000000000000000e+00" purity="3.9902120828628540e-01" nType="-1"/>
          </Node>
          <Node pos="r" depth="2" NCoef="0" IVar="8" Cut="8.5684597492218018e-02" cType="0" res="-9.9000000000000000e+01" rms="0.0000000000000000e+00" purity="4.8640221357345581e-01" nType="0">
            <Node pos="l" depth="3" NCoef="0" IVar="-1" Cut="0.0000000000000000e+00" cType="1" res="-9.9000000000000000e+01" rms="0.0000000000000000e+00" purity="5.8369648456573486e-01" nType="1"/>
            <Node pos="r" depth="3" NCoef="0" IVar="-1" Cut="0.0000000000000000e+00" cType="1" res="-9.9000000000000000e+01" rms="0.0000000000000000e+00" purity="4.7723382711410522e-01" nType="-1"/>
          </Node>
        </Node>
        <Node pos="r" depth="1" NCoef="0" IVar="-1" Cut="7.8548562526702881e-01" cType="0" res="-9.9000000000000000e+01" rms="0.0000000000000000e+00" purity="4.2136713862419128e-01" nType="-1"/>
      </Node>
    </BinaryTree>
    <BinaryTree type="DecisionTree" boostWeight="8.0098721144412299e-02" itree="14">
      <Node pos="s" depth="0" NCoef="0" IVar="7" Cut="3.5714641213417053e-01" cType="0" res="-9.9000000000000000e+01" rms="0.0000000000000000e+00" purity="5.0555676221847534e-01" nType="0">
        <Node pos="l" depth="1" NCoef="0" IVar="12" Cut="1.2856756448745728e+00" cType="1" res="-9.9000000000000000e+01" rms="0.0000000000000000e+00" purity="5.1070725917816162e-01" nType="0">
          <Node pos="l" depth="2" NCoef="0" IVar="-1" Cut="1.7129282951354980e+00" cType="1" res="-9.9000000000000000e+01" rms="0.0000000000000000e+00" purity="5.3176963329315186e-01" nType="1"/>
          <Node pos="r" depth="2" NCoef="0" IVar="11" Cut="2.8628075122833252e+00" cType="1" res="-9.9000000000000000e+01" rms="0.0000000000000000e+00" purity="4.8798662424087524e-01" nType="0">
            <Node pos="l" depth="3" NCoef="0" IVar="-1" Cut="0.0000000000000000e+00" cType="1" res="-9.9000000000000000e+01" rms="0.0000000000000000e+00" purity="5.4235762357711792e-01" nType="1"/>
            <Node pos="r" depth="3" NCoef="0" IVar="-1" Cut="0.0000000000000000e+00" cType="1" res="-9.9000000000000000e+01" rms="0.0000000000000000e+00" purity="4.5856824517250061e-01" nType="-1"/>
          </Node>
        </Node>
        <Node pos="r" depth="1" NCoef="0" IVar="-1" Cut="0.0000000000000000e+00" cType="1" res="-9.9000000000000000e+01" rms="0.0000000000000000e+00" purity="3.7239348888397217e-01" nType="-1"/>
      </Node>
    </BinaryTree>
    <BinaryTree type="DecisionTree" boostWeight="6.0382986030555703e-02" itree="15">
      <Node pos="s" depth="0" NCoef="0" IVar="0" Cut="7.1991622447967529e-01" cType="0" res="-9.9000000000000000e+01" rms="0.0000000000000000e+00" purity="4.9906024336814880e-01" nType="0">
        <Node pos="l" depth="1" NCoef="0" IVar="7" Cut="5.2847796678543091e-01" cType="0" res="-9.9000000000000000e+01" rms="0.0000000000000000e+00" purity="5.0687897205352783e-01" nType="0">
          <Node pos="l" depth="2" NCoef="0" IVar="13" Cut="1.7142806053161621e+00" cType="1" res="-9.9000000000000000e+01" rms="0.0000000000000000e+00" purity="5.1229208707809448e-01" nType="0">
            <Node pos="l" depth="3" NCoef="0" IVar="-1" Cut="0.0000000000000000e+00" cType="1" res="-9.9000000000000000e+01" rms="0.0000000000000000e+00" purity="5.2857738733291626e-01" nType="1"/>
            <Node pos="r" depth="3" NCoef="0" IVar="-1" Cut="0.0000000000000000e+00" cType="1" res="-9.9000000000000000e+01" rms="0.0000000000000000e+00" purity="4.8886436223983765e-01" nType="-1"/>
          </Node>
          <Node pos="r" depth="2" NCoef="0" IVar="8" Cut="8.6989849805831909e-02" cType="0" res="-9.9000000000000000e+01" rms="0.0000000000000000e+00" purity="4.3706506490707397e-01" nType="0">
            <Node pos="l" depth="3" NCoef="0" IVar="-1" Cut="0.0000000000000000e+00" cType="1" res="-9.9000000000000000e+01" rms="0.0000000000000000e+00" purity="5.0825685262680054e-01" nType="1"/>
            <Node pos="r" depth="3" NCoef="0" IVar="-1" Cut="0.0000000000000000e+00" cType="1" res="-9.9000000000000000e+01" rms="0.0000000000000000e+00" purity="3.7713450193405151e-01" nType="-1"/>
          </Node>
        </Node>
        <Node pos="r" depth="1" NCoef="0" IVar="5" Cut="6.1003720703125000e+03" cType="1" res="-9.9000000000000000e+01" rms="0.0000000000000000e+00" purity="4.3464177846908569e-01" nType="0">
          <Node pos="l" depth="2" NCoef="0" IVar="7" Cut="9.5650881528854370e-01" cType="0" res="-9.9000000000000000e+01" rms="0.0000000000000000e+00" purity="4.6490144729614258e-01" nType="0">
            <Node pos="l" depth="3" NCoef="0" IVar="-1" Cut="0.0000000000000000e+00" cType="1" res="-9.9000000000000000e+01" rms="0.0000000000000000e+00" purity="5.1538175344467163e-01" nType="1"/>
            <Node pos="r" depth="3" NCoef="0" IVar="-1" Cut="0.0000000000000000e+00" cType="1" res="-9.9000000000000000e+01" rms="0.0000000000000000e+00" purity="4.3157866597175598e-01" nType="-1"/>
          </Node>
          <Node pos="r" depth="2" NCoef="0" IVar="-1" Cut="0.0000000000000000e+00" cType="1" res="-9.9000000000000000e+01" rms="0.0000000000000000e+00" purity="3.8432949781417847e-01" nType="-1"/>
        </Node>
      </Node>
    </BinaryTree>
    <BinaryTree type="DecisionTree" boostWeight="3.0899234164576399e-02" itree="16">
      <Node pos="s" depth="0" NCoef="0" IVar="7" Cut="5.2847796678543091e-01" cType="0" res="-9.9000000000000000e+01" rms="0.0000000000000000e+00" purity="4.9771532416343689e-01" nType="0">
        <Node pos="l" depth="1" NCoef="0" IVar="8" Cut="9.1069683432579041e-02" cType="0" res="-9.9000000000000000e+01" rms="0.0000000000000000e+00" purity="5.0366640090942383e-01" nType="0">
          <Node pos="l" depth="2" NCoef="0" IVar="-1" Cut="0.0000000000000000e+00" cType="1" res="-9.9000000000000000e+01" rms="0.0000000000000000e+00" purity="5.8586293458938599e-01" nType="1"/>
          <Node pos="r" depth="2" NCoef="0" IVar="0" Cut="6.0329657793045044e-01" cType="0" res="-9.9000000000000000e+01" rms="0.0000000000000000e+00" purity="4.9967759847640991e-01" nType="0">
            <Node pos="l" depth="3" NCoef="0" IVar="-1" Cut="0.0000000000000000e+00" cType="1" res="-9.9000000000000000e+01" rms="0.0000000000000000e+00" purity="5.0342315435409546e-01" nType="1"/>
            <Node pos="r" depth="3" NCoef="0" IVar="-1" Cut="0.0000000000000000e+00" cType="1" res="-9.9000000000000000e+01" rms="0.0000000000000000e+00" purity="4.1416513919830322e-01" nType="-1"/>
          </Node>
        </Node>
        <Node pos="r" depth="1" NCoef="0" IVar="8" Cut="1.3048420846462250e-01" cType="0" res="-9.9000000000000000e+01" rms="0.0000000000000000e+00" purity="4.2280238866806030e-01" nType="0">
          <Node pos="l" depth="2" NCoef="0" IVar="-1" Cut="0.0000000000000000e+00" cType="1" res="-9.9000000000000000e+01" rms="0.0000000000000000e+00" purity="5.0003486871719360e-01" nType="1"/>
          <Node pos="r" depth="2" NCoef="0" IVar="-1" Cut="0.0000000000000000e+00" cType="1" res="-9.9000000000000000e+01" rms="0.0000000000000000e+00" purity="3.7355396151542664e-01" nType="-1"/>
        </Node>
      </Node>
    </BinaryTree>
    <BinaryTree type="DecisionTree" boostWeight="3.2157321665382869e-02" itree="17">
      <Node pos="s" depth="0" NCoef="0" IVar="7" Cut="3.1431353092193604e-01" cType="0" res="-9.9000000000000000e+01" rms="0.0000000000000000e+00" purity="4.9125394225120544e-01" nType="0">
        <Node pos="l" depth="1" NCoef="0" IVar="8" Cut="9.1069683432579041e-02" cType="0" res="-9.9000000000000000e+01" rms="0.0000000000000000e+00" purity="4.9465891718864441e-01" nType="0">
          <Node pos="l" depth="2" NCoef="0" IVar="-1" Cut="4.7287058830261230e-01" cType="1" res="-9.9000000000000000e+01" rms="0.0000000000000000e+00" purity="5.6045544147491455e-01" nType="1"/>
          <Node pos="r" depth="2" NCoef="0" IVar="-1" Cut="7.3859608173370361e-01" cType="0" res="-9.9000000000000000e+01" rms="0.0000000000000000e+00" purity="4.9027782678604126e-01" nType="-1"/>
        </Node>
        <Node pos="r" depth="1" NCoef="0" IVar="-1" Cut="0.0000000000000000e+00" cType="1" res="-9.9000000000000000e+01" rms="0.0000000000000000e+00" purity="3.7847170233726501e-01" nType="-1"/>
      </Node>
    </BinaryTree>
    <BinaryTree type="DecisionTree" boostWeight="5.0423521085939803e-02" itree="18">
      <Node pos="s" depth="0" NCoef="0" IVar="7" Cut="5.2847796678543091e-01" cType="0" res="-9.9000000000000000e+01" rms="0.0000000000000000e+00" purity="4.9831745028495789e-01" nType="0">
        <Node pos="l" depth="1" NCoef="0" IVar="3" Cut="4.7589924186468124e-02" cType="1" res="-9.9000000000000000e+01" rms="0.0000000000000000e+00" purity="5.0385695695877075e-01" nType="0">
          <Node pos="l" depth="2" NCoef="0" IVar="-1" Cut="9.7586484375000000e+03" cType="0" res="-9.9000000000000000e+01" rms="0.0000000000000000e+00" purity="5.3542238473892212e-01" nType="1"/>
          <Node pos="r" depth="2" NCoef="0" IVar="4" Cut="1.0852261962890625e+03" cType="1" res="-9.9000000000000000e+01" rms="0.0000000000000000e+00" purity="4.9541008472442627e-01" nType="0">
            <Node pos="l" depth="3" NCoef="0" IVar="-1" Cut="0.0000000000000000e+00" cType="1" res="-9.9000000000000000e+01" rms="0.0000000000000000e+00" purity="5.1282030344009399e-01" nType="1"/>
            <Node pos="r" depth="3" NCoef="0" IVar="-1" Cut="0.0000000000000000e+00" cType="1" res="-9.9000000000000000e+01" rms="0.0000000000000000e+00" purity="4.7694501280784607e-01" nType="-1"/>
          </Node>
        </Node>
        <Node pos="r" depth="1" NCoef="0" IVar="-1" Cut="1.3048420846462250e-01" cType="0" res="-9.9000000000000000e+01" rms="0.0000000000000000e+00" purity="4.2827597260475159e-01" nType="-1"/>
      </Node>
    </BinaryTree>
    <BinaryTree type="DecisionTree" boostWeight="8.7171123359982061e-02" itree="19">
      <Node pos="s" depth="0" NCoef="0" IVar="0" Cut="7.4324011802673340e-01" cType="0" res="-9.9000000000000000e+01" rms="0.0000000000000000e+00" purity="4.9650019407272339e-01" nType="0">
        <Node pos="l" depth="1" NCoef="0" IVar="4" Cut="9.0767364501953125e+02" cType="0" res="-9.9000000000000000e+01" rms="0.0000000000000000e+00" purity="5.0349265336990356e-01" nType="0">
          <Node pos="l" depth="2" NCoef="0" IVar="5" Cut="4.0090026855468750e+03" cType="0" res="-9.9000000000000000e+01" rms="0.0000000000000000e+00" purity="5.1486021280288696e-01" nType="0">
            <Node pos="l" depth="3" NCoef="0" IVar="-1" Cut="0.0000000000000000e+00" cType="1" res="-9.9000000000000000e+01" rms="0.0000000000000000e+00" purity="5.2681815624237061e-01" nType="1"/>
            <Node pos="r" depth="3" NCoef="0" IVar="-1" Cut="0.0000000000000000e+00" cType="1" res="-9.9000000000000000e+01" rms="0.0000000000000000e+00" purity="3.7575981020927429e-01" nType="-1"/>
          </Node>
          <Node pos="r" depth="2" NCoef="0" IVar="5" Cut="6.0213593750000000e+03" cType="1" res="-9.9000000000000000e+01" rms="0.0000000000000000e+00" purity="4.7193735837936401e-01" nType="0">
            <Node pos="l" depth="3" NCoef="0" IVar="-1" Cut="0.0000000000000000e+00" cType="1" res="-9.9000000000000000e+01" rms="0.0000000000000000e+00" purity="5.2326339483261108e-01" nType="1"/>
            <Node pos="r" depth="3" NCoef="0" IVar="-1" Cut="0.0000000000000000e+00" cType="1" res="-9.9000000000000000e+01" rms="0.0000000000000000e+00" purity="3.1099817156791687e-01" nType="-1"/>
          </Node>
        </Node>
        <Node pos="r" depth="1" NCoef="0" IVar="-1" Cut="7.8548562526702881e-01" cType="0" res="-9.9000000000000000e+01" rms="0.0000000000000000e+00" purity="4.4725996255874634e-01" nType="-1"/>
      </Node>
    </BinaryTree>
    <BinaryTree type="DecisionTree" boostWeight="5.1494417556822297e-02" itree="20">
      <Node pos="s" depth="0" NCoef="0" IVar="7" Cut="3.1431353092193604e-01" cType="0" res="-9.9000000000000000e+01" rms="0.0000000000000000e+00" purity="4.8474198579788208e-01" nType="0">
        <Node pos="l" depth="1" NCoef="0" IVar="10" Cut="1.2857221364974976e+00" cType="1" res="-9.9000000000000000e+01" rms="0.0000000000000000e+00" purity="4.8764351010322571e-01" nType="0">
          <Node pos="l" depth="2" NCoef="0" IVar="6" Cut="7.8331390380859375e+02" cType="0" res="-9.9000000000000000e+01" rms="0.0000000000000000e+00" purity="5.0377917289733887e-01" nType="0">
            <Node pos="l" depth="3" NCoef="0" IVar="-1" Cut="0.0000000000000000e+00" cType="1" res="-9.9000000000000000e+01" rms="0.0000000000000000e+00" purity="5.7919144630432129e-01" nType="1"/>
            <Node pos="r" depth="3" NCoef="0" IVar="-1" Cut="0.0000000000000000e+00" cType="1" res="-9.9000000000000000e+01" rms="0.0000000000000000e+00" purity="4.9526143074035645e-01" nType="-1"/>
          </Node>
          <Node pos="r" depth="2" NCoef="0" IVar="8" Cut="7.3775514960289001e-02" cType="0" res="-9.9000000000000000e+01" rms="0.0000000000000000e+00" purity="4.7474002838134766e-01" nType="0">
            <Node pos="l" depth="3" NCoef="0" IVar="-1" Cut="0.0000000000000000e+00" cType="1" res="-9.9000000000000000e+01" rms="0.0000000000000000e+00" purity="5.3876250982284546e-01" nType="1"/>
            <Node pos="r" depth="3" NCoef="0" IVar="-1" Cut="0.0000000000000000e+00" cType="1" res="-9.9000000000000000e+01" rms="0.0000000000000000e+00" purity="4.6883383393287659e-01" nType="-1"/>
          </Node>
        </Node>
        <Node pos="r" depth="1" NCoef="0" IVar="-1" Cut="0.0000000000000000e+00" cType="1" res="-9.9000000000000000e+01" rms="0.0000000000000000e+00" purity="3.8806095719337463e-01" nType="-1"/>
      </Node>
    </BinaryTree>
    <BinaryTree type="DecisionTree" boostWeight="3.8385904602970894e-02" itree="21">
      <Node pos="s" depth="0" NCoef="0" IVar="7" Cut="3.1431353092193604e-01" cType="0" res="-9.9000000000000000e+01" rms="0.0000000000000000e+00" purity="4.9530667066574097e-01" nType="0">
        <Node pos="l" depth="1" NCoef="0" IVar="10" Cut="1.2857221364974976e+00" cType="1" res="-9.9000000000000000e+01" rms="0.0000000000000000e+00" purity="4.9814319610595703e-01" nType="0">
          <Node pos="l" depth="2" NCoef="0" IVar="-1" Cut="1.7670911865234375e+03" cType="0" res="-9.9000000000000000e+01" rms="0.0000000000000000e+00" purity="5.1404637098312378e-01" nType="1"/>
          <Node pos="r" depth="2" NCoef="0" IVar="8" Cut="7.3775514960289001e-02" cType="0" res="-9.9000000000000000e+01" rms="0.0000000000000000e+00" purity="4.8541277647018433e-01" nType="0">
            <Node pos="l" depth="3" NCoef="0" IVar="-1" Cut="0.0000000000000000e+00" cType="1" res="-9.9000000000000000e+01" rms="0.0000000000000000e+00" purity="5.2594351768493652e-01" nType="1"/>
            <Node pos="r" depth="3" NCoef="0" IVar="-1" Cut="0.0000000000000000e+00" cType="1" res="-9.9000000000000000e+01" rms="0.0000000000000000e+00" purity="4.8167520761489868e-01" nType="-1"/>
          </Node>
        </Node>
        <Node pos="r" depth="1" NCoef="0" IVar="-1" Cut="0.0000000000000000e+00" cType="1" res="-9.9000000000000000e+01" rms="0.0000000000000000e+00" purity="4.0035745501518250e-01" nType="-1"/>
      </Node>
    </BinaryTree>
    <BinaryTree type="DecisionTree" boostWeight="6.0955840676140308e-02" itree="22">
      <Node pos="s" depth="0" NCoef="0" IVar="7" Cut="6.5697658061981201e-01" cType="0" res="-9.9000000000000000e+01" rms="0.0000000000000000e+00" purity="4.9574047327041626e-01" nType="0">
        <Node pos="l" depth="1" NCoef="0" IVar="7" Cut="9.8332428932189941e-01" cType="0" res="-9.9000000000000000e+01" rms="0.0000000000000000e+00" purity="5.0176423788070679e-01" nType="0">
          <Node pos="l" depth="2" NCoef="0" IVar="7" Cut="9.9342441558837891e-01" cType="0" res="-9.9000000000000000e+01" rms="0.0000000000000000e+00" purity="5.2984344959259033e-01" nType="0">
            <Node pos="l" depth="3" NCoef="0" IVar="-1" Cut="0.0000000000000000e+00" cType="1" res="-9.9000000000000000e+01" rms="0.0000000000000000e+00" purity="5.6431210041046143e-01" nType="1"/>
            <Node pos="r" depth="3" NCoef="0" IVar="-1" Cut="0.0000000000000000e+00" cType="1" res="-9.9000000000000000e+01" rms="0.0000000000000000e+00" purity="4.8525789380073547e-01" nType="-1"/>
          </Node>
          <Node pos="r" depth="2" NCoef="0" IVar="7" Cut="9.5224648714065552e-01" cType="1" res="-9.9000000000000000e+01" rms="0.0000000000000000e+00" purity="4.8703867197036743e-01" nType="0">
            <Node pos="l" depth="3" NCoef="0" IVar="-1" Cut="0.0000000000000000e+00" cType="1" res="-9.9000000000000000e+01" rms="0.0000000000000000e+00" purity="5.0301456451416016e-01" nType="1"/>
            <Node pos="r" depth="3" NCoef="0" IVar="-1" Cut="0.0000000000000000e+00" cType="1" res="-9.9000000000000000e+01" rms="0.0000000000000000e+00" purity="4.5523169636726379e-01" nType="-1"/>
          </Node>
        </Node>
        <Node pos="r" depth="1" NCoef="0" IVar="8" Cut="1.3660483062267303e-01" cType="0" res="-9.9000000000000000e+01" rms="0.0000000000000000e+00" purity="4.5085379481315613e-01" nType="0">
          <Node pos="l" depth="2" NCoef="0" IVar="-1" Cut="0.0000000000000000e+00" cType="1" res="-9.9000000000000000e+01" rms="0.0000000000000000e+00" purity="5.2373826503753662e-01" nType="1"/>
          <Node pos="r" depth="2" NCoef="0" IVar="-1" Cut="3.4329977416992188e+02" cType="0" res="-9.9000000000000000e+01" rms="0.0000000000000000e+00" purity="4.1487717628479004e-01" nType="-1"/>
        </Node>
      </Node>
    </BinaryTree>
    <BinaryTree type="DecisionTree" boostWeight="6.5190204420602402e-02" itree="23">
      <Node pos="s" depth="0" NCoef="0" IVar="7" Cut="7.4264240264892578e-01" cType="0" res="-9.9000000000000000e+01" rms="0.0000000000000000e+00" purity="4.9282777309417725e-01" nType="0">
        <Node pos="l" depth="1" NCoef="0" IVar="7" Cut="9.8740220069885254e-01" cType="0" res="-9.9000000000000000e+01" rms="0.0000000000000000e+00" purity="4.9920889735221863e-01" nType="0">
          <Node pos="l" depth="2" NCoef="0" IVar="-1" Cut="1.7670319824218750e+03" cType="0" res="-9.9000000000000000e+01" rms="0.0000000000000000e+00" purity="5.3500437736511230e-01" nType="1"/>
          <Node pos="r" depth="2" NCoef="0" IVar="8" Cut="2.9188213869929314e-02" cType="0" res="-9.9000000000000000e+01" rms="0.0000000000000000e+00" purity="4.8290294408798218e-01" nType="0">
            <Node pos="l" depth="3" NCoef="0" IVar="-1" Cut="0.0000000000000000e+00" cType="1" res="-9.9000000000000000e+01" rms="0.0000000000000000e+00" purity="5.1442158222198486e-01" nType="1"/>
            <Node pos="r" depth="3" NCoef="0" IVar="-1" Cut="0.0000000000000000e+00" cType="1" res="-9.9000000000000000e+01" rms="0.0000000000000000e+00" purity="4.7408947348594666e-01" nType="-1"/>
          </Node>
        </Node>
        <Node pos="r" depth="1" NCoef="0" IVar="4" Cut="9.5463311767578125e+02" cType="0" res="-9.9000000000000000e+01" rms="0.0000000000000000e+00" purity="4.5998370647430420e-01" nType="0">
          <Node pos="l" depth="2" NCoef="0" IVar="4" Cut="1.4795944824218750e+03" cType="1" res="-9.9000000000000000e+01" rms="0.0000000000000000e+00" purity="4.9089205265045166e-01" nType="0">
            <Node pos="l" depth="3" NCoef="0" IVar="-1" Cut="0.0000000000000000e+00" cType="1" res="-9.9000000000000000e+01" rms="0.0000000000000000e+00" purity="5.3063148260116577e-01" nType="1"/>
            <Node pos="r" depth="3" NCoef="0" IVar="-1" Cut="0.0000000000000000e+00" cType="1" res="-9.9000000000000000e+01" rms="0.0000000000000000e+00" purity="4.4728246331214905e-01" nType="-1"/>
          </Node>
          <Node pos="r" depth="2" NCoef="0" IVar="-1" Cut="4.9278413085937500e+03" cType="1" res="-9.9000000000000000e+01" rms="0.0000000000000000e+00" purity="4.0182492136955261e-01" nType="-1"/>
        </Node>
      </Node>
    </BinaryTree>
    <BinaryTree type="DecisionTree" boostWeight="2.0025675890073539e-02" itree="24">
      <Node pos="s" depth="0" NCoef="0" IVar="7" Cut="3.9997929334640503e-01" cType="0" res="-9.9000000000000000e+01" rms="0.0000000000000000e+00" purity="4.9466264247894287e-01" nType="0">
        <Node pos="l" depth="1" NCoef="0" IVar="5" Cut="1.1459501953125000e+04" cType="0" res="-9.9000000000000000e+01" rms="0.0000000000000000e+00" purity="4.9758434295654297e-01" nType="0">
          <Node pos="l" depth="2" NCoef="0" IVar="-1" Cut="0.0000000000000000e+00" cType="1" res="-9.9000000000000000e+01" rms="0.0000000000000000e+00" purity="5.4976111650466919e-01" nType="1"/>
          <Node pos="r" depth="2" NCoef="0" IVar="-1" Cut="2.9512016601562500e+03" cType="1" res="-9.9000000000000000e+01" rms="0.0000000000000000e+00" purity="4.9488767981529236e-01" nType="-1"/>
        </Node>
        <Node pos="r" depth="1" NCoef="0" IVar="-1" Cut="0.0000000000000000e+00" cType="1" res="-9.9000000000000000e+01" rms="0.0000000000000000e+00" purity="4.3164178729057312e-01" nType="-1"/>
      </Node>
    </BinaryTree>
    <BinaryTree type="DecisionTree" boostWeight="4.4715776316786457e-02" itree="25">
      <Node pos="s" depth="0" NCoef="0" IVar="7" Cut="3.1431353092193604e-01" cType="0" res="-9.9000000000000000e+01" rms="0.0000000000000000e+00" purity="4.9919846653938293e-01" nType="0">
        <Node pos="l" depth="1" NCoef="0" IVar="6" Cut="4.9728100585937500e+02" cType="0" res="-9.9000000000000000e+01" rms="0.0000000000000000e+00" purity="5.0151926279067993e-01" nType="0">
          <Node pos="l" depth="2" NCoef="0" IVar="4" Cut="1.7670319824218750e+03" cType="0" res="-9.9000000000000000e+01" rms="0.0000000000000000e+00" purity="5.1566171646118164e-01" nType="0">
            <Node pos="l" depth="3" NCoef="0" IVar="-1" Cut="0.0000000000000000e+00" cType="1" res="-9.9000000000000000e+01" rms="0.0000000000000000e+00" purity="5.7513976097106934e-01" nType="1"/>
            <Node pos="r" depth="3" NCoef="0" IVar="-1" Cut="0.0000000000000000e+00" cType="1" res="-9.9000000000000000e+01" rms="0.0000000000000000e+00" purity="4.8428922891616821e-01" nType="-1"/>
          </Node>
          <Node pos="r" depth="2" NCoef="0" IVar="4" Cut="2.0564099121093750e+03" cType="1" res="-9.9000000000000000e+01" rms="0.0000000000000000e+00" purity="4.9269014596939087e-01" nType="0">
            <Node pos="l" depth="3" NCoef="0" IVar="-1" Cut="0.0000000000000000e+00" cType="1" res="-9.9000000000000000e+01" rms="0.0000000000000000e+00" purity="5.0196963548660278e-01" nType="1"/>
            <Node pos="r" depth="3" NCoef="0" IVar="-1" Cut="0.0000000000000000e+00" cType="1" res="-9.9000000000000000e+01" rms="0.0000000000000000e+00" purity="3.8493517041206360e-01" nType="-1"/>
          </Node>
        </Node>
        <Node pos="r" depth="1" NCoef="0" IVar="-1" Cut="0.0000000000000000e+00" cType="1" res="-9.9000000000000000e+01" rms="0.0000000000000000e+00" purity="4.2072793841362000e-01" nType="-1"/>
      </Node>
    </BinaryTree>
    <BinaryTree type="DecisionTree" boostWeight="6.2825956503258132e-02" itree="26">
      <Node pos="s" depth="0" NCoef="0" IVar="6" Cut="4.9728100585937500e+02" cType="0" res="-9.9000000000000000e+01" rms="0.0000000000000000e+00" purity="4.9518188834190369e-01" nType="0">
        <Node pos="l" depth="1" NCoef="0" IVar="4" Cut="1.7670319824218750e+03" cType="0" res="-9.9000000000000000e+01" rms="0.0000000000000000e+00" purity="5.1799100637435913e-01" nType="0">
          <Node pos="l" depth="2" NCoef="0" IVar="5" Cut="7.4105751953125000e+03" cType="0" res="-9.9000000000000000e+01" rms="0.0000000000000000e+00" purity="5.6273806095123291e-01" nType="0">
            <Node pos="l" depth="3" NCoef="0" IVar="-1" Cut="0.0000000000000000e+00" cType="1" res="-9.9000000000000000e+01" rms="0.0000000000000000e+00" purity="5.9797084331512451e-01" nType="1"/>
            <Node pos="r" depth="3" NCoef="0" IVar="-1" Cut="0.0000000000000000e+00" cType="1" res="-9.9000000000000000e+01" rms="0.0000000000000000e+00" purity="4.5194920897483826e-01" nType="-1"/>
          </Node>
          <Node pos="r" depth="2" NCoef="0" IVar="5" Cut="9.0565585937500000e+03" cType="1" res="-9.9000000000000000e+01" rms="0.0000000000000000e+00" purity="4.9447011947631836e-01" nType="0">
            <Node pos="l" depth="3" NCoef="0" IVar="-1" Cut="0.0000000000000000e+00" cType="1" res="-9.9000000000000000e+01" rms="0.0000000000000000e+00" purity="5.1664340496063232e-01" nType="1"/>
            <Node pos="r" depth="3" NCoef="0" IVar="-1" Cut="0.0000000000000000e+00" cType="1" res="-9.9000000000000000e+01" rms="0.0000000000000000e+00" purity="3.8234916329383850e-01" nType="-1"/>
          </Node>
        </Node>
        <Node pos="r" depth="1" NCoef="0" IVar="-1" Cut="2.0564099121093750e+03" cType="1" res="-9.9000000000000000e+01" rms="0.0000000000000000e+00" purity="4.8105812072753906e-01" nType="-1"/>
      </Node>
    </BinaryTree>
    <BinaryTree type="DecisionTree" boostWeight="6.3982033202881844e-02" itree="27">
      <Node pos="s" depth="0" NCoef="0" IVar="7" Cut="7.4264240264892578e-01" cType="0" res="-9.9000000000000000e+01" rms="0.0000000000000000e+00" purity="5.0117456912994385e-01" nType="0">
        <Node pos="l" depth="1" NCoef="0" IVar="4" Cut="1.7670187988281250e+03" cType="0" res="-9.9000000000000000e+01" rms="0.0000000000000000e+00" purity="5.0617450475692749e-01" nType="0">
          <Node pos="l" depth="2" NCoef="0" IVar="5" Cut="6.2012060546875000e+03" cType="0" res="-9.9000000000000000e+01" rms="0.0000000000000000e+00" purity="5.2856594324111938e-01" nType="0">
            <Node pos="l" depth="3" NCoef="0" IVar="-1" Cut="0.0000000000000000e+00" cType="1" res="-9.9000000000000000e+01" rms="0.0000000000000000e+00" purity="5.6396710872650146e-01" nType="1"/>
            <Node pos="r" depth="3" NCoef="0" IVar="-1" Cut="0.0000000000000000e+00" cType="1" res="-9.9000000000000000e+01" rms="0.0000000000000000e+00" purity="4.0827184915542603e-01" nType="-1"/>
          </Node>
          <Node pos="r" depth="2" NCoef="0" IVar="4" Cut="5.3329528808593750e+02" cType="0" res="-9.9000000000000000e+01" rms="0.0000000000000000e+00" purity="5.0001537799835205e-01" nType="0">
            <Node pos="l" depth="3" NCoef="0" IVar="-1" Cut="0.0000000000000000e+00" cType="1" res="-9.9000000000000000e+01" rms="0.0000000000000000e+00" purity="5.0791263580322266e-01" nType="1"/>
            <Node pos="r" depth="3" NCoef="0" IVar="-1" Cut="0.0000000000000000e+00" cType="1" res="-9.9000000000000000e+01" rms="0.0000000000000000e+00" purity="3.6046171188354492e-01" nType="-1"/>
          </Node>
        </Node>
        <Node pos="r" depth="1" NCoef="0" IVar="8" Cut="9.1070234775543213e-02" cType="0" res="-9.9000000000000000e+01" rms="0.0000000000000000e+00" purity="4.7534057497978210e-01" nType="0">
          <Node pos="l" depth="2" NCoef="0" IVar="6" Cut="4.3955642700195312e+02" cType="1" res="-9.9000000000000000e+01" rms="0.0000000000000000e+00" purity="5.2377963066101074e-01" nType="0">
            <Node pos="l" depth="3" NCoef="0" IVar="-1" Cut="0.0000000000000000e+00" cType="1" res="-9.9000000000000000e+01" rms="0.0000000000000000e+00" purity="5.5049008131027222e-01" nType="1"/>
            <Node pos="r" depth="3" NCoef="0" IVar="-1" Cut="0.0000000000000000e+00" cType="1" res="-9.9000000000000000e+01" rms="0.0000000000000000e+00" purity="4.8798146843910217e-01" nType="-1"/>
          </Node>
          <Node pos="r" depth="2" NCoef="0" IVar="8" Cut="1.3009195216000080e-02" cType="1" res="-9.9000000000000000e+01" rms="0.0000000000000000e+00" purity="4.4463524222373962e-01" nType="0">
            <Node pos="l" depth="3" NCoef="0" IVar="-1" Cut="0.0000000000000000e+00" cType="1" res="-9.9000000000000000e+01" rms="0.0000000000000000e+00" purity="5.2950221300125122e-01" nType="1"/>
            <Node pos="r" depth="3" NCoef="0" IVar="-1" Cut="0.0000000000000000e+00" cType="1" res="-9.9000000000000000e+01" rms="0.0000000000000000e+00" purity="4.0768834948539734e-01" nType="-1"/>
          </Node>
        </Node>
      </Node>
    </BinaryTree>
    <BinaryTree type="DecisionTree" boostWeight="1.8850358455003623e-02" itree="28">
      <Node pos="s" depth="0" NCoef="0" IVar="11" Cut="8.5639581680297852e+00" cType="1" res="-9.9000000000000000e+01" rms="0.0000000000000000e+00" purity="4.9067616462707520e-01" nType="0">
        <Node pos="l" depth="1" NCoef="0" IVar="-1" Cut="6.8571395874023438e+00" cType="1" res="-9.9000000000000000e+01" rms="0.0000000000000000e+00" purity="4.9311682581901550e-01" nType="-1"/>
        <Node pos="r" depth="1" NCoef="0" IVar="13" Cut="3.4286479949951172e+00" cType="0" res="-9.9000000000000000e+01" rms="0.0000000000000000e+00" purity="4.4682270288467407e-01" nType="0">
          <Node pos="l" depth="2" NCoef="0" IVar="-1" Cut="0.0000000000000000e+00" cType="1" res="-9.9000000000000000e+01" rms="0.0000000000000000e+00" purity="5.0185614824295044e-01" nType="1"/>
          <Node pos="r" depth="2" NCoef="0" IVar="-1" Cut="0.0000000000000000e+00" cType="1" res="-9.9000000000000000e+01" rms="0.0000000000000000e+00" purity="3.8903591036796570e-01" nType="-1"/>
        </Node>
      </Node>
    </BinaryTree>
    <BinaryTree type="DecisionTree" boostWeight="2.0454757274254547e-02" itree="29">
      <Node pos="s" depth="0" NCoef="0" IVar="11" Cut="8.5639581680297852e+00" cType="1" res="-9.9000000000000000e+01" rms="0.0000000000000000e+00" purity="4.9513328075408936e-01" nType="0">
        <Node pos="l" depth="1" NCoef="0" IVar="10" Cut="6.8571395874023438e+00" cType="1" res="-9.9000000000000000e+01" rms="0.0000000000000000e+00" purity="4.9782899022102356e-01" nType="0">
          <Node pos="l" depth="2" NCoef="0" IVar="13" Cut="4.2838993072509766e+00" cType="1" res="-9.9000000000000000e+01" rms="0.0000000000000000e+00" purity="4.9959877133369446e-01" nType="0">
            <Node pos="l" depth="3" NCoef="0" IVar="-1" Cut="0.0000000000000000e+00" cType="1" res="-9.9000000000000000e+01" rms="0.0000000000000000e+00" purity="5.0329715013504028e-01" nType="1"/>
            <Node pos="r" depth="3" NCoef="0" IVar="-1" Cut="0.0000000000000000e+00" cType="1" res="-9.9000000000000000e+01" rms="0.0000000000000000e+00" purity="4.7021150588989258e-01" nType="-1"/>
          </Node>
          <Node pos="r" depth="2" NCoef="0" IVar="-1" Cut="0.0000000000000000e+00" cType="1" res="-9.9000000000000000e+01" rms="0.0000000000000000e+00" purity="4.4775149226188660e-01" nType="-1"/>
        </Node>
        <Node pos="r" depth="1" NCoef="0" IVar="-1" Cut="3.4286479949951172e+00" cType="0" res="-9.9000000000000000e+01" rms="0.0000000000000000e+00" purity="4.4665232300758362e-01" nType="-1"/>
      </Node>
    </BinaryTree>
    <BinaryTree type="DecisionTree" boostWeight="2.7545804105172787e-02" itree="30">
      <Node pos="s" depth="0" NCoef="0" IVar="11" Cut="8.5639581680297852e+00" cType="1" res="-9.9000000000000000e+01" rms="0.0000000000000000e+00" purity="4.9193349480628967e-01" nType="0">
        <Node pos="l" depth="1" NCoef="0" IVar="10" Cut="4.2858099937438965e-01" cType="1" res="-9.9000000000000000e+01" rms="0.0000000000000000e+00" purity="4.9416780471801758e-01" nType="0">
          <Node pos="l" depth="2" NCoef="0" IVar="4" Cut="1.3499250488281250e+03" cType="0" res="-9.9000000000000000e+01" rms="0.0000000000000000e+00" purity="5.1365089416503906e-01" nType="0">
            <Node pos="l" depth="3" NCoef="0" IVar="-1" Cut="0.0000000000000000e+00" cType="1" res="-9.9000000000000000e+01" rms="0.0000000000000000e+00" purity="5.4068773984909058e-01" nType="1"/>
            <Node pos="r" depth="3" NCoef="0" IVar="-1" Cut="0.0000000000000000e+00" cType="1" res="-9.9000000000000000e+01" rms="0.0000000000000000e+00" purity="4.9684667587280273e-01" nType="-1"/>
          </Node>
          <Node pos="r" depth="2" NCoef="0" IVar="4" Cut="1.0852261962890625e+03" cType="1" res="-9.9000000000000000e+01" rms="0.0000000000000000e+00" purity="4.8985767364501953e-01" nType="0">
            <Node pos="l" depth="3" NCoef="0" IVar="-1" Cut="0.0000000000000000e+00" cType="1" res="-9.9000000000000000e+01" rms="0.0000000000000000e+00" purity="5.0033646821975708e-01" nType="1"/>
            <Node pos="r" depth="3" NCoef="0" IVar="-1" Cut="0.0000000000000000e+00" cType="1" res="-9.9000000000000000e+01" rms="0.0000000000000000e+00" purity="4.8172944784164429e-01" nType="-1"/>
          </Node>
        </Node>
        <Node pos="r" depth="1" NCoef="0" IVar="13" Cut="3.4286479949951172e+00" cType="0" res="-9.9000000000000000e+01" rms="0.0000000000000000e+00" purity="4.5171314477920532e-01" nType="0">
          <Node pos="l" depth="2" NCoef="0" IVar="-1" Cut="0.0000000000000000e+00" cType="1" res="-9.9000000000000000e+01" rms="0.0000000000000000e+00" purity="5.0225722789764404e-01" nType="1"/>
          <Node pos="r" depth="2" NCoef="0" IVar="-1" Cut="0.0000000000000000e+00" cType="1" res="-9.9000000000000000e+01" rms="0.0000000000000000e+00" purity="3.9841794967651367e-01" nType="-1"/>
        </Node>
      </Node>
    </BinaryTree>
    <BinaryTree type="DecisionTree" boostWeight="5.2562078897059938e-02" itree="31">
      <Node pos="s" depth="0" NCoef="0" IVar="4" Cut="1.7670187988281250e+03" cType="0" res="-9.9000000000000000e+01" rms="0.0000000000000000e+00" purity="4.9287182092666626e-01" nType="0">
        <Node pos="l" depth="1" NCoef="0" IVar="5" Cut="9.7147519531250000e+03" cType="0" res="-9.9000000000000000e+01" rms="0.0000000000000000e+00" purity="5.1191997528076172e-01" nType="0">
          <Node pos="l" depth="2" NCoef="0" IVar="-1" Cut="9.5673924684524536e-01" cType="0" res="-9.9000000000000000e+01" rms="0.0000000000000000e+00" purity="6.0186499357223511e-01" nType="1"/>
          <Node pos="r" depth="2" NCoef="0" IVar="4" Cut="2.4864240722656250e+03" cType="1" res="-9.9000000000000000e+01" rms="0.0000000000000000e+00" purity="4.7221800684928894e-01" nType="0">
            <Node pos="l" depth="3" NCoef="0" IVar="-1" Cut="0.0000000000000000e+00" cType="1" res="-9.9000000000000000e+01" rms="0.0000000000000000e+00" purity="5.0791358947753906e-01" nType="1"/>
            <Node pos="r" depth="3" NCoef="0" IVar="-1" Cut="0.0000000000000000e+00" cType="1" res="-9.9000000000000000e+01" rms="0.0000000000000000e+00" purity="3.8565340638160706e-01" nType="-1"/>
          </Node>
        </Node>
        <Node pos="r" depth="1" NCoef="0" IVar="4" Cut="5.3329699707031250e+02" cType="0" res="-9.9000000000000000e+01" rms="0.0000000000000000e+00" purity="4.8773473501205444e-01" nType="0">
          <Node pos="l" depth="2" NCoef="0" IVar="5" Cut="9.2202988281250000e+03" cType="1" res="-9.9000000000000000e+01" rms="0.0000000000000000e+00" purity="4.9557879567146301e-01" nType="0">
            <Node pos="l" depth="3" NCoef="0" IVar="-1" Cut="0.0000000000000000e+00" cType="1" res="-9.9000000000000000e+01" rms="0.0000000000000000e+00" purity="5.0303065776824951e-01" nType="1"/>
            <Node pos="r" depth="3" NCoef="0" IVar="-1" Cut="0.0000000000000000e+00" cType="1" res="-9.9000000000000000e+01" rms="0.0000000000000000e+00" purity="3.8453760743141174e-01" nType="-1"/>
          </Node>
          <Node pos="r" depth="2" NCoef="0" IVar="-1" Cut="0.0000000000000000e+00" cType="1" res="-9.9000000000000000e+01" rms="0.0000000000000000e+00" purity="3.5402098298072815e-01" nType="-1"/>
        </Node>
      </Node>
    </BinaryTree>
    <BinaryTree type="DecisionTree" boostWeight="6.2569795004690718e-02" itree="32">
      <Node pos="s" depth="0" NCoef="0" IVar="4" Cut="1.7670187988281250e+03" cType="0" res="-9.9000000000000000e+01" rms="0.0000000000000000e+00" purity="4.8321759700775146e-01" nType="0">
        <Node pos="l" depth="1" NCoef="0" IVar="5" Cut="9.7147519531250000e+03" cType="0" res="-9.9000000000000000e+01" rms="0.0000000000000000e+00" purity="5.0411725044250488e-01" nType="0">
          <Node pos="l" depth="2" NCoef="0" IVar="-1" Cut="9.5673924684524536e-01" cType="0" res="-9.9000000000000000e+01" rms="0.0000000000000000e+00" purity="5.8920502662658691e-01" nType="1"/>
          <Node pos="r" depth="2" NCoef="0" IVar="5" Cut="7.3360791015625000e+03" cType="0" res="-9.9000000000000000e+01" rms="0.0000000000000000e+00" purity="4.6668356657028198e-01" nType="0">
            <Node pos="l" depth="3" NCoef="0" IVar="-1" Cut="0.0000000000000000e+00" cType="1" res="-9.9000000000000000e+01" rms="0.0000000000000000e+00" purity="5.2262401580810547e-01" nType="1"/>
            <Node pos="r" depth="3" NCoef="0" IVar="-1" Cut="0.0000000000000000e+00" cType="1" res="-9.9000000000000000e+01" rms="0.0000000000000000e+00" purity="4.2349079251289368e-01" nType="-1"/>
          </Node>
        </Node>
        <Node pos="r" depth="1" NCoef="0" IVar="-1" Cut="5.9822875976562500e+02" cType="0" res="-9.9000000000000000e+01" rms="0.0000000000000000e+00" purity="4.7759327292442322e-01" nType="-1"/>
      </Node>
    </BinaryTree>
    <BinaryTree type="DecisionTree" boostWeight="2.5791743627973217e-02" itree="33">
      <Node pos="s" depth="0" NCoef="0" IVar="11" Cut="8.5639581680297852e+00" cType="1" res="-9.9000000000000000e+01" rms="0.0000000000000000e+00" purity="4.9481198191642761e-01" nType="0">
        <Node pos="l" depth="1" NCoef="0" IVar="4" Cut="3.1306040039062500e+03" cType="1" res="-9.9000000000000000e+01" rms="0.0000000000000000e+00" purity="4.9722340703010559e-01" nType="0">
          <Node pos="l" depth="2" NCoef="0" IVar="4" Cut="5.3329858398437500e+02" cType="0" res="-9.9000000000000000e+01" rms="0.0000000000000000e+00" purity="4.9902954697608948e-01" nType="0">
            <Node pos="l" depth="3" NCoef="0" IVar="-1" Cut="0.0000000000000000e+00" cType="1" res="-9.9000000000000000e+01" rms="0.0000000000000000e+00" purity="5.0440543889999390e-01" nType="1"/>
            <Node pos="r" depth="3" NCoef="0" IVar="-1" Cut="0.0000000000000000e+00" cType="1" res="-9.9000000000000000e+01" rms="0.0000000000000000e+00" purity="3.8405960798263550e-01" nType="-1"/>
          </Node>
          <Node pos="r" depth="2" NCoef="0" IVar="-1" Cut="0.0000000000000000e+00" cType="1" res="-9.9000000000000000e+01" rms="0.0000000000000000e+00" purity="4.4573447108268738e-01" nType="-1"/>
        </Node>
        <Node pos="r" depth="1" NCoef="0" IVar="-1" Cut="3.4286479949951172e+00" cType="0" res="-9.9000000000000000e+01" rms="0.0000000000000000e+00" purity="4.5130649209022522e-01" nType="-1"/>
      </Node>
    </BinaryTree>
    <BinaryTree type="DecisionTree" boostWeight="4.4881422720969920e-02" itree="34">
      <Node pos="s" depth="0" NCoef="0" IVar="10" Cut="4.2858099937438965e-01" cType="1" res="-9.9000000000000000e+01" rms="0.0000000000000000e+00" purity="4.8997965455055237e-01" nType="0">
        <Node pos="l" depth="1" NCoef="0" IVar="11" Cut="2.8242676258087158e+00" cType="1" res="-9.9000000000000000e+01" rms="0.0000000000000000e+00" purity="5.1040846109390259e-01" nType="0">
          <Node pos="l" depth="2" NCoef="0" IVar="13" Cut="1.7073274850845337e+00" cType="1" res="-9.9000000000000000e+01" rms="0.0000000000000000e+00" purity="5.2286010980606079e-01" nType="0">
            <Node pos="l" depth="3" NCoef="0" IVar="-1" Cut="0.0000000000000000e+00" cType="1" res="-9.9000000000000000e+01" rms="0.0000000000000000e+00" purity="5.4419028759002686e-01" nType="1"/>
            <Node pos="r" depth="3" NCoef="0" IVar="-1" Cut="0.0000000000000000e+00" cType="1" res="-9.9000000000000000e+01" rms="0.0000000000000000e+00" purity="4.6241334080696106e-01" nType="-1"/>
          </Node>
          <Node pos="r" depth="2" NCoef="0" IVar="12" Cut="2.5714676380157471e+00" cType="1" res="-9.9000000000000000e+01" rms="0.0000000000000000e+00" purity="4.9096113443374634e-01" nType="0">
            <Node pos="l" depth="3" NCoef="0" IVar="-1" Cut="0.0000000000000000e+00" cType="1" res="-9.9000000000000000e+01" rms="0.0000000000000000e+00" purity="5.4052263498306274e-01" nType="1"/>
            <Node pos="r" depth="3" NCoef="0" IVar="-1" Cut="0.0000000000000000e+00" cType="1" res="-9.9000000000000000e+01" rms="0.0000000000000000e+00" purity="4.5206910371780396e-01" nType="-1"/>
          </Node>
        </Node>
        <Node pos="r" depth="1" NCoef="0" IVar="7" Cut="3.9997929334640503e-01" cType="0" res="-9.9000000000000000e+01" rms="0.0000000000000000e+00" purity="4.8556745052337646e-01" nType="0">
          <Node pos="l" depth="2" NCoef="0" IVar="1" Cut="4.5387256890535355e-02" cType="0" res="-9.9000000000000000e+01" rms="0.0000000000000000e+00" purity="4.8745366930961609e-01" nType="0">
            <Node pos="l" depth="3" NCoef="0" IVar="-1" Cut="0.0000000000000000e+00" cType="1" res="-9.9000000000000000e+01" rms="0.0000000000000000e+00" purity="5.1137793064117432e-01" nType="1"/>
            <Node pos="r" depth="3" NCoef="0" IVar="-1" Cut="0.0000000000000000e+00" cType="1" res="-9.9000000000000000e+01" rms="0.0000000000000000e+00" purity="4.8289540410041809e-01" nType="-1"/>
          </Node>
          <Node pos="r" depth="2" NCoef="0" IVar="-1" Cut="0.0000000000000000e+00" cType="1" res="-9.9000000000000000e+01" rms="0.0000000000000000e+00" purity="4.4538089632987976e-01" nType="-1"/>
        </Node>
      </Node>
    </BinaryTree>
    <BinaryTree type="DecisionTree" boostWeight="3.7016097452363179e-02" itree="35">
      <Node pos="s" depth="0" NCoef="0" IVar="10" Cut="6.8571395874023438e+00" cType="1" res="-9.9000000000000000e+01" rms="0.0000000000000000e+00" purity="4.9589359760284424e-01" nType="0">
        <Node pos="l" depth="1" NCoef="0" IVar="12" Cut="1.2856756448745728e+00" cType="1" res="-9.9000000000000000e+01" rms="0.0000000000000000e+00" purity="4.9749034643173218e-01" nType="0">
          <Node pos="l" depth="2" NCoef="0" IVar="11" Cut="2.8558015823364258e+00" cType="0" res="-9.9000000000000000e+01" rms="0.0000000000000000e+00" purity="5.0604444742202759e-01" nType="0">
            <Node pos="l" depth="3" NCoef="0" IVar="-1" Cut="0.0000000000000000e+00" cType="1" res="-9.9000000000000000e+01" rms="0.0000000000000000e+00" purity="5.5033248662948608e-01" nType="1"/>
            <Node pos="r" depth="3" NCoef="0" IVar="-1" Cut="0.0000000000000000e+00" cType="1" res="-9.9000000000000000e+01" rms="0.0000000000000000e+00" purity="4.9435126781463623e-01" nType="-1"/>
          </Node>
          <Node pos="r" depth="2" NCoef="0" IVar="11" Cut="2.8628075122833252e+00" cType="1" res="-9.9000000000000000e+01" rms="0.0000000000000000e+00" purity="4.8824676871299744e-01" nType="0">
            <Node pos="l" depth="3" NCoef="0" IVar="-1" Cut="0.0000000000000000e+00" cType="1" res="-9.9000000000000000e+01" rms="0.0000000000000000e+00" purity="5.1185309886932373e-01" nType="1"/>
            <Node pos="r" depth="3" NCoef="0" IVar="-1" Cut="0.0000000000000000e+00" cType="1" res="-9.9000000000000000e+01" rms="0.0000000000000000e+00" purity="4.7541242837905884e-01" nType="-1"/>
          </Node>
        </Node>
        <Node pos="r" depth="1" NCoef="0" IVar="-1" Cut="0.0000000000000000e+00" cType="1" res="-9.9000000000000000e+01" rms="0.0000000000000000e+00" purity="4.5335730910301208e-01" nType="-1"/>
      </Node>
    </BinaryTree>
    <BinaryTree type="DecisionTree" boostWeight="4.4299799123416993e-02" itree="36">
      <Node pos="s" depth="0" NCoef="0" IVar="12" Cut="1.2856756448745728e+00" cType="1" res="-9.9000000000000000e+01" rms="0.0000000000000000e+00" purity="5.0019240379333496e-01" nType="0">
        <Node pos="l" depth="1" NCoef="0" IVar="11" Cut="2.8558015823364258e+00" cType="0" res="-9.9000000000000000e+01" rms="0.0000000000000000e+00" purity="5.0875461101531982e-01" nType="0">
          <Node pos="l" depth="2" NCoef="0" IVar="4" Cut="9.0774987792968750e+02" cType="0" res="-9.9000000000000000e+01" rms="0.0000000000000000e+00" purity="5.3768050670623779e-01" nType="0">
            <Node pos="l" depth="3" NCoef="0" IVar="-1" Cut="0.0000000000000000e+00" cType="1" res="-9.9000000000000000e+01" rms="0.0000000000000000e+00" purity="5.5656743049621582e-01" nType="1"/>
            <Node pos="r" depth="3" NCoef="0" IVar="-1" Cut="0.0000000000000000e+00" cType="1" res="-9.9000000000000000e+01" rms="0.0000000000000000e+00" purity="4.8524719476699829e-01" nType="-1"/>
          </Node>
          <Node pos="r" depth="2" NCoef="0" IVar="13" Cut="2.9959764480590820e+00" cType="1" res="-9.9000000000000000e+01" rms="0.0000000000000000e+00" purity="5.0082898139953613e-01" nType="0">
            <Node pos="l" depth="3" NCoef="0" IVar="-1" Cut="0.0000000000000000e+00" cType="1" res="-9.9000000000000000e+01" rms="0.0000000000000000e+00" purity="5.1125264167785645e-01" nType="1"/>
            <Node pos="r" depth="3" NCoef="0" IVar="-1" Cut="0.0000000000000000e+00" cType="1" res="-9.9000000000000000e+01" rms="0.0000000000000000e+00" purity="4.3045678734779358e-01" nType="-1"/>
          </Node>
        </Node>
        <Node pos="r" depth="1" NCoef="0" IVar="3" Cut="4.7497123479843140e-02" cType="1" res="-9.9000000000000000e+01" rms="0.0000000000000000e+00" purity="4.9098670482635498e-01" nType="0">
          <Node pos="l" depth="2" NCoef="0" IVar="3" Cut="1.8086725845932961e-02" cType="1" res="-9.9000000000000000e+01" rms="0.0000000000000000e+00" purity="5.1016390323638916e-01" nType="0">
            <Node pos="l" depth="3" NCoef="0" IVar="-1" Cut="0.0000000000000000e+00" cType="1" res="-9.9000000000000000e+01" rms="0.0000000000000000e+00" purity="5.4306066036224365e-01" nType="1"/>
            <Node pos="r" depth="3" NCoef="0" IVar="-1" Cut="0.0000000000000000e+00" cType="1" res="-9.9000000000000000e+01" rms="0.0000000000000000e+00" purity="4.6352553367614746e-01" nType="-1"/>
          </Node>
          <Node pos="r" depth="2" NCoef="0" IVar="-1" Cut="3.1975503540039062e+02" cType="0" res="-9.9000000000000000e+01" rms="0.0000000000000000e+00" purity="4.8591724038124084e-01" nType="-1"/>
        </Node>
      </Node>
    </BinaryTree>
    <BinaryTree type="DecisionTree" boostWeight="3.1036786330137605e-02" itree="37">
      <Node pos="s" depth="0" NCoef="0" IVar="4" Cut="3.1306040039062500e+03" cType="1" res="-9.9000000000000000e+01" rms="0.0000000000000000e+00" purity="5.0029867887496948e-01" nType="0">
        <Node pos="l" depth="1" NCoef="0" IVar="4" Cut="5.3329858398437500e+02" cType="0" res="-9.9000000000000000e+01" rms="0.0000000000000000e+00" purity="5.0190997123718262e-01" nType="0">
          <Node pos="l" depth="2" NCoef="0" IVar="5" Cut="1.1928423828125000e+04" cType="1" res="-9.9000000000000000e+01" rms="0.0000000000000000e+00" purity="5.0670582056045532e-01" nType="0">
            <Node pos="l" depth="3" NCoef="0" IVar="-1" Cut="0.0000000000000000e+00" cType="1" res="-9.9000000000000000e+01" rms="0.0000000000000000e+00" purity="5.0884515047073364e-01" nType="1"/>
            <Node pos="r" depth="3" NCoef="0" IVar="-1" Cut="0.0000000000000000e+00" cType="1" res="-9.9000000000000000e+01" rms="0.0000000000000000e+00" purity="4.3694964051246643e-01" nType="-1"/>
          </Node>
          <Node pos="r" depth="2" NCoef="0" IVar="-1" Cut="0.0000000000000000e+00" cType="1" res="-9.9000000000000000e+01" rms="0.0000000000000000e+00" purity="3.9868414402008057e-01" nType="-1"/>
        </Node>
        <Node pos="r" depth="1" NCoef="0" IVar="-1" Cut="0.0000000000000000e+00" cType="1" res="-9.9000000000000000e+01" rms="0.0000000000000000e+00" purity="4.5709860324859619e-01" nType="-1"/>
      </Node>
    </BinaryTree>
    <BinaryTree type="DecisionTree" boostWeight="5.4166596257883566e-02" itree="38">
      <Node pos="s" depth="0" NCoef="0" IVar="6" Cut="3.4864364624023438e+02" cType="0" res="-9.9000000000000000e+01" rms="0.0000000000000000e+00" purity="4.9418479204177856e-01" nType="0">
        <Node pos="l" depth="1" NCoef="0" IVar="5" Cut="4.4662480468750000e+03" cType="1" res="-9.9000000000000000e+01" rms="0.0000000000000000e+00" purity="4.9967017769813538e-01" nType="0">
          <Node pos="l" depth="2" NCoef="0" IVar="-1" Cut="9.0646612644195557e-01" cType="1" res="-9.9000000000000000e+01" rms="0.0000000000000000e+00" purity="5.3863656520843506e-01" nType="1"/>
          <Node pos="r" depth="2" NCoef="0" IVar="4" Cut="1.7670319824218750e+03" cType="0" res="-9.9000000000000000e+01" rms="0.0000000000000000e+00" purity="4.9361264705657959e-01" nType="0">
            <Node pos="l" depth="3" NCoef="0" IVar="-1" Cut="0.0000000000000000e+00" cType="1" res="-9.9000000000000000e+01" rms="0.0000000000000000e+00" purity="5.2187311649322510e-01" nType="1"/>
            <Node pos="r" depth="3" NCoef="0" IVar="-1" Cut="0.0000000000000000e+00" cType="1" res="-9.9000000000000000e+01" rms="0.0000000000000000e+00" purity="4.8179176449775696e-01" nType="-1"/>
          </Node>
        </Node>
        <Node pos="r" depth="1" NCoef="0" IVar="6" Cut="2.9201953125000000e+02" cType="0" res="-9.9000000000000000e+01" rms="0.0000000000000000e+00" purity="4.8270118236541748e-01" nType="0">
          <Node pos="l" depth="2" NCoef="0" IVar="4" Cut="1.0813863525390625e+03" cType="1" res="-9.9000000000000000e+01" rms="0.0000000000000000e+00" purity="5.2129215002059937e-01" nType="0">
            <Node pos="l" depth="3" NCoef="0" IVar="-1" Cut="0.0000000000000000e+00" cType="1" res="-9.9000000000000000e+01" rms="0.0000000000000000e+00" purity="5.4543572664260864e-01" nType="1"/>
            <Node pos="r" depth="3" NCoef="0" IVar="-1" Cut="0.0000000000000000e+00" cType="1" res="-9.9000000000000000e+01" rms="0.0000000000000000e+00" purity="4.9219924211502075e-01" nType="-1"/>
          </Node>
          <Node pos="r" depth="2" NCoef="0" IVar="-1" Cut="9.1370278596878052e-01" cType="0" res="-9.9000000000000000e+01" rms="0.0000000000000000e+00" purity="4.5541188120841980e-01" nType="-1"/>
        </Node>
      </Node>
    </BinaryTree>
    <BinaryTree type="DecisionTree" boostWeight="2.9288504919654332e-02" itree="39">
      <Node pos="s" depth="0" NCoef="0" IVar="4" Cut="3.1306040039062500e+03" cType="1" res="-9.9000000000000000e+01" rms="0.0000000000000000e+00" purity="4.9859735369682312e-01" nType="0">
        <Node pos="l" depth="1" NCoef="0" IVar="4" Cut="5.3329858398437500e+02" cType="0" res="-9.9000000000000000e+01" rms="0.0000000000000000e+00" purity="5.0027728080749512e-01" nType="0">
          <Node pos="l" depth="2" NCoef="0" IVar="0" Cut="9.0651017427444458e-01" cType="1" res="-9.9000000000000000e+01" rms="0.0000000000000000e+00" purity="5.0446516275405884e-01" nType="0">
            <Node pos="l" depth="3" NCoef="0" IVar="-1" Cut="0.0000000000000000e+00" cType="1" res="-9.9000000000000000e+01" rms="0.0000000000000000e+00" purity="5.2049052715301514e-01" nType="1"/>
            <Node pos="r" depth="3" NCoef="0" IVar="-1" Cut="0.0000000000000000e+00" cType="1" res="-9.9000000000000000e+01" rms="0.0000000000000000e+00" purity="4.9581652879714966e-01" nType="-1"/>
          </Node>
          <Node pos="r" depth="2" NCoef="0" IVar="-1" Cut="0.0000000000000000e+00" cType="1" res="-9.9000000000000000e+01" rms="0.0000000000000000e+00" purity="4.0951320528984070e-01" nType="-1"/>
        </Node>
        <Node pos="r" depth="1" NCoef="0" IVar="-1" Cut="0.0000000000000000e+00" cType="1" res="-9.9000000000000000e+01" rms="0.0000000000000000e+00" purity="4.5353716611862183e-01" nType="-1"/>
      </Node>
    </BinaryTree>
    <BinaryTree type="DecisionTree" boostWeight="5.8187499874126296e-02" itree="40">
      <Node pos="s" depth="0" NCoef="0" IVar="0" Cut="5.7997268438339233e-01" cType="0" res="-9.9000000000000000e+01" rms="0.0000000000000000e+00" purity="5.0118952989578247e-01" nType="0">
        <Node pos="l" depth="1" NCoef="0" IVar="4" Cut="9.0838708496093750e+02" cType="0" res="-9.9000000000000000e+01" rms="0.0000000000000000e+00" purity="5.0275671482086182e-01" nType="0">
          <Node pos="l" depth="2" NCoef="0" IVar="3" Cut="8.0902373790740967e-01" cType="1" res="-9.9000000000000000e+01" rms="0.0000000000000000e+00" purity="5.1216810941696167e-01" nType="0">
            <Node pos="l" depth="3" NCoef="0" IVar="-1" Cut="0.0000000000000000e+00" cType="1" res="-9.9000000000000000e+01" rms="0.0000000000000000e+00" purity="5.2143287658691406e-01" nType="1"/>
            <Node pos="r" depth="3" NCoef="0" IVar="-1" Cut="0.0000000000000000e+00" cType="1" res="-9.9000000000000000e+01" rms="0.0000000000000000e+00" purity="4.5892408490180969e-01" nType="-1"/>
          </Node>
          <Node pos="r" depth="2" NCoef="0" IVar="5" Cut="6.8832539062500000e+03" cType="1" res="-9.9000000000000000e+01" rms="0.0000000000000000e+00" purity="4.7932568192481995e-01" nType="0">
            <Node pos="l" depth="3" NCoef="0" IVar="-1" Cut="0.0000000000000000e+00" cType="1" res="-9.9000000000000000e+01" rms="0.0000000000000000e+00" purity="5.1038992404937744e-01" nType="1"/>
            <Node pos="r" depth="3" NCoef="0" IVar="-1" Cut="0.0000000000000000e+00" cType="1" res="-9.9000000000000000e+01" rms="0.0000000000000000e+00" purity="2.7453580498695374e-01" nType="-1"/>
          </Node>
        </Node>
        <Node pos="r" depth="1" NCoef="0" IVar="-1" Cut="0.0000000000000000e+00" cType="1" res="-9.9000000000000000e+01" rms="0.0000000000000000e+00" purity="4.5227575302124023e-01" nType="-1"/>
      </Node>
    </BinaryTree>
    <BinaryTree type="DecisionTree" boostWeight="2.9284388548234442e-02" itree="41">
      <Node pos="s" depth="0" NCoef="0" IVar="4" Cut="3.1306040039062500e+03" cType="1" res="-9.9000000000000000e+01" rms="0.0000000000000000e+00" purity="4.9157929420471191e-01" nType="0">
        <Node pos="l" depth="1" NCoef="0" IVar="4" Cut="5.3329858398437500e+02" cType="0" res="-9.9000000000000000e+01" rms="0.0000000000000000e+00" purity="4.9322751164436340e-01" nType="0">
          <Node pos="l" depth="2" NCoef="0" IVar="4" Cut="9.0437017822265625e+02" cType="0" res="-9.9000000000000000e+01" rms="0.0000000000000000e+00" purity="4.9718645215034485e-01" nType="0">
            <Node pos="l" depth="3" NCoef="0" IVar="-1" Cut="0.0000000000000000e+00" cType="1" res="-9.9000000000000000e+01" rms="0.0000000000000000e+00" purity="5.0461864471435547e-01" nType="1"/>
            <Node pos="r" depth="3" NCoef="0" IVar="-1" Cut="0.0000000000000000e+00" cType="1" res="-9.9000000000000000e+01" rms="0.0000000000000000e+00" purity="4.7705170512199402e-01" nType="-1"/>
          </Node>
          <Node pos="r" depth="2" NCoef="0" IVar="-1" Cut="0.0000000000000000e+00" cType="1" res="-9.9000000000000000e+01" rms="0.0000000000000000e+00" purity="4.0728679299354553e-01" nType="-1"/>
        </Node>
        <Node pos="r" depth="1" NCoef="0" IVar="-1" Cut="0.0000000000000000e+00" cType="1" res="-9.9000000000000000e+01" rms="0.0000000000000000e+00" purity="4.4749003648757935e-01" nType="-1"/>
      </Node>
    </BinaryTree>
    <BinaryTree type="DecisionTree" boostWeight="8.8290637134059449e-02" itree="42">
      <Node pos="s" depth="0" NCoef="0" IVar="4" Cut="1.0852261962890625e+03" cType="1" res="-9.9000000000000000e+01" rms="0.0000000000000000e+00" purity="4.8904064297676086e-01" nType="0">
        <Node pos="l" depth="1" NCoef="0" IVar="5" Cut="6.2534277343750000e+03" cType="1" res="-9.9000000000000000e+01" rms="0.0000000000000000e+00" purity="5.0116735696792603e-01" nType="0">
          <Node pos="l" depth="2" NCoef="0" IVar="-1" Cut="9.5535162353515625e+02" cType="0" res="-9.9000000000000000e+01" rms="0.0000000000000000e+00" purity="5.3403323888778687e-01" nType="1"/>
          <Node pos="r" depth="2" NCoef="0" IVar="-1" Cut="7.2806597900390625e+02" cType="0" res="-9.9000000000000000e+01" rms="0.0000000000000000e+00" purity="3.8639417290687561e-01" nType="-1"/>
        </Node>
        <Node pos="r" depth="1" NCoef="0" IVar="5" Cut="6.1049096679687500e+03" cType="0" res="-9.9000000000000000e+01" rms="0.0000000000000000e+00" purity="4.7980901598930359e-01" nType="0">
          <Node pos="l" depth="2" NCoef="0" IVar="10" Cut="5.5706396102905273e+00" cType="1" res="-9.9000000000000000e+01" rms="0.0000000000000000e+00" purity="5.1170021295547485e-01" nType="0">
            <Node pos="l" depth="3" NCoef="0" IVar="-1" Cut="0.0000000000000000e+00" cType="1" res="-9.9000000000000000e+01" rms="0.0000000000000000e+00" purity="5.1602190732955933e-01" nType="1"/>
            <Node pos="r" depth="3" NCoef="0" IVar="-1" Cut="0.0000000000000000e+00" cType="1" res="-9.9000000000000000e+01" rms="0.0000000000000000e+00" purity="4.5982137322425842e-01" nType="-1"/>
          </Node>
          <Node pos="r" depth="2" NCoef="0" IVar="-1" Cut="9.5679450035095215e-01" cType="1" res="-9.9000000000000000e+01" rms="0.0000000000000000e+00" purity="4.3047353625297546e-01" nType="-1"/>
        </Node>
      </Node>
    </BinaryTree>
    <BinaryTree type="DecisionTree" boostWeight="3.5690794138219496e-02" itree="43">
      <Node pos="s" depth="0" NCoef="0" IVar="-1" Cut="3.1306040039062500e+03" cType="1" res="-9.9000000000000000e+01" rms="0.0000000000000000e+00" purity="4.8216217756271362e-01" nType="-1"/>
    </BinaryTree>
    <BinaryTree type="DecisionTree" boostWeight="1.7845397069121877e-02" itree="44">
      <Node pos="s" depth="0" NCoef="0" IVar="-1" Cut="3.1306040039062500e+03" cType="1" res="-9.9000000000000000e+01" rms="0.0000000000000000e+00" purity="4.9107825756072998e-01" nType="-1"/>
    </BinaryTree>
    <BinaryTree type="DecisionTree" boostWeight="2.1165638839386356e-02" itree="45">
      <Node pos="s" depth="0" NCoef="0" IVar="4" Cut="3.1306040039062500e+03" cType="1" res="-9.9000000000000000e+01" rms="0.0000000000000000e+00" purity="4.9553877115249634e-01" nType="0">
        <Node pos="l" depth="1" NCoef="0" IVar="4" Cut="5.3329858398437500e+02" cType="0" res="-9.9000000000000000e+01" rms="0.0000000000000000e+00" purity="4.9714595079421997e-01" nType="0">
          <Node pos="l" depth="2" NCoef="0" IVar="5" Cut="1.1928423828125000e+04" cType="1" res="-9.9000000000000000e+01" rms="0.0000000000000000e+00" purity="5.0110715627670288e-01" nType="0">
            <Node pos="l" depth="3" NCoef="0" IVar="-1" Cut="0.0000000000000000e+00" cType="1" res="-9.9000000000000000e+01" rms="0.0000000000000000e+00" purity="5.0342053174972534e-01" nType="1"/>
            <Node pos="r" depth="3" NCoef="0" IVar="-1" Cut="0.0000000000000000e+00" cType="1" res="-9.9000000000000000e+01" rms="0.0000000000000000e+00" purity="4.2533570528030396e-01" nType="-1"/>
          </Node>
          <Node pos="r" depth="2" NCoef="0" IVar="-1" Cut="0.0000000000000000e+00" cType="1" res="-9.9000000000000000e+01" rms="0.0000000000000000e+00" purity="4.1060069203376770e-01" nType="-1"/>
        </Node>
        <Node pos="r" depth="1" NCoef="0" IVar="-1" Cut="0.0000000000000000e+00" cType="1" res="-9.9000000000000000e+01" rms="0.0000000000000000e+00" purity="4.5237538218498230e-01" nType="-1"/>
      </Node>
    </BinaryTree>
    <BinaryTree type="DecisionTree" boostWeight="3.2394231178381139e-02" itree="46">
      <Node pos="s" depth="0" NCoef="0" IVar="8" Cut="9.1069683432579041e-02" cType="0" res="-9.9000000000000000e+01" rms="0.0000000000000000e+00" purity="4.9136111140251160e-01" nType="0">
        <Node pos="l" depth="1" NCoef="0" IVar="3" Cut="3.3150747418403625e-01" cType="1" res="-9.9000000000000000e+01" rms="0.0000000000000000e+00" purity="5.1980996131896973e-01" nType="0">
          <Node pos="l" depth="2" NCoef="0" IVar="-1" Cut="0.0000000000000000e+00" cType="1" res="-9.9000000000000000e+01" rms="0.0000000000000000e+00" purity="5.5384969711303711e-01" nType="1"/>
          <Node pos="r" depth="2" NCoef="0" IVar="-1" Cut="0.0000000000000000e+00" cType="1" res="-9.9000000000000000e+01" rms="0.0000000000000000e+00" purity="4.9654525518417358e-01" nType="-1"/>
        </Node>
        <Node pos="r" depth="1" NCoef="0" IVar="7" Cut="7.4266332387924194e-01" cType="0" res="-9.9000000000000000e+01" rms="0.0000000000000000e+00" purity="4.8902627825737000e-01" nType="0">
          <Node pos="l" depth="2" NCoef="0" IVar="7" Cut="9.8740440607070923e-01" cType="0" res="-9.9000000000000000e+01" rms="0.0000000000000000e+00" purity="4.9328553676605225e-01" nType="0">
            <Node pos="l" depth="3" NCoef="0" IVar="-1" Cut="0.0000000000000000e+00" cType="1" res="-9.9000000000000000e+01" rms="0.0000000000000000e+00" purity="5.0810235738754272e-01" nType="1"/>
            <Node pos="r" depth="3" NCoef="0" IVar="-1" Cut="0.0000000000000000e+00" cType="1" res="-9.9000000000000000e+01" rms="0.0000000000000000e+00" purity="4.8641574382781982e-01" nType="-1"/>
          </Node>
          <Node pos="r" depth="2" NCoef="0" IVar="-1" Cut="3.4329977416992188e+02" cType="0" res="-9.9000000000000000e+01" rms="0.0000000000000000e+00" purity="4.5348528027534485e-01" nType="-1"/>
        </Node>
      </Node>
    </BinaryTree>
    <BinaryTree type="DecisionTree" boostWeight="2.7991544970639128e-02" itree="47">
      <Node pos="s" depth="0" NCoef="0" IVar="8" Cut="9.1069683432579041e-02" cType="0" res="-9.9000000000000000e+01" rms="0.0000000000000000e+00" purity="4.9472358822822571e-01" nType="0">
        <Node pos="l" depth="1" NCoef="0" IVar="-1" Cut="3.3150747418403625e-01" cType="1" res="-9.9000000000000000e+01" rms="0.0000000000000000e+00" purity="5.2134919166564941e-01" nType="1"/>
        <Node pos="r" depth="1" NCoef="0" IVar="7" Cut="7.4266332387924194e-01" cType="0" res="-9.9000000000000000e+01" rms="0.0000000000000000e+00" purity="4.9253901839256287e-01" nType="0">
          <Node pos="l" depth="2" NCoef="0" IVar="4" Cut="1.0852261962890625e+03" cType="1" res="-9.9000000000000000e+01" rms="0.0000000000000000e+00" purity="4.9625158309936523e-01" nType="0">
            <Node pos="l" depth="3" NCoef="0" IVar="-1" Cut="0.0000000000000000e+00" cType="1" res="-9.9000000000000000e+01" rms="0.0000000000000000e+00" purity="5.0669002532958984e-01" nType="1"/>
            <Node pos="r" depth="3" NCoef="0" IVar="-1" Cut="0.0000000000000000e+00" cType="1" res="-9.9000000000000000e+01" rms="0.0000000000000000e+00" purity="4.8845851421356201e-01" nType="-1"/>
          </Node>
          <Node pos="r" depth="2" NCoef="0" IVar="6" Cut="3.4329977416992188e+02" cType="0" res="-9.9000000000000000e+01" rms="0.0000000000000000e+00" purity="4.6152520179748535e-01" nType="0">
            <Node pos="l" depth="3" NCoef="0" IVar="-1" Cut="0.0000000000000000e+00" cType="1" res="-9.9000000000000000e+01" rms="0.0000000000000000e+00" purity="5.0691860914230347e-01" nType="1"/>
            <Node pos="r" depth="3" NCoef="0" IVar="-1" Cut="0.0000000000000000e+00" cType="1" res="-9.9000000000000000e+01" rms="0.0000000000000000e+00" purity="4.0512785315513611e-01" nType="-1"/>
          </Node>
        </Node>
      </Node>
    </BinaryTree>
    <BinaryTree type="DecisionTree" boostWeight="1.5243225471928560e-02" itree="48">
      <Node pos="s" depth="0" NCoef="0" IVar="7" Cut="3.1431353092193604e-01" cType="0" res="-9.9000000000000000e+01" rms="0.0000000000000000e+00" purity="4.9495431780815125e-01" nType="0">
        <Node pos="l" depth="1" NCoef="0" IVar="8" Cut="9.1069683432579041e-02" cType="0" res="-9.9000000000000000e+01" rms="0.0000000000000000e+00" purity="4.9629005789756775e-01" nType="0">
          <Node pos="l" depth="2" NCoef="0" IVar="-1" Cut="4.7287058830261230e-01" cType="1" res="-9.9000000000000000e+01" rms="0.0000000000000000e+00" purity="5.2127361297607422e-01" nType="1"/>
          <Node pos="r" depth="2" NCoef="0" IVar="-1" Cut="7.7122652530670166e-01" cType="0" res="-9.9000000000000000e+01" rms="0.0000000000000000e+00" purity="4.9463054537773132e-01" nType="-1"/>
        </Node>
        <Node pos="r" depth="1" NCoef="0" IVar="-1" Cut="0.0000000000000000e+00" cType="1" res="-9.9000000000000000e+01" rms="0.0000000000000000e+00" purity="4.4899994134902954e-01" nType="-1"/>
      </Node>
    </BinaryTree>
    <BinaryTree type="DecisionTree" boostWeight="3.5807303956956360e-02" itree="49">
      <Node pos="s" depth="0" NCoef="0" IVar="7" Cut="3.1431353092193604e-01" cType="0" res="-9.9000000000000000e+01" rms="0.0000000000000000e+00" purity="4.9830356240272522e-01" nType="0">
        <Node pos="l" depth="1" NCoef="0" IVar="4" Cut="3.1306040039062500e+03" cType="1" res="-9.9000000000000000e+01" rms="0.0000000000000000e+00" purity="4.9962607026100159e-01" nType="0">
          <Node pos="l" depth="2" NCoef="0" IVar="4" Cut="9.2289385986328125e+02" cType="0" res="-9.9000000000000000e+01" rms="0.0000000000000000e+00" purity="5.0077468156814575e-01" nType="0">
            <Node pos="l" depth="3" NCoef="0" IVar="-1" Cut="0.0000000000000000e+00" cType="1" res="-9.9000000000000000e+01" rms="0.0000000000000000e+00" purity="5.1262742280960083e-01" nType="1"/>
            <Node pos="r" depth="3" NCoef="0" IVar="-1" Cut="0.0000000000000000e+00" cType="1" res="-9.9000000000000000e+01" rms="0.0000000000000000e+00" purity="4.7505134344100952e-01" nType="-1"/>
          </Node>
          <Node pos="r" depth="2" NCoef="0" IVar="-1" Cut="0.0000000000000000e+00" cType="1" res="-9.9000000000000000e+01" rms="0.0000000000000000e+00" purity="4.6866947412490845e-01" nType="-1"/>
        </Node>
        <Node pos="r" depth="1" NCoef="0" IVar="-1" Cut="0.0000000000000000e+00" cType="1" res="-9.9000000000000000e+01" rms="0.0000000000000000e+00" purity="4.5277395844459534e-01" nType="-1"/>
      </Node>
