<?xml version="1.0"?>
<MethodSetup Method="MLP::MLPBNN">
  <GeneralInfo>
    <Info name="TMVA Release" value="4.2.1 [262657]"/>
    <Info name="ROOT Release" value="6.26/02 [399874]"/>
    <Info name="Creator" value="s1412595"/>
    <Info name="Date" value="Sun May  1 17:26:02 2022"/>
    <Info name="Host" value="Linux root-ubuntu-2004-1 5.4.0-73-generic #82-Ubuntu SMP Wed Apr 14 17:39:42 UTC 2021 x86_64 x86_64 x86_64 GNU/Linux"/>
    <Info name="Dir" value="/home/s1412595/Desktop/MSc/TMVA/runs/run_fs7_hp1"/>
    <Info name="Training events" value="120000"/>
    <Info name="TrainingTime" value="4.28195986e+02"/>
    <Info name="AnalysisType" value="Classification"/>
  </GeneralInfo>
  <Options>
    <Option name="NCycles" modified="Yes">60</Option>
    <Option name="HiddenLayers" modified="Yes">N+5</Option>
    <Option name="NeuronType" modified="Yes">tanh</Option>
    <Option name="RandomSeed" modified="No">1</Option>
    <Option name="EstimatorType" modified="No">CE</Option>
    <Option name="NeuronInputType" modified="No">sum</Option>
    <Option name="V" modified="Yes">False</Option>
    <Option name="VerbosityLevel" modified="No">Default</Option>
    <Option name="VarTransform" modified="Yes">N</Option>
    <Option name="H" modified="Yes">True</Option>
    <Option name="CreateMVAPdfs" modified="No">False</Option>
    <Option name="IgnoreNegWeightsInTraining" modified="No">False</Option>
    <Option name="TrainingMethod" modified="Yes">BFGS</Option>
    <Option name="LearningRate" modified="No">2.000000e-02</Option>
    <Option name="DecayRate" modified="No">1.000000e-02</Option>
    <Option name="TestRate" modified="Yes">5</Option>
    <Option name="EpochMonitoring" modified="No">False</Option>
    <Option name="Sampling" modified="No">1.000000e+00</Option>
    <Option name="SamplingEpoch" modified="No">1.000000e+00</Option>
    <Option name="SamplingImportance" modified="No">1.000000e+00</Option>
    <Option name="SamplingTraining" modified="No">True</Option>
    <Option name="SamplingTesting" modified="No">False</Option>
    <Option name="ResetStep" modified="No">50</Option>
    <Option name="Tau" modified="No">3.000000e+00</Option>
    <Option name="BPMode" modified="No">sequential</Option>
    <Option name="BatchSize" modified="No">-1</Option>
    <Option name="ConvergenceImprove" modified="No">1.000000e-30</Option>
    <Option name="ConvergenceTests" modified="No">-1</Option>
    <Option name="UseRegulator" modified="Yes">True</Option>
    <Option name="UpdateLimit" modified="No">10000</Option>
    <Option name="CalculateErrors" modified="No">False</Option>
    <Option name="WeightRange" modified="No">1.000000e+00</Option>
  </Options>
  <Variables NVar="11">
    <Variable VarIndex="0" Expression="Kbach_ProbNNk" Label="Kbach_ProbNNk" Title="Kbach_ProbNNk" Unit="" Internal="Kbach_ProbNNk" Type="F" Min="5.10000885e-01" Max="9.99803305e-01"/>
    <Variable VarIndex="1" Expression="Kbach_ProbNNp" Label="Kbach_ProbNNp" Title="Kbach_ProbNNp" Unit="" Internal="Kbach_ProbNNp" Type="F" Min="3.09430192e-07" Max="9.99382198e-01"/>
    <Variable VarIndex="2" Expression="Kbach_PT" Label="Kbach_PT" Title="Kbach_PT" Unit="" Internal="Kbach_PT" Type="F" Min="4.03433502e+02" Max="1.47210791e+04"/>
    <Variable VarIndex="3" Expression="Lc_PT" Label="Lc_PT" Title="Lc_PT" Unit="" Internal="Lc_PT" Type="F" Min="2.52761890e+03" Max="4.00415273e+04"/>
    <Variable VarIndex="4" Expression="Xicst_PT" Label="Xicst_PT" Title="Xicst_PT" Unit="" Internal="Xicst_PT" Type="F" Min="2.32683643e+03" Max="4.92342539e+04"/>
    <Variable VarIndex="5" Expression="pibach_ProbNNpi" Label="pibach_ProbNNpi" Title="pibach_ProbNNpi" Unit="" Internal="pibach_ProbNNpi" Type="F" Min="1.00149095e-01" Max="9.99639690e-01"/>
    <Variable VarIndex="6" Expression="pibach_ProbNNp" Label="pibach_ProbNNp" Title="pibach_ProbNNp" Unit="" Internal="pibach_ProbNNp" Type="F" Min="4.44849604e-07" Max="9.56227481e-01"/>
    <Variable VarIndex="7" Expression="Xicst_IPCHI2_OWNPV" Label="Xicst_IPCHI2_OWNPV" Title="Xicst_IPCHI2_OWNPV" Unit="" Internal="Xicst_IPCHI2_OWNPV" Type="F" Min="1.37118786e-05" Max="2.63996133e+04"/>
    <Variable VarIndex="8" Expression="Xicst_ENDVERTEX_CHI2" Label="Xicst_ENDVERTEX_CHI2" Title="Xicst_ENDVERTEX_CHI2" Unit="" Internal="Xicst_ENDVERTEX_CHI2" Type="F" Min="1.72308029e-03" Max="5.99373703e+01"/>
    <Variable VarIndex="9" Expression="pibach_IPCHI2_OWNPV" Label="pibach_IPCHI2_OWNPV" Title="pibach_IPCHI2_OWNPV" Unit="" Internal="pibach_IPCHI2_OWNPV" Type="F" Min="8.96283200e-06" Max="8.99967575e+00"/>
    <Variable VarIndex="10" Expression="Kbach_IPCHI2_OWNPV" Label="Kbach_IPCHI2_OWNPV" Title="Kbach_IPCHI2_OWNPV" Unit="" Internal="Kbach_IPCHI2_OWNPV" Type="F" Min="1.30371254e-05" Max="8.99991798e+00"/>
  </Variables>
  <Spectators NSpec="1">
    <Spectator SpecIndex="0" Expression="Xicst_M" Label="Xicst_M" Title="Xicst Mass" Unit="F" Internal="Xicst_M" Type="F" Min="2.92377637e+03" Max="3.90779272e+03"/>
  </Spectators>
  <Classes NClass="2">
    <Class Name="Signal" Index="0"/>
    <Class Name="Background" Index="1"/>
  </Classes>
  <Transformations NTransformations="1">
    <Transform Name="Normalize">
      <Selection>
        <Input NInputs="11">
          <Input Type="Variable" Label="Kbach_ProbNNk" Expression="Kbach_ProbNNk"/>
          <Input Type="Variable" Label="Kbach_ProbNNp" Expression="Kbach_ProbNNp"/>
          <Input Type="Variable" Label="Kbach_PT" Expression="Kbach_PT"/>
          <Input Type="Variable" Label="Lc_PT" Expression="Lc_PT"/>
          <Input Type="Variable" Label="Xicst_PT" Expression="Xicst_PT"/>
          <Input Type="Variable" Label="pibach_ProbNNpi" Expression="pibach_ProbNNpi"/>
          <Input Type="Variable" Label="pibach_ProbNNp" Expression="pibach_ProbNNp"/>
          <Input Type="Variable" Label="Xicst_IPCHI2_OWNPV" Expression="Xicst_IPCHI2_OWNPV"/>
          <Input Type="Variable" Label="Xicst_ENDVERTEX_CHI2" Expression="Xicst_ENDVERTEX_CHI2"/>
          <Input Type="Variable" Label="pibach_IPCHI2_OWNPV" Expression="pibach_IPCHI2_OWNPV"/>
          <Input Type="Variable" Label="Kbach_IPCHI2_OWNPV" Expression="Kbach_IPCHI2_OWNPV"/>
        </Input>
        <Output NOutputs="11">
          <Output Type="Variable" Label="Kbach_ProbNNk" Expression="Kbach_ProbNNk"/>
          <Output Type="Variable" Label="Kbach_ProbNNp" Expression="Kbach_ProbNNp"/>
          <Output Type="Variable" Label="Kbach_PT" Expression="Kbach_PT"/>
          <Output Type="Variable" Label="Lc_PT" Expression="Lc_PT"/>
          <Output Type="Variable" Label="Xicst_PT" Expression="Xicst_PT"/>
          <Output Type="Variable" Label="pibach_ProbNNpi" Expression="pibach_ProbNNpi"/>
          <Output Type="Variable" Label="pibach_ProbNNp" Expression="pibach_ProbNNp"/>
          <Output Type="Variable" Label="Xicst_IPCHI2_OWNPV" Expression="Xicst_IPCHI2_OWNPV"/>
          <Output Type="Variable" Label="Xicst_ENDVERTEX_CHI2" Expression="Xicst_ENDVERTEX_CHI2"/>
          <Output Type="Variable" Label="pibach_IPCHI2_OWNPV" Expression="pibach_IPCHI2_OWNPV"/>
          <Output Type="Variable" Label="Kbach_IPCHI2_OWNPV" Expression="Kbach_IPCHI2_OWNPV"/>
        </Output>
      </Selection>
      <Class ClassIndex="0">
        <Ranges>
          <Range Index="0" Min="5.1000088453292847e-01" Max="9.9980330467224121e-01"/>
          <Range Index="1" Min="3.0943019169171748e-07" Max="9.9368906021118164e-01"/>
          <Range Index="2" Min="4.0367718505859375e+02" Max="1.0992476562500000e+04"/>
          <Range Index="3" Min="2.5326340332031250e+03" Max="4.0041527343750000e+04"/>
          <Range Index="4" Min="3.3086733398437500e+03" Max="4.9234253906250000e+04"/>
          <Range Index="5" Min="1.0023375600576401e-01" Max="9.9963968992233276e-01"/>
          <Range Index="6" Min="4.4484960426416364e-07" Max="9.5622748136520386e-01"/>
          <Range Index="7" Min="1.3711878636968322e-05" Max="5.0999150390625000e+03"/>
          <Range Index="8" Min="1.7230802914127707e-03" Max="5.7858459472656250e+01"/>
          <Range Index="9" Min="2.5563955205143429e-05" Max="8.9967641830444336e+00"/>
          <Range Index="10" Min="2.9180013370933011e-05" Max="8.9999179840087891e+00"/>
        </Ranges>
      </Class>
      <Class ClassIndex="1">
        <Ranges>
          <Range Index="0" Min="5.1001447439193726e-01" Max="9.9980223178863525e-01"/>
          <Range Index="1" Min="3.1790315802027180e-07" Max="9.9938219785690308e-01"/>
          <Range Index="2" Min="4.0343350219726562e+02" Max="1.4721079101562500e+04"/>
          <Range Index="3" Min="2.5276188964843750e+03" Max="3.0730033203125000e+04"/>
          <Range Index="4" Min="2.3268364257812500e+03" Max="3.6822753906250000e+04"/>
          <Range Index="5" Min="1.0014909505844116e-01" Max="9.9933230876922607e-01"/>
          <Range Index="6" Min="2.0500285700109089e-06" Max="8.9968401193618774e-01"/>
          <Range Index="7" Min="2.6691805032896809e-05" Max="2.6399613281250000e+04"/>
          <Range Index="8" Min="4.3928395025432110e-03" Max="5.9937370300292969e+01"/>
          <Range Index="9" Min="8.9628319983603433e-06" Max="8.9996757507324219e+00"/>
          <Range Index="10" Min="1.3037125427217688e-05" Max="8.9995861053466797e+00"/>
        </Ranges>
      </Class>
      <Class ClassIndex="2">
        <Ranges>
          <Range Index="0" Min="5.1000088453292847e-01" Max="9.9980330467224121e-01"/>
          <Range Index="1" Min="3.0943019169171748e-07" Max="9.9938219785690308e-01"/>
          <Range Index="2" Min="4.0343350219726562e+02" Max="1.4721079101562500e+04"/>
          <Range Index="3" Min="2.5276188964843750e+03" Max="4.0041527343750000e+04"/>
          <Range Index="4" Min="2.3268364257812500e+03" Max="4.9234253906250000e+04"/>
          <Range Index="5" Min="1.0014909505844116e-01" Max="9.9963968992233276e-01"/>
          <Range Index="6" Min="4.4484960426416364e-07" Max="9.5622748136520386e-01"/>
          <Range Index="7" Min="1.3711878636968322e-05" Max="2.6399613281250000e+04"/>
          <Range Index="8" Min="1.7230802914127707e-03" Max="5.9937370300292969e+01"/>
          <Range Index="9" Min="8.9628319983603433e-06" Max="8.9996757507324219e+00"/>
          <Range Index="10" Min="1.3037125427217688e-05" Max="8.9999179840087891e+00"/>
        </Ranges>
      </Class>
    </Transform>
  </Transformations>
  <MVAPdfs/>
  <Weights>
    <Layout NLayers="3">
      <Layer Index="0" NNeurons="12">
        <Neuron NSynapses="16">
          -7.2876834195799134e-01 1.5352025877868396e+00 9.8905825256127189e-01 1.2505457222103624e+00 -3.0234186688115394e-01 -1.6082255292464482e+00 -8.7577862071702239e-01 1.4087078017835484e+00 -3.6628885894572771e-01 -3.6864993629358944e-01 -1.4999034475879396e+00 -9.6696091584240929e-01 -1.8130950128551953e+00 -3.7491964506716394e-02 -1.3355399346914083e+00 2.2279457938773733e-01 
        </Neuron>
        <Neuron NSynapses="16">
          -3.3828567645836016e-01 1.1845106950376929e+00 3.0854390163585377e-01 8.2636054872606335e-01 1.3244184292007355e-01 -7.7948848137337368e-01 7.6382104395986083e-01 3.1507668382211418e-01 -1.7256951001394898e+00 -3.1562535423152865e-01 1.5326445120671304e+00 -4.7742198990941231e-01 -2.1708309571926709e+00 -6.9605388713439312e-02 5.3133993172512406e-01 1.9322049645855324e+00 
        </Neuron>
        <Neuron NSynapses="16">
          8.8553385589016875e-01 1.0937297086444377e+00 1.2897985996345354e+00 -5.4052387431157212e-01 -6.1929503605994602e+00 2.5913631544072726e+00 -1.0806413985788903e+00 1.5138115050115872e+00 1.0197025482663653e+00 7.2934351680661169e-01 2.1264962246262580e+00 1.3704570857767961e+00 -1.5097699615818966e-01 -6.8070819530481708e-01 5.0317177246627087e-01 -1.3438027059474428e-01 
        </Neuron>
        <Neuron NSynapses="16">
          1.5765005448862772e+00 1.5138885507318789e+00 1.1989945618927307e+00 1.6921777809537049e+00 2.4161933939256750e+00 1.0950410941848907e+00 -1.8373490093387674e+00 -7.1956918556653227e-01 -2.2360469856545895e+00 -1.8330600626971394e+00 1.3804474212324795e+00 6.8824156967650874e-01 -6.2084321290277944e-01 1.1749793550751777e+00 3.5214327909335076e-02 1.7160729969176874e-01 
        </Neuron>
        <Neuron NSynapses="16">
          3.5335672909950882e+00 1.0060921863959292e-01 1.5518421918770799e+00 -1.1438184101873272e+00 -9.4264865244371956e-02 -6.6721307534839924e-01 -7.1218820558271234e-01 -1.2867446055340377e+00 1.5802749978875974e-01 1.9052479405191978e+00 1.3179711382099373e+00 -3.7314639499312074e-01 -9.4191861038467639e-01 -1.0403340867882560e+00 9.3916342568396161e-01 -2.1937497453303707e-02 
        </Neuron>
        <Neuron NSynapses="16">
          2.6287488379105066e+00 4.4260825209411575e-01 1.7818283383525274e-01 -7.8497901652448154e-01 -9.7889499752402659e-02 -4.0082756935446096e-01 1.2022776189167175e+00 -7.8488916175394907e-01 -1.1786572563565969e+00 -1.7488104266204461e+00 -2.1567120633454137e-01 -5.9147548823487506e-01 1.4824320275014720e+00 -1.6540003523159654e+00 -1.6034613811340348e+00 1.5818028295248829e+00 
        </Neuron>
        <Neuron NSynapses="16">
          -9.9717276452146553e-01 -9.6536698744321925e-01 -1.2089498675789421e+00 3.6482525223910756e-01 -1.7024879775524898e-01 -1.1741472152013004e+00 7.2002210472341799e-01 1.7356416796142835e+00 -1.4529388270022594e+00 1.3328740576573190e+00 -7.7496289239584837e-01 -4.8148995509264347e-01 5.6862812223745873e-01 1.0155454450765666e+00 -1.1137346701451256e+00 2.4656793384796059e-02 
        </Neuron>
        <Neuron NSynapses="16">
          1.7154602541420902e-01 1.0778605669577130e+00 -1.6081913118725870e+00 1.9597771196419731e+00 1.5030109915727545e+00 -7.0166096096238928e-01 8.5052431620194280e-01 -5.7922473245588624e-01 -2.0401430740528510e+00 -3.4596636090221844e-01 -2.1991420424251396e-01 2.1190295265236543e+00 1.4465740983151119e+00 8.6194387528930505e-01 3.3240163152398866e-01 -7.9860886190769413e-03 
        </Neuron>
        <Neuron NSynapses="16">
          -1.1577041107134594e+00 1.5084497731607547e+00 6.5334768402696541e-01 -1.7952956727412521e+00 2.3867589497466274e-01 -1.0927442641886593e+00 1.0969862961085798e-01 1.5487619324220352e+00 1.6071409217308352e+00 -1.6309753876053839e+00 5.9554030568200456e-01 1.7698697701423400e+00 2.0327642464780409e+00 9.1769815075131234e-01 -9.5040008421294253e-01 -4.0446099665652274e-01 
        </Neuron>
        <Neuron NSynapses="16">
          1.0871870350659779e-01 1.2485672370972547e+00 2.3789013466253173e-01 -3.2225296134278403e-01 2.4404274067902929e-01 -1.9521341166666495e-01 -1.2734016291219816e+00 1.2530841983252410e+00 9.2364057543776423e-01 2.7436345921758204e-01 -5.3779677155714589e-01 5.3484197952510770e-01 1.0774383825783396e+00 8.6506021179201664e-01 1.4916617761904998e+00 -1.1951773540918449e+00 
        </Neuron>
        <Neuron NSynapses="16">
          -1.2867806148976851e-01 1.3867437890097138e+00 1.9880121190571004e-01 8.9424249456068050e-01 5.8176169262308633e-02 1.2381955378879759e-02 -4.9875352993242028e-01 6.5104342144954364e-01 -6.8396998906898487e-01 -4.8551707176474598e-02 1.3733548610618345e+00 7.9946077696789486e-01 -1.2954636728515187e-01 1.8457325095426551e+00 1.9071546356067577e+00 -2.0509942647731210e+00 
        </Neuron>
        <Neuron NSynapses="16">
          7.7227177873877684e-01 -6.3215773848658185e-01 6.7345252127632604e-01 -1.8379947492899456e+00 -2.6721982862589932e+00 8.9152164124465016e-01 1.7464508268291281e+00 -2.2398822520300929e+00 2.4890054710282783e-01 -1.0242246665125908e-01 1.8941731658763214e-01 1.4491047805397594e+00 -1.0378230258072108e+00 -1.3709091780947911e+00 -1.7267388522705909e+00 1.2224317981766371e+00 
        </Neuron>
      </Layer>
      <Layer Index="1" NNeurons="17">
        <Neuron NSynapses="1">
          1.3292055771159879e+00 
        </Neuron>
        <Neuron NSynapses="1">
          -5.5187697979289285e-01 
        </Neuron>
        <Neuron NSynapses="1">
          1.0184975659187976e+00 
        </Neuron>
        <Neuron NSynapses="1">
          7.2738265890699183e-01 
        </Neuron>
        <Neuron NSynapses="1">
          -3.6178709544392977e+00 
        </Neuron>
        <Neuron NSynapses="1">
          -1.5899572060752462e-01 
        </Neuron>
        <Neuron NSynapses="1">
          -9.9137046067015189e-01 
        </Neuron>
        <Neuron NSynapses="1">
          3.3038054422656132e-01 
        </Neuron>
        <Neuron NSynapses="1">
          2.2977927164366929e-01 
        </Neuron>
        <Neuron NSynapses="1">
          3.7406599408951557e-01 
        </Neuron>
        <Neuron NSynapses="1">
          7.5015261372760056e-01 
        </Neuron>
        <Neuron NSynapses="1">
          -3.9436239601046413e-01 
        </Neuron>
        <Neuron NSynapses="1">
          4.1909411407553177e-01 
        </Neuron>
        <Neuron NSynapses="1">
          1.0520271565304022e-02 
        </Neuron>
        <Neuron NSynapses="1">
          4.9991526180796630e-01 
        </Neuron>
        <Neuron NSynapses="1">
          2.7097099277385128e-01 
        </Neuron>
        <Neuron NSynapses="1">
          2.5206804096629787e-01 
        </Neuron>
      </Layer>
      <Layer Index="2" NNeurons="1">
        <Neuron NSynapses="0"/>
      </Layer>
    </Layout>
    <InverseHessian NElements="43681" NRows="209" NCols="209">
      <Row Index="0">
        4.3790489385112366e-03 3.2344223279311374e-04 2.8341270632426625e-03 3.8367515268877589e-04 7.7507751200431546e-06 7.7348055475057291e-03 -9.9279801065469547e-04 1.1318401114570054e-03 -2.3714187429162859e-03 1.4690522970617226e-03 -1.6985470815718577e-04 -1.9812737063825830e-02 2.5054877031347104e-03 -5.9320158054682048e-02 -1.5003661519984906e-03 1.6158645169592704e-03 1.3768441515053069e-03 1.0356596733961804e-03 1.2358229305062403e-03 -1.6023653560679856e-03 -5.8914323739853581e-05 1.6245033691538267e-03 -1.8012034216062156e-03 7.5753665595200415e-04 4.4528334254914578e-03 -1.3303232103124485e-03 9.6699934228181537e-04 4.5133895721860551e-04 3.2714684261727182e-03 -1.2426719466414438e-02 5.5868660323878799e-04 1.0972533340471674e-03 -3.3673867888781460e-03 -5.6518583689699441e-03 8.8534718733573985e-03 6.1782248041437268e-03 7.0875956633836249e-04 1.3973718943589002e-02 -5.0955059415846576e-03 4.7842401773678933e-03 -7.3589519660505632e-03 -2.0283969833375902e-03 1.2783338265595724e-02 1.0161687920734841e-01 7.2627073524083961e-03 -2.9990973879032623e-01 -4.0368052176062291e-03 2.2523334930908134e-03 -2.8707095867112893e-03 -1.2896129217016432e-02 1.2030031304246326e-02 4.7858354490148206e-03 -8.8494803838467043e-04 4.2443446117038507e-02 -5.5113552214298353e-03 -4.0962594984178369e-02 -7.7109020335026385e-03 -7.2588888217272191e-03 2.5541217088650946e-02 1.9878234370982573e-01 1.6571242924671704e-02 1.4694079952777273e-01 -6.5363366355747493e-03 -4.1742782065970832e-03 -6.4778376555197142e-03 2.9176846056395256e-02 -1.0239311737853111e-02 -4.9588112936647284e-03 7.9230559969737302e-04 -7.8712513494136771e-02 9.2907163680464016e-03 3.5933790697195156e-02 1.4794806765078796e-02 1.5565362033941113e-02 -2.9437763830622993e-02 -2.4601275863387304e-01 -4.0541816064246144e-02 -5.6497433653843743e-02 1.9005410486833615e-02 8.4384058843099494e-03 -5.4992520317592216e-03 7.6510757722792755e-03 -1.7217188588705924e-03 3.3605706023107345e-03 7.6938468734506858e-05 2.1670042337841901e-03 1.1565496708194176e-03 1.5232823976774612e-03 -3.3775267237470263e-03 2.1441504084559540e-03 -7.6720553461761404e-04 -1.4198354838373284e-02 -6.9728099837499825e-03 -1.0746338397588140e-01 -6.3836863862153093e-04 7.4675588016843986e-04 8.5458822810753089e-04 -2.6844419971544381e-03 -2.5362739670139428e-03 -6.8007420214744388e-04 5.4506321041708093e-05 9.3474699380270664e-03 1.1078414291634878e-03 1.1683612819739272e-02 -2.0824055135694321e-03 -2.7782354033978321e-03 -2.1882632960506521e-03 3.5588966496705676e-02 2.3772182285587695e-05 -7.9805711266089929e-05 -1.5161867878640128e-04 1.4138076876442987e-03 3.3179054594150836e-04 -2.9940287716123615e-02 -2.6620378847879003e-02 -2.0701478131961285e-02 -7.4054255446335494e-03 -3.9168558307048261e-02 -6.9486934057893482e-02 2.3013122823063381e-01 -5.2483182180763990e-03 -1.4637127259903274e-01 -2.2290904171721646e-01 3.6314650425308903e-02 -2.0531933916702286e-02 1.4107561253542356e-01 3.5909569987072287e-01 -1.6004794720947443e-01 3.7499234115868467e-03 8.0426089377916982e-04 2.9702282877564503e-03 3.6709500156850219e-03 -1.3044176183483401e-04 4.0433228575586302e-03 -2.4807736390466961e-04 1.9788690109363086e-03 -1.6984496889583698e-04 -5.1896899062087252e-04 1.1820000858809056e-03 3.4834653860471021e-02 -4.6033184299179575e-04 4.5141535507311481e-02 -5.3410859532148636e-03 1.2756598980456918e-03 -3.0094985710945872e-04 3.3904305002890513e-03 5.3734054379658055e-04 1.6110481623213962e-04 -6.1412938095353813e-05 -1.3715188309208967e-03 1.4380428588405478e-03 6.2486978690522096e-03 -1.9327408352498854e-03 7.7725546887094730e-04 1.9863223229368496e-04 4.1987866175035027e-03 3.1449231588016879e-04 -5.2700387745769461e-02 -2.6458226296322343e-04 -1.8328099627093583e-04 3.1127076498713114e-04 4.8378922845197792e-03 1.0091978549729762e-03 -1.9566106729736570e-03 -6.7906110938630146e-05 8.2164541013526426e-05 1.8835776912906610e-04 6.3732418884111302e-03 1.0890249487841841e-03 -2.2244007091190045e-04 1.1189337397890867e-03 1.4699738249605354e-02 1.9341188598078207e-03 5.1688951811119210e-02 1.5982579629654770e-03 9.8231831952271843e-04 -2.8974951254622447e-03 -3.6897904833812667e-02 -1.6150779870664277e-02 -1.1937138077479571e-02 -7.0326424733033587e-03 -4.6524923308551819e-02 -7.1949027138308419e-02 2.2622033884831855e-01 -8.1014442883636968e-03 -1.4464084465129154e-01 -2.1556131983894722e-01 1.4022825320421806e-01 -2.2907066870797906e-02 -8.5298056108985776e-02 3.5990675828446139e-01 -1.5390486537209233e-01 2.8156451573984886e-03 1.4071997009071414e-03 -4.5211772552978015e-03 1.3263311149370642e-03 -8.8578920231077696e-04 -5.6146547516472281e-04 -1.2704027740500249e-03 -2.3470636085287395e-04 7.3586600671398479e-04 -6.2460403468481487e-04 -3.1662754486456860e-04 1.2462651201428684e-02 1.3903538223187161e-05 -6.4969172124659618e-04 -3.5148106629737607e-04 2.4783897241716546e-04 1.3368012453823968e-02 
      </Row>
      <Row Index="1">
        3.2344223276375983e-04 5.7749103340745016e+00 -2.2250795519854687e-02 -2.0552708679847341e-04 1.2770059303215677e-03 6.3415931735613607e-02 2.1676363026904268e-02 4.4704590836562069e-01 8.6810472607522990e-03 -2.2496976922811211e-02 -2.1819440031581672e-01 1.6010248284265820e+00 4.3026489862343392e-02 8.1885626174682535e+00 -5.3060169605332097e-01 -1.9262172293474739e-02 -2.9395958147670229e-04 2.2100505292598314e+00 7.7244801524166233e-05 -1.6799775700179205e-03 2.0548258690100967e-03 8.0854054412545923e-02 -3.3899581748648906e-03 5.0344149420235879e-02 -7.4091284294017512e-02 6.9854493893366093e-03 -4.9567339137590996e-02 1.4026824005465395e+00 1.2178163569376388e-01 2.4188962129373039e+00 -7.1940881213673064e-02 -1.3059496138975568e-01 3.6079167224909205e-03 2.3820522626547569e+00 -1.8491197639089706e-02 -1.9592487551853048e-02 3.7407559264639220e-02 -4.0750976332422972e-02 9.2652471596823882e-02 -5.3187947146443371e-02 -9.2805974358759702e-02 -8.1744380637088374e-02 3.7894812741691491e-01 -4.7519776639867413e+00 -1.4696579289299555e-01 1.9656142220870265e+01 7.8870831527859564e-01 -2.3119734151248206e-01 5.6992649486093741e-03 4.9450687132938178e+00 -5.2638876875574517e-02 -3.8189980790698186e-02 -1.1028971193913439e-02 -4.6402639238945853e-01 1.8295775903528466e-01 -2.0842686516515414e+00 -9.5784758291750663e-02 -2.8667108265900604e-01 1.3712814766958610e+00 -1.1316332001592784e+01 1.0183846327749324e-02 -5.7265958543313360e+00 2.7166244715881223e+00 -2.0910336909894500e-01 -1.2417320956513156e-03 -3.4340817240653823e+00 3.8040492686253952e-02 1.1066489040441449e-01 6.6357991443726592e-03 5.3105993924078798e-01 -1.2375175485570833e-01 1.5664081261848430e+00 1.1773573078043448e-01 3.4010310219281825e-01 -1.6327258016876254e+00 1.2654781295035654e+01 7.1610033710290011e-02 5.4643371994049801e+00 -3.5681196750365118e+00 1.1943593634489505e-01 -1.5966481030350761e-03 1.0971591803987553e+00 -6.4683138781754107e-03 -1.9223395060596574e-02 5.5758468131007028e-04 1.8096876147924434e-02 1.7977028742222786e-02 -4.4752564334917011e-01 -7.0360999662671911e-02 -7.4944726441946025e-03 -6.6101409118554832e-02 7.5178038636259270e-01 -1.9396817701863522e-02 2.5010402484392401e+01 -6.1533556031938053e-01 -5.7141622305846074e-02 -3.9734750678247499e-03 -1.2363178555968668e+00 -3.1423248117132749e-03 -1.7902759553355185e-02 -1.9090568913693214e-03 -3.8479847359783263e-02 8.4061029260649733e-03 3.8377814424063983e-01 -7.9095206948691640e-02 6.8921642966165743e-03 -7.6267527700694004e-02 -5.2754670134741932e-01 6.1605916120901050e-02 -1.4889611444024169e+01 -1.1590794983697345e-01 6.1763493780891188e-02 -5.8762430154052650e-02 2.1046382191082036e+00 -8.7159787198176880e-02 7.3661090241818028e-01 -3.7652428305002837e-02 -3.0971962310400664e-01 -1.1348098143497547e+00 -5.9470895291912509e+00 -1.0461327380284688e-01 -1.2327283442632164e+00 2.5856865486256102e+00 -7.4281656410719421e-01 3.0116467901027189e-01 -1.8278427678832003e+01 -7.9731687957221231e-01 3.0527363056304790e+00 1.1947403462721991e-02 1.8642840215127137e+00 2.2393881294794624e-02 -2.6474797772072130e-04 7.6476822467525969e-03 2.2860953188875932e-01 2.0016533208801257e-02 3.8771200037853415e-01 -1.0462293432416805e-01 9.9916447959232380e-02 -1.8865304170877395e-01 -1.2024458865509668e+00 -5.3419355881876407e-02 -5.8284907658155305e+00 -8.4362927885921080e-01 9.7654520080331375e-03 7.1584910853893235e-04 1.4424724878756072e+00 5.1019697651253429e-03 3.8314126584200747e-02 4.0413244291318245e-03 6.7133252389747516e-02 2.3256190485637422e-02 2.2500119715979672e-01 -7.8832503671341647e-03 4.6960432951161327e-02 -5.0612165694415345e-02 -1.4093288747535304e-01 -1.4233575297305456e-02 -9.3420617927566312e+00 2.9566730700936894e-01 2.6333071653987794e-02 4.0151563767479651e-04 1.5045450638818019e+00 8.5980893939756400e-03 -3.6448049402722782e-03 4.3436092843798209e-03 7.7332688119143067e-02 1.4131828888763520e-02 -8.6053928843135508e-02 -5.9454747033798834e-02 6.2049749165692170e-02 8.3274560057113950e-02 -4.3007401266524958e-01 3.9216617024003808e-02 -2.8016022472918394e+01 3.0112799111406385e-01 1.1932080049714633e-01 -4.2481386917128217e-02 -1.3927385408232862e+00 -6.3455206418851259e-02 7.7491176308750798e-01 2.9360356321891162e-03 -9.4301222802117668e-02 -1.0337950406236933e+00 -6.8467087776590416e+00 -2.9122299682188757e-01 -1.0817318379849414e+00 2.5224873708586606e+00 -4.1685561972326735e+00 3.7153204980681620e-01 1.7134727409871601e+01 -1.6902860298600544e+00 2.7526494649178819e+00 -2.9638483810342663e-04 9.0110342425868517e-01 7.6164695704594720e-03 1.3760809125578366e-02 -2.3068102560193430e-02 -1.6465097033608583e-03 -3.2384770588066408e-02 -1.4140508495434045e-01 -1.0651629126942397e-02 -1.7744300471311050e-03 4.9566466998269137e-03 -4.9444576252328820e-01 1.7067870139291032e-02 1.9490635153830707e-01 -1.1327264278247340e-01 2.7738897766788687e-02 3.6887674932859915e-01 
      </Row>
      <Row Index="2">
        2.8341270632360333e-03 -2.2250795519575185e-02 2.1353543466260741e-02 -5.9003403674346578e-03 -9.2301895575049855e-04 2.0867584626403358e-02 -5.7279604520891116e-03 -3.3978610076224880e-03 9.8968720283997176e-04 2.1094182972143981e-03 -8.2035327564753003e-03 -1.1491983235164613e-01 -4.2487882257601405e-03 -2.2267367996190446e-01 2.5347884108851801e-03 1.3106437588171146e-03 1.5325699817525281e-03 3.0765580092035026e-03 5.8684056433303969e-03 -7.3093675340376273e-04 -2.8518697351805566e-04 -4.5036534021869069e-03 -5.7853729270153122e-03 -7.9583894041802827e-04 -3.4424968804112671e-03 -3.9298726946116391e-04 -1.5542155065726947e-03 -4.5901976445583803e-02 -1.0091841327581048e-02 -1.0417689029165378e-01 5.6267081810669473e-04 6.0168439195489413e-03 -4.0556870011369262e-03 -2.0608652824876922e-02 9.8892512867704788e-03 5.3539093898352721e-03 2.5372623405621178e-03 -4.0296394494364063e-03 -4.0786540722754644e-03 -8.7438068151421966e-03 1.9746344780713090e-02 3.5862851271593332e-03 -1.7889215192524344e-02 3.4767437608168716e-01 2.2907885746077689e-02 -1.1922592848901559e+00 2.2817353787611072e-02 -1.5454912933562329e-03 -6.3259702369368870e-03 1.0112063263620893e-02 1.5980535279715515e-02 -8.6278864136991838e-03 -1.9891240715473593e-03 1.5957686703740016e-02 1.1871283453953153e-02 -8.3793095575701804e-02 1.0616071330772546e-02 7.5613871944030242e-04 -3.6998117888543194e-02 7.6054782631609230e-01 9.4553401180408961e-02 6.0176613139199375e-01 4.5577439706702694e-02 -2.9141386526102320e-02 -2.4027591926633809e-03 3.9159755018529863e-02 8.3487235869397838e-03 1.5766210555212608e-02 -8.2896543733628923e-04 1.4465616684908866e-03 -2.2524075799931625e-03 4.4710668544952425e-02 -8.7836765666601778e-03 2.7593297225441529e-02 5.1730612940905460e-02 -7.6102072563006884e-01 -9.0538656479375756e-02 9.1921730027067383e-02 -3.2349840691391518e-02 4.2881769039564088e-02 -9.7418735189921078e-03 1.1938488895672505e-02 2.7535472839386281e-04 2.0639934172240366e-03 3.3346619915646994e-04 -2.8466006327079098e-03 -1.5286543888245324e-03 -2.6654299885402466e-03 -5.8498237961081972e-03 -1.5834402950523109e-03 -1.9004622990826531e-03 -6.1809614958245218e-02 3.5168292538019230e-03 -7.4002198277692699e-01 1.8416789193102939e-03 3.4202436150716498e-03 -2.1629369093064373e-03 -1.6483981685628812e-02 -7.3496800782800811e-03 3.7161722538891287e-03 7.9389915871743832e-04 1.2462786106356677e-02 -4.6206694544486809e-03 3.4079052835959966e-02 -1.3563462609246082e-02 -3.2938894328610763e-03 -8.0991395574928626e-03 6.7229566751338510e-02 -3.9840509111813138e-03 2.8315829778023982e-01 -4.6714251258345302e-03 -5.4415717483086157e-04 9.1059172715685279e-03 8.0280373958199869e-02 -2.1721447554368070e-02 3.4547556364637404e-02 -8.7395942467338658e-03 8.0209173168960993e-02 -2.0897368545868267e-01 -1.1319007364332900e-01 -9.5777670647166135e-02 -3.5006773237230349e-01 -2.2522824150796239e-01 3.5176138562872872e-01 -2.7831021082824370e-02 5.8390307950395481e-01 2.7430903681629770e-01 -3.1527314460238109e-01 7.3503651526547684e-03 1.4256666810689489e-02 8.7850203923414902e-03 1.1193798877765504e-03 -9.8558044541668314e-04 -1.8674503300315306e-02 2.1101775117035315e-03 4.1143049830525413e-03 8.9949243839673957e-03 -3.7491479520533784e-03 4.6728961506501687e-03 1.9171896106369468e-01 1.5599176379568064e-02 3.8481795349269277e-01 -7.6035266961531206e-03 -2.7178303573294760e-03 5.0021462055455579e-04 2.2059197668195692e-02 2.3122257922951021e-03 -3.2825380292464401e-03 -3.9604248429165825e-04 -1.7489581516783573e-03 6.2664809612406128e-03 1.1684140043428791e-02 2.4654016413691270e-03 3.5188110636938455e-03 1.8384845240635578e-04 3.1451189766720802e-02 9.2790454346425091e-03 4.3745067683115213e-01 4.6577955654314440e-04 -3.4128775218968954e-03 1.0396953557096607e-03 2.4073861813444231e-02 1.9526869612886250e-03 -7.7390916198155635e-05 -2.3432620887713573e-04 -8.9665288400165091e-04 2.8221852528199226e-03 1.4268332343002205e-02 -7.4313345857739826e-04 1.4528917014897530e-03 -6.5990157551799877e-04 1.0096989559621328e-01 1.3925525447319176e-03 9.7234227404612028e-01 -1.3544332522011926e-03 -1.8778150534964977e-03 1.0323486827002765e-02 7.4897090758217488e-02 -1.5814831382739867e-03 4.9460336748033365e-02 -8.7638295296116140e-03 6.3517080571920390e-02 -2.0866739435830003e-01 -1.4827273546309189e-01 -7.3808334001410320e-02 -3.2794487525582672e-01 -2.3503307567418391e-01 7.1121824068116934e-01 4.2656722395395530e-05 -5.5174952182720460e-01 2.9761225976937156e-01 -3.0875881303116764e-01 5.7419146741991590e-03 5.6686616943678377e-03 -1.3044111949687760e-02 4.6179715929495734e-04 -2.3385305096453308e-03 2.3668392346346025e-03 -3.5374088437905935e-03 -2.6686641875303284e-03 -4.6705926807274513e-04 -1.2737429049549842e-03 -2.5434990187156296e-04 5.0406862681456589e-02 -2.4591218019847667e-03 -3.4361775922367721e-03 -4.0659758636244316e-04 -1.9844652292123465e-04 4.8668950752758254e-02 
      </Row>
      <Row Index="3">
        3.8367515275899988e-04 -2.0552709137444929e-04 -5.9003403671862124e-03 1.4291427221479491e+00 -2.8411806667322944e-03 4.2472043843944304e-02 6.7162039195664242e-02 2.9161520121667284e-02 5.8989936929728898e-02 3.0916645672478982e-02 7.3885075731877956e-02 2.3565336491869968e-02 9.2019456304857541e-02 5.7133462196851212e+00 9.9967105930568734e-02 1.8271773137340679e-02 -2.9412456700671167e-03 1.0824257671310782e-02 -1.8702311703934996e-03 5.5632418384264037e-01 -4.1430605567160401e-03 -8.6711091417075066e-03 4.2389438399934115e-02 -8.6352630722559748e-02 -7.7216048372854271e-02 3.9635879034858809e-02 1.0771770384407003e-02 1.3797362424061843e-01 1.3235896596078706e-01 1.9962461226516567e+01 1.9422504305323281e-02 -1.0914030499350200e-01 -8.9820024538458509e-04 1.8567574887771726e-01 2.2991792276085936e-03 -2.2562042727814569e-01 -7.2237016032199002e-03 -2.0869970136586458e-01 5.1327893798713664e-02 1.7487808436315433e-01 2.1338781406895771e-01 8.3929014608302405e-02 -6.9291419078547634e-03 -5.4640001000065830e-02 -1.9007902695386394e-01 1.1224257352228904e+00 -5.9448238105910753e-03 1.3555060521450019e-01 9.2228661780580680e-03 5.7671085993049154e-02 8.1675046231480166e-03 8.4798960966926473e-01 -2.7139203396219893e-03 -1.9648841602023487e-01 3.1632808330478893e-02 1.0180369833698049e+00 -1.6212218688118718e-01 2.0403902056235923e-01 -1.9162391796332223e-02 -2.4703482763828184e+00 -7.6665877275357674e-02 -6.2228035407732420e+00 -1.6776890618084406e-01 2.2542184596849035e-01 -2.8054993874230886e-02 -8.1098287313000839e-02 5.3068817911838470e-03 -6.7951686722597093e-01 3.4961201715625542e-03 1.5575331099549108e-01 -5.5602076880642087e-02 -9.4065039778482307e-01 -7.8363294764337316e-02 -2.0157110136626111e-01 -2.7694159526351236e-02 2.5605416370160659e+00 1.9798994992067509e-01 9.1590224018703736e+00 1.4845600595780545e-01 -2.0365964945207388e-01 -3.2434995449334009e-04 -3.2718538773541750e-02 -3.6578161904084316e-03 -4.3970265869920461e-01 4.4966974135160556e-03 2.0333676616345128e-01 -8.5109370128269926e-05 -5.5609510921211854e-03 -2.7453734419309395e-01 3.1987324358410049e-02 -2.2551699186895424e-02 -6.9907480200124272e-02 -1.4961882251774408e-01 2.6511599236440979e+01 -8.1429651906869682e-03 -5.3477378329017999e-02 2.9817936078030184e-03 -2.0152978271075114e-01 -8.1030472368773011e-03 2.1379302800449040e-01 -2.3930252902385151e-03 1.2499699135866993e-01 1.2867679796031900e-02 -1.4493092613606562e-01 -6.9612477725592051e-02 -6.9114485351950014e-02 -2.4475998134958488e-02 5.5312190146126206e-02 -1.1423403399997262e-01 -9.7633106888833900e+00 -4.5699069275826565e-02 -4.5141376957163581e-02 -1.6757629486858852e-01 3.1224364690785300e-01 -1.1645750000776110e-01 1.8711227659605008e+00 -3.9466005679926350e-02 -2.5412018174933779e+00 -6.4307054703735900e-01 5.5545509450343733e+00 -1.5577123022169947e+00 -1.8388518143678674e+00 -9.4848765224462517e-01 1.0614039153834964e+00 -4.7576604930675892e-01 -4.6128438232070863e+00 1.1945153722970323e+01 -6.2891758343175086e-01 5.2981758147235443e-03 5.2984627115895577e-02 -6.4002656598449561e-03 -1.2504959019110948e+00 7.9117355809553078e-03 2.3008475797399416e-01 -2.3427876067492026e-02 -5.8078385022156898e-02 -1.0817285550739532e-01 -2.7349790890867497e-02 -6.1488556814982054e-02 -3.3118045892257530e-02 -8.6180322170753776e-02 -3.5614891423492850e+01 -1.3029319475163326e-01 -1.5804222183801606e-01 -8.0705723575006175e-04 1.2945247972658037e-02 -2.6373956500398942e-03 -2.3582560547730680e-01 2.9751536711362676e-03 3.2249880009595763e-02 2.1120381278234263e-02 4.2516009526966880e-02 5.5489179164547292e-02 -1.8034681040063640e-02 1.2533711260951541e-02 -1.5089405390393495e-01 -2.5564782647204472e-02 -2.7726392801762714e+01 -9.9437542993652372e-02 1.5205005981512865e-02 -7.6841372413824112e-03 -1.9270960150777672e-02 4.5546439179871279e-03 4.9737948376397867e-01 -3.3299082806339630e-03 -1.2896543957402085e-01 -3.7936070293828061e-03 8.6986761479700969e-03 9.8205659665225792e-02 5.7546738936947242e-02 -2.2344113028536644e-02 -1.1720680774243775e-01 -6.4731448982471851e-03 -3.1733614296942037e+01 4.2647092919220753e-03 1.5469326780079223e-01 -1.7939682797004752e-01 3.1180834078535358e-01 -1.1070761993742460e-01 -3.7456791838056447e-01 -4.3091298098541592e-02 -2.6841934657238049e+00 -6.5884318598646274e-01 5.7314339690623495e+00 -1.4183347913043145e+00 -1.8314679313424858e+00 -1.0047543133526724e+00 9.9832986318308503e-01 -5.0401355553981020e-01 6.6253623519054514e+00 1.1805692460378094e+01 -7.4722211499678848e-01 6.5216094902720255e-03 5.3543668157770563e-03 -2.1074468015506477e-03 -7.7191972143775867e-01 7.7950163361356021e-03 -2.2054030892326649e-02 -1.1225778323489033e-02 5.7836405381341272e-03 -3.1204756567833579e-02 1.9601744436778243e-02 -3.6549678113942385e-03 8.4939435886621784e-02 2.2224125417581186e-02 1.8538748666019778e-01 6.8576202495849448e-03 2.0673374589008808e-02 -4.0303073909647397e-01 
      </Row>
      <Row Index="4">
        7.7507751200731057e-06 1.2770059303374665e-03 -9.2301895574779423e-04 -2.8411806667055753e-03 1.3651199117626614e-03 1.1204549761404368e-02 4.6545757684731824e-04 1.6354406280871814e-03 -7.9752059105027710e-04 1.6302235127924058e-04 1.2290452592038161e-04 9.2971350300998165e-03 -2.2653185773494917e-03 -1.1677035518015799e-02 -1.5280233229663914e-03 -4.3917956429012726e-04 -6.7036603609807333e-05 8.4502277079178973e-04 -3.3350873860663282e-04 -1.0459414688834046e-03 2.9703459995509808e-04 3.7929348333558596e-03 -5.0214557701879349e-04 2.6117641091791266e-03 -4.2046452741563226e-03 4.5829890529362099e-04 7.1147120011829518e-04 5.2318836155739179e-03 -6.0456640750783516e-03 -8.5427745212192097e-03 1.3989083286106163e-04 8.9002558936671268e-04 5.9770961254469561e-04 1.7984749401961850e-02 -2.7478721696860072e-03 -1.8759952477009210e-02 9.1208832053203803e-03 2.0678693131256060e-02 1.2214922861468859e-03 1.3685710938409118e-02 -3.3468148562839091e-02 2.9605921312718993e-03 6.7212447395638645e-03 -1.8370096311363118e-02 9.8641341913868284e-03 5.9112228159867375e-01 8.2799016963494287e-03 3.2725611156111719e-03 -2.2776121649721527e-04 -7.2485104501241043e-03 4.0083847756353062e-03 7.1064889435656104e-03 -3.3280687353900934e-03 -2.2201828698540205e-02 1.8668444126193444e-04 1.3410849937627395e-02 7.2704281612278529e-03 -6.2406517938821682e-03 -1.5613439775469459e-03 -7.4520629271896344e-02 -1.4819674229106647e-02 -3.2114975437693216e-01 1.3823206789326976e-02 -1.8110805776574007e-03 1.8595867201151475e-04 1.0333481356935570e-03 -3.4274214565677098e-03 -7.6606535930812646e-05 -1.9460810900173237e-04 -2.8668032260319165e-04 6.3025296998755901e-04 -1.9934997588143016e-02 -1.0954254336846265e-03 2.7580141361751125e-03 -7.0420534106976559e-04 5.7913423643317030e-02 7.2081849287244891e-03 -9.6564557572976772e-02 -1.4463866769322101e-02 -7.0979997499000594e-05 4.3709371568354991e-04 9.6600571851146021e-04 -3.6006412863834878e-04 -5.7991683180012247e-04 2.2014332533121394e-04 4.0872243584237061e-03 -6.7206369315369696e-04 -7.1053790410047536e-03 -5.7090387911738942e-03 -2.0444910813487279e-04 -1.1361161174364837e-04 2.7246152007639191e-03 4.4141033208845862e-03 -1.8929118845606219e-02 -7.2218091039388116e-04 6.9106656272908962e-04 2.4933732584026945e-04 9.8154673549662175e-04 -2.0779961606810305e-04 -1.0315739302617002e-03 5.2793213496068157e-04 1.0094276030074224e-02 -8.2329710671032522e-04 2.7267446611452598e-03 -8.5264060353211647e-03 2.0537562481661136e-04 -1.0775774713646710e-03 -4.0858759767184449e-04 3.5211128863923240e-03 9.8305569536274895e-02 -6.8044229089249744e-04 1.2321491700651929e-03 9.9118641608456699e-04 9.0584725147877312e-03 4.6028782391930511e-03 1.2652553401393114e-02 -1.5464046629851467e-03 1.2335290581331104e-02 -4.7617650438750693e-02 -7.3278274799415455e-02 7.4341400993637868e-03 -1.6031245357512387e-02 -4.1602761873039656e-02 -1.0903836996086691e-01 -1.7647730024044767e-03 -7.9049990019580463e-02 -9.1345974305413746e-03 -2.0194190954662433e-02 -2.9553965390588337e-04 5.9833491211487566e-04 -5.5818395683179562e-04 1.9202338907277506e-03 -6.4956024931091499e-04 1.0163939502478885e-02 3.6254703568751323e-05 6.4700871498225565e-03 5.7463025680222352e-03 -6.0322013860203633e-04 9.9022549938213716e-05 -1.8898950293564046e-02 2.5395239403080624e-03 2.4318944460961056e-02 1.5716331869782690e-03 8.7664156292202675e-04 -3.2345250462280503e-05 -2.4131109652725247e-04 1.6837084203825134e-04 1.6298478231699318e-03 -5.6080430155899699e-04 1.7854332060732708e-03 4.2413660593663971e-04 3.8019286210143463e-03 4.7697068744545039e-03 -2.4927811439977646e-04 -1.4177078447153400e-03 -6.2006948038441541e-03 1.2402768976566975e-03 -1.8382182919784273e-02 1.1060424293669324e-03 -3.8861890934649423e-04 -5.5732198197942610e-05 5.3330750584607706e-04 1.5644193935289641e-04 -5.2879235064412673e-04 8.2005869406049172e-05 -4.5549517769977350e-04 -6.4636201803901575e-05 3.6991295578910517e-03 -1.8766024686983854e-03 1.6456210586067443e-05 2.4896299456034221e-04 -9.7693703544232680e-03 3.0890830996001088e-04 1.0732336209121351e-01 2.0226404447772905e-03 -2.1841577269887235e-04 1.1078916771632662e-03 1.8919306075684400e-02 3.0167185638774159e-03 6.0240405554610587e-03 2.7882344713508114e-03 2.4324063388650619e-02 -4.8157589586545840e-02 -6.8240552151419720e-02 -1.0696430715744578e-02 -1.6964016710493281e-02 -3.9771613290803844e-02 -1.3566841975462396e-01 -1.7957085932843470e-03 8.2191110219688390e-02 -2.3460360450814621e-03 -1.6619948974384194e-02 -2.5281723655411865e-04 2.5933261039755035e-04 2.8147952112668928e-04 8.0357985626786782e-04 -8.4636750534413906e-03 -1.6984518272617135e-03 -5.3219471699123640e-04 -6.9736869485673928e-04 -1.1028217877403299e-03 -1.2757525692412629e-04 -2.1963454477622399e-04 -3.8446303266041586e-03 -1.0913469710861247e-03 -1.0874379892462970e-03 -1.3314457358092220e-04 -7.3730005310241329e-05 -1.0748540341406624e-02 
      </Row>
      <Row Index="5">
        7.7348055475201186e-03 6.3415931734746994e-02 2.0867584626437480e-02 4.2472043842998311e-02 1.1204549761397004e-02 1.3082180932010614e+00 -1.0327468614202417e-03 4.2602543966344841e-01 -3.6279605687532218e-02 -2.2278180737751556e-02 -4.1899210577916873e-03 -3.7990461897243244e-01 1.0570368698042523e-01 1.3361622417520458e-01 -1.7215639858709927e-02 -1.7975084597864413e-02 5.7483264235197624e-03 -5.6847452345331007e-02 -6.8882582269094925e-03 3.6598071232293944e-02 3.7950631145165521e-03 4.7617701996037154e-01 -5.7956226170633181e-02 1.8116071697889097e-01 7.9905175604888079e-02 7.4306838353846959e-05 -5.0579367509117068e-02 -2.3681168317962031e-01 1.6762002855519137e-01 1.3938825924279286e-01 -4.8198662117025504e-03 5.7747250733630393e-03 -1.2324831564127708e-02 5.9666704615169985e-02 3.5091051780826568e-02 1.8655150368366763e-02 5.6507138650213812e-02 -1.5965045896841945e+00 -4.7373502636473330e-02 7.7531219330898438e-01 -1.3416124749200817e-01 9.2053429982807994e-02 -3.7100029935397627e-02 1.1399034176035592e+00 1.9427465455614690e-02 -5.8252305768400845e+00 1.3155204572633727e-01 4.6381553666733966e-02 -2.9729723987053085e-02 -4.3300520928430469e-01 1.3375710677671498e-01 2.4919979891386612e-01 -4.2905114900559795e-02 -7.0739385763985685e-01 2.8421213551058588e-02 1.1606139644105582e+00 3.6792340170510696e-01 -1.2976873139763256e-02 -2.4687235034395083e-01 1.7956217996647439e+00 -6.7595800151638658e-02 5.0917798771513390e-01 9.6704745529921921e-02 -2.2340507469593485e-01 -5.4216387887870282e-02 3.7788502635822230e-01 -4.7669958704371442e-02 -5.3250313335364119e-02 1.0037191593614186e-02 5.1394513347338888e-01 1.0722002843346012e-01 -1.7564008318593043e+00 -1.4138930289301072e-01 1.9572079845781604e-02 1.6850123334708333e-01 -1.9054011948531588e+00 6.2902330828721931e-02 -7.5040451007013398e-01 -2.2929262054056920e-01 2.0414307207753288e-01 -5.6084251127505272e-02 3.7068806173260915e-02 -1.6281148795753014e-02 -3.7413195326555612e-02 8.3291864354788549e-03 2.1769565932743967e-01 -5.0826555252308225e-02 -3.6564742016429985e-01 -5.4201046815644915e-02 1.0470136686260020e-01 2.3477236630759790e-02 -1.1459088539627871e-01 -4.4655654858327010e-02 3.2881230279268436e+00 -1.6440020115865386e-02 3.1089886506090458e-02 6.7309434394935419e-04 -3.9727750318472310e-02 -3.6141427052429509e-02 -4.2721943764003456e-02 1.8677675525945393e-02 8.7148262142116606e-01 -3.5531950462074913e-02 5.4188634032525362e-01 -8.3931158887087798e-02 -1.5683167639816079e-01 -2.3412801329913968e-03 -1.7639288652279461e-01 4.0632002160379654e-02 1.2571006230164414e+00 4.6244729125979323e-03 6.6365441345760195e-02 -1.0876475522947737e-02 1.0206369657060066e-02 2.1309963637904217e-02 4.2509059035970598e-01 -5.6369520836453274e-02 1.0799295949583840e+00 -1.7840285990854761e+00 -2.3500525874811355e+00 -8.9257253221162416e-02 -1.8503946059679235e+00 -3.0150885904143463e+00 1.4911881358339016e+00 -6.0803871318047842e-01 3.6633251939594658e+00 2.0593796684878973e+00 -2.4122503353346745e+00 2.5649593421119745e-02 -3.5279002603740839e-02 -2.3939147656886772e-02 -1.1747521446455167e-01 5.2740059059791962e-03 5.9963739761027390e-01 -2.8499285322518372e-02 5.8814413364071072e-01 -2.2629429468746065e-01 1.1081950338742810e-01 2.1609718673419431e-02 6.1049289869726664e-01 -1.5099150558040819e-01 -4.9475296647145797e+00 -4.9180709205857376e-02 2.2374041571282532e-03 -7.5615087829848243e-03 -6.6935718151268198e-02 -1.8403833975928503e-03 -2.6012126538960623e-02 -1.4393823739951633e-03 1.0010637494323030e-01 6.0600246537989289e-02 4.8109564711037134e-01 -5.7014966500395177e-02 -3.6881096680120587e-02 1.4904583520184755e-02 7.5643315623890928e-02 -7.4523508965978147e-02 -1.5534973899611302e+00 8.1295040485906966e-04 -7.1429325047978054e-03 1.7835446916171574e-03 -1.3549603073848795e-01 1.1550043649692459e-02 6.8858209561586767e-02 -1.4761244534845564e-03 -3.2380981661437637e-02 1.8511411114578324e-02 4.1239002217976600e-01 6.6815677696273765e-02 -4.4383398363377347e-03 -6.6269369165395373e-02 3.2635065895137316e-01 6.2546192486760965e-03 2.3763547280009334e+00 -2.4007774115421373e-02 -1.3250752677730127e-02 -2.1259753173150570e-02 -2.1200897311822509e-02 6.8181768220803324e-02 3.8906921146530876e-01 -1.8960867439950527e-02 1.0090986979062447e-01 -1.8645823120825487e+00 -2.3303185050672361e+00 -3.0594656532989739e-01 -1.7809240475375703e+00 -3.0524685508225913e+00 2.0322628747078184e+00 -5.0982342857509999e-01 -2.8072171730174205e+00 2.0407625148212913e+00 -2.3265098432891849e+00 3.3865746552832372e-02 -1.7664873575275769e-02 -3.3148447902348208e-02 -5.5924408723905500e-02 -6.1802495946399610e-02 -1.2648400285392625e-01 -5.0378325246786419e-02 -8.7375219565870979e-02 1.5636975815997892e-02 1.9498071135938953e-02 2.3980129297260729e-02 1.2337828881159535e-01 1.5679272153659475e-02 -3.7046932465394845e-02 -2.9366963818298372e-03 4.6863048520135592e-04 -3.5664659878686528e-03 
      </Row>
      <Row Index="6">
        -9.9279801060846856e-04 2.1676363023609660e-02 -5.7279604520424580e-03 6.7162039196894077e-02 4.6545757683694048e-04 -1.0327468620561671e-03 1.8361596872762560e+00 3.9388735549571363e-01 2.0680811424983490e-02 3.6712495895346031e-03 2.8031228309938039e-02 1.2532052691548450e+00 6.6784575914623223e-03 6.3942581089438200e+00 -1.2570882820483004e-01 -6.2276641677494762e-02 1.6118056111978196e-04 9.5418906906468412e-02 -5.5877680618530339e-04 7.4541618217335293e-03 -1.0895192803973106e-03 1.7988375219201443e-02 1.0600884765457698e-01 -9.1054987462914558e-02 2.3567265107758611e-02 3.4219667633481718e-03 -3.5347175137080994e-02 2.7308497376000579e-01 1.9977354081834896e-02 5.2931133548979412e+00 7.6364114361368696e-02 -2.4404261770525440e-01 -4.8067797728008378e-03 -4.2971186421915331e-01 3.0059115849968614e-02 5.8526366639954128e-02 1.0662865121148477e-02 -1.6134128145540716e-01 4.0636818004539166e-01 -7.1855518320632683e-01 -1.8392153518216187e-02 1.8314017251096618e-02 6.0133152782958832e-02 1.7138284018685082e+00 -2.0599565189339530e-02 2.8244948037450314e+01 -5.2835696445494729e-01 1.2896925210566765e-01 -1.9438398853456905e-02 -3.8949460578893480e-02 9.3649293465508016e-02 2.4478877666143345e-02 -1.2503780068326151e-03 1.0025116640126307e-01 1.3801243702622096e-01 5.1310873371874388e-01 -6.4164145883724155e-02 -2.6042626915806460e-01 -6.9758117940649567e-02 3.6317536522503406e+00 -3.8835735611543368e-02 -7.9924405507146794e+00 7.3209051810317283e-01 -2.8467661674936950e-01 2.5574889855592507e-02 2.0412570185947976e-01 -6.0973961683553984e-02 4.6031911013810545e-02 -1.0418802566297234e-03 -2.5369014322889316e-01 5.9490617186328743e-01 9.8232242984044582e-01 1.3440037156044310e-01 1.5408665022264711e-01 5.6151917247774352e-02 -2.4514000893235810e+00 -2.4877818642030758e-02 -2.9181521788055882e+01 -1.0738018733544696e+00 -1.9965616928725011e-01 1.3267714851321584e-03 1.3419703738108169e-01 1.5004073762815453e-02 -3.2518404880246661e-02 6.5406229187038806e-04 6.4634345423245892e-02 -2.7377354767340217e-01 -2.2500128951546872e-01 -3.1769513852853148e-03 -1.8972714556747761e-02 -6.1193232976528761e-02 -6.6643698284813313e-02 -2.9920574705500025e-02 4.5152781558383097e+00 7.7199039829622951e-03 -1.4855615880190814e-01 7.9994723976166086e-03 2.1406925939601684e-01 -2.0713188955416861e-02 -2.3015104870574676e-02 -1.8794660324509618e-03 1.1453247272009419e-01 -1.3535375039104147e-01 -6.7966891741988888e-01 2.8544091982791661e-02 1.2552265917591111e-02 -4.7833900765492265e-02 -4.0205288631730918e-01 6.6441151934954035e-02 6.8789504820676513e+00 1.3239206179851548e-01 4.6145505442885426e-02 -8.3966479217208720e-02 -1.3845932341949441e+00 -4.2089903493395461e-02 -8.1315559727093034e-02 -1.7421481291349628e-02 -6.5286555989612993e-01 -3.1966469645520501e+00 8.4443829239433388e+00 -5.1121154409412872e-01 2.7339797175282204e-02 -3.3698442419422203e-01 -1.1690268589858470e+00 -9.4195169611173801e-02 4.3925438863324757e+00 1.1893708606898221e+01 5.7483872229169071e-02 1.0281936853284096e-03 -9.3687401907185386e-03 2.4715447374947519e-03 -5.9178944136150324e-02 1.1118393649396073e-03 5.1536543771434240e-02 -1.6768127666160615e-01 -1.0905141071016278e-01 1.3807502445585471e-02 -1.7203772872362244e-02 -7.7117952262770184e-02 -1.6672579803080012e+00 1.3472353414399327e-02 -6.6600758233275883e+00 1.1125675076641542e-01 5.9754170192105160e-02 2.4999820933661182e-03 1.1225062189829030e-02 -3.0343889830343179e-03 3.1540426860996118e-02 -5.0435786435190123e-05 1.0511397477472944e-02 3.6949680843713473e-01 -9.2031762935653502e-02 -3.2251631581572404e-03 -1.2674751509260488e-02 5.7068037534824624e-02 2.3669526906271443e-02 -2.1147515268503662e-02 -1.0071541109492239e+01 -1.7893769508909418e-02 6.5742979968556436e-02 -1.9924909170986570e-04 -1.2960212487903855e-03 3.4508277214841780e-03 2.0248677927636030e-02 -4.0839386954516065e-04 -1.4711612797778738e-02 6.1864025307451054e-02 3.4310643766603602e-03 6.9412284185059285e-03 6.1412452747808361e-03 -1.7713340630985119e-02 -8.7508218003826599e-01 5.3368040875429457e-03 2.1161788199806608e-01 7.0068152273457307e-02 3.2587358791877291e-01 -7.5710705885052951e-02 -1.6057248984589041e+00 -8.7680963005790230e-03 -4.8750948607059696e-02 -1.1386360071130750e-02 -7.9739778120705296e-01 -4.4176499299143712e+00 8.4256433798583767e+00 -4.7810720856342892e-01 -5.3883006573233416e-02 -2.9367685226378681e-01 1.9470226182805028e+00 -6.6208586265104064e-02 -1.4920800953206594e+00 1.1347890047040556e+01 -2.5361126241849630e-01 -6.3566911741774258e-04 2.0524891137205598e-02 -1.6395576532971426e-02 -4.2110402237189801e-02 -7.1800359616767404e-03 -1.2736825125893594e-02 -3.2692625483635496e-01 1.0551410883025956e-01 -9.7598219962997945e-04 -5.3821357869656347e-03 1.1620002920918918e-02 -2.1405193859678751e-01 7.5809883508667839e-03 -1.1138551346013943e-01 -2.0521863267792324e-02 5.1890028748889649e-02 2.1552165902006187e-02 
      </Row>
      <Row Index="7">
        1.1318401122475397e-03 4.4704590836150332e-01 -3.3978610072775209e-03 2.9161520128783230e-02 1.6354406281957092e-03 4.2602543967101525e-01 3.9388735549236675e-01 4.9322195975797250e+01 -8.2903846452033747e-02 2.7435120122250467e-02 -9.5692599097782466e-02 -4.8820551526160916e+00 -7.6061235827102891e-02 1.8561464374215120e+02 -9.7675298920291823e-02 -1.0119653848515348e-02 9.5243225172860781e-04 2.2287210928463391e-01 -7.4090826654565813e-03 1.2893705167904645e-01 8.2679950755108387e-04 2.1426561474715655e-01 -7.4177780809574267e-02 1.0730287600123402e+01 3.4233798011814406e-02 1.3238701341045617e-02 -1.9560183605706905e-01 -5.2790853675137246e+00 -1.3276282705163944e-01 9.9528728149405637e+01 3.2440434555299408e-01 -3.4940927311176394e-03 -3.8330443847721066e-02 5.4882408388739778e-01 3.3795290001919290e-02 3.3056830942660520e-01 5.8656407604048132e-02 -2.0811645638342604e+00 -2.3703904164966449e-01 3.8205271311833883e+01 -9.5554282258183243e-02 1.5896831125863076e-01 -2.3791794394688781e-01 1.0586718511610272e+01 -1.8197701839032743e-02 4.0097980198606035e+02 1.3644014601018966e+00 -4.0364785830655547e-01 7.8292924509028583e-03 1.2749160031882409e+00 7.9697494784814638e-02 -6.2330696852499312e-02 2.0777569083107711e-02 -9.8309709100352483e-01 1.0363892810556621e-01 -1.0809378551051569e+01 5.7940394910608384e-01 2.6566441945459751e-01 -2.7553497281550454e-01 2.8273286842502600e+01 2.1539210797244884e-01 -2.1685188949284537e+02 2.1802277420850205e+00 -1.6632299780946980e+00 -1.2776258123463879e-01 -9.4290882829410760e-01 7.7593623410159268e-02 1.9722327512696275e-01 -4.2452557123684669e-02 1.1438703724616150e+00 5.4287623505671401e-01 -3.1169413707049507e+01 -4.2170223210788121e-01 -3.3424812446689528e-01 6.4384715253223268e-01 -2.7774141722833612e+01 -4.4247797564197122e-01 -1.2930510650317859e+02 -3.6175548885239621e+00 1.6476418224783242e+00 -8.6727842005111688e-02 2.3901860319798440e-01 -3.3581681690246092e-02 -1.0153041791117406e-01 8.3229527046099622e-03 -5.8245222438875477e-02 -1.0338356717574371e-01 -8.6830360054328271e-01 -5.0974074262909452e-03 1.0230196861189414e-01 -1.6099964965258384e-01 -1.4755268882475976e+00 2.6770017288195047e-01 4.3428912324381963e+02 -3.2508150453989426e-01 2.0321491583054940e-01 -6.3864197925409039e-02 -6.1051829861522422e-01 -9.9050470965358864e-02 3.2107047469271288e-02 -1.9312272851786570e-02 -4.2438633369464962e-02 -1.7686097425973318e-01 2.0783143047742698e+01 -6.3208759094297795e-02 -3.8241814053732892e-01 -7.2951123258089501e-01 -2.2596607289181019e+01 -2.4408406420906026e-03 -7.0844578134886618e+00 3.9772368592029039e-02 3.7210180852425878e-01 1.7724322328923664e-01 6.4066517625566197e+00 -9.9651651119325313e-01 3.7896182905747153e+00 9.0238208771350928e-02 -6.6614345998626021e+00 5.4331936785572790e+00 3.0282461000711606e+01 -8.1745073839343463e-01 -1.0059088062212721e+01 -3.9676643599000530e+00 1.2622125613634701e+01 3.4623524397840093e+00 -2.5768007381451434e+02 -5.5115942859737373e+01 1.6654573791376670e+01 7.0054052311101719e-02 7.0704248318953944e-01 4.4790247225528788e-02 -6.4455276781964255e-01 1.7066110400889602e-03 1.0037595351837512e+00 -2.8092977722172841e-01 1.5159130754383593e+01 -3.1663578237624390e-02 9.4965027267321411e-01 -1.4057955768735203e-01 1.4495720701378125e+00 9.9605929967809814e-03 -2.2732302351799376e+01 -9.8335782662674109e-01 -2.4087574658824806e-01 -3.3710502287347885e-02 2.3844149043277418e-02 3.7393207460881261e-03 -1.8113330935997674e-01 -7.6467495361419481e-03 -1.1976344969742031e-01 1.1990051572061727e-01 1.2896908238895401e+01 -5.9392285467747330e-02 -1.0763677007674630e-01 -2.4715752459403939e-02 -1.6382377613809780e+00 7.4902479407452038e-02 -4.0566918528742605e+01 5.0284325744056613e-01 7.6998128473996008e-02 -1.8783573177404977e-03 1.8817878994408233e-02 2.1057859338280790e-02 1.3792556616338358e-01 -1.7159142200204639e-04 -4.7596815952293037e-02 9.5591136530593923e-02 -1.2830082525593256e+00 3.6809494756192440e-02 -4.0118545547254386e-02 1.3401581237720597e-01 2.3788057433288436e+00 5.0093289860712709e-02 -5.8427370152219498e+02 2.4228234272537508e-01 -1.0430304014191538e-01 1.0811277599051539e-01 6.1520887946158478e+00 -8.6434185315194800e-01 3.6429656113887567e+00 1.0014282366662469e-01 -7.7457441515876129e+00 4.8095639224711384e+00 1.8323764215738674e+00 -8.3509916398875117e-01 -9.4998849562177554e+00 -4.6178291944290324e+00 -4.2761945576135112e+00 2.9912361304786765e+00 2.5592962373073397e+02 -5.5799506293632120e+01 1.6330769994128183e+01 4.3415073422724805e-02 1.3659415738513786e-02 -6.3908835322015439e-02 -3.8299316708900766e-01 -3.7535996338161570e-02 -1.1079695105077837e-01 -1.9849981813580864e-01 -6.1009319403135844e+00 8.6214747609067999e-03 2.5148578587360672e-02 3.8851533704727492e-02 -2.3312192457499270e-01 -1.9344443196130490e-02 5.2042745255570759e+00 -1.7596860155031691e-01 -6.5552557058348171e-03 -1.4340997124831312e+00 
      </Row>
      <Row Index="8">
        -2.3714187429234139e-03 8.6810472608849915e-03 9.8968720288646322e-04 5.8989936930178719e-02 -7.9752059103762934e-04 -3.6279605687306635e-02 2.0680811424870715e-02 -8.2903846445301355e-02 3.5325875874189200e-01 2.6229950543419422e-02 1.9986269327867603e-01 9.2062865781077891e-02 -2.0114143490313735e-02 -1.2272272243098357e+00 -7.0121788332976220e-02 -2.5246018089774350e-03 4.6310287878129292e-04 1.5155815499084957e-02 -1.2618740716633225e-03 2.9389473565005937e-02 -4.2519003819590593e-03 -5.4093132230957637e-02 -2.7273361509997915e-02 -2.7608074281149309e-02 2.9195411387086950e-01 8.0136843468742343e-03 -1.9519635175619257e-01 2.0106616180537884e-02 -8.4617270811875964e-02 9.9115482211904293e-01 1.1942349380506673e-02 1.7830980503928295e-02 1.3533819225581958e-02 2.2713569563515001e-02 -7.7116944891949205e-03 -4.5429183665102180e-03 -2.5699498466307289e-02 4.9155577981741194e-02 7.0050508690552890e-02 -2.0132744060070218e-01 1.3644329988842943e-01 1.8340668457229009e-02 -4.8514644358386860e-01 -1.3927640152485381e+00 -3.4595164328035964e-02 2.5988729258742040e+00 -5.3656636804518820e-03 -4.3889387810868721e-02 4.7110538768914481e-03 9.7572705731041820e-02 -6.3050567027052307e-05 8.2986966122838943e-02 1.1210336405547323e-02 3.5143798145469023e-02 4.9524807764074974e-02 -1.8827424504519530e-01 3.3349442315002953e-01 4.6733938218711468e-02 -4.5721774962232997e-01 -3.0311839162110124e+00 7.1051005328316777e-03 -1.0600697266055619e+00 -5.3626282874924658e-02 6.5333730566956572e-03 -1.3428267370327599e-02 -5.1283552458080361e-02 1.3554261179415177e-02 -7.3250199244310671e-02 -7.2739851939171707e-03 -1.0337408216962080e-02 1.7447208728792022e-02 3.0467751355275841e-01 -2.4132081892164245e-01 -6.9047199169239376e-02 8.5967526590563947e-02 3.6828128674928684e+00 -8.3716393127506672e-02 -3.4839443839236139e-01 1.0243164558843931e-01 -2.0693144059891616e-03 -2.0376166167494058e-03 -4.2818388952535202e-03 -7.6670700989711106e-04 -5.5925863582507715e-02 -2.4860350337749535e-03 -3.5505149951770947e-02 -3.7373310231744117e-02 6.8204029977929959e-02 1.6019891849156620e-01 4.4739509037423075e-03 8.6998434529534152e-02 7.8780768675805746e-03 -2.2223798738458256e-02 -1.5531126109379159e+00 -1.0775085831903963e-01 1.3764213956568239e-02 4.1931089781573651e-03 -4.4909631474497225e-02 -4.8652773112251050e-03 1.6064144676640937e-02 -3.2142907400827710e-03 -4.1812287162421434e-02 -1.9968416593863114e-02 -8.0718133945156145e-02 2.6867619426595779e-01 -1.7666223224481817e-03 2.1443022873573014e-01 8.0863028622221833e-02 -1.2878179682201937e-02 2.5225213492719192e+00 -8.5583230553651940e-02 -5.5925843259675423e-03 1.2098169723828647e-01 1.8030209596458435e-01 -2.8757626313407149e-02 -1.3750813923869037e-02 -6.0418599217150221e-03 1.0507397221139785e+00 -1.1089433078965372e-01 1.1311204450929186e+00 8.7076152367860304e-01 3.0462047051950858e-01 -2.4641670998293881e+00 -8.9685213057226854e-01 1.0949651257497989e-01 -1.3279272258995682e+00 2.2949081785121650e+00 2.7743338002079276e-01 -1.1240025269378543e-03 2.1023425775608673e-03 1.0324336063972425e-02 -1.1264413906416565e-01 3.4522196411561805e-03 9.3827471595192974e-03 -2.2978162768263338e-02 -1.0484573318768775e-01 -3.3084218139131960e-01 -5.1920354581128925e-03 -2.1899021349325970e-01 -1.3596844224800808e-01 4.8160506475428688e-02 3.0048340242067155e+00 -5.0188146101930453e-02 -1.6641618015167392e-03 1.6376573353311303e-03 1.7954505014954880e-02 5.0522761069703992e-03 -2.5250928527432714e-03 3.6050031913691678e-03 4.5099857529251428e-02 3.5188326318823543e-02 -9.3681316040654439e-02 -1.4582261569377356e-01 7.7117087786546940e-04 5.7208827036021342e-02 -4.4398873536608097e-02 3.1645858015490941e-02 1.6755056894679878e+00 1.0856816388603123e-01 -1.2225193151654601e-02 1.8225050494754189e-03 2.0935071917166981e-02 9.1271411725225848e-04 6.1563927867059352e-02 -1.8022143433875999e-03 -2.0160515548906521e-03 1.2684757384648700e-02 -6.7370640793586650e-02 9.9368860743944618e-02 2.5155999951948504e-03 -2.2632251933722569e-01 -8.7539856371199321e-02 -2.4891705269514230e-02 1.6837728489858819e+00 1.1572989529658384e-01 -1.0169783859534487e-02 1.3361476153157459e-01 1.6464260350162130e-01 -1.4287253232723264e-02 -1.4841681350513555e-01 -2.3298986407430139e-02 1.0998752672522296e+00 -1.0918486630567603e-01 1.0710953184890251e+00 5.1796521479853297e-01 2.8662030791056214e-01 -2.8234301916269877e+00 -1.6130742248262750e+00 -1.2426453165623550e-02 1.1151508972205590e+00 2.1450631436114920e+00 2.5032958514721670e-01 3.2087371526920961e-03 7.0207494730575234e-03 -4.3487450489078650e-03 -6.0062804602792640e-02 2.4321211174070399e-02 4.4115441518384922e-03 -3.0701161606997492e-02 7.6819403930191502e-03 4.0002359451301116e-02 2.9932014643549339e-03 1.0510813413640879e-01 -2.0869728489951590e-02 -2.2948397542896892e-03 2.9503836913374283e-03 -2.1653400586150524e-02 -4.9034565940413166e-04 3.1818502682894670e-02 
      </Row>
      <Row Index="9">
        1.4690522970492101e-03 -2.2496976922639272e-02 2.1094182972435319e-03 3.0916645672133026e-02 1.6302235127805008e-04 -2.2278180737786184e-02 3.6712495895144179e-03 2.7435120120916506e-02 2.6229950543460688e-02 9.0937836588535492e-02 4.9288428597583029e-03 -7.5741071503647617e-02 1.2479376063249670e-03 7.8241356121645111e-01 1.5110682075289827e-03 1.6886293497905127e-02 -8.2345514579088702e-05 1.0264146557025407e-02 1.5504632345859179e-03 1.9271648862619013e-02 6.5724570490242797e-05 -1.1532593618105909e-02 1.1639699836197656e-02 2.6830647968305199e-02 -2.1376900848025640e-02 3.5924811430835007e-02 -1.8917769850071958e-02 -3.6736828059332316e-02 -8.9212969158460054e-05 3.4911230685256811e-01 9.4719524056178644e-03 -1.0034563919667150e-02 -7.2695392765822478e-03 1.1110912120558258e-02 6.7937094545377635e-03 -4.5273636692140219e-02 -8.1371179419930488e-03 6.6794321618706964e-02 3.5211245914173357e-03 1.0903925488423072e-01 4.6110558475311036e-02 -4.4118651536252523e-02 -2.5359223804850811e-02 4.4986579111785829e-02 7.2403805986512818e-02 -1.9654745296653431e-01 4.5256411784316830e-03 -2.8711515038715829e-02 -1.6401025726868853e-02 3.5234037806079199e-03 2.4714594663333696e-02 6.5794688787138844e-03 -1.2809459563239869e-03 6.5469323660664325e-02 -7.2032665896131221e-03 7.9608846685137902e-02 3.3853696275948808e-02 6.7416142422256270e-02 -6.0995874664536751e-02 -4.0741315266284589e-01 1.7664779572256199e-02 -9.8010852092254552e-01 4.9323431604626100e-02 -7.1356837176252685e-03 1.2292490090762777e-02 2.5338299492790151e-02 -2.3159927921849972e-02 4.7941558777644250e-02 3.7262786029917411e-03 -7.5891886664331304e-02 -2.9141515736342488e-03 -7.4643256010009651e-02 -9.5587362749125174e-02 -9.8994527827426071e-02 3.2669380610285237e-02 4.2181500236551228e-01 -2.2428974837898158e-02 -5.4822078666809126e-01 -2.9970872033184826e-02 1.7291662135315588e-02 -5.2769835560437690e-03 -2.7372261292799113e-02 4.9079541034768937e-03 -3.4013271999534411e-02 7.1008383660394066e-04 -4.4179111208702895e-02 9.0162085740100872e-03 -5.3654987017370592e-02 -3.6745556542237025e-02 6.0851988609929387e-02 -9.4629812586930068e-03 -5.7758488106801398e-02 -7.3462414995812200e-02 1.1105712458574715e+00 7.7157803802996860e-03 -1.2767251488395859e-02 6.5716545338406580e-03 -5.6750578906385699e-02 -3.0909571360676963e-03 5.4943802232305800e-03 2.8241378175560168e-03 9.0464267907755039e-03 -7.5393522810490998e-03 3.0131123310890073e-02 -4.5345519858469137e-02 -5.0721233536617845e-02 1.1547283680589659e-03 1.4792462051735722e-01 -5.1646543318397256e-02 -3.9302007745877710e-01 -1.2909006500288922e-02 -2.9496018866581597e-04 5.5146520794865622e-02 3.1551362916944370e-01 -1.5077988609624407e-02 -2.9720722253817194e-02 -4.9318875144536735e-03 4.9129543944645426e-01 1.0884454001836791e-01 -1.4543464782173512e+00 2.7720559091531871e-01 2.3345322255610143e-01 -1.3638622531970255e+00 -3.4550759655741281e-01 4.6284082806265073e-02 4.0802675113189224e-01 8.7279094946022440e-01 3.5749935349137457e-01 -7.5274350678175561e-04 1.1351010076810077e-02 5.5873881388666139e-03 -8.6195231010626205e-02 5.3069375908708805e-04 -4.1926302235519478e-02 -1.4227983582187076e-03 5.9091013293906869e-02 1.3848516855855888e-02 6.2962282321823257e-02 -7.6219338310877516e-03 1.2349207550059171e-01 -1.2941999320091761e-02 -1.2501989391547710e+00 -3.2871281546640319e-03 4.2959465864447766e-04 3.6993227181639335e-04 2.8578518532335784e-02 -3.6464163966436268e-04 -1.4990023499340387e-02 1.7878744330623864e-05 1.7953663899525612e-03 -1.0822007648051774e-02 1.5502360742859267e-02 1.3925273294954023e-02 -1.3550147029983486e-02 1.8441392125377876e-03 1.6547336273880886e-02 -3.2502665534107911e-03 -2.2492517404720402e-01 8.0003983396398012e-03 1.0230959663851125e-02 -5.8535607886396959e-04 2.3571579343201532e-02 1.7741685682726989e-03 3.6488907097132962e-02 1.2428407806251533e-04 -3.6118338100226410e-03 -3.0908868986304627e-03 2.1892800333341844e-02 -8.1520338625265532e-04 9.3236173472034597e-03 -2.1754175810608324e-02 5.3115256583134429e-03 -6.8541774163766167e-05 -8.1909386059447797e-01 1.1415359884274390e-02 2.7732486165353648e-02 5.4485343763682623e-02 3.0740824459111549e-01 -9.2630734562465268e-03 -1.4655197298169576e-01 -8.0100768135366492e-03 5.6836602449720242e-01 1.0401985568210970e-01 -1.3811996226848713e+00 2.7536850507182553e-01 1.4700940334973628e-01 -1.3829725129721608e+00 -1.1745984955850108e-01 1.1009929619661228e-01 -6.3563279617476809e-01 8.7386586013202683e-01 3.2230648201630552e-01 1.1438946991599868e-03 5.3455074735405221e-03 -2.0271479524919516e-03 -3.9674091442271478e-02 3.2618315447879602e-03 2.1658852529894529e-03 6.7698375419994062e-03 -4.7149803646808989e-03 -6.3292755538947587e-03 1.3816720955489125e-02 4.3375165666935129e-03 6.3690697861806589e-02 2.2608374862135633e-03 6.2655082117484958e-03 -2.1400878735249292e-03 2.9045931917958318e-03 4.6643903012772443e-02 
      </Row>
      <Row Index="10">
        -1.6985470810709780e-04 -2.1819440031572332e-01 -8.2035327563930345e-03 7.3885075734562725e-02 1.2290452592185334e-04 -4.1899210563844172e-03 2.8031228309385037e-02 -9.5692599077621898e-02 1.9986269327961778e-01 4.9288428603282419e-03 1.3014087391174711e+00 4.4702629627857809e-01 1.1409455322069828e-02 2.9809690215604974e+00 -2.7220789058344952e-01 1.2710637758700698e-02 -1.6430807654681800e-03 -2.8046667736481498e-03 -1.9177717135805926e-03 2.6477712586952615e-03 7.2315487709559819e-05 -4.2382022365461937e-02 -2.1343114530404717e-02 2.4384964666710085e-02 2.1344128494473955e-01 -1.4310253962822171e-02 -9.7004161409713574e-01 1.8975658825314046e-01 -3.0022734073958442e-03 1.2118625441555295e+00 7.9209838918362960e-02 7.6449831811036831e-02 -4.8856816185647222e-03 4.5714049210836799e-02 8.1362206019123494e-03 -3.4447169548583637e-02 4.1332671182758157e-04 -6.4495476253898065e-02 3.4527916063802178e-02 5.3339073131854597e-01 -5.4823357965978936e-01 -4.0265707819679225e-02 -1.5072383129561184e+00 -2.1034892053182599e+00 2.9348398629779164e-02 6.6940401575031707e+00 -1.2078718056064619e-01 -5.0258043880288816e-02 3.6683940274169491e-03 -1.2665290086948960e-01 -1.4279058345697364e-02 1.9509381238967849e-01 9.4888592730845520e-03 -1.1176482532790941e-01 8.7342283049803029e-02 -2.1153506514788756e-01 6.1116726848640196e-02 -1.8393600062828419e-02 -1.1432181425985286e+00 -6.5711415707006147e+00 6.2530114955900579e-03 -2.2416964616015562e+00 -3.6855567616602891e-01 -7.3389235447011814e-02 4.0060800737188040e-03 2.3725954343785283e-01 6.1693795028934005e-03 -2.7459073580619475e-01 -8.3017291927545613e-03 1.5156252263673567e-01 -9.5207198635706203e-02 -1.5257762284185183e-02 1.9293018017734009e-01 8.3037679754302193e-03 -7.4757630218494864e-01 7.0536434932612710e+00 -4.5152601948291085e-02 7.1158098411497406e-01 4.1022269477276130e-01 1.3046268707443509e-01 5.0939920665188185e-03 -1.9909139732703390e-02 -2.7349087753543878e-03 1.8813644418772035e-02 -3.0498138915813986e-04 -2.7175029637420814e-02 -1.4090669300830250e-03 -9.4979345669336190e-02 2.4013185083771998e-01 -6.5269303119154798e-03 1.3069417634430053e-01 2.3806044341683313e-01 -2.4955098935654951e-02 8.6108097694936632e+00 -2.6589290642567381e-01 4.5277453556745839e-02 3.1925094874662822e-04 -4.0015343436937467e-02 4.7779019798813811e-03 -5.2883752799576245e-03 2.1825095241196626e-04 -3.5110702325983852e-02 1.0433961211172391e-02 6.5033206779296249e-02 3.7332524547166573e-01 6.5015357379397919e-03 6.7521540027539517e-01 3.9322574615466732e-02 -1.2834568644438937e-03 -5.3987648809907114e+00 -1.7124086969938346e-01 9.5738985259533060e-04 -6.3088046891206701e-02 -9.8190358533341493e-01 -9.9404253312122534e-02 -1.8649734261625320e-01 -2.1210325706356600e-02 -6.9226047304589633e-01 2.9333416578003790e-01 4.7092758908228505e-01 1.5889238150235840e-01 2.5939381578652687e-01 -6.7293985645140086e+00 -1.7718030376339744e+00 -1.2308070678968966e-01 -2.9198430147118870e+00 2.0539926105683151e+00 -7.4154329770007421e-01 -4.6796875539190669e-03 -6.1575566645264757e-02 8.6176068175200897e-03 -7.7741039363908887e-02 1.9156402762673978e-03 8.1896032184659823e-02 -2.4546394685954792e-02 1.1494060798826045e-01 -3.4826493903791805e-01 -1.5308829279609137e-02 -5.7822148217112246e-01 -6.0683558761820544e-01 -1.1734451214056030e-02 -9.3725940278624762e+00 -2.3621302146214435e-01 1.8489997855422158e-02 -8.9442844148187109e-04 -1.4955567760829414e-01 9.6029292948364431e-04 3.8427784060228398e-02 3.1644675351953503e-04 2.6555503719784847e-02 3.4332390676549765e-03 1.2470651770964736e-02 -1.0725165344165649e-01 7.2505873205760268e-03 4.4761670907608730e-01 -2.1779724764516173e-01 -4.5865456038650873e-03 -3.8258895863807538e+00 3.0807003860691606e-01 -3.3534461926584158e-02 9.0631453615430679e-05 -1.5401166104227038e-02 6.3598287261353017e-03 -1.8845890967569806e-02 6.9746676312806345e-04 4.6155059979133627e-02 -1.0241875636563036e-02 -5.0946242589905752e-02 3.7279388816977344e-02 -9.1144100793848215e-04 -9.4049337021833002e-01 -4.3595768067013729e-01 -2.0277514307937672e-02 -9.6507362962517220e+00 3.0786489336448070e-01 -5.9490353882162256e-02 -6.9733625378287686e-02 -6.9073723394807507e-01 -8.0050772023080807e-02 -3.6702979411991787e-01 -1.7363894497989654e-02 -6.5846054052194791e-01 2.6072279341307647e-01 7.4324585151876033e-01 -5.0399856474998350e-01 1.9916327935136646e-01 -7.7159202387659418e+00 -3.3869780665666518e+00 -1.3279446687498891e-01 3.7539777404447676e+00 1.5029664134165595e+00 -6.8462722783082997e-01 -2.4471418982120463e-03 -1.0551524864615547e-02 6.1875354792226174e-03 1.3297382763951520e-03 4.4349939947654574e-03 -9.3914546628394793e-04 -9.2688366221878558e-03 -1.4805967224845701e-02 5.2197816282765944e-02 -8.3451360776397483e-04 5.4477195868272887e-01 -1.4901677875791669e-01 3.9500548539343414e-03 6.3733247748096036e-02 -8.6186166173181505e-02 -8.1620476424477673e-03 3.2206658509128816e-01 
      </Row>
      <Row Index="11">
        -1.9812737061492669e-02 1.6010248283244521e+00 -1.1491983235824253e-01 2.3565336608103546e-02 9.2971350321011167e-03 -3.7990461897919447e-01 1.2532052691355315e+00 -4.8820551519891922e+00 9.2062865759193674e-02 -7.5741071507195556e-02 4.4702629630647550e-01 7.2541463333486263e+01 6.1952052331920981e-01 -3.5623982537472330e+01 7.4872043104203501e-01 -8.8977240761545962e-01 -1.0297537875377571e-02 1.0752679356212349e+00 -2.5052855610184416e-02 -4.3436390444399800e-02 8.4683918832792089e-03 -1.6987863249675433e-01 3.2648786136070740e-01 -1.2940410776094877e+00 -2.4030692015408965e-02 -2.3116305632893755e-04 -4.6363167225746427e-01 3.0656663896700749e+01 1.3116241317007125e+00 7.2467877328695849e+00 -1.4095344495565949e+00 1.1838040247780177e+00 5.6337019150679124e-02 -1.7811585312514975e+00 -1.0677110989843076e-01 -3.4645506423804789e-01 -2.6905360303486558e-02 1.1326842424539407e+00 8.6774989142382863e-01 -2.7728417075915832e+00 -9.2421141892234393e-01 3.5399251270923110e-01 -4.3466174798294466e-01 -1.0635416201159383e+02 1.1052507572819694e+00 1.2422272895914257e+02 2.9656928265726918e+00 2.5977294985817330e+00 1.0521421227747280e-01 2.1689024227714029e+00 -1.2130941397793937e-01 2.4217914205208063e-01 3.4913914577670284e-02 3.9578465875704000e-01 2.4704553821803925e+00 -1.0180296789969903e+01 1.4093839405682140e-01 2.9307617721645579e-01 4.6564373912228041e-01 -1.6311043955357110e+02 -5.4291664468638290e-01 -5.1332529683892218e+01 1.2947055665724627e+00 6.1422942262195734e-01 1.3354601115531661e-03 -1.5227690636422651e+00 -2.3145943909988722e-02 -1.6974252722974353e-01 -2.5031444856855684e-02 -4.8595876605561894e-01 -2.5755630135675087e+00 1.8410958873089619e+01 -1.0763069728110783e-01 -5.5011674519194254e-01 -1.5108811774614646e+00 1.4165791649493229e+02 1.6857060778455668e+00 -2.6997255739597108e+01 -3.0199677128556766e+00 -1.2435709044109915e+00 9.1124359463542665e-02 1.4472652907083683e-01 3.1383838592511787e-03 1.3337184448243261e-01 7.1557378068401994e-03 -6.6770389226955232e-02 -9.6543390786962391e-02 2.0128103635177252e-01 2.1104214951223496e-01 3.1223690392484932e-02 2.5010613688919769e-02 2.7975559505508883e+01 -1.5775190519402968e+00 -1.2841294830781393e+01 1.7168803521237095e+00 9.2881475169136563e-01 7.8514462114355185e-02 5.6532531900511418e-01 1.3621759851502338e-02 7.8228674680586516e-02 1.5629652462363832e-03 -1.6727474070854420e-01 3.4867263763403289e-01 -4.9318831921660315e+00 1.8266782513298782e-01 1.9166948057872574e-01 4.5100835271827244e-01 -5.8169606852340809e+00 -2.5188455540682928e+00 3.7239014247855522e+00 -6.0191940586628623e-01 -1.7432760479436943e-01 -3.8388338685976836e-01 -7.3461876046230302e+01 9.1478292414453377e-01 7.1850502731430206e+00 1.2843914874667821e+00 -1.1003283118090476e+01 -4.7147224233019820e+01 2.9136848550956478e+02 5.8302126276626165e-01 1.5670643558635975e+01 9.7907719634988567e+01 -1.2947784001117151e+02 1.1783118429813215e+00 -2.8031999007615923e+01 5.3719272729585946e+01 2.4519571795459029e+01 -1.9778508238066045e-01 -2.0119271471519911e+00 1.3494273331709622e-01 -1.0327522573795349e+00 -7.2076253990692979e-02 -4.1825009225461771e-03 -1.2413295688287742e+00 1.3039296867124373e+00 -2.4701296158229058e-01 4.5498819808936330e-02 1.4545866921669381e-01 -1.0050507185222898e+02 4.8201067475996173e-01 1.0289862784184669e+02 4.6238274522433551e+00 2.6907390356002212e+00 2.5098230360231091e-02 6.4162672220024475e-01 -2.1278160627976418e-02 2.2151627348034109e-01 2.9192323433962306e-03 8.0888374251352646e-02 2.2724318220097012e-01 -3.3456062736390777e+00 9.7674087618416366e-02 9.8435698254457533e-03 -1.6751120460964533e-01 -2.0168580725023730e+01 -6.0628270920442073e-01 5.1118121373842399e+01 -1.5469911458292862e+00 -9.8598877611418345e-01 6.0777935193170318e-03 3.9217197817905003e-01 -2.3311982563122138e-02 -7.4136790897943908e-02 -3.4477046147393989e-03 3.0158888410325949e-02 -7.5473395539131904e-02 -2.6039442670898669e+00 -5.4771330774868510e-02 5.8827432453303158e-02 -4.3808391504812633e-01 -4.4543666535829729e+01 4.3059610928511782e-01 3.6326866678048646e+01 -2.0410522196067884e+00 -1.2839650460670464e+00 -3.9844469139763472e-01 -7.7285165920137615e+01 8.7442671371486336e-01 6.0671957864494299e+00 1.1979366268026124e+00 -9.8892232503016366e+00 -4.7948374099985827e+01 2.9881689101226715e+02 -3.5533926191476473e-01 1.6064127523886256e+01 9.7905035779013758e+01 -2.3058414497997452e+02 3.2305870172555133e+00 8.7084172993152265e+01 5.9571278279752605e+01 2.9559316733525236e+01 -5.1351204173506915e-02 2.1705145652967783e-01 9.2427394295096457e-02 2.5263466624728270e-01 1.2668597705755565e-02 4.5989184536604416e-02 -2.7902794137517295e-01 7.1697191557260798e-01 1.5534074377566265e-02 6.6558333297253407e-03 1.9078531719046260e-01 -2.8839467001555683e+01 2.8849858766034292e-01 5.2536255757874395e-01 6.1701812020535263e-01 -2.4027672103984288e-01 -2.5508164249462041e+01 
      </Row>
      <Row Index="12">
        2.5054877031409073e-03 4.3026489861708025e-02 -4.2487882258275718e-03 9.2019456306402472e-02 -2.2653185773305381e-03 1.0570368698023325e-01 6.6784575921614298e-03 -7.6061235823791457e-02 -2.0114143490473337e-02 1.2479376062377590e-03 1.1409455321955031e-02 6.1952052333182639e-01 5.4025608746255349e-01 1.0827099074308535e+00 9.4816659063888531e-04 1.2735127652306680e-03 4.9381356169564961e-03 1.6212164236867121e-02 2.5290343648650647e-03 5.2518537464005609e-02 -5.3475431304865024e-03 5.2614484046007250e-02 7.7520472338999946e-03 -2.5689381048163096e-02 6.4472911249522771e-02 -5.8986496345445286e-03 -1.8981025144566926e-02 2.8496689054601898e-02 6.3820811763584862e-01 -1.4332295832438167e+00 -2.2352727174541433e-02 -1.8090813139786796e-03 5.2903114472915777e-03 -1.3448749520394127e-02 -9.9199924904289972e-04 6.7737226126399874e-02 -1.1568127253563584e-02 2.8930466616612666e-02 -1.2870540743031983e-02 1.9500844381161087e-01 3.0498120747299090e-01 2.5053981210714400e-02 -8.9301048589954385e-03 -8.1461642545570467e-01 -8.9106562084992652e-02 -3.5810751708681927e+00 8.3813127477737032e-02 -4.0992072850602815e-02 8.8242483865862142e-04 5.9088750195046794e-02 -4.6447283237455329e-03 5.7041846190081388e-02 -9.0409032062648757e-04 -5.5280217927952909e-02 -7.4292497599090720e-02 6.8858165220375189e-01 6.0109195587494287e-02 3.4749010861077768e-02 -1.7387070027064785e-02 -6.5147012190233178e-01 3.7400098474414767e-01 8.5302190783655618e-01 6.9027772153468059e-02 -2.0613702778192161e-02 6.9723785925181331e-03 -6.7606024775554052e-02 -1.8628264827820321e-02 -9.2035199783316576e-02 2.7563386592667147e-04 -2.8376307325249130e-02 4.0607660215906449e-02 -7.4885197011167570e-01 -8.2868008687262795e-02 -6.2802132595639285e-02 -1.9939895861097456e-03 -3.7646384512152187e-01 8.2365368849497328e-02 -1.9893514393708607e+00 -1.5710934508863739e-01 9.9538248367994853e-02 -1.8086570356905341e-03 -1.1680689763224755e-03 -1.0276557728766387e-03 -8.4496557813149090e-03 3.8632454627393468e-04 1.6711645230464603e-02 2.8824470109005018e-02 -1.0156640459210542e-01 9.2356504578821025e-02 1.7451127529168820e-02 1.0043583579299742e-03 6.5203054035363039e-01 -4.7287443509881061e-01 1.0408602854621307e+00 1.9707334298127183e-02 -6.2011509218387884e-02 -2.9451488038929746e-03 -2.6380042792717939e-02 8.7610323913347391e-03 3.3359599337759782e-02 -1.6307654934662966e-04 6.1055591992874546e-02 1.2747001747833608e-02 -3.7110529417390237e-02 1.6411659950894533e-01 -2.5519890550073983e-02 -1.5461444435609345e-02 -3.1702932145845075e-02 -3.0181080443429975e-01 -3.7827749008584988e-01 6.0168811530880717e-03 -1.8464377970803851e-02 2.2544889607040087e-02 -9.5597303487303942e-01 1.4571223817169859e-01 2.1764193105293081e-02 2.8237319848175714e-02 5.9079527237663088e-01 6.5335473095834584e-01 5.6239425739586124e-01 2.3260402923880591e-01 1.4671180177048644e+00 4.7529788846113719e-01 -1.3337623564493413e+00 -8.6995013331606186e-01 4.1996859667206579e+00 -1.3043305294426568e+00 1.7584962334031147e+00 -1.0281235300110670e-02 2.6814036764514382e-02 -1.3430987806845603e-02 -9.9016337226868076e-02 6.5527192601422032e-03 1.1290290806139865e-01 -2.4551631313253879e-03 3.7127152169185607e-02 -5.8647009947207125e-02 4.9920408028137360e-02 -9.5155627991235798e-03 -1.2813706902323443e+00 -5.6637108847147721e-01 -5.7441514612965676e+00 6.4379073104614964e-02 9.3412435663290938e-03 -3.8609134321681989e-03 8.5202824890137641e-03 -5.5686360107953300e-03 -2.8499160640523290e-02 2.5864832436612913e-03 3.9727505387736686e-02 -1.7219817877544660e-02 4.4506689015992862e-03 -5.1803790874457092e-02 5.1617519580421855e-03 -7.7842796122380362e-04 -1.7651570088552049e-01 -3.1903280584674171e-01 -3.4649643604868885e-01 -1.7974049614018883e-02 3.3106151230180153e-03 -2.3860425075767841e-04 1.3473786236082308e-03 9.9312031177747721e-05 4.2494859388663223e-02 -1.2496175302253471e-03 -1.3899158112145923e-02 -8.0600615862667924e-03 7.7704147643698346e-03 4.8985995908332518e-02 4.8635006071841621e-03 -1.9831961911312895e-02 -7.7865788658777024e-01 5.5304806564011155e-02 -2.3059299433384695e-02 -1.8208346976261391e-02 5.0359614658654225e-02 1.9003460731520212e-02 -1.0200232929454720e+00 1.2346258828251977e-01 -1.2107338033894979e-01 2.4021724915464653e-02 6.4068195904233072e-01 6.3094054988097892e-01 7.2728513503577830e-01 4.6288549140069268e-01 1.4966612230663445e+00 4.5140189678140968e-01 -2.6972966111642496e+00 -4.7032053062173751e-01 -3.9228328201763114e+00 -1.2206510250108569e+00 1.7761346120480950e+00 -2.0066702243315970e-03 6.0532780654617892e-03 1.0542410131855549e-02 -4.2886167529636178e-02 1.0250310427294242e-02 -9.3900159009597303e-03 1.4011458964301098e-02 6.0848128216968002e-03 2.0407675089155468e-02 8.7616378451666234e-03 4.9371153604185411e-03 -3.0738328439364260e-01 8.3647098815525248e-02 -3.6724021388981551e-03 6.1475175564196152e-03 1.6583098918363393e-03 -2.6890372801089185e-01 
      </Row>
      <Row Index="13">
        -5.9320158044943838e-02 8.1885626174862303e+00 -2.2267367995122589e-01 5.7133462196084954e+00 -1.1677035519798887e-02 1.3361622433110654e-01 6.3942581088443591e+00 1.8561464374312845e+02 -1.2272272243385276e+00 7.8241356127753647e-01 2.9809690214778932e+00 -3.5623982553633738e+01 1.0827099073451478e+00 1.5580711798826600e+04 1.1369730248087516e+01 6.2842725720648316e+00 7.1692066161332946e-03 8.5348943743185526e+00 4.1970434382461175e-02 9.5008474443125586e+00 2.5228177789970659e-02 6.1246612138062095e-01 7.2186612703446329e-01 4.9446354691565830e+01 1.5302523113580146e+00 -1.3723814043684529e-01 1.3931050909158798e+00 1.3693912497240941e+00 1.2614673786692054e+00 3.5963678440220174e+03 -1.0346092716224316e+01 -8.8366909598763517e+00 4.5850092618445615e-01 5.7493630666082396e+00 -3.2303014243329303e-01 -9.4831870336540369e+00 1.4194643647816729e-01 1.4615969143392249e-01 -1.1695636795949671e+00 3.1542746548816660e+02 -3.9888665251735951e+00 2.4625802775135153e+00 2.1812750864219037e+01 -6.7120392504799042e+00 -2.4873775588213958e+00 8.8145040715357391e+03 -1.7014429823570148e+02 6.9957238910800932e+00 7.5446237474239863e-01 1.9075519197384768e+01 -2.3458714600907049e-01 3.7026842673674381e+00 -7.8176077196046090e-01 2.3771897938628128e+00 -2.2621476116611685e+00 -4.0730997020693161e+02 -8.5165328772529918e+00 9.5456359414208212e+00 8.2228862817444039e+01 -6.9700105710837738e+02 -9.9444561123474209e+00 -1.0065514686938814e+04 -3.1252201761771664e+02 3.0965987318016715e+01 -9.5821141708655588e-01 -5.5904438689536171e+00 5.0219409808389925e-01 4.1963420368348636e+00 7.7682877041323761e-01 -5.6249067967981397e+00 -1.1581297502403309e-01 1.1586401768144424e+02 1.4183676096971171e+01 -1.1170495426006948e+01 -9.3532547735366890e+01 7.3160710619140104e+02 1.2872090529096042e+01 -3.6288342482914622e+03 3.5697220867782261e+02 -4.0988454921838645e+01 -1.6708844955371852e-01 1.1491327179542107e+01 -1.7266338004201429e-01 2.3017326546722300e-01 -4.9139615690638183e-02 -1.3574746236192838e+00 1.4359142688645647e+00 1.1230252929491019e+02 7.8424767262963400e+00 1.2015356748466690e+00 -2.6409109682335101e+00 3.5579931675524691e+01 2.8381395399218365e+00 6.0919117484767894e+03 8.1291345597574889e+00 -4.3554839418304390e+00 -9.1410374526155724e-01 -5.8750812593602824e+00 -5.3726207272518089e-01 8.5531014662148319e-01 4.3637979743398878e-02 -2.5299530932734520e+00 3.0257833488857715e+00 9.8109056520836077e+01 9.3661444403860088e+00 -2.5593608639752237e+00 -8.3432250655256439e+00 -5.6443320616906362e+02 4.1298122519738811e-01 3.4606073961427537e+03 9.5195829159373432e+01 -2.4256721188562906e+00 -1.7188490813856856e+01 9.8777997103615959e+01 -1.5159971483105608e+01 7.0918890788948559e+01 -5.1240603116067831e+00 -2.5403417098518563e+02 3.8192743916518890e+02 -9.1226154616718532e+02 -1.5362789864247043e+02 -3.5499123362182951e+02 -5.4951261820203831e+02 5.5308977499668117e+00 1.8441956299436971e+01 6.4910079274166492e+02 -1.4677067620643334e+03 3.6785759964873660e+02 1.0982465033694933e-02 1.1645178493511338e+01 2.1140986251253790e-01 -1.9170805321077939e+01 8.2514226883865172e-02 2.3492158235319405e+00 1.3376442746253083e+00 6.8921370463486227e+01 3.5103206286218231e+00 3.3608122481428993e-01 -2.3117843687103914e+00 7.2934294653287822e+01 -3.2379703354647376e+00 -3.8750776366001992e+02 1.9595687224347380e+01 -6.6226687009235512e+00 -8.9415490600817521e-02 -7.6670371839935991e-01 -5.8872169887875803e-02 -7.1811762296329187e+00 7.9977777638995939e-03 -9.5254736401725881e-02 -1.5565573954227414e+00 5.8925042155982055e+01 -9.4846594595896505e-02 7.9880296677161400e-01 2.4286047850144667e+00 2.0016106718155726e+01 -4.1350627463180378e-01 -1.2753843432143080e+03 -1.7769129261399719e+01 1.1416781533120641e+00 -1.3716824389117255e-01 2.4004819783272069e-03 1.4417872943807031e-01 -2.4560244809268683e-01 2.0369612672216722e-02 -8.0945917416427715e-01 -2.2441699569741047e-01 -2.1291954659300393e+02 5.9077447790228721e-01 1.3638109723320548e+00 -6.0790480522982748e-02 -5.4063896461200443e+01 -1.2436887130843299e-01 -9.3256633497749735e+03 -8.8234205876628984e+00 5.4520721954399232e+00 -1.7750953662294037e+01 9.5735753144929461e+01 -1.5310415073352907e+01 5.1179388516575898e+01 -4.8342231109980931e+00 -2.5657599626181656e+02 3.7796488351540933e+02 -1.0229228475370891e+03 -1.4578005532723532e+02 -3.5467971570589896e+02 -5.4100211423110886e+02 -6.2622323193355658e+02 1.4010580854875332e+01 -1.3203215729095136e+03 -1.5032833575755790e+03 3.5055671509273077e+02 -7.8081488114868591e-02 3.6418163273949036e+00 2.0391773123823172e-03 -1.6510238026491692e+01 -2.0876636811659555e-01 -1.9347256150340425e-01 4.9962222481590235e-01 -5.8301830630847377e+01 9.3863815859895272e-01 3.6117704409875701e-01 1.3274937788801555e-01 2.0221232172836991e+00 2.0436480820839220e-01 7.4843288798746940e+01 1.3969260730526107e+01 1.2310399543277555e+00 1.7531343448103069e+01 
      </Row>
      <Row Index="14">
        -1.5003661519493172e-03 -5.3060169605462404e-01 2.5347884109608305e-03 9.9967105926352315e-02 -1.5280233230382688e-03 -1.7215639860615140e-02 -1.2570882820587059e-01 -9.7675298934816718e-02 -7.0121788332163829e-02 1.5110682081287408e-03 -2.7220789058282086e-01 7.4872043093754570e-01 9.4816658991048186e-04 1.1369730248030919e+01 2.1172048927873477e+00 3.0139518613854221e-02 3.8892729520972891e-04 -1.2100988290158879e-01 -1.1283101929714483e-03 -2.1351457829646973e-02 1.4370468560438191e-03 -1.5894945390752022e-02 5.3147722267608111e-02 5.6024659729104087e-02 -3.3962364433118071e-02 -7.7405134767748168e-03 2.6124400128699565e-01 4.3021916343679822e-01 9.8393331355287883e-03 -8.7300903712173401e+00 -7.7456707917017542e-01 -3.4756440855970727e-01 1.1935038394041746e-02 8.0789969343169760e-02 9.5888212846308284e-03 -1.5356671381344439e-01 2.8374977134185894e-03 8.2890133775974983e-02 -7.2881601930151196e-04 -1.0870462265571768e+00 7.9860956754430057e-02 5.2508547357661473e-02 2.4459049236514882e-01 -1.0419863444848865e+00 -2.1145813993742824e-02 -6.5854476129708843e+01 6.6100657956962669e-02 -4.9840382527534852e-02 1.2688595978978092e-02 -4.7211972736273516e-01 5.7409719498733580e-03 -1.4399168127330092e-01 -1.3818100124869069e-03 2.5801338957025621e-01 -5.4544168921251364e-02 -3.0947032522235531e+00 -2.8679992188299433e-02 8.4936752351987582e-02 3.1222186036724475e-01 -1.4381174248059980e+00 -1.6895892268169124e-01 7.3135806941427717e+00 9.9642912454400956e-01 9.2067748410911504e-02 -1.6863187421693633e-02 6.6104326491945420e-02 -7.7089229312470552e-03 1.7786484223525492e-01 3.5230020215020752e-03 -2.5430562821173541e-01 7.0771207168820710e-02 3.5673209368323033e+00 -1.6606180081824611e-02 -9.3725853192169944e-02 1.9491936875347393e-01 3.2418238784662357e-01 2.2101271890382279e-01 -3.1968872994380817e+00 -2.1040013908025359e+00 -1.4234111075664913e-01 -1.3386663507238133e-03 -2.8702061522192890e-01 3.2015322923075852e-03 4.3690444912457362e-02 -2.6225705167587025e-03 3.7418947517825318e-02 -3.1283905182064586e-02 -2.4581485088567834e-03 -5.6203909494973281e-02 -1.4657898091657920e-02 1.2206201182864679e-01 -1.3405253658566066e-01 -7.9066849361692018e-02 -4.3989633022834155e+01 1.8835561956053304e+00 -7.9064846500916386e-02 -6.7824515447100341e-03 3.9069099604187019e-01 3.0987940208113719e-03 7.2712533974455762e-02 -7.8081600465301224e-03 3.3435291011970771e-02 -6.2429464262723972e-02 -3.5269196988526597e-03 -1.1723279389091647e-01 2.8443182545957808e-02 8.3488226366644852e-02 -5.6890909520052535e-01 -1.5877948158697949e-01 5.6191861504754002e+01 1.7072538686841581e+00 5.2884095587125701e-03 8.7986938284034394e-02 3.9000393022354146e-01 7.6665480074689193e-02 -8.8385613558613130e-02 8.3110590474159168e-02 9.5430782069026865e-01 -1.1793808732658924e+00 9.8441549390385230e+00 1.0300257719097796e+00 2.5419484949474218e+00 -8.3355547797963112e+00 -1.8961619067857862e+00 3.9355550927135063e-01 3.1087687519335560e+01 -2.0604906878412046e+00 5.4150343785976425e+00 3.2113203395827089e-04 -3.0525239350202649e-01 1.7220921809849863e-03 7.2344430439413132e-02 -1.9286179636926219e-03 -6.2191107971936235e-03 -7.9140361085641736e-02 -2.5232195766037718e-02 1.0751890411010552e-01 2.2392620957114862e-03 2.6679991227666067e-01 -1.8797377527603514e+00 5.1997766097963694e-04 6.0706064384971810e+01 1.8704698881548962e+00 1.4316290186795541e-01 1.2182849693023845e-03 -9.5932408966341587e-03 2.2430526951619737e-03 -1.0726985469152613e-01 1.4820435464325669e-03 6.7474411441976771e-03 2.6817765613865042e-02 1.1608083088459864e-01 4.8576540573763344e-02 -3.2358053109242002e-02 -1.8817593934387356e-01 -9.9180249208650373e-02 -7.0021103187415772e-03 9.0347714645214978e+00 -1.9563293962189507e+00 2.0887424395361037e-02 1.1033596911031486e-03 -1.7454641202111709e-02 -2.9658947732464115e-03 -3.3887197108776704e-02 3.6806727837002742e-03 -2.8587584392719981e-02 3.3961450663964873e-02 2.2564899314890852e-01 3.3556386770220315e-03 -5.1170576322877775e-02 1.2848326046328998e-01 -2.3993918500472744e-01 6.4954727901584824e-03 4.6285445935367299e+01 -2.1208657710941274e+00 4.4468519901774625e-02 9.2739177720104787e-02 1.0454696426296568e+00 8.3635792428396569e-02 -1.9557793741224017e-01 8.2981618470511428e-02 1.0382629761110869e+00 -1.1249485392528058e+00 9.4193122786186372e+00 1.1738826029126586e+00 2.5557992123976767e+00 -8.0092174816660489e+00 -3.2698489822455783e+00 3.3279653394297037e-01 -2.9731713793237233e+01 9.4155435361388484e-01 5.2079226737200290e+00 5.1712037297269031e-04 -1.2274543851946658e-01 7.9896717567410995e-04 -3.9193578324657627e-02 -1.3628629403806239e-03 1.3322712985321598e-03 2.1179211578491983e-02 -7.0990583476634866e-03 -1.0869660837366547e-02 -7.7658155370775167e-03 -1.5306443930060465e-01 -3.4453270055095897e-01 9.9967820764957499e-04 -4.2187899071956858e-01 6.7566508396907432e-01 1.3184868684438390e-02 -4.4538198048578420e-01 
      </Row>
      <Row Index="15">
        1.6158645169263020e-03 -1.9262172291503257e-02 1.3106437589323148e-03 1.8271773135195277e-02 -4.3917956431887504e-04 -1.7975084597515928e-02 -6.2276641677156117e-02 -1.0119653858427349e-02 -2.5246018086079423e-03 1.6886293498035609e-02 1.2710637758119203e-02 -8.8977240763255994e-01 1.2735127655052469e-03 6.2842725718379597e+00 3.0139518612045890e-02 5.2877146725626822e-01 -2.0604863666262574e-04 -7.0712327624329580e-02 1.5442792914444957e-03 5.9280645005316462e-02 9.8100200233689112e-05 -2.2530940834703882e-02 3.1941533524712684e-02 4.8478389807954159e-02 8.5425465816717835e-03 6.4910798607368085e-03 3.1616359438869771e-02 -2.6847347056367155e-01 -2.8995563621556024e-02 2.2819395066298931e-01 -1.0444020891067858e-01 4.0059207558176779e-01 -3.2215590423638782e-03 -1.8454479849307559e-01 7.7451317127635541e-05 2.0898823403979472e-02 4.3995760930988226e-03 1.9046247226311985e-02 -9.8850378244568785e-02 7.1900641815308219e-01 -4.7078445171431685e-02 -2.8199565720218974e-02 9.6048317596051591e-02 3.1103693936626469e+00 -2.3727978068830802e-02 4.3199149272102702e+00 -3.3925052994259441e-01 -5.4556450017911255e-02 -6.6924906970077247e-03 -2.8760864160782534e-01 1.5679937284795008e-03 1.0988262904903114e-01 -1.0653572104374494e-03 -9.4838928500146941e-02 -2.2897926093458898e-01 8.7724845934887963e-01 -2.1210369854727656e-02 2.4335942319930901e-02 1.0462099532030927e-01 3.0669502240430195e+00 -1.5511823793248787e-02 1.8665744947832614e+00 -1.1539171619544347e-01 9.3299860788442213e-03 1.0828954511497103e-02 2.8857639749553299e-01 -4.0601193072001855e-03 -8.9572295774457675e-02 -6.9192489376567173e-04 5.6545042937302885e-02 3.3507133618454810e-02 -1.2584028887097096e+00 5.0778277280296664e-02 3.2299343594153207e-03 -1.1134956203731150e-01 -3.3293790993259407e+00 1.9565788507819259e-02 -7.8694108880781357e+00 1.6366590730694985e-01 6.1834143780388678e-02 7.6957019289770369e-04 1.7497136964054694e-02 5.0443854044507081e-04 9.4767500593807537e-04 -4.3983312138934708e-04 -2.4823995092249834e-02 6.2334780450953753e-02 -1.7498103903615791e-01 3.7030873320380846e-02 9.0760382602678227e-03 6.3881675878819585e-03 -5.6919001620517728e-01 -6.9441251151638850e-02 -4.8913018757159890e+00 8.7293125738616612e-02 1.3889374372197077e-01 -1.0967326075861216e-03 5.8647979933826561e-02 3.4438772538314615e-05 2.0993214547773684e-02 -1.5582504924771747e-03 5.4759539054697187e-03 3.0563303301162248e-02 1.4867492570859397e-01 1.1370729459802421e-02 -7.9089578410830551e-03 1.1220010669546032e-02 -2.3430094385977096e-02 -2.0916449623818778e-02 2.6999819579362629e+00 1.2284557205891888e-01 1.6622839442666376e-02 5.5391000354195460e-02 8.7207622137956942e-01 7.3267981511352179e-04 4.2142384181486386e-02 -7.3174775690273107e-03 4.1356530853916007e-01 1.6405516028273019e+00 -6.3399385313233960e+00 2.1204412860697458e-01 -1.9248465227331138e-01 -3.0572616032057471e+00 3.6726612265362659e+00 2.1392796043477624e-01 2.0985193105446740e+00 -4.1433932640499087e+00 1.5450175183484538e-01 4.5340645757947244e-03 -2.9100955241958382e-02 3.9530544078732700e-03 -5.8859693065189636e-02 2.5921493550904160e-03 5.0804138132856391e-02 1.1798959124366751e-03 1.9839510223558543e-01 2.6440932766226971e-02 1.1251842722070568e-02 -6.5287632291778502e-03 2.1561936426083999e+00 -2.7724103095313299e-02 1.5316575910803678e+00 -3.2827827088424161e-02 -1.6032703608783400e-01 2.3976684485021749e-04 -2.9046554987263704e-02 -9.5252157221936348e-04 -1.9433848275592490e-02 -6.4290806307976491e-04 -2.2243226681565110e-03 -8.4675337371682854e-02 1.9968166311717539e-01 -1.1090799674570065e-02 2.4275871798684432e-03 -2.3180765194208197e-02 5.7674474067776238e-01 3.4893656252924111e-03 -2.8285925560865870e+00 -1.0435517875149006e-01 -1.3039520560425150e-01 -2.9750148525901909e-05 -9.7516544806608429e-04 7.8227255413088601e-04 2.4998947134464156e-03 -4.0647736437105495e-04 3.8820067428226308e-02 -5.7274895628336500e-03 7.3436525156910903e-02 2.7288345175201886e-02 -2.5870587218363231e-05 -2.2541993818982146e-03 8.0809589055233122e-01 4.1526076170623649e-02 3.3337926309097909e-01 -8.4342094491927311e-02 -2.3307317201481520e-01 5.6600243658228307e-02 7.9056346173963166e-01 3.1449083423626401e-04 1.0876303441918395e-02 -4.2053464598361054e-03 5.0460485550111311e-01 1.5982097129068729e+00 -6.0374617925633700e+00 2.0334932145616705e-01 -2.0080468535927420e-01 -3.0153584480004838e+00 5.6095492494616792e+00 2.2226619784029505e-01 -3.7201558599416984e+00 -4.2472348733603393e+00 -8.7681140749023445e-02 -1.1768489185277620e-03 -8.1891978314536096e-03 -6.8366103150624294e-04 -3.6296165212737201e-02 -4.5078261941245987e-03 3.1265341652734731e-03 6.7769661439954415e-02 -1.0337251594944016e-02 4.3235044461251287e-03 2.9922018075778586e-03 -1.2999640663833979e-02 4.1399064643190775e-01 5.3636906848982674e-04 -3.8298911744209241e-02 2.4329931604354187e-02 -2.6098116679908644e-02 2.8784629547085760e-01 
      </Row>
      <Row Index="16">
