<?xml version="1.0"?>
<MethodSetup Method="MLP::MLP">
  <GeneralInfo>
    <Info name="TMVA Release" value="4.2.1 [262657]"/>
    <Info name="ROOT Release" value="6.26/02 [399874]"/>
    <Info name="Creator" value="s1412595"/>
    <Info name="Date" value="Sun May  1 17:18:53 2022"/>
    <Info name="Host" value="Linux root-ubuntu-2004-1 5.4.0-73-generic #82-Ubuntu SMP Wed Apr 14 17:39:42 UTC 2021 x86_64 x86_64 x86_64 GNU/Linux"/>
    <Info name="Dir" value="/home/s1412595/Desktop/MSc/TMVA/runs/run_fs7_hp1"/>
    <Info name="Training events" value="120000"/>
    <Info name="TrainingTime" value="7.63499454e+02"/>
    <Info name="AnalysisType" value="Classification"/>
  </GeneralInfo>
  <Options>
    <Option name="NCycles" modified="Yes">600</Option>
    <Option name="HiddenLayers" modified="Yes">N+5</Option>
    <Option name="NeuronType" modified="Yes">tanh</Option>
    <Option name="RandomSeed" modified="No">1</Option>
    <Option name="EstimatorType" modified="No">CE</Option>
    <Option name="NeuronInputType" modified="No">sum</Option>
    <Option name="V" modified="Yes">False</Option>
    <Option name="VerbosityLevel" modified="No">Default</Option>
    <Option name="VarTransform" modified="Yes">N</Option>
    <Option name="H" modified="Yes">True</Option>
    <Option name="CreateMVAPdfs" modified="No">False</Option>
    <Option name="IgnoreNegWeightsInTraining" modified="No">False</Option>
    <Option name="TrainingMethod" modified="No">BP</Option>
    <Option name="LearningRate" modified="No">2.000000e-02</Option>
    <Option name="DecayRate" modified="No">1.000000e-02</Option>
    <Option name="TestRate" modified="Yes">5</Option>
    <Option name="EpochMonitoring" modified="No">False</Option>
    <Option name="Sampling" modified="No">1.000000e+00</Option>
    <Option name="SamplingEpoch" modified="No">1.000000e+00</Option>
    <Option name="SamplingImportance" modified="No">1.000000e+00</Option>
    <Option name="SamplingTraining" modified="No">True</Option>
    <Option name="SamplingTesting" modified="No">False</Option>
    <Option name="ResetStep" modified="No">50</Option>
    <Option name="Tau" modified="No">3.000000e+00</Option>
    <Option name="BPMode" modified="No">sequential</Option>
    <Option name="BatchSize" modified="No">-1</Option>
    <Option name="ConvergenceImprove" modified="No">1.000000e-30</Option>
    <Option name="ConvergenceTests" modified="No">-1</Option>
    <Option name="UseRegulator" modified="Yes">False</Option>
    <Option name="UpdateLimit" modified="No">10000</Option>
    <Option name="CalculateErrors" modified="No">False</Option>
    <Option name="WeightRange" modified="No">1.000000e+00</Option>
  </Options>
  <Variables NVar="11">
    <Variable VarIndex="0" Expression="Kbach_ProbNNk" Label="Kbach_ProbNNk" Title="Kbach_ProbNNk" Unit="" Internal="Kbach_ProbNNk" Type="F" Min="5.10000885e-01" Max="9.99803305e-01"/>
    <Variable VarIndex="1" Expression="Kbach_ProbNNp" Label="Kbach_ProbNNp" Title="Kbach_ProbNNp" Unit="" Internal="Kbach_ProbNNp" Type="F" Min="3.09430192e-07" Max="9.99382198e-01"/>
    <Variable VarIndex="2" Expression="Kbach_PT" Label="Kbach_PT" Title="Kbach_PT" Unit="" Internal="Kbach_PT" Type="F" Min="4.03433502e+02" Max="1.47210791e+04"/>
    <Variable VarIndex="3" Expression="Lc_PT" Label="Lc_PT" Title="Lc_PT" Unit="" Internal="Lc_PT" Type="F" Min="2.52761890e+03" Max="4.00415273e+04"/>
    <Variable VarIndex="4" Expression="Xicst_PT" Label="Xicst_PT" Title="Xicst_PT" Unit="" Internal="Xicst_PT" Type="F" Min="2.32683643e+03" Max="4.92342539e+04"/>
    <Variable VarIndex="5" Expression="pibach_ProbNNpi" Label="pibach_ProbNNpi" Title="pibach_ProbNNpi" Unit="" Internal="pibach_ProbNNpi" Type="F" Min="1.00149095e-01" Max="9.99639690e-01"/>
    <Variable VarIndex="6" Expression="pibach_ProbNNp" Label="pibach_ProbNNp" Title="pibach_ProbNNp" Unit="" Internal="pibach_ProbNNp" Type="F" Min="4.44849604e-07" Max="9.56227481e-01"/>
    <Variable VarIndex="7" Expression="Xicst_IPCHI2_OWNPV" Label="Xicst_IPCHI2_OWNPV" Title="Xicst_IPCHI2_OWNPV" Unit="" Internal="Xicst_IPCHI2_OWNPV" Type="F" Min="1.37118786e-05" Max="2.63996133e+04"/>
    <Variable VarIndex="8" Expression="Xicst_ENDVERTEX_CHI2" Label="Xicst_ENDVERTEX_CHI2" Title="Xicst_ENDVERTEX_CHI2" Unit="" Internal="Xicst_ENDVERTEX_CHI2" Type="F" Min="1.72308029e-03" Max="5.99373703e+01"/>
    <Variable VarIndex="9" Expression="pibach_IPCHI2_OWNPV" Label="pibach_IPCHI2_OWNPV" Title="pibach_IPCHI2_OWNPV" Unit="" Internal="pibach_IPCHI2_OWNPV" Type="F" Min="8.96283200e-06" Max="8.99967575e+00"/>
    <Variable VarIndex="10" Expression="Kbach_IPCHI2_OWNPV" Label="Kbach_IPCHI2_OWNPV" Title="Kbach_IPCHI2_OWNPV" Unit="" Internal="Kbach_IPCHI2_OWNPV" Type="F" Min="1.30371254e-05" Max="8.99991798e+00"/>
  </Variables>
  <Spectators NSpec="1">
    <Spectator SpecIndex="0" Expression="Xicst_M" Label="Xicst_M" Title="Xicst Mass" Unit="F" Internal="Xicst_M" Type="F" Min="2.92377637e+03" Max="3.90779272e+03"/>
  </Spectators>
  <Classes NClass="2">
    <Class Name="Signal" Index="0"/>
    <Class Name="Background" Index="1"/>
  </Classes>
  <Transformations NTransformations="1">
    <Transform Name="Normalize">
      <Selection>
        <Input NInputs="11">
          <Input Type="Variable" Label="Kbach_ProbNNk" Expression="Kbach_ProbNNk"/>
          <Input Type="Variable" Label="Kbach_ProbNNp" Expression="Kbach_ProbNNp"/>
          <Input Type="Variable" Label="Kbach_PT" Expression="Kbach_PT"/>
          <Input Type="Variable" Label="Lc_PT" Expression="Lc_PT"/>
          <Input Type="Variable" Label="Xicst_PT" Expression="Xicst_PT"/>
          <Input Type="Variable" Label="pibach_ProbNNpi" Expression="pibach_ProbNNpi"/>
          <Input Type="Variable" Label="pibach_ProbNNp" Expression="pibach_ProbNNp"/>
          <Input Type="Variable" Label="Xicst_IPCHI2_OWNPV" Expression="Xicst_IPCHI2_OWNPV"/>
          <Input Type="Variable" Label="Xicst_ENDVERTEX_CHI2" Expression="Xicst_ENDVERTEX_CHI2"/>
          <Input Type="Variable" Label="pibach_IPCHI2_OWNPV" Expression="pibach_IPCHI2_OWNPV"/>
          <Input Type="Variable" Label="Kbach_IPCHI2_OWNPV" Expression="Kbach_IPCHI2_OWNPV"/>
        </Input>
        <Output NOutputs="11">
          <Output Type="Variable" Label="Kbach_ProbNNk" Expression="Kbach_ProbNNk"/>
          <Output Type="Variable" Label="Kbach_ProbNNp" Expression="Kbach_ProbNNp"/>
          <Output Type="Variable" Label="Kbach_PT" Expression="Kbach_PT"/>
          <Output Type="Variable" Label="Lc_PT" Expression="Lc_PT"/>
          <Output Type="Variable" Label="Xicst_PT" Expression="Xicst_PT"/>
          <Output Type="Variable" Label="pibach_ProbNNpi" Expression="pibach_ProbNNpi"/>
          <Output Type="Variable" Label="pibach_ProbNNp" Expression="pibach_ProbNNp"/>
          <Output Type="Variable" Label="Xicst_IPCHI2_OWNPV" Expression="Xicst_IPCHI2_OWNPV"/>
          <Output Type="Variable" Label="Xicst_ENDVERTEX_CHI2" Expression="Xicst_ENDVERTEX_CHI2"/>
          <Output Type="Variable" Label="pibach_IPCHI2_OWNPV" Expression="pibach_IPCHI2_OWNPV"/>
          <Output Type="Variable" Label="Kbach_IPCHI2_OWNPV" Expression="Kbach_IPCHI2_OWNPV"/>
        </Output>
      </Selection>
      <Class ClassIndex="0">
        <Ranges>
          <Range Index="0" Min="5.1000088453292847e-01" Max="9.9980330467224121e-01"/>
          <Range Index="1" Min="3.0943019169171748e-07" Max="9.9368906021118164e-01"/>
          <Range Index="2" Min="4.0367718505859375e+02" Max="1.0992476562500000e+04"/>
          <Range Index="3" Min="2.5326340332031250e+03" Max="4.0041527343750000e+04"/>
          <Range Index="4" Min="3.3086733398437500e+03" Max="4.9234253906250000e+04"/>
          <Range Index="5" Min="1.0023375600576401e-01" Max="9.9963968992233276e-01"/>
          <Range Index="6" Min="4.4484960426416364e-07" Max="9.5622748136520386e-01"/>
          <Range Index="7" Min="1.3711878636968322e-05" Max="5.0999150390625000e+03"/>
          <Range Index="8" Min="1.7230802914127707e-03" Max="5.7858459472656250e+01"/>
          <Range Index="9" Min="2.5563955205143429e-05" Max="8.9967641830444336e+00"/>
          <Range Index="10" Min="2.9180013370933011e-05" Max="8.9999179840087891e+00"/>
        </Ranges>
      </Class>
      <Class ClassIndex="1">
        <Ranges>
          <Range Index="0" Min="5.1001447439193726e-01" Max="9.9980223178863525e-01"/>
          <Range Index="1" Min="3.1790315802027180e-07" Max="9.9938219785690308e-01"/>
          <Range Index="2" Min="4.0343350219726562e+02" Max="1.4721079101562500e+04"/>
          <Range Index="3" Min="2.5276188964843750e+03" Max="3.0730033203125000e+04"/>
          <Range Index="4" Min="2.3268364257812500e+03" Max="3.6822753906250000e+04"/>
          <Range Index="5" Min="1.0014909505844116e-01" Max="9.9933230876922607e-01"/>
          <Range Index="6" Min="2.0500285700109089e-06" Max="8.9968401193618774e-01"/>
          <Range Index="7" Min="2.6691805032896809e-05" Max="2.6399613281250000e+04"/>
          <Range Index="8" Min="4.3928395025432110e-03" Max="5.9937370300292969e+01"/>
          <Range Index="9" Min="8.9628319983603433e-06" Max="8.9996757507324219e+00"/>
          <Range Index="10" Min="1.3037125427217688e-05" Max="8.9995861053466797e+00"/>
        </Ranges>
      </Class>
      <Class ClassIndex="2">
        <Ranges>
          <Range Index="0" Min="5.1000088453292847e-01" Max="9.9980330467224121e-01"/>
          <Range Index="1" Min="3.0943019169171748e-07" Max="9.9938219785690308e-01"/>
          <Range Index="2" Min="4.0343350219726562e+02" Max="1.4721079101562500e+04"/>
          <Range Index="3" Min="2.5276188964843750e+03" Max="4.0041527343750000e+04"/>
          <Range Index="4" Min="2.3268364257812500e+03" Max="4.9234253906250000e+04"/>
          <Range Index="5" Min="1.0014909505844116e-01" Max="9.9963968992233276e-01"/>
          <Range Index="6" Min="4.4484960426416364e-07" Max="9.5622748136520386e-01"/>
          <Range Index="7" Min="1.3711878636968322e-05" Max="2.6399613281250000e+04"/>
          <Range Index="8" Min="1.7230802914127707e-03" Max="5.9937370300292969e+01"/>
          <Range Index="9" Min="8.9628319983603433e-06" Max="8.9996757507324219e+00"/>
          <Range Index="10" Min="1.3037125427217688e-05" Max="8.9999179840087891e+00"/>
        </Ranges>
      </Class>
    </Transform>
  </Transformations>
  <MVAPdfs/>
  <Weights>
    <Layout NLayers="3">
      <Layer Index="0" NNeurons="12">
        <Neuron NSynapses="16">
          3.3726875854674015e-01 4.9466061806159463e+00 1.0505892073139039e-01 -2.6321201087086084e-02 1.8964891525597674e-01 -4.0175585813200332e-01 5.6013067362459257e-02 1.0823769205004661e-02 6.9648251644990655e-01 9.5653577071143539e-02 5.9016842451204199e-01 -2.1736541990238001e+00 -3.1968673779062713e-02 3.5679663162587710e-01 1.5740346361566068e-01 2.8154411713224070e-01 
        </Neuron>
        <Neuron NSynapses="16">
          4.0943974251567339e-01 1.3364582368511060e-01 -1.0747785838779920e+00 -4.4009625353799431e-02 -2.6087978233064790e-01 -3.7191146716055890e-01 7.2405314776351943e+00 1.8115999640192748e-01 2.2068425731597608e-02 2.8059217929187324e-01 1.6021033738882142e+00 2.9637336818867750e+00 -1.3306737015210701e-01 8.8104103270791170e-02 -2.2570734495272859e-01 -6.0560430841839263e-01 
        </Neuron>
        <Neuron NSynapses="16">
          -4.4425477849060882e-02 -3.1812640314110059e+00 2.1410417934946429e+00 -2.3654329695264540e+00 -1.4089609662879900e+01 9.4191048048528947e-01 -9.6382595080824740e-01 1.7317113950522646e+01 4.4955137119626301e+00 -5.7252179338665679e+00 2.7959308458729244e+00 -7.6839983638666010e-01 1.5476369816383126e+01 -4.4683642071090661e+00 2.4440627956936591e+00 -7.9261040427985707e-02 
        </Neuron>
        <Neuron NSynapses="16">
          -9.9614813708967720e+00 -2.3376956380435430e+00 -3.1590596003788312e+00 1.8997426582653254e+01 2.5264915660967130e+01 5.6966854515004535e+00 -1.2485063218905845e+00 3.0367392685368884e+01 -8.8532127950660673e+00 -1.7100567994803278e+01 1.0118146357395301e+00 6.4374122023985061e+00 6.7123262728039537e+00 6.4186949137725895e+00 7.7604863195393063e+00 4.4078177620102421e-01 
        </Neuron>
        <Neuron NSynapses="16">
          7.9221161397382875e+00 5.0576071161979490e+00 1.0935981513267256e+01 -1.7262238036351285e+01 -2.4967855503040948e+01 -6.0924842701311235e+00 -3.3895994578448341e+00 -4.3239246906589599e+01 7.2375204505968478e+00 1.1686605258809637e+01 1.1693470122937160e+00 -5.5973731467761043e+00 -1.6281418156680285e+01 -7.2974862348948326e+00 -6.8844931298689591e+00 6.0640236603447084e-02 
        </Neuron>
        <Neuron NSynapses="16">
          1.1224127724515220e+01 1.9539699982573949e-01 1.0369772227507074e-01 -1.8109868178777924e-01 -2.1334105752557930e-01 -7.2515179927710205e-01 -2.2567824383031632e-01 -8.8961280339503887e-02 -4.9660072724473640e-02 -4.9169713104226673e-02 3.8198088758254850e-01 -2.9657134270383861e-01 1.1495360268489881e-02 -1.9289945557297083e-01 -7.6595071065839876e-02 -1.5860884709743919e-01 
        </Neuron>
        <Neuron NSynapses="16">
          6.1056925093495806e+00 -2.3704916732703607e-01 -2.0304598387139712e+00 1.6803663122117660e+00 -2.3045647622495880e-01 7.1951630924292220e-01 -1.9799958105093818e+00 -2.6409262894964386e-01 -7.8931483417472892e-01 4.5416305913866157e+00 -5.8247093221072210e-01 5.4943602978770434e-01 -3.4919513950106129e-01 3.8470366555217000e-01 -1.1548631829704141e+00 2.2500386506183082e-01 
        </Neuron>
        <Neuron NSynapses="16">
          3.8324828268961575e+00 2.9042767762106410e+00 -2.0913220570479329e+00 1.9027429775382725e+00 5.2845330703096023e+00 -5.4710372198587054e-01 1.0145772947533898e+00 -3.3675104806342864e+00 -3.6403654218752952e+00 4.4899176519795896e+00 -4.9217187895495638e-02 1.0393436298524914e+00 -2.9662346569739477e+00 -2.3986259091142128e+00 1.8099270165291113e+00 1.7425597900950643e-01 
        </Neuron>
        <Neuron NSynapses="16">
          -2.8179862555626771e-03 5.3031902855684820e-01 -2.7426047114869809e+00 -6.9292195237978573e+00 2.1674237943441237e+00 1.9675299044563992e+00 -7.2301201685167615e-01 -9.5406867040576812e-02 3.6043172285726657e+00 -4.1991823794942560e+00 1.1243129387501216e+00 9.4735549917091355e-01 2.0752357377856336e+00 8.6637421924313589e+00 -1.0596204720038855e+01 -1.8554722200613623e-03 
        </Neuron>
        <Neuron NSynapses="16">
          -1.0163089634425706e-03 1.1978998112287807e-01 1.8270950323183324e-01 1.2071298368765158e+00 -3.8991056297634788e-02 -2.7444259061632936e-01 9.4505540351736986e-02 -1.5388508774471746e-02 3.5221997298965757e-01 7.6171447264413150e-01 9.3517683900748744e-02 -2.7118629221242578e-02 -2.8923799635898351e-01 -9.2952528265430745e-01 3.0159854953342600e+00 1.8866415485085889e-02 
        </Neuron>
        <Neuron NSynapses="16">
          -1.5168454267289965e-03 -9.5953591582103082e-01 2.0029822390932486e-01 2.0838350498714683e-01 -1.4700360311752789e-01 -7.4718754813702515e-01 -3.4384081891170822e-02 -1.8689026574371135e-02 -7.0838619823796123e-01 7.8064772143980081e-03 5.4333362422981236e-02 -3.3806828235444020e-01 -3.2131177242404951e-01 4.7807497598050036e-01 3.8071978738753876e-01 -2.9123452479746753e-01 
        </Neuron>
        <Neuron NSynapses="16">
          -3.2778821622673737e+00 -2.5998569302312076e+00 9.9626150327621210e-01 -1.5169618306024044e+00 -5.9055154226777953e+00 1.1758976603517761e+00 1.6629610541665500e+00 1.4011632326042653e+00 1.4862484664547417e+00 -5.3067684050208683e+00 -2.1131548009631247e-02 2.7395990665109391e+00 3.9572464875293192e+00 2.0440204111039471e+00 -3.0897501550575153e+00 1.0818774146773944e+00 
        </Neuron>
      </Layer>
      <Layer Index="1" NNeurons="17">
        <Neuron NSynapses="1">
          5.1593763207601206e-01 
        </Neuron>
        <Neuron NSynapses="1">
          3.5821190899803496e-01 
        </Neuron>
        <Neuron NSynapses="1">
          5.9582644270579088e-01 
        </Neuron>
        <Neuron NSynapses="1">
          -5.5595094639727105e-01 
        </Neuron>
        <Neuron NSynapses="1">
          -2.2000361455414872e+00 
        </Neuron>
        <Neuron NSynapses="1">
          -7.5686527189982000e-01 
        </Neuron>
        <Neuron NSynapses="1">
          -5.6516196934060370e-01 
        </Neuron>
        <Neuron NSynapses="1">
          -7.9755292262490345e+00 
        </Neuron>
        <Neuron NSynapses="1">
          8.8057226480314432e-01 
        </Neuron>
        <Neuron NSynapses="1">
          1.1086702820680732e+00 
        </Neuron>
        <Neuron NSynapses="1">
          4.1153068642836859e+00 
        </Neuron>
        <Neuron NSynapses="1">
          -3.8785842629020933e-01 
        </Neuron>
        <Neuron NSynapses="1">
          -8.6814728037513034e-01 
        </Neuron>
        <Neuron NSynapses="1">
          -8.3687537232650844e-01 
        </Neuron>
        <Neuron NSynapses="1">
          -5.7862489627882818e-01 
        </Neuron>
        <Neuron NSynapses="1">
          -6.3557256706231835e-01 
        </Neuron>
        <Neuron NSynapses="1">
          -3.4537727171071100e+00 
        </Neuron>
      </Layer>
      <Layer Index="2" NNeurons="1">
        <Neuron NSynapses="0"/>
      </Layer>
    </Layout>
  </Weights>
</MethodSetup>
