<?xml version="1.0"?>
<MethodSetup Method="DL::DNN_CPU">
  <GeneralInfo>
    <Info name="TMVA Release" value="4.2.1 [262657]"/>
    <Info name="ROOT Release" value="6.26/02 [399874]"/>
    <Info name="Creator" value="s1412595"/>
    <Info name="Date" value="Sun May  1 14:20:10 2022"/>
    <Info name="Host" value="Linux root-ubuntu-2004-1 5.4.0-73-generic #82-Ubuntu SMP Wed Apr 14 17:39:42 UTC 2021 x86_64 x86_64 x86_64 GNU/Linux"/>
    <Info name="Dir" value="/home/s1412595/Desktop/MSc/TMVA/runs/run_fs6_hp1"/>
    <Info name="Training events" value="120000"/>
    <Info name="TrainingTime" value="7.73074295e+02"/>
    <Info name="AnalysisType" value="Classification"/>
  </GeneralInfo>
  <Options>
    <Option name="V" modified="Yes">True</Option>
    <Option name="VerbosityLevel" modified="No">Verbose</Option>
    <Option name="VarTransform" modified="Yes">N</Option>
    <Option name="H" modified="Yes">False</Option>
    <Option name="CreateMVAPdfs" modified="No">False</Option>
    <Option name="IgnoreNegWeightsInTraining" modified="No">False</Option>
    <Option name="InputLayout" modified="No">0|0|0</Option>
    <Option name="BatchLayout" modified="No">0|0|0</Option>
    <Option name="Layout" modified="Yes">TANH|128,TANH|128,TANH|128,LINEAR</Option>
    <Option name="ErrorStrategy" modified="Yes">CROSSENTROPY</Option>
    <Option name="WeightInitialization" modified="Yes">XAVIERUNIFORM</Option>
    <Option name="RandomSeed" modified="No">0</Option>
    <Option name="ValidationSize" modified="No">20%</Option>
    <Option name="Architecture" modified="Yes">CPU</Option>
    <Option name="TrainingStrategy" modified="Yes">LearningRate=1e-2,Momentum=0.9,ConvergenceSteps=20,BatchSize=100,TestRepetitions=1,WeightDecay=1e-4,Regularization=None,DropConfig=0.0+0.5+0.5+0.5</Option>
  </Options>
  <Variables NVar="11">
    <Variable VarIndex="0" Expression="Kbach_ProbNNk" Label="Kbach_ProbNNk" Title="Kbach_ProbNNk" Unit="" Internal="Kbach_ProbNNk" Type="F" Min="5.10000885e-01" Max="9.99803305e-01"/>
    <Variable VarIndex="1" Expression="Kbach_ProbNNp" Label="Kbach_ProbNNp" Title="Kbach_ProbNNp" Unit="" Internal="Kbach_ProbNNp" Type="F" Min="3.09430192e-07" Max="9.99382198e-01"/>
    <Variable VarIndex="2" Expression="Kbach_PT" Label="Kbach_PT" Title="Kbach_PT" Unit="" Internal="Kbach_PT" Type="F" Min="4.03433502e+02" Max="1.47210791e+04"/>
    <Variable VarIndex="3" Expression="Lc_PT" Label="Lc_PT" Title="Lc_PT" Unit="" Internal="Lc_PT" Type="F" Min="2.52761890e+03" Max="4.00415273e+04"/>
    <Variable VarIndex="4" Expression="pibach_PT" Label="pibach_PT" Title="pibach_PT" Unit="" Internal="pibach_PT" Type="F" Min="2.00006271e+02" Max="3.32139111e+03"/>
    <Variable VarIndex="5" Expression="pibach_ProbNNpi" Label="pibach_ProbNNpi" Title="pibach_ProbNNpi" Unit="" Internal="pibach_ProbNNpi" Type="F" Min="1.00149095e-01" Max="9.99639690e-01"/>
    <Variable VarIndex="6" Expression="pibach_ProbNNp" Label="pibach_ProbNNp" Title="pibach_ProbNNp" Unit="" Internal="pibach_ProbNNp" Type="F" Min="4.44849604e-07" Max="9.56227481e-01"/>
    <Variable VarIndex="7" Expression="Xicst_IPCHI2_OWNPV" Label="Xicst_IPCHI2_OWNPV" Title="Xicst_IPCHI2_OWNPV" Unit="" Internal="Xicst_IPCHI2_OWNPV" Type="F" Min="1.37118786e-05" Max="2.63996133e+04"/>
    <Variable VarIndex="8" Expression="Xicst_ENDVERTEX_CHI2" Label="Xicst_ENDVERTEX_CHI2" Title="Xicst_ENDVERTEX_CHI2" Unit="" Internal="Xicst_ENDVERTEX_CHI2" Type="F" Min="1.72308029e-03" Max="5.99373703e+01"/>
    <Variable VarIndex="9" Expression="pibach_IPCHI2_OWNPV" Label="pibach_IPCHI2_OWNPV" Title="pibach_IPCHI2_OWNPV" Unit="" Internal="pibach_IPCHI2_OWNPV" Type="F" Min="8.96283200e-06" Max="8.99967575e+00"/>
    <Variable VarIndex="10" Expression="Kbach_IPCHI2_OWNPV" Label="Kbach_IPCHI2_OWNPV" Title="Kbach_IPCHI2_OWNPV" Unit="" Internal="Kbach_IPCHI2_OWNPV" Type="F" Min="1.30371254e-05" Max="8.99991798e+00"/>
  </Variables>
  <Spectators NSpec="1">
    <Spectator SpecIndex="0" Expression="Xicst_M" Label="Xicst_M" Title="Xicst Mass" Unit="F" Internal="Xicst_M" Type="F" Min="2.92377637e+03" Max="3.90779272e+03"/>
  </Spectators>
  <Classes NClass="2">
    <Class Name="Signal" Index="0"/>
    <Class Name="Background" Index="1"/>
  </Classes>
  <Transformations NTransformations="1">
    <Transform Name="Normalize">
      <Selection>
        <Input NInputs="11">
          <Input Type="Variable" Label="Kbach_ProbNNk" Expression="Kbach_ProbNNk"/>
          <Input Type="Variable" Label="Kbach_ProbNNp" Expression="Kbach_ProbNNp"/>
          <Input Type="Variable" Label="Kbach_PT" Expression="Kbach_PT"/>
          <Input Type="Variable" Label="Lc_PT" Expression="Lc_PT"/>
          <Input Type="Variable" Label="pibach_PT" Expression="pibach_PT"/>
          <Input Type="Variable" Label="pibach_ProbNNpi" Expression="pibach_ProbNNpi"/>
          <Input Type="Variable" Label="pibach_ProbNNp" Expression="pibach_ProbNNp"/>
          <Input Type="Variable" Label="Xicst_IPCHI2_OWNPV" Expression="Xicst_IPCHI2_OWNPV"/>
          <Input Type="Variable" Label="Xicst_ENDVERTEX_CHI2" Expression="Xicst_ENDVERTEX_CHI2"/>
          <Input Type="Variable" Label="pibach_IPCHI2_OWNPV" Expression="pibach_IPCHI2_OWNPV"/>
          <Input Type="Variable" Label="Kbach_IPCHI2_OWNPV" Expression="Kbach_IPCHI2_OWNPV"/>
        </Input>
        <Output NOutputs="11">
          <Output Type="Variable" Label="Kbach_ProbNNk" Expression="Kbach_ProbNNk"/>
          <Output Type="Variable" Label="Kbach_ProbNNp" Expression="Kbach_ProbNNp"/>
          <Output Type="Variable" Label="Kbach_PT" Expression="Kbach_PT"/>
          <Output Type="Variable" Label="Lc_PT" Expression="Lc_PT"/>
          <Output Type="Variable" Label="pibach_PT" Expression="pibach_PT"/>
          <Output Type="Variable" Label="pibach_ProbNNpi" Expression="pibach_ProbNNpi"/>
          <Output Type="Variable" Label="pibach_ProbNNp" Expression="pibach_ProbNNp"/>
          <Output Type="Variable" Label="Xicst_IPCHI2_OWNPV" Expression="Xicst_IPCHI2_OWNPV"/>
          <Output Type="Variable" Label="Xicst_ENDVERTEX_CHI2" Expression="Xicst_ENDVERTEX_CHI2"/>
          <Output Type="Variable" Label="pibach_IPCHI2_OWNPV" Expression="pibach_IPCHI2_OWNPV"/>
          <Output Type="Variable" Label="Kbach_IPCHI2_OWNPV" Expression="Kbach_IPCHI2_OWNPV"/>
        </Output>
      </Selection>
      <Class ClassIndex="0">
        <Ranges>
          <Range Index="0" Min="5.1000088453292847e-01" Max="9.9980330467224121e-01"/>
          <Range Index="1" Min="3.0943019169171748e-07" Max="9.9368906021118164e-01"/>
          <Range Index="2" Min="4.0367718505859375e+02" Max="1.0992476562500000e+04"/>
          <Range Index="3" Min="2.5326340332031250e+03" Max="4.0041527343750000e+04"/>
          <Range Index="4" Min="2.0000627136230469e+02" Max="3.3213911132812500e+03"/>
          <Range Index="5" Min="1.0023375600576401e-01" Max="9.9963968992233276e-01"/>
          <Range Index="6" Min="4.4484960426416364e-07" Max="9.5622748136520386e-01"/>
          <Range Index="7" Min="1.3711878636968322e-05" Max="5.0999150390625000e+03"/>
          <Range Index="8" Min="1.7230802914127707e-03" Max="5.7858459472656250e+01"/>
          <Range Index="9" Min="2.5563955205143429e-05" Max="8.9967641830444336e+00"/>
          <Range Index="10" Min="2.9180013370933011e-05" Max="8.9999179840087891e+00"/>
        </Ranges>
      </Class>
      <Class ClassIndex="1">
        <Ranges>
          <Range Index="0" Min="5.1001447439193726e-01" Max="9.9980223178863525e-01"/>
          <Range Index="1" Min="3.1790315802027180e-07" Max="9.9938219785690308e-01"/>
          <Range Index="2" Min="4.0343350219726562e+02" Max="1.4721079101562500e+04"/>
          <Range Index="3" Min="2.5276188964843750e+03" Max="3.0730033203125000e+04"/>
          <Range Index="4" Min="2.0001296997070312e+02" Max="3.2623430175781250e+03"/>
          <Range Index="5" Min="1.0014909505844116e-01" Max="9.9933230876922607e-01"/>
          <Range Index="6" Min="2.0500285700109089e-06" Max="8.9968401193618774e-01"/>
          <Range Index="7" Min="2.6691805032896809e-05" Max="2.6399613281250000e+04"/>
          <Range Index="8" Min="4.3928395025432110e-03" Max="5.9937370300292969e+01"/>
          <Range Index="9" Min="8.9628319983603433e-06" Max="8.9996757507324219e+00"/>
          <Range Index="10" Min="1.3037125427217688e-05" Max="8.9995861053466797e+00"/>
        </Ranges>
      </Class>
      <Class ClassIndex="2">
        <Ranges>
          <Range Index="0" Min="5.1000088453292847e-01" Max="9.9980330467224121e-01"/>
          <Range Index="1" Min="3.0943019169171748e-07" Max="9.9938219785690308e-01"/>
          <Range Index="2" Min="4.0343350219726562e+02" Max="1.4721079101562500e+04"/>
          <Range Index="3" Min="2.5276188964843750e+03" Max="4.0041527343750000e+04"/>
          <Range Index="4" Min="2.0000627136230469e+02" Max="3.3213911132812500e+03"/>
          <Range Index="5" Min="1.0014909505844116e-01" Max="9.9963968992233276e-01"/>
          <Range Index="6" Min="4.4484960426416364e-07" Max="9.5622748136520386e-01"/>
          <Range Index="7" Min="1.3711878636968322e-05" Max="2.6399613281250000e+04"/>
          <Range Index="8" Min="1.7230802914127707e-03" Max="5.9937370300292969e+01"/>
          <Range Index="9" Min="8.9628319983603433e-06" Max="8.9996757507324219e+00"/>
          <Range Index="10" Min="1.3037125427217688e-05" Max="8.9999179840087891e+00"/>
        </Ranges>
      </Class>
    </Transform>
  </Transformations>
  <MVAPdfs/>
  <Weights NetDepth="4" InputDepth="1" InputHeight="1" InputWidth="11" BatchSize="1" BatchDepth="1" BatchHeight="100" BatchWidth="11" LossFunction="C" Initialization="F" Regularization="0" OutputFunction="S" WeightDecay="9.9999997473787516e-05">
    <DenseLayer Width="128" ActivationFunction="3">
      <Weights Rows="128" Columns="11">
        2.040171e-01  -2.716742e-01  -3.814759e+00  -1.147069e+00  -1.516261e+00  -1.400069e+00  -5.783825e-01  3.679547e-01  -7.460325e-01  6.039210e-01  -2.006427e+00  1.919046e+00  -2.817577e+00  -1.025193e+00  3.533808e+00  5.355905e-01  3.862290e-01  6.204826e-02  -1.871876e+00  -7.513837e-01  -2.500927e+00  -1.628306e+00  -1.775357e-01  -2.057285e-02  2.652969e+00  -5.409319e+00  -3.626355e+00  -3.494658e-01  -9.398952e-01  2.659854e+00  1.278399e+00  -3.801392e-02  -6.008603e-02  9.471454e-03  3.942378e-03  -6.157931e+00  1.002947e+00  -9.520304e-02  -3.104559e-01  -1.816220e-01  2.375814e+00  3.023399e-01  -6.622870e-02  -1.010749e-01  1.497869e+00  -2.910171e+00  1.179605e+00  5.325770e+00  1.380299e+00  1.533716e+00  1.249738e+00  2.822281e-02  6.994013e-01  -1.183174e+00  -9.155027e-01  8.091300e-01  -5.586347e-02  -2.269798e+00  -2.624030e+00  -2.752549e+00  -1.258352e-01  -1.584439e+00  -4.091896e-01  -1.261603e+00  -2.921312e-01  -1.490574e+00  -1.636324e+00  2.677238e+00  -5.108234e-01  -5.849146e+00  -1.671602e+00  -2.473582e-01  -1.847493e+00  8.065587e-01  -2.294522e-01  7.835835e-01  4.800334e-01  -3.105597e-01  6.159286e-01  4.227428e+00  -5.202499e+00  -2.154649e+00  -2.215088e-01  -6.725966e-01  1.169053e+00  5.993047e-01  -3.215265e-01  1.359234e-01  1.118860e-02  -2.264578e-01  4.713550e-01  7.727332e-01  4.279743e-01  4.754055e-01  3.793972e-01  1.049987e+00  2.866006e+00  -1.907360e-01  3.815975e-02  -1.026426e-01  6.812829e-02  -6.094550e+00  1.438601e+00  -4.752416e-01  -3.289824e-01  -3.609836e-01  2.439320e+00  5.215651e-01  -3.040146e-02  -4.187108e-02  8.014020e-01  5.651045e-01  -3.076659e+00  7.718046e-01  1.181020e-03  2.693051e-01  -4.382551e-01  -1.365405e+00  -1.582119e+00  -5.426559e-01  -1.938413e+00  2.986594e-01  5.920980e-02  5.333220e+00  -1.290414e+00  -4.792795e-01  -7.077845e-02  -3.171828e-03  -2.029867e+00  -3.787052e-01  2.701480e-02  -1.680643e-02  7.741720e-01  -9.538347e-01  3.237746e+00  3.515297e+00  1.776336e+00  2.219115e+00  -4.287327e-02  -1.346379e+00  2.287551e-01  1.278102e-01  -5.435381e-01  -3.555517e-01  -7.885826e-01  -3.569165e+00  2.964321e+00  1.884992e+00  -9.213291e-01  7.733738e-01  1.209300e+00  6.179478e-01  8.438718e-01  1.849090e-01  -9.230955e-02  5.506339e-02  1.129520e+00  -5.762343e+00  -3.384631e+00  -3.405669e+00  4.633047e-01  6.788957e-01  -5.184255e-01  4.757789e-01  3.385092e-01  4.501300e-01  1.374999e+00  4.314803e+00  -1.742883e+00  -4.052201e-01  1.210307e-01  7.577620e-02  -1.876971e+00  -1.168882e+00  -6.604943e-03  -1.981235e-01  -9.861860e-02  -3.428191e-02  -6.322120e+00  1.581445e+00  -1.322402e-01  -3.002780e-01  -3.435924e-01  2.353537e+00  5.942123e-01  -1.727495e-02  -4.691301e-02  9.959302e-01  -5.636027e-01  -4.569875e-01  1.366904e+00  1.423795e+00  2.642985e+00  6.187382e-01  -6.887581e-01  -1.094748e+00  -4.662052e+00  -6.803118e-01  -1.504764e+00  1.235928e+00  -7.314836e-01  -1.740605e+00  -4.762562e-01  2.363034e+00  -3.223228e+00  -6.291361e-02  -1.153291e+00  -1.336261e+00  -2.085512e+00  -4.950404e-01  4.065086e+00  -1.525801e+00  -1.801960e+00  -2.196700e+00  -2.236309e+00  1.642816e-01  -8.191427e-01  1.243725e-01  6.022649e-01  -1.073838e+00  8.372808e-01  -3.131913e-01  4.955385e+00  3.320039e-01  1.028210e+00  5.317196e-01  8.371478e-02  -2.709128e+00  -6.091701e-01  2.120751e-01  -3.299890e-01  -1.761193e+00  -1.954886e-01  3.181801e+00  -6.341925e+00  -2.766191e+00  -4.670114e-01  -8.481857e-01  1.825922e+00  4.974737e-01  -1.696219e-03  4.581086e-01  -8.311024e-02  1.987068e+00  3.037582e+00  1.136858e+00  2.967222e+00  1.988542e+00  2.167451e-01  -3.684985e-01  4.559987e-01  2.462521e+00  1.364422e+00  1.776076e-01  -1.432540e-01  -4.122996e+00  6.472754e+00  3.109096e+00  4.570269e-01  1.013798e+00  -2.404827e+00  -1.080469e+00  1.735871e-01  -1.434631e-01  -1.923871e+00  2.395910e+00  -1.325085e+00  -4.420238e+00  -1.845865e+00  8.827156e-01  -1.619348e+00  6.378829e-01  -5.432321e-02  9.032658e-01  6.760097e-01  1.548066e+00  -1.299729e+00  4.469439e+00  2.562574e-01  1.385061e+00  5.035437e-01  7.663060e-01  -2.628629e+00  -1.047135e+00  -2.226643e-01  4.949062e-01  -3.224371e-01  3.755984e-02  -2.267410e+00  -3.341949e+00  -3.051001e+00  -6.136164e+00  6.518188e-01  5.183748e-01  -3.835872e-01  -2.401519e-03  -9.701328e-02  -4.996084e-02  1.891100e-01  6.196440e+00  -1.273276e+00  1.541940e-01  2.449689e-01  1.663054e-01  -2.359707e+00  -4.615959e-01  9.438942e-02  6.729434e-02  5.520201e-01  2.213019e+00  -1.997672e-01  2.318378e+00  1.309193e+00  4.016021e+00  -8.334906e-01  -1.297299e+00  -8.846878e-01  -6.699796e-01  -2.614605e-01  2.079503e+00  -1.951270e+00  -3.147178e+00  1.952778e+00  4.883676e-01  1.504619e+00  -1.018046e+00  -1.221724e+00  -1.079111e+00  -1.877820e+00  -1.109778e-01  -7.907824e-01  -2.327304e+00  -3.159450e+00  -7.702937e-01  -1.216858e+00  -1.393358e+00  -1.037779e+00  8.693434e-01  2.391395e-01  5.592760e-01  -2.498863e+00  9.055694e-01  -3.381694e-01  1.742061e+00  -1.232950e+00  -8.435200e-01  1.495092e+00  -9.850807e-01  -1.977195e+00  -9.814736e-01  -1.796686e+00  -1.278872e-01  8.922513e-02  9.081892e-02  6.532602e+00  -1.650375e+00  5.973840e-02  2.243904e-01  2.873270e-01  -2.396359e+00  -4.333177e-01  1.954268e-01  1.071180e-01  -2.967831e+00  3.456980e-01  -1.751270e+00  -4.943148e+00  -2.339569e+00  -3.068196e-01  -6.604322e-01  1.189361e+00  -5.882794e-02  2.866923e-01  1.103762e+00  1.547025e-01  6.980792e-02  -2.294384e+00  5.415681e+00  3.050792e+00  1.701320e-01  3.414965e-01  -2.208779e+00  -1.027430e+00  -3.918782e-04  -2.813057e-02  8.113275e-01  1.554407e-01  5.966864e+00  -9.791239e-01  3.408276e-02  -1.418200e-01  5.892567e-02  -1.580907e+00  -2.581887e-01  -4.122423e-01  -3.678108e-01  -4.821644e-01  3.508813e-01  3.523649e+00  -5.409770e+00  -2.687439e+00  -1.692839e-01  -8.820103e-01  1.867933e+00  7.955472e-01  -2.292598e-01  3.870599e-01  3.366279e+00  -1.258705e+00  -8.409439e-01  3.003187e+00  4.475673e-01  -5.120312e-01  -1.360429e-01  -1.960259e+00  -7.623485e-01  -1.416827e+00  -1.885773e+00  7.561510e-01  -3.340941e-01  -5.436416e+00  -6.596230e-01  -9.781709e-01  -3.765603e-01  -2.985082e-01  -2.023938e-01  -8.813801e-01  -1.734211e-01  5.735505e-01  2.029606e+00  -1.813336e+00  1.777348e+00  5.073199e+00  1.428494e+00  9.666394e-01  8.942478e-01  -8.613882e-01  9.658557e-01  -9.104457e-01  -8.972737e-01  2.398625e+00  -3.872313e+00  5.953364e-01  2.625000e+00  5.372223e-01  5.609595e-01  5.590265e-01  2.676474e-02  6.855234e-01  -2.501136e-01  1.736843e+00  -1.145911e+00  -1.217097e+00  -1.637176e-01  9.364637e-01  9.363058e-01  4.919714e+00  -8.163130e-01  -3.446246e-01  -5.801012e-01  -2.682718e+00  -9.172879e-01  -1.866542e-01  -6.509418e-01  5.688631e+00  -8.714628e-01  -2.829688e-01  1.316206e+00  -1.215452e-01  -1.445885e+00  1.159974e-01  -4.350849e-01  3.016232e-02  -1.355333e-01  -1.491975e-01  -6.252507e+00  1.475506e+00  -5.878510e-02  -2.282080e-01  -2.975521e-01  2.381372e+00  3.529983e-01  -5.780947e-02  -9.086497e-02  9.093308e-01  9.266778e-01  2.815281e+00  -3.888293e+00  -2.883596e+00  8.468784e-03  -9.879487e-01  1.099647e+00  7.542658e-01  2.344889e-01  3.178050e-01  1.314129e+00  -2.417526e+00  4.871241e-01  3.317010e+00  3.318626e+00  9.599885e-01  7.549434e-01  -2.123435e+00  -9.614041e-01  2.881458e-01  8.726770e-01  2.669893e+00  -8.415695e-02  -2.082549e+00  5.833630e+00  3.055708e+00  7.928206e-01  1.079787e+00  -1.447062e+00  -2.857408e-01  -1.125302e-01  -1.446186e-01  -1.637202e-01  -1.055528e+00  -5.277840e+00  3.801234e+00  9.391270e-01  -2.115447e-01  1.235562e-01  6.295349e-01  -3.323484e-01  -2.056305e-01  8.412984e-04  7.284161e-02  1.816410e-01  6.498414e+00  -1.724497e+00  1.038997e-01  2.092282e-01  2.237693e-01  -2.305652e+00  -4.806234e-01  6.962405e-02  2.811460e-02  -2.026252e+00  2.182817e+00  1.563542e+00  -2.295087e+00  3.830053e-01  -7.158885e-01  1.097278e-01  2.392615e+00  1.270358e+00  1.322575e+00  5.017570e-01  3.394766e+00  -1.798136e+00  -5.723705e-01  -1.100649e+00  -1.564715e+00  -2.931472e+00  8.259486e-02  -1.494788e+00  -1.028498e+00  -2.120918e+00  -1.769483e-01  9.053912e-01  -3.928829e-01  -1.418844e+00  5.122589e+00  2.956651e+00  2.755243e+00  -4.724564e-01  -3.358715e-03  2.617335e-01  -1.206117e+00  -1.172543e+00  -4.807051e-01  8.763087e-01  -4.786344e+00  -1.354564e-01  -1.555124e+00  -9.457566e-01  -2.670597e-01  2.696818e+00  9.478160e-01  6.359047e-02  -6.610070e-01  -2.454319e+00  9.730161e-01  -3.882365e-01  -1.116572e+00  -2.405264e+00  -3.200974e+00  -2.899272e-01  1.852054e+00  1.918990e+00  2.150450e-01  -2.761636e-02  1.602652e-02  1.990857e-01  6.292622e+00  -1.005992e+00  1.690900e-01  3.318418e-01  8.101343e-02  -2.253461e+00  -2.166672e-01  3.476533e-02  1.593699e-01  6.355885e-01  -3.832607e+00  -1.696988e+00  -1.256998e+00  -1.937817e+00  -1.920753e+00  -1.069605e+00  5.775094e-02  1.231062e+00  3.260523e+00  -6.136913e-01  6.111023e-01  -6.585445e-01  -4.759543e+00  -2.456967e-01  -9.427896e-01  4.069122e-01  -5.581970e-01  1.430912e+00  9.112543e-02  3.298642e-01  -5.821381e-01  1.719014e+00  -1.471473e+00  6.748768e-01  5.082518e-01  4.539524e-01  1.653550e+00  -5.623940e-01  -2.509062e+00  -1.629554e+00  -2.290952e+00  -7.490841e-01  -1.549436e+00  1.993587e+00  -9.723841e-01  -3.675529e+00  -2.608003e+00  -2.719753e+00  3.645690e-01  1.655253e+00  5.944699e-01  5.682834e-01  -7.105279e-01  1.125696e+00  -3.922236e-01  -4.243117e-01  -1.863979e+00  -1.659132e+00  -4.181336e-01  -5.770566e-01  -1.657096e+00  -1.552551e+00  3.534592e-01  -9.300059e-01  -2.092635e+00  -2.397674e-01  -1.643477e+00  -2.304431e+00  -2.416625e+00  -2.029139e+00  -1.451798e+00  5.726757e-02  8.095759e-01  -1.652682e+00  -2.345613e+00  -1.913661e+00  -3.009787e-01  2.158890e+00  1.605798e+00  1.810848e+00  -1.982888e+00  1.197024e+00  5.655928e-01  -3.031224e+00  6.459917e-01  1.191031e+00  -9.188246e-01  2.150966e+00  -1.874251e-01  8.266235e-01  6.826771e-01  2.867899e+00  -3.307098e+00  -1.975964e+00  -1.310245e+00  5.025381e-01  -8.043241e-02  9.226680e-01  -4.135211e+00  6.796831e-01  5.362409e+00  1.454543e+00  6.142653e-02  1.440535e+00  -6.953138e-01  9.648046e-01  -9.856153e-01  1.005701e-01  2.341717e+00  -3.979126e+00  -2.910514e-01  8.904523e-01  -6.891917e-02  1.214006e+00  -2.174588e-01  3.474096e-01  4.251624e-01  2.743835e-01  2.252582e+00  2.662138e+00  -9.856066e-01  1.296550e-01  4.677291e+00  1.875365e+00  5.752428e-01  5.704690e-01  -1.746810e+00  -1.157328e-01  -7.543155e-01  -3.139416e-01  -2.560789e-01  1.849346e+00  6.718350e-01  -8.590757e-01  -4.692782e-01  2.142053e-02  3.435489e-01  -1.411605e+00  -3.010075e+00  1.346819e+00  -1.715531e+00  1.618642e+00  2.486063e-01  -8.818178e-01  4.056546e+00  3.118895e+00  -4.689294e-01  9.890962e-01  -1.474133e+00  -6.366993e-01  4.729872e-01  5.900574e-01  -2.747666e+00  4.726307e+00  2.147768e+00  -6.805516e-01  5.363575e-01  2.894724e+00  -5.071965e-01  5.345036e-01  2.155926e-01  -1.198646e+00  -3.427546e-01  1.455811e-01  -2.655922e-01  2.560372e-01  -4.726302e+00  -3.383496e+00  -9.283832e-01  -9.172298e-01  1.680980e+00  5.172209e-01  6.201477e-01  2.005383e-02  1.018119e-02  -1.244084e-01  1.860776e-01  5.072705e+00  3.221488e+00  5.294192e+00  -7.923070e-01  -2.046838e-01  3.942831e-01  3.694953e-01  -8.706093e-02  -3.758931e+00  -2.377070e+00  -2.156244e-01  1.227720e+00  6.866952e-01  1.656423e+00  -4.795905e-01  9.096654e-01  1.394160e+00  -7.806129e-01  -2.040981e-01  1.301935e+00  1.145145e+00  5.686687e+00  -6.838133e-01  7.974751e-02  1.086546e+00  -1.154388e-01  -2.459597e-01  1.243963e+00  -3.520365e-01  -8.327390e-01  2.068130e-01  -3.062021e+00  9.625731e-02  2.257744e+00  8.173582e-01  -4.548930e+00  1.811987e+00  -1.336543e+00  -2.653767e-01  -5.827494e-03  6.089395e-01  8.604010e-01  -1.264512e+00  3.272663e-01  4.789104e-01  -3.777928e-02  -1.457660e-01  -2.146870e-01  -1.844311e+00  -2.217655e+00  -2.935434e+00  -1.518495e-01  -6.245606e-02  2.676635e-02  -6.311114e+00  1.359618e+00  -2.605000e-01  -2.954733e-01  -2.867966e-01  2.484459e+00  3.164534e-01  -1.794996e-01  -1.285080e-01  -9.979674e-01  2.697716e+00  3.036187e-01  -3.437262e+00  -2.344580e+00  6.135263e-02  1.679440e-03  1.402233e+00  6.386929e-01  -2.264206e+00  -2.723793e-01  -1.211097e+00  2.397116e+00  -2.097843e+00  -1.238620e+00  -2.173077e+00  -7.422301e-01  -1.273938e+00  1.195843e+00  3.618979e+00  -1.545748e+00  -1.898695e+00  -1.351395e+00  7.610990e-01  1.347302e+00  1.430042e+00  1.989343e+00  4.201908e-01  4.495340e-01  1.552008e+00  1.476348e+00  9.859960e-01  1.368164e+00  2.432705e-01  -1.631538e-01  -3.996586e+00  6.285005e+00  3.261311e+00  3.197139e-01  9.484082e-01  -2.385602e+00  -1.092217e+00  8.626041e-02  -1.924927e-02  -4.822024e-01  1.013997e+00  -3.911461e-01  -2.625075e+00  -1.906026e-01  -1.310638e-01  1.099171e-01  2.781786e+00  1.687189e+00  7.181084e-01  2.744711e-01  8.137453e-01  -2.409972e+00  -5.241046e-01  4.166847e+00  2.337550e+00  2.722399e-01  1.012726e+00  -1.261959e+00  -3.610730e-01  2.113438e-02  -6.041659e-01  -7.813639e-01  -4.757791e-01  3.274411e+00  -6.063469e+00  -2.778207e+00  -2.586064e+00  4.011543e-01  5.402915e-01  8.678729e-02  3.430014e-02  3.305238e-01  -2.021565e+00  2.536330e+00  -6.632705e-01  1.416916e-01  1.251306e+00  9.466739e-01  4.108781e-01  2.271047e+00  1.780214e+00  9.145892e-01  1.221098e+00  -5.664849e-01  -8.072018e-02  -8.484485e-01  1.875687e+00  3.857750e-01  1.447631e-01  1.369222e-01  1.853700e+00  1.705730e+00  6.277261e-01  3.397529e-01  4.696886e-01  -3.233442e-01  -1.018272e+00  5.297640e+00  3.128721e+00  2.304054e-01  3.474760e-01  -2.156382e+00  -6.525452e-01  3.425720e-01  2.112452e-02  -5.506362e-01  1.377290e+00  -1.413160e+00  -2.602975e+00  -2.514874e+00  4.795907e-01  -3.072320e-01  -1.000965e+00  -6.715419e-01  -1.540710e+00  8.437639e-01  -1.180575e-01  -5.461700e-02  -6.203527e+00  1.193962e+00  -3.294718e-02  -2.617922e-01  -4.814175e-01  2.219287e+00  5.239508e-01  1.055660e-01  -6.886690e-02  5.743212e-01  -6.897482e-01  -6.068568e+00  1.174698e+00  -7.033873e-02  -1.569125e+00  1.590401e-01  1.204583e+00  -2.445446e-01  2.887893e-01  -1.470428e-01  1.028421e+00  -1.670423e-01  1.688896e+00  3.618283e+00  3.590171e+00  1.431648e-01  1.254001e+00  -1.200302e+00  -2.340859e-01  -3.131657e-02  1.116893e+00  -2.198042e-01  5.076116e-02  -5.744641e+00  3.359475e-01  -3.551992e-01  -2.073337e-01  5.090860e-02  2.409271e+00  3.532292e-01  1.155445e-01  1.900778e-01  4.014525e-01  -3.047915e-01  5.327368e+00  -1.767124e+00  -4.992464e-03  -8.634500e-01  5.462373e-01  -8.235819e-01  1.006458e-01  5.027699e-01  -8.521487e-01  -1.246613e+00  1.951301e-02  -5.528858e+00  -2.305768e-01  -4.481173e-01  6.177917e-01  -3.376818e-01  1.850749e+00  -1.864095e-01  -1.838586e-01  4.235936e-01  2.236732e+00  -5.600917e-01  -6.725063e-01  -5.212499e-01  -3.021147e-01  2.155796e+00  -1.264755e+00  -1.641796e+00  -1.820971e+00  -1.040088e+00  1.034754e-01  5.462179e-01  3.872051e-01  -1.655446e+00  5.430984e+00  2.834217e+00  9.564117e-01  2.826688e-01  -1.259787e+00  -7.437878e-01  -7.603012e-01  -2.559481e-01  -1.366446e+00  -1.241624e+00  2.497986e+00  2.217760e+00  2.439612e+00  4.382249e-01  1.286476e+00  5.291101e-02  5.547275e-01  9.794364e-01  1.513026e+00  -1.306177e-01  -4.146154e-01  -1.144404e+00  -3.997843e+00  -2.719026e+00  -5.129755e+00  7.750701e-01  -1.289362e-01  -5.840915e-01  4.683080e-02  -1.521930e-01  -5.360296e-02  8.913621e-02  5.959379e+00  -9.489416e-01  2.384084e-01  4.688255e-01  1.191939e-01  -2.376040e+00  -2.975948e-01  1.081201e-02  2.661738e-01  2.918721e+00  2.217029e-01  -1.286763e+00  5.800584e+00  2.482855e+00  5.692149e-02  8.822196e-01  -1.304725e+00  -8.915752e-02  -4.773827e-01  -2.656167e-01  -2.607226e+00  -1.167991e+00  -2.981639e+00  8.928747e-01  7.070418e-02  -1.413056e+00  3.585491e-02  1.961684e+00  6.729115e-01  -1.367046e+00  -1.436216e+00  2.330535e+00  -6.625175e-01  -1.391421e+00  -1.253783e+00  -8.124605e-01  -7.568625e-01  -7.231849e-01  -1.330284e+00  -1.469361e+00  8.985452e-01  -1.301758e+00  1.006227e+00  6.151940e-01  -1.644984e+00  -2.108999e+00  -2.238062e+00  5.377137e-01  -1.550983e+00  -8.634126e-01  4.227719e-01  -2.008453e+00  -2.289920e+00  1.397450e+00  -1.598382e+00  5.443205e-01  -1.263892e+00  -1.056857e+00  -5.657969e-01  -5.162554e-01  -1.942714e+00  -1.246000e+00  -5.519309e-01  -1.387645e+00  -3.259075e+00  6.582869e-01  -4.311371e+00  -4.106981e-01  -7.517840e-01  3.336343e-01  -7.371776e-01  1.841369e+00  4.599565e-02  -1.562357e-01  9.310357e-01  2.639917e-01  -4.075318e-01  -4.659152e+00  6.220337e+00  2.614690e+00  3.683395e-01  9.991271e-01  -1.899559e+00  -9.001806e-01  4.391187e-02  -1.408880e-01  2.407701e-01  2.300461e-01  -1.149864e+00  -4.901847e+00  -2.839236e+00  -4.403177e+00  5.863569e-01  5.269479e-01  -6.719986e-01  1.392243e-01  5.110686e-01  2.440441e-01  2.728199e-01  1.140366e-01  5.057174e+00  3.094032e+00  5.132716e+00  -8.502516e-01  -3.335798e-01  3.719840e-01  -7.669077e-02  -3.983135e-01  1.617947e+00  6.589349e-01  1.426378e+00  2.666461e-01  5.628606e-01  4.125574e+00  -2.004907e+00  -1.322134e+00  -2.500526e-01  1.846204e+00  7.801943e-01  -6.148468e-02  -1.330690e-01  -6.137636e+00  1.112504e+00  -2.771647e-01  -2.977976e-01  -4.831164e-01  2.606336e+00  5.387899e-01  -1.313857e-01  -6.966003e-02  -7.365877e-01  2.297691e+00  -7.297274e-02  -2.147883e+00  -1.138980e+00  -1.055330e+00  -3.235271e-02  -1.272929e+00  -1.163670e+00  8.710443e-01  -1.387885e+00  -8.036979e-03  -3.834563e-01  5.406237e+00  -1.453776e+00  6.125265e-02  1.653009e-01  3.208495e-01  -2.252820e+00  -5.358919e-01  -3.662418e-01  1.101280e-01  -6.553779e-01  1.348088e-01  1.704224e+00  -5.764178e+00  -2.901806e+00  -1.966975e+00  1.470287e-01  9.162633e-01  -2.196753e-01  2.660414e-01  2.458867e-01  -4.416135e-02  1.229901e+00  -2.627787e+00  -2.035693e+00  -1.191616e+00  7.078691e-01  -1.238671e+00  -8.001433e-01  -1.178169e+00  4.088769e-01  -1.234499e+00  -3.008383e-01  -1.073220e+00  2.395945e+00  1.364103e+00  1.356217e+00  -3.078047e-01  8.448597e-01  1.075599e+00  1.094269e+00  4.906597e-01  1.369895e+00  -8.208177e-01  9.167417e-01  3.212276e+00  -3.549313e-02  5.879766e-01  1.149098e+00  4.928637e-01  1.436005e+00  1.908505e+00  1.639684e+00  2.427528e-01  6.312573e-01  7.312791e-01  1.513546e+00  5.796424e-01  4.020368e-01  9.519587e-02  4.587733e-01  6.557826e-01  2.978178e+00  5.093353e-03  1.072515e+00  7.510169e-01  -2.567354e-01  -1.541025e+00  -1.364030e+00  -1.211896e+00  -1.969948e-01  -3.312874e-01  -1.201061e+00  -1.915281e+00  -2.003491e-01  -8.073210e-01  -7.641534e-01  1.673644e+00  1.877839e+00  -7.739897e-01  2.815612e-01  1.223732e-01  5.560786e-01  1.222450e+00  1.786414e+00  -1.513728e-01  1.230485e+00  2.094640e-01  -2.822295e-01  -5.060088e+00  5.660091e+00  2.149684e+00  2.699141e-01  8.330342e-01  -1.249707e+00  -1.065488e+00  -2.095313e-02  5.463970e-02  -3.014466e-01  2.887313e+00  -1.752238e+00  -3.244313e+00  -1.788271e+00  1.290475e+00  -7.523631e-01  2.336855e+00  6.192368e-01  7.227649e-01  3.420096e-01  -2.016259e-02  -1.917623e-01  -6.399970e+00  1.623768e+00  -9.647404e-02  -2.331002e-01  -3.304436e-01  2.352559e+00  3.648875e-01  -3.256893e-02  -1.604160e-02  2.201536e+00  -1.455609e+00  -7.595509e-01  -3.406204e-01  1.709806e-01  2.082621e+00  -7.576975e-01  -1.576742e+00  -1.469479e+00  -1.268087e+00  1.418367e-01  2.125468e+00  -2.448862e+00  2.538963e+00  3.812095e+00  1.669657e+00  1.451112e+00  3.355961e-01  -1.154855e+00  5.468141e-01  -1.048906e+00  -5.613230e-01  1.049953e-01  -1.071109e-01  -6.019477e+00  2.629264e+00  2.313840e-01  -9.359132e-01  2.447938e-01  1.253681e+00  -2.095880e-01  1.890941e-01  3.568991e-01  4.240876e-01  -9.363838e-01  3.445677e-01  -5.015748e-01  -1.107543e+00  1.094795e+00  -9.625722e-01  -2.250196e+00  -8.810592e-01  -9.854940e-01  -3.629002e-01  7.016359e-01  7.181701e-01  5.191259e+00  -1.087065e+00  5.435432e-01  7.762455e-01  4.919377e-01  -2.365374e+00  -1.029365e+00  -3.476075e-01  5.061918e-01  1.775612e-01  -1.397913e-02  6.195794e+00  -1.729218e+00  7.393223e-02  2.280787e-01  1.453798e-02  -2.253169e+00  -1.803079e-01  -2.594510e-02  9.097786e-02  6.115542e-01  3.646144e-02  -1.381838e+00  -8.900075e-01  -5.519214e-01  4.463930e-01  -1.008261e+00  -1.754458e+00  -1.567378e+00  -8.104100e-01  -5.913987e-01  
      </Weights>
      <Biases Rows="128" Columns="1">
        -3.384384e-01  1.677146e+00  -2.507841e+00  -2.338460e+00  8.413818e-02  3.312633e-01  -7.390537e-01  -1.279726e+00  -1.182984e+00  -2.378781e+00  1.509915e+00  1.905728e+00  1.364818e+00  -1.383582e+00  -4.793613e-01  2.005946e+00  -2.345299e+00  8.782557e-01  -9.248408e-02  9.663158e-01  2.683810e+00  -1.852050e+00  2.515385e-01  2.197860e+00  -7.759330e-01  2.578651e+00  -3.848871e-01  2.337761e+00  1.260863e+00  1.274619e+00  -6.633306e-01  1.791900e+00  2.271426e+00  -1.361252e+00  2.152192e+00  1.694632e+00  -1.964449e+00  1.840010e+00  1.575027e-01  6.600345e-01  7.891853e-02  3.726156e-01  1.437189e+00  -2.314060e+00  -1.135510e+00  1.926867e+00  1.424902e+00  -4.517689e-01  2.226392e+00  -2.387015e+00  1.378253e+00  4.956542e-02  -2.539707e+00  -1.886366e+00  2.107555e+00  -1.633570e-01  -1.376626e+00  2.379496e+00  -1.533741e+00  1.622393e+00  -1.034915e-01  -4.735404e-01  1.914911e+00  4.871368e-01  -3.239704e-01  1.870342e+00  1.233522e+00  1.536002e+00  -3.936684e-01  -1.757217e+00  2.449786e-01  -8.706775e-01  8.844736e-02  1.241309e+00  1.797354e+00  -2.382582e+00  -1.506196e+00  -1.300047e+00  -1.458497e+00  2.394332e+00  -2.660645e+00  1.386523e+00  -6.016168e-01  -2.278097e+00  -2.347769e+00  2.302869e+00  9.374436e-01  -2.403420e+00  -1.404307e+00  1.338299e+00  -2.278005e+00  7.208318e-01  -1.967466e+00  1.552810e+00  1.375877e+00  -1.357932e-01  -3.300595e-03  2.319034e+00  1.445511e+00  -1.840271e+00  1.508483e+00  1.072688e+00  1.852022e+00  -1.640292e+00  1.758496e+00  -3.584079e-01  3.309419e-01  1.342307e+00  -2.481801e+00  1.286140e+00  2.106648e+00  -1.086851e+00  7.307281e-01  -1.030063e+00  -1.295970e+00  -1.124205e+00  1.182491e+00  -1.240420e+00  1.339303e+00  -2.139193e+00  -2.286638e+00  1.493888e+00  1.123086e+00  -1.362943e+00  2.051120e+00  2.386631e+00  2.050166e+00  1.632121e+00  
      </Biases>
    </DenseLayer>
    <DenseLayer Width="128" ActivationFunction="3">
      <Weights Rows="128" Columns="128">
        -3.107955e+00  -4.916384e+00  1.860185e-01  1.433485e+00  -2.545435e+00  -3.245848e-01  4.251034e+00  2.730426e+00  -1.491074e+00  6.561069e-01  1.650150e+00  -1.418471e+00  1.806078e+00  -1.549777e+00  -1.011551e+00  -5.712899e-01  -2.204504e+00  2.364493e+00  2.005781e+00  4.086193e-01  7.310104e-01  1.211909e+00  -1.375688e+00  -2.117230e+00  3.339678e+00  2.231049e+00  -3.129343e+00  -1.526686e-01  2.010478e+00  4.863813e-01  1.865894e-01  2.115115e+00  -1.927884e+00  1.617763e+00  3.948511e-01  1.479982e+00  -2.896295e-01  -6.609249e-01  2.578640e+00  -3.589771e+00  2.541544e-02  1.722816e+00  -1.674278e+00  -1.882087e-01  8.042433e-01  -6.915815e-02  -8.488919e-02  -4.888457e-01  7.095112e-01  3.186167e+00  3.712028e-01  9.380463e-01  -1.647380e+00  -3.829400e+00  1.237171e+00  -7.930979e-01  -1.136459e-01  8.871454e-01  -2.377652e+00  2.451266e+00  -8.144739e-01  -1.455793e+00  1.436962e+00  -4.976603e+00  -1.865062e+00  -9.116315e-01  9.503253e-01  2.039854e+00  -3.376993e-02  1.267680e-01  2.177420e+00  -1.973904e+00  2.660103e+00  -3.687728e+00  -2.666522e-02  1.877171e+00  -8.951349e-01  -5.034785e-01  -3.054768e-01  1.001054e+00  -6.391319e-01  5.175345e-01  -1.682758e+00  8.469277e-03  8.047479e-01  8.705000e-01  2.550788e+00  -3.519220e-01  -1.811054e+00  2.531205e-01  -3.119939e+00  1.735086e+00  -3.023407e+00  -1.172468e+00  1.167622e+00  4.615058e-01  -2.392530e+00  -7.877451e-01  -1.613621e+00  7.708769e-01  -1.612601e-01  -1.631417e+00  -5.241039e-01  -2.410213e-01  -1.701539e-01  -3.008064e+00  4.730099e+00  -4.608032e-01  -4.317618e-01  7.589037e-01  -1.506173e-01  -1.874502e-01  2.216128e+00  -1.423872e+00  -2.923334e+00  -1.788957e+00  1.417501e+00  -2.500483e+00  -8.442849e-01  -9.373727e-03  -1.339020e+00  2.338523e+00  -1.169717e+00  -1.113160e-01  1.316740e+00  1.328694e+00  2.022062e+00  4.822468e+00  8.675569e-01  -1.683486e+00  6.599225e+00  -1.662142e+00  5.304253e-01  1.147549e+00  2.963103e-01  5.197468e+00  -7.163219e-01  -1.036693e+00  -6.426122e-01  -1.051044e+00  1.533027e-01  1.311418e+00  1.247586e+00  1.241304e+00  -9.887509e-02  7.234222e-01  -1.578100e-01  3.810175e-01  -6.292847e-01  4.213265e+00  -4.755286e-01  -1.047557e+01  3.624574e-02  6.436388e-01  3.419364e+00  1.430232e+00  1.643416e-02  -1.316085e+00  1.090362e-01  3.885748e-01  2.139703e+00  -8.108356e-01  -6.105307e+00  1.465998e+00  4.857003e+00  -1.926479e+00  -2.227759e+00  -4.138661e-01  6.676019e-01  -9.368895e-01  9.492469e-01  -1.552277e+00  8.496909e-01  -2.096279e+00  -1.553131e+00  -6.811528e-01  2.060554e+00  -1.330572e+00  -2.045971e-02  -5.679870e+00  1.184233e+00  -8.760158e-03  3.890253e-02  2.279485e-01  -2.284117e+00  -1.659376e+00  2.039737e+00  6.944596e-01  2.452087e+00  1.011755e+00  4.519868e-01  1.165400e+00  6.885282e-01  4.939756e-01  -2.293607e+00  -1.009308e+00  3.948375e-01  8.229370e-01  -3.158721e-01  1.050172e+00  1.337176e+00  -8.952180e-01  -1.281660e+00  -8.041992e-01  2.797221e+00  -3.425778e-01  1.104818e+00  -7.370448e+00  6.037078e-01  -1.177062e+00  1.736204e+00  3.278962e-01  -6.769316e-01  -5.989816e+00  -1.987265e+00  1.353015e+00  -2.212521e+00  1.413456e-01  -1.138316e+00  -3.579569e-01  -1.402697e+00  -1.992706e-01  -2.697799e+00  -3.380048e+00  1.119004e+00  -3.703728e-01  -1.593884e+00  -4.648235e-01  1.919246e-01  1.064184e+00  1.060501e+00  2.279315e-01  -6.100642e+00  -6.564663e-01  -1.355582e+00  -1.913060e+00  -2.014968e+00  6.535952e-01  7.194917e-01  2.089204e-01  3.119868e-01  -4.902048e-01  9.670558e-01  1.113254e+00  -2.276425e+00  1.373247e+00  -6.458494e+00  1.459924e+00  -3.604795e+00  -3.000568e-01  -2.323948e-01  -5.115603e+00  6.706425e-01  -4.935035e-01  1.900002e+00  1.005348e+00  -1.804503e+00  9.863450e-01  -3.521144e+00  -1.903151e+00  -1.150620e+00  -3.560374e+00  -1.949998e-01  -1.317135e+00  -1.524962e+00  8.707457e-01  -7.025052e-01  1.352018e+00  1.510759e+00  2.885583e+00  8.165975e-01  -2.447558e+00  5.610496e-01  1.950395e+00  3.468170e-01  -1.287790e+00  1.790857e+00  -2.770663e+00  -1.291198e+00  7.280959e+00  -6.742235e-01  6.022381e-02  -2.972579e+00  1.207170e+00  -5.682941e-01  -1.448748e+00  1.073700e-01  -3.975499e-01  -1.242753e+00  7.400469e-02  3.646188e+00  -1.023414e+00  -3.129248e+00  2.834068e+00  4.775734e-01  -3.052811e+00  1.461929e+00  -1.148453e+00  -1.680590e+00  -1.014309e+00  -1.045314e+00  3.717225e+00  3.637473e+00  1.985069e+00  -2.626183e+00  -1.405828e+00  -9.819946e-01  -8.679964e-01  -1.526429e+00  -2.175203e+00  -1.002378e+00  2.406671e+00  -9.254298e-01  2.410748e-02  7.230104e-01  2.317900e+00  1.444543e+00  -6.403674e-01  8.338404e-01  -5.580362e-02  -2.063698e+00  1.832893e+00  -3.412523e+00  2.788350e+00  -2.332294e+00  -4.315308e+00  2.063568e+00  6.310368e-01  -2.064385e+00  1.175042e+00  2.694544e+00  3.108623e-02  -5.940656e-02  -7.888793e-01  -1.191506e+00  7.291442e+00  -2.168656e+00  1.872018e+00  -4.243935e+00  -8.281685e-01  1.260170e+00  2.278782e+00  9.839382e-01  1.132183e+00  2.650896e+00  2.076138e+00  -1.492190e+00  -2.047094e+00  -2.071065e+00  1.642318e+00  2.834483e+00  -1.512620e+00  -8.974870e-01  -8.958886e-01  1.998510e+00  2.381913e+00  1.649595e-01  2.743748e-02  7.605689e-01  -2.000839e+00  6.803145e+00  -8.378353e-01  1.086178e+00  -1.889434e+00  -8.624068e-01  1.454864e+00  -1.326638e+00  -5.099958e-01  -2.317331e+00  -1.523125e+00  -1.486965e+00  -1.091217e+00  -1.391925e+00  -8.804596e-01  4.471195e+00  -8.845692e-01  2.258682e+00  4.653923e-01  1.340469e+00  3.839280e+00  1.699968e+00  -1.629571e+00  -3.055970e+00  1.144518e+00  -7.942705e-01  -2.923247e+00  1.696162e+00  5.661930e+00  -3.840940e-01  -1.156656e+00  -4.934545e-02  -5.713246e-01  -7.018634e-02  8.932645e+00  -2.021238e-01  -4.042979e+00  7.637936e-01  7.922297e-01  1.094810e+00  1.615002e+00  7.525596e+00  -4.342935e-01  -1.220645e+00  1.459540e+00  -4.796889e+00  1.330270e+00  3.992775e+00  -5.870618e-01  -1.150275e+00  -3.111362e+00  9.563974e-01  -6.108076e+00  -4.014802e-01  -8.670905e-01  -2.712820e+00  -2.425898e+00  -5.675607e+00  -1.925239e-01  2.673732e-01  -2.737213e+00  2.421461e+00  1.015112e+00  -8.735673e-01  1.517016e+00  1.023759e+00  5.785127e-01  -1.971435e+00  7.459086e+00  -1.434439e+00  -1.228373e+00  1.132461e-01  2.444317e+00  -6.183114e+00  1.206671e+00  -1.172121e+00  6.667014e-02  9.667042e-01  -1.058746e+00  -6.517670e+00  -4.320954e-01  2.585905e-01  -3.626174e+00  -8.892510e-01  -2.269585e+00  4.113866e-01  -4.982457e-02  -9.080803e-01  1.697593e+00  1.917354e-01  1.696323e+00  -1.005062e+00  1.112834e+00  1.053248e-01  -1.949678e+00  -1.697073e+00  -7.357991e-01  1.751189e+00  3.637794e-01  -4.697763e-01  7.882678e+00  -1.918582e+00  -1.377438e+00  1.038285e+00  -1.453603e+00  1.647003e+00  -2.205898e-01  -1.312335e+00  2.603799e-01  -8.913338e-01  -1.071841e+00  -8.010618e-01  6.931068e+00  2.158621e+00  1.045230e+00  1.323851e+00  -3.760910e-02  1.249053e+00  -9.958396e-01  -1.425061e+00  9.840741e-01  1.335901e+00  -3.137153e+00  7.743866e-01  -2.579516e+00  -5.831078e-02  1.413677e+00  -1.397188e+00  7.286712e-01  2.779410e+00  1.333992e+00  -1.605903e+00  2.092026e+00  6.049711e+00  4.464941e-04  4.422774e-01  1.687344e+00  -7.779644e-02  -7.672715e-01  -1.993080e+00  1.047331e+00  -1.721210e+00  3.607660e-01  -4.918847e-01  -2.383329e-01  9.521285e+00  -2.029120e+00  7.066989e-01  1.659332e+00  -1.520510e+00  -4.093397e+00  -5.200273e+00  -8.670350e-01  8.134320e-01  -6.271675e-01  -1.070082e+00  -9.342551e-01  -1.138376e+00  -1.881852e+00  2.548663e-01  -4.765415e-01  -6.263825e-01  -4.229334e-01  5.645090e-02  -4.952291e-01  -2.273484e-01  -1.124799e+00  -6.219736e+00  -3.585248e+00  -1.146978e+00  1.912220e-02  1.585453e+00  -5.070089e-01  7.770547e-01  -3.047446e+00  -1.947991e+00  3.441610e+00  -7.985247e-01  7.122055e-01  -1.549962e+00  1.242269e+00  8.982345e-01  1.572173e+00  -1.706003e-01  1.259817e+00  -4.697715e-01  1.611958e+00  1.100534e+00  7.361985e-02  -3.255622e+00  2.411087e+00  1.895774e-01  6.803500e-01  -7.989267e-01  7.417700e-01  1.930164e-01  1.499505e+00  9.528250e-02  1.253571e+00  4.158721e+00  1.306255e+00  -5.994433e-01  -2.437916e+00  -1.681949e+00  4.004763e+00  -7.361824e-01  6.057555e-01  -4.542784e-01  2.302951e-01  -5.767661e-01  3.997313e-01  -4.335829e+00  1.850271e+00  2.078296e+00  1.228277e+00  -3.361455e-01  -1.379818e+00  -2.209275e+00  -7.753501e-01  -1.155749e-01  2.169878e+00  -1.097029e+00  2.115370e-01  4.311668e+00  2.485856e+00  7.933925e-01  -3.682077e+00  -2.138466e+00  -2.994160e-01  -6.726826e-01  3.561125e-01  -9.749060e-01  2.362133e+00  7.225935e-01  -9.275077e-01  -5.495230e+00  1.332675e+00  1.549146e+00  2.418161e+00  -8.258594e-01  3.661273e-01  -5.719245e-01  3.008758e+00  -8.025038e-01  -6.907936e-01  5.744087e-01  5.896096e-02  1.742152e+00  1.947096e+00  -3.019563e+00  -2.661328e-01  4.990424e+00  2.227437e+00  2.445014e+00  1.906205e+00  1.488388e+00  -3.730727e-01  1.852964e+00  -8.253693e+00  5.079143e+00  3.680576e-01  -4.642634e-01  -2.464475e+00  1.216571e+00  -5.062229e+00  3.753079e+00  -7.835375e-02  -3.493923e+00  -1.841493e+00  -6.116889e-01  1.317510e+00  1.729701e+00  -1.548413e-01  -1.091787e+00  2.584647e+00  1.752516e+00  -2.632781e+00  2.744053e-01  1.700477e+00  -5.703387e-01  1.016357e+00  1.524317e-01  -1.350470e+00  -2.283856e+00  8.025091e+00  -2.954656e+00  1.800117e+00  -1.608868e-01  -1.913227e-01  6.713815e-01  4.037182e+00  4.201944e-01  -3.367011e+00  -2.283288e+00  -1.099036e+00  -4.536132e+00  9.923921e-01  8.063654e+00  1.034383e+00  -1.183863e+00  1.130763e-01  -2.094860e+00  -9.546146e-02  -4.493762e-01  3.902590e+00  -3.305776e-02  -1.208054e+00  -9.525248e-01  -6.974252e+00  8.009189e-01  -2.997712e-01  -8.754011e-01  1.111140e+00  -6.350836e+00  -2.480065e-01  1.281756e+00  8.707533e-01  -3.610334e+00  5.088760e-01  3.417543e-01  2.577251e+00  -1.647979e+00  -2.284712e+00  -3.388456e+00  6.938449e+00  -1.279985e-01  -2.013108e+00  6.810827e-01  -5.156517e-01  -6.791417e+00  -1.446159e+00  1.647268e-01  2.877762e-02  2.716136e+00  2.625314e-01  -3.780679e+00  7.614753e-02  -1.600402e+00  -1.405218e+00  -4.747887e-02  3.144287e-01  -1.271615e+00  2.668723e-02  -1.068942e+00  -1.570292e+00  1.234457e-01  -5.694477e-01  2.442684e+00  2.121101e+00  -3.342120e-01  -1.506295e-01  2.038979e+00  -1.392859e-01  1.110376e+00  -3.986917e-02  -5.024578e-02  7.330914e+00  1.662895e-01  6.068125e-01  -2.067890e+00  5.485007e-01  1.304414e+00  1.061568e+00  -2.866330e+00  2.840570e+00  -5.981643e-01  1.943942e+00  -1.063065e+00  2.761798e+00  2.501650e+00  -7.940731e-01  5.912215e+00  6.089519e-01  2.754693e+00  3.953486e-01  1.213704e+00  -1.044367e+00  -6.788955e-01  -7.566752e+00  7.488241e-01  1.401994e+00  -3.451402e-01  1.417745e-02  2.212224e+00  -8.429620e-02  5.024497e+00  -1.724630e-01  -3.839026e-02  -1.451017e-01  1.084085e+01  -2.318257e+00  -2.623366e+00  -1.017174e+00  7.679389e-01  5.528834e-01  -1.739808e-01  1.940774e-01  -1.280975e+00  -9.020356e-01  1.138837e+00  6.138251e-01  1.026224e+01  1.481421e+00  -8.891211e-01  2.445603e+00  1.849286e+00  -8.423133e-01  -2.486932e+00  6.002910e-01  1.752785e+00  -1.351061e+00  -1.773159e+00  -1.126414e+00  4.635677e+00  -8.346112e-01  -4.686731e-01  -1.326637e+00  4.827051e-01  -1.408010e+00  1.208636e-01  -1.301348e+00  2.077981e+00  1.242815e-01  -1.519717e+00  -2.864315e-02  -1.192718e+00  -7.493269e-01  -1.982327e+00  -3.785847e-01  2.666394e+00  -4.085191e+00  1.913166e+00  4.091871e+00  -2.738800e+00  2.337491e-01  -7.181969e-01  -5.870587e-01  -2.227468e+00  -9.181645e-01  -3.374263e-01  -5.447728e-01  2.228027e+00  -4.220525e+00  -4.299613e-02  -1.772762e+00  -1.108048e+00  -2.740460e+00  1.865110e+00  4.052896e+00  2.381308e-01  3.000712e+00  4.014545e+00  -1.331767e+00  1.410897e+00  -7.137120e-01  2.801433e+00  2.367269e+00  6.543292e-01  1.053509e+00  -1.242105e+00  3.454698e+00  -2.601811e-01  1.031182e+00  1.375237e+00  7.629298e-02  5.223583e-01  1.701700e+00  6.509986e-01  6.230469e-01  -8.073463e-02  1.465611e+00  -3.920129e+00  4.836125e-01  1.191692e+00  1.774959e+00  -1.395505e+00  5.198482e-01  3.519081e-01  -4.156056e+00  5.836764e-01  -2.085723e+00  1.521382e-02  1.398031e+00  -1.359818e+00  -1.258649e+00  -4.887538e-01  1.330999e-01  -3.221034e-01  4.828383e+00  -9.587597e-01  3.655104e+00  -6.307124e-01  1.387772e+00  2.744665e+00  1.735163e+00  -1.415846e+00  -2.556073e+00  -9.807753e-01  3.017820e+00  -2.649464e+00  6.916786e-01  -1.688719e+00  -2.512457e+00  -3.076818e-01  2.234075e-01  5.783376e-01  6.041815e-01  1.675477e+00  -9.831953e-01  -1.180054e+00  1.501718e+00  -6.673439e-01  -4.066753e-01  1.328676e+00  -1.589351e+00  4.182513e+00  2.329760e+00  -2.165980e+00  -9.228432e-01  1.284173e+00  -6.034367e+00  -8.578600e-01  2.031389e+00  2.230969e+00  3.095777e+00  -2.275558e+00  -5.523246e-01  2.321317e+00  1.430492e+00  9.686294e-01  -3.091343e+00  7.582814e-02  -7.582215e-01  6.985119e-01  7.166187e-01  2.108110e+00  -8.174158e-02  -1.866765e-01  -2.271854e+00  1.260501e+00  -6.837063e+00  2.877444e-01  2.708287e+00  1.699415e+00  1.166780e+00  -9.408230e-01  -7.768485e+00  2.677796e+00  1.440256e+00  -3.673051e-01  -9.525531e-01  2.350841e+00  5.816956e-01  -7.466470e+00  1.903451e+00  3.084373e-02  -3.701179e-02  1.075888e+00  1.387521e-01  -3.096032e-01  -1.274586e-01  2.729897e+00  1.442019e+00  -2.560457e+00  3.554603e+00  5.939603e-01  -1.260933e+00  6.714228e-02  2.321561e+00  9.713221e+00  -1.847207e-01  1.935994e+00  1.667696e+00  -1.765642e+00  7.067792e-01  2.961968e-01  -4.433071e-01  5.242923e-01  1.636174e+00  1.345402e+00  -5.654271e+00  1.563737e+00  -1.791506e+00  -8.423856e-01  -3.415864e+00  6.887612e+00  -1.642643e+00  -6.311713e-01  2.064207e-02  7.047917e-01  -6.303300e-01  5.461861e+00  1.368809e-01  -2.591015e-01  1.180466e-02  -2.425072e+00  -1.972854e-01  1.104922e+00  1.951936e+00  -2.312950e+00  9.553862e-01  -8.632876e-01  -1.051991e-01  1.789450e+00  -1.222009e+00  -4.900207e-02  4.022332e-01  2.678817e-01  5.028961e-01  -1.681373e+00  -2.816515e-01  -7.436298e-01  -7.965941e+00  7.130873e-01  -5.102693e-02  -6.516896e-01  -2.084957e-01  -2.117683e+00  -1.160917e-01  1.258481e+00  -7.296386e-01  -8.701182e-01  -4.433881e-01  1.160534e+00  -7.378960e+00  -3.027389e+00  5.674900e-01  -2.183765e+00  -1.551518e+00  1.537183e-01  7.233761e-02  5.715646e-01  -2.170950e+00  -5.198848e-01  2.942288e+00  -1.288107e+00  -2.443963e+00  6.490412e-03  3.516813e+00  1.826845e+00  2.667185e-01  1.391570e+00  -1.244626e+00  -5.129433e-01  5.554737e-01  -4.689511e+00  -1.137535e+00  2.914546e+00  1.744918e+00  2.409962e+00  -2.717848e+00  -8.402240e-01  -2.216215e-01  -2.285531e-01  -3.081996e+00  -3.761340e-01  2.180000e+00  -1.224798e+01  9.783773e-01  1.394253e+00  -2.817384e+00  -1.008520e+00  1.645992e+00  8.200321e+00  3.567349e-02  1.779552e+00  7.579429e-01  -1.218707e+00  1.116856e+01  -8.847594e-01  -1.430390e-01  -9.418118e-01  -1.816602e+00  7.468065e-01  6.068313e+00  1.887189e+00  -1.856494e+00  -2.581773e-01  -6.216100e-01  -1.837266e+00  1.396256e+00  8.701416e+00  -5.244961e-01  1.316047e+00  -2.245308e-01  -2.424470e+00  -1.741414e+00  9.331836e-01  4.165182e-01  3.245451e-01  -1.891145e+00  -1.835686e+00  -9.163438e+00  2.382403e+00  2.479120e+00  -1.739974e-01  1.366594e+00  -1.156825e+01  1.806211e+00  -7.449994e-01  -1.052345e+00  -8.626739e-01  1.453338e-01  2.724965e+00  1.335196e-01  -5.611570e-01  1.429513e+00  -1.407181e+00  6.900566e+00  -1.752251e+00  -3.578849e+00  3.430926e+00  -1.297684e+00  -1.027846e+01  1.836571e-01  8.290804e-01  1.826099e+00  9.064444e-01  6.068023e-01  -3.262819e+00  -1.949995e+00  2.208323e+00  -1.123902e+00  -1.564097e+00  -1.781652e+00  5.103818e-01  1.515478e+00  8.198102e-01  -1.303921e+00  -1.941220e-01  4.914369e-01  1.586590e+00  1.740286e-01  -8.754714e-01  5.169604e-01  -1.006228e+00  2.793670e+00  5.396309e-01  -3.469735e-01  1.361266e+00  7.834308e+00  -7.752154e-01  -2.231041e-01  -3.397228e-01  -8.367111e-02  -3.304899e+00  -2.132931e+00  -1.957167e+00  -7.824671e-01  1.858786e+00  7.665928e-01  4.283259e-01  6.084186e+00  2.491181e+00  4.586173e-02  -2.389945e-01  -1.309148e+00  2.890154e+00  -1.624280e+00  2.518752e+00  8.518535e-01  -1.398555e+00  -5.026484e+00  1.216652e+00  -8.167109e-01  -8.082684e-01  1.025615e+00  8.113464e-01  -9.511153e-01  1.835340e+00  -1.489411e+00  2.841954e+00  -1.007999e+00  1.051204e+01  -4.189332e-01  -5.902108e-01  -3.705132e-01  3.798427e-01  -1.026193e+00  -1.348709e+00  2.016005e+00  -3.672030e-01  -6.034923e-01  6.715803e-01  6.908187e-01  8.102416e+00  -1.293065e+00  6.560475e-01  -6.270528e-01  -6.934187e-01  5.782219e-01  -6.149934e+00  2.665617e-01  4.332311e-01  2.138288e+00  -3.119507e+00  -1.680915e+00  1.540801e+00  2.180209e+00  9.736663e-01  -1.537868e+00  -8.188899e-01  -9.454513e-01  -4.789995e-01  -1.501104e+00  -1.364038e+00  2.479458e+00  -1.756068e-01  -2.607644e+00  1.806649e+00  -1.147213e+00  -2.262510e-03  1.479772e+00  1.058893e+00  -4.578978e+00  -4.297489e-01  5.805790e+00  -2.985455e+00  4.001919e-01  1.102089e+00  4.038687e-01  -1.278971e+00  1.604173e+00  -7.771449e-01  1.583800e+00  -2.235043e+00  8.227613e-01  3.361377e+00  -2.637645e+00  -2.174943e+00  -6.565744e-01  2.421148e+00  2.675296e+00  1.026145e+00  -1.685892e+00  -8.611889e-01  7.105839e-01  -3.068246e+00  5.864976e+00  6.094563e+00  4.632170e+00  3.956894e-01  7.656192e-01  -3.483257e+00  3.686377e+00  -1.143295e+00  -9.796392e-01  1.754769e+00  -9.362064e-01  -2.019760e+00  -5.619355e-01  -1.624342e+00  7.662171e-02  -1.835886e+00  2.203113e+00  -1.305867e+00  -4.515767e-01  1.322508e+00  2.049633e+00  -1.313473e+00  1.590092e+00  -2.266423e+00  1.061947e-01  2.164882e+00  7.765591e-02  2.642768e-01  6.222425e-01  -8.078065e-01  -2.274813e+00  -2.204842e+00  -4.924678e-01  2.248788e-01  7.510132e+00  1.549015e+00  1.446722e+00  1.692626e-02  -3.248618e+00  1.189335e+00  1.890013e+00  5.432227e-01  3.504133e-01  3.325909e-01  3.243107e+00  -1.878924e+00  -8.753810e-01  7.174378e-01  -7.790215e-01  7.490373e-01  2.938178e-01  -8.585276e-02  2.262879e+00  2.625518e+00  1.333363e+00  -2.006891e+00  -2.623114e+00  5.452839e-01  -5.909867e-01  4.063311e+00  1.558189e-01  -5.645848e-01  -1.512146e+00  -2.748362e-01  -3.471154e-01  4.840965e-01  -2.945640e+00  2.780020e-01  -3.644198e-01  -2.318366e+00  1.738798e+00  1.474257e-01  9.209282e-01  4.020196e+00  8.888521e-01  8.618812e-01  7.123650e-01  1.477089e+00  1.835105e-01  -1.943157e+00  9.990205e-01  -2.078903e+00  2.792232e-01  2.433349e+00  -3.676765e-02  1.210019e+00  9.122703e-01  -1.316711e+00  -4.498526e-01  2.325649e+00  1.141000e+00  -8.109862e-01  1.242900e+00  -3.485301e-01  3.395441e+00  -4.102130e+00  -9.075701e-01  1.046596e+00  -8.394548e-01  2.282799e+00  7.518602e-02  -1.695034e-01  2.564749e+00  -1.484640e+00  3.318356e+00  -6.404306e+00  -4.006268e+00  2.204007e+00  -2.228418e+00  2.632342e+00  4.444209e-01  7.475858e-01  6.746334e-01  -9.165339e-01  -1.080431e+00  7.132360e-01  1.107674e+00  -2.489727e-01  3.038282e+00  1.672247e+00  -5.432406e-01  1.034843e+00  -1.935271e+00  -8.543854e-01  2.228164e+00  -3.419333e+00  1.692026e+00  1.909768e+00  -1.569976e+00  -7.390404e+00  -1.188179e+00  5.999504e-02  -1.028124e+00  1.268055e-01  1.102728e-01  4.034626e+00  1.006473e+00  -2.379692e+00  -2.483165e-01  -2.266784e-01  -1.488767e-01  3.112819e+00  -9.571483e-01  6.247897e-01  -7.274439e-01  2.641355e-01  -2.341669e+00  7.820716e-01  -1.041614e-01  3.540438e+00  -6.209024e+00  6.023938e-01  9.261540e-01  -4.508330e+00  4.893843e-01  3.452834e-01  -1.469304e+00  -9.130626e-01  -4.268076e-01  3.671277e+00  5.550349e-01  -1.618542e+00  -1.033784e+00  1.835030e+00  1.852293e+00  6.502169e-01  -7.072797e-01  -2.844440e+00  -4.116871e+00  9.117028e-01  1.129764e+00  1.558112e+00  -2.161569e+00  1.816564e+00  -1.599738e+00  9.362881e-01  1.725873e-01  -1.073688e+00  5.324398e-01  2.219813e+00  -5.692576e-01  -2.979520e+00  6.946855e-01  -2.460410e+00  -2.781489e+00  -3.917456e-02  1.364613e-01  -3.181462e+00  -1.433935e+00  -3.461942e+00  -2.120780e+00  2.669525e-01  4.164290e-01  -8.702089e-02  2.127900e+00  1.568983e+00  3.192603e-01  1.696093e+00  -1.160212e+00  1.866991e+00  6.067445e-01  -7.889942e-01  2.894276e+00  -2.654875e+00  6.037358e-01  -1.335427e-01  -4.457422e-01  2.175863e+00  -1.265535e+00  7.448071e-01  -6.959865e-01  -2.690851e+00  -1.407654e+00  -2.470791e+00  -2.775510e+00  2.982028e+00  -1.580534e+00  -8.520961e-01  -8.420911e-01  6.779130e-01  -1.373257e+00  -1.002456e+00  -9.883962e-01  5.354172e+00  -7.597283e-01  -3.582950e+00  -1.535835e+00  2.680116e+00  -4.127656e-01  -3.022800e+00  2.438520e+00  -2.140430e-01  -4.522913e-01  -1.101287e-01  3.603843e+00  -4.580134e-01  7.042229e-01  -1.598271e+00  -5.082002e-01  -1.220601e+00  -2.640631e-01  9.438087e-01  -1.833693e+00  1.896937e+00  -1.831569e+00  5.677619e+00  -2.071832e+00  -1.853283e+00  1.602233e+00  -2.668493e+00  1.955112e+00  1.133893e+00  -3.769581e-02  1.933128e+00  -9.896800e-01  1.667376e+00  1.211724e+00  2.050714e+00  6.166224e-01  -1.208344e+00  1.550230e+00  1.174948e-01  7.635140e+00  -6.756110e-01  3.050995e+00  3.520069e-01  1.387035e+00  -1.908100e+00  -1.294620e+00  -1.977491e-02  6.736406e-01  -1.589261e-01  1.638954e+00  4.453560e-01  1.234507e+00  -4.575877e-01  1.791547e+00  1.021358e-01  4.290184e-01  4.777116e-01  -2.405862e+00  2.968470e+00  1.354844e+00  1.304297e+00  -2.922419e-01  -7.018921e-01  1.115399e-01  -8.034480e-01  1.828444e+00  5.333121e-01  3.409428e+00  -8.416077e-01  2.559890e+00  -3.902098e+00  4.108128e+00  1.972890e+00  2.629739e+00  3.759636e-01  2.265085e-01  -3.473848e+00  -1.070360e-01  8.171207e-01  -3.301337e+00  -8.150722e-01  1.120483e+00  2.354857e+00  6.454724e-01  -1.433559e+00  7.001417e-01  1.508278e+00  1.903749e+00  -3.251035e+00  -9.128331e-01  -6.176557e-01  -1.664002e+00  4.056799e+00  -4.573535e+00  4.458174e+00  -1.210724e+00  -4.726129e-01  2.784579e-01  6.371899e-01  -4.251179e+00  -2.859861e-01  1.048270e+00  1.489289e+00  7.468700e-01  -1.003955e+00  -2.285060e-01  1.672446e+00  -2.516902e+00  -9.020644e-01  -2.604944e+00  8.772665e-01  -9.610182e-01  -9.764488e-01  1.063665e+00  3.746778e-01  -6.218600e-01  3.834570e-01  -6.929392e-01  -3.375579e+00  8.623976e-01  7.458091e-01  1.146943e+00  -2.823383e+00  -2.295022e+00  -1.787935e+00  -5.827134e-01  -3.383782e-01  -6.870306e-01  -1.047541e+00  -4.344203e-01  -5.351442e-01  -9.974911e-01  4.199270e-01  -6.995578e-01  1.224755e+00  -8.690140e-01  -4.127593e+00  -2.226676e+00  3.726413e-01  3.749553e+00  1.592257e+00  1.260077e+00  -1.661603e+00  -9.563642e-01  2.159369e+00  5.771043e-01  -4.382041e-01  1.017715e+00  -2.923054e+00  -3.039399e-02  3.439587e+00  -1.898082e+00  -2.835317e+00  -2.322765e-01  4.139383e+00  2.491098e+00  8.384468e-02  8.562381e-01  -2.991217e+00  3.575763e+00  -3.671370e+00  4.505940e-01  6.517844e-01  2.715431e+00  -3.731048e+00  -2.584496e-01  -1.367283e+00  1.693406e+00  -7.536895e-02  -4.772394e-03  -1.082603e+00  -1.074751e+00  -3.852444e-01  1.908568e+00  7.800423e-01  2.701962e+00  2.781213e+00  1.533833e+00  2.900425e+00  -9.365309e-01  1.233258e+00  1.005798e+00  -6.249394e-01  -6.793994e-01  5.943100e-01  1.157038e+00  2.122953e+00  1.492953e+00  -2.812940e+00  -4.197390e-01  1.409360e+00  1.489006e+00  9.848381e-01  2.140978e+00  2.351516e+00  5.172795e+00  -1.264935e+00  -1.041339e+00  -1.255745e+00  2.534808e-01  1.597689e+00  3.224416e+00  -2.204223e+00  1.538748e+00  2.061407e+00  1.275283e+00  1.209850e-01  -4.079587e+00  4.980289e-01  5.117444e-01  3.499361e+00  1.349162e+00  -2.661860e+00  -7.928901e-01  2.604161e+00  3.589581e+00  2.153870e-01  -2.194149e+00  -6.630523e-01  1.008153e+00  2.708031e+00  -3.781687e+00  1.333113e+00  1.136535e-01  2.000915e+00  2.827132e-02  7.361416e-02  -3.505549e+00  1.583020e+00  -9.759795e-01  -1.342046e-01  -7.123373e-01  -7.059477e-01  -1.712777e+00  7.894439e+00  -1.755695e+00  3.898447e+00  3.222812e+00  -3.387101e+00  1.775477e+00  -8.001387e-01  1.189113e+00  -1.549051e+00  1.594696e+00  8.230482e-02  4.537148e-01  -1.133061e+00  -1.798352e+00  2.339772e+00  -5.289878e-01  -3.351595e+00  -1.900778e+00  2.409700e+00  -1.843962e+00  1.810083e+00  1.468581e+00  2.002949e+00  -3.072952e+00  -4.318380e+00  1.428498e+00  1.190088e+00  -5.048143e-01  1.334922e+00  3.157063e+00  2.200179e+00  -3.570872e+00  1.374015e+00  2.192932e+00  1.042973e-01  -4.066307e+00  -5.781653e-01  3.900331e+00  -9.477621e-02  1.689334e+00  -1.841009e+00  -1.808334e+00  1.953525e+00  -1.590422e+00  7.243087e-02  3.097025e+00  6.345453e-01  -9.016345e-01  -4.423438e+00  3.586401e+00  -1.181852e+00  -8.360589e-01  -5.781584e-01  -1.439330e+00  -3.434500e-01  4.173887e-01  1.633292e+00  -7.408539e-01  4.048158e+00  -9.573414e-01  2.013391e+00  5.609459e-01  2.873656e+00  1.139602e-01  9.455996e-01  6.041360e-01  7.547681e-01  8.043098e-01  5.299155e-01  -5.434228e-01  1.405973e+00  -2.669425e+00  -1.106823e+00  2.612233e+00  -1.027208e+00  2.748255e+00  -1.067985e+00  -1.591060e+00  2.737105e+00  -2.261892e+00  1.182443e+00  8.831209e-01  1.882996e-01  8.632322e-02  -2.342311e+00  -1.564821e+00  4.484689e-02  3.832317e+00  -8.911878e-01  1.723857e+00  -1.129365e+00  3.878353e-01  -1.595114e+00  2.920523e-01  3.061809e-01  3.047595e+00  -1.475785e+00  -2.233367e+00  -2.713444e+00  4.707111e-01  -1.487708e+00  5.542983e-01  6.269882e-01  -2.235523e+00  2.539128e+00  -7.300483e-01  -2.835442e+00  1.964273e+00  2.715374e+00  -4.017721e+00  -1.121821e-01  9.516448e-01  -1.685306e+00  -1.545536e+00  5.714050e-01  1.743944e-01  3.984226e+00  -3.952560e-01  -1.591882e+00  -2.289447e+00  1.028851e+00  -4.085518e+00  -3.132460e+00  1.140153e-01  1.479574e+00  -9.346843e-01  -6.219738e-01  3.089670e+00  2.126939e+00  3.060331e+00  -2.214689e+00  1.155681e+00  2.243619e+00  7.581695e-01  -1.276446e-01  2.201384e+00  2.216896e+00  -2.934893e+00  -1.089222e+00  1.471956e+00  7.206153e+00  -6.851208e-01  -2.500099e+00  7.860291e-01  2.228802e-02  2.498151e+00  -7.729157e-01  -6.811717e-01  -2.655150e+00  2.110923e+00  3.454021e-01  -9.880128e-01  4.822553e-01  2.456091e+00  -1.639564e+00  4.177161e-01  1.694447e+00  9.546344e-02  4.012468e-01  4.193524e+00  8.278086e-01  -7.707908e+00  8.638836e-01  -2.194895e-01  5.589727e-01  2.305866e+00  5.473266e-01  -4.238168e-01  1.537845e+00  -1.601180e+00  2.070197e+00  4.584312e-01  -1.821352e+00  2.431661e+00  3.465716e+00  -8.051035e-03  -9.791399e-02  2.594435e+00  -1.502059e-01  1.695001e+00  2.340824e+00  -2.944378e+00  4.009472e+00  -1.993003e+00  -1.646630e+00  -2.929935e+00  4.408556e+00  -5.647241e-01  2.496586e+00  1.880228e-01  5.026729e-01  5.823709e-01  2.058757e+00  -1.311284e+00  1.283220e+00  1.083614e+00  7.885656e-01  -1.579668e+00  1.140231e-01  1.078883e-02  -8.896424e-03  2.873988e-01  7.081917e-01  2.193808e+00  -1.696234e+00  -2.923495e+00  1.077940e+00  2.947795e+00  -2.355189e+00  -6.887562e-01  -1.416445e+00  -3.366315e-02  -2.514233e+00  8.038085e-02  1.165332e+00  3.778740e+00  -2.396027e-01  -8.212730e+00  -8.930455e-01  -1.230390e+00  3.289201e+00  -1.799966e+00  -5.214096e-01  -3.049893e+00  -2.384106e+00  -1.567917e+00  -4.924495e+00  -7.399216e-01  -1.422101e+00  2.485923e+00  -1.778483e+00  -1.635411e+00  -1.132186e+00  4.559964e-01  -2.112074e-01  1.768043e+00  7.462763e-02  1.728060e+00  -9.414457e-01  6.092731e-01  -6.713887e-01  1.203434e+00  -8.769800e+00  -5.327190e-01  -3.663398e+00  -6.393254e-01  -1.050880e+00  7.363867e-02  2.468773e+00  2.840135e+00  -1.094671e+00  8.417244e-01  -1.000274e+00  1.225195e+00  -6.477423e-01  7.578298e-01  -4.557315e+00  1.963153e+00  -2.191841e+00  -1.614740e+00  -9.764926e-01  -4.147074e+00  1.387594e+00  -3.693874e-01  1.665857e-01  -1.010678e+00  9.887245e-02  4.136580e+00  -3.016028e+00  -1.226604e+00  1.336045e+00  -2.902642e+00  -8.503766e-02  -1.201908e+00  8.799708e-01  -9.847366e-01  -2.204677e+00  1.531785e+00  -7.492098e-01  4.161430e+00  -4.270873e+00  -2.251875e+00  -1.793271e+00  9.835922e-01  1.248351e+00  -7.006776e-01  6.364805e-01  -6.983939e-01  -5.429303e-04  3.220684e+00  2.183546e-01  -3.726210e+00  -1.899809e+00  8.774751e-01  -2.945539e-01  1.323236e+00  2.388557e+00  -1.707534e-01  1.531358e+00  1.740511e-02  2.202853e+00  1.128276e+00  -1.180716e+00  -5.512919e-02  -4.122190e-01  9.201041e-01  -4.301174e-01  2.367626e-01  9.687088e-02  -2.325468e+00  7.224431e-01  1.086294e+00  -1.225471e-01  4.113339e+00  4.379108e-01  -3.072166e+00  1.423577e+00  1.441129e+00  1.129961e+00  -7.789338e-01  2.067243e+00  -3.418659e-01  1.593449e+00  5.393773e-01  3.173358e+00  -3.058112e+00  1.725665e-01  -4.535452e-02  -4.509948e-01  2.864743e+00  -2.270610e+00  1.610867e+00  -1.984324e+00  2.309791e+00  1.411479e-01  -2.455920e+00  2.468607e+00  2.028932e+00  7.436655e-01  1.056708e+00  1.064792e+00  -1.985994e+00  1.094558e+00  4.052968e+00  -4.709782e-01  5.787183e+00  -3.253486e+00  -3.669248e-01  -4.353683e+00  7.027056e-01  -7.733594e-01  1.756112e+00  -1.910648e+00  1.701149e+00  3.429174e-01  2.027753e+00  -2.753740e+00  -1.804613e+00  -2.143938e-01  -2.550671e+00  1.577450e+00  3.884622e-01  1.171534e+00  1.496869e+00  4.974074e+00  1.159472e+00  1.251765e+00  -1.204322e+00  1.622716e+00  8.007668e-01  2.948707e+00  -9.609737e-01  2.554748e+00  2.644591e-01  -2.761082e+00  7.896365e-01  -1.571831e+00  -4.280263e+00  -8.696648e-01  -9.324237e-01  -3.253560e+00  6.115329e-01  6.186023e-01  -1.310515e+00  2.601116e+00  -2.681882e+00  -9.279207e-02  1.262764e+00  2.917932e+00  -2.371133e-02  -1.058359e+00  -2.906489e-01  3.129358e+00  -7.481103e-02  2.142317e+00  -5.142962e-01  1.227929e-01  1.577226e+00  -3.443438e+00  -8.123112e-01  1.893201e+00  5.571877e+00  2.699088e-01  -2.994812e+00  1.837826e-01  -5.309313e-02  -1.629696e+00  -1.226418e-02  2.368180e+00  3.581733e+00  3.733615e-02  5.400158e-01  3.895906e-01  2.622276e+00  -4.424905e+00  4.555338e+00  -7.591344e-01  -3.977275e+00  3.647820e+00  1.349197e+00  3.150631e+00  -1.098303e+00  3.104473e+00  3.348119e+00  1.918406e-01  4.338760e+00  -3.597031e-01  1.337912e+00  9.004976e-01  2.698310e-01  3.638285e+00  -6.889002e-01  1.318414e+00  -7.381364e-01  -4.537424e-01  1.436673e+00  -1.190079e+00  -6.369147e-01  -8.997177e-01  -3.432810e+00  -6.574992e+00  -4.110433e+00  1.853962e-01  4.162888e-01  2.288004e+00  -4.304652e-01  -3.501781e-01  1.556940e-01  -3.224249e-01  -1.669280e+00  7.261712e-01  4.840586e-01  1.451179e-02  1.802845e+00  2.584915e+00  6.274800e-01  -2.599227e-02  5.077946e-01  -4.463242e-03  -1.029855e-01  -1.842975e+00  -3.208602e+00  6.099275e-01  8.738335e-01  -1.436423e-01  2.456968e+00  1.701670e+00  1.433704e+00  1.216316e+00  1.348751e+00  1.738576e+00  5.102257e-02  1.623711e+00  -1.518619e+00  -5.372691e-01  3.257413e-01  1.556722e+00  5.117171e-01  -1.710939e+00  -2.991264e+00  1.740866e+00  -2.546607e+00  2.270859e-01  -1.080646e+00  1.347203e+00  1.665327e+00  7.712715e-01  -1.809026e+00  -2.705336e+00  8.928956e-01  2.233815e+00  -1.750042e+00  -3.466926e+00  1.356722e+00  -1.997605e+00  1.231280e-01  8.279850e-01  2.316837e+00  -3.798468e+00  2.767856e+00  -1.382769e+00  3.837412e+00  -1.208453e-01  1.720269e+00  2.990324e+00  2.266177e+00  6.146474e-01  -8.559531e-01  -2.091529e-02  -1.385549e+00  5.409172e-01  -8.053657e-01  -2.676240e+00  -3.577530e-01  6.132155e-01  3.445466e-01  -3.636543e+00  -6.271721e-01  2.404208e+00  -6.244773e-01  -5.174198e-02  -6.321295e-01  -8.234237e-01  1.355170e+00  -2.009277e+00  8.115656e+00  9.153841e-02  -1.123674e+00  -5.074539e-01  7.175594e-01  1.173305e+00  6.196706e+00  -1.769502e-01  -2.366513e+00  -8.246465e-01  -1.534183e-01  -4.081340e-01  -2.797500e+00  1.016721e+01  8.390827e-01  6.715850e-01  -1.193244e+00  -4.609375e+00  -1.628527e+00  -1.292257e+00  6.151298e-01  5.665302e-01  -2.543634e+00  4.797444e-02  -8.165218e+00  6.888095e-01  5.837960e-01  -1.075759e+00  1.104475e-01  -1.159303e+01  7.318185e-01  1.170327e+00  -2.056994e+00  8.146613e-02  -5.187609e-01  -5.510714e-01  -7.226557e-01  6.553302e-01  -9.929591e-02  -3.399143e+00  5.718619e+00  -2.915809e-01  6.696416e-01  1.156063e+00  2.456039e+00  -1.077244e+01  3.236386e-01  2.190828e-01  2.096385e+00  -4.321122e-01  1.199984e-01  -4.528721e+00  -1.208003e+00  7.164349e-02  1.353879e+00  1.037430e+00  1.692420e+00  6.098102e-01  1.449839e+00  -1.032768e+00  -7.354454e-01  -9.407804e-01  -7.615122e-01  5.356516e-01  -8.744733e-02  1.814731e+00  -1.265274e+00  -8.754902e-01  -4.534864e-01  -7.261007e-01  -2.429392e-01  2.845644e-01  1.153552e+01  1.522513e+00  1.143204e+00  -1.939281e+00  2.943689e+00  -1.832229e+00  -2.438561e+00  -1.282819e+00  8.047386e-01  -6.711499e-01  1.975224e+00  -1.644610e+00  5.994676e+00  1.413808e+00  8.511425e-01  4.469711e+00  -1.676060e+00  1.618951e+00  -8.061980e-01  2.618093e+00  1.298493e+00  -1.521163e+00  -5.116297e+00  1.429964e+00  -7.482916e-01  -6.618214e-01  -1.294227e+00  1.666156e+00  1.797915e+00  6.129043e-01  -7.903965e-01  -3.597484e-01  -8.468873e-01  7.394439e+00  1.539170e+00  -1.953825e+00  -1.431935e+00  -8.210041e-01  -9.098800e-01  5.180205e-01  -3.950350e-01  1.345107e+00  2.657121e-01  1.329693e+00  -8.058757e-01  8.643185e+00  -4.071070e-01  8.222755e-01  3.565558e+00  -2.297775e-01  -1.114174e+00  -8.274595e+00  1.755752e-01  -2.617256e-01  4.580820e-01  6.565182e-01  -5.921009e+00  1.691909e+00  1.480261e-02  -2.391634e+00  1.407178e+00  7.876032e-01  -1.005634e+01  -1.512140e+00  2.217368e+00  -4.486461e-01  -1.472931e+00  -6.963974e-02  3.937491e-01  -8.358232e+00  1.615792e+00  -2.351237e-01  -1.137532e+00  2.644497e+00  -6.284050e-01  9.304078e-02  1.678918e-01  -7.024388e-01  2.123003e+00  -1.207966e+00  4.679913e+00  -4.618077e-01  9.370000e-01  -1.827363e+00  -6.249772e-01  1.157450e+01  -1.178615e+00  -5.755376e-01  2.989179e+00  -1.089236e+00  -1.927953e+00  2.611588e-01  6.806569e-01  4.634607e-01  -2.506044e+00  -6.660895e-01  -5.815039e+00  -7.898737e-01  2.857471e+00  7.841137e-01  -1.518999e+00  1.079901e+01  -8.035545e-01  1.460103e+00  -6.212792e-01  -8.779881e-01  -8.218462e-01  3.195767e+00  1.703114e+00  5.910265e-01  5.540445e-01  1.253402e+00  -4.834128e-01  -6.942864e-01  1.083755e+00  -1.130693e+00  7.297257e-01  -6.401601e-01  -1.784333e+00  -9.328252e-01  1.443361e+00  -2.813325e+00  -4.969095e-01  -9.021927e-01  -1.836477e+00  1.911256e+00  7.659892e-01  7.217246e-01  -7.472343e+00  5.556831e-01  -1.373009e+00  2.565687e-01  -1.032044e+00  -3.718094e-01  1.000774e+00  1.459049e+00  3.355718e-01  -9.509078e-01  -2.890472e+00  2.308735e+00  -4.447232e+00  -1.501263e+00  1.487303e+00  -1.517641e+00  8.231136e-01  1.615937e-01  7.142861e-01  -1.817615e+00  7.772699e-02  -9.043533e-02  2.422364e+00  2.260060e+00  2.357701e+00  1.413089e+00  -1.325387e-01  9.543147e-01  -2.420103e+00  -3.278430e+00  1.514493e+00  -2.385638e+00  -9.968677e-01  -6.482784e+00  1.835355e-01  -3.616400e-02  4.706026e-01  2.111112e-01  -1.921115e+00  1.216292e+00  -2.876625e+00  2.496060e+00  1.158377e+00  -3.672897e+00  3.533986e-01  -1.019729e+01  7.820954e-01  -3.442412e-01  -4.786960e+00  -2.414480e-01  1.956691e+00  8.382634e+00  -5.042357e-01  -9.358462e-01  6.832821e-01  4.860641e+00  -2.212938e-03  1.047379e+00  3.136924e+00  8.986739e-01  2.802020e+00  1.437783e+00  8.382209e-02  2.014471e-01  1.825702e-01  3.492848e-01  -3.673778e+00  2.719317e+00  -4.165354e-02  1.202137e-01  2.370331e-01  -7.280524e-01  -1.401967e+00  -3.073290e+00  5.261232e+00  5.181288e-01  -7.551554e+00  -1.135140e-01  4.481172e-01  5.373440e-01  1.503524e+00  -9.516801e-01  6.476131e-01  2.177941e+00  7.296973e-01  5.297504e-02  3.388567e+00  -5.404598e+00  1.094220e-02  2.920861e+00  2.504464e+00  2.172034e-02  7.469497e-01  -2.970340e+00  -6.556559e-01  2.553777e+00  -2.596782e-01  3.446319e+00  -1.250982e+00  -1.596513e+00  -2.056479e+00  -4.084297e-01  -1.731159e+00  -8.195797e-01  -3.755234e+00  8.035133e-01  -1.704922e+00  7.280893e-01  1.746279e+00  1.258871e+00  5.015133e+00  1.341462e+00  2.698067e-01  1.621057e+00  -3.028049e+00  -4.400903e-01  -2.410585e+00  8.392398e-01  -1.847810e+00  2.545179e+00  -3.223294e+00  -3.202316e-01  1.434346e+00  -2.579279e+00  -1.947251e+00  -4.631165e-01  -6.282461e-01  1.561664e+00  8.949041e-02  2.389180e+00  1.384994e+00  6.746580e-01  -6.672369e+00  4.496312e-01  -5.758439e+00  1.529733e+00  -1.362549e+00  7.379804e-01  -4.404688e+00  2.108457e+00  1.375628e+00  -7.938295e-01  9.651372e-01  3.935517e-01  -5.588904e-01  6.702665e-02  1.127456e+00  -1.205612e+00  2.250993e-01  1.402406e+00  5.129638e-01  -1.232340e+00  -1.922369e+00  8.492707e-01  1.106069e+00  1.328534e+00  -2.350439e+00  -5.365077e+00  4.646456e-01  -6.398586e-01  2.114180e+00  -4.766410e-01  2.193282e+00  2.975696e+00  8.269550e-01  -1.136848e+00  5.729620e-01  -9.034665e-01  -4.786634e-01  1.528023e+00  -1.876695e+00  -1.444924e+00  2.745670e+00  -1.291234e+00  1.537994e-01  -1.474739e+00  -2.033157e+00  -3.817236e-01  1.144232e+00  -3.320476e-01  8.947853e-01  7.683980e-02  -1.415781e+00  -4.372435e-01  5.343904e+00  -2.385888e+00  2.888324e+00  1.324477e+00  -2.033805e+00  4.772737e-01  5.381260e+00  2.233260e-01  -8.720059e-01  -2.996165e+00  2.081202e+00  -2.247718e-01  2.773558e+00  3.305606e+00  7.442617e-01  -2.073906e-01  1.487403e+00  -4.435530e+00  1.990803e+00  4.401686e-01  -1.505137e+00  3.332638e-01  -3.883843e+00  6.890082e-01  -4.821303e+00  2.610926e+00  7.199454e-01  2.873019e-01  4.034820e-01  -6.293110e+00  6.067827e-01  -4.443595e-01  -6.153026e-01  -1.685093e+00  -1.280613e-01  -1.249162e+00  -7.683497e-01  -7.949271e-01  -8.761576e-01  -2.985465e+00  3.465253e+00  -3.331756e+00  4.948828e-02  1.429838e+00  1.728466e+00  -8.821797e-01  8.501479e-01  -1.533228e+00  -6.818259e-01  3.381173e+00  -1.769566e+00  -8.925128e+00  -7.595840e-01  2.454734e+00  -2.355967e+00  9.492871e-01  -6.792336e-01  9.139553e-01  -9.438957e-02  -5.716853e-01  -3.298089e+00  3.043363e-01  -3.631551e+00  1.180588e+00  -1.778628e+00  1.934747e+00  -2.484539e-01  -4.103964e-01  7.184780e-01  -2.196082e-01  -1.067380e+00  2.353097e+00  5.946104e+00  8.423367e-01  6.806964e-01  3.433740e-01  1.505609e-01  1.592978e+00  1.241794e+00  -7.287877e-02  1.023661e-01  -5.295623e-01  -1.379176e+00  5.743274e-01  1.118653e+00  1.818273e+00  -2.117126e+00  5.107560e+00  6.339160e-01  2.059366e-01  3.937908e-01  6.138378e-01  2.769820e+00  1.951342e+00  -1.819467e+00  -1.158661e+00  1.584052e+00  2.770225e+00  8.960896e-01  1.182531e+00  1.034503e+00  4.803554e-01  4.790139e-01  -4.182480e-01  -1.900483e+00  5.235040e+00  -1.392964e+00  1.980801e+00  3.385762e-02  1.013209e+00  2.393613e+00  -2.725699e-01  6.748351e-01  3.957541e+00  -3.023012e-01  9.698123e-01  3.131187e+00  1.936484e+00  8.888201e-01  -1.488113e+00  1.568109e+00  1.652552e+00  -3.015298e+00  -4.387037e+00  3.682687e+00  -3.957215e-01  -7.867925e-01  1.575956e+00  5.828782e+00  -2.991391e+00  5.210514e+00  4.922958e-01  2.175720e+00  2.082009e+00  1.380267e+00  9.548411e-01  1.131535e+00  -2.985319e+00  7.838849e-01  2.500848e+00  2.863621e+00  1.983836e-01  -8.998727e-01  9.837542e-01  -1.674118e+00  -4.237477e+00  3.251194e+00  2.214525e+00  -2.875350e+00  3.071155e+00  -2.588289e+00  6.851478e-02  -3.797029e+00  -1.311836e+00  -1.253301e+00  6.888399e-01  7.317904e-01  -2.114816e+00  1.749385e+00  -8.763193e-01  -2.944205e+00  2.875577e+00  -3.622444e+00  1.304694e+00  -2.623403e+00  -3.560697e-01  -8.870259e-02  -1.477373e+00  1.389731e+00  5.715105e-01  -2.901168e+00  -1.557997e+00  -1.500807e+00  9.756831e-01  1.153306e+00  1.972514e+00  8.587964e-01  6.131706e+00  7.259399e-01  -4.582274e+00  1.369423e+00  1.099818e+00  -2.122537e+00  -4.982272e-01  -5.523403e-01  6.239817e-01  1.075081e+00  6.256808e-01  -9.036347e-01  -1.727983e+00  -9.948587e-01  -1.270958e+00  -1.119292e+00  2.079283e+00  1.357983e+00  4.331758e-01  -9.937631e-01  -8.906965e-01  -8.417282e-01  6.892889e-01  4.008954e+00  5.170461e-01  5.204993e-01  -1.843126e-02  -4.312679e-01  3.042128e+00  -4.005380e+00  1.480995e+00  2.690943e-01  -1.687081e+00  -3.439483e+00  2.524875e-01  -2.425675e-01  1.991181e+00  -6.051256e+00  2.620948e+00  2.635772e+00  5.516819e+00  1.047245e+00  -2.740599e-01  -1.158431e+00  -2.478301e+00  -5.210320e+00  -5.451675e-01  2.264378e+00  4.628097e-01  5.388648e-02  2.738042e-01  -2.829094e-01  -3.325079e+00  7.216479e-01  -1.331162e+00  -2.086620e-01  3.116015e+00  -7.534505e-01  -5.802494e-01  2.347450e+00  -9.572049e-01  1.483966e-01  -1.540372e+00  6.391041e-01  9.037354e-01  3.562238e-02  -1.623119e+00  1.268296e+00  3.960598e+00  -1.188845e+00  -2.664923e+00  -6.491934e-02  1.068514e+00  -3.056914e+00  -3.532022e+00  2.723016e+00  1.447871e+00  6.157602e-01  -3.368091e+00  8.286246e-01  2.686291e+00  -5.432127e-02  1.093210e+00  -9.400218e-01  -1.731635e+00  -7.252299e-01  -2.585086e+00  -1.150570e+00  2.650691e+00  -2.579438e+00  -1.795750e+00  7.676582e-01  6.338341e-01  -4.374842e-02  7.090314e-02  9.819679e-01  1.213448e+00  -8.221912e-01  -9.799970e-01  2.795217e+00  2.268443e-01  -1.057456e+00  -3.448801e+00  1.004001e+00  2.002540e+00  -2.931073e+00  -7.276171e-02  7.190773e-01  -4.465088e+00  -1.252754e+00  1.285055e+00  4.523154e+00  -1.971766e+00  7.869796e-01  1.477578e+00  9.646221e-01  2.629221e-01  -4.160218e+00  9.338007e-01  -1.388654e+00  1.628945e+00  2.725858e+00  1.279954e+00  6.814067e-01  -4.872006e-01  -3.125181e+00  2.323552e+00  6.394972e-01  6.497139e-01  1.222524e+00  1.526944e+00  3.583408e+00  -1.865949e+00  1.352053e+00  -1.571570e+00  -1.881209e-01  -1.071360e+00  -1.554934e+00  1.527813e+00  5.966795e-01  1.144168e+00  -4.800080e-01  7.328809e-01  2.257245e+00  4.922564e+00  2.118570e+00  4.604031e+00  -8.747810e-01  -1.946156e+00  1.296310e+00  1.466261e-01  -1.828779e+00  -2.434463e+00  3.113551e+00  4.136107e+00  9.289861e-01  -7.142596e-01  -1.101531e+00  -4.346543e-01  -3.211282e+00  1.158359e+00  7.360998e-01  -5.766122e-01  -5.715961e-01  1.270467e-01  -2.260653e+00  -2.629092e+00  2.389860e+00  -3.818909e+00  -9.005705e-03  2.084009e+00  -1.119462e-01  -2.425394e+00  2.050686e+00  7.477785e-01  -1.627960e+00  3.849629e+00  -5.645400e-01  -2.002030e+00  -1.419939e-01  -1.000202e+00  6.793535e-01  -3.109257e-01  1.128369e+00  -3.790509e+00  9.719674e-01  7.556181e-01  -7.241061e-01  2.301037e+00  1.795731e-01  -1.367146e+00  2.003055e+00  -1.498348e+00  1.403766e+00  -1.592729e+00  -2.531366e+00  3.483384e-01  1.957270e+00  4.025519e-01  -5.874407e-01  3.394598e+00  -4.248472e+00  -8.429096e-01  -1.231454e+00  -7.144979e-01  -2.943731e-01  -2.966289e+00  6.356923e+00  6.396956e-01  1.023356e+00  -2.436449e-01  1.154626e+00  -1.134436e+00  4.156664e+00  -4.141207e-01  -1.745753e+00  2.200582e+00  1.650693e+00  6.239880e-01  2.595951e-01  4.345263e+00  1.669126e+00  6.800157e-01  1.217894e+00  -3.877751e+00  4.568698e-01  -4.043151e+00  4.533477e-02  2.856721e-01  -1.205093e+00  1.534456e-01  -3.876019e+00  1.738646e+00  -2.920552e+00  2.492515e-01  1.520442e+00  -8.156907e+00  -7.849528e-01  -2.589101e-01  -1.548208e+00  3.407947e-01  8.960586e-01  1.829868e+00  2.267960e-01  3.977597e+00  -1.685839e+00  -2.318683e+00  2.453068e+00  -1.961970e+00  -3.375602e-01  -1.772694e+00  1.710622e+00  -5.220474e+00  -2.213314e+00  -1.634522e+00  6.402515e-01  1.396592e+00  -2.941741e-02  -7.414662e+00  -2.576520e-01  -1.652759e+00  -1.971021e+00  -1.450946e+00  -1.207501e+00  -2.725043e-01  2.589458e+00  7.860370e-01  -1.356779e+00  1.398865e+00  -8.911625e-01  1.663381e+00  -1.604709e-01  1.025081e+00  1.985814e+00  2.247106e-01  7.703397e-01  -7.931850e-01  -2.875499e+00  1.403581e+00  7.272305e+00  1.328335e+00  8.585063e-01  9.526145e-02  1.166534e-02  2.429427e-01  1.282745e-01  -2.318139e+00  -2.296071e+00  -9.855144e-02  -1.870534e-01  6.372211e-01  6.119758e+00  5.979046e+00  -5.437673e-01  4.479295e+00  -1.620220e+00  3.982860e+00  -1.041321e+00  3.247966e-01  -1.033184e+00  9.476030e-01  -4.015241e+00  -1.644210e+00  2.462363e+00  -9.104679e-01  1.974980e+00  -1.093872e-01  2.773280e+00  2.627426e+00  2.420721e+00  5.676336e-01  -1.256269e-01  3.949110e+00  -1.685172e+00  -5.811689e-01  1.576303e+00  1.832181e+00  -4.719236e-01  1.417835e-01  1.187440e+00  1.712914e+00  -5.506315e-01  1.918713e+00  4.799271e-01  7.012135e+00  5.785651e-01  1.478398e+00  1.689540e+00  2.133083e-01  -3.094790e+00  -5.515402e+00  7.256157e-01  5.840428e-01  -2.750860e+00  -3.319199e-01  -3.890939e+00  -4.083249e+00  9.603816e-01  2.247096e+00  -3.758398e-01  -2.687229e+00  -6.538832e+00  3.459169e-01  1.921161e-01  -1.634708e+00  4.248879e-01  8.166655e-01  4.475183e+00  -7.803592e+00  -1.818857e+00  4.710353e-01  3.632054e-02  2.399852e+00  1.601351e+00  4.115129e-01  -3.865792e-01  1.289118e+00  8.736658e-01  -1.517841e+00  3.914416e+00  9.530146e-01  -5.815880e-01  6.404691e-01  -3.281355e-01  1.067608e+01  1.485779e+00  -1.439494e+00  2.594660e+00  7.757937e-01  -1.332034e+00  8.571007e-01  -7.524846e-01  -1.772031e+00  -3.078954e+00  -5.159653e-01  -6.803959e+00  2.610242e+00  -1.099371e+00  -4.084098e+00  -2.605632e+00  7.597693e+00  1.432528e+00  -1.735270e-01  -2.997430e+00  1.716754e+00  -2.450341e+00  3.694285e+00  1.293244e+00  -1.331188e+00  4.197459e-01  -4.547694e-01  -2.126905e-02  8.536013e-01  -2.434619e+00  1.785085e-01  -7.313170e-01  -3.758253e+00  -1.382904e+00  1.862655e+00  1.407290e+00  2.151221e+00  2.329066e+00  1.909787e+00  -1.206755e+00  -1.594826e-01  -6.049787e-01  -4.793186e-01  -6.968590e+00  2.166163e+00  -2.179559e+00  9.763860e-02  -1.570184e-01  8.444567e-01  1.532037e+00  1.405706e+00  1.080167e+00  -8.546697e-01  8.081792e-01  1.330162e+00  -3.393754e+00  -2.678157e+00  -1.385480e+00  -2.327850e+00  5.102904e-01  -3.445624e-01  1.590692e+00  -8.209376e-01  -2.557672e+00  1.057300e-01  3.539482e+00  -2.911885e+00  3.843213e-01  8.627118e-01  1.215818e+00  -5.927088e-02  1.173201e-01  -2.485569e+00  1.477549e+00  -1.706855e+00  7.327170e-01  -5.464097e+00  3.100160e+00  5.540619e-01  1.316878e+00  1.127466e+00  -1.165925e+00  -3.508573e-01  -1.040596e+00  9.231297e-01  -2.641573e+00  -2.855071e+00  -5.485231e-01  -9.093198e+00  -6.518040e-01  4.171815e-01  -2.176403e+00  -2.694133e-02  1.133701e+00  6.109069e+00  8.173469e-03  -1.238153e-01  8.996945e-01  1.034906e+00  -5.298425e+00  4.440032e-01  -5.585145e-01  -8.820916e-01  1.488284e+00  4.456733e-01  -1.018140e+01  1.551346e+00  1.552747e+00  6.125228e-01  -1.954081e+00  9.282253e-01  2.455500e+00  -1.280064e+01  1.515358e+00  2.039696e+00  1.158104e+00  1.680011e+00  2.500948e-01  6.181689e-01  -9.104392e-01  1.319072e+00  6.368820e-02  -1.340743e+00  6.514689e+00  3.456627e-01  -1.787436e+00  -3.587940e-02  3.911503e-01  9.109538e+00  1.563324e+00  -2.885393e+00  1.965401e+00  -2.273583e+00  7.066161e-01  1.952793e+00  -2.281979e-01  -5.514797e-01  -3.108182e-01  8.216546e-01  -7.254906e+00  -3.231831e-01  1.267927e+00  2.530784e-01  -2.879061e+00  1.133188e+01  5.318157e-01  -2.425795e+00  1.747640e-01  -1.510382e+00  1.464347e-01  4.829993e+00  -3.159018e+00  -1.589462e-01  -2.759335e-01  -1.164377e-01  4.868391e-01  -7.925788e-01  1.268253e+00  1.751927e-01  -3.914309e-01  9.889129e-01  -1.219658e+00  -1.370827e-02  1.062434e+00  1.473739e-01  9.359066e-01  -1.838078e+00  -7.277561e-01  -6.077728e-03  8.009794e-01  1.009951e-01  -7.083494e+00  2.878838e-01  1.719661e+00  8.051912e-03  -1.464399e+00  5.541712e-01  -1.073457e+00  -1.353137e+00  9.462720e-01  -1.040796e+00  -1.912791e-01  1.870216e+00  -5.516926e+00  -3.484700e+00  9.268992e-01  -2.073765e+00  -6.052467e-01  -8.296755e-01  1.359546e+00  -1.929104e+00  -5.087294e-01  2.581752e+00  5.516195e+00  1.497554e+00  -1.102157e+00  5.054664e-02  4.004551e-01  -7.354693e-01  6.063961e-01  1.289164e-01  -3.391650e-01  -1.837647e-01  1.322608e+00  -8.299004e+00  -4.950238e-01  4.023947e+00  1.950892e-01  3.424782e+00  -7.605796e-01  -3.634434e-01  -1.877474e+00  -9.663185e-01  -9.791179e-01  7.024834e-01  -1.041021e+00  -1.189013e+01  -1.441338e-02  -1.570381e+00  -5.135905e+00  8.426934e-01  2.562427e+00  7.634060e+00  2.648192e-01  2.381362e+00  2.374293e+00  -3.180927e+00  -2.988419e+00  5.120775e-01  9.163827e-01  1.945706e+00  -2.794939e+00  -8.860056e-01  -1.624147e+00  1.316080e+00  3.599096e+00  2.024569e+00  -2.644379e-02  7.980607e-01  -3.050837e-01  -2.828168e+00  1.377835e-01  5.478380e-01  -1.860530e+00  1.710465e+00  -4.487046e+00  3.618897e-01  4.139235e+00  -6.180538e-01  4.192476e+00  -1.787868e-01  3.981166e+00  2.902934e+00  -1.196046e+00  -9.613319e-01  2.715604e-01  2.681351e+00  4.356112e-01  3.253334e+00  1.484158e+00  -2.463769e+00  1.164828e+00  1.289712e+00  -2.924671e-01  -5.186080e-01  6.619577e-01  -1.192085e+00  -5.577690e-01  -4.162153e+00  2.968462e+00  1.598867e+00  -1.671074e-01  1.908721e+00  -2.001258e+00  -4.824644e-01  1.695042e+00  -5.174621e+00  -2.071465e+00  2.437090e+00  1.730095e-02  -1.354987e+00  2.198725e+00  -1.169361e+00  2.331961e+00  6.605166e-02  -2.779509e+00  1.356005e+00  -1.244028e+00  -7.834168e-01  8.706124e-02  1.983461e+00  -1.159852e+00  -6.763683e-02  -1.610803e+00  4.048400e-01  -3.575179e-01  -1.352865e+00  -5.615190e-01  -1.937037e+00  -3.753954e+00  -3.801966e-01  -3.203669e+00  -1.865602e+00  1.003290e+00  3.831580e-01  1.254488e+00  -1.884708e+00  -1.043490e+00  1.079311e+00  1.653870e+00  8.168931e-01  -4.282595e+00  -8.711581e-01  3.235742e+00  2.977476e-01  1.228835e+00  1.020873e-01  -2.301481e-01  1.637279e+00  -1.234723e+00  -5.538099e-01  2.581411e+00  -1.695822e+00  9.502119e-01  1.508199e+00  1.753338e+00  2.649664e+00  -3.169110e-01  7.429759e-01  -1.577943e+00  1.724782e+00  -1.643157e-02  -2.538043e+00  2.307520e+00  1.976972e+00  -7.499505e-01  3.794079e+00  2.891842e-01  -1.344257e+00  -1.757882e+00  2.142422e+00  -1.497227e+00  2.135023e+00  8.694051e-01  -3.689514e+00  2.151906e+00  1.078318e+00  -1.108715e+00  -1.677272e+00  1.561880e+00  1.337754e+00  1.978804e+00  4.442228e-02  -2.010936e+00  -3.023519e-01  -6.406434e+00  -1.025924e+00  -9.954914e-01  3.127707e+00  5.431700e-01  8.066307e-01  -7.664478e+00  -9.724102e-01  2.372832e+00  1.164518e+00  1.792147e-01  1.361564e-01  5.260020e-01  -8.737853e+00  -2.911106e+00  7.877914e-01  9.425495e-01  3.032067e+00  2.832329e+00  8.856459e-01  -1.651233e+00  7.322954e-02  -4.336174e-01  8.098334e-01  6.303885e+00  1.139699e+00  -1.220094e+00  7.095404e-01  2.776212e-01  5.719622e+00  1.482019e+00  2.445963e-01  4.515812e+00  -5.069530e-01  -7.207839e-01  6.709241e-01  -6.749615e-01  -2.536953e+00  1.936653e+00  1.626328e+00  -5.151656e+00  -2.049167e+00  -6.671588e-01  -1.119777e+00  -1.077096e+00  8.308435e+00  -2.650652e+00  -1.040425e+00  -7.328514e-01  -2.244357e+00  -6.111788e-01  4.780609e+00  -1.893267e-01  -3.935806e+00  -7.071937e-01  -5.993909e-01  -1.994915e-01  1.986088e+00  -1.687975e+00  -6.825438e-01  6.252543e-01  6.339145e-02  2.569081e-01  -1.084360e+00  1.941957e+00  -2.634032e-01  8.791386e-02  -1.802308e+00  5.889326e-01  2.819230e+00  -1.890922e+00  1.875623e-01  -8.141214e+00  -1.624295e-01  -3.398419e+00  1.883451e+00  -4.897443e-01  -3.443905e-01  2.401471e+00  3.394251e-01  9.352658e-01  1.576892e-01  8.630854e-01  -2.148928e+00  -5.537152e+00  -3.301846e+00  -2.643985e-01  -4.153680e+00  -2.556267e-01  -1.464153e+00  2.673353e+00  1.498929e+00  1.310559e+00  6.025959e-01  4.386456e+00  -2.432961e+00  5.086755e-01  -2.400451e+00  -1.669343e+00  -9.082047e-01  -1.797508e+00  -1.929267e+00  1.131873e-01  -8.380361e-02  -9.491053e-01  -5.280171e+00  -4.825484e-01  9.830207e-01  1.789063e+00  -8.442789e-01  1.946403e+00  1.386661e+00  -4.817808e-02  -6.324978e-01  7.488969e-01  -2.232651e+00  1.071190e+00  -5.826463e+00  -1.320466e+00  1.644920e+00  -6.250698e+00  -1.081335e-01  1.215744e+00  5.336904e+00  -1.467081e+00  3.461348e-02  -3.012505e-01  -1.151747e+00  -7.441509e+00  -7.727185e-01  1.258505e+00  2.975321e-01  8.477243e-01  -8.152454e-01  -6.497869e+00  2.287720e+00  4.679136e-01  4.648278e-01  -1.081028e+00  -5.999004e-01  1.715545e+00  -3.777375e+00  2.545916e-01  7.429244e-01  -4.789026e-01  3.334089e+00  -1.831862e+00  1.429497e-01  -1.679748e+00  -1.128177e-01  3.926343e+00  -2.462514e+00  4.243958e+00  3.528584e-01  1.090290e-01  -1.303821e+00  2.919462e+00  5.620209e+00  2.090961e+00  -1.386548e+00  2.867276e+00  1.828140e+00  2.445654e+00  3.054375e-01  2.219242e-02  2.362113e+00  1.328519e+00  4.657516e+00  -2.355558e+00  2.304732e+00  1.188180e+00  1.499708e+00  -2.895046e+00  5.172209e+00  -3.630346e-01  2.626013e-01  3.239507e+00  -5.539591e+00  -2.108919e-01  8.581409e+00  -1.381228e+00  -2.303885e+00  2.355473e+00  -5.926645e-01  9.298936e-01  -4.572659e-01  -7.071120e-02  2.246106e+00  1.270813e+00  1.443505e+00  2.098343e+00  3.740050e+00  -2.424639e+00  1.611885e+00  -1.010591e+00  2.145104e+00  -8.500697e-01  1.094844e+00  2.179682e+00  4.542752e-02  -8.696500e+00  -1.597928e-01  -2.454100e+00  1.422128e+00  -2.259973e+00  -6.498215e-01  -1.326793e+00  -2.229395e+00  1.365000e+00  -2.391089e+00  -2.352351e+00  1.287189e+00  -3.993757e+00  -3.603439e+00  1.993838e+00  -2.389447e+00  -9.502217e-01  -2.411995e+00  -1.017863e+00  -9.303284e-01  2.284897e-01  -1.512399e-02  5.402042e+00  -1.809338e+00  -3.267651e+00  -7.426809e-01  7.367516e-01  1.313410e+00  -6.625159e-01  -5.339941e-01  1.341494e+00  2.409589e+00  1.195323e+00  -5.150012e+00  9.557757e-01  2.098183e+00  5.778493e-01  4.972886e-01  -1.524277e-01  -6.825556e-01  -2.705381e-01  -8.555252e-01  -2.300995e+00  -3.071867e+00  -3.059186e+00  -6.228661e+00  5.003821e-01  -3.599219e-01  -1.671054e+00  3.457993e+00  4.536474e+00  6.788321e+00  6.410063e-01  -2.656325e-01  -3.361965e+00  6.888919e-01  -6.303611e-01  -1.022390e+00  3.143079e+00  6.536965e+00  8.115330e-01  -5.094149e-01  -3.122987e-01  1.898372e+00  2.299539e+00  1.636246e+00  -9.029084e-01  -4.017505e+00  -1.033529e+00  -4.071502e-02  2.901453e+00  -6.646064e-01  -2.504654e+00  5.793264e-01  1.568260e+00  1.297381e+00  -1.921337e+00  2.367480e+00  8.341333e-01  -2.150103e+00  -2.574224e+00  4.613816e-01  2.179764e+00  -1.955162e+00  -1.037242e+00  -9.086812e-01  2.427966e+00  -9.237139e-01  8.208271e-02  1.620582e+00  8.224986e-01  1.400308e+00  -1.109016e+00  -1.114003e+00  -2.342023e-01  3.624948e-01  -9.515981e-02  -5.995537e-01  8.682293e-01  5.175534e-01  -3.280659e+00  1.592915e+00  4.274660e-01  -1.952364e+00  2.829865e+00  -1.434358e+00  -9.485568e-01  2.539759e+00  -1.143944e-01  -1.345803e+00  1.553658e+00  1.611241e-01  1.554223e+00  -3.083864e+00  2.066788e+00  2.687486e+00  -4.129498e+00  -4.200003e-01  1.118460e+00  -1.382041e+00  3.227177e+00  4.078369e-01  -1.168038e+00  1.145654e+00  -1.462867e+00  -6.821018e-02  -2.329358e+00  1.014747e-01  -9.408469e-01  -7.424663e-01  -1.537638e+00  8.011271e-01  -1.242807e+00  8.097975e-01  -2.114744e+00  -1.563617e+00  4.506617e-01  -7.989686e-01  1.288867e+00  4.385631e+00  -1.051914e+00  -1.452752e+00  6.187305e-01  -1.641674e+00  -8.582260e-01  2.205600e-01  2.245540e+00  5.420873e-01  1.197241e-01  -1.329142e+00  2.087968e-01  1.810670e+00  4.892799e-02  2.185729e+00  1.312711e-01  8.655685e-01  -9.739506e-01  -5.569252e-01  -2.170955e+00  1.423974e+00  1.660083e+00  1.233815e+00  1.170635e+00  -1.993566e+00  -3.744279e-01  3.588221e+00  -1.803723e+00  -3.834356e+00  -2.484039e+00  3.142816e+00  -2.333273e+00  -8.109977e-01  2.923977e+00  -5.991359e-01  -1.268091e+00  -1.232250e+00  -3.758723e+00  1.051353e+00  8.899454e-01  -4.700911e-04  2.595995e+00  1.745447e-01  -2.346251e+00  -5.452643e+00  8.138479e-01  -1.196505e+00  2.593610e+00  9.609311e-01  -5.119255e+00  -1.068197e+00  1.663783e+00  -1.587408e+00  -1.681852e+00  -1.858213e+00  -3.362426e-02  -2.455660e+00  8.925763e-01  9.332220e-01  -7.299436e-01  1.847664e+00  6.506991e-02  -4.110003e+00  -4.746963e+00  1.691843e+00  7.415577e+00  -2.753240e+00  -2.689718e+00  -8.552687e-01  -2.462566e+00  -2.242642e+00  1.508598e+00  2.937865e+00  -1.895230e-01  -1.372631e+00  -3.568514e+00  4.678172e+00  1.928914e+00  -5.398201e+00  1.996925e+00  8.812289e-01  -4.050001e-01  -1.009715e-01  -2.513607e+00  -2.400113e+00  -7.449573e-01  7.078133e-01  2.387991e+00  1.967411e+00  1.700902e+00  8.666765e-01  4.733227e-02  1.448177e+00  -7.084518e-01  1.777045e-01  -3.454107e-01  7.106513e-01  -1.116183e+00  1.631699e+00  -4.557925e-02  1.116009e+00  -2.762115e-01  -1.634324e+00  -2.213563e+00  -1.665992e+00  -2.195459e+00  2.415375e-01  -1.781340e+00  1.433226e+00  2.056125e+00  -2.757747e+00  -1.420239e+00  -7.542548e-01  -1.938203e+00  1.131459e+00  -7.845443e-02  3.299186e+00  -5.665450e-01  -8.868379e-01  -8.985797e-01  5.662326e-01  7.129895e+00  2.665896e+00  7.808118e-02  -3.024691e+00  -4.589017e-02  -1.819015e+00  2.117704e+00  4.738581e-01  4.285238e-01  1.758295e+00  2.553573e+00  1.699925e+00  -3.801719e-02  1.965446e-01  1.091089e+00  -3.198687e-01  1.711472e+00  -3.861184e+00  -4.199949e-01  3.334785e+00  7.624670e-01  2.322726e+00  4.826242e-02  -6.342138e-01  -1.760580e+00  7.572012e+00  -2.558153e+00  4.546740e-01  -1.819799e+00  -1.167709e+00  -5.155624e-01  -7.986787e-01  -2.794317e+00  1.638507e-01  -1.724706e-01  -8.069258e-01  8.115968e-01  -9.731076e-02  -8.483229e-01  4.801073e+00  9.301594e-01  5.016785e-01  1.006822e+00  -8.719076e-01  3.429556e-01  -2.200896e+00  -2.727194e+00  -3.082923e-01  9.918738e-01  -8.122616e-02  5.641416e-01  -5.089747e+00  8.551242e-01  -5.938551e-01  -1.510543e+00  -2.099751e+00  -4.252687e+00  -6.100837e-02  -2.518051e-01  -1.395227e+00  3.520077e-01  1.494720e+00  2.561539e+00  -3.146003e+00  3.572314e+00  -1.633051e+00  2.398906e+00  -1.644598e+00  6.577966e-01  1.045383e+00  -3.673866e+00  1.438242e+00  6.321962e+00  -1.515937e+00  4.649076e+00  -6.785560e-01  -7.001808e-01  2.007058e-01  -8.272812e-01  -1.562752e-01  2.742465e+00  -8.629397e-01  -1.315590e+00  2.604148e+00  -2.746869e+00  1.634521e-01  -1.503294e+00  1.810905e+00  2.689022e+00  1.308593e+00  -8.019716e-01  1.355495e+00  1.288692e+00  -3.859202e+00  -1.120416e+00  4.487322e+00  -2.489242e+00  1.085637e+00  -7.590464e-01  -1.659896e+00  2.459352e+00  -2.493584e+00  -6.151236e-01  1.991654e+00  1.878911e+00  2.119394e-01  1.280862e+00  -5.713588e-01  -3.322556e-01  2.683103e-01  -2.841021e+00  1.270619e+00  -1.022749e+00  -1.555383e+00  3.152519e+00  -9.150295e-02  -1.033494e+00  1.424585e+00  -1.874756e+00  3.254924e+00  -1.296674e+00  -3.997306e+00  1.944034e-01  3.475086e-01  6.199903e-01  9.182846e-01  -3.610220e-01  1.062857e+00  3.326993e+00  -1.471699e+00  3.125646e-01  -2.945452e+00  1.321470e+00  1.099464e+00  1.426395e+00  -5.615615e-01  -1.798364e-01  -2.053370e+00  5.590166e-01  4.990168e-01  1.678847e+00  -1.415414e+00  -5.480080e-01  2.184051e+00  1.900109e+00  -4.743522e+00  3.737592e+00  3.029105e+00  -1.517757e+00  -6.613899e-01  3.505856e-01  -7.429702e-01  -3.585179e+00  3.499843e+00  -3.136241e+00  2.936634e+00  -8.930261e-01  -1.584835e+00  -1.680668e-01  -1.208549e+00  -2.588980e+00  -7.889125e-02  -6.674366e-01  -2.158163e+00  6.816661e-01  -8.949124e-01  4.212766e-01  1.219048e+00  1.930717e+00  1.896442e-01  1.046990e+00  3.804152e+00  1.274269e+00  -2.005021e+00  2.537038e+00  -8.240381e-01  1.314326e+00  -8.097396e-01  -1.622919e+00  -9.132081e-01  -3.713594e+00  -2.982524e+00  8.709018e-01  -5.215654e-01  -4.190543e-01  1.115842e+00  -6.184398e+00  1.104768e+00  9.802056e-01  -1.421026e+00  1.274576e+00  -1.556865e+00  -6.407450e-01  -4.853453e+00  -2.537229e+00  -1.639772e+00  -4.555350e-01  3.431734e+00  -9.158311e-01  -7.785468e-01  7.820354e-01  2.262883e-01  3.097693e+00  -2.516476e+00  4.995541e+00  7.744134e-01  1.150859e+00  -5.168714e-02  2.784585e+00  5.381038e+00  -5.371842e-01  -8.315555e-01  7.029937e-01  -1.506377e+00  8.148479e-02  9.963880e-01  -1.492987e+00  -1.654741e+00  -5.579149e-01  2.635548e+00  -3.613179e+00  -1.402679e+00  2.786260e+00  2.489260e+00  -1.926625e+00  5.732278e+00  1.566648e+00  -1.974413e-01  2.176149e+00  -6.020702e+00  -2.823334e+00  3.567529e+00  -2.458722e+00  3.416478e-01  1.043614e+00  -7.202089e-01  3.225504e-01  -1.375780e+00  1.420623e+00  2.716126e-01  -6.234158e-01  -1.048435e+00  1.752626e+00  2.090837e+00  3.135315e+00  -1.328012e+00  -1.666697e+00  1.099379e+00  4.828275e-01  -2.783890e-01  -2.972942e+00  1.441900e+00  -5.595652e+00  -9.471595e-01  -1.261510e+00  -1.493196e+00  6.415125e-01  -1.102592e+00  7.873014e-01  -6.331940e-01  1.499318e+00  1.354644e-01  -1.314823e+00  8.438283e-01  -8.373178e+00  -1.490644e+00  1.521476e+00  -6.252503e-02  2.614135e+00  -3.023265e+00  -1.798362e-01  -1.634049e-01  -1.075532e+00  -2.188854e+00  4.531239e+00  2.450810e+00  1.404770e+00  -2.730448e+00  -6.486793e-01  -9.438160e-02  -8.601936e-01  1.814741e+00  -1.168024e+00  3.778052e+00  2.022506e+00  -4.865789e+00  -7.302538e-04  -7.516187e-01  -1.291758e+00  9.955205e-01  -9.811189e-01  1.048693e+00  -3.571167e-01  2.680432e+00  -1.853235e+00  -2.024136e+00  -1.939343e+00  -7.685205e+00  1.352900e-01  1.151409e+00  -3.118334e+00  1.153004e+00  3.360795e+00  4.957218e+00  -1.075606e+00  -3.570956e-01  3.179982e+00  -2.172017e+00  1.224880e+00  1.302065e+00  4.998774e-01  -3.574763e+00  -5.685493e+00  6.371035e-02  2.094664e-01  1.536324e+00  -4.415459e-01  -2.281869e+00  3.504002e-01  -4.043596e+00  2.630659e+00  2.052425e-01  1.573956e+00  3.128570e+00  1.399211e+00  -1.487268e+00  -4.497787e-01  1.502062e-01  1.391165e+00  1.895079e-01  4.518636e-01  -1.495542e+00  -1.116122e+00  4.624721e-01  1.966653e+00  9.312679e-02  1.794743e+00  3.854364e-01  -1.705743e+00  1.166270e+00  -2.252892e+00  -2.805995e+00  2.655864e+00  -3.505483e-01  2.406577e+00  -1.688295e+00  2.837331e+00  -4.015454e-01  -1.005480e+00  -7.740675e-01  1.182787e+00  1.169802e+00  1.713532e+00  1.959113e+00  -2.100770e+00  -7.922660e-01  2.501251e+00  2.893764e+00  1.172321e+00  -2.058239e+00  7.078896e-01  -5.009632e-01  4.395158e-01  -1.210149e+00  2.474172e+00  1.037754e+00  -8.417994e-01  2.634113e+00  2.834377e-01  1.207684e+00  -2.640839e+00  1.960754e+00  -1.585456e+00  -6.990609e-01  -1.384267e+00  3.487275e+00  1.933098e+00  1.333375e+00  1.300890e+00  -6.520773e-01  -5.159516e-01  -7.590497e-01  7.938593e-01  -5.779575e-01  4.013913e+00  -3.120864e+00  2.297601e+00  -4.544037e+00  1.719546e-01  1.401120e+00  3.964598e+00  -1.112175e+00  -1.231292e+00  -2.756950e+00  -1.330472e+00  9.029995e-01  2.003145e+00  9.312348e-01  -1.233973e+00  9.767724e-01  -1.095558e+00  -1.902522e+00  1.077476e+00  4.994633e+00  7.115239e-01  -1.452885e+00  -8.674836e-03  1.604531e+00  1.285015e+00  3.281434e+00  -4.620815e+00  6.237502e+00  -1.006494e+00  -1.542147e+00  1.701344e+00  -2.676543e+00  -5.154232e+00  -1.811148e+00  -2.275401e-01  -3.847398e-01  1.132234e+00  9.822158e-01  -1.363676e-01  3.788665e+00  7.658387e-01  -9.621663e-01  7.461830e-01  -1.817703e+00  -1.665389e+00  2.608824e+00  -3.119768e+00  7.320662e-01  -1.134676e+00  -1.636610e-01  -3.400829e-01  1.690115e+00  -4.750326e+00  -2.280704e+00  2.104052e+00  1.228176e+00  8.048640e-01  -8.963133e-01  -8.677031e+00  -1.411369e+00  5.296679e+00  -9.439579e-01  -5.584282e-01  -8.137439e-01  3.105961e+00  -9.978198e+00  -6.256730e-03  1.526640e+00  7.150193e-01  2.641097e+00  1.810128e+00  -2.690708e-01  -2.860194e+00  1.047717e+00  2.708612e-01  5.531379e-01  6.415667e+00  3.899707e-01  9.403987e-01  -5.393044e-01  -1.841380e+00  1.089497e+01  -7.567358e-01  -9.899281e-01  4.636549e+00  1.176265e+00  3.107399e-02  1.189377e+00  -1.592187e-01  -1.714149e+00  -2.376384e-01  -1.540298e-01  -7.060311e+00  -9.756691e-01  -2.776428e-01  -5.501317e-01  -2.477217e+00  8.856956e+00  2.722281e-01  7.467923e-01  -4.021159e+00  -1.306741e-01  3.375615e-01  4.795860e+00  -1.436761e+00  -2.350387e+00  1.060895e+00  1.107716e+00  9.275304e-01  6.606612e-01  -5.473784e-01  -5.597934e-01  -1.713227e+00  1.108433e+00  -2.341375e+00  -5.147783e-01  -1.300576e+00  -1.502753e-01  -4.598064e-01  3.695262e-01  -1.965755e+00  -2.783134e+00  1.427361e+00  8.076838e-01  -8.007572e+00  1.980924e+00  1.103552e+00  -3.695153e-01  -1.997879e+00  1.206020e+00  9.905511e-01  1.387342e+00  1.632779e+00  -1.376719e+00  -1.356786e+00  -6.799620e-01  -4.350322e+00  -2.454788e+00  -7.024459e-01  -1.074569e+00  1.766541e+00  -1.168507e+00  -2.942365e+00  7.120964e-01  2.920884e-01  2.304272e-01  4.204560e+00  -1.780525e+00  1.716230e+00  -1.014534e+00  5.535876e-02  9.353203e-01  5.931389e-02  -4.521679e+00  -1.012887e-01  -7.378937e-01  -8.940518e-02  -8.781472e+00  1.696675e-01  2.017566e+00  2.695318e+00  1.204993e+00  5.486699e-01  -2.376431e+00  -2.580142e-01  -2.645020e-01  -1.254175e+00  -1.176468e+00  5.396329e-01  -9.241326e+00  -1.298005e-01  -9.821259e-01  -2.779140e+00  -3.427632e-01  2.648275e+00  6.435249e+00  -2.159395e+00  1.848456e+00  4.034775e-01  -3.588609e+00  9.837638e-01  9.675162e-01  1.069010e+00  1.929595e+00  -2.725172e+00  6.755130e-01  -6.516967e-01  4.971040e-01  -1.452614e+00  -1.332240e+00  -1.837256e+00  -3.362329e+00  1.466448e+00  -6.338388e-01  1.079984e+00  7.480605e-01  -4.073796e-01  1.824142e+00  -3.066063e+00  2.484568e+00  3.874619e+00  1.553746e+00  1.738887e+00  -4.703319e+00  1.067865e+00  9.507517e-01  2.583257e+00  3.481952e-01  2.449837e-01  -2.100323e+00  3.146837e+00  5.564178e+00  -9.703500e-01  -3.293995e+00  -4.944611e-01  8.856817e-01  -1.482519e+00  -1.187193e+00  2.778511e+00  8.225874e-01  -5.062205e-01  -3.914638e-01  3.321367e-01  -3.389672e-01  -8.408116e-01  -3.613561e-01  -6.356199e-01  1.081432e+00  3.024151e+00  -2.436576e+00  -7.676392e-01  -3.883826e-01  9.543732e-01  1.022603e+00  -2.518496e-01  -2.439479e+00  1.156125e+00  1.409156e+00  -2.597893e+00  -7.192693e-01  -1.454968e+00  6.491541e-01  -1.088630e+00  2.940939e+00  1.919934e-02  -7.250363e-01  -1.036701e+00  5.006790e+00  -2.040422e+00  1.619684e+00  -1.056060e+00  -1.038036e-01  -3.708760e-01  -7.002190e-01  -3.099720e+00  -1.161934e+00  5.697868e+00  -2.177573e-01  1.176141e+00  -7.155535e+00  1.178694e+00  -2.690493e+00  1.598463e+00  1.185437e+00  -1.066626e+00  -1.208485e+00  1.029024e+00  1.175741e-01  -1.669004e+00  2.326715e+00  5.772260e-01  2.982451e+00  9.848057e-01  -1.339129e+00  -7.707250e-01  -2.583611e-01  1.049243e+00  3.907968e-01  2.572825e+00  2.213184e+00  1.091106e+00  5.013892e+00  -6.273046e+00  6.585330e+00  2.979106e+00  -2.011262e+00  7.959695e-01  -3.412389e+00  -4.629827e+00  3.749064e-01  1.120006e+00  1.178310e+00  9.651984e-02  2.189307e+00  -2.037501e+00  3.146707e+00  -7.223515e-01  -4.474782e-01  2.220476e+00  -2.971538e+00  -5.742820e-01  8.785833e-01  2.842331e-01  1.159985e+00  1.287716e+00  6.848058e-02  -1.701174e+00  1.039945e+00  -7.543888e+00  -4.418242e-01  -4.455942e-01  1.523596e+00  3.647278e-01  -1.339247e+00  -9.629585e+00  2.000399e+00  1.686247e-01  -3.044221e+00  1.034713e+00  2.846019e-01  4.635385e-01  -1.480813e+01  2.124326e+00  -4.267325e-01  -7.030569e-01  1.424791e+00  4.086212e+00  1.506554e-01  -1.747681e+00  9.066705e-01  3.659648e+00  8.990854e-02  4.637910e+00  -1.136611e+00  -1.403437e-01  2.845263e+00  9.177139e-01  8.406008e+00  -6.528738e-02  -1.033005e+00  5.414755e-01  1.470771e+00  -1.873081e+00  1.168103e+00  -3.063890e-02  1.349731e+00  2.180122e+00  1.773722e+00  -6.775472e+00  -7.926816e-02  9.816160e-02  -3.287000e-01  -2.120337e+00  1.053547e+01  -2.039308e+00  -1.053637e+00  -2.274887e+00  -1.442377e+00  -2.139693e+00  2.726014e+00  -2.925595e-01  4.874736e-01  5.811316e-01  -3.839037e-01  1.665147e+00  -2.362224e-01  8.566150e-01 