<?xml version="1.0"?>
<MethodSetup Method="MLP::MLP">
  <GeneralInfo>
    <Info name="TMVA Release" value="4.2.1 [262657]"/>
    <Info name="ROOT Release" value="6.26/02 [399874]"/>
    <Info name="Creator" value="s1412595"/>
    <Info name="Date" value="Sun May  1 14:00:06 2022"/>
    <Info name="Host" value="Linux root-ubuntu-2004-1 5.4.0-73-generic #82-Ubuntu SMP Wed Apr 14 17:39:42 UTC 2021 x86_64 x86_64 x86_64 GNU/Linux"/>
    <Info name="Dir" value="/home/s1412595/Desktop/MSc/TMVA/runs/run_fs6_hp1"/>
    <Info name="Training events" value="120000"/>
    <Info name="TrainingTime" value="7.68421826e+02"/>
    <Info name="AnalysisType" value="Classification"/>
  </GeneralInfo>
  <Options>
    <Option name="NCycles" modified="Yes">600</Option>
    <Option name="HiddenLayers" modified="Yes">N+5</Option>
    <Option name="NeuronType" modified="Yes">tanh</Option>
    <Option name="RandomSeed" modified="No">1</Option>
    <Option name="EstimatorType" modified="No">CE</Option>
    <Option name="NeuronInputType" modified="No">sum</Option>
    <Option name="V" modified="Yes">False</Option>
    <Option name="VerbosityLevel" modified="No">Default</Option>
    <Option name="VarTransform" modified="Yes">N</Option>
    <Option name="H" modified="Yes">True</Option>
    <Option name="CreateMVAPdfs" modified="No">False</Option>
    <Option name="IgnoreNegWeightsInTraining" modified="No">False</Option>
    <Option name="TrainingMethod" modified="No">BP</Option>
    <Option name="LearningRate" modified="No">2.000000e-02</Option>
    <Option name="DecayRate" modified="No">1.000000e-02</Option>
    <Option name="TestRate" modified="Yes">5</Option>
    <Option name="EpochMonitoring" modified="No">False</Option>
    <Option name="Sampling" modified="No">1.000000e+00</Option>
    <Option name="SamplingEpoch" modified="No">1.000000e+00</Option>
    <Option name="SamplingImportance" modified="No">1.000000e+00</Option>
    <Option name="SamplingTraining" modified="No">True</Option>
    <Option name="SamplingTesting" modified="No">False</Option>
    <Option name="ResetStep" modified="No">50</Option>
    <Option name="Tau" modified="No">3.000000e+00</Option>
    <Option name="BPMode" modified="No">sequential</Option>
    <Option name="BatchSize" modified="No">-1</Option>
    <Option name="ConvergenceImprove" modified="No">1.000000e-30</Option>
    <Option name="ConvergenceTests" modified="No">-1</Option>
    <Option name="UseRegulator" modified="Yes">False</Option>
    <Option name="UpdateLimit" modified="No">10000</Option>
    <Option name="CalculateErrors" modified="No">False</Option>
    <Option name="WeightRange" modified="No">1.000000e+00</Option>
  </Options>
  <Variables NVar="11">
    <Variable VarIndex="0" Expression="Kbach_ProbNNk" Label="Kbach_ProbNNk" Title="Kbach_ProbNNk" Unit="" Internal="Kbach_ProbNNk" Type="F" Min="5.10000885e-01" Max="9.99803305e-01"/>
    <Variable VarIndex="1" Expression="Kbach_ProbNNp" Label="Kbach_ProbNNp" Title="Kbach_ProbNNp" Unit="" Internal="Kbach_ProbNNp" Type="F" Min="3.09430192e-07" Max="9.99382198e-01"/>
    <Variable VarIndex="2" Expression="Kbach_PT" Label="Kbach_PT" Title="Kbach_PT" Unit="" Internal="Kbach_PT" Type="F" Min="4.03433502e+02" Max="1.47210791e+04"/>
    <Variable VarIndex="3" Expression="Lc_PT" Label="Lc_PT" Title="Lc_PT" Unit="" Internal="Lc_PT" Type="F" Min="2.52761890e+03" Max="4.00415273e+04"/>
    <Variable VarIndex="4" Expression="pibach_PT" Label="pibach_PT" Title="pibach_PT" Unit="" Internal="pibach_PT" Type="F" Min="2.00006271e+02" Max="3.32139111e+03"/>
    <Variable VarIndex="5" Expression="pibach_ProbNNpi" Label="pibach_ProbNNpi" Title="pibach_ProbNNpi" Unit="" Internal="pibach_ProbNNpi" Type="F" Min="1.00149095e-01" Max="9.99639690e-01"/>
    <Variable VarIndex="6" Expression="pibach_ProbNNp" Label="pibach_ProbNNp" Title="pibach_ProbNNp" Unit="" Internal="pibach_ProbNNp" Type="F" Min="4.44849604e-07" Max="9.56227481e-01"/>
    <Variable VarIndex="7" Expression="Xicst_IPCHI2_OWNPV" Label="Xicst_IPCHI2_OWNPV" Title="Xicst_IPCHI2_OWNPV" Unit="" Internal="Xicst_IPCHI2_OWNPV" Type="F" Min="1.37118786e-05" Max="2.63996133e+04"/>
    <Variable VarIndex="8" Expression="Xicst_ENDVERTEX_CHI2" Label="Xicst_ENDVERTEX_CHI2" Title="Xicst_ENDVERTEX_CHI2" Unit="" Internal="Xicst_ENDVERTEX_CHI2" Type="F" Min="1.72308029e-03" Max="5.99373703e+01"/>
    <Variable VarIndex="9" Expression="pibach_IPCHI2_OWNPV" Label="pibach_IPCHI2_OWNPV" Title="pibach_IPCHI2_OWNPV" Unit="" Internal="pibach_IPCHI2_OWNPV" Type="F" Min="8.96283200e-06" Max="8.99967575e+00"/>
    <Variable VarIndex="10" Expression="Kbach_IPCHI2_OWNPV" Label="Kbach_IPCHI2_OWNPV" Title="Kbach_IPCHI2_OWNPV" Unit="" Internal="Kbach_IPCHI2_OWNPV" Type="F" Min="1.30371254e-05" Max="8.99991798e+00"/>
  </Variables>
  <Spectators NSpec="1">
    <Spectator SpecIndex="0" Expression="Xicst_M" Label="Xicst_M" Title="Xicst Mass" Unit="F" Internal="Xicst_M" Type="F" Min="2.92377637e+03" Max="3.90779272e+03"/>
  </Spectators>
  <Classes NClass="2">
    <Class Name="Signal" Index="0"/>
    <Class Name="Background" Index="1"/>
  </Classes>
  <Transformations NTransformations="1">
    <Transform Name="Normalize">
      <Selection>
        <Input NInputs="11">
          <Input Type="Variable" Label="Kbach_ProbNNk" Expression="Kbach_ProbNNk"/>
          <Input Type="Variable" Label="Kbach_ProbNNp" Expression="Kbach_ProbNNp"/>
          <Input Type="Variable" Label="Kbach_PT" Expression="Kbach_PT"/>
          <Input Type="Variable" Label="Lc_PT" Expression="Lc_PT"/>
          <Input Type="Variable" Label="pibach_PT" Expression="pibach_PT"/>
          <Input Type="Variable" Label="pibach_ProbNNpi" Expression="pibach_ProbNNpi"/>
          <Input Type="Variable" Label="pibach_ProbNNp" Expression="pibach_ProbNNp"/>
          <Input Type="Variable" Label="Xicst_IPCHI2_OWNPV" Expression="Xicst_IPCHI2_OWNPV"/>
          <Input Type="Variable" Label="Xicst_ENDVERTEX_CHI2" Expression="Xicst_ENDVERTEX_CHI2"/>
          <Input Type="Variable" Label="pibach_IPCHI2_OWNPV" Expression="pibach_IPCHI2_OWNPV"/>
          <Input Type="Variable" Label="Kbach_IPCHI2_OWNPV" Expression="Kbach_IPCHI2_OWNPV"/>
        </Input>
        <Output NOutputs="11">
          <Output Type="Variable" Label="Kbach_ProbNNk" Expression="Kbach_ProbNNk"/>
          <Output Type="Variable" Label="Kbach_ProbNNp" Expression="Kbach_ProbNNp"/>
          <Output Type="Variable" Label="Kbach_PT" Expression="Kbach_PT"/>
          <Output Type="Variable" Label="Lc_PT" Expression="Lc_PT"/>
          <Output Type="Variable" Label="pibach_PT" Expression="pibach_PT"/>
          <Output Type="Variable" Label="pibach_ProbNNpi" Expression="pibach_ProbNNpi"/>
          <Output Type="Variable" Label="pibach_ProbNNp" Expression="pibach_ProbNNp"/>
          <Output Type="Variable" Label="Xicst_IPCHI2_OWNPV" Expression="Xicst_IPCHI2_OWNPV"/>
          <Output Type="Variable" Label="Xicst_ENDVERTEX_CHI2" Expression="Xicst_ENDVERTEX_CHI2"/>
          <Output Type="Variable" Label="pibach_IPCHI2_OWNPV" Expression="pibach_IPCHI2_OWNPV"/>
          <Output Type="Variable" Label="Kbach_IPCHI2_OWNPV" Expression="Kbach_IPCHI2_OWNPV"/>
        </Output>
      </Selection>
      <Class ClassIndex="0">
        <Ranges>
          <Range Index="0" Min="5.1000088453292847e-01" Max="9.9980330467224121e-01"/>
          <Range Index="1" Min="3.0943019169171748e-07" Max="9.9368906021118164e-01"/>
          <Range Index="2" Min="4.0367718505859375e+02" Max="1.0992476562500000e+04"/>
          <Range Index="3" Min="2.5326340332031250e+03" Max="4.0041527343750000e+04"/>
          <Range Index="4" Min="2.0000627136230469e+02" Max="3.3213911132812500e+03"/>
          <Range Index="5" Min="1.0023375600576401e-01" Max="9.9963968992233276e-01"/>
          <Range Index="6" Min="4.4484960426416364e-07" Max="9.5622748136520386e-01"/>
          <Range Index="7" Min="1.3711878636968322e-05" Max="5.0999150390625000e+03"/>
          <Range Index="8" Min="1.7230802914127707e-03" Max="5.7858459472656250e+01"/>
          <Range Index="9" Min="2.5563955205143429e-05" Max="8.9967641830444336e+00"/>
          <Range Index="10" Min="2.9180013370933011e-05" Max="8.9999179840087891e+00"/>
        </Ranges>
      </Class>
      <Class ClassIndex="1">
        <Ranges>
          <Range Index="0" Min="5.1001447439193726e-01" Max="9.9980223178863525e-01"/>
          <Range Index="1" Min="3.1790315802027180e-07" Max="9.9938219785690308e-01"/>
          <Range Index="2" Min="4.0343350219726562e+02" Max="1.4721079101562500e+04"/>
          <Range Index="3" Min="2.5276188964843750e+03" Max="3.0730033203125000e+04"/>
          <Range Index="4" Min="2.0001296997070312e+02" Max="3.2623430175781250e+03"/>
          <Range Index="5" Min="1.0014909505844116e-01" Max="9.9933230876922607e-01"/>
          <Range Index="6" Min="2.0500285700109089e-06" Max="8.9968401193618774e-01"/>
          <Range Index="7" Min="2.6691805032896809e-05" Max="2.6399613281250000e+04"/>
          <Range Index="8" Min="4.3928395025432110e-03" Max="5.9937370300292969e+01"/>
          <Range Index="9" Min="8.9628319983603433e-06" Max="8.9996757507324219e+00"/>
          <Range Index="10" Min="1.3037125427217688e-05" Max="8.9995861053466797e+00"/>
        </Ranges>
      </Class>
      <Class ClassIndex="2">
        <Ranges>
          <Range Index="0" Min="5.1000088453292847e-01" Max="9.9980330467224121e-01"/>
          <Range Index="1" Min="3.0943019169171748e-07" Max="9.9938219785690308e-01"/>
          <Range Index="2" Min="4.0343350219726562e+02" Max="1.4721079101562500e+04"/>
          <Range Index="3" Min="2.5276188964843750e+03" Max="4.0041527343750000e+04"/>
          <Range Index="4" Min="2.0000627136230469e+02" Max="3.3213911132812500e+03"/>
          <Range Index="5" Min="1.0014909505844116e-01" Max="9.9963968992233276e-01"/>
          <Range Index="6" Min="4.4484960426416364e-07" Max="9.5622748136520386e-01"/>
          <Range Index="7" Min="1.3711878636968322e-05" Max="2.6399613281250000e+04"/>
          <Range Index="8" Min="1.7230802914127707e-03" Max="5.9937370300292969e+01"/>
          <Range Index="9" Min="8.9628319983603433e-06" Max="8.9996757507324219e+00"/>
          <Range Index="10" Min="1.3037125427217688e-05" Max="8.9999179840087891e+00"/>
        </Ranges>
      </Class>
    </Transform>
  </Transformations>
  <MVAPdfs/>
  <Weights>
    <Layout NLayers="3">
      <Layer Index="0" NNeurons="12">
        <Neuron NSynapses="16">
          6.8936366234047933e-02 4.2887161226959547e+00 -2.2573614808929640e-01 1.9841286634666105e-01 1.2025860603765942e-01 1.5686461177023714e-01 -2.4807825373264452e+00 2.1133869431448224e-01 4.1427129060865417e-02 -9.6785599981687648e-02 1.8567019146359512e-02 5.2312444355393548e-02 -1.4673063823453703e+00 -2.2585432889615348e-03 5.6167637111015056e-01 3.4103635908444140e-02 
        </Neuron>
        <Neuron NSynapses="16">
          1.4714403273450238e-01 1.0407902192986807e+00 -8.9081496186778941e-01 2.3440280518759893e-01 -2.9888874532570014e-01 3.4154687676438295e-01 1.0091835198654571e+00 1.1146425459082215e-01 -4.0729622396870974e-02 1.4572804774205047e-02 1.2864135806492907e-01 7.9856833222110912e-01 1.9235230942363422e+00 1.5324594705744404e-01 6.9694474980093482e+00 1.2528942293634496e-01 
        </Neuron>
        <Neuron NSynapses="16">
          6.0185347041436621e-01 1.5128352896150954e+00 3.8484426437027777e+00 -2.6299632790034360e+00 -2.6983843595254605e+01 2.0599741780346950e+01 -1.7628361805063351e+00 1.4621995443524314e+01 2.0414439337815100e+01 3.2715477951630789e+00 5.6465749149692956e-01 1.2480689114846524e+00 -9.0926376112867482e-02 -3.6659611864105655e+00 -1.4246818838876223e+00 1.8879762803187516e-01 
        </Neuron>
        <Neuron NSynapses="16">
          1.1788157980607830e+00 2.3431875625946912e+00 4.5122872793059230e+00 3.6860145176622026e+00 5.9441502349443303e+00 -8.3188060286584253e+00 -3.8202834968956614e+00 -1.5163761994287968e+01 -1.2659626459644134e+01 -2.6093397725783314e+00 -9.3993719830304345e-01 9.3488181611656929e-01 -2.2478823180846552e+00 1.0438773421874097e+00 -7.7459472298712351e+00 -3.2656316281975767e-02 
        </Neuron>
        <Neuron NSynapses="16">
          -3.0036573796732808e+00 -6.7824171820855528e-01 1.7511038046905507e+00 -5.2964283619136188e+00 7.3685313619764403e-01 -8.9856606475742240e-01 4.3108482929263942e-01 -2.9763190258549415e+00 -2.2989113039106930e+00 8.8865381951927794e-02 1.0247257070781326e+00 6.2767601260802719e-01 -6.2495342966668748e+00 -1.2481731559387979e+00 2.1431594748364411e+00 4.8728878663688288e-02 
        </Neuron>
        <Neuron NSynapses="16">
          1.3318771786648201e+01 4.3689146361622484e+00 3.1318806688602535e-01 -5.9523151070530222e-01 -1.3444616255539438e-01 7.0009340293735955e-02 4.1177808959110590e-01 -2.9631307330620549e-01 -1.0031446772654541e-01 1.0290186342546410e+00 1.5001601807640152e-01 3.2666766630441835e-01 -1.9904599927910502e-01 1.7012534209551927e-01 -8.2973758473910489e-02 2.5034346895620418e-01 
        </Neuron>
        <Neuron NSynapses="16">
          6.5691826078959306e+00 -6.6022453381233137e-01 -6.9606024276242418e-01 -1.3337806612183671e+00 -2.5671191723726955e-01 3.9039800068434027e-01 -4.7174457767081918e-01 -1.1343761890004285e+00 -6.7468942740101279e-01 9.4672832828726907e+00 -8.7012760510271381e-01 -1.7967260848226235e-01 1.1671604547336663e+00 1.8737720406112146e+00 -1.6579549612349591e+00 -6.3136387297735086e-01 
        </Neuron>
        <Neuron NSynapses="16">
          4.9322168287457311e+00 1.7598308349319347e+00 -3.9049556585738672e+00 7.0156780866553987e+00 9.4412378531694898e+00 -4.8542865089634413e+00 1.7143124316450016e+00 1.9228498959294549e+00 -3.2914787288225855e+00 6.6607382890382261e-02 2.5945524219350097e-01 5.7112694738840730e-01 2.8341418224286898e+00 -1.7608133687354355e+00 1.1483364609687766e-01 -4.2734464653731052e+00 
        </Neuron>
        <Neuron NSynapses="16">
          -1.0226856580346522e+00 3.7722624876801487e+00 -1.3604135446550267e+00 -7.0001919799392853e+00 1.8324765454360288e+00 -2.0217896608483814e+00 1.8386037980731471e+00 8.6582387598360522e-01 1.2309934218287379e+00 -1.0851888522109821e+01 1.7875007804814269e+00 3.0137850543863087e-02 1.6713040279218745e+00 4.7174172312465545e+00 -9.3187147153126770e-01 1.3703747494018055e+01 
        </Neuron>
        <Neuron NSynapses="16">
          8.8354913640881480e-02 -3.2557064626958071e-01 2.9203911528665705e-01 -2.0612953750764538e+00 -1.9658525321117773e-01 2.7799569435119886e-01 1.2056102035026832e-01 -1.5435597620622427e-01 -1.1918715215090271e-01 1.8335042774147841e+00 -1.6378346419052295e-01 -3.1435196881280242e-01 -4.9814819314015629e-03 -6.7321786400464145e-01 4.4595106175243732e-02 -2.5058110751888365e+00 
        </Neuron>
        <Neuron NSynapses="16">
          -7.2143233965991345e-03 -1.0343312635013096e+00 1.5607097711853157e-01 1.2538543853107438e+00 -1.4707420655385252e-02 6.3578813699070050e-02 1.2133975254066992e-01 -1.9159329170892048e-01 -9.5697445084684848e-02 -3.2068745068809960e-02 4.2644790356403145e-01 1.8414123651114073e-01 -1.5058441506984135e-01 4.8932915389516052e-01 -1.0495765441622779e-02 -3.6374392300647129e-01 
        </Neuron>
        <Neuron NSynapses="16">
          -4.0696955145674192e+00 -1.3598510531571737e+00 2.8932877209867947e+00 -6.9903143024183159e+00 -1.0927628599230248e+01 4.8954282691772706e+00 9.0885900834700339e-01 -4.5034884052185937e+00 1.7422031278613548e+00 -5.9159134403632119e-01 -4.5875868029539058e-01 2.9641534801061709e+00 -2.3204163286556034e+00 1.3257539359778405e+00 -1.4231794772371575e+00 5.4402900237534659e+00 
        </Neuron>
      </Layer>
      <Layer Index="1" NNeurons="17">
        <Neuron NSynapses="1">
          1.3462585521829789e+00 
        </Neuron>
        <Neuron NSynapses="1">
          1.8762954067865409e-01 
        </Neuron>
        <Neuron NSynapses="1">
          6.1377238333504036e-01 
        </Neuron>
        <Neuron NSynapses="1">
          -6.1846797937937603e-01 
        </Neuron>
        <Neuron NSynapses="1">
          -4.3642693347425876e+00 
        </Neuron>
        <Neuron NSynapses="1">
          1.1255704535360858e+00 
        </Neuron>
        <Neuron NSynapses="1">
          -4.7595585088774212e-01 
        </Neuron>
        <Neuron NSynapses="1">
          -4.0304486922037013e+00 
        </Neuron>
        <Neuron NSynapses="1">
          -1.2710803672672688e+00 
        </Neuron>
        <Neuron NSynapses="1">
          7.6912565011794287e-01 
        </Neuron>
        <Neuron NSynapses="1">
          2.5281266636700157e+00 
        </Neuron>
        <Neuron NSynapses="1">
          7.7406105566339301e-01 
        </Neuron>
        <Neuron NSynapses="1">
          -5.8812966773645592e-01 
        </Neuron>
        <Neuron NSynapses="1">
          -1.0700802397784317e+00 
        </Neuron>
        <Neuron NSynapses="1">
          -4.9569639945712585e-01 
        </Neuron>
        <Neuron NSynapses="1">
          9.0689502931660848e-01 
        </Neuron>
        <Neuron NSynapses="1">
          -4.8066862705907125e+00 
        </Neuron>
      </Layer>
      <Layer Index="2" NNeurons="1">
        <Neuron NSynapses="0"/>
      </Layer>
    </Layout>
  </Weights>
</MethodSetup>
