<?xml version="1.0"?>
<MethodSetup Method="MLP::MLPBNN">
  <GeneralInfo>
    <Info name="TMVA Release" value="4.2.1 [262657]"/>
    <Info name="ROOT Release" value="6.26/02 [399874]"/>
    <Info name="Creator" value="s1412595"/>
    <Info name="Date" value="Sun May  1 18:06:39 2022"/>
    <Info name="Host" value="Linux root-ubuntu-2004-1 5.4.0-73-generic #82-Ubuntu SMP Wed Apr 14 17:39:42 UTC 2021 x86_64 x86_64 x86_64 GNU/Linux"/>
    <Info name="Dir" value="/home/s1412595/Desktop/MSc/TMVA/runs/run_fs10_hp1"/>
    <Info name="Training events" value="120000"/>
    <Info name="TrainingTime" value="3.73761960e+02"/>
    <Info name="AnalysisType" value="Classification"/>
  </GeneralInfo>
  <Options>
    <Option name="NCycles" modified="Yes">60</Option>
    <Option name="HiddenLayers" modified="Yes">N+5</Option>
    <Option name="NeuronType" modified="Yes">tanh</Option>
    <Option name="RandomSeed" modified="No">1</Option>
    <Option name="EstimatorType" modified="No">CE</Option>
    <Option name="NeuronInputType" modified="No">sum</Option>
    <Option name="V" modified="Yes">False</Option>
    <Option name="VerbosityLevel" modified="No">Default</Option>
    <Option name="VarTransform" modified="Yes">N</Option>
    <Option name="H" modified="Yes">True</Option>
    <Option name="CreateMVAPdfs" modified="No">False</Option>
    <Option name="IgnoreNegWeightsInTraining" modified="No">False</Option>
    <Option name="TrainingMethod" modified="Yes">BFGS</Option>
    <Option name="LearningRate" modified="No">2.000000e-02</Option>
    <Option name="DecayRate" modified="No">1.000000e-02</Option>
    <Option name="TestRate" modified="Yes">5</Option>
    <Option name="EpochMonitoring" modified="No">False</Option>
    <Option name="Sampling" modified="No">1.000000e+00</Option>
    <Option name="SamplingEpoch" modified="No">1.000000e+00</Option>
    <Option name="SamplingImportance" modified="No">1.000000e+00</Option>
    <Option name="SamplingTraining" modified="No">True</Option>
    <Option name="SamplingTesting" modified="No">False</Option>
    <Option name="ResetStep" modified="No">50</Option>
    <Option name="Tau" modified="No">3.000000e+00</Option>
    <Option name="BPMode" modified="No">sequential</Option>
    <Option name="BatchSize" modified="No">-1</Option>
    <Option name="ConvergenceImprove" modified="No">1.000000e-30</Option>
    <Option name="ConvergenceTests" modified="No">-1</Option>
    <Option name="UseRegulator" modified="Yes">True</Option>
    <Option name="UpdateLimit" modified="No">10000</Option>
    <Option name="CalculateErrors" modified="No">False</Option>
    <Option name="WeightRange" modified="No">1.000000e+00</Option>
  </Options>
  <Variables NVar="10">
    <Variable VarIndex="0" Expression="Kbach_ProbNNk" Label="Kbach_ProbNNk" Title="Kbach_ProbNNk" Unit="" Internal="Kbach_ProbNNk" Type="F" Min="5.10000885e-01" Max="9.99803305e-01"/>
    <Variable VarIndex="1" Expression="Kbach_PT" Label="Kbach_PT" Title="Kbach_PT" Unit="" Internal="Kbach_PT" Type="F" Min="4.03433502e+02" Max="1.47210791e+04"/>
    <Variable VarIndex="2" Expression="Lc_PT" Label="Lc_PT" Title="Lc_PT" Unit="" Internal="Lc_PT" Type="F" Min="2.52761890e+03" Max="4.00415273e+04"/>
    <Variable VarIndex="3" Expression="pibach_PT" Label="pibach_PT" Title="pibach_PT" Unit="" Internal="pibach_PT" Type="F" Min="2.00006271e+02" Max="3.32139111e+03"/>
    <Variable VarIndex="4" Expression="pibach_ProbNNpi" Label="pibach_ProbNNpi" Title="pibach_ProbNNpi" Unit="" Internal="pibach_ProbNNpi" Type="F" Min="1.00149095e-01" Max="9.99639690e-01"/>
    <Variable VarIndex="5" Expression="Xicst_IPCHI2_OWNPV" Label="Xicst_IPCHI2_OWNPV" Title="Xicst_IPCHI2_OWNPV" Unit="" Internal="Xicst_IPCHI2_OWNPV" Type="F" Min="1.37118786e-05" Max="2.63996133e+04"/>
    <Variable VarIndex="6" Expression="Xicst_ENDVERTEX_CHI2" Label="Xicst_ENDVERTEX_CHI2" Title="Xicst_ENDVERTEX_CHI2" Unit="" Internal="Xicst_ENDVERTEX_CHI2" Type="F" Min="1.72308029e-03" Max="5.99373703e+01"/>
    <Variable VarIndex="7" Expression="pibach_IPCHI2_OWNPV" Label="pibach_IPCHI2_OWNPV" Title="pibach_IPCHI2_OWNPV" Unit="" Internal="pibach_IPCHI2_OWNPV" Type="F" Min="8.96283200e-06" Max="8.99967575e+00"/>
    <Variable VarIndex="8" Expression="Kbach_IPCHI2_OWNPV" Label="Kbach_IPCHI2_OWNPV" Title="Kbach_IPCHI2_OWNPV" Unit="" Internal="Kbach_IPCHI2_OWNPV" Type="F" Min="1.30371254e-05" Max="8.99991798e+00"/>
    <Variable VarIndex="9" Expression="Lc_ETA" Label="Lc_ETA" Title="Lc_ETA" Unit="" Internal="Lc_ETA" Type="F" Min="1.94540608e+00" Max="4.81356812e+00"/>
  </Variables>
  <Spectators NSpec="1">
    <Spectator SpecIndex="0" Expression="Xicst_M" Label="Xicst_M" Title="Xicst Mass" Unit="F" Internal="Xicst_M" Type="F" Min="2.92377637e+03" Max="3.90779272e+03"/>
  </Spectators>
  <Classes NClass="2">
    <Class Name="Signal" Index="0"/>
    <Class Name="Background" Index="1"/>
  </Classes>
  <Transformations NTransformations="1">
    <Transform Name="Normalize">
      <Selection>
        <Input NInputs="10">
          <Input Type="Variable" Label="Kbach_ProbNNk" Expression="Kbach_ProbNNk"/>
          <Input Type="Variable" Label="Kbach_PT" Expression="Kbach_PT"/>
          <Input Type="Variable" Label="Lc_PT" Expression="Lc_PT"/>
          <Input Type="Variable" Label="pibach_PT" Expression="pibach_PT"/>
          <Input Type="Variable" Label="pibach_ProbNNpi" Expression="pibach_ProbNNpi"/>
          <Input Type="Variable" Label="Xicst_IPCHI2_OWNPV" Expression="Xicst_IPCHI2_OWNPV"/>
          <Input Type="Variable" Label="Xicst_ENDVERTEX_CHI2" Expression="Xicst_ENDVERTEX_CHI2"/>
          <Input Type="Variable" Label="pibach_IPCHI2_OWNPV" Expression="pibach_IPCHI2_OWNPV"/>
          <Input Type="Variable" Label="Kbach_IPCHI2_OWNPV" Expression="Kbach_IPCHI2_OWNPV"/>
          <Input Type="Variable" Label="Lc_ETA" Expression="Lc_ETA"/>
        </Input>
        <Output NOutputs="10">
          <Output Type="Variable" Label="Kbach_ProbNNk" Expression="Kbach_ProbNNk"/>
          <Output Type="Variable" Label="Kbach_PT" Expression="Kbach_PT"/>
          <Output Type="Variable" Label="Lc_PT" Expression="Lc_PT"/>
          <Output Type="Variable" Label="pibach_PT" Expression="pibach_PT"/>
          <Output Type="Variable" Label="pibach_ProbNNpi" Expression="pibach_ProbNNpi"/>
          <Output Type="Variable" Label="Xicst_IPCHI2_OWNPV" Expression="Xicst_IPCHI2_OWNPV"/>
          <Output Type="Variable" Label="Xicst_ENDVERTEX_CHI2" Expression="Xicst_ENDVERTEX_CHI2"/>
          <Output Type="Variable" Label="pibach_IPCHI2_OWNPV" Expression="pibach_IPCHI2_OWNPV"/>
          <Output Type="Variable" Label="Kbach_IPCHI2_OWNPV" Expression="Kbach_IPCHI2_OWNPV"/>
          <Output Type="Variable" Label="Lc_ETA" Expression="Lc_ETA"/>
        </Output>
      </Selection>
      <Class ClassIndex="0">
        <Ranges>
          <Range Index="0" Min="5.1000088453292847e-01" Max="9.9980330467224121e-01"/>
          <Range Index="1" Min="4.0367718505859375e+02" Max="1.0992476562500000e+04"/>
          <Range Index="2" Min="2.5326340332031250e+03" Max="4.0041527343750000e+04"/>
          <Range Index="3" Min="2.0000627136230469e+02" Max="3.3213911132812500e+03"/>
          <Range Index="4" Min="1.0023375600576401e-01" Max="9.9963968992233276e-01"/>
          <Range Index="5" Min="1.3711878636968322e-05" Max="5.0999150390625000e+03"/>
          <Range Index="6" Min="1.7230802914127707e-03" Max="5.7858459472656250e+01"/>
          <Range Index="7" Min="2.5563955205143429e-05" Max="8.9967641830444336e+00"/>
          <Range Index="8" Min="2.9180013370933011e-05" Max="8.9999179840087891e+00"/>
          <Range Index="9" Min="1.9811493158340454e+00" Max="4.7694892883300781e+00"/>
        </Ranges>
      </Class>
      <Class ClassIndex="1">
        <Ranges>
          <Range Index="0" Min="5.1001447439193726e-01" Max="9.9980223178863525e-01"/>
          <Range Index="1" Min="4.0343350219726562e+02" Max="1.4721079101562500e+04"/>
          <Range Index="2" Min="2.5276188964843750e+03" Max="3.0730033203125000e+04"/>
          <Range Index="3" Min="2.0001296997070312e+02" Max="3.2623430175781250e+03"/>
          <Range Index="4" Min="1.0014909505844116e-01" Max="9.9933230876922607e-01"/>
          <Range Index="5" Min="2.6691805032896809e-05" Max="2.6399613281250000e+04"/>
          <Range Index="6" Min="4.3928395025432110e-03" Max="5.9937370300292969e+01"/>
          <Range Index="7" Min="8.9628319983603433e-06" Max="8.9996757507324219e+00"/>
          <Range Index="8" Min="1.3037125427217688e-05" Max="8.9995861053466797e+00"/>
          <Range Index="9" Min="1.9454060792922974e+00" Max="4.8135681152343750e+00"/>
        </Ranges>
      </Class>
      <Class ClassIndex="2">
        <Ranges>
          <Range Index="0" Min="5.1000088453292847e-01" Max="9.9980330467224121e-01"/>
          <Range Index="1" Min="4.0343350219726562e+02" Max="1.4721079101562500e+04"/>
          <Range Index="2" Min="2.5276188964843750e+03" Max="4.0041527343750000e+04"/>
          <Range Index="3" Min="2.0000627136230469e+02" Max="3.3213911132812500e+03"/>
          <Range Index="4" Min="1.0014909505844116e-01" Max="9.9963968992233276e-01"/>
          <Range Index="5" Min="1.3711878636968322e-05" Max="2.6399613281250000e+04"/>
          <Range Index="6" Min="1.7230802914127707e-03" Max="5.9937370300292969e+01"/>
          <Range Index="7" Min="8.9628319983603433e-06" Max="8.9996757507324219e+00"/>
          <Range Index="8" Min="1.3037125427217688e-05" Max="8.9999179840087891e+00"/>
          <Range Index="9" Min="1.9454060792922974e+00" Max="4.8135681152343750e+00"/>
        </Ranges>
      </Class>
    </Transform>
  </Transformations>
  <MVAPdfs/>
  <Weights>
    <Layout NLayers="3">
      <Layer Index="0" NNeurons="11">
        <Neuron NSynapses="15">
          -1.0375142173482048e+00 1.7818447357889333e+00 1.1140720347504345e+00 1.3670278219806729e+00 -1.8464752134014444e+00 -1.4402217466314085e+00 -3.3104137243635395e-01 1.6371759121148195e+00 -9.7555164123971749e-01 -1.7557151156530193e-01 -2.6419654574526072e+00 -4.0550165563814966e-02 -1.5902940249474364e+00 -3.3013843401654447e-01 -5.6477815318958691e-01 
        </Neuron>
        <Neuron NSynapses="15">
          -1.3657810893775046e+00 -7.0476341237354589e-01 1.5058338591020330e+00 3.0250990304855052e-01 1.6785400233935066e+00 1.3440236408644184e-02 -8.2653757614182100e-01 2.5765149927169069e+00 -1.8259378283110766e-01 -1.3345782464636451e+00 -1.8242448718295672e+00 4.4127612597353556e+00 -1.1255592473874383e+00 -1.2803650622850533e+00 2.5500117519913750e-03 
        </Neuron>
        <Neuron NSynapses="15">
          7.0461789265969288e-01 1.3674417936141872e+00 -6.0868936136507268e-01 -8.8095776746020163e-02 5.1174379979356599e-01 -8.6522463800065730e-02 -1.4179558102914762e+00 1.1869276649327518e+00 -1.4128052909949116e+00 1.0633484835760716e+00 -4.4275271639494829e-01 2.0050484513626607e-01 1.3719157704762335e+00 2.0991467634152530e+00 -8.8020323461126515e-01 
        </Neuron>
        <Neuron NSynapses="15">
          -2.6121588486148895e+00 5.0873623263973544e-01 -1.9643894402597137e-01 1.5810878795413517e+00 1.7344256568804464e+00 1.7727546773412231e+00 1.2494594244728972e+00 -1.4784916780279855e+00 1.0511701432207314e+00 -1.9006376121196495e+00 -1.4292735992166854e+00 -2.7733610357479344e-01 -1.9933376378592418e+00 3.3610131658142484e+00 5.4200706835148338e-01 
        </Neuron>
        <Neuron NSynapses="15">
          -8.2936875812433475e-02 7.0678331434900743e-01 2.0384827656015436e-01 3.4046229524426058e-01 1.4339032186183174e+00 -3.9845636494754039e-01 3.1325663793160591e-01 1.9310588363393844e-01 8.3391234420216498e-01 -3.7869899751165975e-01 -1.0738932812709683e+00 2.6816586935877651e-01 9.3726889731169727e-01 3.2445670813088501e-01 1.2364177516832708e+00 
        </Neuron>
        <Neuron NSynapses="15">
          3.0701886536349637e-01 -2.2856106875668054e+00 -2.2881828475717825e+00 1.2862578771083619e+00 9.2467364674739694e-01 2.1270240361278385e+00 3.0523673209583874e-01 8.4788857946985330e-01 -1.2503588627962914e+00 -1.3641711774510743e+00 2.2441481276636818e-01 -2.0815587163189503e-01 -8.8026110999960172e-01 -3.0206610212683662e+00 -1.8235393322385614e+00 
        </Neuron>
        <Neuron NSynapses="15">
          9.3118463666723450e-01 -4.5598426570958667e-01 1.2644692373833022e+00 -1.3512450691954185e+00 -4.5191037789727639e-01 1.4356815896349047e+00 -1.3541304721862093e+00 -1.4099247035120357e+00 -1.9349963966616957e+00 -2.3620251887643773e-01 -1.5754975189141014e+00 -1.9917618573056270e+00 9.6928449901464375e-01 7.5561742126601150e-01 -1.1913892882339763e+00 
        </Neuron>
        <Neuron NSynapses="15">
          -1.8726689539234448e-01 -1.0968545409321659e+00 -8.1255350298793616e-01 -1.3097018626377574e-01 5.4868938071165096e-01 -1.6283251149680367e+00 2.1360070457831090e-01 -1.1362935482429969e-01 2.4220938763903307e-01 -1.1480556781807927e+00 5.7896832171136892e-01 3.3674255237927875e-01 -8.6872916831864944e-01 -3.5087029671549980e-01 -9.9192894744849613e-01 
        </Neuron>
        <Neuron NSynapses="15">
          -9.7442248525618869e-01 -9.0032145498424865e-02 -3.1098965983276500e-01 1.9356532417882892e+00 8.7000117002734889e-01 1.9083682720997425e-01 -1.6246402145222924e-01 5.3193529929496430e-01 -1.4572906582110117e+00 1.1572986124183151e+00 -5.3993944682238759e-01 -2.8677963713464594e-01 2.6490660289158180e-01 -1.4927156281450038e-01 -5.1886700143727094e-02 
        </Neuron>
        <Neuron NSynapses="15">
          6.1280407749077437e-01 1.6357770982948994e+00 -1.5619505137847804e+00 2.9151383554016397e-01 1.4768129734131388e+00 1.6287193105021469e+00 1.6439711488185851e-01 -1.8082203444353977e+00 -2.3172823656070837e-01 -1.1956858489179030e+00 1.1963242020498519e+00 5.7885248430600378e-01 -4.0090282743937194e-01 9.9137669783958904e-01 1.3831838877966796e-01 
        </Neuron>
        <Neuron NSynapses="15">
          -1.9806412368777644e+00 9.6530533501657434e-01 2.1343813854814422e+00 -8.4070514618540149e-01 -1.0375432123637696e+00 1.0372622585555373e-01 1.3373763110356407e+00 6.9065712415313307e-01 1.3324124804197535e+00 -1.0077319237214410e+00 1.1072884964334828e+00 2.1151308196809584e+00 2.6834429045661429e-01 2.0184251704894920e+00 1.1279369864516589e+00 
        </Neuron>
      </Layer>
      <Layer Index="1" NNeurons="16">
        <Neuron NSynapses="1">
          -9.6514615972024798e-01 
        </Neuron>
        <Neuron NSynapses="1">
          -2.0136844186481806e-01 
        </Neuron>
        <Neuron NSynapses="1">
          7.5591633263544500e-01 
        </Neuron>
        <Neuron NSynapses="1">
          5.0582706828480806e-01 
        </Neuron>
        <Neuron NSynapses="1">
          2.6971064594661427e-02 
        </Neuron>
        <Neuron NSynapses="1">
          1.2744600199220877e+00 
        </Neuron>
        <Neuron NSynapses="1">
          8.7737406107891558e-01 
        </Neuron>
        <Neuron NSynapses="1">
          5.2816714145582966e-01 
        </Neuron>
        <Neuron NSynapses="1">
          1.4004580882130122e+00 
        </Neuron>
        <Neuron NSynapses="1">
          -4.5825339890287736e-01 
        </Neuron>
        <Neuron NSynapses="1">
          -9.5836825958860072e-01 
        </Neuron>
        <Neuron NSynapses="1">
          2.2822503348649557e+00 
        </Neuron>
        <Neuron NSynapses="1">
          -3.7006080834110916e-01 
        </Neuron>
        <Neuron NSynapses="1">
          3.1145827905088717e+00 
        </Neuron>
        <Neuron NSynapses="1">
          -1.5551821481409061e+00 
        </Neuron>
        <Neuron NSynapses="1">
          -1.4609612429488457e+00 
        </Neuron>
      </Layer>
      <Layer Index="2" NNeurons="1">
        <Neuron NSynapses="0"/>
      </Layer>
    </Layout>
    <InverseHessian NElements="32761" NRows="181" NCols="181">
      <Row Index="0">
        1.8893789497172044e-02 -5.8907501702156140e-02 3.7939593343306183e-02 -2.7402897438611362e-04 -1.7717324458593067e+00 -8.7379546975673364e-03 3.1763308672737717e-03 1.1924015134958997e-02 -4.1634609572841264e-02 -3.6253621780768636e-03 -1.1805594556876488e-02 -4.7829795560352657e-04 7.0915443393851502e-03 -2.3488514687417016e-04 1.5712327851462038e-02 6.9605499032175640e-03 9.9435715084703058e-03 1.1171684985340417e-01 1.7301587712416980e-03 1.8606269181926147e+00 -4.9910005623751523e-03 -2.0937286122352954e-02 -4.3149410781700634e-03 1.0740165157074566e-01 6.9744368171833129e-03 2.2194369956545857e-03 -3.5759905880808143e-03 2.1202937941706142e-02 -1.6677633034850078e-03 -9.3067684500699188e-03 -1.2251540336589761e-02 -8.8992558830858354e-02 -7.0791630416820239e-02 3.7104330553945318e-03 7.4602382626233066e-01 1.0226017589849192e-02 3.6474701000994314e-02 -3.5905641368572053e-03 -1.2854094234279606e-03 -1.1670552093497929e-03 -8.7966361425345987e-04 2.8591402710481536e-03 -1.4880763208564277e-03 2.6951111823740577e-03 3.9633533867398096e-03 3.2664132762821388e-02 7.0219523305660031e-02 -2.7628104130645564e-02 5.3001851231485944e-03 2.2310285745545606e+00 -5.8287559563510907e-02 -7.2668857366859324e-02 5.0838787941832539e-03 -4.9257819200322767e-03 1.0552110456838147e-02 -8.9494947116701487e-03 -7.0500093354867238e-03 1.1823877320944705e-02 2.4158806701743197e-03 -4.0994424556861059e-02 3.5578891279279328e-04 -2.4612815765973572e-02 2.9122114932575979e-02 9.6581926001759397e-04 1.8926766979039655e+00 7.5587092664044231e-03 1.8227285415586006e-02 5.0489056349756157e-05 3.9987476330219929e-03 -1.6345931866429287e-03 -1.5267578603791717e-04 1.0862691663941109e-04 2.9921729441114565e-03 4.5652516401652199e-04 -2.0616423112750693e-02 4.4587910661909938e-03 -1.8449344776233392e-01 8.1472221374663256e-02 5.0562863566726818e-02 -8.7914357699414580e-02 4.7414083893887016e-02 5.3442370175336783e-02 1.3470559322388684e-01 -2.1550275617424874e-01 1.8192408168585916e-01 -1.1806070381609196e-01 -2.5790962390757823e-02 1.8362857011650630e-01 1.9411440796101541e-03 -7.1008489448974199e-02 -1.3437439617853025e-02 -2.3390405059485420e-02 8.8617337272162047e-02 -9.1572044218757587e-03 9.6033387106734835e-01 -9.4519312049924920e-03 4.1531341750887067e-03 -8.3219105333270735e-03 -4.6402669325518696e-03 -6.2123060968112889e-03 -2.4578448998752896e-03 3.0555390429656882e-03 -1.1959597589392372e-02 7.3225343707350031e-04 9.9557545816358894e-04 2.4158277994704991e-03 5.0604971886251349e-02 -5.0815778259755029e-02 9.9636473987352574e-05 5.4524487093443241e-01 1.2031320499515052e-02 -1.3503685189658721e-02 1.2342975304308792e-03 -2.8511765688341573e-03 3.5956865520826737e-03 -2.4227097195038752e-04 -1.2365487234234280e-03 2.7669736401401794e-04 -6.2378058931218357e-04 4.5365234652145897e-03 1.3000339138582659e-02 2.8799877670644236e-02 -3.9104501379775086e-02 1.1588890630417842e-02 1.0678830503759347e+00 -1.1052885872405466e-02 -4.0183818816777461e-02 4.2379646493342204e-03 -3.8783100619790706e-02 6.3151959737402334e-03 -5.2234776392071211e-03 -1.7956387697311280e-03 1.1946861269254167e-03 -5.3242602814743850e-04 -6.4752099191045520e-03 -8.9071860181488636e-03 -4.8306501279738123e-02 -8.9822220911185219e-02 1.6676877022156304e-03 1.3105504740202663e+00 -1.2633165047808079e-02 2.6948916301697157e-02 -4.6225253532573146e-03 -2.9229330934708274e-02 2.1910280308939170e-03 2.5515640227408518e-03 2.1893200436513133e-04 -1.9161178755103103e-03 1.0998765059828976e-03 -3.6486111149941491e-04 1.8138286237877749e-02 -2.4068835250682108e-01 1.8606274140792922e-01 4.4122904579038169e-02 9.0774767182932842e-02 5.8999146535957669e-03 3.9519131649974448e-02 1.2127425249464957e-01 -6.9746764222945679e-02 1.9865999345067228e-01 -1.1046007432184370e-01 -3.0860250310152548e-02 1.9576804739515341e-01 5.0277910631456070e-03 -1.5476792922923666e-01 -1.3758590034239168e-02 -9.0655527594277197e-03 -1.0444920939223432e-01 -3.1454742647509595e-03 -2.6924172086942026e-02 2.9097996357869624e-03 1.0860514497883904e-01 -1.5543148676307999e-03 -4.3771308541844550e-02 -9.5190394285168956e-05 -5.8183848473268227e-04 1.1202491355812381e-03 -3.6757661395913526e-04 -4.3704876655424937e-03 1.1673304346577044e-02 1.2231395357305634e-02 
      </Row>
      <Row Index="1">
        -5.8907501685338079e-02 5.5895465579191047e+01 3.4838379406110453e-01 4.7387939162178358e-02 3.0982233559732574e+01 -9.4698082833506025e-01 -7.5501667997569366e-01 1.2997038272654024e-01 1.4469217435118011e+00 3.3591150741676756e-01 1.0772542527893719e-01 -2.5861341988453596e-02 -6.9207821491202626e-01 -4.8361040427474473e-02 1.6900003924907093e+01 1.9582916665175906e-02 -1.5440467079672805e+01 4.5327402769513050e+00 -1.8017699106455937e-01 -7.6493890514028351e+00 2.7206267407822349e-01 1.6336396893494787e+00 2.2468955500510010e-01 -3.9073398333442633e-01 -4.2437847190398903e-01 1.8136018317825522e-01 1.4430455416673604e-01 -2.6385264093942912e-01 4.0965259417946064e-02 -3.8828480822062024e+00 -2.8717331785049760e-02 3.5712300157565558e+01 -1.8933498461298333e+00 7.5985970500302785e-02 -1.2093939223832848e+01 -3.9321770003671652e-01 6.5242669021889244e-01 2.5810259896304155e-01 2.4542180504431288e-01 1.2643171384217566e-01 -1.0229137698956266e-01 -2.3362798861206822e-02 5.1346678366884801e-01 3.1632252390512795e-02 1.9066327576135809e+01 7.3869149861042760e-02 7.6979376021070349e+00 7.1264843258019051e-01 -3.7830608150411132e-01 -2.5449787484683981e+01 4.0175516067735551e-01 -1.5377014016545648e-02 -1.5117882000308830e-01 -3.2322951110655906e-01 3.2427337899051563e-02 2.2140110987514919e-01 -1.4267513214352819e-02 -7.4505845692306538e-01 4.0221900556517746e-02 -9.1272626978989315e+00 -1.7342154057914977e-02 1.4590159498426939e+01 -1.0301761293413692e-01 -8.3606156204184545e-03 6.5111133686577958e+00 -1.9071236475276665e-01 -2.0410592095716212e-01 4.4949664726662057e-02 -1.5855069948749023e-01 1.4164145545833573e-01 5.9087431172361565e-02 -1.3717835475213215e-02 -1.2711830143440955e-01 -2.6067393896673859e-03 -1.0506017922005906e+01 2.9220299251140034e+00 -5.3574902310504172e+01 2.1458020862319098e+00 -7.7795468282800098e+00 1.7155527863076259e+00 -2.9056428839719404e+00 1.0986495183122765e+01 5.9324753442695344e-01 -1.1239861793329613e+01 8.2017766084929917e+00 1.6990204954903725e+00 3.5764464280402153e-01 -1.4215934300836759e+01 1.7477043929413663e+00 9.7192218752768103e+00 -6.6318653039362380e-02 -7.4563166551786040e+00 2.9233823971773525e+00 1.7637167506734444e-01 1.7338931937063787e+01 2.5662664629045473e-01 4.9606760782691262e-01 -1.9546542298611119e-01 4.3878347960851016e-01 1.0783049829072372e-01 7.6354165088919346e-02 -3.8145433300056313e-02 5.7836614023052746e-01 -8.2300578861367948e-03 1.2078308022451630e+01 3.2756390694973152e-02 -2.0708981323173212e+01 -3.3560500530597626e-01 -8.4183755763423712e-02 -1.2608130466637590e+01 -7.4194317869576309e-02 -3.1204814403832959e-01 -7.1389737761060820e-03 1.9728660937582454e-01 -2.1866866399867729e-01 -1.8003270104994723e-02 3.4294970032345537e-02 1.4895527066382749e-01 1.3410673290069727e-02 8.4610295682509999e+00 4.0545758463701329e-02 -2.8015678682588714e+00 -1.5262745481984030e-01 -2.8930728960590124e-01 -1.4249427848287866e+00 -1.6490411473672140e-02 1.8990164044839700e-01 5.7302683810275153e-02 -1.2572885574709758e-02 1.8666392078729638e-02 6.1462896937486251e-02 -3.9945164427137971e-03 9.5385870016487309e-02 6.0032579075778095e-04 1.0890705809204722e+00 1.8480528255422155e-02 4.0920915748176981e+01 -4.1605266141826940e+00 -6.2343059115219257e-02 -2.1067012416271851e+01 1.3092327385739538e-01 2.4652323719150915e-01 -2.5442488337652183e-02 2.3490838487037685e-01 3.1933539060085603e-01 -1.1355279751751324e-01 -3.9774912087987009e-02 -3.0015327722327573e-01 6.9418234353220542e-03 6.1921517660301184e+00 2.9590510154884346e+00 -2.6170678766197071e+00 8.5966573070238930e+00 -8.0319351578819820e+00 -1.3693395993252861e+00 -3.1727639304330775e+00 1.3207934207403520e+01 5.9745973514821182e-01 -1.2440866352917707e+01 7.7821951341707436e+00 1.7735408871080611e+00 4.5200584473941602e-01 -1.3591397413033750e+01 1.8739023699355368e+00 6.2344545924508239e+00 -2.8008407886628499e-02 7.6295780727005571e+00 -2.7726319642675277e+00 6.6140984290512350e-02 3.6572903578557636e-01 -3.4022787737804250e-01 8.3549017258291292e-01 -7.4102989724084384e-02 6.8950828552174537e-01 1.0558093887225704e-02 -5.1688123930795193e-02 -6.4034890489116106e-02 1.7323681744271582e-01 -7.9580003988940426e-02 -4.8093690471331215e+01 4.1765974513868443e+01 
      </Row>
      <Row Index="2">
        3.7939593337220232e-02 3.4838379291369392e-01 1.2230996488444811e+01 1.5938547197328540e-01 -3.9116375846153751e+01 -7.9014561925684446e-01 -4.7961492473832523e-01 -7.2426600473923075e-02 2.1148336616344854e-01 -3.0965160729569163e-01 -1.6503754551312783e-01 7.9650911605539006e-03 1.6253026410977300e-01 -1.0898472541118635e-02 -1.5597829323786010e+00 6.7441819112070894e-02 8.5506032992378511e-01 3.7587575341565791e+00 -6.2392427081115920e-02 -3.1208276767699004e+01 -4.1113212650549336e-01 -1.0418817138061076e+00 -8.8835455923421236e-02 1.0238051524256426e+00 -4.9825060268465293e-01 -2.0976921689214165e-01 -3.5762217351137160e-02 6.0290134326321621e-01 2.5824932533148950e-04 1.0372675892692840e-01 4.2139951359826816e-02 -1.0498824218431246e+00 -3.5841738730517827e+00 -1.8736902847613500e-02 -3.8696048233600209e+00 -1.0530442651140559e-01 1.5253335734102813e-02 2.3524392254823240e-01 -2.1289026760400809e-01 6.5493508781912946e-01 -7.7997736003878909e-02 -1.0032742180125932e-02 -2.7036881605812152e-01 2.7565612769412124e-02 -1.2238102198844811e+00 1.2507718309423749e-01 -1.1126816416777741e+00 4.6723695276271404e-02 -5.3006323751979646e-02 -2.2270995212915523e+01 -1.4668274857409935e-01 2.5338222975503322e-01 -1.8442774389341596e-01 -2.3627294856860626e-01 -6.5421584534829080e-01 -1.3333731017008069e-01 -3.3752060346827782e-02 3.7472593567515400e-01 -2.1789418856037579e-02 1.2072907217619759e+00 1.0691762520552352e-02 -4.1290510286157822e-01 8.4764599091483639e-01 5.1816652153253831e-02 -5.7997304901991228e+01 -1.6354952975829329e-01 3.1126664230947876e-01 -3.8790771147455286e-02 -2.2072903785777154e-01 -2.8743043415398395e-01 -1.1802315494234071e-01 1.8994041963474085e-02 -1.6012225104589051e-01 1.8345030262380954e-03 6.9235921925504407e-01 3.7893276718589943e+00 -1.4159348103887346e+01 -2.5835515941849425e+00 -2.0597364072422337e+00 -4.1460289965402808e-01 9.2805541925328372e-01 4.6828558638133346e+00 4.9232650813989469e+00 -5.1479091938090562e+00 9.8063182300757799e+00 -2.8306251435443253e+00 1.4872095911605274e-01 8.0527115547289032e+00 1.0658247261816876e+00 -8.3688549796099458e+00 -1.5725781332325720e-01 1.5221445820909052e+00 1.0186255642999763e+01 3.3778043646550426e-01 -8.1968412225160137e-01 1.3813708812321102e-01 -5.1909608803495066e-01 -1.3177274416647311e-01 1.4602676396275749e-01 -5.7159680727099649e-01 -6.8429785258634690e-02 5.7524977344203594e-02 -5.0278612180522075e-01 -2.0441920272877855e-03 -1.3937276222627881e+00 2.7390355328976997e-02 2.2191729540553773e-01 -3.9402910427719076e+00 -1.3306167147380460e-01 -3.0222476494430879e+00 7.7118917114330721e-02 -5.6765915632743913e-02 9.7199464383304623e-02 2.8579221229254159e-02 -7.5518187322820923e-02 -8.3306318807093993e-03 -3.7138003690454419e-02 1.4165672034087590e-01 7.8883746724082472e-04 -1.7525364562814598e+00 1.4860141121269466e-01 2.7053910385773250e-01 -3.0112078331311167e+00 -1.6031164328282194e-01 -9.0146616546774325e+00 2.5773129015209717e-01 -1.7222115704581142e-01 7.0644658960500317e-02 -2.3324255207160702e-01 6.4776112791571738e-01 -3.4595223166155070e-02 -1.0651171685218026e-02 -1.0919194113899341e-01 4.6318377506852533e-03 5.5252256983169179e-01 -2.1568331828928450e-02 -2.8201400382594173e+00 -7.1790346212631668e+00 -2.2690064558768297e-01 -1.2420939129960558e+01 4.9856554766314010e-02 2.9628355937616568e-01 1.1293223838176891e-01 -3.4184343653843163e-01 1.4206390718498257e-01 -1.2463661569760767e-02 -4.8976839584835771e-02 1.8108231984907308e-01 9.8477036900810871e-03 1.5926518832564422e+00 3.9239653701078017e+00 -1.4633323076342435e+01 1.0764167084568328e+01 -2.1553243166684908e+00 -1.1590624046347742e-01 1.7451092466656348e-01 4.7468085324306166e+00 4.9662577895350690e+00 -4.5285657130474535e+00 9.8775321709337476e+00 -2.9107496917366058e+00 7.5437715724820609e-02 8.1170662389636252e+00 1.0788249537577979e+00 -6.7490813870159005e+00 -1.0969829275692430e-01 -1.0383196944826323e-01 -1.1045221979960409e+01 2.8966363223274283e-02 5.6514664736329934e-02 -3.2747985715733385e-01 5.8216811294821369e-02 -3.6205362834754271e-02 4.0639154503807617e-03 2.0467525073454662e-01 1.0339596202523738e-01 3.2854502744494071e-02 -1.1628755429783852e-01 -9.5358797021382335e-03 5.5730623029703370e+00 5.0215666772897922e+00 
      </Row>
      <Row Index="3">
        -2.7402897459597245e-04 4.7387939231253284e-02 1.5938547194642588e-01 3.6924651625698768e-01 1.0724290702125346e+01 6.5745085914888285e-02 3.7916071531535478e-03 1.5546802868884879e-02 -2.1758155131064560e-01 1.2636668665763295e-02 3.6593111634680722e-02 -1.2525623084011736e-03 -2.9786468312520270e-02 -1.0539166645476637e-03 -9.4285761509207588e-02 2.2521614155103592e-02 4.6036880007039094e-02 9.4456276122352689e-02 1.7059683394572450e-02 -2.5079416934339926e+00 8.9026838901575811e-03 -6.2914714027813373e-02 5.0710864214505963e-02 1.2532378440413949e-01 3.5526227598895191e-02 -1.1829706168563867e-02 1.5668884035349773e-02 1.2447517532191837e-02 5.1550566202602684e-03 -4.7280488847833979e-02 -1.9217456548894556e-02 -9.6167617657716420e-02 -1.1593557230319651e-01 -9.9583489600763575e-03 -3.3356386368547284e+00 4.9616443019759593e-03 -4.1115917707329586e-02 4.1869026773007023e-02 -1.1338261762277169e-01 3.9662753088382258e-03 3.5342414626783388e-03 2.5429998277999924e-03 2.2930598038305706e-02 6.7257311103835135e-04 -6.4244707592595596e-02 5.9694998328596774e-02 1.4561442077669073e-02 2.1475548543193562e-01 2.4605675330726409e-01 -5.7236580551979657e+00 1.1351798313008921e-02 -1.7614894669395781e-02 -7.7864471990580122e-02 1.5060591914800936e-01 2.3943047235609624e-02 -2.0294325617372641e-02 -7.7239626210315708e-03 -5.6350294223978734e-02 -1.7598030515900858e-03 6.5030171777598067e-02 6.9345068640457117e-04 7.0950996001455657e-03 -7.9668925332333496e-03 5.4474547045391855e-02 -4.0268812216597976e+00 2.9667641038383374e-03 3.2787774000368100e-02 6.0853665654334171e-03 -1.5610812168855404e-02 -2.9535831603199614e-03 -1.2903087651938662e-03 1.4670091698745162e-03 6.5543453822290848e-03 -2.3691931777098491e-04 -7.7524571763624373e-02 8.3913437207849467e-02 -3.2674272651650771e-01 1.0077440658213372e+00 5.5309859550109430e-01 -1.5951413154175498e+00 -1.9424201276537967e-01 4.2263221924021432e-01 2.7946230076790451e-02 5.9749707258411267e-01 5.0631918619036620e-01 -7.4500135965583081e-02 -8.5964663678955201e-03 -3.4860854946317577e-02 7.9083319491971921e-02 4.7063817592099877e-01 -1.8337233200392888e-02 2.4676760667591946e-02 1.1863817614931738e-01 -2.8549664205530767e-01 -1.9528415709331597e+00 -9.0545985869423529e-03 -9.8835462413864747e-02 -5.1732853925226870e-02 -3.2563382480774949e-02 -2.3753559450330003e-02 1.4540869584762896e-02 -8.0319942047588772e-03 -2.6174022556873705e-02 -2.2503343166150516e-03 -5.3588151904731984e-02 4.7675896021532639e-03 -9.3003851300011917e-03 -7.3962259704666966e-02 -1.3455085294718332e-02 -2.3039062581125433e+00 -8.3753068417144583e-02 -3.3071722828992400e-02 -8.7875248722952062e-04 -1.5878830985601944e-02 -4.4757435459197858e-03 -7.0536047965509552e-03 -7.3142872786239113e-04 -1.1212161520100596e-02 2.8326668916010432e-04 7.3229420783284427e-02 2.5623760736139145e-02 1.3890489686162422e-01 1.1296816569599771e-02 2.8968955216957476e-01 -4.6277857878859407e-01 1.4031138240645780e-02 9.7363927868359401e-02 2.8265583017161630e-02 1.0674976574269296e-01 2.7222506770235577e-02 -4.2796881345740214e-03 3.9494508196873885e-03 2.3779747976365499e-02 4.8490781284846055e-05 2.2094310359869418e-02 -4.3209777724262247e-04 -3.1870352842068961e-02 -8.0207368025012660e-02 1.2447652241634091e-02 -3.6747914008647058e+00 -1.2786171516605939e-02 1.1525389935251029e-01 -2.0353933318025440e-02 -2.5997761087850235e-02 5.7310857702926321e-03 -1.8953851660097845e-02 1.3371953464338584e-03 -9.1730999940136670e-03 -1.5417248316283076e-04 3.4527622278287207e-02 1.4938991375462174e-01 -2.2784649273261737e-01 1.3910447035502691e+00 9.8850018343900947e-02 1.6382112660503987e+00 -2.1161676795935130e-01 9.9246150022132162e-02 -1.0658854493387250e-03 7.8219697494269358e-01 5.5304841114239223e-01 -1.2530991933967722e-01 -6.3887726777139137e-03 -3.6784485900692721e-02 8.1251377914972778e-02 3.4106092427608026e-01 -3.3163672030240197e-02 -5.2038844511611768e-04 -1.2781478225392881e-01 -7.1626088357345380e-02 1.0334895941667134e-01 1.6200749582204431e-02 -4.5174594668341211e-01 -1.9506414920707812e-02 3.2295643030003124e-02 8.9417722792487116e-03 -4.9532504442946967e-03 -9.3639087966046006e-03 4.0776574018772990e-03 -2.0001241951672681e-04 4.1874702552182230e-02 5.5943014078089204e-01 
      </Row>
      <Row Index="4">
        -1.7717324459282024e+00 3.0982233617338352e+01 -3.9116375842202643e+01 1.0724290703066977e+01 2.0166560019606033e+04 -5.7164003583874468e+01 3.1967533606916788e+01 -4.4992808227202516e+00 -4.0817355902456384e+01 -2.5584017311848584e+00 4.4792500511412729e+00 -1.8723982729375158e-01 -3.8941593580084088e-03 -2.7466439388013242e-01 -1.5479178012496732e+01 2.7273765529713390e-01 2.4385149317782123e+01 -1.4640165907717696e+02 -1.2611503422041226e+01 -5.9142440284981203e+03 -7.2542508241398878e+00 -5.0294019078852337e+01 -6.5804116126074090e+00 4.7601287067702103e+01 2.4203121319135875e+01 -2.8047740495640938e+00 3.1541271861923903e+00 -2.0186063786647260e+01 1.5416082856648279e+00 -1.7426858646616402e+01 4.6375161180619902e+00 -2.1889184287840035e+01 1.5334885812877765e+01 6.4965620374864663e-01 -4.4894845808861273e+03 3.1857961594321921e+01 9.6754624297994951e+00 -3.1045186315410787e+00 3.6852649223329408e+00 -7.6638879662185557e+00 -1.1638951829272692e-01 -5.4584897208943606e-01 1.0709530123954005e+01 -8.9590786178078630e-01 -1.4615018620203841e+00 -8.9943408582385640e+00 4.3382071109397344e+00 -3.4501816150059831e+01 -3.9337628471511232e+00 -8.7118769348093701e+03 1.9218844189963036e+01 -4.4487299816255209e+01 7.5941393639632366e+00 1.0658671344877540e+01 1.0415503617363274e+01 1.2862246833759283e+00 7.4749883787360305e-01 -1.8798359985634601e+01 -9.2669420227090682e-01 -1.3034394822458189e+01 1.4346532865691535e+00 1.3416706285351943e+01 -3.7934255883283733e+01 -9.4095274906321968e-01 -8.7795235253481515e+03 -1.6669527885355073e+01 -7.3131373665489257e+00 7.4061347064931227e-01 8.3424732921229108e+00 1.6267672836841669e+00 1.3004704474689244e-01 -1.6156164524452898e-03 5.2599626364763452e-01 3.5247159115040574e-02 -6.2218073924140924e+00 -1.3081219085523628e+01 9.9864991782790412e+01 5.0198705325662689e+02 -4.2237216976383316e+01 -5.3903234321514328e+03 2.3557551411162879e+02 -1.5754949776358407e+02 -5.1207592454875446e+01 1.8126497072050256e+02 -1.3560714748080233e+02 3.2071471541362030e+01 9.6605133289378315e+00 3.7523472813982268e+00 -1.0864068510581884e+01 3.6184115861211228e+02 1.6911702483460302e+00 -3.2344001957413354e+01 -6.8169252872891988e+01 -5.1955380340953239e+00 7.1277913359269223e+02 2.9327121894724442e+01 3.2857166814817624e+00 4.0927921329382029e+00 -2.7284540519688250e+00 4.1605957746441291e-01 3.0697608360582853e+00 -1.5055515133380439e+00 6.0968320159031597e+00 -6.3130945501247426e-01 1.9370109373850966e+00 -6.8900657520772746e-01 -1.9194688840336042e+01 2.5307321206121422e+01 -1.5977987463458660e+00 -2.3145073151583833e+03 -5.7766491445317229e+01 4.6618663989362545e+00 3.3347009933036542e-01 -5.4942063791174220e+00 1.1799387265161190e+00 -8.2217689532408755e-01 2.8630748285780538e-01 -2.5633884422697815e+00 3.3577333189040137e-01 -5.4704428480778811e+00 -6.4422721372389757e-01 -5.8747070817484257e+00 -1.7032016863631327e+01 3.1486504811187292e+00 -4.0984654709683291e+03 1.1213463641581962e+01 -5.9958866861693014e+00 1.0425575580006972e+00 2.4416274563736806e+00 -8.8686027147242186e-01 -3.9604379410771967e-01 2.3203735465938347e-01 -2.4648871358186004e+00 1.5335621229446383e-01 -1.0703363203296092e+01 1.4421251464735962e-01 2.6618890503768050e+01 3.2916484708714918e+01 -6.1300323390590528e-01 -6.3147238544692518e+03 4.2425532610361927e+01 -7.3810458741527389e+00 5.9629983773005968e+00 6.1064001578615521e+00 8.2630510411489100e-01 -1.7054953535704918e+00 6.6508892959978971e-01 -2.6816383746750341e+00 -1.4560937624674455e-01 4.9378047184649176e-01 -1.6279434746992539e+01 1.0026458357223487e+02 2.1532099225276835e+02 -6.9974971027110143e+01 5.4126878044308596e+03 1.9021406404955135e+02 -2.4021579763902250e+02 -4.5779638348790819e+01 2.5727799710021810e+02 -1.1423104621882801e+02 2.7885757623334676e+01 1.1736007519177853e+01 -1.6059159695473340e+01 -1.1314860058245477e+01 3.4729469730780625e+02 3.6080144206103122e+00 5.9535011293297044e+00 6.9879562611448165e-01 -1.9491608567694776e+00 2.1247385421187784e+02 -2.1468264865481672e+01 1.5781398200974948e+01 3.1251258888707469e+00 -1.2452634375075533e+01 -2.7815224508281666e-01 -1.6230130105998892e+00 -1.8494715467677825e+00 7.9823204542507087e-01 1.4088609616953582e+00 -9.4501421399768617e+00 1.8990618156107001e+02 
      </Row>
      <Row Index="5">
        -8.7379546945887173e-03 -9.4698082815268236e-01 -7.9014561912194392e-01 6.5745085914708831e-02 -5.7164003587843467e+01 9.8413651447918369e+00 1.1041476041845537e+00 -1.2402058103968765e-01 4.0621765657235964e-01 3.6056844065116778e-02 -1.3000777897316643e-02 -4.4184072869678315e-03 -4.4078355325385815e-03 -1.0700768599976495e-02 6.0248139314537497e-01 7.6648393147046981e-02 7.2029992040479396e-01 -2.9541655075009166e-01 -1.3872922642567509e-01 1.2032069306239972e+00 -6.3155300168714179e-01 -3.3972568503754752e-01 -1.2948494359887996e-01 3.1321371738782133e-02 -2.2352376055526485e-01 -5.8227176808254372e-02 -3.2239447349813100e-02 2.1608539717402753e-01 1.7754447251272829e-02 6.6462998070367929e-02 1.1083241543533712e-05 -1.7568587323828972e+00 7.9673245058571474e-01 1.4245285739984442e-01 3.3298103478409971e+01 1.8691225657031429e+00 7.1856517349693660e-01 4.1641365283954165e-02 1.1261353394051499e-01 9.6429721803603874e-02 6.2813700339642356e-02 -1.4535754217202858e-02 -1.0028466273913011e-01 -1.8887141084355200e-02 1.0488028009730570e+00 7.6810293656275383e-02 -4.2176067785792859e-01 -2.5790696521530809e-01 -2.2883175569171688e-01 3.0944463568168814e+00 -5.1192902274360854e+00 -1.5281814827337989e+00 6.0397933828002487e-02 -5.4368696697019381e-02 6.4528653770675071e-02 -1.0471928304866303e-01 -4.0681206190276015e-03 8.8221845005758054e-02 1.2612876496908081e-02 -1.2554616008951225e+00 -1.2510556735086595e-02 -3.9863713870942918e-01 1.0085478187071037e-01 6.0810434387816650e-03 -3.7695005857687818e+00 8.0871116621311145e-01 1.2369169658460200e-01 -5.4958638347936177e-02 6.9079690992930473e-02 2.6662331476763688e-02 -1.9430217899305900e-02 7.9158366851104518e-03 9.0192821978062054e-03 -5.4282929905828895e-03 3.9821534940856829e-01 -4.0330997927182413e+00 1.2680117553210817e+00 -1.4078935528944847e+01 4.0173134831136742e-01 1.6672813007141542e+01 -1.1069596860474640e+01 -8.5776504922182575e+00 -5.2298304452792568e+00 6.5554357296528103e+00 -1.8719027199355442e+00 9.1047858990003905e-01 -4.4693997199901048e-01 -3.8821052642019440e+00 -2.8310255512275673e-01 4.6677914627641783e+00 -2.6059664865851817e-02 -1.3829971239850609e+00 -1.3494508321209313e+00 5.1515148015004945e-02 -1.4532400009475367e+01 -2.7148264492147423e+00 -3.0307615679170452e-01 1.9164584204670537e-01 -3.1706020435378068e-03 2.4439439979404753e-01 -1.5536667186818878e-01 -1.0570070311184253e-02 -1.1708813782774252e-01 3.8113892055240198e-03 -2.9790231400663836e-01 -2.0615498259525692e-02 1.1848196542393916e+00 6.5365248344009919e-01 3.4394279092022549e-02 2.9120495283818935e+00 5.2251111464686044e+00 6.5716097960979569e-01 -7.1110950361228858e-02 4.0961453403100201e-02 1.9704115754075855e-02 7.4428061020952174e-02 1.4199146652101152e-02 3.5819095826255740e-02 -9.8656486452379562e-03 2.3355283795273830e-02 2.4860711178758658e-02 9.5639598772054413e-02 3.0117255474019611e-01 -6.6524951743339000e-02 9.4965459548336089e+00 1.0813056478198657e-01 -1.0546166561789960e-01 4.4687540053151877e-03 1.9615368394133270e-01 -1.1959796476895412e-01 3.1982645352529072e-06 -5.5233882690463084e-03 -8.7553027368840602e-03 2.9845201098532017e-03 1.1072468879374320e-01 1.7816560722197117e-02 -1.3203442241882708e+00 6.2726480035667365e-01 -1.0159840403426887e-01 2.3349981458297862e+01 -3.6392978690963238e+00 -1.7529420101564090e+00 1.5565356425006482e-01 1.0967950698509216e-01 2.3374198367361668e-02 -2.9652125342643616e-02 -9.0625967648004426e-03 3.7056838632613498e-02 1.4233011476647163e-02 -8.9691085773208545e-01 -3.9095774005182524e+00 -1.8332687793213722e+00 -1.4956711663305784e+01 2.2780128159077506e-01 -1.7374317882521648e+01 -3.5634230764595607e+00 -1.1318834593414843e+01 -4.9892978762579938e+00 6.6141064740635853e+00 -1.8885367702995306e+00 7.8481496245750793e-01 -4.9103228321361209e-01 -3.8333642911986683e+00 -2.6283511551792593e-01 3.7575960955937857e+00 -1.3563535752808421e-02 -1.8833997973536243e-01 1.4567089576276997e+00 1.8628658928944671e-02 -1.6033366534082405e-01 3.7234245899802425e+00 -3.9172859552242500e-01 3.4631450237548198e-02 1.0120115705207899e+00 -3.6822087575568138e-02 2.7377055329578126e-02 2.0915510000413591e-02 -3.7640298981017756e-03 7.4076491188470404e-03 1.0155858381619685e+00 6.4220049723848138e-01 
      </Row>
      <Row Index="6">
        3.1763308747595059e-03 -7.5501667942041806e-01 -4.7961492409222883e-01 3.7916071589723793e-03 3.1967533608424560e+01 1.1041476040908851e+00 1.1156638194111736e+01 -1.6916351674811783e-01 -3.6564135553652370e+00 -4.5630402521034341e-02 5.0368824732834605e-02 8.9322885358790773e-03 7.2753299712330910e-03 -5.3902493379570857e-03 3.3894173020101297e+00 -1.6319754491655089e-01 -2.5106616369665975e+00 -2.7487145453060025e-01 3.0031669471119882e-01 -9.7302059026671515e+00 7.0389196245209984e-01 1.2963431046977734e+00 -9.3624578173149287e-02 -2.6597383204861216e+00 1.0480054289482288e-01 -3.3276612660541777e-01 8.5767038319699285e-02 -2.3755565865972161e-01 2.3609223321969311e-02 -8.0331972426041265e-01 3.1404737827802037e-02 -4.9928536543353665e+00 -7.8893166603347353e-01 -6.9526550338544602e-02 9.6795121452620592e+01 4.3543449394843217e+00 4.2004456019979992e+00 8.1127385715696110e-02 3.1650101996372015e-01 -3.3072931063350236e-01 3.3802825706975709e-03 1.3457236573976164e-02 8.3127071467836200e-01 -3.3432237475414343e-02 2.3502644545459423e+00 -1.1597726199615732e-01 2.1618345524382701e+00 9.6744475425038612e-01 7.7470707093566182e-02 -7.5549229354607562e+01 -4.4305202095986935e+00 -3.6873428707392071e+00 -1.2995809269818413e-02 -5.5600317037086733e-01 2.8280692588854373e-01 -1.5261233671285745e-01 -1.0953187836440503e-03 -8.6407111733681963e-01 -1.8745567482731998e-02 -1.4935426402540974e+00 7.8133266244207120e-03 -4.0043704029943833e-01 7.6635027990124782e-02 -3.6229509465807941e-02 -3.5506234418800858e+01 -2.1909051504602761e-02 -1.7856932687499298e+00 -3.3589554474054990e-02 -1.0534169643925531e+00 2.8576623144265789e-03 -2.0700029696087932e-01 -6.5268060450134145e-04 5.2316339173195739e-03 -4.3551508662649924e-03 -1.0842982423164296e+00 -2.6616877420792528e+00 -4.1056053374685831e+01 -8.2337791102651625e+00 9.5451578466927138e+00 -2.4413349185896095e+01 -1.8767986620473476e+00 -4.1353604285367505e+00 -4.2237431247200643e+00 -2.7409056642141287e+00 -5.4116027964430380e+00 -2.7341098944443887e-01 1.8847843112269846e-01 1.3983635918850434e+01 -1.0422576729306250e+00 1.8738508476327524e+00 1.0200523659922905e-01 -6.1351292834046030e+00 -1.0797066559788324e+00 2.1247217781444339e-03 -1.9632803191163532e+01 8.0051099952720284e-01 3.7721440927369754e+00 3.4035838835073184e-01 1.9406109405251357e+00 5.0612880184813358e-02 3.4334895130834764e-02 -7.9923194309206649e-03 4.6808359471995054e-01 -1.8797125653741916e-02 1.0989244828837563e+00 -2.4105106145640612e-02 1.5128019950026244e+00 3.0427119856286677e-01 1.0108317593661639e-02 -2.0464281862315090e+00 8.2112805152261625e-01 -4.0633947954134397e-01 -4.6426081993700331e-02 -3.8006825552506562e-01 7.2707718713149683e-02 4.2316973252334855e-02 8.3229554932956300e-03 -1.3862216537927305e-01 6.5839615146435935e-03 8.4393635790599708e-01 -5.1864689496545352e-02 2.9116772555023296e-01 8.6140175613755643e-02 7.3105928064928244e-02 -1.1290493877361296e+00 -9.8525014919045084e-02 1.5078906239896517e+00 -4.6491546426169580e-02 4.8483929903800060e+00 -6.2394372002272110e-02 -5.1991832193497171e-02 1.7377746361614960e-03 2.3013809639209792e-02 -1.5926551998070798e-03 -1.7512242332132288e-01 2.3036394465574192e-02 -1.5846943340210053e+00 6.4491591759518685e-01 3.7120898364585944e-02 -1.5982807544660318e+00 -1.5788900048156531e+00 -8.0907108655372895e-01 1.5533797642173666e-01 2.7369868099253303e-01 5.0009054762565563e-02 1.1254604753430256e-01 2.3369973877426363e-02 -1.3292487950293608e-01 -4.9772551999954307e-03 -9.4889899003513900e-01 -2.8309680161092681e+00 -5.1554163219081254e+01 -9.5955491840640335e+00 9.8085735876877838e+00 2.3642340867213818e+01 1.2197140043820607e+00 -8.6338030988160295e+00 -3.8568687552361580e+00 -5.5520446768789107e+00 -5.3746922596606286e+00 -4.2527399174857233e-01 2.6852026848265920e-01 1.4161551140301604e+01 -1.0764337770169570e+00 -6.5508971034704189e-01 6.7337717498778357e-02 -7.1427059026213768e-02 6.6347065231969049e-01 -6.9074586610013977e-03 2.2744712010522181e-01 1.6120587333558718e+00 3.6244560021861716e+00 7.0545502919156150e-02 2.9412067530964068e+00 -2.3160081445641897e-02 1.2452320662443483e-01 -7.3461066529595373e-02 5.2923112636379610e-02 3.7346151262681010e-02 -4.7968935461103426e+00 -6.0419719880156142e-01 
      </Row>
      <Row Index="7">
        1.1924015134757032e-02 1.2997038277425155e-01 -7.2426600497845051e-02 1.5546802868808021e-02 -4.4992808225294425e+00 -1.2402058104039337e-01 -1.6916351674059135e-01 1.3545482615863563e-01 1.6197951508222896e-02 -1.8829068178138897e-03 4.8626460729063431e-02 9.3508579036074072e-04 1.6892804512384091e-04 -5.0217039107654845e-04 -1.0367174789565814e-01 5.7423245689932571e-03 -7.6980377306215986e-02 -4.4632451158351677e-01 -1.7465715855181654e-02 3.4396652371822456e+00 -1.1058078262386428e-01 -1.7612833212237369e-01 1.5504065126401873e-01 1.1815049754281304e-01 1.6832500338861025e-03 4.7829472316153102e-02 -1.4254372615709374e-02 6.6917143672246410e-03 2.6628602078679594e-03 5.0326802511527768e-03 -5.2840130320916251e-02 6.6303444428688074e-02 -1.4027065607800626e-01 2.5040673441932622e-02 5.5767803561898055e-01 -1.2199463422988899e-01 -2.1928593191322054e-01 1.1423765917625628e-01 1.0877232488261113e-03 9.1579497488683773e-03 1.2731501861831519e-02 6.2257069175892686e-03 -4.8735311287629868e-03 6.3013982432936272e-03 -1.7256633630276472e-01 1.2857383510235648e-01 1.2331461578520404e-01 2.7496042500265461e-01 -1.8570962685228252e-02 1.3179276212761231e+00 1.3584269140595201e-01 2.1049360661916380e-01 -1.7615462973842211e-01 1.1227126159591982e-03 2.4189689464650641e-02 2.5334090385825715e-03 -1.8116568039648454e-02 9.7490745637904622e-03 1.0562064362736949e-02 9.9601481336857978e-02 -3.0362421646231131e-03 6.9812406983005726e-02 1.2107762967880520e-02 8.6511479330795248e-04 3.3612815845154245e+00 -9.5233783896410129e-03 8.9649098226155077e-02 1.5084237340912500e-02 2.9615669768375819e-03 -5.6217927094577569e-04 1.9777137309524139e-02 -1.6064374639566767e-03 1.4247869543493226e-03 9.9053489184251992e-04 1.0322256139634944e-01 2.8590795704869276e-01 -8.2764156988926496e-01 6.4113673545972949e-01 -2.3580673104013458e-01 1.5306799674611211e+00 3.1330424786430777e-02 5.7021189368621783e-01 3.9862628263784416e-01 1.4595527659524954e-01 4.8846046232080281e-01 -1.0986217137732290e-02 7.0383218508170933e-02 1.5854143333288018e-01 6.6992598107832563e-02 -1.2183722616496162e-01 -1.5177262354564472e-02 -5.6159148698886496e-02 1.8297340934124612e-01 -7.6767062721767743e-03 1.4062175998508053e+00 2.3105234105609718e-02 -2.2368997113362005e-01 -1.1568372740799573e-01 -4.8143170218168940e-03 -1.8383449054033524e-02 4.0102098282638984e-02 5.2685367559467400e-03 -9.2237209426164479e-04 -1.0072951502370544e-03 -1.0324336086977881e-01 1.0024636156694080e-02 -1.1370212607193478e-01 -1.6833008706216290e-02 -2.5761004011470301e-03 7.0875664961001028e-01 -5.1364498822135563e-02 8.8123371628081315e-03 -1.0902481809601836e-02 -1.0336944808210680e-02 -2.1752367365789928e-02 -1.5853471291468288e-02 -2.3903271758304095e-03 -4.9217368453362310e-03 -1.1338882022008242e-03 -7.8326641895566596e-02 2.9751263691172952e-02 1.6810427477531587e-02 7.6278611079555469e-04 1.0428734948261922e-02 8.3818123850733706e-01 2.2559622926880685e-04 -1.0114110617236899e-01 2.9767204860355868e-02 -9.9718577533039365e-02 3.5916693259039262e-02 8.9028319854048080e-03 -7.1176637440119057e-04 2.0081326280232334e-03 2.8322038586086847e-04 -3.2978478401152866e-02 8.4137504943440095e-03 1.5086963791764862e-01 5.2510216438294288e-02 -2.1143170177700510e-02 1.9766262839425508e+00 1.0138478133245954e-01 5.7141245198441604e-02 -1.4487143089456231e-01 -2.3257505047268978e-02 -1.0660584870259435e-02 -1.8455291133227462e-02 -8.6609199289030825e-03 4.6606817524487421e-03 1.2800148889055988e-03 2.9687705284252464e-02 3.6522057509164502e-01 -6.3035137528374441e-01 5.2921395925878567e-01 -2.7757618276482998e-01 -1.5496560745777339e+00 -1.9926162389297530e-01 5.1611423800323664e-01 2.8683989336608290e-01 3.1764356422020812e-01 5.3466609162705370e-01 -1.5724664448198599e-02 5.0323320506319338e-02 1.6766211812275930e-01 8.2685016573360443e-02 -1.1487051569012463e-01 -5.5757416149842365e-02 1.7980599140781546e-02 9.0761690370808626e-02 3.0268917412024001e-04 -1.2506190123726606e-02 -6.5681706291571301e-02 -1.4043787161765964e-01 -6.4810128488201654e-02 -4.2485146986869698e-02 1.3144325860011420e-02 -1.5865757089607403e-02 1.3692842934382755e-02 -6.9572748284465677e-04 -1.0028253437660204e-02 3.5603320782315245e-01 -3.6395435248961144e-01 
      </Row>
      <Row Index="8">
        -4.1634609522952712e-02 1.4469217414641662e+00 2.1148336795442652e-01 -2.1758155137247626e-01 -4.0817355912015046e+01 4.0621765635289314e-01 -3.6564135549631884e+00 1.6197951497809573e-02 4.2195099070818465e+01 -4.1345314642683206e-02 1.8210836380816695e-01 7.0928006035112781e-04 -2.6239824952190455e-01 1.3263520095483719e-03 6.3108465125564539e+00 -3.5228711575378963e-02 2.0527133470564687e+00 -1.3417595680039973e+00 -3.9781382385062325e-01 1.9646791170869008e+01 -4.3939709604444444e-01 -2.6852119084176560e+00 -1.5803225143671618e-01 -2.3894147592029295e+01 -2.1211515128273511e-01 8.1743751152098421e-02 -7.3777875924644576e-02 -1.9013221388029178e-01 -2.7422944384462716e-02 2.5637842664541388e-02 -2.4143519020406773e-01 4.7561774014785856e+00 1.1675523535288708e+00 -4.0381233170887942e-01 -6.7618742991910381e+01 -3.2262745786598801e+00 -4.8636732197377590e+00 -2.0621929099886066e-01 1.2056124599656918e+01 -3.2575063117118497e-02 -3.3082667289782847e-01 -4.3150984012912237e-02 4.9354729945132708e-02 4.4224097911834306e-02 6.4036641974554041e+00 1.5035737811516978e-01 -9.8323100309584888e-01 -1.1279585277908342e+00 1.0449003624715256e-01 5.4555208253331180e+01 6.0559635604641082e-01 1.1087988233564861e+01 6.9071839394078322e-02 -1.3612868297983287e+01 3.2902521962363651e-02 4.0466680831556201e-01 4.5877974335827507e-02 -6.6333056840372329e-02 5.0687648540782768e-03 -2.0182077670464356e+00 -4.8533672174808969e-03 -3.6459495578168433e-01 1.5913586685276693e-01 -5.8366496587118855e-01 4.4687055961411659e+01 2.2652147975602421e-01 -3.5482452179849497e+00 -2.6400707063816628e-03 -1.2347605969063904e+01 9.6292519080870942e-02 -1.0251649253605166e-01 6.2516696771488123e-03 -1.7890617518876321e-02 4.5399383856554593e-03 3.0732650433630226e-01 2.3931707135239839e+00 5.2176224926908205e+01 -3.8045170007079685e+00 -1.0227877284518099e+01 3.9316793395175587e+01 -4.9474900042110628e+00 8.9692691556507089e+00 4.2953329915332024e+00 -7.7351771167525385e-01 -5.3240875180199065e+00 -1.0062636984114910e+00 -2.3875247728603263e-03 5.5399884601902309e+00 3.2277003038366303e-01 -3.8587212413185256e+01 -1.8696848691442988e-02 4.3595248317123581e-01 -6.2344008647996141e-01 4.5890914076422035e-01 -4.3894574486649276e+00 -6.3350758332804302e-01 3.0913180373583438e-01 6.0539357443726266e-02 2.3775379102198421e+01 2.6296183437885823e-01 -4.9537384823444386e-02 -1.9169192306249489e-02 -7.1110221717839317e-02 3.4626248039128511e-02 3.8951299384317251e+00 1.5860399012326162e-02 -6.7834973559163791e-02 6.1108347005288155e-01 2.8643580339939800e-02 1.8753854781262703e+01 4.7138555556481050e+00 6.1124383671665039e-01 -1.5387434563687102e-02 -1.3762890800191805e+00 -4.2480916952622801e-02 1.9865648282584969e-02 7.2118310800083699e-03 2.0479641801034877e-02 -8.7896580953871623e-03 3.4199516839976449e+00 1.2965599433348060e-02 -2.5511879751023336e-01 1.5885896419842416e-01 -1.2211980533540126e-02 -5.2174619550187167e+00 8.1785192378530192e-01 1.0021413345327172e+01 -3.5425531853087167e-03 2.8149273988391542e+01 -6.7783869375440231e-02 9.7763983577225738e-02 -7.1094194723194185e-03 1.2432222090294495e-01 -1.0550574626984086e-02 -1.5146234417170836e+00 5.2986119029012450e-02 1.4268713072677244e+00 3.1838133009022096e-01 1.0932431643959717e-01 -7.5031639236258343e+00 -4.5423644707142330e-01 5.5343315302029517e+00 -2.5214226549336596e-02 1.2318391500339203e+00 2.1256614450801750e-02 -2.6442280144028576e-02 -7.2983440666142740e-03 5.6712842883869241e-02 1.0289401448465682e-03 5.1969530963213728e-01 2.2970112420229856e+00 5.9245561811596403e+01 -5.3414584706687265e+00 -9.8206649864272695e+00 -3.8598671961868369e+01 -2.5122576951244615e+00 1.3371783229778156e+01 4.0466290566816916e+00 -6.1839372495855656e+01 -5.3899903205925348e+00 -1.0495430927010145e+00 -8.3499171859914512e-02 5.5764333826107340e+00 3.5478180827962280e-01 -3.6264169806642229e+01 8.1163650252104313e-05 -2.5103807516618698e-02 7.3604293563692469e-01 1.2508273988722732e-01 1.0288885217061816e-01 -5.9164834656017629e-01 -2.2449131592734872e+01 -2.1905243690295430e-02 5.6937539563248244e+01 -2.1278516538741687e-02 -2.7647321385498969e-02 5.9566550881099689e-02 6.3040021025880022e-02 -5.4711935422041093e-02 -1.6237909295102618e+01 -1.9342236933495801e+01 
      </Row>
      <Row Index="9">
        -3.6253621782500987e-03 3.3591150747756515e-01 -3.0965160731925190e-01 1.2636668666249006e-02 -2.5584017303817745e+00 3.6056844072357472e-02 -4.5630402493282929e-02 -1.8829068179003379e-03 -4.1345314587291848e-02 2.1658027346535214e-01 2.8287372072063957e-02 -4.0045302113848220e-03 5.7310435600798237e-02 -4.5398336227640953e-04 4.0104346234365318e-04 7.3499028912770922e-03 1.6837460045407471e-01 -7.6981740983566493e-01 -1.6262078517421952e-04 -1.2692637481939855e+00 1.4317629118872072e-01 6.2957961835668652e-02 1.4519100668202771e-02 -3.5015983676411733e-02 6.5108386690701125e-02 1.2742713355829089e-02 4.5008230150036244e-03 4.0032396738452880e-02 1.0958804502158870e-03 1.1647812306811833e-02 -1.0170471750482260e-02 4.8170734221437528e-02 4.0210343838505003e-01 -1.2681969378375894e-02 2.9661612380129121e+00 -4.7152632062344380e-02 2.2732984678970780e-02 -4.0625506814981061e-03 -1.5055356987224144e-01 -6.7210609405435273e-02 -5.4031577320078315e-03 2.5044273266934172e-03 -4.6610216915343915e-02 1.0972518230050452e-03 -6.3793659075822573e-03 1.7963176158072140e-02 2.3068378348220153e-01 -2.0629289299090264e-01 1.7743731008547259e-02 -1.3549021237826087e+00 4.1634173434004218e-03 -2.5619970660360925e-02 6.4055603037774158e-05 1.0747120387129472e-01 1.0268469533615650e-01 1.7791055549856990e-02 -4.7779140519155789e-03 1.2091389103775357e-02 4.9453379209561821e-03 -2.6985058454642680e-01 -2.7399014741924591e-03 1.8076291794812321e-01 -1.4756273054344893e-01 -7.1916552293802075e-03 -4.3978031671613849e-01 4.9312846198272670e-02 -1.0907810018685296e-01 1.1130815774564169e-02 2.8497078584841518e-02 -5.1488693065193936e-02 -9.3423247076670421e-03 -1.2202084823514409e-03 -8.6636832073183526e-02 -7.2355189583174885e-04 4.0064816339946407e-02 -1.3255195847634746e-01 -1.9391658892594688e+00 2.5007439998333005e+00 3.9914447969938899e-01 1.9313180100653220e+00 -5.1019806046715155e-01 -2.1353239213804143e-01 -4.0746384351235609e-01 -9.6147471006322816e-02 2.0003649900380888e-01 9.9430434417411784e-02 2.0063754445379608e-02 -2.0184480429218507e-01 9.1672377690729390e-03 -8.4806669794201550e-01 -7.0891946321644736e-03 1.9470590235159135e-01 -6.8255050158155617e-01 -1.6876317821627115e-02 -1.7657255482036902e+00 -4.0198082235583216e-02 2.8652639872704246e-02 1.9507359326543529e-03 -1.5308558824924268e-01 -6.3670204025382732e-02 4.2864125783713628e-03 -5.8658055337599676e-03 -1.0960039173298544e-01 1.2805848214963557e-03 -4.6203684310848342e-02 2.6266274032113830e-03 -7.6102483427729087e-02 1.1505621150838674e-01 -3.1664674080907826e-03 1.4850957175596928e+00 7.9512058429439980e-02 -2.5719586387035032e-02 1.2184049223000516e-02 6.1391147414090241e-02 1.5506300420869814e-02 -1.1842070238996749e-02 -2.2303749482579971e-03 -1.6343612386495374e-02 -3.3177626654979199e-04 -3.1888620544056234e-01 1.1070941420551492e-03 -1.7471890222007652e-01 2.7061185902508128e-01 1.2911966544003194e-02 3.0046950316297871e+00 -3.8944195622663838e-02 2.0383546889028492e-02 -1.1320140267359854e-02 -1.5710968060224673e-01 -1.7285996717522345e-03 6.9377729195473628e-03 1.4713135279275794e-03 5.4932310243720500e-02 -2.5687294511037636e-04 1.5177284099343114e-01 -2.0270884294907830e-03 3.3204609660097917e-01 3.5587702017622708e-01 8.1826544175456206e-03 2.7723345707363478e-01 -3.6030087124984789e-02 -3.9451824396885132e-02 9.9843952845184831e-04 5.6570289277999564e-03 -3.2636502425289607e-02 -1.3956779014577564e-02 8.9294828326550704e-04 -3.6126081390019119e-02 3.4262200850933197e-04 -1.2557189758072129e-01 -1.2092930427666410e-01 -1.1692467599644960e+00 1.2823720051967928e+00 3.7964095783199248e-01 -1.8591813028408115e+00 -3.6559793276427577e-01 -1.7143803429499171e-01 -3.9992925262928936e-01 -4.3468900723374282e-02 1.6427330869874790e-01 9.0725721643867024e-02 1.9746463116638621e-02 -3.1279349634713716e-01 1.6480980092594008e-02 -9.5759139955079353e-01 -6.0544171083454995e-03 1.8924536183643439e-02 4.2482513006368439e-01 -2.7222380370340027e-03 1.1967307026129553e-02 3.4673419834220925e-02 -6.1420956963324322e-02 -1.4914160083262821e-03 -1.7647464362705856e-01 1.3848885431648045e-02 -9.2599020009267279e-03 -4.6006769040500984e-03 -3.1180297268143059e-02 -5.0283488511602432e-03 6.3176295260329740e-01 -7.6630312562565528e-01 
      </Row>
      <Row Index="10">
        -1.1805594557069678e-02 1.0772542537102225e-01 -1.6503754551735042e-01 3.6593111637167997e-02 4.4792500524981733e+00 -1.3000777892924975e-02 5.0368824744861707e-02 4.8626460729504759e-02 1.8210836382893292e-01 2.8287372071270411e-02 7.0334376729716763e-01 5.3317081574604484e-04 2.8672528629368615e-02 9.4373452712493561e-04 -1.9259033001676590e-01 -2.0708157613668100e-02 -2.7769869174718131e-01 -2.3933994183422236e-02 -7.2345975359251941e-02 1.3396537080535165e-01 3.7020861922840598e-02 -3.2052431245613877e-01 1.5791194341694786e-01 4.4228760045676080e-02 5.0776809449289043e-02 2.0515477087824047e-01 9.6689352036887777e-03 -4.6846758491903562e-03 1.2321082503732655e-03 4.3064204143293372e-02 -2.9648316226939350e-02 2.2020387273292896e-01 -5.4473237841201616e-02 3.4100171830811689e-02 1.2290983959022839e+00 -1.2663622161868832e-01 8.1965936712335841e-01 5.8587115768615063e-02 -1.6732479973085945e-01 1.2373167304706251e-02 1.9076260235172105e-02 4.4395638839058804e-03 -5.6817106246822305e-02 8.3636668133554616e-03 2.2605456995382323e-01 1.8815848035885804e-02 -5.9897182956116804e-02 2.7695360300318173e-01 -6.6186825535515345e-02 -5.5333842494359544e+00 1.1692056712931076e-01 -1.5321703320881599e+00 -1.0442823978553759e-01 3.4833509744021995e-01 4.8260746897849982e-02 2.3721108422781984e-01 -1.2531497450204803e-02 3.6394563718813777e-02 7.4737602068754190e-03 -4.5498338874396360e-01 -6.8867883417338422e-03 5.0427488949656242e-02 -1.3110382083272976e-02 -2.7915484543824393e-02 1.8720334237545089e-01 3.6609545372574659e-02 -5.0212378191500839e-01 1.2806067724491096e-02 -2.1218979403290206e-03 7.8021132193765719e-03 1.7831005492407256e-01 -2.4383244835027153e-03 -5.3913297190973680e-02 1.3185868625459601e-03 3.8952614290337095e-01 -1.8922934243682366e-01 8.4543176625128247e-01 3.4164306027430963e-01 2.1603651870174961e-02 5.3030347655777632e-02 4.1959460232470958e-01 -7.0221702379277040e-01 -4.7218924416757541e-01 5.6396435249274823e-01 -1.4191318998758318e+00 2.5141013507117482e-01 8.8146832430043370e-02 9.1771111242315162e-01 -9.4912494216699075e-02 -4.4415247463672358e-01 -2.4510614115031346e-02 -2.9237211567837651e-02 3.2225830148145063e-02 -1.4326589831029862e-01 4.4485233011790903e-01 2.2069191134164889e-02 2.2667738989963504e-01 -1.1463187574900578e-01 6.6543280777224822e-02 2.9766404585729000e-02 2.2839104488843798e-01 -2.0019292809767414e-02 -8.3440792787828302e-02 -2.0838442715776255e-03 -9.6695384092350123e-02 7.1877825368850679e-03 -1.2028664503814557e-01 2.2820810262739966e-02 7.8712660902720694e-03 -6.0015623782081473e-01 4.1284746286127272e-02 2.2167520615987102e-01 1.8676115095564924e-03 -7.4398792876966269e-02 -3.8298456568546912e-02 -8.4060599345729847e-02 2.9535501549852192e-03 3.6586149579854066e-02 -2.1662827020525301e-03 -6.1386444299056997e-01 1.4025224476189360e-02 -5.5385723677581211e-04 6.7090032779252906e-02 6.3662091543025573e-02 -9.3009850771450253e-01 5.2665473187712974e-03 1.7709395125583088e-02 3.2366440600552993e-02 2.1322955391460141e-01 1.8826150232629513e-02 5.3429372270312477e-02 3.5138522533849524e-03 -6.6674050429386643e-03 1.0292255328620556e-03 -7.5646357175865875e-02 1.2335129183315762e-02 7.1073240622905265e-02 1.0678368708714808e-01 4.3669746530291320e-02 -3.2799275468237283e+00 2.9487277049499383e-02 2.5392399227945950e-01 -8.6457964936499043e-02 -4.9009465487273474e-02 -4.6045700599474021e-02 -2.2242231759040976e-01 3.5143483280563291e-04 6.2989366387283502e-02 -1.7701805274510786e-03 1.7376979726984088e-01 -2.2391829450922351e-01 8.1471418335510415e-01 4.1287099061067334e-01 -1.9766126268047218e-01 -4.0315192376572828e-02 4.8770951274375662e-01 -1.6408173275932225e+00 -4.8059222313614891e-01 4.7668847129543490e-01 -1.2981508771413170e+00 -1.6715776614949213e-01 7.7575589253056507e-02 8.0308957248205459e-01 -8.3836784757898575e-02 1.6046138400903631e-01 -1.1284152123405210e-02 1.3753234130262117e-02 7.7150017659331480e-02 -3.1769441320379802e-02 9.6077877115388094e-02 -4.5243668974168635e-02 -1.3989552744989961e-01 -4.1367597094937786e-02 3.2116381938395289e-01 1.5093154266374420e-02 -1.7797955653478803e-01 -6.9319268422159868e-03 -2.2172008128790825e-02 -1.0194312955493466e-02 7.7667413833714172e-01 -8.5502586671824388e-01 
      </Row>
      <Row Index="11">
        -4.7829795560055130e-04 -2.5861341995156106e-02 7.9650911607675734e-03 -1.2525623085469615e-03 -1.8723982739051337e-01 -4.4184072872732391e-03 8.9322885337878005e-03 9.3508579032476114e-04 7.0928005520681792e-04 -4.0045302113178582e-03 5.3317081567731120e-04 1.5704581262640360e-03 2.0121109681817424e-03 -4.3907200257159744e-06 1.7233192253194286e-02 -1.7388242202753610e-03 1.8343951516786281e-02 -4.7337824477473180e-02 4.0064370082277360e-03 3.5831998759347006e-01 -1.8431849634133635e-02 5.5829382049035620e-03 4.5124209581500468e-03 -2.2212245166001399e-02 2.6609206187306117e-03 -4.9838033477597656e-03 5.6296217709990784e-04 -1.5913855575374128e-02 7.7351606434915266e-04 -1.5052277046665882e-02 3.1282202438502539e-04 -1.9912647651956709e-02 -2.6541250399010417e-02 6.7388813246557246e-04 1.8489104856241667e-02 -1.0873774603135350e-02 1.1523080984565358e-02 1.1413225506914041e-03 -1.3264440455343807e-02 3.4969909950924392e-03 -1.0732207486360012e-03 -4.2231062937649245e-04 -3.2316540359545644e-03 -4.6433510498917135e-04 2.1337586430030475e-02 -2.7914168346079610e-03 -7.0823575442616922e-03 1.5290664415102642e-02 -5.3207811724611696e-04 3.8139116538658691e-01 8.7775472844199426e-03 -4.4400649651215544e-03 -1.4366994796756831e-03 1.3238004904593044e-02 -8.4026264654456159e-03 4.2383345494692538e-04 7.9167992134068408e-04 8.1395877536964978e-03 -1.2025014911573265e-03 2.8977523086528567e-03 -6.2001564373262170e-04 -1.6121626420988217e-02 3.7874976102189803e-03 9.3871782494831055e-04 4.7756505727013399e-02 4.0586703315366457e-04 3.9411830791473770e-04 -2.3258757119903948e-04 1.5720703725981000e-03 -7.6902416563676829e-04 -8.5828904317152835e-04 -1.0513457078257580e-04 -1.2510199192671350e-03 5.4813220299378964e-06 -1.4695592961500414e-02 3.0869731953935511e-02 1.9063501152241424e-01 8.4096593618114182e-02 -1.3669151288556794e-02 -1.9268769414077092e-01 -1.3142082207559413e-02 -6.6415240911019361e-03 6.4598825896343443e-02 -5.3876273534686880e-02 1.6053122129046922e-02 -1.7908591258981980e-02 -3.6444886353999197e-03 -6.8791829028591756e-03 4.7913156255643139e-03 -3.6351372226311074e-02 1.3575254479205301e-03 9.6773169882545113e-03 4.8628372751302260e-02 -5.5503015409414085e-04 1.6644149773639327e-01 -3.4768916498492675e-04 8.4234010530435336e-03 -1.7247060773548826e-03 -6.8639019418371278e-03 -2.9240606078519320e-03 4.5206535451694247e-04 -5.1839818008764444e-04 7.3722575267206932e-03 -2.8333805440336848e-04 1.5921084205037170e-02 -3.8013804792551010e-04 1.9386013870568240e-02 -1.4815762544238942e-02 7.9809474758758478e-06 7.6606293995237884e-02 -4.9571348183516939e-03 -3.8110765502829130e-03 -1.0505261423902294e-04 8.6045744766649612e-04 -2.2423643890202849e-03 8.7174399950899414e-05 5.6247317723192481e-05 4.3289571195259668e-05 9.1220837710049858e-05 2.1063350845721886e-02 -1.3475557922523137e-03 1.0097641195255830e-02 -6.5505334770289414e-03 1.1134160223638626e-03 1.2644392421398576e-01 1.1956091034263094e-03 5.2485295968341950e-03 1.0475112335361410e-03 -3.4078803830492888e-03 1.6491002516066007e-03 1.1950655983914045e-04 3.2471303243337550e-04 8.1035861339776548e-04 5.8598404999314572e-05 2.2958594569580937e-03 1.2824857199813754e-03 -1.9646980761561406e-02 -3.4436379335913654e-02 -4.4185496172177707e-04 2.4450271712146332e-01 -5.5540395775888207e-03 -6.2211480612376080e-03 -1.4816445733448257e-03 -2.8526516274247626e-03 -2.1562803038333023e-04 -7.9219140536648455e-04 -6.1241853640826502e-04 -1.6274899928296910e-03 -2.0696597077831676e-04 1.0457510489437633e-03 2.8302543567118168e-02 1.8091155216332083e-01 8.3175233857873399e-02 -1.0560265040152755e-02 1.8925603125521584e-01 -3.7113640073810863e-02 -9.7737828955478927e-03 6.6548199706554026e-02 -7.1100950241892669e-02 1.7100375000603324e-02 -2.1976672040563788e-02 -4.0638121130977525e-03 -1.1660950619608784e-02 3.8286380724123440e-03 -4.3250865126656768e-02 2.0283431114535462e-03 -3.8119294845413800e-03 -2.3329768809705817e-02 -3.6278504989590080e-04 -3.2610744988088029e-03 -4.3036149727484303e-04 6.0703755335335292e-03 -9.7134172571833170e-04 -7.7273887991347982e-03 1.2541179720608414e-03 5.8570789171078896e-04 -3.2703731160949956e-04 6.0187323914737004e-05 1.3435777047961007e-03 -6.9422998167306266e-02 9.2560774040797961e-02 
      </Row>
      <Row Index="12">
        7.0915443348580146e-03 -6.9207821533211700e-01 1.6253026390722880e-01 -2.9786468292692190e-02 -3.8941463426453993e-03 -4.4078354770104022e-03 7.2753300152935685e-03 1.6892805769001124e-04 -2.6239825005982409e-01 5.7310435619626787e-02 2.8672528657050736e-02 2.0121109661515018e-03 1.5657007711282280e+00 -2.3052475322811765e-03 -2.9583608408416513e+00 -2.5852521343812673e-02 1.9810348906710296e-01 2.4413346667213287e-01 1.1205912080632374e-02 1.0089789990399019e+01 -3.6286070953822636e-02 -4.2355678064352431e-01 -9.6646625309580181e-03 1.4570328852195191e-01 -1.9182742657227103e-01 -3.7439616862567748e-02 6.9523900540568112e-03 5.3587691725638475e-01 -7.6006451419991863e-03 8.2617097939251272e-01 -7.3517734056573157e-03 -8.5794308886117121e-01 -4.4005206420046239e-02 4.5355454650594096e-03 4.8669956858055485e-01 -6.3103852404938099e-02 3.1196665537689938e-01 1.0234967390693604e-02 -6.3156512512168894e-01 1.4557207758606650e-01 -3.0330689956698798e-03 4.4224704203724057e-03 -9.1734042343379352e-01 -3.8491616941119028e-04 -4.2160644413429154e+00 -2.4624640808356031e-02 -2.2688048566030350e-01 -3.8996318271260488e-03 -1.7624756224230848e-02 9.3298633958226276e+00 1.6151038864875478e-01 -3.5037727266730029e-01 -3.5415475339277379e-03 6.3553777797309485e-01 -2.4304749738983403e-01 3.0308462401273800e-03 -3.6641939695572275e-03 1.4114666971781233e+00 -2.3119096951480705e-02 3.4030261247805544e+00 -3.2030661697780502e-02 8.5444157322448144e-02 6.2571431946149447e-02 2.2958241983006278e-02 1.3635679231133153e+00 -4.2848452848644691e-02 -1.4461533084538949e-01 1.0492749931593524e-02 8.9361468153015267e-02 -2.7780941987770641e-01 -1.2771666333984383e-02 6.2709681588504675e-03 -4.9603039818611927e-01 -3.6885246089312789e-04 2.1127777681721414e+00 -4.5289511519895798e-02 4.0019759837679629e+00 -6.9491636196274187e-01 8.1343686890774736e-01 -2.0344756598394582e+00 1.0634532849121836e+00 -3.4368492399915516e+00 5.6054987007182233e-01 1.3241063844668690e+00 -2.6176284769047538e+00 -3.9352161848380690e-01 -1.1990766995863024e-01 3.5926946779792504e+00 -1.3518274886325882e-01 -4.5817261281123969e+00 9.5505040667425399e-03 -3.0072508430795653e-01 4.5860576512418422e-01 -2.7348419534238264e-02 -6.3650663441740676e+00 1.2420749240083628e-02 1.5084211935362218e-01 3.6354760187631979e-03 -5.2557602341877996e-01 -1.7575987603299034e-01 1.5233154730110082e-02 2.2248412683447444e-03 -8.1680946164630486e-01 4.8301897216838042e-03 -2.9341449538562072e+00 8.4275054862177276e-04 7.9291392282421519e-02 -1.0984974510139245e-01 -9.3255671951348075e-03 1.4004607796790793e+00 3.9891890306905431e-02 -2.7436781429503121e-02 -9.7128409623368911e-03 1.2910840993967998e-01 -1.1856555017478440e-01 2.3279587823818622e-03 -3.9490495020593520e-03 3.6460005246769356e-01 -3.9993407528647988e-03 -3.2588238600041679e+00 -1.0890427737560257e-02 7.4684165544159020e-02 -1.0118606354707761e-01 -1.6062959904051790e-02 3.9486055931741681e+00 -2.3537950223306847e-04 9.3128394858703029e-02 8.6549683530602866e-03 -5.9574556004804435e-01 2.0697692453317831e-01 2.0181268407393526e-03 1.7570691016543941e-03 -4.8150657489311993e-02 2.1222673488912438e-03 -1.5002415241387013e-02 1.2647404255589259e-02 -5.8372112131497511e-01 -3.1111224146257166e-01 -2.0964213986076174e-02 5.9259400329319760e+00 1.0624586416662396e-01 -2.3053025113262282e-01 -3.1444876465072744e-03 1.1764484950163023e-02 -1.7180708181535920e-01 -9.2268465857816839e-03 -2.3002150259185490e-03 1.4001484474675299e-01 -5.4669153107763466e-03 1.6941298570914753e-02 -7.1820383667261928e-02 2.4480410729104580e+00 4.8656106105928743e-03 7.9444698832077199e-01 1.9896278530753229e+00 1.1339697670118607e+00 -3.6201420773455837e+00 5.5244722732080020e-01 1.8965826419656784e+00 -2.6140011943338624e+00 -4.2876454258613228e-01 -1.1986075589951278e-01 2.6461791105101344e+00 -1.5645678589933218e-01 -2.1096396125579506e+00 2.2806912907403762e-02 -8.5052805485636471e-02 -2.9380790629689507e-01 1.8917284380797761e-03 -5.5563152745177119e-02 -3.3453940457316061e-02 2.6235709861574319e-01 -1.4212404208001350e-03 -7.8284190521462238e-01 1.2806063626914943e-01 -2.8399511440503344e-03 -5.4122941915085154e-03 -3.0827075721089203e-01 1.7472424965052320e-02 1.1043638233486318e+01 -1.0079600230328328e+01 
      </Row>
      <Row Index="13">
        -2.3488514687454421e-04 -4.8361040430843660e-02 -1.0898472541726711e-02 -1.0539166646032251e-03 -2.7466439385320029e-01 -1.0700768599875739e-02 -5.3902493369219024e-03 -5.0217039101618528e-04 1.3263520145532781e-03 -4.5398336219143465e-04 9.4373452730447081e-04 -4.3907200404510815e-06 -2.3052475313518703e-03 2.1267609107908569e-03 -9.2655057382232120e-04 -2.3906404244638502e-03 -2.2798824409689833e-02 -1.0413254290932289e-03 1.6968713104603458e-03 -1.1349277059569873e-01 2.5014548405831102e-03 2.0548827739411687e-02 -2.2216629747653927e-04 -3.5909934379061495e-03 4.5126386630198962e-03 3.1507858700750026e-03 5.2182817323970059e-04 -6.3794368222169981e-03 2.3099576862000621e-03 4.7774468534447917e-03 1.4332782207834458e-05 2.3434346660922430e-02 -9.5289713806369532e-03 2.0403095574834280e-03 9.0618361211779908e-02 -6.9606727022023633e-03 -1.0905625974010617e-02 -3.4438711817735366e-03 9.7486890048192887e-04 1.3804313840272541e-03 -6.9083862180290348e-04 -5.9377775999182130e-04 -3.6478618744984733e-03 -3.0546136998446422e-03 -6.1834938575237031e-03 1.0879166388230463e-03 6.7333126075547173e-02 -2.3468104976932969e-02 1.0820866095979948e-03 4.4848164852696915e-01 1.7555541260615593e-02 -1.0530224378675485e-03 -1.6119496836972183e-03 4.9920817463336084e-04 3.3145396706582633e-03 5.6171625895322179e-04 -4.5759179047890719e-04 -1.5170791369089628e-02 -3.1563867875327679e-03 -3.9484460436338686e-03 1.7597240223674653e-05 -1.3670295689443723e-02 -3.2943658138043230e-03 4.4529814072294177e-04 1.2588336520163423e-01 -3.0828891212326959e-03 -5.5090782254627740e-04 1.0861101218175191e-04 1.9771794774589568e-03 1.2624348433786655e-03 -1.5555000948205139e-04 -2.6543085655257744e-04 2.6102836170586148e-03 -5.9480233253028625e-04 2.5902487812536346e-03 -2.9930350334877797e-02 6.9034745847193824e-02 1.9431085194996506e-02 -2.6934555260626327e-03 8.5801682624209619e-02 4.3294205142426739e-02 2.9929533971296482e-03 -4.3351854846124707e-02 1.5015677864679750e-02 4.4461090219385085e-03 2.1595106074223939e-02 -1.6659903025307505e-03 -1.3176336000025060e-01 1.7725590408587039e-03 5.1052279932132461e-02 1.3895000734804469e-03 3.2117530980039340e-02 -2.5769114542672375e-02 -1.0332584675783476e-03 -2.3934398912386001e-01 6.0662014885786153e-03 5.0846589448762941e-04 -3.9459399133758894e-04 -2.9140568165165193e-03 1.9468277654537229e-03 -1.1810966866080200e-04 -4.1464282117194425e-04 3.9516490390073588e-04 -1.6617889280546409e-03 -1.2437169537052872e-03 -5.2354888362447696e-04 2.2331476842583988e-02 9.6320177249219208e-03 6.6944716904371489e-04 1.4123650177297720e-01 -9.2965819350147548e-03 1.9490764278542391e-03 -4.1271500915992707e-04 -1.6133153954720481e-03 7.1786936678065565e-04 5.7539242008896978e-05 1.6918585589673180e-04 -2.0001046754508645e-03 6.0447008091397752e-04 -3.5706484502280502e-04 -1.3406402866465925e-03 -1.4938996808572247e-03 6.4036951095853348e-03 1.6603989926536888e-03 1.6325562160850765e-02 1.8910329245471307e-03 -1.7954879933192724e-03 -5.6499273414676839e-04 -4.8806486840584640e-03 -2.0024413561206822e-03 3.1574775808416826e-04 3.1207955673608474e-05 1.7994871954906018e-03 3.1371085140272911e-04 -3.9440335146734284e-03 6.0008473107109935e-04 -2.6666445256022492e-02 1.3660299864789671e-02 1.1721061781545528e-03 2.1217064724699242e-01 1.1038271822699286e-02 -3.7150627310397477e-03 -6.0712020541676590e-04 -5.4002726304958060e-05 2.3285688824310480e-03 -6.9460978024983989e-04 -1.0128079591830802e-04 -6.6647211583224699e-03 -1.5498221013206669e-03 -2.3705393599803282e-03 -3.0315629629863824e-02 1.0419517759837302e-01 -3.4969609226453091e-02 9.4451270798660836e-04 -7.9669484788576772e-02 3.8285388183658176e-02 1.2419169421070082e-02 -4.7508109710371171e-02 1.3790953932284349e-02 1.0443547089065863e-02 2.2707726400036429e-02 -2.0670952194721893e-03 -1.4829030221659370e-01 -3.6026345783921137e-03 4.8519056270867555e-02 9.7512599833654893e-04 -6.4366688922681495e-03 2.0402032018277554e-02 -3.1073386993035919e-04 -4.8270560010457301e-03 -6.2393095349739611e-03 1.5552033639097251e-03 2.6586929301778642e-06 -6.4659665675058063e-03 -7.3038112782761893e-04 -2.4332006047041513e-04 -3.1532819257913832e-04 1.6438477503101755e-03 6.3263195512030072e-03 1.1262340962463861e-03 -2.6688272583480499e-02 
      </Row>
      <Row Index="14">
        1.5712327913527849e-02 1.6900003927738908e+01 -1.5597829291546077e+00 -9.4285761803392515e-02 -1.5479178205307107e+01 6.0248139234130149e-01 3.3894173007839914e+00 -1.0367174806432118e-01 6.3108465177984412e+00 4.0104324079948128e-04 -1.9259033036972592e-01 1.7233192277242172e-02 -2.9583608399653469e+00 -9.2655055727879770e-04 7.1978758417979975e+01 -6.6803107699250505e-02 -5.7831089696252782e+00 1.6207474952272762e+00 1.0129526346851048e-01 3.1203648390868185e+01 6.0770028429705669e-01 1.8311637873841671e+00 -3.4120710150574052e-02 -1.7820685973867294e+00 4.4046507166592053e-01 -1.4637277578917091e-01 -3.8020515940473398e-03 -1.7858310801069219e+00 -6.9203034410920475e-03 -3.0882774058255883e+01 -2.5739422078147778e-02 1.4168314891449340e+01 -1.6705884723332067e+00 4.7417300790256633e-02 2.2292148378566054e+01 1.7080480414601893e+00 9.6272223843197402e-01 -6.7696560110016291e-02 1.2888502811615883e+00 -1.4259626081257842e-01 -4.9870291840722891e-03 -2.0524369404476300e-02 1.4502325692867504e+00 8.5853597662924608e-03 5.2158988140576078e+01 -8.2607043343005115e-03 2.5130665342073089e+00 5.4221340300069987e-01 -5.7254985843093742e-02 2.7098473038867155e+01 -2.8995143113328705e+00 4.4921758896798580e-01 -5.8634256177115089e-02 -2.8114576204207982e+00 2.6186248527435768e-01 -2.0175661022114577e-01 4.1640962098850626e-02 -1.9344873225606871e+00 2.3132076217257762e-02 -3.4547919614049185e+01 1.2243981228732957e-02 -1.8615064787084368e+00 8.9518461572893271e-01 -4.0268398736364383e-02 3.2869413910690234e+01 -6.7794115569803859e-02 2.7255170689332724e+00 -8.1796912597159710e-02 -3.9823739435291827e-01 1.4018730534264667e-01 -1.4804516014400942e-01 -1.8379050971645085e-02 5.9417482802998633e-02 2.9413970652455326e-03 -3.3453206974235123e+01 -4.1976725302938647e+00 -5.6829593098567472e+01 -8.0172293100426444e+00 -1.0303161472762147e+01 -4.9775503594489194e+00 -1.2829147923888362e+01 3.9613781792885938e+01 -9.7468046421297121e+00 -5.3463762985950147e+01 4.7405393530873745e+01 5.3311295050811971e+00 -1.2805823734353321e+00 -8.7162708721590391e+01 2.9689321236030870e+00 3.9089684695972942e+01 -1.3056231408775662e-01 1.2284738217496482e+01 -5.8286880150268505e-01 2.0194370996463124e-01 1.2640783353807933e+01 2.0622348490463116e-01 6.2631393903075894e-01 -3.3071888720318333e-02 8.8692123691754765e-01 6.6313539802023869e-01 -1.9973488946458284e-01 -5.3654221143953490e-03 1.6954215785715649e+00 -2.2647147980862009e-02 3.7455690688526850e+01 3.0686768850384440e-02 -2.6194387776965558e+00 -2.2081708830966740e-01 -1.4826227471517434e-02 5.2505998965891649e+00 2.0046189985203142e+00 -2.5507062960737064e+00 6.1489505266547312e-02 1.8501578138663390e+00 -4.6991810769460796e-02 2.2809808134198639e-02 9.8450851608494171e-03 6.7980830941905879e-02 1.1067270596586333e-02 3.8508987095796201e+01 -1.9080909766110724e-02 -1.5843170790154257e+00 4.4545397700928036e-01 -3.6219046874521155e-02 1.2713761360746512e+01 6.7071124685994077e-02 -1.6433387695483415e-01 1.0237823471899398e-02 -1.8548132061368960e+00 -4.3524101297617435e-01 -7.7886265862435883e-02 -1.0666299972342558e-02 2.8449409246928459e-01 -2.6768119855769840e-03 4.5256424639678805e+00 -5.1302697041701539e-02 8.8170052271898331e+00 7.2281823401157286e-01 5.1769906676781829e-03 1.7801498815766536e+01 -1.6695402506247774e+00 -1.2308513857121204e+00 -2.6923969016358438e-02 -4.3197103991406038e-01 4.0506224780642697e-01 2.0103516754677991e-01 2.0216733226636509e-03 -6.4976518850115972e-01 2.9821864950463350e-04 5.4284542835397076e-02 -4.4062050919356333e+00 -2.6449604980800594e+01 -9.3400756020222566e+00 -9.9417154264767387e+00 5.4870665682266999e+00 -1.0421242082709504e+01 3.9028538738899208e+01 -9.7502604971500606e+00 -5.8758278263950253e+01 4.8008490520364148e+01 5.2846360243377521e+00 -1.2499472735222690e+00 -8.4995072970446216e+01 2.9631546437282590e+00 -1.3249297833485194e+01 1.0867806983646158e-02 1.7921030345005073e+00 4.0244098327888039e-01 4.3552136541916919e-02 -5.4009091337057180e-01 1.3207103345000415e+00 6.7457735365749514e+00 1.7161648858981506e-02 4.9960574945136282e-02 -2.3028065334468351e-01 1.9278664637338472e-01 4.8202267452948418e-03 5.7209322294213649e-01 -5.5652463716260842e-02 -1.6996214742183054e+02 1.6133374895447386e+02 
      </Row>
      <Row Index="15">
        6.9605499029680509e-03 1.9582916752889479e-02 6.7441819099315792e-02 2.2521614155487188e-02 2.7273765529589156e-01 7.6648393148794611e-02 -1.6319754491851129e-01 5.7423245675684055e-03 -3.5228711635781895e-02 7.3499028902852537e-03 -2.0708157615552392e-02 -1.7388242200910514e-03 -2.5852521363819145e-02 -2.3906404244943150e-03 -6.6803107370097536e-02 2.9227218661918147e-01 3.6002837076880329e-01 -1.5598926735814200e-01 -2.6655602958487068e-01 2.1453958563911342e+00 8.6791035638654257e-02 1.8375510230827852e-01 1.9032343873777621e-01 1.9101884640575278e-01 -1.0386165693162652e-01 6.4963695614056099e-02 -3.6310049250666832e-02 1.9758307718817469e-01 1.5347950677581899e-02 2.0301163925131238e-01 -6.3872605985629327e-02 2.4216828167429649e-02 -4.2284116646633785e-02 4.8642895436701639e-02 -3.9697916611164175e-01 -1.3433550309794104e-01 -2.8105628836331720e-01 -6.3086515697922257e-02 7.0141554290655272e-02 4.0716385876170519e-02 -1.3789994059810271e-02 -1.3994550389892717e-02 -2.2111854364965971e-02 8.2461385190498900e-03 -1.8062321844460882e-01 1.3316552489405636e-02 -2.3946323825481029e-02 -8.9072966128824566e-02 6.0432928483089565e-04 -3.3545094218031353e+00 -3.8431631293337709e-02 1.7178387586430650e-02 3.5964346079440802e-02 -2.2266134710427821e-02 7.6012669743985573e-03 -1.5977243618963653e-02 2.8149920514712184e-03 -2.0795866219867926e-02 6.1891626460106632e-03 6.5421223846836130e-02 5.2824026414635197e-03 1.4198912281653792e-02 -3.7209060368162877e-02 -1.2716551163467704e-02 -1.2662377734153054e+00 1.4196729676453468e-02 1.1208168359954840e-01 1.4584448429336844e-05 2.6743808787972417e-02 1.7084272469302109e-03 -4.8219449461834180e-03 -2.3613628135667197e-03 1.4625108192779721e-02 1.3601525518815685e-03 8.5196213894507267e-03 8.0820815913746524e-01 -1.1635918215992760e+00 1.7214634066020555e+00 -2.6040121381017267e-01 -1.3310249397154266e+00 -8.1536110784328208e-01 8.3257518033376798e-01 7.6251384392758070e-01 -1.9267283282785908e-01 -1.5891956787063521e-01 2.1128245142442270e-02 1.4873591293577554e-01 6.2205193188547114e-01 4.9439889241421488e-02 -5.4481721445405640e-01 -5.0975183262933446e-02 -6.4079698700147070e-02 5.7786016891118397e-02 2.5874371967350630e-02 6.2550280439960204e-01 -3.7809774073743196e-02 -2.0246849976003234e-01 -2.5539374173547812e-02 -3.4106744737655320e-02 -1.8265002855830645e-02 -1.6022694961036921e-02 2.9700936926158255e-02 -3.8692452571542968e-02 3.2915296408668228e-03 -7.6214320459233820e-02 8.9303150783567077e-03 2.2922748415730634e-02 -4.8775109985749854e-02 -3.3044106183729716e-03 3.0324961265810524e-01 6.1727633270015403e-02 -1.3430078615035479e-02 8.4710455414910429e-03 -5.3917240193221971e-03 -1.5330565475423857e-02 3.5754130062577438e-03 -4.5294691714427866e-03 -2.6555516326289275e-03 -2.7101323118354013e-03 7.2623222557690603e-03 8.2577622590530309e-03 -1.6455072348232846e-02 -3.0959879098668763e-02 7.6668169299852484e-03 -9.7662105599704585e-01 -1.9385446850647900e-03 -1.5828189169019274e-01 1.1987790321866761e-02 -1.1252632540178498e-01 2.6226812730181015e-02 -5.4575929139968997e-03 2.3084639081471614e-03 6.6981204629068952e-03 -2.9002282810759472e-03 -4.0905514204778726e-02 -1.0863448486051835e-02 1.0600410388321513e-01 -1.1943679885840947e-01 -2.2406878709544165e-02 1.7182147136028618e+00 -9.1819960598553574e-02 7.1467889008735908e-02 -8.1051472479054879e-03 -1.0094171842344979e-01 -1.5298531104721458e-02 3.2556887261648154e-03 -1.1530533147688031e-02 6.5575034384540570e-03 5.5712946467059536e-03 3.0392615363779740e-02 9.8560181944581948e-01 -8.6134431890280627e-01 1.6029474469032614e+00 -4.4192996382061711e-01 1.3183894532681029e+00 -7.5142486427020494e-01 9.2837571187355516e-01 8.9927664679712882e-01 9.6479230840096797e-02 -2.0328671672849152e-01 7.3517366704993758e-02 1.2988358908200903e-01 7.4828028311773154e-01 7.6851543076592421e-02 -5.2265996201898091e-01 -1.0547537735025168e-02 2.3003389961870242e-03 -4.9994346766742200e-02 1.4989176261614272e-03 -1.2927338901066936e-02 2.2751747692727097e-02 4.0396564146596259e-02 -5.0287883922818521e-04 -1.5632962437539874e-01 8.0013408928743188e-03 -3.6753031854082525e-04 4.2274994338588251e-02 4.7716713270695571e-03 -1.8785938596056366e-02 1.8590399998252355e-01 -1.8514225839232720e-02 
      </Row>
      <Row Index="16">
        9.9435715058557583e-03 -1.5440467078286702e+01 8.5506032956300260e-01 4.6036880026037008e-02 2.4385149332696528e+01 7.2029992054856340e-01 -2.5106616366889618e+00 -7.6980377311761744e-02 2.0527133460918510e+00 1.6837460045005059e-01 -2.7769869176298878e-01 1.8343951517640771e-02 1.9810348863524885e-01 -2.2798824410871867e-02 -5.7831089635643522e+00 3.6002837078733452e-01 8.5341569117847428e+01 -2.3562384865977819e+00 -5.5061332404427543e-01 1.2675299538826545e+02 -9.8560926397385273e-01 4.8543229046986589e+00 6.3993511351212895e-02 -3.6890224046258622e+00 -8.0443003901016408e-01 1.8683906977128578e-01 -1.6218302108717642e-01 1.7212703101234934e+00 1.0102678525338152e-01 5.7467489905793556e-01 -7.5061575006998810e-02 -5.6062552686099437e+01 6.9722754016045130e-01 1.6437043373530796e-01 -1.6807031957208085e+02 1.0606310558242686e+00 -3.5469154754398935e+00 -1.6919444112894899e-01 1.4329320788721418e+00 3.3374595727346967e-01 -9.6634706722433350e-02 6.5296469926622303e-03 -6.4934228829184093e-01 -2.5364204664661938e-02 -4.1509600181790702e+00 6.5198900664045226e-02 1.2413392088810875e+00 2.7360361438866576e+00 2.3919060414538840e-02 -7.1466816637191329e+01 1.0599426566405512e-01 2.3466999040589296e+00 1.2849963545421228e-02 2.9839841079312635e-01 1.1185799573214050e-01 -9.7909028687389682e-02 2.0268890392046740e-02 -1.1672293303851300e-01 6.0613590460993072e-02 3.4329990548937168e+00 1.4312824723979795e-02 -5.8376742122252878e+00 1.0180389068573366e+00 1.7800121441920558e-02 -1.9926158057870782e+02 1.1384565050710549e-01 -4.1733342292993925e-01 -4.6688618328414505e-02 2.9966776980157306e-01 1.9095579568651344e-01 -6.7174193380698549e-02 2.5158244477396671e-02 9.3264413654761125e-03 -1.5650998684105504e-02 3.8043313189430670e+00 3.2096667571453081e+00 4.7220313893190493e+01 2.2964532874043320e-01 -2.0377064286240651e+00 -6.5071728074503369e+01 -2.1690149184180605e+00 7.0674952243285922e+00 5.8870565763197868e+00 -3.1075026997171999e+00 -1.3827332935054737e-01 -2.5289247200620175e+00 -9.9853178081589097e-02 1.2774731321948853e+01 5.3962776935494761e-01 -1.7394871146305846e+01 -5.0761773125338291e-02 8.6475025100342080e+00 -5.7492652840970262e+00 8.8312274079238695e-02 1.0414755134485063e+01 -3.6585355458040070e-01 -5.9543394272750827e-01 1.6615185282104555e-01 7.3289039541805323e-02 -1.4054501749894266e-01 -2.1093149616966800e-01 6.5188368918341205e-02 3.5803368446015227e-02 1.9795756146087539e-02 -3.1938336731588137e+00 -6.2440744647750124e-04 1.0092227224666781e+01 2.5409020330570797e-02 7.1622107430224791e-05 1.3093418527271979e+01 3.9724317278787780e-01 8.6050225642644840e-01 5.8214165809323232e-02 -5.1165614032095874e-01 5.3809484595112034e-02 3.5751875272503120e-02 -4.3723669698656598e-02 -1.4632248676292647e-02 1.1767519022177417e-03 -2.3298969178829338e+00 2.4333072611762555e-02 -7.8978473749867462e-01 5.3385643688480133e-01 1.3246207674700372e-01 -3.1189982162899341e+01 4.2250125123672078e-01 -2.2705214202877144e-01 -4.5490458100346493e-02 1.8885744769704615e-01 -3.6922196818957767e-02 -3.3107678739858121e-02 1.4270699373083468e-02 -1.0168085034436358e-01 1.7878312735815395e-03 -1.7181989061705281e+00 3.0777092341851168e-02 -2.5019466358527353e+01 9.5729680676944007e+00 -1.1527610114401909e-01 -1.2076720671374642e+02 -5.3381447140395721e-02 1.9964128917200785e-01 -1.4698060970033566e-02 2.2467077191731732e-01 5.5939663299270137e-02 1.2623287415060236e-01 3.3025954212597401e-02 5.1486640990704657e-02 1.0221587844824853e-02 -1.1039941052634390e+00 3.4913619382566550e+00 7.0142395345914792e+01 -6.8181554795536279e+00 -2.3859705393614554e+00 6.5359170094515193e+01 -1.2037047822228912e+00 1.2504005982754082e+01 6.0352591910249878e+00 -6.8877879576747869e+00 -9.1212043412993538e-01 -2.2752000493347913e+00 -1.9751799314608021e-01 1.3416780257505042e+01 7.0893654555976882e-01 -1.3326174970183105e+01 -2.0310823526812016e-02 -3.0164407962432804e+00 3.3353493519229129e+00 -3.7482514576221204e-02 2.8546506265732274e+00 -3.0599655258876979e-02 -1.4153000351114393e+00 3.5512290205342793e-02 3.0708870699399204e-01 -3.1518778085159391e-02 4.8792426010803081e-02 1.1693220118143907e-01 -1.6821364002070516e-02 -2.8559385157667233e-02 1.1672759489835087e+01 -8.1328177429170196e+00 
      </Row>
      <Row Index="17">
        1.1171684983927732e-01 4.5327402726654782e+00 3.7587575345803543e+00 9.4456276175672982e-02 -1.4640165910744690e+02 -2.9541655128820421e-01 -2.7487145658875534e-01 -4.4632451150981006e-01 -1.3417595704382537e+00 -7.6981740977805657e-01 -2.3933994157947835e-02 -4.7337824478183382e-02 2.4413346761501614e-01 -1.0413254253712756e-03 1.6207474810735221e+00 -1.5598926736112442e-01 -2.3562384858148988e+00 1.2058413207634538e+02 3.1873055781960558e-01 2.8148024944835822e+02 -5.7510820378929015e+00 2.1439391126546057e+00 7.9577550238489958e-01 1.0222083922673608e-01 1.0604569457430677e+00 -1.6712458495619209e-01 1.2180829111430569e-01 -3.0480379350208731e-01 -2.3697014314385950e-02 -9.6063458594870355e-01 -5.2491157443088257e-02 6.4192390542636986e+00 -2.3599639902873179e+01 9.7232049159539091e-03 -4.9065075903428777e+01 3.8564761635156000e+00 -1.4621381309161876e+00 -3.2315756002887075e-01 1.5599006542522176e+00 -4.8452562763666884e-02 1.0780953834847967e-01 5.3966127415922695e-02 -2.1937663953775177e-01 4.5249904260624696e-03 -2.6027287231119445e-01 1.4694676413165031e-01 4.6945417025855321e+00 4.1665246467267689e+00 -6.4606936074694810e-02 2.7495414580416082e+02 4.6802899816597421e-01 -9.2236851598791247e-01 2.7686374904778793e-02 -1.0052393058101430e+00 -2.9075325161063770e-01 -1.6150406080496799e-01 -3.0640670888485814e-02 5.1975207622815889e-01 4.2026488361267475e-03 -1.4285739250068872e+00 -9.1106625677475933e-02 2.9286279787347151e+00 4.9779019969643343e+00 1.5812031398299770e-01 5.6337841523966438e+02 -6.0718529702666513e-01 5.5338902026874148e-01 -5.4128848258755996e-02 -3.7117657884493838e-01 -1.9385597590521364e-01 1.2095424000182231e-01 -2.7176475302934100e-04 7.4756245679968580e-02 1.7946741106602652e-03 -5.7751710446422067e-01 6.3392385896236370e-01 1.9108335965047857e+01 5.5393652450305794e+01 3.4702126880893975e+00 1.4398364295117932e+02 8.7018582516925811e+00 1.3004053146956365e+00 -7.5800412587489918e-01 4.2323326374287262e-03 -3.5830914017769961e+00 1.0510698525625881e+00 2.4219779088387289e-01 2.6017304105530163e+00 -4.7131260760571281e-02 8.1150655720406082e+00 -7.6782741689334050e-02 -8.8475178217994284e+00 2.6290232288514048e+01 -9.3955666711025509e-02 1.6755557085424039e+02 1.2228280281757282e+00 -5.7791647642653921e-01 1.8966828717027617e-01 6.9694218747112746e-01 1.3925043233626988e-01 1.1032811342694138e-01 -1.7671439932847499e-01 2.7294091508635987e-02 9.3229711657360631e-03 7.5873600377099937e-01 6.8990865511389721e-02 -2.7421317952210260e+00 -7.4619271778727363e+00 -5.1565080910521810e-02 -1.0496640760355513e+02 -5.7789252310077117e+00 2.6444760577726534e-01 -5.8253158944545913e-03 -1.2174700563269880e-01 1.1298240425241424e-01 -1.4254479808932352e-02 5.2362225561433037e-02 2.2974169942528988e-02 -1.1163414234750119e-03 -1.7162880052273977e-01 1.7366930117717880e-01 1.6222039857450170e+00 -2.9216942057144726e+00 -3.1495338392574013e-02 7.5492303936485271e+01 -5.2808574541405306e-03 -7.2704489510532522e-01 -1.0438189787775842e-01 -2.8917006671599665e-01 4.8095920748429499e-01 -4.4885177029961004e-02 -4.5846351216916006e-02 -7.5879601313226797e-02 -1.4903739912563264e-02 8.3264156386736232e-01 -8.7457829140370105e-02 1.8808616318250216e+01 -1.9804803805870502e+01 5.9741311432389921e-02 -1.4197135952039389e+01 1.8077328816137310e+00 2.2682900317386201e-01 4.1529630152814434e-01 -4.1754482175110752e-01 3.4751619269741241e-01 -2.9808617101780510e-02 1.1520748375570551e-01 -1.8160680434918852e-01 -1.0473060478588536e-03 -1.1193670917720073e+00 6.7879605957644706e-01 2.8528209889792024e+01 1.6347084425086422e+02 3.3568920394208108e+00 -1.3646681600168705e+02 1.4782076688623569e+00 2.3435473411473438e+00 1.5909946711934631e-01 2.2011058346670751e+00 -1.8479937385901728e+00 8.6464040087375349e-01 2.9016958757968592e-01 2.3700988157816298e+00 -5.5362474915229651e-02 5.6116656107369494e+00 -1.4223302215893016e-01 1.3217815627706839e+00 -3.4694277955874696e+01 -2.9678578427664359e-02 -3.7630608468368631e+00 -8.7583079812512921e-01 1.7843665416278931e+00 1.2977331833547670e-01 1.4393542209916177e-03 1.6704744155593199e-02 -3.1265936183747067e-02 -2.7936623199764626e-01 -2.6909881753274384e-03 -2.7355828612272926e-02 -2.1741089168741681e+00 2.9080129991252949e+01 
      </Row>
      <Row Index="18">
        1.7301587700503246e-03 -1.8017699089955563e-01 -6.2392427063283407e-02 1.7059683398210797e-02 -1.2611503420729548e+01 -1.3872922643472291e-01 3.0031669471506917e-01 -1.7465715855168991e-02 -3.9781382345571226e-01 -1.6262078731710261e-04 -7.2345975355792014e-02 4.0064370081949012e-03 1.1205912055997080e-02 1.6968713103875030e-03 1.0129526373268138e-01 -2.6655602958643515e-01 -5.5061332408553665e-01 3.1873055793846994e-01 1.6499324420696810e+00 -2.4460306951208750e+00 1.3208046627993453e-01 4.3536566217970130e-01 -1.9179756851813110e-01 -1.9431844349600054e+00 -2.3146441843537424e-02 1.2910633835951935e-01 7.3971335262750904e-02 -1.7855981624825312e-01 -2.9782248147511195e-02 -5.6074836032924469e-01 8.3224413937608030e-02 -2.9328579553155404e-01 2.1044962195372818e-01 -2.8139866558902682e-01 6.2148235730144421e+00 2.1102102191558630e-01 8.3108892990414063e-01 5.2934997305683629e-02 3.0133305747793271e-01 5.6578998154976426e-03 -5.5660451517116044e-02 2.2133959553448546e-02 -2.7237595946994347e-03 6.4837662945345202e-05 5.5065773120142403e-01 -6.7749584791865436e-02 5.7056000044742594e-03 -1.4745460133763189e-01 -4.2869337151957509e-02 7.7534108954481553e+00 -8.8369373509163296e-02 -1.0398135817694307e+00 8.6250415261027689e-03 4.5359788892003050e-01 5.8266003975683267e-03 -7.7478464985149473e-03 3.4627430351072269e-03 4.1214205960108941e-02 -1.0305923192352075e-02 -3.3063182597095730e-01 -9.1255829695595890e-03 -1.3772561646168929e-01 2.9676640044772690e-02 6.9592205462568391e-02 4.4410731373198002e+00 -1.6284732457930384e-02 -6.3722672503432221e-02 -6.1192253067091223e-03 3.1402883876455379e-01 5.6241094562178295e-03 -1.4801091797139482e-02 5.9369231648087597e-03 5.4085846933211723e-03 -1.8412243542163666e-03 1.2149211847070518e-01 -1.4669261262386413e-01 3.1208233424632326e-01 -3.9187721489029856e+00 2.7077238332327931e+00 4.6536584440915192e+00 -5.2413452073163924e-01 -1.4311495993382941e+00 -1.9222854647914571e+00 2.5421116045850831e+00 -3.4492724514291226e+00 1.9806002138820635e+00 5.3676737928584339e-01 -1.1338906664888178e+00 -4.3533104711061144e-01 2.5777174719480058e+00 3.2426103856590380e-02 3.0056453770908043e-01 -4.2762053185855864e-01 -7.7723588745874594e-02 -2.0102747753122046e+00 4.8847034138786771e-02 3.2415970468662408e-01 1.7494346860821852e-04 -3.8395901701608570e-01 3.0516770554949058e-02 -5.1795537772368894e-02 -6.6820641110369255e-02 -2.2471608058539372e-02 7.0988789179131859e-03 6.4432551433480922e-03 -6.9458619105242578e-03 1.4519907721081021e-01 1.5852443993111343e-01 4.9175682025304202e-04 2.0131740795568476e+00 2.2616669682253843e-02 -1.4164591140098715e-02 -2.7524570258314895e-03 -2.3190369736717287e-02 3.8047083244074076e-02 1.6956400193859966e-02 1.1061935428647135e-02 1.0298497981078292e-03 6.3596159263317256e-04 4.0199243442586408e-02 8.2387577920203445e-04 9.5474745896215296e-02 3.7605982005316084e-02 6.8257808548987109e-02 3.3494450902384401e+00 -3.0403754405749051e-02 -3.8136100436128761e-01 4.3248724800991484e-03 -3.3388450829027505e-01 -5.6756804674038319e-02 3.4602882622248213e-02 1.0200429683289720e-02 2.4245297057656105e-02 -7.8799968153475362e-03 -1.4669352988206796e-01 4.6475549377678182e-03 -3.8039618173523415e-01 2.6475572687450111e-01 3.2722291293191930e-02 4.9645157003392342e+00 1.0237112617416599e-01 -3.9145721635812203e-01 4.1676174411684919e-02 -1.0470448080290140e-01 5.4540921910120055e-02 5.9179760288280661e-02 2.8144411105733402e-02 -2.9894461742269063e-02 -8.5448127046208189e-03 -9.5381782533685011e-02 -3.3384110450649468e-01 -2.8855297955976605e-01 -3.9940245442722606e+00 3.7074936853478473e+00 -4.5686531055508830e+00 -4.1681945695062955e-01 -1.6400544138606032e+00 -2.0200663741922997e+00 1.9565405919595946e+00 -3.4965364748256054e+00 2.1113898811137224e+00 5.6793182463819680e-01 -1.2688792232404822e+00 -4.6709901005919213e-01 2.1552153813846360e+00 2.5165451957631521e-02 -4.8023857453595775e-02 2.5168520238625819e-01 -1.6303519131716460e-02 -1.4611755219084799e-01 -9.6288774290802515e-03 9.2071149679637065e-01 1.9286168775600861e-02 -1.0063811917533694e+00 -2.0831882948246103e-02 3.4210422221746695e-02 -8.6888515126878146e-02 -3.8254747348434592e-04 1.8195870538847168e-02 -3.1479273480131492e-02 -2.3342994205096090e-01 
      </Row>
      <Row Index="19">
