<?xml version="1.0"?>
<MethodSetup Method="MLP::MLP">
  <GeneralInfo>
    <Info name="TMVA Release" value="4.2.1 [262657]"/>
    <Info name="ROOT Release" value="6.26/02 [399874]"/>
    <Info name="Creator" value="s1412595"/>
    <Info name="Date" value="Sun May  1 18:00:25 2022"/>
    <Info name="Host" value="Linux root-ubuntu-2004-1 5.4.0-73-generic #82-Ubuntu SMP Wed Apr 14 17:39:42 UTC 2021 x86_64 x86_64 x86_64 GNU/Linux"/>
    <Info name="Dir" value="/home/s1412595/Desktop/MSc/TMVA/runs/run_fs10_hp1"/>
    <Info name="Training events" value="120000"/>
    <Info name="TrainingTime" value="7.62803982e+02"/>
    <Info name="AnalysisType" value="Classification"/>
  </GeneralInfo>
  <Options>
    <Option name="NCycles" modified="Yes">600</Option>
    <Option name="HiddenLayers" modified="Yes">N+5</Option>
    <Option name="NeuronType" modified="Yes">tanh</Option>
    <Option name="RandomSeed" modified="No">1</Option>
    <Option name="EstimatorType" modified="No">CE</Option>
    <Option name="NeuronInputType" modified="No">sum</Option>
    <Option name="V" modified="Yes">False</Option>
    <Option name="VerbosityLevel" modified="No">Default</Option>
    <Option name="VarTransform" modified="Yes">N</Option>
    <Option name="H" modified="Yes">True</Option>
    <Option name="CreateMVAPdfs" modified="No">False</Option>
    <Option name="IgnoreNegWeightsInTraining" modified="No">False</Option>
    <Option name="TrainingMethod" modified="No">BP</Option>
    <Option name="LearningRate" modified="No">2.000000e-02</Option>
    <Option name="DecayRate" modified="No">1.000000e-02</Option>
    <Option name="TestRate" modified="Yes">5</Option>
    <Option name="EpochMonitoring" modified="No">False</Option>
    <Option name="Sampling" modified="No">1.000000e+00</Option>
    <Option name="SamplingEpoch" modified="No">1.000000e+00</Option>
    <Option name="SamplingImportance" modified="No">1.000000e+00</Option>
    <Option name="SamplingTraining" modified="No">True</Option>
    <Option name="SamplingTesting" modified="No">False</Option>
    <Option name="ResetStep" modified="No">50</Option>
    <Option name="Tau" modified="No">3.000000e+00</Option>
    <Option name="BPMode" modified="No">sequential</Option>
    <Option name="BatchSize" modified="No">-1</Option>
    <Option name="ConvergenceImprove" modified="No">1.000000e-30</Option>
    <Option name="ConvergenceTests" modified="No">-1</Option>
    <Option name="UseRegulator" modified="Yes">False</Option>
    <Option name="UpdateLimit" modified="No">10000</Option>
    <Option name="CalculateErrors" modified="No">False</Option>
    <Option name="WeightRange" modified="No">1.000000e+00</Option>
  </Options>
  <Variables NVar="10">
    <Variable VarIndex="0" Expression="Kbach_ProbNNk" Label="Kbach_ProbNNk" Title="Kbach_ProbNNk" Unit="" Internal="Kbach_ProbNNk" Type="F" Min="5.10000885e-01" Max="9.99803305e-01"/>
    <Variable VarIndex="1" Expression="Kbach_PT" Label="Kbach_PT" Title="Kbach_PT" Unit="" Internal="Kbach_PT" Type="F" Min="4.03433502e+02" Max="1.47210791e+04"/>
    <Variable VarIndex="2" Expression="Lc_PT" Label="Lc_PT" Title="Lc_PT" Unit="" Internal="Lc_PT" Type="F" Min="2.52761890e+03" Max="4.00415273e+04"/>
    <Variable VarIndex="3" Expression="pibach_PT" Label="pibach_PT" Title="pibach_PT" Unit="" Internal="pibach_PT" Type="F" Min="2.00006271e+02" Max="3.32139111e+03"/>
    <Variable VarIndex="4" Expression="pibach_ProbNNpi" Label="pibach_ProbNNpi" Title="pibach_ProbNNpi" Unit="" Internal="pibach_ProbNNpi" Type="F" Min="1.00149095e-01" Max="9.99639690e-01"/>
    <Variable VarIndex="5" Expression="Xicst_IPCHI2_OWNPV" Label="Xicst_IPCHI2_OWNPV" Title="Xicst_IPCHI2_OWNPV" Unit="" Internal="Xicst_IPCHI2_OWNPV" Type="F" Min="1.37118786e-05" Max="2.63996133e+04"/>
    <Variable VarIndex="6" Expression="Xicst_ENDVERTEX_CHI2" Label="Xicst_ENDVERTEX_CHI2" Title="Xicst_ENDVERTEX_CHI2" Unit="" Internal="Xicst_ENDVERTEX_CHI2" Type="F" Min="1.72308029e-03" Max="5.99373703e+01"/>
    <Variable VarIndex="7" Expression="pibach_IPCHI2_OWNPV" Label="pibach_IPCHI2_OWNPV" Title="pibach_IPCHI2_OWNPV" Unit="" Internal="pibach_IPCHI2_OWNPV" Type="F" Min="8.96283200e-06" Max="8.99967575e+00"/>
    <Variable VarIndex="8" Expression="Kbach_IPCHI2_OWNPV" Label="Kbach_IPCHI2_OWNPV" Title="Kbach_IPCHI2_OWNPV" Unit="" Internal="Kbach_IPCHI2_OWNPV" Type="F" Min="1.30371254e-05" Max="8.99991798e+00"/>
    <Variable VarIndex="9" Expression="Lc_ETA" Label="Lc_ETA" Title="Lc_ETA" Unit="" Internal="Lc_ETA" Type="F" Min="1.94540608e+00" Max="4.81356812e+00"/>
  </Variables>
  <Spectators NSpec="1">
    <Spectator SpecIndex="0" Expression="Xicst_M" Label="Xicst_M" Title="Xicst Mass" Unit="F" Internal="Xicst_M" Type="F" Min="2.92377637e+03" Max="3.90779272e+03"/>
  </Spectators>
  <Classes NClass="2">
    <Class Name="Signal" Index="0"/>
    <Class Name="Background" Index="1"/>
  </Classes>
  <Transformations NTransformations="1">
    <Transform Name="Normalize">
      <Selection>
        <Input NInputs="10">
          <Input Type="Variable" Label="Kbach_ProbNNk" Expression="Kbach_ProbNNk"/>
          <Input Type="Variable" Label="Kbach_PT" Expression="Kbach_PT"/>
          <Input Type="Variable" Label="Lc_PT" Expression="Lc_PT"/>
          <Input Type="Variable" Label="pibach_PT" Expression="pibach_PT"/>
          <Input Type="Variable" Label="pibach_ProbNNpi" Expression="pibach_ProbNNpi"/>
          <Input Type="Variable" Label="Xicst_IPCHI2_OWNPV" Expression="Xicst_IPCHI2_OWNPV"/>
          <Input Type="Variable" Label="Xicst_ENDVERTEX_CHI2" Expression="Xicst_ENDVERTEX_CHI2"/>
          <Input Type="Variable" Label="pibach_IPCHI2_OWNPV" Expression="pibach_IPCHI2_OWNPV"/>
          <Input Type="Variable" Label="Kbach_IPCHI2_OWNPV" Expression="Kbach_IPCHI2_OWNPV"/>
          <Input Type="Variable" Label="Lc_ETA" Expression="Lc_ETA"/>
        </Input>
        <Output NOutputs="10">
          <Output Type="Variable" Label="Kbach_ProbNNk" Expression="Kbach_ProbNNk"/>
          <Output Type="Variable" Label="Kbach_PT" Expression="Kbach_PT"/>
          <Output Type="Variable" Label="Lc_PT" Expression="Lc_PT"/>
          <Output Type="Variable" Label="pibach_PT" Expression="pibach_PT"/>
          <Output Type="Variable" Label="pibach_ProbNNpi" Expression="pibach_ProbNNpi"/>
          <Output Type="Variable" Label="Xicst_IPCHI2_OWNPV" Expression="Xicst_IPCHI2_OWNPV"/>
          <Output Type="Variable" Label="Xicst_ENDVERTEX_CHI2" Expression="Xicst_ENDVERTEX_CHI2"/>
          <Output Type="Variable" Label="pibach_IPCHI2_OWNPV" Expression="pibach_IPCHI2_OWNPV"/>
          <Output Type="Variable" Label="Kbach_IPCHI2_OWNPV" Expression="Kbach_IPCHI2_OWNPV"/>
          <Output Type="Variable" Label="Lc_ETA" Expression="Lc_ETA"/>
        </Output>
      </Selection>
      <Class ClassIndex="0">
        <Ranges>
          <Range Index="0" Min="5.1000088453292847e-01" Max="9.9980330467224121e-01"/>
          <Range Index="1" Min="4.0367718505859375e+02" Max="1.0992476562500000e+04"/>
          <Range Index="2" Min="2.5326340332031250e+03" Max="4.0041527343750000e+04"/>
          <Range Index="3" Min="2.0000627136230469e+02" Max="3.3213911132812500e+03"/>
          <Range Index="4" Min="1.0023375600576401e-01" Max="9.9963968992233276e-01"/>
          <Range Index="5" Min="1.3711878636968322e-05" Max="5.0999150390625000e+03"/>
          <Range Index="6" Min="1.7230802914127707e-03" Max="5.7858459472656250e+01"/>
          <Range Index="7" Min="2.5563955205143429e-05" Max="8.9967641830444336e+00"/>
          <Range Index="8" Min="2.9180013370933011e-05" Max="8.9999179840087891e+00"/>
          <Range Index="9" Min="1.9811493158340454e+00" Max="4.7694892883300781e+00"/>
        </Ranges>
      </Class>
      <Class ClassIndex="1">
        <Ranges>
          <Range Index="0" Min="5.1001447439193726e-01" Max="9.9980223178863525e-01"/>
          <Range Index="1" Min="4.0343350219726562e+02" Max="1.4721079101562500e+04"/>
          <Range Index="2" Min="2.5276188964843750e+03" Max="3.0730033203125000e+04"/>
          <Range Index="3" Min="2.0001296997070312e+02" Max="3.2623430175781250e+03"/>
          <Range Index="4" Min="1.0014909505844116e-01" Max="9.9933230876922607e-01"/>
          <Range Index="5" Min="2.6691805032896809e-05" Max="2.6399613281250000e+04"/>
          <Range Index="6" Min="4.3928395025432110e-03" Max="5.9937370300292969e+01"/>
          <Range Index="7" Min="8.9628319983603433e-06" Max="8.9996757507324219e+00"/>
          <Range Index="8" Min="1.3037125427217688e-05" Max="8.9995861053466797e+00"/>
          <Range Index="9" Min="1.9454060792922974e+00" Max="4.8135681152343750e+00"/>
        </Ranges>
      </Class>
      <Class ClassIndex="2">
        <Ranges>
          <Range Index="0" Min="5.1000088453292847e-01" Max="9.9980330467224121e-01"/>
          <Range Index="1" Min="4.0343350219726562e+02" Max="1.4721079101562500e+04"/>
          <Range Index="2" Min="2.5276188964843750e+03" Max="4.0041527343750000e+04"/>
          <Range Index="3" Min="2.0000627136230469e+02" Max="3.3213911132812500e+03"/>
          <Range Index="4" Min="1.0014909505844116e-01" Max="9.9963968992233276e-01"/>
          <Range Index="5" Min="1.3711878636968322e-05" Max="2.6399613281250000e+04"/>
          <Range Index="6" Min="1.7230802914127707e-03" Max="5.9937370300292969e+01"/>
          <Range Index="7" Min="8.9628319983603433e-06" Max="8.9996757507324219e+00"/>
          <Range Index="8" Min="1.3037125427217688e-05" Max="8.9999179840087891e+00"/>
          <Range Index="9" Min="1.9454060792922974e+00" Max="4.8135681152343750e+00"/>
        </Ranges>
      </Class>
    </Transform>
  </Transformations>
  <MVAPdfs/>
  <Weights>
    <Layout NLayers="3">
      <Layer Index="0" NNeurons="11">
        <Neuron NSynapses="15">
          -4.2934929740872718e-01 1.1994087549281411e-02 -1.5427177945318213e-01 1.4864685563117042e+00 9.4573326360315046e-01 -9.8252446895014323e-01 8.0309290205303318e-03 8.3324003790965904e+00 -7.2522264035426265e-01 7.9812933351514660e-03 -1.5095126346729520e-01 -1.0838868865469086e-03 -2.7045373212710255e-01 -7.1512161800584478e-02 -3.8776107463729687e-01 
        </Neuron>
        <Neuron NSynapses="15">
          1.3611532250120590e+00 -5.4913648517724345e-01 1.9065641527389008e+01 -1.9883842312936080e+00 -6.3293567696075803e-01 3.6692756561952971e+00 -1.2621349700907306e-01 4.1507240463979560e+00 -3.4411550229453053e-01 -8.5702491693715632e-01 2.3751280665882529e-01 7.5417258723681320e+00 -1.2609398256506943e+00 -6.7203953116871284e+00 -1.0448262173214191e+00 
        </Neuron>
        <Neuron NSynapses="15">
          -6.2538465171522555e+00 3.5194080999922939e-01 -4.3169027599642167e+00 2.2486179969074366e-01 1.5877551962260056e-01 2.7886937027409977e+00 -6.4169915552084833e-01 4.6300021669996427e+00 -1.4996801935532234e+00 2.2601377929795044e-01 -2.4814195116477669e-01 2.7134050395447669e+00 1.7467094306904829e+00 8.4788966915755690e+00 -5.6001429654896573e-01 
        </Neuron>
        <Neuron NSynapses="15">
          -5.8430783916878548e+00 8.0467325318941751e-01 -2.9635653871563744e-01 1.1017159542865311e+00 9.5126878067140086e-01 -6.9432353629356891e-01 1.6034278990226117e+01 6.6983542819971487e-01 8.8447010697900363e-01 4.8771756895090390e-01 2.4587039279810283e+00 1.6525358099510787e-01 -7.7812040661558934e-01 9.9971593592419350e-01 -6.7116687050911311e-02 
        </Neuron>
        <Neuron NSynapses="15">
          -1.6585957976538496e-01 2.9640324569943120e-02 8.6317358768172092e-02 -6.9773244190602213e-02 -1.8850044198714822e-01 -1.1443951196797308e-01 3.4848251164135075e-01 -1.7640198088652295e-01 8.6474160654517773e-01 -1.8685827351449316e-02 -1.4909104671356792e+01 4.9322404285498923e-02 -6.0265492788229591e-01 1.0982845915686579e-01 -8.7378077468098739e-02 
        </Neuron>
        <Neuron NSynapses="15">
          2.8410368799550643e+00 -7.2352577064729386e+00 -7.2901536103121387e+00 1.3648152470545445e+00 1.0517964009758252e+00 -6.9958250909639655e-02 -7.8361795899179638e+00 1.0688600984581886e+00 -1.4975514259800700e+00 -7.3802542496469608e+00 -8.2316258874239203e+00 -3.1862878892984354e+00 -2.7667118167422416e-01 -2.3864179455254777e+00 -3.7434498251625520e-01 
        </Neuron>
        <Neuron NSynapses="15">
          3.7696664900676060e+00 1.5434182531960237e+01 -5.4932417229893782e-01 -1.1779810084216673e+00 -1.8227013939601835e+00 -1.1728999132076823e+00 -1.8179801991489417e-01 -8.4272902756574697e-01 -2.0510160705717086e+00 1.3769452756805864e+01 -3.6521629395765122e-02 1.5202064217901418e-01 9.5176057181266183e-01 -4.4801579807070507e-01 -9.2563344681871262e-01 
        </Neuron>
        <Neuron NSynapses="15">
          2.6119273742459975e-01 -2.1550468065697976e+00 -1.1728516270361380e-02 -3.3070798701344092e-02 2.5708020802742826e-01 3.0321648792226397e-01 1.0473810091170871e-01 1.5902875710027586e-01 1.4283976593069272e-01 -1.9465716417436005e+00 5.3625263929709392e-02 -2.6338551246183123e-01 -1.5073922710805995e-01 9.3817373731588480e-02 7.6029843296756372e-01 
        </Neuron>
        <Neuron NSynapses="15">
          -9.8571117731490077e-01 -5.6382349716561475e-01 2.8864545664126808e-02 1.7553666384507360e-01 -2.0523103376195223e-01 -1.8735831622607799e-01 -6.9378650630233935e-02 -4.2160001864650476e-01 -1.3218767293621279e+00 1.8947561262024318e-01 7.1052593296960995e-02 2.3697273521522050e-01 -1.1713979757508229e-01 1.1499834103976122e-02 1.7975293675998597e-01 
        </Neuron>
        <Neuron NSynapses="15">
          8.9860593854585402e-01 -7.9376790934134911e-02 -2.0116351663089263e-01 -2.4224019976278850e+00 4.6355616980788446e+00 4.2088308452874461e+00 5.5940550049138844e+00 2.8391221577206682e+00 -3.8372390485172969e-01 -1.3873488208198230e-03 1.0545266047238233e+00 -2.0320151698165159e-01 -9.1304793344738755e-01 1.6160802194332444e-01 3.8027556562890080e-01 
        </Neuron>
        <Neuron NSynapses="15">
          -4.3690645597400817e+00 5.7719531074525490e+00 6.9781940630215722e+00 -9.8051525699683939e-01 -1.2155528018732076e+00 2.2914488094135277e+00 9.1647295798924269e+00 4.1599677107824723e-01 1.5892736446922116e+00 5.0740935996499177e+00 9.7590202637268835e+00 4.9897827447679877e+00 -3.0069532194057869e-01 9.3636358322590629e-01 -3.8612565690972260e-02 
        </Neuron>
      </Layer>
      <Layer Index="1" NNeurons="16">
        <Neuron NSynapses="1">
          -5.5185509733195715e-01 
        </Neuron>
        <Neuron NSynapses="1">
          1.0634518705661213e+00 
        </Neuron>
        <Neuron NSynapses="1">
          2.9530372512107732e+00 
        </Neuron>
        <Neuron NSynapses="1">
          4.1995573818902804e-01 
        </Neuron>
        <Neuron NSynapses="1">
          5.2093755887576576e-01 
        </Neuron>
        <Neuron NSynapses="1">
          3.9612087925905282e-01 
        </Neuron>
        <Neuron NSynapses="1">
          3.9509062429826582e+00 
        </Neuron>
        <Neuron NSynapses="1">
          3.1386903704866409e-01 
        </Neuron>
        <Neuron NSynapses="1">
          -4.1153939092319436e-01 
        </Neuron>
        <Neuron NSynapses="1">
          -2.0434932681504741e+00 
        </Neuron>
        <Neuron NSynapses="1">
          -2.6705666320166705e+00 
        </Neuron>
        <Neuron NSynapses="1">
          8.7309981121048919e-01 
        </Neuron>
        <Neuron NSynapses="1">
          -7.2303339204834205e-01 
        </Neuron>
        <Neuron NSynapses="1">
          3.9489581539844445e+00 
        </Neuron>
        <Neuron NSynapses="1">
          -1.9270000764935016e+00 
        </Neuron>
        <Neuron NSynapses="1">
          -3.4890257212331419e+00 
        </Neuron>
      </Layer>
      <Layer Index="2" NNeurons="1">
        <Neuron NSynapses="0"/>
      </Layer>
    </Layout>
  </Weights>
</MethodSetup>
