<?xml version="1.0"?>
<MethodSetup Method="DL::DNN_CPU">
  <GeneralInfo>
    <Info name="TMVA Release" value="4.2.1 [262657]"/>
    <Info name="ROOT Release" value="6.26/02 [399874]"/>
    <Info name="Creator" value="s1412595"/>
    <Info name="Date" value="Sun May  1 15:00:51 2022"/>
    <Info name="Host" value="Linux root-ubuntu-2004-1 5.4.0-73-generic #82-Ubuntu SMP Wed Apr 14 17:39:42 UTC 2021 x86_64 x86_64 x86_64 GNU/Linux"/>
    <Info name="Dir" value="/home/s1412595/Desktop/MSc/TMVA/runs/run_fs2_hp1"/>
    <Info name="Training events" value="120000"/>
    <Info name="TrainingTime" value="9.91739436e+02"/>
    <Info name="AnalysisType" value="Classification"/>
  </GeneralInfo>
  <Options>
    <Option name="V" modified="Yes">True</Option>
    <Option name="VerbosityLevel" modified="No">Verbose</Option>
    <Option name="VarTransform" modified="Yes">N</Option>
    <Option name="H" modified="Yes">False</Option>
    <Option name="CreateMVAPdfs" modified="No">False</Option>
    <Option name="IgnoreNegWeightsInTraining" modified="No">False</Option>
    <Option name="InputLayout" modified="No">0|0|0</Option>
    <Option name="BatchLayout" modified="No">0|0|0</Option>
    <Option name="Layout" modified="Yes">TANH|128,TANH|128,TANH|128,LINEAR</Option>
    <Option name="ErrorStrategy" modified="Yes">CROSSENTROPY</Option>
    <Option name="WeightInitialization" modified="Yes">XAVIERUNIFORM</Option>
    <Option name="RandomSeed" modified="No">0</Option>
    <Option name="ValidationSize" modified="No">20%</Option>
    <Option name="Architecture" modified="Yes">CPU</Option>
    <Option name="TrainingStrategy" modified="Yes">LearningRate=1e-2,Momentum=0.9,ConvergenceSteps=20,BatchSize=100,TestRepetitions=1,WeightDecay=1e-4,Regularization=None,DropConfig=0.0+0.5+0.5+0.5</Option>
  </Options>
  <Variables NVar="14">
    <Variable VarIndex="0" Expression="Xicst_PT" Label="Xicst_PT" Title="Xicst_PT" Unit="" Internal="Xicst_PT" Type="F" Min="2.32683643e+03" Max="4.92342539e+04"/>
    <Variable VarIndex="1" Expression="Kbach_ProbNNk" Label="Kbach_ProbNNk" Title="Kbach_ProbNNk" Unit="" Internal="Kbach_ProbNNk" Type="F" Min="5.10000885e-01" Max="9.99803305e-01"/>
    <Variable VarIndex="2" Expression="Kbach_ProbNNp" Label="Kbach_ProbNNp" Title="Kbach_ProbNNp" Unit="" Internal="Kbach_ProbNNp" Type="F" Min="3.09430192e-07" Max="9.99382198e-01"/>
    <Variable VarIndex="3" Expression="Kbach_PT" Label="Kbach_PT" Title="Kbach_PT" Unit="" Internal="Kbach_PT" Type="F" Min="4.03433502e+02" Max="1.47210791e+04"/>
    <Variable VarIndex="4" Expression="Lc_PT" Label="Lc_PT" Title="Lc_PT" Unit="" Internal="Lc_PT" Type="F" Min="2.52761890e+03" Max="4.00415273e+04"/>
    <Variable VarIndex="5" Expression="pibach_PT" Label="pibach_PT" Title="pibach_PT" Unit="" Internal="pibach_PT" Type="F" Min="2.00006271e+02" Max="3.32139111e+03"/>
    <Variable VarIndex="6" Expression="pibach_ProbNNpi" Label="pibach_ProbNNpi" Title="pibach_ProbNNpi" Unit="" Internal="pibach_ProbNNpi" Type="F" Min="1.00149095e-01" Max="9.99639690e-01"/>
    <Variable VarIndex="7" Expression="pibach_ProbNNp" Label="pibach_ProbNNp" Title="pibach_ProbNNp" Unit="" Internal="pibach_ProbNNp" Type="F" Min="4.44849604e-07" Max="9.56227481e-01"/>
    <Variable VarIndex="8" Expression="Xicst_IPCHI2_OWNPV" Label="Xicst_IPCHI2_OWNPV" Title="Xicst_IPCHI2_OWNPV" Unit="" Internal="Xicst_IPCHI2_OWNPV" Type="F" Min="1.37118786e-05" Max="2.63996133e+04"/>
    <Variable VarIndex="9" Expression="Lc_IPCHI2_OWNPV" Label="Lc_IPCHI2_OWNPV" Title="Lc_IPCHI2_OWNPV" Unit="" Internal="Lc_IPCHI2_OWNPV" Type="F" Min="1.04185083e-05" Max="8.99999237e+00"/>
    <Variable VarIndex="10" Expression="Xicst_FDCHI2_OWNPV" Label="Xicst_FDCHI2_OWNPV" Title="Xicst_FDCHI2_OWNPV" Unit="" Internal="Xicst_FDCHI2_OWNPV" Type="F" Min="1.69576111e-03" Max="2.45688275e+06"/>
    <Variable VarIndex="11" Expression="Xicst_ENDVERTEX_CHI2" Label="Xicst_ENDVERTEX_CHI2" Title="Xicst_ENDVERTEX_CHI2" Unit="" Internal="Xicst_ENDVERTEX_CHI2" Type="F" Min="1.72308029e-03" Max="5.99373703e+01"/>
    <Variable VarIndex="12" Expression="pibach_IPCHI2_OWNPV" Label="pibach_IPCHI2_OWNPV" Title="pibach_IPCHI2_OWNPV" Unit="" Internal="pibach_IPCHI2_OWNPV" Type="F" Min="8.96283200e-06" Max="8.99967575e+00"/>
    <Variable VarIndex="13" Expression="Kbach_IPCHI2_OWNPV" Label="Kbach_IPCHI2_OWNPV" Title="Kbach_IPCHI2_OWNPV" Unit="" Internal="Kbach_IPCHI2_OWNPV" Type="F" Min="1.30371254e-05" Max="8.99991798e+00"/>
  </Variables>
  <Spectators NSpec="1">
    <Spectator SpecIndex="0" Expression="Xicst_M" Label="Xicst_M" Title="Xicst Mass" Unit="F" Internal="Xicst_M" Type="F" Min="2.92377637e+03" Max="3.90779272e+03"/>
  </Spectators>
  <Classes NClass="2">
    <Class Name="Signal" Index="0"/>
    <Class Name="Background" Index="1"/>
  </Classes>
  <Transformations NTransformations="1">
    <Transform Name="Normalize">
      <Selection>
        <Input NInputs="14">
          <Input Type="Variable" Label="Xicst_PT" Expression="Xicst_PT"/>
          <Input Type="Variable" Label="Kbach_ProbNNk" Expression="Kbach_ProbNNk"/>
          <Input Type="Variable" Label="Kbach_ProbNNp" Expression="Kbach_ProbNNp"/>
          <Input Type="Variable" Label="Kbach_PT" Expression="Kbach_PT"/>
          <Input Type="Variable" Label="Lc_PT" Expression="Lc_PT"/>
          <Input Type="Variable" Label="pibach_PT" Expression="pibach_PT"/>
          <Input Type="Variable" Label="pibach_ProbNNpi" Expression="pibach_ProbNNpi"/>
          <Input Type="Variable" Label="pibach_ProbNNp" Expression="pibach_ProbNNp"/>
          <Input Type="Variable" Label="Xicst_IPCHI2_OWNPV" Expression="Xicst_IPCHI2_OWNPV"/>
          <Input Type="Variable" Label="Lc_IPCHI2_OWNPV" Expression="Lc_IPCHI2_OWNPV"/>
          <Input Type="Variable" Label="Xicst_FDCHI2_OWNPV" Expression="Xicst_FDCHI2_OWNPV"/>
          <Input Type="Variable" Label="Xicst_ENDVERTEX_CHI2" Expression="Xicst_ENDVERTEX_CHI2"/>
          <Input Type="Variable" Label="pibach_IPCHI2_OWNPV" Expression="pibach_IPCHI2_OWNPV"/>
          <Input Type="Variable" Label="Kbach_IPCHI2_OWNPV" Expression="Kbach_IPCHI2_OWNPV"/>
        </Input>
        <Output NOutputs="14">
          <Output Type="Variable" Label="Xicst_PT" Expression="Xicst_PT"/>
          <Output Type="Variable" Label="Kbach_ProbNNk" Expression="Kbach_ProbNNk"/>
          <Output Type="Variable" Label="Kbach_ProbNNp" Expression="Kbach_ProbNNp"/>
          <Output Type="Variable" Label="Kbach_PT" Expression="Kbach_PT"/>
          <Output Type="Variable" Label="Lc_PT" Expression="Lc_PT"/>
          <Output Type="Variable" Label="pibach_PT" Expression="pibach_PT"/>
          <Output Type="Variable" Label="pibach_ProbNNpi" Expression="pibach_ProbNNpi"/>
          <Output Type="Variable" Label="pibach_ProbNNp" Expression="pibach_ProbNNp"/>
          <Output Type="Variable" Label="Xicst_IPCHI2_OWNPV" Expression="Xicst_IPCHI2_OWNPV"/>
          <Output Type="Variable" Label="Lc_IPCHI2_OWNPV" Expression="Lc_IPCHI2_OWNPV"/>
          <Output Type="Variable" Label="Xicst_FDCHI2_OWNPV" Expression="Xicst_FDCHI2_OWNPV"/>
          <Output Type="Variable" Label="Xicst_ENDVERTEX_CHI2" Expression="Xicst_ENDVERTEX_CHI2"/>
          <Output Type="Variable" Label="pibach_IPCHI2_OWNPV" Expression="pibach_IPCHI2_OWNPV"/>
          <Output Type="Variable" Label="Kbach_IPCHI2_OWNPV" Expression="Kbach_IPCHI2_OWNPV"/>
        </Output>
      </Selection>
      <Class ClassIndex="0">
        <Ranges>
          <Range Index="0" Min="3.3086733398437500e+03" Max="4.9234253906250000e+04"/>
          <Range Index="1" Min="5.1000088453292847e-01" Max="9.9980330467224121e-01"/>
          <Range Index="2" Min="3.0943019169171748e-07" Max="9.9368906021118164e-01"/>
          <Range Index="3" Min="4.0367718505859375e+02" Max="1.0992476562500000e+04"/>
          <Range Index="4" Min="2.5326340332031250e+03" Max="4.0041527343750000e+04"/>
          <Range Index="5" Min="2.0000627136230469e+02" Max="3.3213911132812500e+03"/>
          <Range Index="6" Min="1.0023375600576401e-01" Max="9.9963968992233276e-01"/>
          <Range Index="7" Min="4.4484960426416364e-07" Max="9.5622748136520386e-01"/>
          <Range Index="8" Min="1.3711878636968322e-05" Max="5.0999150390625000e+03"/>
          <Range Index="9" Min="1.0418508281873073e-05" Max="8.9987192153930664e+00"/>
          <Range Index="10" Min="3.1707067973911762e-03" Max="4.9887138671875000e+03"/>
          <Range Index="11" Min="1.7230802914127707e-03" Max="5.7858459472656250e+01"/>
          <Range Index="12" Min="2.5563955205143429e-05" Max="8.9967641830444336e+00"/>
          <Range Index="13" Min="2.9180013370933011e-05" Max="8.9999179840087891e+00"/>
        </Ranges>
      </Class>
      <Class ClassIndex="1">
        <Ranges>
          <Range Index="0" Min="2.3268364257812500e+03" Max="3.6822753906250000e+04"/>
          <Range Index="1" Min="5.1001447439193726e-01" Max="9.9980223178863525e-01"/>
          <Range Index="2" Min="3.1790315802027180e-07" Max="9.9938219785690308e-01"/>
          <Range Index="3" Min="4.0343350219726562e+02" Max="1.4721079101562500e+04"/>
          <Range Index="4" Min="2.5276188964843750e+03" Max="3.0730033203125000e+04"/>
          <Range Index="5" Min="2.0001296997070312e+02" Max="3.2623430175781250e+03"/>
          <Range Index="6" Min="1.0014909505844116e-01" Max="9.9933230876922607e-01"/>
          <Range Index="7" Min="2.0500285700109089e-06" Max="8.9968401193618774e-01"/>
          <Range Index="8" Min="2.6691805032896809e-05" Max="2.6399613281250000e+04"/>
          <Range Index="9" Min="2.8562481020344421e-05" Max="8.9999923706054688e+00"/>
          <Range Index="10" Min="1.6957611078396440e-03" Max="2.4568827500000000e+06"/>
          <Range Index="11" Min="4.3928395025432110e-03" Max="5.9937370300292969e+01"/>
          <Range Index="12" Min="8.9628319983603433e-06" Max="8.9996757507324219e+00"/>
          <Range Index="13" Min="1.3037125427217688e-05" Max="8.9995861053466797e+00"/>
        </Ranges>
      </Class>
      <Class ClassIndex="2">
        <Ranges>
          <Range Index="0" Min="2.3268364257812500e+03" Max="4.9234253906250000e+04"/>
          <Range Index="1" Min="5.1000088453292847e-01" Max="9.9980330467224121e-01"/>
          <Range Index="2" Min="3.0943019169171748e-07" Max="9.9938219785690308e-01"/>
          <Range Index="3" Min="4.0343350219726562e+02" Max="1.4721079101562500e+04"/>
          <Range Index="4" Min="2.5276188964843750e+03" Max="4.0041527343750000e+04"/>
          <Range Index="5" Min="2.0000627136230469e+02" Max="3.3213911132812500e+03"/>
          <Range Index="6" Min="1.0014909505844116e-01" Max="9.9963968992233276e-01"/>
          <Range Index="7" Min="4.4484960426416364e-07" Max="9.5622748136520386e-01"/>
          <Range Index="8" Min="1.3711878636968322e-05" Max="2.6399613281250000e+04"/>
          <Range Index="9" Min="1.0418508281873073e-05" Max="8.9999923706054688e+00"/>
          <Range Index="10" Min="1.6957611078396440e-03" Max="2.4568827500000000e+06"/>
          <Range Index="11" Min="1.7230802914127707e-03" Max="5.9937370300292969e+01"/>
          <Range Index="12" Min="8.9628319983603433e-06" Max="8.9996757507324219e+00"/>
          <Range Index="13" Min="1.3037125427217688e-05" Max="8.9999179840087891e+00"/>
        </Ranges>
      </Class>
    </Transform>
  </Transformations>
  <MVAPdfs/>
  <Weights NetDepth="4" InputDepth="1" InputHeight="1" InputWidth="14" BatchSize="1" BatchDepth="1" BatchHeight="100" BatchWidth="14" LossFunction="C" Initialization="F" Regularization="0" OutputFunction="S" WeightDecay="9.9999997473787516e-05">
    <DenseLayer Width="128" ActivationFunction="3">
      <Weights Rows="128" Columns="14">
        3.539420e+00  2.581132e-01  -1.471789e-03  7.622204e+00  -4.676038e+00  -7.704917e-02  3.079244e-01  3.253178e-01  -2.142657e+00  -2.342617e-01  -1.775597e+00  -5.343027e-01  1.089024e-01  5.674077e-02  -3.154880e+00  -3.354615e+00  6.705927e-01  2.523156e+00  -1.744607e+00  -8.699434e-01  -1.971477e+00  -2.446066e-02  2.487229e+00  1.439486e+00  2.748019e+00  1.470366e+00  6.294175e-01  2.397880e-01  -2.870168e+00  1.001991e+00  1.566891e+00  -3.617078e+00  -1.032212e+00  -1.611329e+00  -7.303628e-01  -6.640065e-01  -1.215785e+00  1.170276e+00  -1.589018e+00  -1.346396e+00  -2.675207e+00  1.027317e+00  -5.017900e+00  1.487780e-01  3.963863e-01  7.757106e+00  -5.008924e+00  -3.521198e+00  -8.217088e-01  -1.316905e+00  1.626415e+00  -5.952890e-02  1.678630e+00  1.117163e+00  -7.936352e-02  -1.297417e-01  -3.318391e+00  -2.818402e-01  9.879681e-02  -7.723786e+00  4.304172e+00  2.528662e-01  -9.462204e-02  -2.012594e-01  1.792412e+00  1.652419e-01  1.792969e+00  1.195860e-01  -3.719105e-03  -1.501371e-02  -4.563510e+00  -2.544512e+00  4.627891e+00  -3.706327e+00  -1.921795e+00  -1.746440e+00  -7.952217e-01  -5.703930e-01  -4.796394e-02  8.332974e-01  2.818043e-01  -9.603252e-01  1.003342e+00  8.666993e-01  -3.861645e+00  -1.095488e+00  6.632883e-02  4.409436e+00  -4.739778e+00  -3.396633e+00  -1.326712e+00  -8.259761e-02  6.544416e-01  1.720374e+00  5.251936e-01  1.779400e-01  2.936757e-01  -1.442634e+00  -3.278500e+00  -2.065064e+00  4.948700e+00  -4.246144e+00  -3.005936e-01  -1.513712e+00  6.276323e-01  -1.027030e+00  -5.439789e-02  -1.508690e+00  6.129543e-02  -7.545992e-01  -8.649807e-02  2.281299e+00  -5.453831e+00  -1.189529e-01  -1.213837e-01  1.214540e+00  -2.808971e+00  -3.770322e+00  -6.365246e+00  8.545776e-01  1.057038e+00  6.049744e-02  8.525092e-01  2.044176e-01  6.465239e-01  -9.576109e-02  -5.340302e+00  -1.214869e-01  5.473657e-01  7.505160e+00  -4.931026e+00  -3.765236e+00  -8.621483e-01  -1.695612e+00  1.978749e+00  -1.578267e-01  2.018005e+00  1.174374e+00  -2.651954e-02  -1.812949e-01  2.636895e+00  6.466362e-01  2.223851e-01  7.971936e+00  -3.797360e+00  -1.372161e-01  5.692998e-01  -8.867101e-02  -1.208174e+00  -5.060716e-01  -1.277087e+00  5.791296e-02  -3.189890e-01  -7.324158e-01  1.351452e+00  -4.064537e-01  -4.423528e-01  6.483647e-01  1.999513e+00  1.538023e+00  -6.407195e-01  1.273346e+00  1.218008e+00  -1.597866e+00  1.042138e+00  1.226509e+00  1.013337e+00  1.499037e+00  3.907111e+00  8.775771e-01  -1.435912e+00  3.339358e+00  1.975570e+00  2.720950e+00  -1.655423e+00  2.038238e+00  1.603349e-01  -1.094431e+00  1.982372e-01  4.403132e-01  -1.817930e+00  1.384109e+00  -7.787938e-01  2.299216e-01  -1.358254e+00  -1.280196e+00  -6.023298e-01  -1.654478e+00  -3.143469e-01  -6.080241e-01  -1.256884e+00  -7.418393e-01  -1.337574e+00  -1.392262e+00  -1.262622e+00  -2.358250e-01  1.753803e+00  -8.692929e-01  1.109722e-01  1.438553e+00  1.065475e+00  2.138865e+00  -1.206547e-01  9.131178e-01  1.625929e+00  9.704090e-01  1.542270e+00  9.594220e-01  1.644073e+00  1.708251e+00  -3.592052e+00  -2.524549e+00  4.124769e+00  6.657264e-01  -2.663808e+00  -8.258421e-01  -2.573596e+00  -7.436648e-01  1.813614e+00  1.138144e+00  1.952275e+00  6.175668e-01  2.018795e+00  2.994128e+00  8.660520e-01  9.335605e-02  1.791919e-01  -1.915215e-01  -7.237620e-01  3.402840e-01  1.541061e+00  -9.909312e-01  -2.178233e+00  -6.432693e-01  -2.126991e+00  -1.838235e+00  -1.390600e+00  -4.436059e-01  1.683545e+00  4.145992e-01  -1.263334e-01  1.872549e+00  -7.505786e-01  -3.186839e-02  2.092052e-03  3.185155e-02  -1.598525e+00  1.284396e-01  -3.296730e+00  -3.405954e+00  -1.697331e-01  2.135922e-01  -4.939809e+00  -4.114350e+00  7.257006e-01  -7.596468e-01  -2.486699e+00  -1.547478e+00  6.228746e-02  -6.211590e-01  2.379971e+00  2.158340e+00  2.148521e+00  3.792613e-01  1.501256e+00  1.463142e+00  1.295580e+00  -9.000322e-01  1.561345e+00  7.696269e-01  1.413111e+00  1.037870e+00  2.205294e-01  3.188530e-01  1.547709e+00  5.882225e-03  1.614603e+00  1.507698e+00  7.054546e-01  7.243239e-01  -5.246966e+00  -6.066787e-01  -1.581260e-01  -1.646325e+00  -2.503876e+00  -2.440356e+00  -6.980268e+00  6.471700e-01  4.228734e-01  1.139032e+00  2.174762e-01  -1.234409e+00  -3.501630e-01  3.489031e-01  -2.894959e+00  -3.626932e-01  -2.335663e-02  -7.827107e+00  4.841051e+00  -1.474269e-01  -2.588327e-01  -2.562865e-01  1.811579e+00  1.765864e-01  1.852298e+00  6.219943e-01  -5.025394e-02  3.514001e-02  3.428421e+00  2.648911e-01  -1.301144e-03  8.029477e+00  -4.921375e+00  -1.638585e-02  2.480086e-01  6.275468e-01  -1.891153e+00  -9.733912e-02  -2.202661e+00  -5.112680e-01  -1.324706e-01  2.635712e-02  3.699177e-01  1.088922e+00  -7.789292e-01  5.479313e-01  -5.579615e-01  2.926604e-01  3.151990e-01  1.259602e-02  -8.185341e-01  -7.044966e-01  -9.528936e-01  -6.997963e+00  -3.465682e-01  2.787812e+00  -4.594177e+00  -9.619766e-01  3.709458e+00  -2.048838e+00  -1.760381e+00  -3.400473e+00  2.154404e-01  -2.191481e+00  1.197724e+00  1.550743e+00  1.120478e+00  2.581375e-01  -1.469728e-01  9.132334e-02  3.779715e+00  2.185465e+00  -5.008644e+00  1.934999e-01  3.789067e+00  2.449494e+00  -1.114017e+00  2.043866e+00  5.979025e-01  -2.134448e+00  3.871795e-01  9.668935e-01  7.888458e-01  -2.885692e+00  4.145885e+00  3.840748e-01  -4.212397e-01  6.934578e+00  -2.854303e+00  1.425023e-01  2.101181e-02  4.650041e-01  -1.739219e+00  -2.014214e-01  -1.735464e+00  1.180042e-01  -3.328422e-01  -1.118145e-01  3.624700e+00  3.115473e+00  -4.183121e+00  -4.462730e-01  2.561547e+00  9.697359e-01  3.856073e+00  7.066292e-02  -8.326730e-01  -3.207918e+00  -1.215486e+00  -7.954180e-02  -2.332837e+00  2.571907e-01  -1.436748e+00  1.061137e+00  -1.661092e+00  -2.423584e+00  -5.532495e-01  -1.353069e+00  2.712866e-01  -1.274493e+00  -1.071609e+00  9.897103e-01  -1.260298e+00  -1.312387e+00  -4.013843e-02  -6.839265e-01  5.657032e-01  -1.434441e+00  3.552492e-02  -2.828972e+00  2.857443e+00  3.884142e+00  1.406288e-01  8.410999e-01  1.185523e+00  2.358706e+00  1.154798e+00  1.043207e+00  -8.593501e-01  1.627088e-01  -1.299974e-02  -1.854493e+00  2.213886e-01  1.114471e+00  8.853689e-01  -6.611778e-02  -1.432669e+00  3.615156e-01  1.869861e+00  1.268825e+00  1.702430e+00  8.632805e-01  1.225534e+00  1.127821e+00  -1.119299e+00  2.016348e-01  8.934019e-01  -3.557335e-01  -1.775399e+00  -9.899626e-01  -5.874898e-01  -1.615462e+00  -1.629797e+00  -5.294047e-01  -1.514793e+00  -1.508404e+00  -1.613568e+00  -1.644004e+00  -6.915801e-01  -8.921699e-01  1.115459e-01  1.149313e+00  1.358001e-01  -1.893751e-01  -5.787572e-01  -1.538049e-02  1.854288e+00  9.729435e-01  1.963353e+00  1.210835e+00  3.794389e-01  2.202306e-01  -1.680102e+00  -1.215517e+00  3.689551e-01  -5.259252e+00  2.681281e+00  1.017086e+00  -1.307629e+00  1.407534e+00  2.018545e+00  1.591875e+00  2.179318e+00  7.190059e-01  8.417222e-01  1.599319e+00  1.612183e+00  -4.822005e-01  7.967314e-01  1.994967e+00  2.963736e-01  8.525843e-01  6.035284e-02  1.264659e+00  1.181711e+00  -3.575705e-02  1.242197e+00  2.022617e+00  9.988679e-01  1.025301e+00  -3.796278e+00  -4.514602e-01  3.200140e-01  -7.536803e+00  4.212114e+00  2.296431e-01  -1.885874e-01  -5.275055e-01  1.979782e+00  -4.838635e-02  1.937872e+00  -1.414409e-01  2.479641e-01  -2.656247e-01  -4.241041e-01  2.801713e+00  -4.509048e+00  -2.633714e+00  -1.789500e-01  -9.320242e-01  -2.189394e+00  3.044841e-01  -1.976540e+00  -2.322072e+00  -1.876642e+00  -8.223710e-01  -1.720375e+00  1.757410e+00  3.022226e+00  6.832504e-01  5.481887e-01  7.059900e-01  2.525222e+00  3.021984e+00  4.451730e+00  2.778814e+00  7.199878e-01  1.845979e+00  8.968549e-01  -9.616317e-01  5.506092e-01  8.263990e-01  -1.836407e+00  -1.254225e+00  1.518608e+00  -1.268171e+00  3.168935e-01  -1.804374e+00  -3.577159e+00  -2.501724e-01  2.165442e+00  9.396881e-01  2.171618e+00  2.733356e+00  3.518732e-01  -7.123646e-03  7.019162e-01  2.291219e+00  1.037047e+00  4.574835e+00  -3.485391e+00  -7.741582e-01  2.402856e+00  -9.417278e-01  -1.925205e+00  -1.194396e+00  -1.724448e+00  -6.656004e-01  -1.205450e+00  -1.631059e+00  1.088260e+00  -7.684500e-01  1.739294e-02  9.489866e-01  1.305238e+00  2.761541e-01  -1.059304e+00  1.414186e+00  1.741991e+00  2.457334e-01  1.361690e+00  1.756501e+00  1.384962e+00  5.906685e-01  -2.367811e+00  -2.853168e+00  1.233241e+00  -2.724820e+00  1.680405e+00  -1.118136e+00  -2.274573e+00  -3.079084e-02  2.241697e+00  2.717405e+00  2.278233e+00  1.554673e+00  4.555455e-01  -7.304218e-01  6.247621e-02  6.615220e-01  -6.485208e-01  5.157828e+00  -4.021022e+00  -1.435632e+00  1.214137e+00  -1.371379e+00  -1.448046e+00  -7.024517e-01  -1.547210e+00  -6.980915e-01  -4.392888e-03  -8.748274e-01  -4.488678e+00  -1.710563e+00  2.546499e+00  -3.345207e+00  -2.803285e-01  -3.290675e+00  -3.995716e-01  -8.161302e-01  1.629116e+00  5.421756e-01  1.524477e+00  7.757313e-01  -9.273539e-01  -1.991633e+00  -5.610695e+00  -4.220080e+00  -7.267020e-01  4.673841e+00  -4.903286e+00  -3.179523e+00  -1.549550e-01  -1.286085e+00  1.249358e+00  3.733614e-03  9.944167e-01  -3.057463e-01  -1.833213e-01  2.589603e-01  -1.640323e+00  -1.287552e+00  -1.177202e+00  -2.345096e+00  -5.033625e-01  -1.295795e+00  -1.326852e+00  -1.776987e+00  -1.172916e+00  -9.586164e-01  -1.061746e+00  -9.298894e-01  7.498963e-01  -1.357036e+00  -3.526305e+00  -1.899487e-01  -7.890793e-03  -7.342657e+00  4.527604e+00  -1.769405e-01  -2.649896e-01  -6.815531e-01  1.939665e+00  8.101299e-02  2.103312e+00  5.649700e-01  3.221437e-01  7.623261e-03  1.434882e-01  -1.679735e+00  -4.004302e+00  4.560072e+00  -9.486453e-01  -4.610665e-01  -1.148946e+00  6.135561e-01  1.843868e+00  1.200705e+00  1.576304e+00  1.810218e+00  -2.414669e+00  1.679150e+00  -4.886320e+00  2.518367e-01  2.433690e-01  5.883139e+00  -4.406424e+00  -3.340920e+00  -3.939734e-01  -1.172407e+00  1.521936e+00  3.659126e-02  1.612767e+00  1.033719e+00  3.349933e-01  5.002202e-01  2.888086e-01  7.905211e-01  2.964146e-01  -2.321101e-01  -1.006860e+00  -4.137123e-01  7.600066e-01  -6.545680e-01  -1.976488e+00  -2.802853e+00  -1.995759e+00  -6.968715e-01  -2.523432e+00  9.134918e-01  2.271572e+00  1.753326e+00  -1.040601e+00  6.267781e+00  -1.214664e+00  1.143567e+00  2.014850e+00  3.196799e-01  6.696530e-01  -3.253026e+00  5.101269e-01  1.313725e+00  8.659878e-01  5.863700e-01  1.255353e+00  -1.377972e+00  8.210100e-01  1.253402e+00  1.037367e+00  1.397132e+00  -4.222023e-02  6.551955e-01  1.498244e+00  5.967227e-01  1.394135e+00  1.120602e+00  5.370596e-01  6.352493e-01  -3.407672e+00  -2.943820e-01  -1.240660e-01  -7.861478e+00  4.707345e+00  1.489124e-01  -2.099252e-01  -1.429647e-01  1.746885e+00  1.424168e-01  1.962205e+00  3.076734e-01  -5.621172e-02  -6.471369e-02  -3.694018e+00  -2.700861e-01  1.157435e+00  6.909791e+00  -5.628427e+00  -2.549958e+00  -5.189100e-01  -6.447052e-01  8.975679e-01  2.365749e-01  7.006025e-01  6.727057e-01  2.646115e-01  4.552568e-01  3.311234e+00  -1.522375e-01  -9.284222e-01  -6.173253e+00  4.606022e+00  2.592530e+00  6.211136e-02  4.008165e-01  -1.431341e+00  -6.181787e-02  -1.241888e+00  -6.847810e-01  -4.682840e-01  -6.661564e-01  -3.474663e+00  -2.356377e-01  -2.111389e-02  -7.484399e+00  4.678933e+00  -1.894451e-01  -1.972020e-01  -6.832653e-01  2.115004e+00  -7.510480e-03  1.848743e+00  5.201054e-01  1.876440e-01  -7.135301e-03  4.329456e+00  1.803728e+00  -1.352276e+00  1.899220e+00  5.117151e-01  3.343168e+00  2.571210e+00  1.663828e+00  -1.990392e+00  1.787666e-01  -1.885257e+00  -9.718845e-01  1.000012e+00  3.326110e+00  5.117690e+00  1.677894e+00  -7.791219e-01  -5.240975e+00  4.135087e+00  3.640199e+00  4.195403e-01  1.712393e+00  -1.471634e+00  -2.820931e-01  -1.410334e+00  -7.224890e-01  -1.688095e-01  -4.363706e-01  5.054389e-01  2.710803e-01  -3.696357e-01  9.822727e-01  -1.812788e+00  -3.747059e-01  6.802577e-01  -4.032626e-01  -1.709965e+00  -1.248860e+00  -2.066099e+00  -2.330310e+00  -3.223454e-01  -8.940774e-01  1.505974e-01  1.894959e-01  1.008828e-01  -8.466806e-02  3.664015e-01  2.186517e-01  2.402629e-01  1.285444e-01  1.731658e+00  1.556604e+00  1.202525e+00  3.607502e+00  -4.708484e-01  9.500187e-01  3.184754e+00  2.431715e-01  1.712816e-01  8.214248e+00  -4.830533e+00  2.960484e-02  2.792936e-01  4.553571e-01  -2.015863e+00  -1.561003e-01  -2.038060e+00  -5.819403e-01  -1.171683e-01  5.631504e-02  5.788246e-01  2.022318e+00  -1.230688e+00  -1.837907e+00  1.199306e-01  -5.886567e-01  1.289060e+00  -2.913364e-01  -2.213589e+00  -1.185192e+00  -1.925708e+00  -1.122147e+00  -1.091931e+00  -1.187019e+00  -4.666794e-01  -3.793208e+00  4.331957e+00  1.769041e+00  -4.346014e-01  6.100650e-01  1.165770e+00  -2.020002e-01  1.510218e+00  1.603689e+00  1.500530e+00  1.012164e+00  4.294198e+00  2.572291e+00  4.632322e-01  -5.567533e-01  2.131359e+00  -4.799276e+00  1.915714e+00  7.319862e-01  2.059628e+00  -1.192969e+00  -1.473776e+00  8.210622e-01  -1.497541e+00  -1.543153e+00  2.080168e+00  -1.987210e+00  4.645250e-01  3.280740e+00  -6.203868e-01  4.753354e+00  -3.010348e+00  -1.166508e+00  3.590690e+00  -1.055711e+00  -5.282744e-01  2.136743e+00  -6.915684e-01  -5.392937e-03  1.421960e+00  6.749060e-02  -5.867539e-01  1.734426e+00  -1.684686e+00  -2.387771e-01  -1.205371e+00  -1.747177e+00  -7.927089e-01  -5.973238e-01  -1.818936e+00  -1.101940e+00  -1.500290e+00  -1.376944e+00  -9.758892e-01  -1.080295e+00  8.044218e-01  4.121418e-01  -1.005087e-01  7.716307e-01  1.058826e+00  1.331728e+00  2.156577e-01  4.234258e-01  1.427266e+00  4.408654e-01  1.319592e+00  1.235276e+00  6.613601e-01  1.185330e+00  8.677642e-01  2.183220e+00  -1.501635e-02  9.280639e-01  -9.079521e-01  2.862386e-01  1.968695e+00  -7.317861e-01  -1.494478e+00  2.124719e-01  -1.830203e+00  -3.427101e+00  -8.401253e-01  3.065639e-01  3.521409e+00  4.718244e+00  -2.143172e+00  4.230268e+00  -1.695934e+00  2.514288e+00  1.031587e+00  9.110984e-01  -1.751603e+00  -8.214147e-01  -1.670623e+00  -1.105957e+00  1.142564e+00  4.537519e-01  5.406690e+00  1.840444e-01  9.749511e-02  -1.019668e+00  3.903124e+00  3.375674e+00  3.295420e+00  -1.419355e-01  -4.402613e-01  -2.779628e+00  -4.553741e-01  1.125212e-01  -5.619284e-01  -2.166971e+00  1.685831e+00  -3.413796e-01  -1.499539e-01  1.419426e+00  2.372302e+00  9.466234e-01  -3.758909e-01  4.228891e-01  1.309334e+00  9.360271e-01  1.402839e+00  1.546821e+00  4.303061e-01  1.018014e+00  -3.293796e-01  2.242843e+00  -9.412343e-01  1.449461e+00  -2.491293e+00  -1.817784e+00  -1.756571e-01  -5.095384e-01  -1.769534e+00  3.243395e-01  -1.859775e+00  -1.322509e+00  -1.143895e+00  -8.199198e-01  -3.649196e+00  -1.174409e+00  8.987767e-01  6.545773e+00  -5.476607e+00  -2.413389e+00  -5.856161e-01  -7.732256e-01  7.129443e-01  2.305043e-01  8.440321e-01  6.834871e-01  2.070063e-01  2.879362e-01  -8.068212e-01  -3.557053e+00  1.765401e+00  1.935710e+00  -4.332797e-01  2.808359e-01  -7.377339e-01  1.388406e-01  2.238445e+00  9.045801e-01  1.894418e+00  2.013839e+00  3.951374e-01  1.137064e+00  -1.910811e+00  -3.634265e+00  -1.036806e-01  4.645570e-01  -1.083424e+00  -5.976867e-01  -1.632804e+00  1.670777e+00  1.505757e+00  3.037935e+00  1.403312e+00  7.038017e-01  5.551690e-01  3.198170e-01  1.041943e+00  -3.726093e-01  -1.071216e+00  1.260733e+00  1.804877e+00  8.091498e-01  -1.069517e+00  1.554391e+00  2.055094e+00  6.302397e-01  1.960597e+00  2.539487e+00  9.151529e-01  2.248615e+00  -5.674712e-01  4.839884e-01  2.202071e-01  -4.378709e-01  -1.274625e+00  -2.290300e-01  1.750310e-01  -7.991565e-01  -1.676748e+00  -1.785400e-01  -1.563856e+00  -1.528935e+00  -4.695422e-01  -1.128874e+00  -5.897660e+00  -2.527411e-01  3.886734e-02  8.789002e-01  -2.514985e+00  -4.615597e+00  -3.333723e-01  -2.066622e+00  1.750367e+00  -1.128998e+00  1.757388e+00  9.443526e-01  -4.974028e-01  -1.215498e+00  -3.737501e+00  -8.512825e-01  5.841086e-01  -1.041520e+00  -2.143486e+00  -3.734262e+00  -2.227069e+00  -5.305863e-01  -3.497385e-01  -7.778385e-02  -1.658687e-01  -1.335263e+00  1.655391e-01  -2.476959e+00  5.747094e-02  -1.439687e-01  -2.906163e+00  -4.815934e+00  1.928045e+00  1.005340e+00  1.466556e+00  -1.144645e+00  -1.249662e+00  -1.596853e+00  -1.251623e+00  -1.453818e+00  -1.067124e+00  -4.028166e+00  -3.344064e+00  -1.312110e+00  -3.840824e-01  -4.167897e+00  -9.400029e-01  -2.984120e+00  -3.381939e+00  -5.246093e-01  -7.072515e-01  -1.051009e+00  -8.817626e-01  1.692957e+00  3.313649e-01  -5.125108e-01  5.839423e+00  3.239553e+00  -2.822045e+00  9.779392e-01  4.002870e+00  1.981671e+00  3.837725e-02  2.158596e+00  -8.199770e-01  -6.312621e-01  -6.469311e-01  7.592220e-01  -9.301065e-01  -1.786802e+00  4.669251e+00  8.258796e-01  -7.188747e-01  -5.391215e+00  4.403025e+00  3.580473e+00  1.129057e+00  8.130842e-02  -1.290293e+00  -2.112182e-01  -1.282626e+00  -6.075377e-01  4.741552e-01  -5.009044e-01  -3.915816e+00  -5.107991e+00  2.541950e+00  1.119413e+00  -2.710425e+00  -1.459685e+00  -1.002625e+00  -9.329653e-01  2.142560e+00  1.429676e+00  2.226829e+00  4.323957e-01  1.741438e+00  -5.810227e-01  -3.794829e+00  -4.764540e-01  5.295280e-01  -3.527792e+00  -1.930835e+00  -1.645188e+00  1.045686e+00  -1.234930e+00  -8.407956e-01  1.649057e-01  -7.095101e-01  -1.553243e+00  -4.038416e+00  4.170350e-01  4.150499e+00  4.413640e-01  2.102048e-01  -4.019999e+00  4.108756e+00  3.595305e+00  4.293704e+00  -5.973911e-01  -3.976994e-01  -8.066679e-01  -3.946509e-01  4.830027e-01  -4.829355e-01  -9.752785e-01  -4.902616e-01  -2.036768e-01  1.240820e+00  7.312882e+00  -5.249973e+00  -8.310963e-01  -4.089877e-02  -2.977876e-01  -1.384863e-01  2.267341e-01  -1.517376e-01  4.671206e-01  7.964991e-01  -2.683051e-01  3.573638e-01  1.261824e+00  -1.765819e+00  -1.985027e+00  2.777066e-01  -9.689587e-01  4.625424e-01  -5.060500e-02  -1.954588e+00  -1.000055e+00  -1.935449e+00  -8.943592e-01  -7.384778e-01  -8.768917e-02  4.680836e+00  1.463458e+00  -2.847511e+00  2.832943e-01  3.672472e+00  2.621432e+00  -2.081217e+00  2.452282e+00  -5.055550e-01  -1.531479e+00  -5.338119e-01  7.608779e-01  -3.166072e+00  -1.592016e+00  -3.414435e+00  -1.619914e-01  -7.895875e-02  -7.982016e+00  4.504421e+00  1.724988e-01  -1.604964e-01  -5.393485e-01  2.079646e+00  1.261741e-01  2.051336e+00  3.835194e-01  1.262414e-01  -2.262039e-02  4.667635e+00  -7.050338e-02  -3.495269e-01  -7.530865e+00  5.359544e+00  3.201960e+00  7.143505e-01  9.962946e-01  -1.370486e+00  1.212402e-01  -1.685292e+00  -9.054182e-01  1.324021e-01  -2.803194e-02  -4.656887e+00  -1.835028e-02  -7.087701e-02  -5.421538e-01  -1.791822e+00  -2.436838e+00  -8.563845e+00  9.675607e-01  -4.213086e-02  -2.194951e-02  4.716112e-02  -4.284565e-01  1.238086e-03  1.757840e-01  3.436095e+00  3.107863e+00  -6.280153e+00  -7.794139e-01  2.888454e+00  8.292057e-01  3.580744e+00  4.222718e-02  -1.053251e+00  -2.022485e+00  -1.301712e+00  -5.621136e-01  -1.701949e+00  6.109397e-01  -2.864865e+00  -2.090719e+00  2.624075e+00  2.091900e+00  -1.892434e+00  -2.953301e+00  -4.562132e+00  9.906673e-01  1.269085e+00  1.422463e+00  1.440204e+00  7.144270e-01  6.814859e-01  -4.164134e-01  -2.925120e+00  1.997971e+00  -3.406122e+00  -3.230408e+00  -9.617851e-01  -1.652039e+00  -3.490789e+00  -6.284375e-01  -6.032315e-01  -5.578925e-03  -6.437485e-01  2.184273e-03  -5.444845e-01  9.794572e-01  4.071697e-01  3.109123e-01  6.905553e-01  1.900913e+00  -1.972716e+00  -8.026013e-01  6.097381e-02  -4.350190e-01  -2.337633e+00  8.684058e-02  -2.036396e+00  -1.076044e+00  -2.482254e-01  -9.349393e-01  -5.589886e+00  -6.416335e-01  -4.424250e-01  3.325351e+00  -4.444207e+00  -3.619727e+00  -5.807821e+00  4.863567e-01  4.399188e-01  2.215332e-01  1.372162e-01  -5.572555e-01  -1.390572e-01  4.066421e-01  5.407702e+00  3.845808e-01  6.188720e-01  -1.021486e+00  2.162277e+00  4.441847e+00  5.416534e+00  -8.263174e-01  -1.641787e+00  -8.925673e-02  -1.670157e+00  -9.780577e-01  -2.413596e-01  -5.061675e-02  -5.701980e+00  -1.071198e-01  -1.614999e-01  3.793770e+00  -4.064586e+00  -3.638886e+00  -4.263482e-01  -1.333800e+00  2.035805e+00  -3.477476e-01  1.918013e+00  3.184527e-01  -1.061981e-01  7.897902e-01  5.287699e-01  1.112240e+00  -1.080179e+00  1.371231e+00  -1.585782e+00  -1.156739e+00  -2.630581e-01  -5.538928e-01  -2.031163e+00  -4.560113e-01  -1.967029e+00  -1.375436e+00  -8.819044e-01  -4.035683e-01  -2.018470e+00  -2.007431e+00  -1.304492e+00  -1.823320e+00  1.310175e-01  -1.205529e+00  -4.709367e+00  -1.124134e+00  7.799520e-01  4.011547e+00  7.885814e-01  1.906083e+00  -1.189854e+00  -1.698330e+00  -3.779373e+00  -4.172699e-01  -7.586764e-03  -6.889176e+00  4.028725e+00  -6.339151e-01  -3.013605e-01  -6.054500e-01  2.243759e+00  2.958634e-01  2.141749e+00  8.419118e-01  1.231047e-01  -2.071472e-01  3.285560e+00  2.809039e-01  4.942255e-02  7.931103e+00  -4.734624e+00  4.058394e-02  2.248550e-01  6.743732e-01  -2.111350e+00  -1.430797e-01  -2.119778e+00  -3.491949e-01  -4.238410e-02  -3.176763e-03  2.670763e+00  -8.035538e-01  1.019671e+00  3.126757e+00  1.694146e+00  2.141592e+00  -9.162993e-01  9.776675e-01  1.422207e+00  8.797277e-01  1.131919e+00  -4.362099e-02  2.047783e+00  8.894267e-01  -5.767952e+00  -4.482663e+00  6.646666e-01  1.671477e+00  -4.077365e+00  -3.175622e+00  5.413080e-02  -1.601089e+00  1.246616e+00  1.335884e+00  1.156767e+00  -5.669333e-01  -5.873638e-02  1.813360e-01  6.480749e-01  -4.109577e-01  3.106325e+00  6.016402e+00  -2.313224e+00  6.726530e-02  -6.746565e-01  5.825418e-01  8.636183e-01  -1.354686e-01  9.232588e-01  1.106143e+00  3.527072e-01  1.783564e+00  2.043230e+00  2.666826e+00  -4.358871e+00  1.000590e+00  5.790824e-01  1.108044e+00  1.515190e+00  4.031915e-01  -7.453359e-01  -5.813450e+00  -7.348621e-01  6.577315e-02  9.575831e-01  -1.940672e+00  4.072984e+00  2.960815e+00  -3.971237e+00  2.221671e+00  1.546338e+00  2.802826e+00  -2.030339e+00  2.089772e+00  -5.763555e-01  -3.898003e-01  -3.201042e-01  1.749118e-01  1.616893e+00  8.009942e-01  5.473326e-01  -4.340573e-01  1.849495e+00  -6.625037e-01  1.765406e+00  1.151583e+00  -5.627605e-01  1.350867e-01  1.780200e+00  3.424920e-02  1.826376e+00  1.862476e+00  1.445866e+00  1.180481e+00  4.788235e+00  -8.292669e-02  -3.577199e-01  -7.732952e+00  5.281084e+00  3.355080e+00  6.919230e-01  1.088707e+00  -1.756461e+00  -1.289889e-02  -1.530091e+00  -9.644808e-01  4.451504e-02  -8.356663e-02  5.069166e+00  2.940655e+00  -4.055577e+00  -1.091143e+00  4.694549e+00  1.902053e+00  -1.665531e+00  1.531067e+00  -7.589976e-01  -1.187044e+00  -6.267917e-01  1.671959e-01  -1.582649e+00  8.159474e-01  -3.833324e+00  -2.723177e+00  3.577698e+00  -5.058999e+00  3.302037e-01  -7.995558e-01  1.710151e-01  -2.214979e-01  1.238440e+00  2.105969e+00  1.296649e+00  -4.269484e-01  1.286896e+00  5.979603e-01  3.106318e+00  1.385888e+00  -4.139518e+00  -1.814327e+00  3.704042e+00  2.723788e+00  2.939641e+00  -1.197089e+00  -1.859234e-01  -1.571674e+00  1.482151e-01  5.752879e-01  -1.757961e+00  9.768871e-02  5.023597e+00  1.024380e+00  -9.434093e-02  -1.929848e+00  2.788604e+00  3.606676e+00  2.085633e+00  4.830274e-01  -2.062471e+00  -1.668262e+00  -2.187254e+00  -1.292127e+00  -8.141355e-01  4.903601e-01  5.148461e+00  1.921911e+00  5.433528e-01  -5.705249e+00  4.882694e+00  2.788406e+00  5.027363e-01  1.269642e+00  -1.823553e+00  -2.890543e-01  -1.632784e+00  -2.021130e-01  2.872765e-01  -1.744903e-02  -3.420410e+00  -4.382000e+00  4.807813e+00  1.527005e-01  -9.604249e-01  -3.192153e+00  -2.729110e+00  -9.092290e-02  1.736552e+00  -1.638165e-01  1.977767e+00  1.498193e+00  -2.877292e-01  -3.422110e-02  -2.780074e+00  6.044862e-02  3.570425e+00  -1.440887e+00  -1.489987e+00  -1.345414e+00  -4.930393e+00  -1.474365e+00  6.152285e-01  2.733723e-01  6.567829e-01  1.200418e+00  2.560990e+00  -2.793116e+00  2.057610e+00  -6.393302e-01  -2.831469e-01  4.362499e+00  -1.095307e-01  1.770681e+00  4.613079e-01  1.981048e+00  1.461886e+00  -1.259174e-01  1.425783e+00  2.277642e+00  8.311819e-01  1.071041e+00  -2.992399e+00  -2.460327e+00  2.860474e+00  -4.842006e+00  2.039312e+00  -3.134032e-01  -1.406907e-01  -8.589695e-02  1.889135e+00  3.286749e+00  1.860194e+00  2.907479e-01  8.245666e-02  -9.466917e-02  -3.211314e+00  -1.112852e+00  5.497428e+00  -3.687783e+00  1.282629e+00  -9.364997e-01  -8.466484e-01  3.292770e-02  2.051260e+00  1.427581e+00  2.101820e+00  1.032642e+00  8.229662e-01  4.833250e-01  5.094316e+00  -2.445920e-01  5.791996e-01  -2.036035e+00  3.827499e+00  2.524356e+00  6.869814e+00  -1.148578e+00  -2.396255e-01  -1.071007e-01  -1.309619e-01  8.519390e-01  -4.502513e-02  1.670857e-01  -2.857117e-01  1.445256e+00  -1.446713e+00  -8.889962e-01  -6.788005e-01  -9.232555e-01  1.218885e+00  -7.326927e-01  -1.716239e+00  -2.776374e+00  -1.476907e+00  -9.320754e-01  -1.427882e+00  -2.899799e+00  -4.794644e+00  -9.594196e-01  -1.658895e+00  3.312793e+00  -3.440615e+00  -3.418941e+00  -3.860456e+00  7.876730e-01  1.630000e+00  7.014869e-01  1.557205e+00  7.972456e-01  1.153909e+00  6.667261e-01  -3.652956e+00  -1.250404e-01  -2.216443e-01  -7.729466e+00  4.841915e+00  -1.688523e-01  -3.605700e-01  -4.854943e-01  2.110746e+00  2.271705e-01  2.119221e+00  5.139837e-01  8.607658e-02  4.218305e-02  1.992662e+00  2.838024e+00  4.164662e-01  2.711118e+00  1.468136e-01  9.222502e-01  -3.121361e+00  2.028907e+00  -1.604051e-01  6.261770e-02  -2.189696e-01  3.910863e-01  -2.617534e+00  -2.647360e+00  -5.020955e+00  -3.032026e+00  3.983642e+00  4.791915e-01  -4.849250e+00  -2.109321e+00  -7.712129e-01  -1.489656e+00  5.618392e-01  1.265132e+00  5.309590e-01  -7.683113e-01  1.357675e+00  4.894458e-01  -7.867354e-01  3.603540e-01  -2.017076e-01  -2.870369e-01  -1.469200e+00  -1.166010e+00  -3.897054e-01  -4.131398e-01  -1.649545e+00  -2.816290e-01  -1.485575e+00  -1.358889e+00  -1.118936e+00  -3.485208e-01  1.416457e+00  -1.466520e+00  1.961744e+00  -4.555403e+00  4.193400e+00  1.853598e+00  -1.178482e+00  1.433391e+00  1.087919e+00  1.669784e+00  9.146056e-01  6.521701e-01  3.537983e-01  -5.275937e-02  
      </Weights>
      <Biases Rows="128" Columns="1">
        1.953681e+00  -2.567711e+00  1.395029e+00  -1.554581e+00  -1.873474e+00  -1.238388e-01  -5.420181e-01  -6.485476e-02  -8.531883e-01  -1.911329e+00  1.269405e+00  -1.225790e+00  -1.391591e-02  1.343039e+00  -1.479518e+00  -1.760392e+00  2.039843e+00  1.722273e+00  -2.178149e+00  -1.404486e+00  -3.018366e-01  -1.957423e+00  2.052119e+00  9.442253e-01  -1.025276e+00  -4.977616e-01  1.905546e+00  1.021750e+00  1.136603e+00  -1.009009e+00  -1.859850e+00  1.572590e+00  -1.578069e+00  -1.986067e+00  -1.339411e+00  -1.827512e+00  1.794219e+00  -7.964447e-01  -1.969692e+00  1.814017e+00  -1.551451e+00  -2.147809e+00  1.527854e+00  -1.460071e+00  -1.048974e+00  1.043961e+00  -1.993528e+00  -1.772452e+00  -1.675589e+00  2.113331e+00  -5.074781e-01  -1.357361e+00  -1.902847e+00  -7.911870e-01  1.226570e+00  -1.980292e+00  1.793744e+00  1.538339e+00  1.851449e+00  -1.183002e+00  1.979333e+00  2.038522e+00  -1.318327e+00  1.416253e+00  6.234124e-01  1.668265e+00  -1.389853e+00  1.469554e+00  1.569239e+00  5.588914e-01  -1.511110e+00  1.950508e+00  -7.803093e-01  -2.098372e+00  -1.535442e+00  -2.000879e+00  1.504914e+00  -1.664749e+00  2.746691e-01  1.272610e+00  7.473869e-01  6.648144e-01  1.342547e+00  -2.032732e+00  7.444549e-01  1.925157e-01  2.471227e-01  1.960088e+00  5.046539e-01  -2.000151e+00  1.483742e+00  1.313097e-02  1.243795e+00  -1.271544e+00  7.496889e-01  2.009372e+00  -3.176487e-01  1.563092e+00  -1.880560e+00  1.947291e+00  -8.119220e-01  -2.059073e+00  1.997546e+00  -1.260928e+00  -1.062019e+00  -7.909897e-01  8.831365e-01  3.771147e-01  -1.792026e+00  1.549883e+00  7.433804e-01  -1.386112e+00  -1.412957e-02  2.007499e+00  1.686415e+00  -1.789195e+00  -8.002617e-01  -1.482599e+00  -1.777696e+00  -1.961724e+00  1.195566e-01  1.585983e+00  -1.517589e+00  -1.946767e+00  1.705959e-01  -4.306817e-01  1.526575e+00  -9.371158e-01  
      </Biases>
    </DenseLayer>
    <DenseLayer Width="128" ActivationFunction="3">
      <Weights Rows="128" Columns="128">
        -8.758011e-01  8.772177e-02  6.763172e-01  -3.753726e+00  -3.428139e+00  -8.620247e-01  -1.597549e+00  -4.359904e-01  -2.727154e+00  -2.685382e+00  2.091281e+00  -2.511848e-01  1.977703e+00  9.401271e-01  8.410621e-01  1.075011e+00  2.346359e+00  -1.832951e+00  -1.797794e+00  -1.306016e+00  -7.030315e+00  -3.883305e+00  8.037686e-01  7.690840e-01  -1.563609e+00  2.174779e+00  -2.894313e-01  -7.864157e-01  -4.747849e+00  7.483646e-02  -1.430511e+00  1.199035e+00  7.727815e-01  1.919024e+00  3.957045e-01  -2.563685e+00  -1.381881e+00  -1.108791e+00  3.317102e+00  -7.540384e-01  2.708027e-01  4.739438e+00  1.479061e+00  1.724491e+00  -3.786338e+00  4.065971e+00  -3.248047e+00  -1.098807e+00  -4.866114e+00  -1.576651e+00  4.502753e+00  8.164664e-01  5.656890e-01  3.545618e+00  -1.526244e+00  -1.978740e+00  -1.192205e+00  -1.489223e-03  1.021429e+00  5.691742e-01  2.301232e-01  1.418934e-02  3.797891e+00  -2.293208e+00  4.024218e+00  -2.029654e+00  1.076044e+00  -2.201895e+00  1.356433e-01  1.868107e+00  8.015113e-01  -1.799396e+00  -3.684942e+00  2.373698e+00  2.108454e+00  2.332874e-01  -1.395696e+00  -4.411799e+00  -4.076388e+00  -3.206318e+00  5.622804e-01  -2.134523e-01  3.335429e+00  -1.437296e+00  -8.855115e-01  4.255847e+00  6.007825e-01  -9.450790e-01  2.647832e-02  -1.435276e+00  5.599251e+00  -6.151910e+00  -1.414165e-01  -2.376961e+00  9.861630e-01  -2.562930e+00  -4.463727e+00  6.603862e+00  1.215084e+00  1.154452e+00  -2.066891e-01  -1.632022e+00  1.411099e+00  1.322072e+00  -2.238127e+00  -1.469019e+00  -1.552822e+00  1.574226e+00  2.499712e-01  3.301243e+00  1.160736e+00  -1.895359e+00  1.898630e+00  -1.994105e+00  6.148105e+00  -3.689140e+00  -1.553743e+00  1.202048e+00  1.058742e-01  6.233172e-01  7.178709e+00  1.354410e+00  -4.298313e+00  5.321649e-01  -1.025850e+00  -3.070733e+00  -1.110110e-01  1.264629e+00  -5.410872e+00  1.036844e+00  1.776169e+00  -1.285895e+00  8.740258e+00  7.656062e-02  -2.229238e+00  -1.755478e+00  -1.342017e+00  1.491008e-01  -5.931403e+00  1.131715e-01  -2.290832e-01  5.389807e-01  -1.125146e+00  1.542289e+00  3.796118e-01  -8.934654e-01  1.461480e+00  -2.270133e+00  2.419160e+00  5.479917e+00  -7.031607e+00  -1.042487e+00  -2.168219e+00  -1.839938e+00  -4.208419e+00  -3.968382e+00  1.744112e+00  -2.724383e+00  1.074333e-01  1.221301e-01  -6.236370e-01  3.663390e+00  -1.993313e+00  6.006533e+00  -2.208643e+00  4.674607e-01  1.970281e+00  -2.110673e+00  -7.961084e-01  2.097989e+00  -8.328480e-01  1.503937e+00  -2.323752e+00  -1.467169e+00  5.288982e+00  -1.109009e+00  -1.106468e-01  6.360567e-01  -2.359910e+00  2.724384e+00  8.777236e+00  -8.242570e-01  2.061763e+00  5.221852e+00  -7.336637e-01  -8.891601e-01  -1.506643e-01  -3.386828e+00  -6.552440e+00  2.298639e+00  -5.253305e-01  -8.115751e-01  -6.545393e-01  1.829046e+00  -2.548256e+00  -1.512174e+00  1.423030e+00  -7.342339e-01  -6.744946e-01  1.089869e+00  2.405528e-01  5.751903e-01  2.126244e+00  -1.298731e+00  -7.094586e+00  -3.017211e+00  -2.589940e+00  3.266848e+00  2.389018e+00  -2.034581e+00  4.720537e-02  2.241726e+00  1.104691e+00  -1.386766e+00  -1.542704e+00  1.764100e+00  5.273596e-01  7.993284e+00  -2.932150e-01  -1.023070e+00  -5.055889e+00  -1.752835e+00  2.172069e+00  -5.591640e-01  9.440897e-01  -1.539740e-01  3.946227e-01  8.933166e-01  1.102137e+00  6.633561e+00  -6.502858e+00  1.411977e-01  3.428754e+00  -2.347334e+00  3.283162e-01  -2.415281e+00  -1.251278e+00  -1.938511e-01  -9.137358e-01  3.342014e+00  -7.909209e-01  -7.166910e-01  -1.852193e+00  -2.209294e+00  1.660547e+00  1.122738e+00  1.314784e+00  2.755650e+00  -3.446797e+00  -6.194081e-01  -1.095654e+00  4.305986e+00  8.183268e-01  4.429321e-01  1.999906e+00  1.564480e+00  -8.289680e+00  7.611620e-01  -1.139461e+00  3.247714e+00  1.493900e+00  6.210769e-01  -4.083850e-01  1.874705e+00  4.341162e-01  3.484693e+00  -3.031203e+00  1.241722e+00  -7.066534e-01  -2.111189e+00  -1.352131e+00  1.349183e+00  -1.888384e+00  -1.516951e+00  -2.201629e+00  1.894441e+00  9.517199e-01  4.479105e+00  -3.638042e+00  -5.386501e-01  1.837027e+00  5.543317e-01  1.669661e+00  -2.948027e+00  -2.308670e+00  4.343499e+00  2.472986e+00  -1.274702e+00  2.494558e+00  2.444790e+00  -1.318697e+00  1.507011e+00  1.252641e-01  -3.863589e+00  6.124150e-01  1.159247e-01  1.995167e+00  5.260252e+00  1.320912e+00  2.923271e+00  -3.842158e+00  -7.909084e-01  6.193218e+00  2.552179e-01  2.540140e+00  -5.690862e+00  -1.308751e+00  1.583658e+00  2.326838e+00  1.992497e+00  -3.935812e-01  5.692651e+00  -3.917098e+00  -5.188197e-01  -2.145717e+00  3.388828e-01  -5.700571e+00  -9.161625e-01  5.558496e-01  1.152004e-02  7.593526e-01  -1.034252e+00  -1.666360e-01  -2.882493e+00  -8.729179e-01  -1.128501e+00  3.802238e+00  -3.195243e+00  1.647945e+00  1.836357e+00  4.028105e+00  -1.735105e-01  -1.815386e+00  1.952587e+00  -3.364087e+00  6.039362e-02  1.901514e+00  2.586886e+00  -1.835838e+00  1.976649e+00  -1.723408e+00  1.837532e+00  -6.115128e-01  1.858942e+00  9.017910e-02  3.941075e+00  -2.280944e+00  -1.314472e+00  3.464076e-01  3.703030e-01  2.425262e-02  -1.973522e+00  3.946110e+00  -4.226151e+00  1.810719e+00  4.683677e-01  1.716056e+00  4.614870e+00  -3.813964e+00  -4.097045e-02  -1.214453e+00  -4.042832e-01  -8.472638e-01  -1.958389e+00  8.706572e-02  -5.387111e+00  -1.760685e+00  1.500075e+00  -3.974265e-01  -3.137401e+00  1.150442e+00  2.393277e+00  1.322571e+00  7.903748e-01  -5.997602e-01  1.600176e+00  1.964076e-01  -2.878960e+00  2.507261e+00  6.072382e+00  -1.765446e+00  2.044876e+00  -7.651929e-01  -3.408134e-01  -2.303645e+00  2.596079e+00  2.290132e+00  2.390152e+00  8.466516e-01  3.125936e+00  -2.272393e+00  1.324140e+00  1.911262e+00  4.438151e+00  -1.271110e+00  -4.592107e+00  1.258356e+00  -4.591525e-01  -2.239075e+00  -8.496945e-01  -3.041576e+00  -1.356012e+00  -1.085014e+00  1.069538e+00  4.551193e+00  2.542674e+00  1.633770e+00  9.775840e-01  1.061910e+00  -1.875679e-01  -1.979952e-01  -1.810681e+00  -1.959273e+00  -1.879205e+00  3.374753e+00  2.614500e+00  -1.597033e+00  4.874660e-01  2.908271e+00  -2.664819e+00  1.388421e-01  4.442415e-01  -6.863956e-01  -9.451915e-01  -3.120138e+00  -2.735674e+00  1.015849e+00  1.223194e-01  6.589027e+00  -1.653188e+00  -1.139640e+00  9.555696e-01  4.399753e+00  -2.243767e+00  -1.385818e+00  -3.188371e+00  2.573210e-01  6.273080e-01  4.740095e-01  -1.792349e+00  -4.051330e-01  -6.976897e+00  -3.037472e+00  -1.508994e-02  -9.907802e-02  -3.785211e-01  1.336382e+00  -3.229176e+00  8.013738e-01  1.741148e+00  2.069923e+00  1.349774e+00  -4.615989e+00  -5.114012e+00  -1.177267e+00  7.557677e-01  5.328737e-01  2.004218e+00  1.346793e+00  1.660951e+00  1.525278e+00  3.197826e+00  1.719008e+00  2.677784e-01  1.323241e+00  -2.348320e+00  -3.625783e+00  2.039249e+00  -2.179727e-01  -2.410832e+00  3.606089e+00  9.311036e-01  2.106963e-01  -4.052750e+00  -2.239953e+00  3.427935e+00  1.573423e+00  1.725377e+00  2.365986e+00  -9.146323e-01  5.747294e+00  -4.161344e+00  1.342695e+00  2.012112e-01  2.146538e+00  3.213390e-01  -5.658587e-01  4.428954e+00  6.003314e+00  -1.013753e+00  -2.179937e-01  -1.592602e+00  9.455720e-01  7.707507e-01  8.938749e-01  1.435911e+00  7.693977e-01  -4.372840e+00  -4.443829e+00  4.591062e+00  -3.841666e+00  3.573179e-01  -1.473236e+00  4.211764e-01  -6.865690e-01  -3.445425e-03  1.139397e+00  1.988987e+00  9.481840e-01  2.657462e+00  1.083960e+00  5.504699e+00  1.889430e+00  -8.187671e-01  -1.667644e+00  1.911676e+00  9.644122e-01  -4.953609e-01  3.038950e+00  1.458522e+00  3.838540e+00  4.044392e+00  -4.449331e+00  -1.157911e+00  -4.593910e+00  2.046780e+00  -1.182292e+00  -2.387969e+00  3.793015e+00  -5.470189e-01  8.258909e-01  -1.178836e+00  -1.825256e+00  -1.792143e+00  -3.123282e+00  -7.679504e-01  -9.245167e-01  2.809572e+00  -5.851745e+00  -2.928556e+00  2.899172e-01  -1.563561e+00  9.155161e-01  2.353683e+00  -2.657302e+00  4.832230e+00  -3.958822e-01  3.206018e+00  1.836983e+00  5.374826e-03  3.543422e-02  2.327535e+00  -1.499293e+00  -7.059959e-01  1.560873e+00  7.183644e+00  5.352573e+00  4.247421e-01  1.396056e+00  -1.436960e+00  6.582416e+00  2.827478e+00  3.766181e-01  -5.409991e-01  1.970319e+00  4.560085e+00  -3.421578e+00  3.710700e+00  1.218899e+00  -3.420753e+00  1.527479e+00  -1.495442e+00  -1.465317e+00  1.108767e+00  -5.155103e-01  -1.745964e+00  3.805860e+00  1.029563e+00  1.479158e+00  4.305995e+00  1.166001e+00  -2.204244e+00  -1.737419e+00  -8.210976e-01  2.844262e+00  -3.821502e+00  -5.492316e-01  1.234287e-01  2.003418e+00  5.138841e+00  7.721885e-01  -1.337582e+00  -2.498078e+00  2.334656e-01  -4.053425e+00  1.727397e+00  -3.147100e-01  -2.714068e-01  1.175568e+00  3.302213e-01  2.852572e+00  2.416673e-01  -4.419425e+00  3.492040e+00  1.003515e+00  5.588722e-01  -2.535345e+00  1.396153e+00  3.424823e+00  -9.206976e-01  5.625931e+00  3.738796e-01  2.508334e-01  2.156067e+00  -3.537465e-01  -4.447239e+00  -2.655136e-01  3.824397e-01  5.767108e-01  -1.174402e+00  -3.202652e+00  -4.524031e+00  -5.582355e-01  2.060474e+00  -9.665574e-01  -2.560241e+00  -2.277174e+00  1.005830e+00  1.834076e+00  -1.187757e+00  4.412289e+00  1.904829e+00  -1.625620e+00  2.860210e-01  2.725168e+00  1.081944e+00  1.592060e+00  4.258024e+00  2.675822e-01  -1.509923e+00  -1.315374e+00  3.717009e+00  -3.159260e-01  6.629454e+00  -6.007113e-01  1.072345e+00  6.525130e-01  -1.507256e+00  2.413574e+00  3.855755e+00  1.823909e+00  3.668240e+00  -6.340490e-02  -5.700762e-01  -2.948455e+00  1.308631e+00  -3.089534e+00  2.808447e+00  4.779551e+00  -1.092200e+00  8.316949e-01  -2.006288e-01  6.120327e-01  3.384992e+00  -2.358148e+00  1.757435e+00  -1.923141e+00  1.508577e+00  4.104704e-01  1.048764e-01  7.476171e-01  8.346532e-01  -9.370601e-01  -3.721989e+00  -3.078906e-01  -7.685817e-01  -1.754807e+00  1.773416e+00  1.403216e+00  -2.383667e+00  -4.917360e-01  -1.531547e+00  -3.170597e+00  3.067651e+00  8.166142e+00  3.574536e-01  1.921975e-02  3.780894e+00  3.181326e+00  9.780527e-01  -4.023007e+00  7.625405e-01  5.996681e-01  3.049472e+00  2.711643e+00  -1.375098e-01  -3.864651e+00  -4.985863e+00  -3.223822e-01  -1.775140e+00  -1.117790e+00  5.494857e+00  2.452942e+00  -4.866881e+00  -2.005940e+00  1.794956e+00  -1.721913e+00  1.515547e+00  -9.124563e-01  -9.373080e-01  1.702919e-01  1.117806e+00  6.853210e-01  -9.788365e-01  2.268764e+00  -1.699785e+00  -9.458267e-01  4.465473e+00  1.499226e+00  6.237347e-01  7.561173e-01  -8.855119e-01  -2.494496e+00  9.154289e-01  2.630219e+00  5.057880e-01  3.683603e+00  2.596018e-01  -7.480372e-01  -4.359328e-01  -4.442183e+00  4.446165e+00  3.326760e+00  2.815193e+00  -2.535900e+00  3.680411e+00  1.206155e+00  -1.825997e+00  3.232009e+00  -1.079089e+00  -1.867769e+00  2.568285e+00  -1.422562e-01  -2.392624e+00  3.887233e+00  2.536340e-01  5.215858e-03  -1.334929e-01  -8.955663e-02  -4.155334e+00  2.757755e-01  1.510388e-01  -7.255699e-02  -4.871691e+00  -7.315295e+00  2.166739e+00  -2.422302e+00  3.080051e+00  2.147959e+00  8.136277e-01  -4.445442e+00  8.684684e-01  -5.101666e-01  4.216824e-01  -2.555986e+00  -2.110523e+00  3.802985e+00  8.033324e-01  -6.911798e+00  1.037628e-01  2.578342e-01  3.486408e+00  2.889828e+00  8.390521e-01  5.526026e-01  1.777579e-01  9.281873e-01  6.497551e+00  -2.248789e+00  -2.129515e+00  8.979789e-01  4.945625e-02  1.591461e+00  9.909858e-01  5.835921e-01  2.158420e+00  1.575159e+00  1.040798e+00  2.121325e+00  4.022751e+00  -3.181423e+00  3.529228e+00  1.941572e+00  6.419474e-01  -1.642733e+00  2.268440e-01  -6.058705e-01  5.261876e-01  3.992767e+00  4.879291e+00  2.524838e+00  2.602769e+00  -3.046839e+00  3.395153e+00  -2.989386e+00  -1.593924e-01  -7.790287e-01  -1.347255e+00  -1.735395e+00  1.968774e+00  -1.872698e-01  -5.365438e+00  1.592343e+00  -1.406602e+00  6.385383e-01  1.394358e+00  3.896052e+00  1.148606e+00  -6.312503e-01  -3.297685e-01  3.052210e+00  1.775035e+00  -3.456431e+00  3.621811e+00  1.608889e+00  -4.424169e+00  6.857358e-01  -1.168064e+00  -5.458883e+00  -1.647788e+00  -3.190389e-01  -2.042236e-01  3.395921e+00  7.555603e-01  -5.445579e-01  -9.331524e-01  2.184334e-02  9.576755e-01  -3.054029e+00  -1.094586e-01  1.287698e+00  -7.029492e-01  -3.382299e+00  -8.614557e-01  3.122914e+00  -1.210615e+00  2.370044e+00  -2.386082e-01  -9.653207e-01  -1.135863e+00  7.027740e-01  -1.362204e+00  3.773541e-01  1.407527e+00  3.216305e+00  -4.605924e+00  -1.130745e+00  3.897895e+00  -7.666859e+00  1.216826e+00  1.483033e+00  1.874668e+00  2.683978e-01  2.503119e-01  -2.998829e+00  6.482088e-01  -2.094400e+00  -2.273143e+00  -2.256047e+00  3.210276e+00  -2.851209e+00  -2.784721e+00  1.980474e+00  1.285187e-01  1.925033e-01  7.103128e-01  -5.580146e-01  -6.232614e+00  -3.117969e+00  3.640186e+00  9.354753e-01  -4.825264e-01  -2.344181e+00  4.411304e-01  1.371547e+00  -1.750275e+00  2.098945e+00  2.718634e+00  -5.232854e-01  -1.304063e+00  -5.071339e+00  3.379683e+00  2.622318e+00  1.781882e-01  -2.085105e+00  -3.081905e+00  -4.904030e+00  -2.644183e+00  6.167547e-01  2.300844e+00  2.550786e+00  -4.765826e-01  2.704096e+00  2.868722e-01  2.900467e+00  2.313124e+00  1.559595e+00  -2.129295e+00  -7.969024e-01  -1.335382e+00  1.518226e+00  4.577028e+00  -1.901769e+00  -2.671800e+00  5.186450e+00  1.326894e+00  2.201880e+00  1.353227e+00  -1.747972e-01  4.056761e+00  1.457161e+00  2.571290e+00  1.138471e+00  -1.235839e+00  -6.996706e-01  5.235171e-01  -2.758163e+00  -6.156932e-01  -8.279456e-01  -1.214701e+00  1.973426e+00  9.844134e-01  -2.163454e+00  -1.184429e-01  3.407103e+00  -1.718582e+00  5.142846e-01  1.402056e+00  1.968038e+00  1.066578e+00  3.311072e+00  1.449672e+00  8.212917e-01  1.758121e+00  2.756942e+00  -5.249103e-01  1.325355e+00  -1.828706e+00  1.058573e+00  3.177296e+00  -2.116094e+00  4.986153e+00  9.401272e-01  -1.676160e+00  3.543344e+00  2.029118e-02  7.972016e-01  -2.154757e+00  1.289618e-01  -1.257403e+00  -2.971309e-01  2.532248e+00  -3.549312e+00  -8.170308e-01  1.510547e+00  -3.691801e+00  3.422539e-01  1.144346e+00  2.964762e+00  -3.613479e-01  -2.471714e+00  1.994855e+00  -1.396554e+00  -3.270270e+00  3.074763e+00  -1.171109e+00  -4.149868e+00  3.840792e-01  -6.322796e+00  1.191055e+00  8.093917e-01  -6.665232e-01  6.267499e-01  2.296556e-01  7.308632e-01  1.234190e+00  -3.221731e+00  3.496558e+00  4.897135e-01  8.169649e+00  -9.220613e-01  1.861767e+00  5.209528e+00  -5.574821e+00  2.422185e+00  3.349801e+00  -7.104110e-01  4.654740e+00  -1.611764e-01  -2.897708e+00  8.527668e-01  -2.019668e-04  -2.184947e+00  1.531998e+00  -1.895281e+00  -1.300086e+00  2.095254e+00  -2.295427e+00  -1.026187e+00  -1.096300e+00  -1.548340e+00  4.596597e+00  1.652387e+00  2.393003e+00  2.452830e+00  2.099579e+00  -6.635754e+00  2.563075e-01  4.530544e+00  3.648469e+00  -5.628233e+00  2.793008e+00  1.118340e+00  7.139865e-01  1.668181e+00  -3.737258e+00  4.509714e-01  -7.041373e+00  -8.443819e-01  -3.434991e-01  -2.119354e+00  5.873446e-01  -6.663851e-02  -1.011994e+01  1.346825e+00  -3.690782e-02  2.794346e+00  -2.454226e+00  9.696154e-01  4.560827e-01  1.634411e+00  -1.893713e+00  -1.630780e+00  6.318370e-01  -2.286099e+00  -5.252138e+00  1.908992e+00  -1.852667e+00  -3.045121e-01  3.243136e+00  3.189018e-01  -3.154856e-01  2.003490e+00  2.851272e-01  1.702091e-01  1.512438e+00  -1.340876e+00  -3.558903e+00  -1.304916e+00  -9.192886e-01  -6.127896e-01  2.873406e-02  1.373889e+00  8.551155e-02  8.186065e-02  3.455245e-01  -2.371809e-01  -9.314507e-01  -3.789588e+00  1.522003e+00  -1.462790e+00  -4.696860e-01  -4.013995e+00  -1.241329e+00  1.078425e+00  1.347785e+00  -4.011137e+00  -3.549817e+00  -4.357675e-01  -2.759452e+00  3.863610e-02  4.954332e+00  1.436851e+00  -1.688738e+00  3.941668e+00  2.109074e+00  -2.989309e+00  1.861265e-01  -5.412281e-01  4.779677e-01  -1.041144e+00  1.264124e+00  -3.004217e-01  1.421812e+00  -1.495798e+00  -3.906319e+00  -5.351093e+00  -1.694217e+00  -2.013507e+00  -1.884221e+00  9.253098e-01  -1.992177e+00  -1.954357e+00  -1.338792e+00  -2.844083e+00  7.654697e-01  1.790589e+00  -3.268994e+00  -5.894985e-01  5.055640e+00  1.728477e+00  8.620307e-01  1.590391e+00  -1.234248e+00  7.489487e+00  -5.960207e+00  2.069280e+00  2.517349e+00  8.541949e-01  -1.011781e+00  -1.609926e+00  1.378127e+00  1.974543e-01  4.258575e-01  -1.995271e+00  -2.407719e+00  1.126043e+00  -1.608737e+00  1.450201e+00  1.439927e+00  2.546780e+00  2.748238e-02  5.123683e-01  1.005068e+01  -6.528141e-01  3.689749e-02  -3.217721e-02  7.595232e-01  5.604998e+00  1.677817e+00  2.619374e+00  1.725618e+00  -1.902122e+00  2.107243e+00  5.103126e+00  1.508462e+00  -2.770277e+00  -3.953617e+00  3.559816e+00  2.291585e+00  4.416738e-01  -9.592485e-01  -9.191774e+00  -8.979356e-01  3.069801e+00  -1.284209e+00  8.380851e+00  -7.976905e-01  3.118008e-01  2.037796e+00  -2.747205e+00  -2.244342e+00  -6.613385e+00  2.797742e-01  4.973257e-01  -4.211477e-01  3.350450e-01  -1.393489e+00  2.245335e+00  -1.139128e+00  -6.571182e-01  -4.975586e-01  -1.810827e-01  9.347521e+00  -9.541831e+00  3.207816e+00  6.340470e-01  -2.280226e+00  -3.664373e+00  2.457057e+00  3.047890e+00  -4.549738e-01  2.100101e+00  1.125645e+00  -5.333633e-01  2.673710e+00  4.607204e-01  3.304747e+00  1.626029e+00  -8.089412e-01  -5.831195e-01  -6.388217e-01  1.745422e+00  -1.042871e+00  1.569761e+00  -2.183212e+00  -4.791096e-01  2.402069e+00  7.409684e+00  3.656082e-01  1.201449e+00  1.641405e-01  4.455251e-01  -1.785117e-01  6.753597e+00  -2.584510e+00  4.741738e-01  1.244601e+01  -2.901759e-01  1.409911e+00  -1.372980e+00  1.298303e+00  -1.315624e+01  -7.888045e-02  1.236997e+00  -3.410870e-01  2.208296e+00  -7.879356e-01  -2.606101e+00  1.099418e+00  -3.197016e-01  -2.454987e+00  -9.818388e-03  -5.881182e-01  -2.410010e+00  6.686842e-01  6.007628e-01  4.303657e-01  9.828121e-01  -1.028984e+00  -4.567491e-01  -1.220354e+00  1.882553e+00  -2.569487e-02  2.245914e-02  -2.697998e+00  1.126957e+00  2.868047e-01  -9.922184e-01  -3.691939e-01  -9.933019e-01  8.673426e+00  2.909879e+00  -1.609121e+00  -1.985596e+00  -2.343401e+00  1.591207e+00  -1.310866e-01  6.006467e-01  1.891910e-01  -2.678103e+00  -2.773810e+00  6.238082e-01  4.223396e+00  -1.434144e+01  6.754926e-01  1.018826e-01  2.328306e-02  2.531063e-01  -8.177914e-03  1.037481e+00  -2.171145e-01  -5.533251e-01  -7.040602e-01  -3.268713e+00  3.306271e+00  2.561131e+00  4.674326e-01  -1.646152e+00  -1.416456e+00  -2.797119e+00  4.083836e-01  6.148244e-01  1.340936e+00  -2.454592e+00  1.155702e+01  -4.542408e+00  -3.299467e+00  -1.330911e+00  -1.716278e+00  -9.540783e+00  2.908573e+00  3.087497e+00  3.357186e+00  3.707541e+00  4.458703e-01  8.018109e-01  1.378154e+00  1.831074e+00  5.396357e-02  -2.220388e+00  7.317136e-01  -2.589920e+00  3.512938e+00  -4.430696e-01  2.270793e+00  3.213474e+00  3.430351e+00  2.736989e+00  -1.861862e+00  -1.047783e+00  -8.411355e-01  -8.412887e+00  1.642159e+00  3.412167e+00  6.933463e-01  -4.505219e+00  6.231242e-01  3.850441e+00  -4.871107e+00  -7.148113e-01  2.302540e+00  -2.627279e+00  -8.780251e-01  -2.862484e+00  5.981476e+00  -2.456644e+00  1.172729e+00  1.874128e-02  -1.719138e+00  -1.568981e+00  1.807705e-01  7.537297e-01  1.298182e+00  2.069070e+00  1.001685e+00  5.409460e+00  -4.251117e+00  2.660928e+00  -1.465013e-01  4.313633e+00  -4.065869e+00  4.411646e+00  1.958974e+00  -6.752148e-01  3.024366e+00  4.191127e+00  -4.124517e+00  4.134289e+00  -6.213173e+00  -1.384252e+00  3.986940e-01  -5.818040e-01  -4.510569e-01  -2.274828e+00  1.900740e+00  -1.806328e+00  5.524152e+00  -8.861085e-01  -3.680256e+00  -3.460240e+00  2.041915e-01  1.572156e+00  -1.740041e+00  -1.326488e+00  -3.059465e+00  3.085557e+00  -7.312219e-01  4.948897e+00  2.108478e+00  -4.187189e+00  -1.774837e+00  1.558306e+00  -1.129045e+00  2.487537e+00  -6.739684e-01  -9.376633e-01  9.178804e-02  -1.056109e+00  8.446122e+00  -8.745172e-01  4.471847e-02  1.243959e+00  1.175235e+00  1.935078e+00  2.206706e+00  -7.890262e-02  -2.852048e+00  8.647193e-01  3.346949e+00  -7.846445e-01  4.893307e+00  -1.567062e+00  -3.902871e-01  5.701459e-01  -4.031483e+00  1.602082e+00  1.358913e+00  -3.680374e+00  3.890036e+00  -3.056493e+00  1.863906e+00  -1.954546e+00  -1.511122e+00  -4.220706e+00  -9.550294e-01  -1.957751e+00  2.920161e-02  2.401581e+00  -3.000685e-01  -1.029168e+00  1.621136e+00  -1.135318e-01  6.871093e+00  -2.090151e+00  1.019459e+00  2.958725e+00  2.288050e-01  -4.608635e+00  4.748575e-01  2.131258e+00  3.608218e+00  8.456318e-01  -4.777961e-01  9.270292e-01  -1.123004e+00  6.002791e+00  3.069058e+00  1.755217e+00  -1.667968e+00  9.078220e-01  -7.596993e-01  8.121809e-01  1.567537e+00  -3.268826e+00  -2.028078e+00  3.875623e+00  -1.070255e+00  3.941601e+00  2.837379e+00  -3.077904e+00  1.156767e+00  8.348211e-02  -2.169972e-01  -1.275182e+00  -7.945436e-01  5.936629e-01  -1.185688e+00  5.179963e-01  -3.717997e-01  8.066365e-01  -1.694089e-01  -1.125422e+00  1.854026e+00  -2.372494e+00  1.082284e+00  -7.510064e-01  3.774899e-01  -3.533533e-01  4.680023e-02  6.169440e-01  9.002898e-02  4.085701e+00  5.830930e-01  4.947038e+00  2.643765e+00  3.923117e+00  2.402302e-02  1.749869e+00  -2.016884e+00  3.997486e+00  2.037024e+00  -1.353567e+00  4.847383e+00  -2.678260e+00  -2.104837e+00  9.469164e-01  -9.883029e-01  -3.339081e+00  -1.465327e+00  3.879772e+00  -1.380683e+00  7.526593e-01  -6.792104e-01  2.078912e+00  -1.462993e-01  -3.957569e+00  7.263492e-01  4.362199e-01  5.397792e-01  4.728232e+00  2.169423e+00  -1.954021e+00  1.958409e+00  1.408136e+00  1.737524e+00  3.711459e-01  -3.318020e-01  1.118982e+00  5.064157e-01  -2.035124e+00  6.372328e-01  -1.292474e+00  -3.923012e+00  3.296130e+00  2.154368e+00  -8.579106e-01  3.132344e+00  -5.026533e+00  8.487283e+00  -5.442933e-02  3.554192e+00  6.129612e-01  1.182055e+00  5.459153e+00  -7.375103e+00  1.906086e-01  -3.366427e+00  -4.390775e-01  6.047830e+00  -5.707880e+00  -3.299077e+00  4.739341e+00  -2.721197e+00  2.006766e+00  1.183756e+00  6.527734e-01  -2.143434e+00  -4.992880e-01  -2.836496e+00  -2.049587e+00  -5.190109e+00  -1.824710e+00  4.338405e+00  3.719849e+00  9.013186e-01  1.063946e+00  2.544073e+00  -2.595119e+00  5.250039e-01  5.440272e+00  3.873987e+00  -1.036227e+00  -6.857608e-01  -1.219156e+00  4.230247e-01  -5.923199e+00  -8.347210e-01  1.927141e+00  6.625134e-01  6.443303e+00  2.829958e+00  4.694364e+00  9.740646e-01  -6.675324e-01  -4.379109e+00  -6.554589e+00  -1.252279e+00  -4.835733e-01  -7.257883e-03  1.258248e-01  -6.330504e-01  -2.495045e-01  -1.813611e+00  4.070053e+00  -1.270908e+00  2.339976e+00  6.876074e+00  -7.186740e+00  -1.063204e+00  -2.271158e+00  5.548454e-02  -5.994327e-01  -1.495384e+00  4.652891e-01  -8.230854e-01  1.005276e+00  -1.641562e+00  -1.389546e+00  1.077525e+00  -2.785995e+00  8.758342e+00  -2.240648e+00  -5.772569e-01  1.113572e+00  -2.278068e+00  6.512117e-01  3.284957e+00  -1.185004e+00  -1.237422e+00  -5.078367e+00  -1.735050e+00  6.719710e+00  7.713080e-01  3.001260e-01  -1.177660e+00  7.010099e-02  -7.953677e-02  6.869216e+00  -1.588027e+00  -1.046687e+00  6.464810e+00  2.121642e+00  2.039943e+00  -2.390084e+00  1.706634e+00  -7.785890e+00  -1.424801e-01  -6.973222e-02  3.813551e+00  6.860426e-02  1.674987e+00  2.544308e-01  -1.554645e+00  2.314878e+00  -2.582393e+00  -2.053625e-01  -2.163370e-02  -3.073807e+00  -2.398303e+00  6.239613e-01  1.316184e+00  -7.271866e-01  2.207340e+00  2.430872e+00  9.193352e-01  3.383995e+00  1.864150e-01  8.910948e-01  -1.160216e-01  -2.556129e+00  -2.358175e+00  -9.439102e-01  8.160930e-01  -9.333747e-01  1.293369e+01  -1.508612e-01  9.047648e-01  1.170304e-01  5.095316e+00  -1.619511e+00  -1.176843e+00  -1.517453e+00  2.764141e+00  -3.623784e+00  -3.130472e-02  -8.404891e-01  5.121284e+00  -7.279763e+00  -8.771671e-01  3.312708e+00  -2.560230e-01  1.638728e+00  -9.948475e-01  -3.121537e+00  -4.709546e-01  -4.168537e-01  -2.015085e+00  1.430766e+00  -2.836473e+00  3.705555e+00  3.009009e-02  -2.484967e+00  -1.050994e+00  2.680335e+00  -2.195805e+00  2.107528e+00  -1.170813e+00  -1.593072e+00  1.176789e+01  -1.453833e+00  -4.567120e-01  -6.589438e-01  2.182709e+00  -1.159535e+00  6.166614e+00  -8.081280e-01  3.631670e+00  -1.432531e+00  -1.491095e+00  3.448435e+00  -3.584167e+00  5.952440e+00  6.944987e+00  9.581087e-01  -2.223974e+00  7.499741e-02  1.940840e+00  1.808126e-01  -8.707188e-01  1.557296e-01  -3.415183e-01  1.503718e+00  -1.751091e+00  2.279452e+00  -3.505565e+00  -4.264789e-01  -1.183494e+00  -8.097299e-01  -8.051393e-01  -2.129163e-01  -1.794287e+00  -1.362505e+00  -7.750403e-01  1.482601e+00  3.309215e-02  9.186765e-01  2.573063e+00  -2.473077e+00  -1.589399e+00  9.300002e-02  1.197435e+00  7.699106e-02  7.338002e-01  -7.297372e-01  -1.626533e+00  2.287215e+00  9.262478e-01  2.503379e+00  -7.063595e-01  1.310488e+00  -2.578478e-01  6.483289e+00  6.084196e-01  1.914919e+00  9.327844e-01  -3.945135e-01  6.456472e+00  -4.021318e+00  -1.659469e+00  -5.802437e+00  -3.310484e+00  2.572842e+00  2.163625e+00  1.665401e+00  2.628978e-01  1.831937e+00  -3.718082e+00  -1.694366e+00  1.675754e-01  6.801894e-02  5.698047e-01  -1.028708e+00  -3.602433e+00  2.124924e+00  2.027726e+00  2.365667e+00  1.119178e+00  2.309211e+00  1.522648e+00  1.985632e-02  2.586083e+00  -2.199552e-01  -1.418072e+00  -2.015333e+00  -6.307735e-01  -5.275917e+00  -8.779708e-01  9.441325e-01  -1.699943e+00  4.349614e+00  -1.784914e+00  -2.855590e+00  8.493788e-01  -4.448602e+00  3.216208e+00  -2.774227e+00  -3.063673e+00  -9.872776e-01  -3.743322e+00  3.411902e+00  -2.961582e+00  6.500415e+00  -1.923287e+00  -3.905123e+00  -2.178578e+00  1.126243e+00  -2.111044e+00  3.702625e+00  3.631670e+00  2.752187e+00  -1.189816e+00  4.191577e-01  -4.305716e+00  -7.805488e-02  6.148437e-01  -1.555750e+00  -3.775067e+00  -6.024292e+00  1.169593e+00  2.608076e+00  6.943202e-02  -2.380519e+00  2.258800e+00  -3.769709e+00  1.192195e+00  -4.394313e-01  -5.736050e-01  -7.050937e-01  6.824976e-01  -1.029387e+00  -9.369675e-01  -1.667166e+00  -1.074738e+00  -8.245422e-01  -5.665451e+00  2.146482e+00  7.828073e-01  -4.006143e+00  9.441381e-01  -4.070389e+00  -8.315553e+00  -4.422591e+00  -2.761459e-01  2.677902e-01  -9.041553e-01  7.143875e-01  1.373575e-01  -9.479795e-01  1.326341e+00  1.659234e+00  1.464131e+00  1.236764e+00  -1.892658e-01  1.689291e-01  3.722443e+00  2.053578e+00  -9.734331e-01  2.075965e+00  -1.052509e+00  -1.131557e-02  -6.725381e-01  -1.507677e+00  3.679600e+00  1.277110e+00  7.113113e-01  1.920165e+00  1.450104e+00  3.545279e-01  2.963773e+00  9.635201e-01  -8.373287e-01  -1.342838e+00  4.343582e+00  -1.896507e-01  -6.997958e-01  -3.364498e+00  1.435416e+00  -6.328149e-01  -1.913160e+00  -6.012438e+00  2.536989e+00  -1.441185e+00  1.112637e+00  1.726807e+00  -4.244045e+00  5.326062e-01  -8.441707e-01  -2.494795e-01  8.882089e+00  -5.819342e-01  -1.290910e+00  9.553295e-02  1.029088e-01  -1.539961e+00  -8.399385e-01  -1.747831e+00  1.003267e+00  -6.968775e-01  -2.637696e+00  3.360561e+00  -1.068952e+00  -6.289803e-01  -2.110642e-02  -2.080771e+00  2.676301e+00  1.334814e-01  -4.038987e-02  9.802192e-02  -6.626478e+00  1.579998e+00  -2.120571e+00  -6.709233e-02  -1.147439e+00  2.436007e+00  7.515756e-01  -8.991866e-01  1.991863e+00  -5.404567e+00  7.723170e-01  2.120742e+00  8.056220e-01  7.659604e+00  -6.357428e-01  2.337643e+00  -1.940024e+00  1.691276e-01  2.518476e-02  -3.683698e-01  2.141669e+00  -2.368155e+00  -1.114684e+00  -8.860412e-01  1.609274e+00  3.723792e-01  -4.769113e-02  -3.887238e-01  -4.826967e-01  -2.336031e+00  5.154488e+00  -1.237205e+00  8.432699e+00  1.842498e+00  -4.315972e-01  -4.915630e+00  1.373821e+00  6.379030e+00  -1.307320e+00  3.087370e+00  -1.137205e+00  1.809517e+00  -5.125769e+00  -1.357421e+00  3.956381e-01  -1.542623e+00  1.210603e+00  1.518008e+00  1.468026e+00  7.537776e-01  4.002374e+00  -3.159704e+00  -2.866691e+00  -7.714916e-01  -1.066173e+00  7.250113e+00  -4.291914e-01  7.794407e-01  -1.663916e+00  9.937490e-01  4.224677e-01  -5.060313e+00  -2.344522e+00  -2.879291e-01  -6.668684e-01  6.317568e-01  7.028881e-01  3.369571e+00  1.492255e+00  2.673200e+00  -2.184003e+00  8.547185e-01  7.804957e+00  -7.607426e+00  2.051488e+00  1.075244e+00  -7.514027e-01  -2.997780e+00  2.569225e+00  2.496752e+00  -3.062096e+00  -2.833031e+00  -1.374943e-01  -1.863463e+00  2.303979e+00  -2.852745e-01  1.026392e+01  -7.158859e-01  -1.410440e+00  -6.540724e-01  -2.472437e-01  -1.174885e+00  3.830718e+00  3.299649e+00  1.205757e+00  1.696539e+00  2.430910e-01  -2.111482e-01  -2.109421e+00  1.068014e+00  -3.563784e-01  3.938082e+00  -4.599042e+00  8.657489e+00  1.800035e+00  1.542966e+00  6.114534e+00  9.313070e-01  1.477311e+00  4.388181e+00  1.156786e-01  -2.721940e+00  -4.818043e-01  2.914669e+00  2.478799e+00  2.478791e-01  9.048630e-01  -2.133412e+00  6.313148e-01  -3.091482e+00  -9.015174e-01  -1.016088e+00  -1.614529e+00  1.259804e+00  -1.533352e-01  3.528129e+00  -5.304426e-01  -3.021746e-01  1.641351e+00  2.249904e-01  1.131387e+00  -1.205612e+00  1.033975e-01  6.482030e-02  1.162622e+00  2.384898e+00  -1.078270e+00  -5.306559e-02  6.491333e-01  2.664338e+00  8.373631e+00  -1.627385e+00  2.623821e+00  -1.774078e+00  1.337477e+00  -1.779082e+00  -1.324918e+00  4.782876e-03  5.878675e-01  2.552261e+00  -5.591851e-01  -1.910153e+00  6.545953e+00  -1.047857e+01  -1.809683e+00  2.435413e+00  -3.124965e+00  -3.628607e+00  -1.727489e+00  -2.590707e+00  -8.982195e-01  -1.130339e+00  4.892626e+00  -1.026268e-02  2.050319e+00  -2.163432e+00  2.327115e-01  1.331072e+00  -1.023976e+00  3.948316e+00  1.134666e+00  1.557005e+00  -1.022606e-01  8.898058e-01  6.328232e+00  -4.079254e-01  -8.155541e-01  -1.436550e+00  -1.404162e-01  -1.192604e+00  6.572835e-01  -8.304742e-01  6.099462e+00  3.553921e+00  4.006007e+00  -2.280954e+00  2.137736e+00  -1.781749e+00  3.418954e+00  -7.436801e-01  5.612162e-01  -4.987121e-01  9.711514e-01  -3.595385e+00  3.732281e+00  2.237450e+00  -9.262247e-02  4.598474e+00  -2.378375e+00  1.906009e+00  2.153022e+00  -4.035429e-01  -5.065051e-01  4.061675e+00  -3.390336e+00  -2.230325e+00  6.137502e-01  2.871569e+00  -1.087060e+00  -3.371069e+00  1.866799e-01  -4.116714e+00  -1.204053e+00  -1.425850e+00  6.529364e+00  -9.169207e-01  -1.927586e-01  -2.191732e+00  1.703443e+00  1.765471e+00  1.073110e+00  2.220580e+00  1.906437e+00  2.468475e+00  1.834780e+00  1.584647e+00  -1.094723e+00  5.090772e+00  9.151084e-03  1.111509e+00  -5.359473e-01  2.407068e+00  3.249338e+00  1.060332e+00  4.025761e+00  1.260681e+00  -5.875836e+00  2.143262e+00  2.568628e-01  -4.730532e-01  2.548963e+00  1.453906e+00  -2.024111e+00  3.697164e-01  3.279443e+00  -5.206668e-01  -4.783767e-01  -9.732569e-01  5.946143e-01  -2.386584e-01  3.552998e+00  4.391663e+00  6.614560e-01  3.724427e+00  -3.306202e+00  2.142110e+00  -1.950544e-01  1.339596e+00  4.508569e+00  -2.695042e+00  -3.541663e+00  -3.598194e+00  1.719915e+00  -6.418282e-01  -2.686079e+00  1.377625e+00  2.760518e+00  -3.012020e+00  2.919160e+00  -3.238694e+00  1.791062e+00  -1.877610e-01  -1.542651e+00  -4.563100e-01  2.709563e-01  -3.309838e+00  2.429023e+00  1.635024e+00  3.504615e+00  5.592988e-01  -1.361689e-01  -9.751878e-01  -7.487599e-01  4.690732e+00  -1.187953e+00  1.421072e-01  -1.577796e-01  -2.268345e+00  -5.403606e+00  -6.290301e+00  3.254924e+00  -5.200436e-01  -1.761330e-01  -2.221755e+00  -4.764870e-01  -1.912223e+00  1.262204e+00  9.505826e-01  4.351511e-01  -1.675411e-01  -3.262509e-01  -3.589330e+00  3.223698e+00  9.914485e-01  3.872251e+00  -3.146494e-01  6.165871e-01  -1.686479e+00  9.079557e-03  -5.574769e-01  3.572889e-01  4.942912e-01  3.559281e+00  -6.528677e-01  2.790581e+00  3.188372e-01  4.895670e-01  -1.169078e+00  -3.558606e+00  1.458399e+00  1.095279e+00  -4.097445e-02  2.900644e+00  1.132062e+00  4.377436e+00  1.832979e+00  -2.222725e+00  1.932353e+00  1.432898e+00  -8.255733e-01  -3.987773e-01  1.966595e+00  -3.262483e+00  -2.875881e+00  3.065569e-01  2.367570e-01  -1.577948e+00  -2.704242e+00  1.243245e+00  1.590463e-01  -1.795213e+00  -3.518146e+00  1.927058e+00  -1.530614e+00  -3.253330e+00  -2.319881e+00  2.905083e+00  1.700536e+00  -2.177259e+00  2.450957e+00  2.772499e-01  4.302455e+00  1.680796e+00  1.189248e+00  -3.862782e+00  2.457252e+00  2.141215e+00  1.443831e+00  -3.785778e+00  3.703879e+00  1.611275e+00  -3.529728e-01  7.984989e-01  -1.404563e+00  -3.622849e+00  4.137991e+00  -3.962982e+00  -1.391289e+00  1.623966e+00  -2.113771e+00  -2.173484e+00  -2.439906e+00  2.766596e+00  -9.105340e-01  2.395439e+00  -1.409544e+00  -4.698124e+00  -2.645811e+00  4.223029e+00  3.777878e+00  -1.147409e+00  -1.335309e+00  -8.461506e-01  1.134379e+00  2.107199e+00  -1.108014e+00  -2.381339e+00  9.178418e-01  -6.549766e+00  -9.506116e-01  2.032238e+00  2.197913e+00  -1.404372e+00  2.945463e+00  7.946724e-01  -5.741981e+00  1.012517e+00  -3.670356e+00  -2.141712e+00  -3.129988e+00  -1.474686e-01  -2.830173e+00  7.665718e-01  -6.303931e-01  -1.595191e+00  1.189225e+00  1.553821e+00  5.847729e-01  -3.386421e-02  -2.071177e+00  2.476446e-01  2.232285e+00  -2.966873e-01  -1.101099e+00  -3.976913e-01  -1.196661e+00  7.493837e-01  -4.735641e+00  4.496408e+00  -2.978339e+00  -4.137728e+00  -2.505091e+00  -2.708947e+00  4.387548e-01  -1.071710e+00  -6.754367e-01  -2.699513e+00  3.521809e-02  -9.874374e-01  -1.136631e+00  -4.159754e-01  2.352219e+00  1.852211e+00  3.095783e+00  2.919053e-01  5.229775e+00  1.551645e+00  -5.071480e-01  1.459342e+00  -7.646018e+00  -1.920598e+00  -6.876880e-01  -1.428618e+00  -2.034124e+00  -3.973752e-02  1.651456e+00  2.351831e+00  -1.029499e+00  -1.162884e+00  -5.142733e-01  1.864844e+00  -3.200497e+00  -2.357942e+00  -2.400487e-01  3.481839e-01  -2.185292e+00  -5.057699e+00  8.742765e+00  6.677895e-01  -2.074301e+00  -2.687421e+00  3.577722e+00  6.896892e-01  3.323521e-01  1.340006e+00  5.520475e+00  -8.383427e-01  -1.675632e+00  -1.674095e-01  2.298539e+00  -9.582673e+00  5.104392e-01  -4.406870e-01  -2.520731e+00  3.989290e+00  -1.970883e+00  -1.918714e+00  4.208418e+00  -6.105917e-01  3.101118e+00  -4.474296e+00  -7.933007e+00  -3.974312e+00  7.880415e-01  -1.149419e-01  3.822338e-02  -3.263829e-01  -8.031824e+00  1.625520e+00  -1.534629e+00  -8.969924e+00  -2.963611e-01  -7.107568e-01  -5.227003e-01  1.249868e+00  8.736423e+00  1.682607e-01  3.580764e+00  -2.388628e+00  -5.991337e-01  -1.389353e+00  3.404439e+00  -2.785387e+00  -1.772631e-01  -2.611566e-01  1.506834e+00  5.443221e-01  4.011692e+00  4.903336e-01  2.728969e-01  -6.829270e-01  -9.686997e-01  1.130331e+00  -1.948080e+00  -2.353146e+00  -5.398191e-01  -1.142403e+00  -2.389949e+00  -7.235444e-01  6.394370e-01  1.507869e+00  2.301363e+00  -2.493946e+00  -7.957696e-01  -8.957907e+00  -1.095914e+00  -3.102579e+00  -4.242518e+00  -1.212423e+00  3.022135e+00  -7.054816e-01  -2.406707e+00  -1.203374e-01  4.835883e-01  -3.939253e+00  2.859646e+00  -4.575817e+00  1.167262e+01  -6.149340e-01  -1.037807e-01  -7.173332e-01  -7.434245e-01  1.080954e+00  8.287383e-02  -2.181205e+00  1.452062e+00  -1.801477e+00  1.718008e+00  2.070009e+00  2.077652e+00  2.956902e+00  -1.507987e+00  -5.467402e-01  1.667747e+00  1.004816e+00  1.636978e+00  -1.075273e+00  -8.192967e-01  -7.819672e+00  -5.820768e-01  -2.164183e+00  2.661372e-01  2.487787e+00  -1.054471e+01  9.094957e-01  -9.507564e-01  2.831314e+00  2.705341e+00  1.593811e+00  -3.842269e+00  -2.515178e+00  1.135734e+00  -2.204442e+00  -3.614264e+00  -1.061906e+00  -1.104959e+00  1.481520e+00  1.704638e+00  4.761003e-01  2.010768e+00  -2.039288e+00  2.082426e+00  1.957027e-01  2.402236e+00  1.104321e+01  -1.396357e+01  -7.715508e-01  -1.448313e+00  -1.090623e+00  -3.648269e+00  -1.176131e-01  -1.277806e+00  1.643833e+00  9.244068e-01  -2.551299e+00  2.815873e-01  -1.163437e+00  2.609739e+00  3.266308e+00  -8.801107e-01  2.061429e+00  -2.746266e-01  -1.729356e+00  2.348848e+00  -4.384582e-02  -2.087943e-01  6.888061e-01  2.062073e+00  -1.072490e+00  6.613953e+00  2.562463e-01  -8.449791e-01  7.555295e-01  -5.268958e-02  -1.936913e+00  8.974871e+00  1.265245e-01  1.478686e+00  1.005383e+01  6.132129e-01  1.345708e+00  -1.079397e+00  -2.662870e-01  -1.510094e+01  3.461232e-01  2.542474e-01  -7.034344e-01  9.502959e-01  -1.278919e+00  1.818655e-01  -2.649997e+00  -1.851294e+00  9.620217e-01  8.619022e-01  1.385137e+00  5.530774e-01  2.496073e+00  -1.203806e+00  -7.673515e-01  -9.078164e-01  -1.788195e+00  -2.657331e+00  -1.407504e+00  2.202561e+00  7.785188e-02  -5.775073e-01  2.117784e-01  -8.000570e-01  9.549822e-01  -1.770446e+00  -1.085050e-01  4.864012e-01  1.054102e+01  4.243371e+00  -3.820328e-01  -5.721505e-01  -1.462627e+00  -5.643593e-01  2.086091e+00  -4.520339e+00  -2.242619e-01  4.090181e-02  -3.295721e+00  3.468681e-01  2.663209e+00  -1.187639e+01  -1.879790e-01  -1.413362e-01  1.127229e+00  3.299859e+00  3.740082e+00  2.093508e+00  4.450634e-01  3.022530e+00  -1.241514e+00  4.927138e-01  2.472641e+00  1.088464e+00  6.628601e-01  -1.121947e+00  1.878189e+00  -3.678806e-02  -3.038956e+00  2.046754e+00  -3.269011e+00  -3.429092e-01  1.282432e+01  5.116263e-01  -1.442361e+00  -6.837966e-01  -1.131059e-01  -7.389849e+00  -4.413310e+00  1.689717e-01  -3.243504e+00  7.438233e+00  3.234848e+00  1.531927e+00  2.637327e+00  2.499835e+00  -1.475722e+00  -3.120872e+00  -6.261564e-01  -2.553886e+00  1.721212e+00  -7.060742e-01  6.211439e-01  1.683138e+00  1.048091e+00  1.118653e+00  6.818213e-01  1.785660e+00  5.102489e+00  -5.837921e+00  -5.793539e-01  5.372561e+00  -3.209248e+00  -2.132924e+00  1.160774e+00  -1.087298e+00  -1.315852e+00  -4.491109e+00  -2.823567e-01  4.261598e+00  -3.620846e+00  -1.640661e-01  4.173489e+00  -3.700014e-01  -2.282761e+00  -3.100244e+00  2.032683e+00  -1.279218e+00  -4.170439e+00  7.645820e-01  3.182972e+00  -2.343003e+00  2.793874e-01  5.644430e+00  -9.373670e-01  -1.747366e+00  -3.361819e+00  -4.355383e+00  -1.046001e+00  5.385018e+00  -2.318502e+00  3.008512e+00  1.078996e+01  -8.942557e-02  2.051577e+00  4.463388e-01  -7.993948e-01  -6.147073e+00  2.340888e+00  4.961448e-01  1.059371e+00  3.511963e-01  1.636464e+00  2.529798e-02  8.709761e-01  -8.603110e-01  -1.542311e+00  -5.204034e-01  1.623446e+00  1.326892e-01  2.137053e+00  3.723319e-01  8.896192e-01  3.545148e+00  3.418856e+00  -1.114453e+00  6.961884e+00  -1.756608e+00  5.575727e-01  -4.326354e-01  -1.515041e+00  -2.209296e+00  9.443001e-01  -2.505026e-01  1.217317e+00  -2.116568e+00  6.308374e+00  -1.204123e+00  5.369930e+00  2.312294e+00  -6.390862e-01  4.814736e-01  1.580027e+00  2.455846e+00  -1.690126e+00  -1.733569e+00  -1.275161e+00  -1.027701e+00  3.645569e+00  -7.580377e+00  6.944039e-01  8.754510e-03  3.291558e-01  3.809095e-01  7.498118e-01  -1.608925e+00  -2.558159e-02  -1.843193e+00  9.531791e-01  -1.996758e+00  7.552015e-01  2.622957e+00  -5.152828e-01  -1.786871e+00  -3.577080e+00  1.802313e+00  1.745286e+00  -2.923548e+00  1.425148e+00  4.538278e-01  7.273494e+00  -1.194559e+00  -2.585646e+00  1.434009e+00  -7.199676e-01  -7.799436e+00  1.100083e+00  -9.206917e-01  -1.304353e+00  7.083596e+00  3.676625e-01  -2.532931e+00  1.881159e+00  -4.288932e+00  9.842014e-01  -1.036821e+00  3.580809e+00  -2.392416e+00  -2.044564e+00  3.823636e-02  1.611063e+00  7.256557e-01  1.415735e+00  -1.512943e+00  -3.171841e+00  -1.445017e+00  1.031138e+01  -1.654456e+01  1.272850e+00  3.322693e-01  -7.123357e-01  -9.426732e-01  1.622758e+00  -1.373585e+00  1.080448e+00  1.721948e+00  6.373221e-01  2.469838e+00  1.573805e+00  1.090467e+00  3.415556e+00  3.197957e-01  1.173382e+00  9.583018e-01  -8.216345e-01  -7.267965e-02  1.396722e+00  -2.773303e+00  1.272698e-01  -1.632109e+00  -3.221597e+00  7.433753e+00  1.109502e+00  -5.174114e-01  -2.914450e+00  2.556030e+00  3.541164e-01  8.017655e+00  -6.467474e-02  1.382835e+00  8.548785e+00  1.106554e-01  -2.671724e+00  -1.007484e+00  3.000984e+00  -8.993464e+00  -1.540609e+00  -3.787933e-01  -1.105551e+00  2.888129e-01  -1.187960e-01  2.740501e+00  -8.928590e-03  3.316958e-01  -1.801922e+00  1.693612e+00  -8.977554e-01  -1.799302e-01  2.220125e+00  1.085204e+00  1.229650e+00  -3.062113e+00  -2.397857e+00  -1.744705e+00  -4.608667e-01  6.930514e-01  -1.006589e+00  2.944604e-01  -2.876867e+00  -1.670937e+00  -2.060198e+00  -2.821029e+00  -3.085657e+00  -1.241825e+00  1.283029e+01  1.853875e+00  4.755542e-01  -1.391609e+00  2.241832e+00  -2.110253e+00  1.635520e+00  -8.446346e-01  -2.851054e+00  -2.586219e+00  7.869750e-01  1.932337e+00  8.203369e+00  -1.048703e+01  3.549728e-03  -1.869788e+00  2.743601e-01  1.695257e+00  -5.903562e-01  -2.930892e-02  1.235124e+00  1.703048e+00  -2.066710e+00  1.928559e+00  -2.793002e+00  1.324241e+00  3.993399e-01  -3.341539e-01  7.876977e-01  6.075817e-01  -2.316338e-01  1.197484e+00  -3.664680e-01  -1.025487e+00  1.371047e+01  1.895431e+00  5.177674e-01  -1.033600e+00  5.569114e-01  -4.073231e-01  1.569425e+00  -4.617705e-01  7.100251e+00  -3.787120e-01  -1.213924e+00  2.190432e+00  4.040531e-01  -2.144207e+00  4.326221e+00  -2.379054e+00  -6.394221e-01  2.129404e+00  1.514079e+00  2.918016e+00  3.676476e+00  1.264942e+00  -1.954894e+00  4.771876e-01  1.921695e+00  -8.368174e-01  2.162461e+00  1.608711e+00  1.242180e+00  -1.786166e-01  -1.088311e+00  2.505606e-01  -7.577726e+00  2.781585e-01  2.210311e+00  1.899142e+00  3.972350e+00  1.325876e+00  2.277561e+00  -1.558224e+00  1.889586e+00  1.176524e-01  9.179732e-01  -1.125080e+00  -2.040278e+00  -7.523314e-01  1.414808e+00  -2.029584e+00  1.304182e-01  3.791234e+00  -1.185632e+00  -2.682748e-01  3.814547e-01  3.219127e+00  9.457829e-01  3.225561e+00  1.290997e+00  4.912707e+00  3.493872e+00  -1.274035e+00  -6.481476e-01  -1.349372e+00  -5.967589e+00  1.146469e+00  -1.414847e+00  -3.082581e+00  -2.765506e+00  -4.473211e-01  -1.291616e+00  5.834720e-01  -8.042013e-01  -2.462553e-01  -2.709905e+00  -2.084358e-01  -1.074343e+00  4.518567e-01  -2.603578e+00  2.016032e+00  1.460328e+00  1.220539e+00  -3.520273e-01  1.382027e+00  -6.236457e-01  -8.150726e-02  1.987243e+00  4.279424e-01  -2.622453e+00  -2.274593e+00  1.413421e+00  3.961147e-01  -3.377967e+00  4.112186e+00  -1.514013e+00  -2.763105e+00  8.983680e-01  -8.078044e+00  -2.993476e-01  -2.141335e+00  -6.554884e+00  2.424579e+00  1.844359e+00  2.231710e+00  1.583080e+00  6.069479e+00  1.012959e+00  -1.234465e+00  1.392464e+00  -4.133197e+00  -2.081733e+00  5.119004e+00  2.503616e+00  1.607545e+00  1.414384e+00  -7.147658e-01  -6.051397e+00  -1.788564e+00  -6.888429e-01  1.251222e+00  3.973552e-01  -6.465813e+00  -1.526575e+00  -5.064564e-02  1.446508e+00  1.007763e+00  6.718366e-01  -2.671423e-02  -7.954142e-01  -3.117976e-01  1.953662e+00  -1.053693e+00  2.397876e+00  2.984219e+00  3.196159e+00  2.131021e+00  1.752101e+00  -9.806316e-02  -5.275548e+00  6.323708e-01  -4.253045e-01  -1.282826e+00  1.918527e+00  3.189172e+00  -3.609940e+00  -3.648171e+00  2.509678e+00  3.544304e+00  8.832455e-01  2.007411e-02  -4.461584e+00  -2.364401e+00  -3.227974e-01  -1.216939e+00  1.925968e+00  -7.618420e-01  9.383614e-01  -5.379499e-01  2.044265e+00  -4.186108e+00  -2.074888e+00  2.686506e+00  4.523285e+00  -1.538027e+00  2.939569e-01  1.064436e+00  -2.064476e+00  -7.263904e-02  2.783055e+00  3.255870e+00  3.513476e+00  1.505006e+00  -2.865993e-01  -8.162500e-01  -1.275239e+00  6.736156e-01  6.679385e-01  -5.771546e+00  1.166393e+00  -1.997292e+00  -2.215051e+00  7.444618e-01  2.739282e+00  -2.270494e+00  -1.516801e+00  2.991411e-01  3.181074e+00  5.205708e-01  -4.833537e+00  -1.007663e+00  3.136944e-01  -1.906707e+00  1.602982e+00  -2.193413e+00  2.860460e+00  1.932778e-01  -1.114138e+00  -5.871437e-01  -9.830462e-01  -1.137885e+00  8.840930e-01  4.124660e+00  8.462432e-01  2.199851e+00  1.607729e+00  1.171621e+00  -5.177711e-01  -2.248938e+00  -1.063819e+00  -9.224905e-01  -9.640743e-01  -2.528905e+00  -4.831289e-01  -1.681710e-01  -9.297224e-01  1.281485e-01  1.032801e+01  -2.454299e+00  5.714494e-01  1.493101e+00  2.226215e+00  -3.681217e+00  -2.445624e-01  2.730174e+00  -5.226398e-01  3.183076e+00  -2.678077e+00  2.877337e+00  4.089806e+00  -2.347603e+00  -9.265036e-01  6.092086e-01  -1.924397e-01  -5.018425e+00  -2.739077e+00  6.672356e-01  1.389277e+00  6.421437e-01  1.748439e+00  -9.351180e-01  -1.770697e+00  -1.803070e+00  -1.083836e+00  4.821055e+00  2.560643e+00  6.027342e+00  -1.493547e+00  2.355563e+00  1.681275e+00  1.794645e+00  8.841953e-01  -4.191316e-02  -7.032065e-01  2.717827e+00  2.354889e+00  1.940994e+00  1.159403e-01  2.450829e-01  -1.231782e+00  2.807195e+00  -2.282801e+00  -1.355368e+00  -4.112127e-01  -5.967795e+00  -1.642735e+00  -1.235323e+00  1.585163e+00  4.290067e+00  -1.723736e+00  -2.058001e+00  -1.650010e+00  2.735642e+00  2.614102e+00  1.309120e+00  7.180073e-01  6.125718e-01  1.313425e-02  8.119271e-01  4.002978e-02  2.561978e-01  -6.675498e-01  -4.093675e-01  2.313365e+00  2.563982e+00  3.968305e+00  -4.246923e+00  -3.263437e+00  4.450582e-02  1.480675e+00  -2.234768e-01  2.075601e+00  -3.822541e+00  -3.978665e-02  1.452989e+00  -7.482313e-01  1.388696e+00  -2.849393e+00  2.119885e+00  1.942557e+00  1.968217e+00  -7.532967e-01  1.671156e+00  6.586226e-01  1.550962e+00  -5.207774e-01  1.270947e+00  1.256307e+00  1.308409e+00  -1.955776e+00  4.386678e+00  3.894792e-01  -1.925479e-01  -1.948155e+00  -6.361580e-01  3.229331e+00  4.727838e+00  1.703117e+00  3.205137e+00  4.881837e+00  -3.035541e-01  -5.255790e+00  -2.254756e+00  3.611643e+00  -3.444699e+00  -1.453425e+00  -8.944206e-01  4.234102e+00  -3.076474e+00  -4.887699e-02  -2.546846e-02  -3.432788e+00  -3.547805e+00  -7.204189e-01  2.698961e+00  -4.233416e-01  1.780136e+00  -4.116189e-02  2.457506e+00  -9.589939e-02  -1.001136e+00  4.041719e+00  1.357446e-01  4.428360e-01  2.673499e+00  2.242100e-01  -2.972381e+00  -2.902829e+00  -4.085339e+00  -2.171394e+00  -1.976266e+00  1.538341e+00  -5.556536e-01  4.369004e+00  -3.963437e+00  -7.008509e-01  -5.862010e-02  2.464803e+00  -4.136703e-01  -2.335934e+00  8.435117e-01  -1.850484e+00  5.944396e-01  -6.939799e-01  -1.038121e+00  2.598390e+00  -3.272918e+00  -8.579709e-01  -7.917547e-01  1.397353e+00  -1.354152e+00  -1.577631e+00  1.987392e+00  -9.851865e-01  2.389622e+00  -1.193326e+00  -1.154913e+00  -2.283692e+00  -8.686068e-01  3.844275e+00  1.635980e+00  -3.397132e+00  5.190566e-01  1.622894e+00  -4.378737e+00  3.474991e+00  2.695687e+00  4.928427e+00  1.333089e+00  5.683345e-01  -3.627813e+00  2.282152e+00  -3.705157e+00  1.966702e+00  3.365216e+00  -8.944847e-01  3.209750e+00  3.781146e+00  1.792796e+00  -2.194940e+00  -4.522165e+00  2.238670e+00  -3.408288e+00  -1.021565e+00  -4.336999e+00  -9.702184e-01  -8.452051e-01  3.988558e+00  3.156795e+00  -4.895469e-01  -1.629446e+00  -2.394405e+00  3.989661e+00  6.481058e+00  -4.489233e+00  -7.530367e-01  -4.976633e-01  -6.515355e+00  1.485204e-02  -3.234954e+00  3.983204e+00  1.709271e+00  2.763096e+00  2.605904e+00  -2.132631e+00  1.701074e-01  1.222371e+00  5.552727e+00  1.839678e-01  -1.349820e+00  -3.935271e+00  -5.917379e-02  6.321725e-01  5.942208e-01  2.563668e+00  -2.352831e+00  1.414453e+00  -1.899232e+00  5.287100e+00  -1.507365e+00  3.800487e+00  1.310076e+00  -3.004966e+00  1.161308e+00  1.970438e+00  1.618625e+00  6.814354e-01  -4.842851e-01  1.972125e+00  -1.810680e+00  -3.043515e-01  -3.730194e-01  -6.061043e+00  1.948689e-01  1.981716e+00  3.889458e-01  6.578445e-01  4.864275e-03  -1.819038e+00  1.595003e+00  1.189218e+00  -1.697580e+00  6.683155e-01  1.629172e+00  1.473319e+00  1.451475e+00  -1.557253e+00  -5.904112e-01  3.055629e+00  -2.034031e-01  -8.018268e-01  -3.395916e+00  -8.269286e-01  -3.860898e+00  5.953512e-01  9.184239e-01  -2.105668e+00  -5.650749e-01  -5.579771e-01  -9.355870e-01  -3.734169e+00  3.618968e+00  -4.623453e+00  -5.632778e+00  -3.197472e+00  1.960556e-02  -6.019104e-01  2.690376e+00  7.932601e-03  -1.511422e+00  -3.536396e-01  1.379415e+00  1.052915e+00  -8.334103e-02  -7.270796e+00  2.944704e+00  1.090499e+00  1.858777e-01  -3.744306e-01  -8.927650e-01  -1.396899e+00  -9.375983e-01  -1.913792e+00  1.754857e+00  -2.655823e+00  1.928141e+00  -1.587940e+00  -2.792087e+00  -2.377123e+00  8.333277e-01  -2.017122e+00  1.302530e+00  -6.084498e-01  -2.790903e+00  1.798663e+00  4.145805e+00  1.079785e+00  2.561504e+00  2.174027e-01  -2.061714e+00  1.015154e+01  1.504998e+00  6.268359e-01  1.810110e+00  -4.209587e+00  2.755331e+00  2.255085e+00  -4.778723e-01  -1.210294e+00  -5.828269e-01  3.252076e+00  -1.072213e-01  1.551255e+00  1.269171e+00  2.590816e+00  5.434361e-01  -1.660847e-01  1.464595e-01  -2.285831e+00  -1.420123e+00  -5.675262e+00  -8.777103e+00  1.156578e+01  9.405375e-01  1.017342e+00  1.392295e+00  8.979508e-01  -9.233321e-01  1.658234e+00  -5.255517e-01  2.180117e-01  6.820073e-01  1.708787e-01  -9.347565e-01  -3.361575e+00  -4.281510e+00  -9.878102e-01  -2.794329e+00  -1.115376e+00  -1.447737e-02  7.958118e-01  1.087379e+00  5.373984e-01  -8.809361e-01  -1.262924e-01  9.173359e-01  -7.089215e+00  -1.532859e+00  -1.688602e+00  -8.655331e-01  -1.852678e+00  -3.629348e-01  -9.157737e+00  3.688631e+00  1.754955e+00  -7.404374e+00  1.317056e+00  1.826864e+00  7.738749e-03  -1.498523e+00  1.025062e+01  -2.616094e-01  4.897147e-01  -1.280385e+00  1.807271e+00  -1.355430e+00  -3.228248e+00  -2.157738e+00  1.704930e-01  -2.039971e+00  -1.385527e+00  6.810807e-01  -2.294962e+00  -2.211985e-02  3.745806e-01  1.200418e+00  6.667644e-02  3.053882e+00  -3.378833e-01  1.889648e+00  -2.696929e+00  -2.687011e-01  -1.088976e+00  1.102201e+00  1.134834e+00  1.939666e+00  2.279828e+00  -2.225392e+00  -2.927753e+00  -1.241266e+01  1.292063e+00  1.571734e-01  -2.369620e+00  1.999553e+00  -3.425267e-01  1.461074e+00  -1.788862e+00  3.521339e+00  8.238294e-02  8.123716e-01  -2.383783e+00  -6.181257e+00  1.081269e+01  -6.974823e-01  5.862380e-01  -2.041715e+00  -4.381931e-01  -1.595738e+00  -1.749637e+00  -2.652660e+00  -2.003329e+00  4.087416e+00  9.562441e-01  -3.787589e+00  -2.731425e+00  -8.325724e-01  1.846350e+00  1.169047e+00  3.790852e+00  5.121208e+00  1.300102e-01  5.318875e-01  -2.049790e+00  -1.294401e+01  -1.319132e+00  3.638811e+00  -1.376196e+00  4.235080e-01  2.447279e+00  6.687297e-01  -1.019118e+00  6.154003e+00  -3.438267e-01  -2.175179e+00  3.074146e+00  4.078747e-01  4.202226e+00  5.581133e+00  9.056438e-01  -1.388895e+00  -4.125434e+00  8.837277e-01  -1.528059e+00  2.458803e-01  4.050367e-01  -5.647417e-01  2.468045e+00  1.134358e+00  8.817260e-01  -7.020241e-01  2.265585e+00  -1.283903e+00  2.676694e+00  -1.750119e+00  2.772348e-01  6.555961e+00  -2.328751e-01  1.603938e+00  -6.813715e-01  -1.849107e-01  9.503336e-01  4.973644e-01  1.925613e+00  1.347784e-01  1.030094e+00  -2.529199e+00  2.064498e+00  3.123607e+00  -2.624887e+00  -3.581188e+00  2.327315e+00  -1.101707e+00  3.397876e+00  1.693832e+00  8.351088e-01  -9.392633e-01  5.717772e+00  -5.521032e-01  2.289186e+00  -4.629727e-01  -1.622142e+00  5.411497e+00  -3.112334e+00  8.007149e-01  4.651517e-01  -4.347433e+00  -1.621309e+00  -5.773241e-01  8.962749e-01  1.051386e+00  -2.078394e+00  1.837202e+00  1.190973e+00  1.122040e+00  -1.628613e+00  7.755864e-01  -6.032333e-01  -1.977608e+00  3.621677e-01  1.772606e-01  2.399335e+00  -6.898093e-01  2.748223e-01  1.877798e+00  -3.221233e+00  2.284063e+00  5.326027e+00  2.034038e-01  3.710709e-01  -1.666220e+00  -1.183186e+00  4.846777e-01  -7.563962e-01  -6.998793e-01  5.152170e+00  1.378028e+00  -3.546042e+00  4.569452e-01  -9.961385e+00  1.159680e+00  -1.131365e+00  2.595606e+00  -1.153146e+00  1.628314e+00  5.071975e+00  -1.802972e+00  7.050776e+00  -8.425785e-01  -7.906257e-01  2.850858e-01  2.065620e-01  -2.103053e+00  3.619327e+00  -1.509190e+00  3.798812e-01  -3.763722e-01  -1.349414e+00  -7.317362e+00  -3.650528e+00  -2.309927e+00  1.662802e+00  -3.324652e+00  -8.123107e+00  6.288776e-01  2.743632e+00  8.444662e-01  -1.520666e+00  2.257759e+00  -1.998147e+00  1.067497e+00  3.696633e+00  -8.915947e-01  -2.831557e+00  -7.161479e-01  -3.889138e-01  3.020757e-01  -1.107731e+01  -8.571803e-01  -2.813440e-01  -9.184332e-01  6.690913e+00  3.522533e+00  -2.856843e-01  -3.655566e+00  1.270040e-01  1.140714e+00  -2.367905e+00  1.788750e+00  6.297930e-01  -9.740781e-01  4.247334e+00  -3.189649e+00  1.397689e-01  6.390132e-01  -1.555402e+00  8.385009e-02  2.321135e+00  9.402691e+00  -9.960821e+00  6.266776e-01  1.537772e+00  1.712850e+00  -1.347405e+00  -1.382239e+00  -7.449770e-01  2.713406e+00  7.501104e-02  9.688772e-01  -1.710334e+00  5.470400e-01  -4.051335e-02  1.953926e+00  1.682297e+00  -5.102904e-01  -1.154329e+00  6.413617e-01  2.148987e+00  2.353006e+00  -2.618474e+00  4.517447e-01  -4.354588e-01  -4.409952e-01  1.040508e+01  -9.290814e-01  -1.286436e+00  2.097950e+00  -2.961148e+00  5.247328e-01  9.499609e+00  -4.598036e-02  4.743552e+00  1.057717e+01  1.231282e+00  -7.149565e-02  -1.015062e+00  4.976090e-01  -9.872849e+00  -1.593290e+00  -1.884753e+00  -1.180932e+00  9.879112e-01  2.249156e+00  2.626821e+00  -1.563614e-01  1.179835e+00  -2.421139e+00  4.136952e+00  -1.797062e+00  1.838268e+00  -1.761057e+00  -3.315840e-01  5.920417e-01  -5.831041e-01  8.705821e-01  -2.996292e+00  1.158417e+00  -6.612949e-01  -6.379777e-01  -1.611198e+00  1.082983e+00  -1.679272e+00  -1.086106e+00  -2.377577e-01  3.141545e-01  1.110518e+00  1.189426e+01  3.603715e-01  1.471052e+00  2.816678e+00  3.669422e-01  1.135215e+00  1.407712e+00  1.189628e-01  -1.630648e-01  -3.479015e-01  2.156805e+00  1.693630e+00  7.473949e+00  -1.299004e+01  1.826610e+00  1.870034e+00  1.627124e+00  -4.586502e-01  -4.344478e-01  1.279086e+00  -1.686993e+00  -1.871877e-01  1.079328e+00  6.630697e-02  -4.140611e+00  -1.052038e+00  -1.210718e+00  -1.585517e+00  1.179894e+00  -1.657656e+00  -9.283624e-01  -6.820855e-01  7.084661e-01  9.527827e-01  1.300941e+01  8.808306e-01  -1.521466e+00  9.773466e-02  2.729502e-01  6.418644e+00  -2.526367e+00  1.034174e+00  -2.984318e+00  -2.857522e+00  -3.682362e+00  -4.312485e+00  -6.889048e-01  -3.865298e+00  -3.852315e+00  2.769003e+00  -7.830834e-01  -2.401715e+00  -1.157404e+00  -3.065643e-01  5.188525e-01  -1.003953e+00  4.376185e-01  -1.103926e+00  1.189776e+00  -3.261275e+00  -3.157094e+00  6.858594e+00  1.412824e+00  -2.857800e+00  -4.873753e+00  1.393281e+00  1.724646e+00  -5.767268e-01  1.124317e+00  2.320349e+00  1.327512e+00  -2.111682e+00  1.083819e+00  -1.963036e+00  -6.170645e-01  -2.081888e+00  1.773631e+00  -3.138698e+00  1.406795e+00  7.506838e-02  -6.842964e-01  2.075696e+00  -4.958995e+00  -5.466079e+00  -1.562702e+00  -5.185989e+00  -2.097587e+00  -1.381653e+00  -1.015416e+00  1.880179e+00  2.023674e+00  -1.559866e+00  2.695406e-01  1.139981e+00  -3.911443e+00  6.567262e-01  2.840068e+00  -1.086671e+00  -1.964803e-01  1.354028e+00  5.141121e-01  1.583331e+00  -1.524647e-01  -2.983920e-01  -1.404392e-01  2.245629e-01  2.018273e-01  2.811255e+00  3.732077e+00  -1.562312e+00  4.197262e+00  -1.626583e+00  5.695239e-01  1.748753e+00  3.557080e-01  4.608108e-01  -2.450332e+00  -1.695226e+00  7.017247e-01  -2.532462e+00  -4.283087e-01  3.209057e+00  -1.950060e-01  2.403283e-01  2.145526e+00  1.867624e+00  1.338814e+00  -2.369778e+00  -4.669766e+00  1.463301e+00  -3.002619e+00  6.857704e-01  -2.161799e+00  -2.983881e+00  7.270524e-01  -2.703568e+00  6.560926e+00  -2.506452e+00  -1.172218e+00  5.686364e-01  -4.071195e+00  6.846390e+00  -3.779100e-01  -3.498251e+00  3.430992e+00  2.340026e+00  2.459382e-01  -1.795675e+00  3.930449e+00  -2.417149e+00  7.629353e-02  -1.562886e-01  5.218963e+00  1.721268e+00  -1.133699e+00  -1.305974e+00  2.474857e+00  -2.817594e+00  9.072907e-02  3.726583e+00  -1.131162e+00  -6.345437e+00  -3.387900e+00  3.404049e+00  -4.739382e-01  -2.194811e+00  -2.639684e-03  -1.029947e+00  -1.145172e+00  1.089107e+00  5.900329e+00  3.108323e+00  4.742967e+00  1.450613e+00  2.044021e+00  2.590733e+00  3.087051e+00  -2.670764e+00  -1.389810e+00  -2.738510e+00  6.173879e-01  -8.095360e-01  3.775045e+00  -1.337453e-01  1.605567e-01  1.945467e+00  -2.033767e+00  1.215559e+00  4.461286e+00  -2.104536e-01  1.999406e+00  5.396069e-01  -1.114050e+00  -2.439534e+00  -1.646675e+00  -2.607191e+00  1.213855e-01  1.785600e+00  3.046901e+00  -3.201969e-01  1.430234e-01  1.812644e+00  2.698059e+00  3.119840e-01  2.203362e-01  -5.827570e-01  -2.666999e+00  1.509715e-01  -1.119655e+00  9.037217e-02  3.117090e+00  3.634696e+00  1.422994e-01  5.000820e-01  1.788140e+00  4.777229e+00  -3.128863e-01  -3.080438e+00  4.249581e-01  1.249718e+00  3.183808e+00  -3.930617e+00  3.135611e+00  1.113149e+00  -2.253613e+00  6.289122e-02  -3.764905e-01  -6.221132e+00  1.028785e+00  4.358655e-01  -2.396980e+00  2.422884e+00  -1.009375e+00  5.000748e-02  4.535707e-01  -3.907445e-01  -2.141577e+00  1.791479e+00  3.026536e+00  7.185743e+00  1.907488e-01  -7.479443e-01  -5.510136e-01  4.365242e-01  -1.350404e+00  -1.559689e+00  -2.806770e+00  4.129440e+00  -2.420320e+00  1.071595e+00  2.085893e+00  1.271484e+00  -4.329805e-01  1.201236e+00  3.034462e+00  7.197484e-02  4.091697e+00  4.646786e-02  5.599770e+00  4.750929e-01  1.792657e+00  -7.075394e-01  1.852971e+00  2.783226e+00  -2.173417e-01  2.961955e+00  7.111803e-01  8.410116e-01  2.333900e+00  -3.406860e+00  3.730053e+00  3.466466e+00  -2.727218e+00  -4.473990e+00  4.003828e-01  -2.192097e+00  -6.533536e+00  -4.024377e+00  3.531664e+00  8.501550e-02  3.079400e+00  -3.114008e+00  1.068803e+00  -1.799384e+00  -1.645527e+00  -1.282603e+00  -2.188477e+00  -3.296581e+00  -9.860373e-01  -2.868738e-01  2.646355e+00  8.460430e-01  1.712509e+00  -1.508371e+00  -3.356032e+00  6.036282e+00  -1.102171e+00  -5.329393e-01  -3.674458e+00  -1.632506e+00  1.427946e+00  1.461806e+00  -1.012894e+00  -9.605771e-01  7.019571e-01  1.557557e-01  -4.754001e+00  1.458158e+00  -1.308461e-01  -1.046758e+00  3.645932e-01  7.426490e-01  -6.889084e-01  2.008868e+00  -1.031858e+00  -1.661254e+00  -3.789205e+00  3.040983e+00  -7.293246e-01  -8.545963e-01  2.147052e+00  8.750613e-01  5.782356e-01  3.644713e+00  -1.647549e+00  -1.757704e+00  4.283230e+00  -1.337035e+00  -1.349239e+00  -1.457688e+00  -1.697121e+00  -5.318979e+00  2.018510e+00  -1.706094e+00  3.251862e+00  -3.202380e+00  4.589037e-02  -4.386015e-01  -2.275144e+00  7.131705e-01  -3.125570e-01  -2.725044e+00  2.905459e+00  -1.212843e+00  2.089401e+00  1.544276e-01  -3.147638e+00  -1.576019e+00  -1.897494e+00  1.854339e+00  -2.686763e+00  -1.102048e+00  1.002631e+00  1.230269e+00  -4.611911e+00  2.928247e+00  3.163281e+00  7.815517e-01  -6.661610e-01  4.114344e+00  4.196406e-02  -2.204701e-01  4.131505e+00  3.601010e+00  1.884964e+00  -1.291104e+00  1.919046e+00  -4.928073e-01  9.274042e-01  -4.605181e-01  -3.083261e+00  2.979571e+00  -2.668249e+00  7.312249e-01  3.131153e+00  -3.064631e+00  -1.601432e+00  -4.133903e-01  1.068940e+00  1.819278e+00  1.458252e+00  -2.005162e+00  1.232233e+00  -1.091146e+00  -5.684719e+00  1.336676e+00  -1.799674e+00  -1.955863e+00  -3.844571e+00  -2.961829e+00  1.931910e+00  -1.858645e+00  2.293349e+00  1.093001e+00  8.679482e-01  -2.792991e-01  1.869012e-01  1.680164e+00  1.903825e+00  2.170254e+00  -1.683480e+00  3.665592e+00  -1.415915e+00  -1.094681e+00  4.285506e+00  3.242792e-01  3.153062e-01  -1.987523e+00  -1.789378e+00  2.565807e-01  -1.823815e+00  -1.760649e+00  -1.747297e+00  -7.635818e-01  -6.616691e-01  -9.057374e-01  -2.629584e+00  -1.292286e+00  -3.886475e+00  -2.974007e-01  4.344186e-01  2.705260e+00  -1.762699e+00  5.790255e+00  -2.987190e-01  2.299160e+00  1.581739e+00  -7.619618e+00  -6.521368e-01  3.018194e+00  -1.705777e+00  4.830122e+00  -5.066763e-02  6.793957e-01  -1.089923e+00  -6.225123e-01  -1.255995e+00  -2.334048e+00  -3.186052e+00  1.531796e+00  3.657254e+00  -1.844826e+00  -3.622629e-01  -3.494195e+00  -6.763206e+00  9.225715e+00  -1.958778e+00  -1.488050e+00  1.522946e+00  4.479239e+00  -6.043631e-01  2.768496e-01  -1.767499e-01  -2.062360e+00  1.681826e+00  -6.644974e-01  -4.797153e+00  -2.777554e-01  -5.426362e+00  -1.260081e+00  -8.494388e-02  2.387269e+00  2.240683e+00  -1.984075e+00  -1.065671e+00  5.628008e+00  -8.231588e-01  1.435684e+00  1.579032e-01  -5.414921e+00  -1.770974e+00  -1.790085e-01  8.386627e-01  2.121014e-01  -1.260614e+00  -9.920050e+00  1.663879e+00  -3.016729e+00  -4.581009e+00  2.080308e-01  -2.405846e+00  1.706711e+00  -1.408444e+00  5.688197e+00  6.210992e-01  