<?xml version="1.0"?>
<MethodSetup Method="MLP::MLPBNN">
  <GeneralInfo>
    <Info name="TMVA Release" value="4.2.1 [262657]"/>
    <Info name="ROOT Release" value="6.26/02 [399874]"/>
    <Info name="Creator" value="s1412595"/>
    <Info name="Date" value="Sun May  1 14:44:14 2022"/>
    <Info name="Host" value="Linux root-ubuntu-2004-1 5.4.0-73-generic #82-Ubuntu SMP Wed Apr 14 17:39:42 UTC 2021 x86_64 x86_64 x86_64 GNU/Linux"/>
    <Info name="Dir" value="/home/s1412595/Desktop/MSc/TMVA/runs/run_fs2_hp1"/>
    <Info name="Training events" value="120000"/>
    <Info name="TrainingTime" value="6.58020314e+02"/>
    <Info name="AnalysisType" value="Classification"/>
  </GeneralInfo>
  <Options>
    <Option name="NCycles" modified="Yes">60</Option>
    <Option name="HiddenLayers" modified="Yes">N+5</Option>
    <Option name="NeuronType" modified="Yes">tanh</Option>
    <Option name="RandomSeed" modified="No">1</Option>
    <Option name="EstimatorType" modified="No">CE</Option>
    <Option name="NeuronInputType" modified="No">sum</Option>
    <Option name="V" modified="Yes">False</Option>
    <Option name="VerbosityLevel" modified="No">Default</Option>
    <Option name="VarTransform" modified="Yes">N</Option>
    <Option name="H" modified="Yes">True</Option>
    <Option name="CreateMVAPdfs" modified="No">False</Option>
    <Option name="IgnoreNegWeightsInTraining" modified="No">False</Option>
    <Option name="TrainingMethod" modified="Yes">BFGS</Option>
    <Option name="LearningRate" modified="No">2.000000e-02</Option>
    <Option name="DecayRate" modified="No">1.000000e-02</Option>
    <Option name="TestRate" modified="Yes">5</Option>
    <Option name="EpochMonitoring" modified="No">False</Option>
    <Option name="Sampling" modified="No">1.000000e+00</Option>
    <Option name="SamplingEpoch" modified="No">1.000000e+00</Option>
    <Option name="SamplingImportance" modified="No">1.000000e+00</Option>
    <Option name="SamplingTraining" modified="No">True</Option>
    <Option name="SamplingTesting" modified="No">False</Option>
    <Option name="ResetStep" modified="No">50</Option>
    <Option name="Tau" modified="No">3.000000e+00</Option>
    <Option name="BPMode" modified="No">sequential</Option>
    <Option name="BatchSize" modified="No">-1</Option>
    <Option name="ConvergenceImprove" modified="No">1.000000e-30</Option>
    <Option name="ConvergenceTests" modified="No">-1</Option>
    <Option name="UseRegulator" modified="Yes">True</Option>
    <Option name="UpdateLimit" modified="No">10000</Option>
    <Option name="CalculateErrors" modified="No">False</Option>
    <Option name="WeightRange" modified="No">1.000000e+00</Option>
  </Options>
  <Variables NVar="14">
    <Variable VarIndex="0" Expression="Xicst_PT" Label="Xicst_PT" Title="Xicst_PT" Unit="" Internal="Xicst_PT" Type="F" Min="2.32683643e+03" Max="4.92342539e+04"/>
    <Variable VarIndex="1" Expression="Kbach_ProbNNk" Label="Kbach_ProbNNk" Title="Kbach_ProbNNk" Unit="" Internal="Kbach_ProbNNk" Type="F" Min="5.10000885e-01" Max="9.99803305e-01"/>
    <Variable VarIndex="2" Expression="Kbach_ProbNNp" Label="Kbach_ProbNNp" Title="Kbach_ProbNNp" Unit="" Internal="Kbach_ProbNNp" Type="F" Min="3.09430192e-07" Max="9.99382198e-01"/>
    <Variable VarIndex="3" Expression="Kbach_PT" Label="Kbach_PT" Title="Kbach_PT" Unit="" Internal="Kbach_PT" Type="F" Min="4.03433502e+02" Max="1.47210791e+04"/>
    <Variable VarIndex="4" Expression="Lc_PT" Label="Lc_PT" Title="Lc_PT" Unit="" Internal="Lc_PT" Type="F" Min="2.52761890e+03" Max="4.00415273e+04"/>
    <Variable VarIndex="5" Expression="pibach_PT" Label="pibach_PT" Title="pibach_PT" Unit="" Internal="pibach_PT" Type="F" Min="2.00006271e+02" Max="3.32139111e+03"/>
    <Variable VarIndex="6" Expression="pibach_ProbNNpi" Label="pibach_ProbNNpi" Title="pibach_ProbNNpi" Unit="" Internal="pibach_ProbNNpi" Type="F" Min="1.00149095e-01" Max="9.99639690e-01"/>
    <Variable VarIndex="7" Expression="pibach_ProbNNp" Label="pibach_ProbNNp" Title="pibach_ProbNNp" Unit="" Internal="pibach_ProbNNp" Type="F" Min="4.44849604e-07" Max="9.56227481e-01"/>
    <Variable VarIndex="8" Expression="Xicst_IPCHI2_OWNPV" Label="Xicst_IPCHI2_OWNPV" Title="Xicst_IPCHI2_OWNPV" Unit="" Internal="Xicst_IPCHI2_OWNPV" Type="F" Min="1.37118786e-05" Max="2.63996133e+04"/>
    <Variable VarIndex="9" Expression="Lc_IPCHI2_OWNPV" Label="Lc_IPCHI2_OWNPV" Title="Lc_IPCHI2_OWNPV" Unit="" Internal="Lc_IPCHI2_OWNPV" Type="F" Min="1.04185083e-05" Max="8.99999237e+00"/>
    <Variable VarIndex="10" Expression="Xicst_FDCHI2_OWNPV" Label="Xicst_FDCHI2_OWNPV" Title="Xicst_FDCHI2_OWNPV" Unit="" Internal="Xicst_FDCHI2_OWNPV" Type="F" Min="1.69576111e-03" Max="2.45688275e+06"/>
    <Variable VarIndex="11" Expression="Xicst_ENDVERTEX_CHI2" Label="Xicst_ENDVERTEX_CHI2" Title="Xicst_ENDVERTEX_CHI2" Unit="" Internal="Xicst_ENDVERTEX_CHI2" Type="F" Min="1.72308029e-03" Max="5.99373703e+01"/>
    <Variable VarIndex="12" Expression="pibach_IPCHI2_OWNPV" Label="pibach_IPCHI2_OWNPV" Title="pibach_IPCHI2_OWNPV" Unit="" Internal="pibach_IPCHI2_OWNPV" Type="F" Min="8.96283200e-06" Max="8.99967575e+00"/>
    <Variable VarIndex="13" Expression="Kbach_IPCHI2_OWNPV" Label="Kbach_IPCHI2_OWNPV" Title="Kbach_IPCHI2_OWNPV" Unit="" Internal="Kbach_IPCHI2_OWNPV" Type="F" Min="1.30371254e-05" Max="8.99991798e+00"/>
  </Variables>
  <Spectators NSpec="1">
    <Spectator SpecIndex="0" Expression="Xicst_M" Label="Xicst_M" Title="Xicst Mass" Unit="F" Internal="Xicst_M" Type="F" Min="2.92377637e+03" Max="3.90779272e+03"/>
  </Spectators>
  <Classes NClass="2">
    <Class Name="Signal" Index="0"/>
    <Class Name="Background" Index="1"/>
  </Classes>
  <Transformations NTransformations="1">
    <Transform Name="Normalize">
      <Selection>
        <Input NInputs="14">
          <Input Type="Variable" Label="Xicst_PT" Expression="Xicst_PT"/>
          <Input Type="Variable" Label="Kbach_ProbNNk" Expression="Kbach_ProbNNk"/>
          <Input Type="Variable" Label="Kbach_ProbNNp" Expression="Kbach_ProbNNp"/>
          <Input Type="Variable" Label="Kbach_PT" Expression="Kbach_PT"/>
          <Input Type="Variable" Label="Lc_PT" Expression="Lc_PT"/>
          <Input Type="Variable" Label="pibach_PT" Expression="pibach_PT"/>
          <Input Type="Variable" Label="pibach_ProbNNpi" Expression="pibach_ProbNNpi"/>
          <Input Type="Variable" Label="pibach_ProbNNp" Expression="pibach_ProbNNp"/>
          <Input Type="Variable" Label="Xicst_IPCHI2_OWNPV" Expression="Xicst_IPCHI2_OWNPV"/>
          <Input Type="Variable" Label="Lc_IPCHI2_OWNPV" Expression="Lc_IPCHI2_OWNPV"/>
          <Input Type="Variable" Label="Xicst_FDCHI2_OWNPV" Expression="Xicst_FDCHI2_OWNPV"/>
          <Input Type="Variable" Label="Xicst_ENDVERTEX_CHI2" Expression="Xicst_ENDVERTEX_CHI2"/>
          <Input Type="Variable" Label="pibach_IPCHI2_OWNPV" Expression="pibach_IPCHI2_OWNPV"/>
          <Input Type="Variable" Label="Kbach_IPCHI2_OWNPV" Expression="Kbach_IPCHI2_OWNPV"/>
        </Input>
        <Output NOutputs="14">
          <Output Type="Variable" Label="Xicst_PT" Expression="Xicst_PT"/>
          <Output Type="Variable" Label="Kbach_ProbNNk" Expression="Kbach_ProbNNk"/>
          <Output Type="Variable" Label="Kbach_ProbNNp" Expression="Kbach_ProbNNp"/>
          <Output Type="Variable" Label="Kbach_PT" Expression="Kbach_PT"/>
          <Output Type="Variable" Label="Lc_PT" Expression="Lc_PT"/>
          <Output Type="Variable" Label="pibach_PT" Expression="pibach_PT"/>
          <Output Type="Variable" Label="pibach_ProbNNpi" Expression="pibach_ProbNNpi"/>
          <Output Type="Variable" Label="pibach_ProbNNp" Expression="pibach_ProbNNp"/>
          <Output Type="Variable" Label="Xicst_IPCHI2_OWNPV" Expression="Xicst_IPCHI2_OWNPV"/>
          <Output Type="Variable" Label="Lc_IPCHI2_OWNPV" Expression="Lc_IPCHI2_OWNPV"/>
          <Output Type="Variable" Label="Xicst_FDCHI2_OWNPV" Expression="Xicst_FDCHI2_OWNPV"/>
          <Output Type="Variable" Label="Xicst_ENDVERTEX_CHI2" Expression="Xicst_ENDVERTEX_CHI2"/>
          <Output Type="Variable" Label="pibach_IPCHI2_OWNPV" Expression="pibach_IPCHI2_OWNPV"/>
          <Output Type="Variable" Label="Kbach_IPCHI2_OWNPV" Expression="Kbach_IPCHI2_OWNPV"/>
        </Output>
      </Selection>
      <Class ClassIndex="0">
        <Ranges>
          <Range Index="0" Min="3.3086733398437500e+03" Max="4.9234253906250000e+04"/>
          <Range Index="1" Min="5.1000088453292847e-01" Max="9.9980330467224121e-01"/>
          <Range Index="2" Min="3.0943019169171748e-07" Max="9.9368906021118164e-01"/>
          <Range Index="3" Min="4.0367718505859375e+02" Max="1.0992476562500000e+04"/>
          <Range Index="4" Min="2.5326340332031250e+03" Max="4.0041527343750000e+04"/>
          <Range Index="5" Min="2.0000627136230469e+02" Max="3.3213911132812500e+03"/>
          <Range Index="6" Min="1.0023375600576401e-01" Max="9.9963968992233276e-01"/>
          <Range Index="7" Min="4.4484960426416364e-07" Max="9.5622748136520386e-01"/>
          <Range Index="8" Min="1.3711878636968322e-05" Max="5.0999150390625000e+03"/>
          <Range Index="9" Min="1.0418508281873073e-05" Max="8.9987192153930664e+00"/>
          <Range Index="10" Min="3.1707067973911762e-03" Max="4.9887138671875000e+03"/>
          <Range Index="11" Min="1.7230802914127707e-03" Max="5.7858459472656250e+01"/>
          <Range Index="12" Min="2.5563955205143429e-05" Max="8.9967641830444336e+00"/>
          <Range Index="13" Min="2.9180013370933011e-05" Max="8.9999179840087891e+00"/>
        </Ranges>
      </Class>
      <Class ClassIndex="1">
        <Ranges>
          <Range Index="0" Min="2.3268364257812500e+03" Max="3.6822753906250000e+04"/>
          <Range Index="1" Min="5.1001447439193726e-01" Max="9.9980223178863525e-01"/>
          <Range Index="2" Min="3.1790315802027180e-07" Max="9.9938219785690308e-01"/>
          <Range Index="3" Min="4.0343350219726562e+02" Max="1.4721079101562500e+04"/>
          <Range Index="4" Min="2.5276188964843750e+03" Max="3.0730033203125000e+04"/>
          <Range Index="5" Min="2.0001296997070312e+02" Max="3.2623430175781250e+03"/>
          <Range Index="6" Min="1.0014909505844116e-01" Max="9.9933230876922607e-01"/>
          <Range Index="7" Min="2.0500285700109089e-06" Max="8.9968401193618774e-01"/>
          <Range Index="8" Min="2.6691805032896809e-05" Max="2.6399613281250000e+04"/>
          <Range Index="9" Min="2.8562481020344421e-05" Max="8.9999923706054688e+00"/>
          <Range Index="10" Min="1.6957611078396440e-03" Max="2.4568827500000000e+06"/>
          <Range Index="11" Min="4.3928395025432110e-03" Max="5.9937370300292969e+01"/>
          <Range Index="12" Min="8.9628319983603433e-06" Max="8.9996757507324219e+00"/>
          <Range Index="13" Min="1.3037125427217688e-05" Max="8.9995861053466797e+00"/>
        </Ranges>
      </Class>
      <Class ClassIndex="2">
        <Ranges>
          <Range Index="0" Min="2.3268364257812500e+03" Max="4.9234253906250000e+04"/>
          <Range Index="1" Min="5.1000088453292847e-01" Max="9.9980330467224121e-01"/>
          <Range Index="2" Min="3.0943019169171748e-07" Max="9.9938219785690308e-01"/>
          <Range Index="3" Min="4.0343350219726562e+02" Max="1.4721079101562500e+04"/>
          <Range Index="4" Min="2.5276188964843750e+03" Max="4.0041527343750000e+04"/>
          <Range Index="5" Min="2.0000627136230469e+02" Max="3.3213911132812500e+03"/>
          <Range Index="6" Min="1.0014909505844116e-01" Max="9.9963968992233276e-01"/>
          <Range Index="7" Min="4.4484960426416364e-07" Max="9.5622748136520386e-01"/>
          <Range Index="8" Min="1.3711878636968322e-05" Max="2.6399613281250000e+04"/>
          <Range Index="9" Min="1.0418508281873073e-05" Max="8.9999923706054688e+00"/>
          <Range Index="10" Min="1.6957611078396440e-03" Max="2.4568827500000000e+06"/>
          <Range Index="11" Min="1.7230802914127707e-03" Max="5.9937370300292969e+01"/>
          <Range Index="12" Min="8.9628319983603433e-06" Max="8.9996757507324219e+00"/>
          <Range Index="13" Min="1.3037125427217688e-05" Max="8.9999179840087891e+00"/>
        </Ranges>
      </Class>
    </Transform>
  </Transformations>
  <MVAPdfs/>
  <Weights>
    <Layout NLayers="3">
      <Layer Index="0" NNeurons="15">
        <Neuron NSynapses="19">
          -7.1690100784299848e-01 1.9088016870185189e+00 1.1731436960970627e+00 2.0835929681927570e+00 -2.4696683808296966e+00 -2.6011941947007484e+00 -4.9690047098579687e-01 2.2595647917451096e+00 -1.3114210809875653e+00 -1.3508448235404764e+00 -1.9266805862368015e+00 -4.2833015790309598e-01 -1.4027936493873223e+00 -5.9447308640765584e-01 -1.5633337326125896e+00 9.8987094290471200e-01 -5.9611571487262427e-02 2.2279506712402828e+00 2.1814053978187725e-01 
        </Neuron>
        <Neuron NSynapses="19">
          1.4544228859480941e+00 -1.0357112495480392e+00 -6.9467829944169623e-01 2.9231552796857609e-02 1.1258295223275403e+00 -3.3719145979572757e-01 3.4991790328344535e-01 1.0139339649586878e+00 -9.4993706142588907e-01 -1.4459587723321217e+00 2.9592452921538853e-01 7.7024591861655523e-01 1.8660475783088701e+00 -6.0739153900948273e-01 -8.7952629139545802e-01 -1.2549227245509384e-01 2.6650644732804509e-02 -1.0963911573202345e+00 1.5390153247596012e+00 
        </Neuron>
        <Neuron NSynapses="19">
          -1.0095332152654672e+00 1.3651767301268407e+00 1.0851488201283765e+00 1.1469360935122170e+00 1.0879460124612832e+00 1.9817841806055650e-01 -1.0073514372142027e+00 -1.1602711865774480e+00 6.6663172445383778e-01 -1.6580381453746956e-01 1.2621509135546989e+00 1.2433042384467363e+00 1.1858934474400564e+00 1.2969745432859057e+00 2.4855587696392789e-02 1.2482761438111047e+00 -2.3163884924723992e+00 -8.0315524847411268e-01 -1.1322606928275794e+00 
        </Neuron>
        <Neuron NSynapses="19">
          -2.2188738063100923e+00 1.7841792905592917e+00 1.0293108459367277e+00 -1.1987884068577319e+00 -2.7969237494346921e-01 -2.4964165210416329e+00 8.0107393544209138e-01 2.2071382049736004e+00 -2.9146014562016326e-01 -2.5500010095555381e-01 -1.4564072289579517e+00 7.2959217544522736e-01 -1.0228921537667939e+00 -2.3043668656571778e-01 -2.6316167012478444e+00 1.1363044339787745e+00 1.1780286275240768e+00 1.8075936243146158e+00 -1.9909831553058477e-01 
        </Neuron>
        <Neuron NSynapses="19">
          -2.2695122913652823e+00 -2.0391105520163428e+00 1.2935260681794334e+00 9.1704906783597051e-01 1.4249343168991746e+00 1.6030050085645680e+00 1.2882358054428185e+00 -5.1165763330401537e-01 -7.2858002336123229e-01 -5.3935613698865126e-01 8.1707288207794271e-01 -1.1452816005939932e+00 -1.7692523683815107e+00 -1.9657214574941733e+00 -5.6094497618564598e-01 2.1835432006791261e-01 1.8741770762042085e+00 -1.0989734145575749e+00 -7.5097015060335337e-01 
        </Neuron>
        <Neuron NSynapses="19">
          1.2246231128300034e+00 -8.8899089210622628e-01 -1.1970362286437148e+00 -1.0856785196424721e+00 -4.6524315018770379e-01 -7.6522912365799955e-01 -1.3468598786438577e+00 1.0270678338853207e+00 1.7849472131782445e+00 -1.4830133584743619e+00 1.2849036996067045e+00 -9.6733226172291353e-01 -9.9015370266598546e-01 -1.5204170546149554e-01 -7.2983730321630289e-02 -1.4295754232328426e+00 3.1724444341433222e-01 8.5813047100311712e-01 5.5235770350893387e-01 
        </Neuron>
        <Neuron NSynapses="19">
          -1.3570924372809470e+00 1.5337703493516612e+00 7.5128627142037427e-02 -4.2880591615740754e-01 1.1321454372145088e+00 -4.6933438962801693e-01 -1.5153914487881301e+00 -1.4462665907446431e-01 -5.4368511867427993e-01 1.7119576947112327e+00 8.0209870731725053e-01 5.3757436907258080e-02 -2.1143460184672527e-02 -3.3969134126667222e-01 -2.3259236816753561e+00 5.9875929464852051e-01 6.1892828523731225e-01 -1.5339134922949795e+00 4.8517151604780118e-01 
        </Neuron>
        <Neuron NSynapses="19">
          -1.7424263733323704e+00 3.7910102061572981e-01 1.5479983852757460e+00 1.6058840733082660e+00 -2.3695449406603331e+00 -9.1197911952448729e-01 2.1116278789952743e+00 1.9970501104823368e+00 2.8659398421443238e-01 -1.6246587921563340e+00 -6.1074443993429184e-01 -1.4706561699060225e+00 1.2740707770595794e+00 1.3027326216926529e+00 -6.1553495118192514e-01 7.9122540387945611e-02 2.1618951683474386e-01 -8.0996362754440687e-01 7.8153290423807509e-01 
        </Neuron>
        <Neuron NSynapses="19">
          1.3828281748839086e+00 -2.6207246305730086e-01 -2.4774477990543139e-01 8.9570445462294712e-01 9.1213529782005254e-02 2.0840867178616707e+00 1.0036241046543093e+00 -9.7276318956800789e-01 1.6966931780125558e+00 2.5910168727998201e-01 1.2041406936846596e-01 4.7855059002516537e-01 6.9673547907404354e-01 -4.3897910362285458e-01 -5.5625076049475342e-01 1.5564346894886538e+00 -1.2263207416174531e+00 -2.8683940142531578e-02 1.7971661062677238e+00 
        </Neuron>
        <Neuron NSynapses="19">
          7.3548548930683921e-01 -1.3335796397837554e-01 1.5082268987646688e+00 1.9321138409548329e+00 -2.0193670805483053e+00 2.4821639169683950e-02 4.1975761913719917e-01 6.6400701513657923e-01 -1.5397778806091100e+00 -1.5516577479154421e+00 8.6179139117717252e-01 1.7284270426628829e+00 -1.6817519689378140e+00 3.9293439095100857e-01 2.1468054506935608e-01 4.3941774206173284e-01 7.1555547901210359e-01 -1.8175572525644173e-03 -3.2664380434677437e-01 
        </Neuron>
        <Neuron NSynapses="19">
          -1.3791583086884658e+00 1.3449279848916822e+00 1.9724313802264077e+00 1.6981774872058697e+00 -6.1736756210199228e-01 7.3682137748155752e-01 -1.8873319240068771e+00 1.6130272276385296e+00 6.3147580371993373e-01 -1.8901278246398037e+00 -1.0683760172995842e+00 2.0221679613365443e-01 -1.9884318485369082e-01 -1.8231469137586893e+00 1.5903915887197366e+00 1.3377666077063368e+00 -8.7655869696526234e-01 4.2817810481805724e-01 1.8472455493806639e+00 
        </Neuron>
        <Neuron NSynapses="19">
          7.7090392978054512e-01 9.3685063288809511e-01 1.4473722601585257e-01 -1.3719434063997462e+00 -1.7270473286192534e+00 7.2294927119516594e-01 1.3472634297380790e+00 1.1940206311735513e+00 4.1647249754768784e-01 1.5544701597609376e+00 -1.8280274719353276e+00 -1.4440620227528904e+00 -3.3632368632203163e-01 -1.1550140364419150e+00 6.3734286273912155e-01 2.1063010539993625e+00 -1.1797901637773336e+00 1.1468077253514157e+00 4.4314002686721102e-02 
        </Neuron>
        <Neuron NSynapses="19">
          -1.3273077182756707e+00 -1.2388213468946856e-01 8.8609848036993111e-01 5.4699825160359716e-01 3.0591791904362786e-01 5.6053009945855645e-02 1.1910446766621676e+00 -1.3831310488308168e+00 9.9332930568829114e-01 -2.4191514228833133e-01 -1.3234619003318842e+00 -1.4192846047876280e+00 -1.9815334467610586e+00 4.8322152196455159e-01 -2.2248333958122821e-01 -1.1132365911365421e+00 -1.6321431192148059e+00 9.7481362882737663e-02 -8.2396725349080691e-01 
        </Neuron>
        <Neuron NSynapses="19">
          -1.9107179268372056e+00 1.1664645251624410e+00 -5.5066283444529107e-01 2.7537915496258053e-01 -1.2423044835503623e+00 8.7295783489839796e-02 1.7892654325887920e+00 1.4422848784855127e+00 -7.1079859951912883e-01 -1.6326709352643376e+00 -1.0776000466238864e+00 -9.4847232198725406e-01 -1.5925981186663096e+00 1.1020158111249335e-01 -5.2823768401893359e-02 1.6607563075436329e+00 -1.9152642101765890e-01 5.0936366237030839e-01 -4.1605870044674920e-01 
        </Neuron>
        <Neuron NSynapses="19">
          -1.5981087637551756e+00 9.5871005197204462e-01 8.4096456738483261e-01 -1.4527525008625295e+00 -1.5602312968668372e-01 -6.6169167812400997e-01 1.1272101941104866e+00 -7.0275804357382954e-02 -6.1115591574916694e-01 2.0948864111709081e-01 1.8291501430453569e+00 1.1198055184176197e+00 1.2955628564832857e+00 -4.2732747409687127e-01 1.7839638425400969e-01 -7.8692259622363381e-01 -1.1485660149249972e+00 -1.0980128811823266e+00 -1.9726820356549502e+00 
        </Neuron>
      </Layer>
      <Layer Index="1" NNeurons="20">
        <Neuron NSynapses="1">
          3.2857320724813738e-01 
        </Neuron>
        <Neuron NSynapses="1">
          6.7229342531938130e-01 
        </Neuron>
        <Neuron NSynapses="1">
          1.3977855569337456e+00 
        </Neuron>
        <Neuron NSynapses="1">
          -1.5697290530155397e+00 
        </Neuron>
        <Neuron NSynapses="1">
          7.0871668661342535e-01 
        </Neuron>
        <Neuron NSynapses="1">
          -2.7981160088543602e+00 
        </Neuron>
        <Neuron NSynapses="1">
          1.6927731192608028e-01 
        </Neuron>
        <Neuron NSynapses="1">
          -6.9686859893208530e-01 
        </Neuron>
        <Neuron NSynapses="1">
          -2.0369634667825670e-01 
        </Neuron>
        <Neuron NSynapses="1">
          -2.8681809221738730e-01 
        </Neuron>
        <Neuron NSynapses="1">
          -1.5035094740445354e+00 
        </Neuron>
        <Neuron NSynapses="1">
          2.3384122941965449e-01 
        </Neuron>
        <Neuron NSynapses="1">
          -2.8012744199415587e-02 
        </Neuron>
        <Neuron NSynapses="1">
          -1.6041010501112585e+00 
        </Neuron>
        <Neuron NSynapses="1">
          -8.3636076622567679e-01 
        </Neuron>
        <Neuron NSynapses="1">
          -1.5996841350085647e+00 
        </Neuron>
        <Neuron NSynapses="1">
          -1.9767598728265823e-01 
        </Neuron>
        <Neuron NSynapses="1">
          1.2537104837904367e+00 
        </Neuron>
        <Neuron NSynapses="1">
          -4.2323898476354188e-01 
        </Neuron>
        <Neuron NSynapses="1">
          4.3139462777642035e-01 
        </Neuron>
      </Layer>
      <Layer Index="2" NNeurons="1">
        <Neuron NSynapses="0"/>
      </Layer>
    </Layout>
    <InverseHessian NElements="93025" NRows="305" NCols="305">
      <Row Index="0">
        2.9490464879187630e+03 -1.9416987031826642e+02 -8.3829731713391084e+01 -8.2742992954733836e+01 -8.5062475537764840e+01 -2.8814669956865742e+00 -3.2598307409729068e+02 -2.3971302638031946e+02 7.1201720190095648e+02 -1.6057215972346057e+01 -4.7918311342030029e+02 -1.8831194946737232e+03 2.9775103562763525e+02 -3.1221589102982961e+00 -1.0196156484991965e+00 2.4729266790406568e+03 -8.7137106002079207e+01 1.5986073796404526e+01 2.5578479029296068e+02 -1.2844455149742042e+00 5.0914235797230245e-01 8.2494619044417328e-01 1.6152278296714140e-01 -4.1332379051939105e-01 -3.6308133520356327e-02 7.3705387383375187e-01 -2.9603890081375255e+00 4.4520375868291556e-01 4.8038071283809280e-01 -6.8768679580609939e+00 1.1218033439384856e+00 -5.7887957263160828e+01 2.1869723611123959e-01 -1.6173202277953824e-01 -5.8331005558659499e-02 3.8243312064630122e-02 3.3063896646980204e+00 -1.5096774363135154e+01 1.2957196885183015e+00 -6.3426108978855666e-01 -2.5359090240163529e-01 -2.3168082675052779e-01 -1.4263351417649099e+00 1.4290548151752550e-02 -2.8078911109987259e-01 -1.8341789100363712e+00 -2.3496926181572075e-01 -6.5673637974010535e-01 -9.9058354134022295e+00 1.5480697726649950e-02 -3.6427610567351834e+01 -1.9976653898272453e-01 6.7447886069631313e-02 -7.2190301262548955e+00 1.3443496007194505e-01 2.1515894950669576e+00 1.6592018924426725e+01 -9.1609127567648875e+02 5.9925466410265820e+01 2.5963991608027193e+01 2.8715007205270421e+01 2.5035681505338708e+01 8.5669560016585922e-01 1.0081395550317085e+02 7.1119532760861532e+01 -2.2590942886000335e+02 5.7077626203044645e+00 1.5200155955159721e+02 5.8352313831957508e+02 -1.0870855369011633e+02 8.6363163152987021e-01 6.3553328683756760e-01 -7.7256835998488532e+02 2.7238013739354315e+01 -4.7416912720499838e+00 -8.2602321648681340e+01 -2.3724323872886839e+03 1.5743467836762619e+02 6.7338991790030846e+01 6.5704035740365669e+01 6.8416464407427981e+01 2.3476261549062483e+00 2.6361362645438811e+02 1.9088105709223964e+02 -5.7367084717079888e+02 1.6658972650297045e+01 3.8586228263757715e+02 1.5145869019889440e+03 -2.1610203521333096e+02 2.5163783662340373e+00 8.1141459960378981e-01 -1.9991959802652191e+03 7.0159304556177716e+01 -2.2843221789938269e+01 -2.0053095555508025e+02 -2.0305881874376360e+02 1.3571181712545449e+01 5.7523181763690907e+00 5.7200518978952459e+00 6.5763763635170029e+00 1.4940808239804859e-01 2.0624556412121120e+01 1.5870043782070155e+01 -5.0486263463696510e+01 9.0604156453912310e-01 3.6190672647381689e+01 1.2885926680454349e+02 -2.3017332655373821e+01 2.6734364205426320e-01 7.8598644348873717e-02 -1.5612233001073400e+02 5.7600526854752001e+00 -1.8948685525086790e+00 -2.2858650280539134e+01 -1.7834312382219295e+00 -1.2306065117149767e-01 -2.2976994107741433e-01 6.5047719464511999e-01 1.2145296881330552e+00 2.0380384785345000e-04 5.8299700157064524e-02 -2.5605434273130623e-01 -1.6451826858100560e+00 1.4999982669712331e-01 -4.3972967897886637e+00 1.2099617028092782e+00 -1.1780868910719221e+01 -3.9429882147406822e-02 5.6886244542311476e-02 -5.9838744621324977e+00 -9.5627544936083275e-05 5.6596121231869629e+00 -2.1539200973438555e+00 -8.4105843399908053e-01 -8.5592913296999029e-02 -3.0103078314505760e-01 2.4284899178204000e-01 6.5755162827723834e-01 -3.8600918483278956e-02 1.0082677186977733e+00 -1.7240677646568603e-01 -1.7441962347718318e+00 1.4139576085801755e+00 7.2979990798540939e-01 1.8155432703637757e+00 -3.5363719166790766e+01 2.4690902568853801e-01 -2.7315427317475383e-02 -4.2742897890504537e+01 -6.4929593084958270e-02 9.2900417407351732e+00 -6.2855749164042152e+00 -5.5910518435503718e+02 7.5389718959930923e+00 -7.5859619018017440e+01 -1.4360685427585508e+01 1.0182632419010042e+02 9.5670328972762952e-02 2.1190345976690878e+01 -1.7907576325900664e+01 -9.8975818063628651e+00 8.3886804748144641e+00 3.2744637232179230e+01 1.2786748803496522e+02 4.4531939528795192e+01 -4.4682695527110567e+00 -2.9741694449181972e+00 -1.6214513169721013e+02 7.8996967314730000e+00 -2.3287143511275644e+01 1.6836455304972674e+02 -4.5929232619189464e-01 5.7729984192292853e-02 -4.8554472908719998e-01 -3.5558372505533808e-01 9.9746706783609618e-01 4.8116800432164153e-03 8.6260047881978608e-02 9.4226998072511314e-01 -2.6196670538521971e-01 -2.6266160881786504e-01 -2.1653089701410622e+00 2.2125022509065753e+00 3.9071665653363873e+01 1.1015543291364654e-02 -1.5195619543350247e-02 -2.4806289244346615e+00 2.9381095006526081e-02 -2.3791402781237752e+00 2.9417169006726454e+00 5.3031256989623262e+02 -2.9341000688222124e+01 1.7537078425659001e+02 -4.9865717620311898e+00 -5.8117352808765645e+01 -8.4213843683774279e+00 -2.1865192658629326e+01 -1.6863831565404325e+01 5.8655489348676952e+01 -7.0894023674698534e+00 -7.0108444920018883e+01 -2.4624254596040782e+02 4.7557782041316386e+01 -1.2969438988256940e+01 2.4362603215691514e+01 1.5020795222299009e+02 2.7109149023052353e+01 8.7024384995165747e+00 -9.2710804188649945e+01 -6.0842427120240927e-01 -3.1993916610199236e-01 -1.9182937342587820e+00 3.1375713052666470e+00 1.7999653248429581e-01 5.7565021933743687e-02 1.7661980593995281e+00 2.5507789346320351e+00 -2.3172478334038260e-01 -1.5350416788078292e+00 3.0546111950167756e+00 -2.4501740896496358e+00 1.6506621521254601e+01 1.8973777530241875e-01 -1.0533167364904017e-01 -6.6004147287310415e+00 5.0642570895135464e-02 6.3432889810110282e-01 -5.4088502723611782e+00 -2.2608329919362280e-01 1.4373160938312424e-01 -3.9189819545751803e-01 3.1231110204089418e-01 -3.3243499803231202e-01 3.5429089221992172e-03 2.3934413290324130e-01 -8.9369924036655846e-01 -7.6590416539870176e-01 6.5642087813197492e-01 6.7997866328465006e+00 5.6652568250023982e-01 4.1003945886797950e+01 -5.1192413626395705e-02 7.3777744969648840e-02 1.2694213269658306e+01 -8.4147564616039006e-02 4.6422231792811675e-01 7.7531418283481344e+00 4.7745024139340253e-01 -3.2667871689934769e-01 1.7712920777776162e+00 -5.8985373890071280e-01 2.3684734381314188e-01 1.7555688138375380e-02 6.0663489025342399e-01 -1.2392567361971278e+00 -2.5535159133833694e+00 9.6769651967823878e-01 7.5719399654528186e-01 -3.8056836043906017e-01 4.8844933086713944e+01 -5.7558051650235365e-02 1.5493758414075742e-01 -1.2857904704882325e+01 1.0917991408212946e-01 1.0024505845879406e+00 -4.2452111474146947e-01 -6.5834872283544166e+02 2.0313403719565912e+01 1.1741300600643012e+02 4.3480691787026231e+00 6.1433648287783598e+01 -7.6652676458130422e+00 6.9783196019202762e+01 1.5383997785600883e+01 -1.1237096796955701e+02 6.7260283793839335e+00 6.4697000567561489e+01 2.8165638007213840e+02 -4.7514596099039579e+01 -1.6781084249666350e+01 2.2000454175534713e+01 -5.6544360439344371e+02 5.3623567817336507e+01 -9.3229737739922030e+00 -5.5781213321397445e+00 2.1844789908934459e-01 3.1362599290980209e-01 2.0609326121942146e+00 -1.3243218060402242e+00 3.0353739996644113e-01 1.0416740014766429e-01 -5.6701530479567275e-02 -3.3662444357870913e-01 -7.4495325618231606e-02 -2.1141301138888974e-01 -1.1457433125856982e+01 -2.2658706171119231e-01 -3.7353233988486012e-01 -1.3097073184613972e-01 1.5384493556136247e-02 -3.9023002357223852e+01 1.1052735907518763e-02 2.6990300609174739e-01 -4.7005274239859517e+01 -7.3184710590492898e+01 
      </Row>
      <Row Index="1">
        -1.9416987031954227e+02 1.0368012415424613e+02 -2.9865259604308449e+01 -1.9957278043536462e+01 3.0849877384809076e+01 6.3835900109810364e+00 9.0958611912314836e+01 2.1147121350684994e+01 1.8241833215803808e+01 -2.1806580603712973e+01 -3.8515595696844684e-01 5.0518249016156915e+01 2.0087377731786546e+01 -1.9731472666956634e+01 5.6562179392000331e+00 2.4599195430987621e+02 -7.2651998553962329e+00 1.2398881251711828e+01 -4.5032169986752308e+02 2.3663564186296579e-01 -7.2232763495270733e-02 9.2810877808980952e-02 2.4070972182112686e-02 1.4958812072401566e-02 -1.0140996417938062e-02 5.0583488027440872e-03 3.3691624151858690e-01 1.6111291213844248e-02 -1.5764181500110830e-02 2.5904282123632028e-01 -7.8561278045851779e-02 1.6116112312425077e+00 6.0895599196264527e-03 2.7397203519079705e-02 -4.6021939271181200e-01 8.3374241179737726e-03 2.5392646765953414e-01 5.0438059713064831e-01 -8.6587770732685615e-02 9.6200537929309313e-02 -7.4524271221099836e-02 -9.1082714042256319e-02 7.9881459733513405e-02 9.1195195054925311e-03 -6.4086578246400433e-02 3.8426652093050961e-03 -7.1573138938376635e-02 -3.5935843667357303e-02 -1.5553180631343899e-01 -5.9747199080833813e-02 -3.1168462488335269e-01 1.6471851696567882e-02 1.8602384589227968e-02 -1.0226893166261957e+00 -3.9597009531832872e-02 -4.2743521602744750e-02 8.4808733437739647e-02 6.0826313458791589e+01 -3.2579657809757315e+01 9.2710799134205395e+00 6.1598530617421261e+00 -9.6326728965576969e+00 -2.0523981345880262e+00 -2.7986862336278985e+01 -5.8348386642784806e+00 -6.8675301997319238e+00 6.8086075255765124e+00 -6.8034348718685733e-01 -1.6403475662716914e+01 -1.1315986770822249e+01 5.9854372483373615e+00 -1.6426824021530102e+00 -7.9723448343995869e+01 1.9794405898260656e+00 -4.5192475616768935e+00 1.4021243680428432e+02 1.5640111767845511e+02 -8.3957987350698914e+01 2.3843993696663524e+01 1.5668658867514687e+01 -2.4697982504408841e+01 -5.1808248034895099e+00 -7.3489060396780786e+01 -1.6454280371082859e+01 -1.4476245150642370e+01 1.7175313913632436e+01 1.1085953102443780e+00 -4.0621683186052302e+01 -1.2484088660143016e+01 1.5797332980143187e+01 -4.5253316619886341e+00 -1.9782440771338133e+02 5.9082172775110209e+00 -9.2164866214652932e+00 3.6190960803452435e+02 1.3498125524748101e+01 -7.1586118228622260e+00 2.1275437529523504e+00 1.8504126151274249e+00 -2.0781095594035328e+00 -4.5427749335173229e-01 -6.1444819340540375e+00 -1.2586161225477692e+00 -1.3681690762581797e+00 1.4545671683827504e+00 -6.9143348553419059e-01 -3.8798819589133728e+00 -1.8420609445343530e+00 1.2951587636243647e+00 -3.5640106101110097e-01 -1.5036010700831866e+01 4.0776099713050984e-01 -1.7851461119650449e+00 3.0776009233414118e+01 2.0809636825411709e-01 -6.3061878359019288e-02 9.5246912405603013e-02 1.3900381091630720e-01 -7.4764819949159289e-02 -1.0113675833202143e-02 -1.6144939187594073e-01 -9.6045253796110952e-02 -2.1095754920463516e-01 -8.8990106530943983e-02 7.5314133511366760e-02 -1.5835704788043170e-01 -1.5540036849021988e-01 1.6819429907868375e-02 6.6081686736030834e-02 -4.5350113175990359e-01 -3.5577448560527469e-02 8.8124599703456141e-01 4.2975086423522324e-03 -4.4696756525667070e-02 -9.1499969179633212e-02 -3.4059511049939317e-02 -8.2117017004733839e-02 -2.0406953583796461e-02 -2.8272789163166667e-02 8.6255076452459889e-02 2.2191310685720583e-01 -2.6222456556075002e-01 -1.7732821641988750e-02 -1.7370999744457549e-01 -2.8042308263650284e-02 1.0386209093277330e+00 -8.8143369729110077e-03 5.7961009728790813e-02 -2.3737949401811420e-01 -2.4286937132664832e-02 2.9954381529644536e-01 4.3664633570831768e-01 3.2896200112258356e+01 -4.2595422937081384e+00 2.0039532729288112e+00 1.6521381452639048e+00 1.2111056072734527e+01 -2.0770456148732921e-01 -7.2140456496225056e+00 1.8129464604476198e+00 -1.2274506473553970e-01 2.3192860536255466e-01 -2.1365462124467740e+00 -2.4037350315027879e+01 1.5799154422684296e+00 1.7346954682024780e+00 -2.8984234241732321e-01 -1.3166615367175822e+00 -8.5773097509648721e-01 4.3206158513667106e+00 -4.6539727759591187e+00 9.1278845915200746e-02 2.3399111393099581e-02 -1.1455911790479523e-01 -1.7006564402142049e-01 3.1339526234582138e-02 3.6901313334151142e-03 1.9326947928366423e-02 9.6998556729795737e-02 -1.1414454686899944e-01 2.1423719065730040e-02 -3.5660321815117868e-01 -3.7881662130027088e-01 9.9235833790408656e-01 7.2055156644485613e-03 -6.9704181623831511e-03 -5.2494206361530615e-01 -1.4210950420033175e-02 2.1354533438108891e-01 1.3689882269181908e-01 -3.4494926283787152e+01 -4.3964493200513628e+00 1.6003309849754714e+00 -3.2313691437580019e+00 -1.3307190451964743e+00 2.1709149151787952e+00 1.2718754161398863e+01 1.2847774569240755e+00 2.9576296012627168e+00 -2.3635955258377024e+00 1.7794552807044965e+00 1.6161629970686590e+01 1.4778938551371539e+00 -1.2604682650680051e+01 -8.3937425561536294e-01 1.7370374635482431e+01 -1.4312780192159252e+01 -5.6711343467213737e-01 -4.8532677173856882e+01 5.6553332902763032e-01 5.7653106182552760e-03 1.3345111595372394e-01 1.7364625956224700e-01 -2.7758967360269793e-01 2.0917379646568035e-02 7.8315353161571011e-02 -1.8853406163806952e-01 5.1761507673508511e-01 3.1745937935647817e-01 -8.0315737381326358e-02 2.4569626596837679e-01 2.2594427141716338e+00 -9.2766727160661588e-02 -3.2155180299159980e-02 -2.4916013357723898e-01 4.7245264509896856e-02 -3.7220903876587386e-01 5.4880887353436947e-01 -2.7451195441450105e-01 -1.7042262133042385e-03 -9.4047870802893840e-02 -7.2073987357366143e-02 8.7713189352251586e-02 8.1696783514906279e-04 1.4885259683263596e-01 -4.7751823434296625e-03 -4.0012102429864971e-02 -1.0243851335678045e-01 -5.7384438286307304e-01 2.2905214791072659e-02 4.4302313537126992e-01 3.0430506916966138e-02 3.1949839452547479e-03 1.2620527770032552e+00 2.4278160534121795e-02 -1.4079961550141373e-01 -1.7342882372133772e-01 -1.7771914800328489e-01 3.1445749419439117e-02 -6.0234864361518703e-02 5.5124674796727668e-02 2.8759427411327199e-02 7.5090343951167426e-04 1.2702093620863097e-01 4.7627697297104521e-01 3.2426305775506460e-04 7.8159798082377829e-03 -1.9888903079532372e-01 -4.0126679902771301e-02 -1.2983916340771700e+00 -8.8098671087011617e-03 1.2136972251270528e-02 -1.2353885416962317e-01 -2.5964718293678413e-02 3.0100926124482452e-02 -2.3956798655361405e-01 4.0819538379833887e+01 -3.1535822621543058e+01 1.0080033756899688e+01 3.1019138565580420e+00 4.0324459881520625e+00 5.1251252589159524e-01 -1.3718623207788411e+01 -1.1975678170481103e+00 -1.7773949065070553e+00 2.3678367492957477e+00 -1.0423957165496347e+00 -1.9562412110748710e+01 -1.4388838072806323e+00 -6.8931122856683036e+00 -2.2246096883292115e+00 -3.6732525455042378e+01 -1.3858528712914818e+01 1.2044970839795610e+00 4.5683843458092724e+01 -4.5899583613781658e-02 -3.6924844397841161e-02 9.8205841732217358e-03 -6.6977262397041812e-02 -3.2483903423575072e-02 6.1728614445890430e-02 -7.3751287789795006e-03 1.4245399956432875e-01 2.2687515604713007e-03 1.4503029474974942e-02 1.4464418941122315e-01 8.7579210129370144e-03 8.9619961737756812e-03 1.1568975249460323e-02 -3.2498900656699303e-02 -2.4708450404555418e+00 3.6544482768396946e-04 1.8454025994236264e-01 2.2160058032865746e+00 -5.6183264633783259e-02 
      </Row>
      <Row Index="2">
        -8.3829731485849408e+01 -2.9865259537399595e+01 3.3594410074479856e+04 2.5538466543207651e+04 -4.1680665448158416e+03 9.0762042855652574e+00 -2.6307809092644243e+02 2.0003167040561900e+03 5.4241109939143507e+02 -1.0616110658720412e+04 6.2394404368281994e+02 1.1728992191876705e+02 1.7403175757091929e+03 -2.0510765283368158e+01 -1.8938293301843689e+01 -6.1864865881706294e+02 -8.8376811851415340e+01 -2.1632105302852869e+02 -1.8628752112155667e+02 -9.9599111469532864e-01 -1.0924938393507404e-02 -7.4091777747771239e+00 -5.7835858982816646e+01 1.9134152731218916e+00 -1.3453534313101290e-01 1.6724944871193894e+00 2.8944340445357799e+00 -4.1419161940590588e+00 1.3182372287672891e+01 -8.0874653972474739e+00 4.1981248697659517e+00 -1.5967806022948824e+02 -1.7768369096613057e-01 3.5129798810026536e-02 -2.8348851892169402e+00 -3.4589201949677717e-01 -1.0568150452483842e+01 -1.9384383354245074e+00 2.5722637638331536e-01 -2.3476816051589822e-01 1.8324930896059936e+01 3.3980574916565637e+01 -9.8562714074921001e+00 6.2899827325318680e-02 2.1053912837395150e-01 6.0743473235246597e+01 4.2093475767401642e+00 1.6854155216433561e+01 -2.8530346730788835e+01 -3.5919494454679910e+00 8.5657702634220925e+01 -7.2881213742959833e-02 3.2660544738120002e-02 4.2164756080885883e+00 -2.4035049457554800e-01 -7.5837791818059344e+01 1.5727335868008879e+01 2.8797165730694285e+01 9.2750148472451386e+00 -1.0559804215527003e+04 -7.8152132877792046e+03 1.2982482809726539e+03 -3.3071474127367777e+00 8.0811200827089550e+01 -6.2306710214236296e+02 -1.8581468078915105e+02 3.2638744725940419e+03 -1.8824685892341961e+02 -5.6847540516046138e+01 -3.6394789397351769e+02 5.8534075895501649e+00 5.4985556534418052e+00 1.6922798292926927e+02 2.5980259931655141e+01 3.3895504793132716e+00 4.8460043386355949e+01 7.1762109846447828e+01 2.4764816011479663e+01 -2.6928486309404845e+04 -2.0321655948562329e+04 3.3243716257098731e+03 -7.3489544658497650e+00 2.0958695337725283e+02 -1.5866844519135457e+03 -4.4209758496545385e+02 8.4669977991237465e+03 -4.8056360587067024e+02 -8.6760014185082497e+01 -1.1828185501369517e+03 1.6002064438832221e+01 1.4625923528473077e+01 5.0232823480183106e+02 7.1219594632008693e+01 3.1782338649366642e+02 1.5695565419906018e+02 5.9857861282675566e+00 1.3440467130318563e+00 -2.3362573265108058e+03 -1.9127109797593762e+03 2.9384581047555378e+02 -8.6959277794093559e-01 2.1274824487628699e+01 -1.3965403702284075e+02 -4.0456099027278967e+01 7.3784739693395579e+02 -8.6359123343753595e+01 -1.8780142531767382e+01 -9.0919649517387597e+01 1.3528554848740821e+00 1.4230710193638307e+00 4.1922781877673287e+01 5.5363250959596897e+00 -1.2473767119616939e+02 5.6720196006172650e+00 2.2358169075753125e+00 -1.4196796162176492e-01 -1.0264119484874921e+02 2.5847717255193459e+01 5.8628488865716122e-01 -1.4700539147307595e-01 7.1268379484860089e-01 -6.3938992986718048e+00 -2.7994550886510616e+00 -1.8186541159281678e+01 1.2718607837022420e+00 2.3166074423035607e-01 -1.5102524861501217e+02 2.3531151647760477e-02 1.8563255378681864e-02 1.1264000447124928e+01 -3.0995138805456657e-01 4.8804583166968001e+01 -4.6727943814672406e+00 3.4484114363636564e+00 7.6897313635167208e-01 -9.6308465813908754e+01 1.5267698020739676e+01 4.4629960413574690e+00 -9.6422945979771191e-02 -5.6731545293347097e-01 -1.0310229041686925e+00 -2.3604198355292567e+00 6.8275770691890747e+00 -8.9834859268726177e+00 -9.6739689337168784e+00 4.0329868980921674e+01 8.5399171525211770e-01 -5.3449463476528081e-01 4.8054937195933235e+01 -2.9923793128858307e+00 4.9428636521517106e+01 -3.9611730234415177e+00 2.1070476741272236e+02 -2.4692975959100586e+01 3.8130184497355972e+03 2.1609530832840628e+03 -1.0129800427671248e+03 -3.6612654157642508e+00 -7.4848629403583800e+01 6.3054377400372005e+01 4.1766948835279436e+00 -3.6138703192919638e+02 5.3741707689776376e+01 1.8202968062614832e+02 1.9388819698855514e+01 -1.1826298184733517e+00 1.6676659467361290e+01 -3.1312163019580211e+01 -8.1905179413500306e-01 8.1853914747680392e+00 -6.5638527194822700e+01 -3.2518002905957246e+00 2.8479519700431588e-01 2.6952071176241141e+01 3.2557032757087008e+01 -1.0357857342443882e+01 2.1763176429657971e-02 -1.3351380250379066e+00 6.6275613995715172e+00 -1.9211202730929386e+00 1.4260357225045084e+01 1.9161219744850484e+01 1.7116246180953358e+00 2.2428406522456316e+02 8.8922221961555969e-03 -1.1378097251028674e-01 2.5476840700277719e+00 -1.2304808210171547e-02 4.2419042686408112e+01 6.5560231887219516e+00 -1.1131510147135674e+02 1.4479157350604225e+02 7.8418308977235415e+02 1.5572398854347339e+03 5.4472008809142835e+01 2.0092801387529605e+01 3.1082903588967838e+01 1.6450072706121682e+02 9.6083291420397018e+01 -9.2597634341136506e+02 5.4296354440227333e+01 -4.4951210122859379e+01 -8.6474038266733260e+00 1.3457099368208031e+02 1.6631852215359808e+02 8.9723401365435586e+02 -6.2144376538939667e+01 -3.3434497046324395e+01 3.3231412189703735e+02 -3.9303479939862882e+00 -9.0152590164422541e-01 6.7360601076647981e+00 2.9476266959138684e+01 3.3549339710752264e+00 8.1576198269760702e-02 -3.5398547408667298e+00 -3.3455666185749280e+01 8.9171539634260171e+00 2.1165890769656244e+01 3.1683901637738856e+00 -2.1214153879169544e+00 -7.1605891251120170e+01 -2.0072049023011118e-01 -2.7079972516683348e-01 -6.6700726906302403e+00 7.2385734644856115e-01 3.2286789000883118e+00 5.8227716329672816e+00 7.7343588080828019e-01 6.7173644158632939e-01 -3.1463849137515414e+00 3.9502906404321749e+01 1.0920790261453801e+00 3.3488576801835590e-03 -1.8128507488875503e+00 -2.1189981192429457e+00 2.3834131688010984e+00 9.7340158748950927e+00 -6.3393551738002882e+00 -4.4410468520874176e+00 6.9417325848512576e+01 1.3122129146748263e-01 9.7971175076775552e-02 5.5589272599242037e+00 4.9394690006377306e-02 2.3170555790725071e+01 7.4030904154540167e-01 2.2930253861324248e+00 -3.6529219862370521e-01 1.0747528664646433e+02 -4.6666318285144115e+01 2.7846927831155908e+00 5.2965277004998867e-02 -6.7738241476128280e-02 1.0355670230472001e+01 -2.4872176222192399e+00 -5.4219356908221785e+00 1.0322079609993446e+01 -7.8286159587206106e-01 1.1763802892339069e+02 1.5861130261930539e-01 -2.2991532300379092e-02 -8.6534142969022376e+00 -2.0614847449907880e-02 -4.5501657243379778e-01 -3.1075805099339928e+00 1.1808339740243929e+02 1.2708454453099723e+02 -2.6567010326745449e+03 -1.5444241461808824e+03 -7.5650616913811234e+01 1.4117155418498889e+01 7.4703612603538829e+00 -1.5745471510567899e+02 -2.9771736649909911e+01 9.2399611391428812e+02 -5.7209949750632660e+01 8.8975071058187382e+01 9.2022900356230650e+00 1.3789960521931306e+02 1.8563996769464126e+02 1.0222549339726224e+03 -4.7442346253257426e+01 3.4326074553180661e+01 2.5600715932590782e+02 3.2511157860921491e-01 3.4836930770999941e-01 2.4580871915533686e+02 -7.5553447607759722e+01 4.0612261927803459e+00 6.6388006601301897e-01 -4.7825045771164310e-02 -5.0731629742967037e+00 2.4981938559039385e+00 -2.4267131586020763e+00 1.1447394429681282e+01 2.3454301793494019e+00 -2.0065056147040425e+00 4.7140589827221113e-01 -4.2441697143615897e-02 -1.3127959062863958e+01 3.0274624351373403e-02 5.3079607519996586e+00 -5.5564028751293861e+01 9.0883325484536186e+01 
      </Row>
      <Row Index="3">
        -8.2742993020448608e+01 -1.9957278001594382e+01 2.5538466544263476e+04 6.8015078564875817e+04 2.3951518049223465e+04 -1.8852660693216778e+00 7.5042145024593719e+02 1.4782576689287072e+04 5.5695459772876075e+02 -3.4140110003506154e+04 3.2980123830294542e+03 -3.2763323783711448e+03 1.4143886197967486e+03 -1.2804367618035485e+01 -4.0204317725068996e+00 2.3956126432213071e+02 -3.4402403139963482e+00 -2.1033650607968157e+03 7.0690971723680536e+02 -6.4230817751185698e-01 -4.2156050020234492e-01 -2.5757341750840407e+01 7.3773016457042928e-01 1.3143922281850379e+01 -6.7401177343766397e-02 -2.3645960436175320e+00 -1.1561559161325000e+01 -2.2115072246447443e+00 4.2370688391437696e+01 9.6433916911703808e+00 1.5316416308267348e+01 4.5063272920247570e+01 1.1111494402070576e-01 1.6793554375644720e-01 1.5469701114913793e+01 -3.5647619969648653e-01 -8.2308259569703512e+00 -4.6718009909152414e+01 -5.2327202474165890e-02 4.0963150066340859e-01 8.4497238469184257e+00 -1.5518208990999705e+02 5.8610954536527906e+01 -5.0635613439429253e-02 4.1332897930155399e+00 3.7700054605398407e+01 3.4966343729584590e+00 -1.6211927191997109e+01 -2.6420238171073152e-01 8.2119535133324781e+00 2.4225373843921446e+02 1.7988212204617243e-01 8.9294433701302370e-02 4.9784193346550467e+01 -2.0036281282445922e+00 -3.0562868680498468e+01 2.7538852634211338e+01 2.7140481560255189e+01 7.6046883256138003e+00 -7.9280279451866791e+03 -2.1191410648378522e+04 -7.4964322531790986e+03 1.1163545871394032e-01 -2.1847051935879429e+02 -4.4407574189866564e+03 -1.7741700168484078e+02 1.0370229940336547e+04 -8.9397938569216615e+02 9.7830384169416538e+02 -2.9787767338414596e+02 3.6894500190669675e+00 1.7418645081375850e+00 4.2967200495240149e+01 -8.2555579714289706e-01 6.7449618771865528e+02 -1.9654038872383796e+02 6.1755053692526104e+01 1.6583605247923771e+01 -2.0372832550899995e+04 -5.4688831880700454e+04 -1.8992927962155005e+04 1.5339785191660011e+00 -6.0743487251020667e+02 -1.1778620944357004e+04 -4.2300690052781522e+02 2.7345457258683000e+04 -2.5672296008589833e+03 2.6833362582862610e+03 -1.3286825643370466e+03 1.0008038776166096e+01 3.9598576229448241e+00 -1.7943862927848022e+02 4.8908298877924636e+00 1.6994134585073584e+03 -5.7871110208721177e+02 6.8443437901298161e+00 1.1947950263160807e+00 -1.7578280679360739e+03 -4.6470609502477764e+03 -1.7538413798163831e+03 -4.3159290694507746e-03 -4.0026346582826619e+01 -1.0552070964242375e+03 -5.9371976518023537e+01 2.3618292774811507e+03 -3.6628232522002963e+02 1.7355964254223807e+02 -3.1213712464311357e+02 8.4429713192320555e-01 -1.1729993291593632e-02 -8.5118415535493114e+01 1.7126883756809264e-01 1.6341614171267346e+02 -5.1090647054863283e+01 -1.5726463977779988e+00 9.3250139213022765e-01 -6.7619650782167540e+01 -1.5957608996607959e+02 7.3380293041917412e+01 -4.7469812189868642e-02 -4.1334820112987920e+00 2.2649728595402987e+01 -9.1304717802325874e-01 8.5956587372550075e+01 -1.9057593691567213e+01 -5.1552860121277799e-02 -5.1457905778942582e+01 1.8835546985070381e-01 7.9100867950706100e-01 4.3937815520706636e+00 5.9733347232663858e-01 -4.9665303700415997e+00 -1.0220040764033893e+00 -1.4192012623517229e+01 3.3027689631237926e+00 -7.1202822680052549e+01 -1.9083068952461588e+02 -5.4627852234391064e+01 -1.0074258537184511e-01 3.7746996475353427e+00 3.1007488156811814e+01 1.2759832932219819e+00 -2.0225839344415533e+01 3.8641901191333091e+01 -5.9048670440993192e+00 4.2015798247011810e+02 -5.3042905522347938e-01 1.2935406917510477e+00 -1.0517198418536100e+02 -3.0416673450026366e+00 -1.4655407275332674e+01 -2.6691847127977894e+01 -2.8097017179158240e+02 -1.4859243441634280e+01 2.1404863863983646e+03 4.3791675090155250e+03 -2.7510673193727052e+02 3.7297411173986639e-01 5.9341263466401536e+01 1.1620706897159871e+03 3.9290449646567822e+00 -1.1916346295279072e+03 2.0364363151032012e+02 -3.8006679880529191e+01 -1.1558399480191292e+02 -8.5173168191534927e+00 6.8590014907379668e+00 -1.2113094901119412e+02 -4.5214459968665857e+00 -1.9988938888906341e+02 -9.1081010149624035e+01 -1.1060237493038585e+00 1.5635928862761084e-01 8.1921051468657300e+00 1.0667731458782782e+01 -4.3177382542908475e+01 -1.3984520154168845e-03 8.7980884431063942e+00 -4.2115778989277297e+00 1.2094152131664444e+01 -4.7993399952442928e+01 3.8276900076866127e+00 -1.3922144330054230e+01 1.1839514239192791e+02 -1.6192313325964836e-01 1.8242041477416904e-01 -1.2966937056261281e+00 5.2885311348156350e-01 5.7827961123569089e+00 3.1834509118500591e+00 1.7985059451218416e+02 7.2911585644924486e+01 8.9391276928164075e+02 4.8993328206617916e+03 2.6255777367150331e+03 2.8163785433036487e+01 8.8219653063400756e+00 8.9225339030827308e+02 7.2794809092309961e+01 -2.9070224783382610e+03 2.3279742762344904e+02 -2.7958205863051899e+02 -1.1896224687214999e+02 1.7575553144281508e+02 -2.3879823418601124e+01 9.1919065078841209e+02 1.9435200738159196e+01 -1.1450292789532250e+02 4.2988266508534866e+02 -5.6456788367519550e-02 -5.4284879204804337e-01 -2.7175505715915961e+01 3.6649508007066879e+02 -1.3251182045803426e+02 -5.3537599892719050e-02 -8.1331213860114815e+00 2.7761166342725140e+01 -4.5094842838932436e-01 -5.8908385033892046e+01 2.8191298493749457e+01 -6.9456383108381559e+00 1.6332235445399192e+01 5.5378311197141983e-02 -3.3323651691783329e-01 5.0220805131021905e+01 -1.7799572015086085e+00 4.7370150273003446e+00 1.0623381890809185e+01 1.2079341089631146e-01 5.3606338710999779e-01 3.1717024342395593e+01 -5.1684305590355848e+01 4.5301566233442287e+01 -4.1802520489416156e-02 6.4732613058368571e-01 -3.0018927370411234e+01 2.4867441073063254e+00 -1.6763744035927946e+01 5.6991862818066117e+01 -9.2744222180698159e+00 -1.9208672937278689e+02 2.4650197702447940e-01 2.6250730031322611e-01 -2.1157205666788244e+01 -1.5441724422534442e+00 1.8506477723703540e+01 3.5703670799434803e+00 -1.0848066416820629e-01 -1.2443802687154232e-01 -2.6014668537780437e+01 8.5987027916637757e+00 -3.0092215019267723e+01 2.0220029354203639e-02 3.1201389906478525e+00 3.7989526233217617e+01 6.9027309008449100e-01 -6.5911667992866938e+01 3.9241437853103150e+01 -6.1702372186471708e+00 -1.3237034584466710e+02 -2.3153885659002088e-02 -6.0889075809376081e-03 3.7512792167372609e+01 -3.2061661604387987e-01 -1.2647970471764438e+01 4.7779004152433373e+00 -9.7882821365399849e+01 6.6162382452333986e+01 -2.1927166226456520e+03 -4.9242871185353770e+03 -2.6580448620143115e+03 2.8357354103382388e+01 -6.7144588005688718e+01 -9.0485895579827195e+02 -2.3761798275927191e+01 2.8925669107011736e+03 -2.2125590483962185e+02 3.4250291319581191e+02 1.1794946409557748e+02 1.6903785974828298e+02 -1.5005613578115760e+01 6.9659863153864353e+02 1.0126095252282880e+01 1.1931016363905360e+02 -1.3637630172350327e+01 1.2596318543807694e-01 -1.1861198109665017e-01 -4.5921060213616022e+02 1.1937332287828370e+02 -5.5921394985071444e+00 7.8939738105965318e-01 -2.0694817426866940e-01 1.8408412600315138e+01 1.5551012465576299e+00 5.7678338622562642e+00 -6.7196441360395028e+01 3.1529046166797459e+00 -1.6363793710618051e+00 3.3325583398405811e-01 -3.1864548553565042e-01 2.0347619327680312e+02 2.5462127351576469e-01 -1.0403674152106969e+01 -2.3216441279453457e+02 -2.9370593413867732e+02 
      </Row>
      <Row Index="4">
        -8.5062475317540532e+01 3.0849877423057968e+01 -4.1680665416723550e+03 2.3951518050176095e+04 9.0846776238642808e+04 -2.4239321585895865e+00 -2.0593861785700449e+02 1.3826993609245324e+04 1.6608769860251215e+02 -8.6968547934134585e+02 4.2790654848123086e+03 -3.7723418414155717e+03 1.2573244019489323e+02 -6.5348445413893046e+00 -1.2054709123823049e+01 2.5607731181105551e+03 9.6008548355667131e+01 -4.8443556131113728e+03 5.7678103590126966e+02 3.1304305511839834e+00 -3.6304672445441549e-01 -1.2497854445238181e+00 -6.9151257784719377e+01 -1.0583176374173449e+02 1.7394990361737370e-01 -1.1487653886050042e+01 1.4500281456232992e+02 2.3689856598192360e+00 -6.8912180821864936e+01 9.4146287461626734e+00 3.4635101491077060e+00 1.3951435367749983e+02 4.1616254594440250e-01 1.0262103275653969e-01 5.0730505482632637e+01 1.1055477438756582e-02 -3.9479953908769822e+01 5.2918143067905703e+00 -2.6380548264246664e+00 6.0214362623355555e-01 4.1925752687702422e+00 -9.9458572903098769e+01 5.6811227249118751e+01 -7.5900782933216338e-02 -3.6853903058923869e+00 -9.2762136882911250e+01 -1.5979046321840602e+00 5.0992219175270485e+01 3.7466491369125492e+01 -2.2966582586332773e-01 1.3872059366593749e+02 -2.5268567186716967e-01 -1.9368480381556846e-01 1.4015754967976068e+02 5.2842925750567638e-01 1.2857783095345570e+02 -1.4788683054397836e+01 2.4168342506925654e+01 -7.2073369264340741e+00 1.2890079050070487e+03 -7.6957551473551293e+03 -2.8117210514627855e+04 1.6179463998224870e+00 5.9992616349651087e+01 -4.1399764194419895e+03 -8.7936485717378446e+01 2.9608360174688016e+02 -1.1630193569797520e+03 1.0632550174940316e+03 -2.0011330500615782e+02 1.1748367906946875e+00 4.9147791765997155e+00 -4.2364531607343815e+02 -3.1406246119554169e+01 1.5684174698434808e+03 -1.4464377110267912e+02 5.9785791893024793e+01 -2.6323227479466450e+01 3.3390999686550012e+03 -1.9129283737076690e+04 -7.2563505787296119e+04 1.9522179741509582e+00 1.6695271652721863e+02 -1.1050558518276783e+04 -1.2531790138477442e+02 5.8531249370984892e+02 -3.3822291997569755e+03 3.0978416491391322e+03 -5.1793794599843568e+02 6.7695519389604115e+00 9.8672872704083083e+00 -2.0364857868087286e+03 -7.6405330071880741e+01 3.7586571957101410e+03 -4.7844851935776313e+02 1.0431239813075022e+01 -2.3433423666039523e+00 3.2143582815057363e+02 -1.5655686832101724e+03 -6.3830297577853999e+03 3.9068609559262324e-01 3.1310522084804202e+01 -9.1971623260966896e+02 -6.8405592227204943e+00 8.3453731355456114e+01 -3.6774078993644400e+02 2.5231653718074909e+02 -7.4900065405260193e+01 3.0062124189782369e-01 1.2070068444767028e+00 -3.6027421540127943e+02 -7.7416094406556226e+00 5.4846011661558293e+02 -2.2404710710301124e+01 -3.4914664092411885e+00 9.5002811998392001e-01 1.7969565783885180e+01 5.7399757084555297e+01 1.4037583302546793e+01 1.9055126360288097e-01 7.3221903552746226e-01 2.8785871702577708e+01 -8.7604427206344093e-01 2.3390050989572849e+01 -7.4298741018953024e+01 -2.0107497488688714e-01 9.6850452545702424e+01 1.8478028908680916e-01 6.6028878925581935e-01 -4.0126444963763515e+00 -1.0369426934235646e+00 -9.5850098682759921e+01 1.6627019559443887e+00 -1.0196812919625927e+01 -9.2335554436278766e-01 7.6448591010134152e+01 2.8566518033358118e+01 6.2152195969976269e+01 9.3424949604234475e-02 -1.6552005024266521e+00 -1.0926595677332957e+01 -3.9195744546518405e+00 -4.6481313097180440e+01 -3.5013704968541504e-01 6.6285612611827673e+00 9.2908831607657430e+02 2.1323487456565022e+00 4.3653549508508593e-01 -3.3195635679914210e+02 -4.6149779224298957e+00 -3.9400657184099494e+01 1.3825855059269372e+01 -8.5008681382065504e+01 2.8448387357472093e+01 -2.6308222827439017e+03 3.9398720630119515e+03 -3.8186581269371209e+02 5.0368016105143631e+00 2.9929194387071647e+02 1.6437931201390129e+03 -2.1592646166225222e+00 1.5503222378048085e+03 -1.0141373635093623e+02 -3.5823591816954649e+02 -3.4552153841999825e+02 -3.5552464737901118e+01 -1.0758269527098445e+01 3.4755757043648714e+01 -5.1176073913903224e+01 -6.8955816471022081e+02 5.2614032011929066e+02 1.4674071947438279e+00 -3.2766743890733119e-01 4.3123372896401634e+01 -2.1648171117769834e+01 1.3447914049429619e+02 -7.7569837126958419e-03 -1.9423491692736611e-01 -7.6684244681095834e+01 -2.3201913583615124e+00 3.4044940197782125e-01 -7.3471397917222959e+01 -4.1498122768669973e+01 -2.5978323365377420e-01 1.5611079579772713e-01 -1.4277089282205857e-01 -8.9181625105971705e+00 -6.8535526347195752e-01 2.8809147650703832e+01 -9.5923399122082174e+00 -9.6596351602242692e+00 8.2839409149878989e+01 5.9468581615461517e+02 5.5007610307810864e+02 9.3085212647587286e+03 6.0968954548854683e+01 -2.5071532847195562e+02 6.9238871282766922e+02 1.2879358796810902e+02 -9.3913240022738069e+02 5.1106357800576370e+02 -2.0911934598465268e+02 -2.8379500758546237e+02 2.9022080585103072e+02 -3.5354778937488891e+02 8.0820380413487794e+02 2.2121793359477601e+02 -2.6903296259231865e+02 -2.3023427051635372e+02 3.4046607576719907e+00 -1.6711384240858518e+00 2.8923410602470767e+01 5.2992070825040628e+01 -7.3102358307715093e+01 -2.3121985223895525e-01 -1.1715465300935335e+01 -1.1162219059757804e+02 -2.8619486342042734e+01 8.9260412779443868e+01 7.7951660276168383e+01 1.0238091329615145e+01 4.5411043293574772e+02 6.7094619136958045e-01 -3.8579235713266691e-01 1.4365033838695803e+02 -1.5981236396343377e+00 9.0611190171695171e+01 4.0844452918604475e+00 -3.0761782163934033e+00 -1.8818476867643597e-02 1.2594541405870075e+01 1.8585636950776795e+01 8.8466866848068975e+01 -1.4907625437961980e-02 -1.5114158112211662e+00 2.9965895984420214e+01 1.3518815862349602e+00 1.4867320832879813e+01 6.3979476778125218e+01 1.2366571657470516e+01 -2.7117224789352292e+02 -1.1066371113055173e-01 -3.9481729199680515e-02 -5.5158487586915598e+01 8.5387040055145746e-02 1.5501749544933856e+01 -1.2558202437352179e+01 -5.2055666506987519e+00 3.2086050402281752e-01 3.2733705076928345e+01 -5.2820463272895797e+00 2.8807007228628351e+01 -1.3659381672237458e-02 5.8088060827288324e-01 5.8700039313833983e+01 6.4290979787465750e+00 -4.6799591642298005e+01 6.3013511959588897e+01 8.6842315368552772e+00 -2.1293883300735182e+01 -1.8366591488811795e-01 8.0453929855082151e-03 1.0013176358438444e+02 4.7724961636443919e-01 4.2232669085692216e+01 -5.6197320494308576e+00 -8.2329061963383879e+01 1.0226512709167099e+02 -1.0570153727027191e+03 -5.3835231336128402e+02 -1.0138845084671055e+04 6.7115595066656482e+01 9.8890241370246599e+01 -7.2537852753904281e+02 4.5999841246387291e+01 9.1365843545738448e+02 -4.7596365811221176e+02 1.5790520415253036e+02 2.8242591909649514e+02 2.5848297999571497e+02 -3.6128754036286040e+02 1.7530738087285590e+02 1.4274118444913961e+02 2.4797951618533469e+02 3.6307613996416762e+02 -5.3020815157961820e-01 -6.8708594104293397e-01 -1.2109558556212590e+01 -1.0466269749846002e+02 3.3057452104644298e+00 -4.4890752986339794e-01 4.6007535428109225e-01 6.2086275638042551e+01 -9.2525965037366964e-01 8.8420036346653728e+00 -5.6504283918217993e+01 5.3341661151408308e+00 2.0200031512643899e+00 -1.1801218602345784e+00 -6.1893697526809177e-03 5.8574146961961651e+02 1.2642672990803128e-02 1.8735638239291355e+01 1.5613669014769351e+02 7.4323482101049581e+02 
      </Row>
      <Row Index="5">
        -2.8814669935457857e+00 6.3835900109541610e+00 9.0762042612872165e+00 -1.8852660544091577e+00 -2.4239322135606471e+00 2.6562956332297447e+00 2.2654186719261062e+01 -4.7712307938517453e+00 -4.4172750508381355e+01 -1.4301157141461772e+01 -1.0102926902734680e+01 -2.7363417320593840e+01 1.2362645395204481e+00 9.5185178245212487e-01 -5.2596409963623749e+00 7.8374831174245752e-01 -2.6848614262835241e+01 -1.4379410814572111e+00 -9.8587682928607961e+01 9.2741020703781749e-03 3.4042568715899743e-03 2.3430314303790778e-02 -9.0766790484471220e-03 2.4227992296947755e-02 4.2418334696542161e-03 -2.1579102393197866e-02 -4.0216199994117519e-02 1.8648620280045266e-02 -8.0918640433812417e-02 -6.7739673816264112e-02 8.0682846358075544e-03 -3.0987587861879184e-01 -9.0483415120967692e-04 7.2021078716168248e-03 4.5643158046254961e-02 2.4806757957607749e-02 2.2546831120701272e-02 -3.9902147276281852e-01 -3.5402209376856376e-03 -9.8709202432905041e-03 -2.7986724331044432e-03 5.3698394011037993e-02 1.7825363810735073e-03 1.5934846065637940e-03 9.8725915070972357e-03 -5.9410834457158668e-02 -3.7756890993304426e-02 -2.0813294885308063e-02 -1.9343923235207683e-01 -3.4938542242585746e-02 -4.0680000280365752e-01 8.0572277511847742e-03 -4.6938628985935572e-04 -1.2192362725361748e-01 5.0241133245793129e-02 1.0627073523150177e-02 1.4424026414596369e-01 9.1796523901534610e-01 -2.0454205464753543e+00 -2.8746502208948272e+00 7.7216510849558828e-01 7.3831969428621036e-01 -7.7946198583231951e-01 -7.0980222186140622e+00 1.4374995372300905e+00 1.4218365213825109e+01 4.6404076077414684e+00 3.3612978014250943e+00 8.4683775231798393e+00 -1.0382029141189131e+00 -2.8105759997050977e-01 1.6946600276993196e+00 -1.2180073406511838e-02 8.5052976810025847e+00 4.2817332628613169e-01 3.0364892297355972e+01 2.3430472720038189e+00 -5.1639562739336800e+00 -7.3066082795300771e+00 1.6330721737475113e+00 1.9020036091970773e+00 -2.1403983690146515e+00 -1.8289191950288437e+01 3.8896317769039115e+00 3.5775197496341960e+01 1.1359739490567964e+01 8.2277084666820208e+00 2.2004096858954728e+01 -2.6044127291606856e-01 -7.8389537990686975e-01 4.2498291016541971e+00 -6.8657329623192709e-01 2.1621477845176916e+01 1.1883949963896363e+00 7.9525611982129618e+01 2.0747218615069551e-01 -4.3521899355411819e-01 -6.1738033665300973e-01 1.0998670163406388e-01 1.5078098687694080e-01 -1.6649123489414247e-01 -1.5676743461216629e+00 3.4763211983975317e-01 3.1007832678774316e+00 8.5439805277607306e-01 4.5669653630040008e-01 1.8873915827358250e+00 -9.4028246274646676e-02 -6.5360212010804650e-02 3.7090978051827667e-01 -5.3439049000473915e-02 1.8367328958804512e+00 3.6091491679839216e-02 6.6661158077113969e+00 1.2754755642677196e-02 -3.5039660964995070e-02 -4.7246828053059797e-02 1.0143875026989768e-02 -1.9185973296196757e-02 7.0126361757768913e-03 -3.9754869886228450e-02 1.4991757495631641e-02 1.0821880002667172e-01 -2.1187405561128175e-02 -1.1266213925660851e-01 3.6088394375645177e-02 7.0745879423768088e-02 -1.5322815207223939e-04 2.2998436646723748e-02 -2.7877816714862114e-02 2.1145523859372697e-02 6.5425223179390923e-02 -1.4900811075673270e-01 8.8444978073312086e-03 -3.1548292333896333e-02 -8.4534510073455582e-02 2.7453339467045923e-02 -2.2101809703371167e-02 1.1798254496793309e-02 -3.5351860272637814e-02 9.6232172154756782e-02 2.0701404159791409e-01 -2.1310556795178071e-02 3.7941360175210548e-02 8.5805219523010123e-02 -2.6235612143920406e-01 2.2246871083844155e-03 2.3570611317842549e-02 -1.3752843811363391e-01 5.5849963679966419e-02 4.9300869997283447e-02 -1.6557733700577160e-01 2.9519539542514046e+00 -2.6249469552311266e-01 3.0182361064702832e+00 -1.5430484602693184e-01 3.5736907996488299e-01 -3.5306357939938571e-01 -1.1669398572999086e+00 -5.6846771566850585e-01 3.2869268104059302e-01 -1.3562921919818791e+00 -3.0980609142605999e+00 -1.2923922167915691e+00 3.2611559484939789e-01 1.0058733614433635e-01 1.1655370217548269e+00 1.8413028010968022e+00 2.7199603915410329e+00 3.7667164092817984e-01 -4.9571483372210423e+00 -2.3679070518505263e-03 4.6626988184379492e-03 -2.4214740660657486e-02 2.5737438501110210e-02 -1.3229322739663041e-02 -4.0992503380057888e-04 5.2563773946798231e-03 1.0643880145393081e-02 -8.1633538459598753e-02 -3.0377023270375503e-02 -1.9329426028644470e-01 -8.5317048818070729e-02 4.2712279396030906e-01 3.3272454348017635e-03 -1.7764335243473373e-03 -8.8049639822403852e-03 -3.4609565633947792e-02 2.1130907464298576e-02 1.2746330986460208e-01 -2.4319577897154261e+00 1.8861434336272964e-01 -2.0374498512920241e+00 -2.1512321221325692e-01 -3.6493218022462770e-01 -2.7557524345455281e-01 2.4727233118842449e+00 -2.1457524398194039e-01 -4.4036409213497585e+00 -9.2659776705846042e-01 6.1298500802104172e-01 -2.4746439248482517e+00 4.0802866446415464e-01 -2.8233371058029810e-02 5.8029878274761693e-01 7.8163132750160846e-01 -4.5052637696215356e+00 -3.9389765511850783e-01 -7.3240398746923461e+00 1.5249922467958754e-02 5.9095538480564702e-03 3.0127819555616497e-03 -4.7712048300184051e-02 1.4397299791420792e-02 -7.1869264163665902e-03 6.1971498117097568e-02 -5.5688563921805212e-03 -1.0417791540518095e-01 1.8389993871755905e-01 1.6558833196303091e-01 -6.8154734190102317e-02 6.7149091192746369e-02 -1.5996737893117619e-02 -1.3497665303816131e-02 -5.5208306704158050e-02 -7.9910645912306677e-03 -1.5641749323621834e-02 -2.0465210199590800e-01 -2.7105557308268469e-03 3.6522052384794224e-03 -1.2188470379419281e-02 2.4438253372860430e-02 -4.4642807338084456e-03 1.1747210304400152e-03 1.0945892697831194e-02 2.5572529958196810e-02 7.5567659904525186e-03 -1.8329069457435843e-02 9.2378242606096811e-02 2.0988557863903301e-02 3.5930584341975758e-01 4.0715286116239646e-03 2.4871446560992272e-04 6.0980027933582370e-02 5.0472478281170297e-02 5.1021938550479318e-02 1.3231779240101105e-01 -4.8759611820712034e-03 -1.0059818406007448e-02 3.8897258485462771e-02 -1.3754509492635014e-02 1.0834754491104326e-02 -4.0860289806846084e-04 2.5083817122037305e-02 1.1204096026492763e-01 -4.6191661785975932e-02 -5.2412789470445365e-02 6.3145658322380616e-02 -9.0408051225693842e-03 4.0977415193259770e-01 -8.9896034728098942e-04 8.3236570341593819e-05 2.8047036607427273e-02 3.1283006844664524e-03 2.2738182681960817e-02 3.3408682755571135e-02 1.1866134394344670e+00 -1.4970967750612934e+00 -1.0474551487295818e+00 2.1107568312734237e-01 4.5446309508261606e-01 -1.1456255903870467e+00 -3.5833625794506361e+00 2.2836613242871451e-01 5.9316110304652341e+00 9.3922259290788901e-01 -4.9337103677617478e-01 1.9399852470908456e+00 -4.0296286408460702e-01 -1.2850267404034277e-01 2.9242591896198395e+00 2.5514763085273273e+00 4.1243443697660567e+00 3.7504695754116035e-01 8.4660273442727316e+00 -2.3920097802876406e-04 7.5449470904283764e-03 2.0408075174109672e-01 1.1620759419719739e-02 -9.1394088436329013e-03 -4.8491143616100088e-02 -1.5706845688092663e-03 3.7395511858612063e-02 5.3367836582598853e-03 1.3970280196671446e-02 -3.4868509010268800e-01 1.7366246732987423e-03 -2.0370829745424285e-03 1.4167641711568368e-02 -1.9051407191692515e-03 -1.1574903459989906e-01 -7.1588294929089691e-03 -1.8476688135193525e-02 -6.7790434468710725e-01 -2.3344568089513792e-01 
      </Row>
      <Row Index="6">
        -3.2598307411638598e+02 9.0958611922848405e+01 -2.6307809098228154e+02 7.5042145062989312e+02 -2.0593861792947791e+02 2.2654186721317497e+01 5.8512127128127195e+03 6.3757065316282500e+00 4.3012680837420544e+02 1.6890964889432726e+03 3.0374714024881541e+01 -3.9356846654659821e+03 3.5448014418917501e+02 1.7036900849218185e+02 -7.6607489742589024e+01 7.9262736924321678e+02 1.4084872499871324e+00 -1.2251959962146357e+03 -1.2894343901684279e+03 3.2143258257369478e-01 -1.9663741383614652e-01 -8.4226479149829669e-01 -7.9731742734561195e-01 3.6041478007370804e+00 -6.2450058976874553e-03 -4.4969427103231041e+00 -2.5730617385035401e+00 1.1503748090362598e-01 -2.0496414483902079e+00 -1.0381917072690579e+00 1.4990283112325153e-01 1.2458381779276555e+01 5.0305413277240696e-02 2.9885403224436496e-01 1.3665386310470368e-01 -2.5316901675339554e-02 1.4118606383272159e+00 9.8256522091652130e+00 -4.0115809622741605e-01 2.7440347353851280e-01 -1.2628542003578906e+00 -4.6741101130353595e+00 1.9609120076464421e+00 -1.8202751838880399e-02 4.8940559098410343e+00 -3.9268726212097604e+00 4.9439558444319248e-01 -2.5774393239781772e+00 -4.2101416491346555e+00 -5.6981899752031335e+00 2.2271571998438077e+01 1.9570783779351877e-01 -5.1181248432148226e-02 -2.5058196749859372e+00 -8.8277259013848963e-01 -1.0995452953636686e-01 -5.2357817424632458e-01 1.0124294779738636e+02 -2.8476967390777570e+01 8.2756902986805997e+01 -2.2191127124041623e+02 6.0520281801483044e+01 -7.2502624458211304e+00 -1.8056400594929817e+03 1.6167202162748033e+00 -1.3245376645004035e+02 -5.2390210860910349e+02 -2.9974961252297916e+01 1.2134031416408052e+03 -1.0937462233559472e+02 -5.2000027872724267e+01 2.4106097786727503e+01 -2.4171462176404020e+02 4.2308578164277577e-01 3.7624335864486062e+02 3.8670193952734598e+02 2.6242572175044722e+02 -7.3455104553401668e+01 2.1145247673982070e+02 -6.2630810414092014e+02 1.7211643942815567e+02 -1.8183185368664105e+01 -4.7295425471538138e+03 1.7423623098802636e+00 -3.4861264051872490e+02 -1.3519818746286194e+03 -2.7965249973868353e+01 3.1662593242844023e+03 -4.2443322029813135e+02 -1.3759451522360933e+02 6.2061571119622485e+01 -6.4214983780575130e+02 -7.7433269855310982e-01 9.7810797386838954e+02 1.0094907939772298e+03 2.2052156709788012e+01 -6.2102209865426303e+00 2.0452285006060691e+01 -3.3926781769017495e+01 1.3803962776701223e+01 -1.5927493969411262e+00 -3.9283621894871732e+02 6.1433866975958722e+00 -3.1110738821563064e+01 -1.2853860127322474e+02 2.9711159474851172e+00 2.6300192626870722e+02 -4.3916161700782823e+01 -1.1045108126885225e+01 5.1171847899371468e+00 -5.1640282553441466e+01 5.7938438339917298e-02 8.6455090883918388e+01 8.2984689099294940e+01 1.9258652976552870e-01 5.1842994672975012e-02 -6.8207498283938861e-01 -9.7265725709614514e+00 -1.5501947757787491e+00 -7.6054955824802414e-03 -1.5060938227021334e+00 -1.7885053350191353e+00 1.6648765864700810e-01 2.4616593750910019e+00 3.3985335139735096e+00 6.2227166085010688e-01 -2.0872982582294028e+01 3.9264431750234369e-01 7.2109558895823855e-01 -7.8111731063474128e+00 1.1816591389943104e-01 3.8178130092003970e-01 -6.3783425441528365e+00 -1.2446003680433364e+00 9.7919246870894483e-02 -4.2467322012498805e+00 -1.2542567557164981e+01 -3.0043476328131291e+00 -4.6012644525817215e-02 -5.9469597171185242e+00 6.8254275312352330e+00 5.1417607637963769e-01 6.0578946114787158e-01 -4.1451967934864911e+00 7.3670754664076412e+00 -7.4665005280180935e+01 -1.4558689829426186e-01 3.2250462587479611e-01 -2.0048001806089360e+01 -1.3194825071318661e+00 -6.1253731040341757e+00 6.2299453364659882e+00 1.0481123694564155e+02 1.8941475710105884e+00 -1.1809752317967514e+02 -8.7293196218846560e+00 -5.7900373985049427e+01 -2.3944002914955971e+00 -4.5203530491802337e+02 -5.3868818235686469e+00 -1.0415688014020816e+01 3.7644076352275079e+01 -5.6100057991367066e+01 3.5410163611025837e+01 5.6965814790193690e+01 -1.1543728699355995e+01 1.7241860777246544e+01 -6.2193378504008791e+01 6.2601673044943311e+00 -6.9179136939317686e+01 6.0855061530360672e+01 -1.8358049876280802e-01 -5.2443176872568387e-02 -1.8456683364707160e+00 -6.1100195184082793e+00 -4.0910549972472952e+00 3.0799935188676741e-03 6.0879173526876684e-01 3.1108652380359971e+00 -1.0724339607896809e+00 -3.9453497527106123e+00 -4.9085695252944106e+00 -9.0632448247840394e+00 -1.7084233540697955e+01 -1.4016412753380059e-02 -2.9781650116356140e-03 -1.1939307976285907e+00 2.5545511201780968e-01 -4.0560352038674807e-02 -6.0941963179925551e-01 -7.5652311716373447e+01 3.3251184292525579e+01 4.7567277815683155e+01 8.0478294989307869e+01 1.7319548688446957e+00 2.5790454295361872e+01 7.3880903384262183e+02 1.2652813632794278e+00 6.9497924078038523e+01 1.5673877509295204e+02 3.6833088888372004e+01 -4.2077495345865879e+02 5.6160372870595893e+01 -6.2474301807796394e+01 -7.8758319233808692e+01 9.5550442680116120e+01 2.5597140109485736e+01 -8.9236465858979500e+01 -1.4514738779190156e+02 1.4959958206340502e+00 2.0610735485085740e-01 -2.8515772540190483e+00 -2.8958912483931272e+00 -2.2520842586334950e+00 8.6420874542719961e-02 8.0338253938862181e-01 3.4882922661444695e+00 8.4357606906058891e-01 1.2699950154164981e+01 -1.0716324091437670e+01 5.0454450051565800e+00 1.6192916972176079e+01 -2.6866788653677531e-02 -2.5490396492773471e-01 1.2557748073617854e+00 -1.1401462773283697e+00 -1.2385067998539121e+01 -1.7884170597786920e+01 -4.2989594510877915e-01 -6.1536194781695031e-02 3.8026205964744619e-01 -4.0542886819931141e+00 9.5829439577489239e-02 -3.3253850704091037e-02 -7.5216186267130425e-01 -1.5246369195869818e+00 2.0064118948420173e-01 -3.0888811645621956e+00 -5.4247202926872991e+00 4.5713715851674621e+00 -1.1430352507861461e+01 -2.4404388732651050e-01 9.8068137455591398e-02 3.7860241047614380e+00 -4.4350029470234631e-01 4.5417487376483905e+00 1.9252999724417350e+00 -4.7048814123599914e-01 1.0172142277733998e-01 -1.5904730346378528e+00 3.6675982626972612e+00 -8.7313631827706573e-01 -1.9158432904182732e-02 -3.0791682795219311e+00 3.7060374775914777e+00 -1.4562937005335749e-01 -4.4342783473669645e-01 -6.5033120561552096e+00 3.9152001747226102e+00 -2.2594181943774664e+01 -2.5758640679447242e-01 1.2582140436175848e-01 1.7907530001928680e+00 -1.8924586948520544e-01 -1.2692818342432428e+00 4.3295038276482956e-03 9.8426085720408423e+01 1.5493882765788012e+01 -1.2189555051925140e+01 -8.0362538797458512e+01 -1.1358742673103961e+01 1.8343728540301729e+01 -9.5891187036731549e+02 -5.8351424256059659e-01 -3.4503209828372064e+01 -1.5808215253403739e+02 -3.7631137490565550e+01 4.3667656642026532e+02 -5.5384853740938496e+01 -1.1034462584225753e+02 -4.5326087653474239e+01 -1.4298207570707018e+02 3.0254053183152564e+01 8.4720138360718209e+01 1.2979302968540458e+02 -2.1255870235460605e-02 -9.4463489230854236e-02 -1.2798403447516325e+01 5.5228020860102758e+00 -1.7271135008680962e+00 1.8697838567888586e-01 1.1968025514884939e-01 -7.9317378635575420e-01 -6.8811242192060862e-02 1.0072693320992359e+00 1.4149590048889245e+00 -2.3743744608676276e-01 -6.1513960331537110e-02 8.0870018180080017e-01 -2.6132691312674794e-01 -7.2363614993578174e-01 1.0295151965289762e-01 -6.3133187246976759e+00 -1.4350494540688956e+00 -1.7678949216551324e+01 
      </Row>
      <Row Index="7">
        -2.3971302679558744e+02 2.1147121574939835e+01 2.0003167112719716e+03 1.4782576695468097e+04 1.3826993607152348e+04 -4.7712308536579711e+00 6.3757022728104857e+00 4.4708630747673067e+05 6.6554473608761168e+02 -3.6304965037827205e+04 -7.8369219021062745e+03 8.1165880655427773e+03 7.7888244569952849e+02 -2.0226741934113967e+01 1.8523608256451556e+01 1.2511872307961821e+02 4.1210630542922189e+01 -5.8442190122828470e+02 -1.4364157371721039e+03 -7.0684689079759377e-01 -4.3889853452229716e-01 -1.0129090975806060e+01 1.8729934450401345e+01 9.9863836470069867e+00 -4.8877966225967712e-02 2.3795687869027748e+00 1.1691127763944721e+02 2.9473053569672714e+00 -1.7007604718026133e+01 4.7708924159544367e+01 -5.5068911578910953e+00 1.5585013383945611e+02 7.2594372000074259e-01 4.5828479318119864e-01 4.2392752490130707e+00 -2.7879600240415392e-01 -2.3368116713768905e+00 2.5583132643406952e+02 -5.0119246623614999e-01 4.4559549474661253e-01 6.8672597532172308e-01 -3.2620436961593818e+01 2.6189554654200492e+01 -1.2957280265524909e-02 -5.7000648169446305e-02 5.5101204969468677e+02 -5.1185286136479871e+00 -1.3925451388386958e+02 6.9155746702425574e+01 2.4939210257794993e+01 2.1214280018059497e+02 -2.6673281087982392e-01 -1.1037663661243864e-01 -3.9484876987190138e+00 -2.3440074602653476e+00 5.3980537508637951e+01 -5.2197344002137584e+01 7.2743656689377644e+01 -7.6806059637701036e+00 -5.4651198960480406e+02 -4.2826837895557646e+03 -4.3666546195651763e+03 4.1834896255254383e-01 -1.5126886692868339e+01 -1.3640350179634584e+05 -1.8578329876776479e+02 1.0981132329324686e+04 2.2178847715222792e+03 -2.3611244398853960e+03 -1.3840755394277221e+02 5.1549763672854052e+00 -6.8480736173223189e+00 -2.5333579689178805e+01 -1.2007637921213778e+01 1.9001091877031217e+02 4.1963610947638608e+02 1.9571000433707400e+02 -1.7606396168564189e+01 -1.5765963608575014e+03 -1.1917152543753438e+04 -1.1150344057131224e+04 3.6820551582110594e+00 2.2532298819356118e+00 -3.5802961059032340e+05 -5.3865776194977298e+02 2.9165270831975151e+04 6.1707743545296107e+03 -6.6810480114726261e+03 -1.3865852850502997e+03 1.0950032945316275e+01 -1.4259165907983018e+01 -1.2270624936491004e+02 -3.0256743750329491e+01 4.4384064608727482e+02 8.9114031661960121e+02 1.3438734633849666e+01 -1.0933750067668484e+00 -8.3483717189259465e+01 -7.8202794086415781e+02 -9.4483138370199424e+02 8.0124449310057022e-02 -6.1313096625258980e+00 -2.9597322225531108e+04 -4.6642738571558326e+01 2.1113215500719393e+03 6.7347832988901882e+02 -4.5443266148685035e+02 2.0713007644833306e+02 2.9653009552729266e+00 -1.5617381002606081e+00 -1.8746047302760417e+01 -3.5617294341787016e+00 5.8447959874392311e+01 1.0875356162393177e+02 2.6497986808826286e+00 -1.2386896780058196e+00 -9.0846246193174096e+00 -4.3649285491088889e+01 1.1294148188087061e+02 -1.3392248592015052e-01 3.1506287894872083e+00 9.6804559694157000e-01 4.7064996339339871e-01 8.0410429504080412e+01 5.1044447377795962e+01 -2.4908398847439756e+01 1.8371748297327923e+02 7.7869724514512373e-01 1.3390808555467471e-01 5.3662025485158038e+00 4.0669842878111373e-01 -9.1018524779796550e+00 5.1259652554342722e+01 1.6863442918541224e+01 -2.8001896194471989e+00 1.9429547889713799e+01 8.6715686074187612e+00 -1.4437990645498592e+01 -2.5833166571147270e-01 5.1590062502492913e+00 -4.8395579477073625e+01 -1.3145622983130341e+00 1.6062008727911131e+01 1.8916458411167611e+01 -7.0217899707738979e+01 5.7967311261664781e+02 8.9416702267849146e+00 -5.6566667582629986e+00 5.1467657648056047e+01 1.1646083358506854e+00 1.2955097173076319e+02 2.0609853051459368e+02 -2.5733230533049192e+02 1.2041986907494719e+00 -3.2990681713990034e+02 1.7728549098150761e+03 1.7262311045879169e+03 4.3292196210363798e-01 4.2803685544509204e+02 3.0794687196794886e+04 -9.6138521219384359e+00 -1.3489942319717102e+03 -2.3367222385699279e+02 -1.0344585670146371e+03 -1.1797131714734132e+02 -1.8260548438161212e+01 2.3054780650428537e+00 5.4242498222882932e+02 2.9407751188320663e+01 -1.1840989583072223e+02 7.7801187282077149e+02 2.0962618594712694e+00 1.2084647322471653e-01 2.4330673821969185e+01 1.7705165097188910e+01 -3.3987300100571154e+01 6.2051898678369355e-02 -2.4983613493776176e+00 2.4806976158729135e+01 2.2855367994388871e+00 -9.9228727531588703e+01 -8.9700372472975971e+00 -7.0387015379450560e+01 -1.3995008851030455e+01 4.1365655300356408e-02 -2.0860858545169947e-02 -6.6240063947693688e+00 1.9808161545260639e-01 2.1309188188764391e+01 -2.8278119559323386e+01 1.4227573677004443e+02 -3.2273925791356476e+02 -7.1432223467160611e+01 3.4754065858364106e+02 5.0016054137100218e+02 -5.1234725976390564e+01 -1.9325825490636078e+02 3.0484988216218717e+04 1.5391142240519531e+02 -2.8985711490220356e+03 -6.4745914785972127e+02 1.2809997214244104e+03 -8.7576817331202619e+01 2.5517972979323758e+01 -6.0941589367119605e+01 1.2112347877472224e+02 1.0655557912542274e+02 -6.8929075984109659e+01 -6.6438184526479426e+02 4.9931718146922321e-02 -3.1140260300528766e-01 1.2037289549512650e+01 1.9662268277748626e+02 -8.2908120283407612e+01 2.0989273497715538e-01 -2.0913038811920387e+01 -2.5033420198483662e+02 1.0536184222751217e+00 -1.6710058333061443e+02 -6.9253412232175435e+01 2.5422612149921406e+01 3.1692174919693798e+01 -1.2400900521688563e+00 -9.1264148385794996e-02 8.5916852041531122e-01 -5.5999779319874516e+00 -9.3534115476966271e+00 -8.2014917226085799e+01 6.4230528276443200e-01 3.6032037591386512e-01 1.5348212451798002e+01 -2.3527534414697072e+01 4.6946367087274055e+01 -7.4302584785809200e-02 1.8217412319364552e+00 8.4175617585620401e+01 -2.4393458809187818e+00 3.6927734996335111e+01 -5.2641825552186916e+01 -3.2372488197398610e+00 -2.8650855145371798e+02 -9.1495079013539282e-01 1.6964009555491089e-01 -2.6614137121058540e+01 -7.5495515536090352e-01 -5.8390721806762684e+01 -8.5409602223677098e+01 9.1108613582621700e-01 1.0782518051595133e-01 -2.8366557970523445e+01 2.6509506393617766e+01 -2.2695296579126204e+01 5.1601705623676608e-02 -5.4574657461641376e+00 -1.2636824162371280e+01 5.3822253934978193e+00 -2.6015945495047475e+01 -8.7066108900902080e+01 -1.9536850223610756e+01 -2.5572385559619715e+02 -1.6029680596644504e+00 -5.1389438045538327e-01 5.8973532961895270e+00 1.1022112762180121e-01 -2.3569252121536678e+01 3.3335284053493524e+01 -5.0895949933560402e+01 -3.2918009758480116e+02 -6.2009908881284071e+02 -3.4485151967670515e+02 -7.1902421657950367e+02 -5.1081603744657208e+01 2.0343931207345798e+02 -3.0465941202018490e+04 2.5676663298663762e+01 2.9301344295444305e+03 6.7847714172882934e+02 -1.4501459961879932e+03 8.6695453621154343e+01 1.3104503474253036e+01 -6.9559886814019350e+01 6.6657756407376291e+02 1.2540459526991913e+02 5.1376097587236671e+01 8.9745317225301267e+02 4.9579920791545717e-02 2.5869083103989166e-02 -2.4807693352439438e+02 2.1045628195743092e+02 1.3238385481407889e+01 1.0098177762786200e+00 9.7279026930101864e-01 -2.6313677572236500e+01 -1.6700651974807981e+00 -1.4143347290528380e+01 1.5905476844937400e+02 -5.9813255676185406e-01 3.0815123764041470e+00 4.8320626412867753e+00 -3.9753832296242919e-01 6.1736148145434953e+01 1.6408722853650914e-01 1.6867197787561232e+00 8.8344265972881817e+02 7.1705014181571653e+02 
      </Row>
      <Row Index="8">
        7.1201720189775097e+02 1.8241833209794748e+01 5.4241109944327945e+02 5.5695459732917789e+02 1.6608769863336056e+02 -4.4172750511022365e+01 4.3012680842535201e+02 6.6554473317400516e+02 1.0625284049068781e+04 3.3439953926324233e+02 1.3426636810157506e+03 4.0251288686401913e+03 3.3343191906235279e+02 3.9958275625604969e+01 7.6922356067552911e+01 1.7612773980908464e+03 4.1339207903176396e+02 9.6274097535017063e+02 1.4203564462043428e+03 -1.2761430396721152e+00 -2.5007109451266378e-02 -1.2455140295100233e+00 -3.1477925055218745e+00 -2.6764899458007658e+00 7.7693348537698867e-02 1.9698356372583664e-01 4.2508529768900019e+00 -2.5835712897190328e+00 3.1092865955917439e+00 -9.6592160650098435e-01 -2.5554252762673477e+00 -2.4026219743856565e+00 1.2750627764490119e-01 -1.3837762628321298e-01 1.2360778669559580e+00 -5.0138453445103293e-01 3.6873021844850493e+00 1.0578334240180190e+01 8.7513025255993693e-01 -6.5722403280211061e-02 -1.4049549237497048e+00 -1.6364804872763353e-01 -2.8212587483947313e+00 -8.2748134620208441e-02 -2.6158608919422288e-01 -2.9162112729900542e+00 1.4349133396050981e+00 3.3943422129794549e+00 -3.3735296032140809e+00 1.2926411649041598e+00 1.9881611743123795e+01 -1.4236427702349727e-01 -4.8989959007957579e-02 -4.9226454401387887e+00 -6.7126589301461870e-01 7.4176595740192965e+00 -3.1698154307269135e+00 -2.2114267323574418e+02 -6.4882301171662462e+00 -1.7202423984240093e+02 -1.7585440698043928e+02 -5.2079604350648424e+01 1.4109453802405032e+01 -1.3240549945678654e+02 -1.9677412749892136e+02 -3.3493809190160059e+03 -1.0265962077156384e+02 -4.3484354284258580e+02 -1.2303311371697400e+03 -1.5096843174061405e+02 -1.2010007193141668e+01 -2.4296912975383378e+01 -5.4805966621943662e+02 -1.3015951676132289e+02 -3.0244049172238311e+02 -4.3384596938481752e+02 -5.7050616009703026e+02 -1.4238081164755197e+01 -4.3725355942207693e+02 -4.4873207365894734e+02 -1.3693552339486746e+02 3.5924605251794603e+01 -3.4685231821738762e+02 -5.3017027207827778e+02 -8.6170927046822908e+03 -2.7390026339287658e+02 -1.0883424217578081e+03 -3.2487655832504870e+03 -3.4557698143436573e+02 -3.2106425863244375e+01 -6.2229018514008288e+01 -1.4239062428668985e+03 -3.3356281538937628e+02 -7.6411554562165816e+02 -1.1581233185477704e+03 -5.1009268988302189e+01 -1.0614287000055107e+00 -3.8327642109015358e+01 -3.9552307271847440e+01 -6.3912782202002161e+00 2.9768950971329837e+00 -3.1065343528524160e+01 -4.2920783400248638e+01 -7.1897087767637686e+02 -1.6459529009659832e+01 -6.5285097544916653e+01 -2.7441583045414427e+02 3.4437830000497343e+00 -2.4195310003607258e+00 -5.1241993965971266e+00 -1.1508492295537144e+02 -2.7229622888029184e+01 -7.5686456465898900e+01 -9.3651633127337846e+01 1.7902868065992781e+00 -5.2503183646896101e-02 1.8087061403303117e+00 2.8402430621592600e+00 -6.3498611924775261e-01 1.1292561161798137e-01 -8.1011995487880406e-01 -1.2714882957163085e+00 -8.6914030814539878e+00 -9.4368957348147975e-01 5.1224909257662610e+00 -2.5617820639797433e+00 -3.7739256911579240e+00 2.7114259000771801e-02 -2.8071166835736233e-01 4.8555569949955952e+00 -1.1135226191082515e-01 8.4195969392199697e+00 -5.4400777422519297e-01 3.7546277778581043e+00 6.9306722825189127e-02 4.0771962215790438e+00 3.2733584298321281e+00 4.1324604565042078e+00 6.5957527901337354e-02 7.7707481863416206e-01 4.1155744475246365e+00 -1.7840973391673945e+01 -1.5473496092287036e+00 -4.0015876513825788e+00 -3.0288704577610588e+00 2.8106725190790712e+01 4.9838376043851440e-02 4.8874231989088912e-03 -1.1940722532524887e+01 1.2539757455625420e+00 7.2061957022862657e+00 3.6384094142194954e+00 -1.6737917422662557e+02 7.6974288902564219e+00 -4.3014937253902644e+01 5.7939173997131093e+01 1.1024947376874570e+02 -9.4492814991511196e+00 -5.7179689041261554e+01 4.0601806445836132e+01 -1.1134378137764634e+02 4.2052335284279252e+01 7.7289725454320433e+01 9.9175117326176405e+01 2.9478156012657564e+01 -5.6535472566051226e+00 3.5909817455489105e+01 -4.3436689760493095e+01 6.2631477704778902e+01 1.9501435470380238e+02 1.2326542139329104e+02 -8.4938224053663003e-01 -1.7017783643684936e-01 1.9330598244464090e+00 -9.5691527446386537e-03 4.5740200250944758e+00 5.0515397236789994e-03 3.5355408436229396e-01 2.8001266527255453e+00 -2.6846113363978930e+00 4.7984772641268592e-01 4.2817701389562899e+00 -1.0018040548233245e+00 1.1815556536612224e+01 -3.9777633791523437e-02 2.3783215309656214e-03 1.0242816747603909e+00 3.8979740395246409e-01 -1.5638502475781415e+00 -2.7016790292673249e+00 1.6666927574592592e+02 -7.4561988263064308e+01 1.8481727494384722e+02 3.0048901666381425e+01 -2.8361829206660332e+01 -4.4161576832497673e+01 1.7139420391088811e+02 5.0531972166907508e+01 1.0384753995822889e+03 1.6129487475441863e+01 8.8310718354474375e+01 4.1039642773235801e+02 2.8395504293075646e+01 6.0807246785738812e+01 8.2835558045243715e+01 7.2241838738301027e+01 8.7732914990317113e+01 4.5930542278365465e+00 5.6747642736392663e+01 -2.4634467679354657e+00 6.7469526721660245e-01 1.7381750717468094e+00 1.2303997733497454e+00 1.1873874961033266e+00 9.7245900692919385e-02 3.3557738174423690e+00 1.4089340459099731e-01 1.9234279781534497e+01 -5.3997955352861027e+00 -1.0833489518253742e+01 1.3215528703832661e+01 1.3459072667289547e+01 2.8266166379313518e-01 4.2968432243821297e-02 4.1350556117129100e+00 -1.1032187767772825e+00 5.1683963501639028e+00 -1.2247062908228997e+01 9.3115120250895689e-01 6.3047180866192321e-02 -5.6214210660427355e-01 1.3522196819641366e+00 -5.6350671073655434e-02 -7.8617686729668179e-02 6.3619703843389175e-01 -5.2441390926775284e+00 -5.0958819926613330e+00 9.0084764645374094e-01 -6.4798440094424645e+00 -9.0985718114563952e-01 -9.4407533979685176e+00 -1.8683027522702389e-01 -2.6633680785481673e-02 3.4447352869019596e+00 -3.3127558260406431e-01 -3.3884265769148740e+00 2.7129161053153439e-01 1.5213787650844137e+00 -6.2689722417604621e-02 4.2565872637469511e+00 -3.4740897923423120e-01 2.4807248802955222e+00 -1.0550223531461178e-02 8.8637000513368847e-01 3.7998563586819500e+00 -2.7808810511463138e+00 -8.4832028772585533e-01 -2.4065477318051371e+00 8.6318748421803093e-02 -2.9725826196066365e+01 -1.6826672223524208e-01 6.7374993447971931e-02 1.9297257291442844e+00 -2.5312525436473549e-01 -2.4325869257775352e+00 -3.2071751285024277e+00 -1.5324303756175823e+02 -7.0313442333075059e+01 2.7471809942391978e+01 -3.0179270406839692e+01 4.4370078701512966e+01 -4.3669204550913513e+01 2.4909745851737512e+01 -4.9621382185432196e+01 -1.4221514516395428e+03 -1.5981136352353587e+01 -1.1818788231439703e+02 -3.2874443934896226e+02 -2.8286870782965366e+01 4.6969290730635279e+01 1.0215420206385529e+02 -3.6526416328730556e+02 6.1231426024576081e+01 1.3318653131742678e+01 -1.2600149647820717e+02 3.2431182659982127e-01 7.2261676155356724e-02 3.9421988033413911e+00 -2.6763319758570994e+00 1.5076442937154773e+00 -1.8256879751680194e-01 -5.6230543727106674e-02 1.9027095409508510e+00 -1.2502530236663720e+00 -8.5055420156110839e-01 1.8865465471012698e+01 -4.1967560114265900e-01 4.2169056754350898e-03 -7.4047697417790381e-02 7.3480677261789751e-02 -1.3685805910719093e+01 1.1231659452300224e-01 6.0242674269305017e+00 2.4818248999214003e+01 -5.7525617510430183e-01 
      </Row>
      <Row Index="9">
        -1.6057215835607280e+01 -2.1806580665554463e+01 -1.0616110659940612e+04 -3.4140110005387207e+04 -8.6968547824464622e+02 -1.4301157105307110e+01 1.6890964898405778e+03 -3.6304965032430642e+04 3.3439953845082448e+02 1.1182894359667665e+05 -7.7747157744483993e+03 5.5177742876068969e+03 -2.6150472575052754e+02 1.3701025499414280e+02 4.8999340764658349e+01 1.9278344846423973e+01 1.4088127383807182e+02 8.9870182516072236e+02 -1.9174982669325527e+03 1.5529494728198074e+00 -2.0597961089678922e-02 7.5877373366073115e+00 -2.5191293074133480e+01 -1.2940074608456234e+01 6.0961215911728379e-02 -4.3597653072690488e+00 1.3787491743468934e+01 1.1665248831665911e+00 -4.1659346578241994e+01 1.6326756991239368e+01 -8.0007751939615890e+00 -6.0409234893347843e+01 -4.2718754894735866e-02 -4.7820291049824026e-01 -9.2547885526662625e+00 1.9336626560558315e-01 -6.1199099988106411e+01 6.9115361519596121e+01 -1.2264756329323551e-01 2.1415897039969423e-01 2.6785826157333741e+00 3.3708298298423607e+01 1.3279039383640338e+01 1.1487363394958486e-01 3.6497226536612204e+00 -1.0636487058581534e+02 -4.8904018173371888e+00 1.7050121897316441e+02 3.7391225693283843e+01 5.8567921304781496e+00 -1.7782024777667743e+02 -3.0992755637043046e-01 4.0169127817105160e-02 -2.6014862338746603e+01 2.8880981693907097e+00 -1.7336105686574314e+01 -2.5416026929590316e+01 4.7418463841920513e+00 6.1624646236066596e+00 3.2569317799351647e+03 1.0258453923012565e+04 3.2890710121040161e+02 4.8825439440085345e+00 -5.2287054143803141e+02 1.0929280204227396e+04 -9.8249206871415936e+01 -3.4282561764450380e+04 2.2350715078496810e+03 -1.6623003575622388e+03 3.8082933820730432e+01 -4.2599292452874209e+01 -1.7110647842877452e+01 -2.6727774285977148e+01 -4.2462172226255227e+01 -2.4084907686721328e+02 5.7140647673585636e+02 1.8798466425151560e+01 1.6650989425977976e+01 8.4222875115291899e+03 2.7304431017160881e+04 5.9908595627501688e+02 1.1361874735427334e+01 -1.3592884874562117e+03 2.9008683003519560e+04 -2.8510475187171659e+02 -8.9551523945238005e+04 6.1944121945326669e+03 -4.5361855618177851e+03 -6.8554225446479904e+01 -1.0999492871487868e+02 -4.0420561121069056e+01 -1.3900798423715969e+01 -1.1620574077520979e+02 -6.1990106407006203e+02 1.5078937191663299e+03 9.5063962309861227e-01 8.2673148720245793e-01 7.4989476373627883e+02 2.4447172377676125e+03 1.1844790057337228e+02 1.0557303222816483e+00 -1.3277915668095244e+02 2.5091352743880975e+03 -4.1760849094298216e+00 -7.6768349219466045e+03 5.9220414133189752e+02 -3.0164388796276916e+02 5.3982055093283316e+02 -8.7438568269593073e+00 -3.4697987614524188e+00 3.4503648619865999e+01 -9.0860099265703553e+00 -8.1498517564406654e+01 1.3462727210734064e+02 2.3041408320676133e+00 -4.6111146931799685e-01 5.9927672109267952e+01 1.4497909989428280e+02 -1.2368970038531643e+01 -4.9951570582061622e-04 5.4381715995555711e+00 -5.0014745402859255e+01 2.9382403426900900e+00 -5.1621593863166098e+01 3.9859600732325930e+01 -8.6262391403379262e+00 -3.2761339364234857e+02 6.0194876018097587e-02 -1.7194538182955534e+00 2.1547916637351619e+01 -1.4837985170014372e+00 -6.1418976671326753e+01 7.2287908633528017e+00 2.2111742429133756e+01 -6.4473738157503711e+00 7.9323656515818527e+01 1.1379597544822357e+02 -8.1979869224552822e+00 6.8401277742760835e-01 -2.7603499471633768e+00 -8.9391308358870447e+01 5.9704007915189994e-01 4.8100081781066429e+01 -4.3093640163539000e+01 -4.5880746661013291e+01 -5.1746905768914849e+02 1.3753102230419574e+00 -2.7740087464828065e+00 1.0972158190932350e+02 -1.1931564531411212e+01 -4.9275958323573093e+01 4.5980862105921233e+01 4.3670651258555620e+02 1.6631352895302587e+01 -1.3150850569902288e+03 -7.7716142584145382e+02 9.3454870141179572e+02 -6.5378561222249818e+00 -3.4094920478460949e+02 -2.5979448407974351e+03 -8.5048804884636411e+00 4.9385370831287728e+03 -7.7186651214208905e+02 -6.7557234589459404e+02 8.2367010310146725e+01 -2.4914440124928028e+00 1.8443388861182640e+01 1.7410107001762452e+02 2.6567811672094564e+01 6.4429198762285523e+01 2.5247320814519551e+02 3.0044414759004212e-01 -1.7238711144748464e-01 -5.7428739321250077e+00 -7.3166590239342440e+01 9.3124029576078478e+00 -1.2180992643544997e-02 -6.8376051556910653e+00 1.4108486785626448e+01 -7.6149737575766494e+00 1.8012925068054756e+01 -2.4154194554087987e+01 -4.4675129277987566e+01 7.2152048276795924e+01 7.4446871769640932e-02 -3.8931625380556056e-02 -2.2079795628933900e+00 -2.3025597960263298e+00 -8.7834524704220378e+00 -2.3462402858076530e+00 -2.7963905094984392e+02 6.8356898187515043e+00 -3.3839195826250216e+02 -2.9793462776256965e+03 -6.3569539672705287e+02 3.4713826332779078e+01 2.8346773183948130e+02 -2.3555795895248011e+03 1.1415723049980301e+02 9.0593689387150371e+03 -3.7551307887494477e+02 8.5481823969492143e+02 7.5910040478825977e+01 3.6885949010600939e+01 -7.6743985106771390e+01 -2.7429463117871057e+02 -1.3530079956486162e+01 6.0698992586316308e+01 -5.1743411952784163e+02 -4.8308440306095690e-01 2.0277672968605742e-01 4.7583942902768968e+00 -3.2536889385161112e+02 4.1409104182861057e+01 -2.8136621518867200e-02 4.5213610308849184e+00 -8.9708220960098288e+01 3.6815032875176712e+00 -6.7937136742488292e+01 -4.8555082578785715e+01 2.3746227255694976e+01 1.0229092804234438e+02 -1.0404699367202142e-01 7.3082372382998084e-01 -1.3246876063852291e+01 3.2707421653955677e+00 3.8099271897011370e+01 -1.7598507066983132e+01 -1.1561188941033806e+00 -2.4566189205391709e-01 -1.1703026629490541e+01 2.7701088110258166e+01 -5.7968883812636989e+00 2.1983527862195373e-02 -3.3666699411342353e+00 1.1928442404805456e+02 -9.6532396471405235e-01 3.0025515350357743e+01 -1.0402836790773297e+02 5.7407314514924934e-01 7.2742544066879361e+01 -6.5030496985283293e-01 -8.4237296828487018e-02 3.2092295400677671e+00 2.8763340647334985e+00 -3.2367164360127987e-01 -1.2734260052434365e-01 6.3027212149274536e-02 2.8310832717394985e-01 5.0593091292317013e+01 1.2961539219603132e+01 1.2597108005662697e+01 5.3082489683918321e-02 -4.2905023851499386e+00 -9.8814079404648510e+01 -7.3464304878411895e+00 1.1546697758612865e+02 -8.3700101972688714e+01 -8.9332587174917180e+00 1.7163223353385047e+02 -2.6372219987594669e-01 -3.5242050393499369e-02 -1.7592546189859554e+01 -1.3101322581211430e+00 2.2819093086821930e+01 -6.3216386405838421e+00 1.8355159061813521e+02 2.0296711074077702e+01 4.8230009843145467e+02 2.9803664708543042e+03 5.0900660349300421e+02 3.2154669519189561e+01 -4.2811851417929921e+02 2.3690231854749336e+03 2.9232037589598349e+01 -9.1550805890083429e+03 3.9360701908300524e+02 -1.0280261820854159e+03 -7.5331583434088259e+01 6.5029434541809223e+00 -7.1378757346934634e+01 7.1592534638634788e+00 -2.5568546632284153e+01 -7.8818001401535412e+01 4.7560767637969366e+02 -3.7481123283106044e-02 -1.1573219276139035e-01 2.7781490038923835e+02 -1.3788361314307019e+02 -1.1079964082798146e+01 -8.1030062799609170e-01 4.8018385273449571e-01 -2.8061451922651912e+01 -8.8389122536609310e-01 -1.6054248293173536e+01 1.3081374026058486e+02 -3.5010131968527158e+00 6.1685001936946893e-01 -5.5630405884724254e-01 4.3742212804207625e-01 -5.5657282568651581e+01 -4.3787125674457172e-01 -1.9533310483354988e+01 3.8300372397489093e+02 3.1850622720893159e+02 
      </Row>
      <Row Index="10">
