<?xml version="1.0"?>
<MethodSetup Method="MLP::MLPBNN">
  <GeneralInfo>
    <Info name="TMVA Release" value="4.2.1 [262657]"/>
    <Info name="ROOT Release" value="6.26/02 [399874]"/>
    <Info name="Creator" value="s1412595"/>
    <Info name="Date" value="Sun May  1 13:17:43 2022"/>
    <Info name="Host" value="Linux root-ubuntu-2004-1 5.4.0-73-generic #82-Ubuntu SMP Wed Apr 14 17:39:42 UTC 2021 x86_64 x86_64 x86_64 GNU/Linux"/>
    <Info name="Dir" value="/home/s1412595/Desktop/MSc/TMVA/runs/run_fs1_hp1"/>
    <Info name="Training events" value="120000"/>
    <Info name="TrainingTime" value="4.29236944e+02"/>
    <Info name="AnalysisType" value="Classification"/>
  </GeneralInfo>
  <Options>
    <Option name="NCycles" modified="Yes">60</Option>
    <Option name="HiddenLayers" modified="Yes">N+5</Option>
    <Option name="NeuronType" modified="Yes">tanh</Option>
    <Option name="RandomSeed" modified="No">1</Option>
    <Option name="EstimatorType" modified="No">CE</Option>
    <Option name="NeuronInputType" modified="No">sum</Option>
    <Option name="V" modified="Yes">False</Option>
    <Option name="VerbosityLevel" modified="No">Default</Option>
    <Option name="VarTransform" modified="Yes">N</Option>
    <Option name="H" modified="Yes">True</Option>
    <Option name="CreateMVAPdfs" modified="No">False</Option>
    <Option name="IgnoreNegWeightsInTraining" modified="No">False</Option>
    <Option name="TrainingMethod" modified="Yes">BFGS</Option>
    <Option name="LearningRate" modified="No">2.000000e-02</Option>
    <Option name="DecayRate" modified="No">1.000000e-02</Option>
    <Option name="TestRate" modified="Yes">5</Option>
    <Option name="EpochMonitoring" modified="No">False</Option>
    <Option name="Sampling" modified="No">1.000000e+00</Option>
    <Option name="SamplingEpoch" modified="No">1.000000e+00</Option>
    <Option name="SamplingImportance" modified="No">1.000000e+00</Option>
    <Option name="SamplingTraining" modified="No">True</Option>
    <Option name="SamplingTesting" modified="No">False</Option>
    <Option name="ResetStep" modified="No">50</Option>
    <Option name="Tau" modified="No">3.000000e+00</Option>
    <Option name="BPMode" modified="No">sequential</Option>
    <Option name="BatchSize" modified="No">-1</Option>
    <Option name="ConvergenceImprove" modified="No">1.000000e-30</Option>
    <Option name="ConvergenceTests" modified="No">-1</Option>
    <Option name="UseRegulator" modified="Yes">True</Option>
    <Option name="UpdateLimit" modified="No">10000</Option>
    <Option name="CalculateErrors" modified="No">False</Option>
    <Option name="WeightRange" modified="No">1.000000e+00</Option>
  </Options>
  <Variables NVar="11">
    <Variable VarIndex="0" Expression="Xicst_PT" Label="Xicst_PT" Title="Xicst_PT" Unit="" Internal="Xicst_PT" Type="F" Min="2.32683643e+03" Max="4.92342539e+04"/>
    <Variable VarIndex="1" Expression="Kbach_ProbNNk" Label="Kbach_ProbNNk" Title="Kbach_ProbNNk" Unit="" Internal="Kbach_ProbNNk" Type="F" Min="5.10000885e-01" Max="9.99803305e-01"/>
    <Variable VarIndex="2" Expression="Lc_PT" Label="Lc_PT" Title="Lc_PT" Unit="" Internal="Lc_PT" Type="F" Min="2.52761890e+03" Max="4.00415273e+04"/>
    <Variable VarIndex="3" Expression="pibach_PT" Label="pibach_PT" Title="pibach_PT" Unit="" Internal="pibach_PT" Type="F" Min="2.00006271e+02" Max="3.32139111e+03"/>
    <Variable VarIndex="4" Expression="pibach_ProbNNpi" Label="pibach_ProbNNpi" Title="pibach_ProbNNpi" Unit="" Internal="pibach_ProbNNpi" Type="F" Min="1.00149095e-01" Max="9.99639690e-01"/>
    <Variable VarIndex="5" Expression="Xicst_IPCHI2_OWNPV" Label="Xicst_IPCHI2_OWNPV" Title="Xicst_IPCHI2_OWNPV" Unit="" Internal="Xicst_IPCHI2_OWNPV" Type="F" Min="1.37118786e-05" Max="2.63996133e+04"/>
    <Variable VarIndex="6" Expression="Lc_IPCHI2_OWNPV" Label="Lc_IPCHI2_OWNPV" Title="Lc_IPCHI2_OWNPV" Unit="" Internal="Lc_IPCHI2_OWNPV" Type="F" Min="1.04185083e-05" Max="8.99999237e+00"/>
    <Variable VarIndex="7" Expression="Xicst_FDCHI2_OWNPV" Label="Xicst_FDCHI2_OWNPV" Title="Xicst_FDCHI2_OWNPV" Unit="" Internal="Xicst_FDCHI2_OWNPV" Type="F" Min="1.69576111e-03" Max="2.45688275e+06"/>
    <Variable VarIndex="8" Expression="Xicst_ENDVERTEX_CHI2" Label="Xicst_ENDVERTEX_CHI2" Title="Xicst_ENDVERTEX_CHI2" Unit="" Internal="Xicst_ENDVERTEX_CHI2" Type="F" Min="1.72308029e-03" Max="5.99373703e+01"/>
    <Variable VarIndex="9" Expression="pibach_IPCHI2_OWNPV" Label="pibach_IPCHI2_OWNPV" Title="pibach_IPCHI2_OWNPV" Unit="" Internal="pibach_IPCHI2_OWNPV" Type="F" Min="8.96283200e-06" Max="8.99967575e+00"/>
    <Variable VarIndex="10" Expression="Kbach_IPCHI2_OWNPV" Label="Kbach_IPCHI2_OWNPV" Title="Kbach_IPCHI2_OWNPV" Unit="" Internal="Kbach_IPCHI2_OWNPV" Type="F" Min="1.30371254e-05" Max="8.99991798e+00"/>
  </Variables>
  <Spectators NSpec="1">
    <Spectator SpecIndex="0" Expression="Xicst_M" Label="Xicst_M" Title="Xicst Mass" Unit="F" Internal="Xicst_M" Type="F" Min="2.92377637e+03" Max="3.90779272e+03"/>
  </Spectators>
  <Classes NClass="2">
    <Class Name="Signal" Index="0"/>
    <Class Name="Background" Index="1"/>
  </Classes>
  <Transformations NTransformations="1">
    <Transform Name="Normalize">
      <Selection>
        <Input NInputs="11">
          <Input Type="Variable" Label="Xicst_PT" Expression="Xicst_PT"/>
          <Input Type="Variable" Label="Kbach_ProbNNk" Expression="Kbach_ProbNNk"/>
          <Input Type="Variable" Label="Lc_PT" Expression="Lc_PT"/>
          <Input Type="Variable" Label="pibach_PT" Expression="pibach_PT"/>
          <Input Type="Variable" Label="pibach_ProbNNpi" Expression="pibach_ProbNNpi"/>
          <Input Type="Variable" Label="Xicst_IPCHI2_OWNPV" Expression="Xicst_IPCHI2_OWNPV"/>
          <Input Type="Variable" Label="Lc_IPCHI2_OWNPV" Expression="Lc_IPCHI2_OWNPV"/>
          <Input Type="Variable" Label="Xicst_FDCHI2_OWNPV" Expression="Xicst_FDCHI2_OWNPV"/>
          <Input Type="Variable" Label="Xicst_ENDVERTEX_CHI2" Expression="Xicst_ENDVERTEX_CHI2"/>
          <Input Type="Variable" Label="pibach_IPCHI2_OWNPV" Expression="pibach_IPCHI2_OWNPV"/>
          <Input Type="Variable" Label="Kbach_IPCHI2_OWNPV" Expression="Kbach_IPCHI2_OWNPV"/>
        </Input>
        <Output NOutputs="11">
          <Output Type="Variable" Label="Xicst_PT" Expression="Xicst_PT"/>
          <Output Type="Variable" Label="Kbach_ProbNNk" Expression="Kbach_ProbNNk"/>
          <Output Type="Variable" Label="Lc_PT" Expression="Lc_PT"/>
          <Output Type="Variable" Label="pibach_PT" Expression="pibach_PT"/>
          <Output Type="Variable" Label="pibach_ProbNNpi" Expression="pibach_ProbNNpi"/>
          <Output Type="Variable" Label="Xicst_IPCHI2_OWNPV" Expression="Xicst_IPCHI2_OWNPV"/>
          <Output Type="Variable" Label="Lc_IPCHI2_OWNPV" Expression="Lc_IPCHI2_OWNPV"/>
          <Output Type="Variable" Label="Xicst_FDCHI2_OWNPV" Expression="Xicst_FDCHI2_OWNPV"/>
          <Output Type="Variable" Label="Xicst_ENDVERTEX_CHI2" Expression="Xicst_ENDVERTEX_CHI2"/>
          <Output Type="Variable" Label="pibach_IPCHI2_OWNPV" Expression="pibach_IPCHI2_OWNPV"/>
          <Output Type="Variable" Label="Kbach_IPCHI2_OWNPV" Expression="Kbach_IPCHI2_OWNPV"/>
        </Output>
      </Selection>
      <Class ClassIndex="0">
        <Ranges>
          <Range Index="0" Min="3.3086733398437500e+03" Max="4.9234253906250000e+04"/>
          <Range Index="1" Min="5.1000088453292847e-01" Max="9.9980330467224121e-01"/>
          <Range Index="2" Min="2.5326340332031250e+03" Max="4.0041527343750000e+04"/>
          <Range Index="3" Min="2.0000627136230469e+02" Max="3.3213911132812500e+03"/>
          <Range Index="4" Min="1.0023375600576401e-01" Max="9.9963968992233276e-01"/>
          <Range Index="5" Min="1.3711878636968322e-05" Max="5.0999150390625000e+03"/>
          <Range Index="6" Min="1.0418508281873073e-05" Max="8.9987192153930664e+00"/>
          <Range Index="7" Min="3.1707067973911762e-03" Max="4.9887138671875000e+03"/>
          <Range Index="8" Min="1.7230802914127707e-03" Max="5.7858459472656250e+01"/>
          <Range Index="9" Min="2.5563955205143429e-05" Max="8.9967641830444336e+00"/>
          <Range Index="10" Min="2.9180013370933011e-05" Max="8.9999179840087891e+00"/>
        </Ranges>
      </Class>
      <Class ClassIndex="1">
        <Ranges>
          <Range Index="0" Min="2.3268364257812500e+03" Max="3.6822753906250000e+04"/>
          <Range Index="1" Min="5.1001447439193726e-01" Max="9.9980223178863525e-01"/>
          <Range Index="2" Min="2.5276188964843750e+03" Max="3.0730033203125000e+04"/>
          <Range Index="3" Min="2.0001296997070312e+02" Max="3.2623430175781250e+03"/>
          <Range Index="4" Min="1.0014909505844116e-01" Max="9.9933230876922607e-01"/>
          <Range Index="5" Min="2.6691805032896809e-05" Max="2.6399613281250000e+04"/>
          <Range Index="6" Min="2.8562481020344421e-05" Max="8.9999923706054688e+00"/>
          <Range Index="7" Min="1.6957611078396440e-03" Max="2.4568827500000000e+06"/>
          <Range Index="8" Min="4.3928395025432110e-03" Max="5.9937370300292969e+01"/>
          <Range Index="9" Min="8.9628319983603433e-06" Max="8.9996757507324219e+00"/>
          <Range Index="10" Min="1.3037125427217688e-05" Max="8.9995861053466797e+00"/>
        </Ranges>
      </Class>
      <Class ClassIndex="2">
        <Ranges>
          <Range Index="0" Min="2.3268364257812500e+03" Max="4.9234253906250000e+04"/>
          <Range Index="1" Min="5.1000088453292847e-01" Max="9.9980330467224121e-01"/>
          <Range Index="2" Min="2.5276188964843750e+03" Max="4.0041527343750000e+04"/>
          <Range Index="3" Min="2.0000627136230469e+02" Max="3.3213911132812500e+03"/>
          <Range Index="4" Min="1.0014909505844116e-01" Max="9.9963968992233276e-01"/>
          <Range Index="5" Min="1.3711878636968322e-05" Max="2.6399613281250000e+04"/>
          <Range Index="6" Min="1.0418508281873073e-05" Max="8.9999923706054688e+00"/>
          <Range Index="7" Min="1.6957611078396440e-03" Max="2.4568827500000000e+06"/>
          <Range Index="8" Min="1.7230802914127707e-03" Max="5.9937370300292969e+01"/>
          <Range Index="9" Min="8.9628319983603433e-06" Max="8.9996757507324219e+00"/>
          <Range Index="10" Min="1.3037125427217688e-05" Max="8.9999179840087891e+00"/>
        </Ranges>
      </Class>
    </Transform>
  </Transformations>
  <MVAPdfs/>
  <Weights>
    <Layout NLayers="3">
      <Layer Index="0" NNeurons="12">
        <Neuron NSynapses="16">
          -3.3105197792472169e-01 2.2380247823556165e+00 4.1945881672207399e+00 1.8221440072126946e+00 -2.3713780453903537e+00 -1.7907089016044009e+00 -7.1329778965975987e-01 2.1943545361849508e+00 -2.3721420504696566e+00 -1.0576689425168753e+00 8.5419827999057751e-01 -6.5858832408644263e-01 -7.1401185535497380e-01 -8.4275921181454785e-02 -9.4424934375614489e-01 2.6223681177283349e+00 
        </Neuron>
        <Neuron NSynapses="16">
          1.1798098502334784e+00 1.7389602019610884e+00 1.9201549582828467e-01 1.2131797355134608e+00 -1.5429079723369710e+00 -3.0896950243380628e-03 6.0491753366575984e-01 -1.7638141215985087e-01 -1.0901189717898936e+00 -2.2188958320708008e-01 3.6421269747674110e+00 -3.8138354180763451e-01 -1.6588134142542421e+00 5.9403286171545244e-01 5.7301002277242441e-01 3.0453737544118966e+00 
        </Neuron>
        <Neuron NSynapses="16">
          -5.0760445988497860e-01 -2.7644631864858209e-02 -1.2008774807595910e+00 -1.5910265470744878e-01 -1.1459787728669324e+00 1.3398828748728411e+00 -1.2163359742625122e+00 1.3510603925351303e+00 4.5430229391601923e-01 8.6157503290301929e-01 2.6093006471734359e+00 1.1258212815721977e+00 -1.9597149585136464e-01 -1.4615079488076321e+00 4.0942605667116932e-01 -6.9662196013945299e-02 
        </Neuron>
        <Neuron NSynapses="16">
          1.2959666843511912e+00 1.5367804646930348e+00 1.3990030462582823e+00 1.4507284976437074e+00 -7.8445524913807319e-01 8.0386562772843495e-01 -1.8536955751123612e+00 -6.5496334455267069e-01 -1.8450268337560105e+00 -1.7592204434303749e+00 1.2254834284644929e+00 5.7017843886522002e-01 -1.0220599929516090e+00 6.4225231709132291e-01 -6.7325907039825639e-01 8.1033336323108149e-02 
        </Neuron>
        <Neuron NSynapses="16">
          2.3840840961951715e+00 -5.4539008199783146e-01 5.3938329697240139e-01 -1.1295881475267933e+00 8.8011801966412584e-01 1.1709315060750261e-01 -7.5649340193543968e-01 -1.4764712131246458e+00 1.2656918361155556e+00 1.1306088835762562e+00 1.6662386226237040e+00 -6.7836415465891176e-01 -1.7415424598418510e+00 -2.3589794275410592e+00 8.6179256433987705e-01 3.7228872867280327e-01 
        </Neuron>
        <Neuron NSynapses="16">
          1.4392949712628884e+00 8.4047257140461962e-01 2.2633039375534811e-01 -6.6924531422576927e-01 -1.6696008401881781e+00 -9.2856795859491659e-01 1.2662771327206916e+00 -7.9502133682799536e-01 -2.4496487022219493e+00 -1.7099669175228449e+00 4.4805677768401642e-01 -1.5342004545727009e-01 2.2315223207367225e+00 -1.2665404256509443e+00 -1.1917511202249722e+00 1.9899005189774968e+00 
        </Neuron>
        <Neuron NSynapses="16">
          -1.0488164989296862e+00 -1.2874467444152295e+00 -2.7350786813490735e-02 2.3740217586280304e-01 3.6507453839473880e-01 -1.5809830071878341e+00 7.4092850298381596e-01 1.5663749559079299e+00 -2.6541691270658596e-01 1.6307585180366946e+00 -1.7699439316616683e-01 -9.6293705197304869e-01 2.7542493401884266e-01 6.7270826493045732e-01 -1.6233654276094698e+00 -5.1487761260838771e-01 
        </Neuron>
        <Neuron NSynapses="16">
          -2.1698371797220797e-01 6.5720127278688356e-01 -2.1282410471350373e+00 1.9629159061784260e+00 -4.4666524680090175e-01 -1.6669168935735821e+00 9.0829241532978533e-01 -7.5948300056513007e-01 -2.4667449529526890e+00 1.2929670998773390e-01 3.2945264619813353e-01 1.7658676369231752e+00 1.4116404348588716e+00 3.2207116611164732e-01 -7.0825251920399634e-01 5.4623362520607643e-01 
        </Neuron>
        <Neuron NSynapses="16">
          -2.3688278911380323e+00 1.0251083289119924e+00 -6.1780222763516457e-01 -1.7032913431247374e+00 -2.8502657791892477e-01 -1.9804559952499805e+00 1.4096543446394902e-01 1.3522644396896835e+00 5.8862471290994201e-01 -1.8736844649274305e+00 8.3639919579317001e-01 1.6562417031574874e+00 2.0502600009528495e+00 4.4925080458488287e-01 -1.7638113726927389e+00 3.9574228684206431e-01 
        </Neuron>
        <Neuron NSynapses="16">
          -1.4273185731554447e+00 9.3971743354670312e-01 6.0589454139659112e-02 -4.1738023920342138e-01 -1.9505236746800660e+00 1.4967026942012401e-01 -1.3501939931074254e+00 4.7409541347213563e-01 5.5555558719931164e-01 -5.4836874980732064e-01 5.9322684488054322e-01 6.0412552997193614e-01 1.0932912538948816e+00 7.2729771550650357e-01 6.9637442828486362e-01 -3.3301987383219284e-01 
        </Neuron>
        <Neuron NSynapses="16">
          1.0135265409371694e+00 3.5531123846711860e-01 -2.9459868311024845e-02 6.4415135424944026e-01 -8.4501628170385834e-01 -2.1172306497458873e-01 -5.2011824480590274e-01 8.5269412702200309e-01 -6.9807340019484809e-01 -5.7321588323282369e-01 4.1320945817584714e-01 6.3786405223942033e-01 9.6890341010736458e-02 6.8408309403371936e-01 1.5885811420533926e+00 -6.0843021604226721e-02 
        </Neuron>
        <Neuron NSynapses="16">
          1.1671242734455569e+00 -2.0906226122329841e-01 1.2013636952887889e+00 -1.8416049353247588e+00 -7.3707728858116661e-01 1.8586152983968129e+00 1.6886952926328096e+00 -2.0601853675281578e+00 6.7577832429522866e-01 -5.7425740381638324e-01 -3.5998705506557721e-01 1.8013518591829487e+00 -1.0016245608388776e+00 -8.3065144866217688e-01 -6.8695778543441210e-01 6.6752594262088905e-01 
        </Neuron>
      </Layer>
      <Layer Index="1" NNeurons="17">
        <Neuron NSynapses="1">
          -8.2741286567019429e-02 
        </Neuron>
        <Neuron NSynapses="1">
          1.3302149750284746e+00 
        </Neuron>
        <Neuron NSynapses="1">
          3.0414824212890137e+00 
        </Neuron>
        <Neuron NSynapses="1">
          -5.1564922661595805e-02 
        </Neuron>
        <Neuron NSynapses="1">
          1.1079930748472198e-01 
        </Neuron>
        <Neuron NSynapses="1">
          -8.8039460180930018e-01 
        </Neuron>
        <Neuron NSynapses="1">
          3.0084334419985248e-01 
        </Neuron>
        <Neuron NSynapses="1">
          -4.3790675950619851e-01 
        </Neuron>
        <Neuron NSynapses="1">
          3.2026350300254769e-01 
        </Neuron>
        <Neuron NSynapses="1">
          -2.0938837630684090e-01 
        </Neuron>
        <Neuron NSynapses="1">
          1.7609643497116345e-01 
        </Neuron>
        <Neuron NSynapses="1">
          -1.2606623091789200e+00 
        </Neuron>
        <Neuron NSynapses="1">
          1.6346621579791505e+00 
        </Neuron>
        <Neuron NSynapses="1">
          5.7267590934342871e-01 
        </Neuron>
        <Neuron NSynapses="1">
          6.3736285518372182e-01 
        </Neuron>
        <Neuron NSynapses="1">
          1.6351124907796069e+00 
        </Neuron>
        <Neuron NSynapses="1">
          9.9469352317571247e-01 
        </Neuron>
      </Layer>
      <Layer Index="2" NNeurons="1">
        <Neuron NSynapses="0"/>
      </Layer>
    </Layout>
    <InverseHessian NElements="43681" NRows="209" NCols="209">
      <Row Index="0">
        7.7471651627140045e+02 5.6374910069871831e-02 1.8640577683438039e-01 9.3087466547059194e+01 -1.2443688311267874e+02 8.0362286527615652e+01 6.7537731673330192e-01 -1.0529285116631399e+02 -1.7266080818454793e+02 3.4947559343353078e+01 -5.0227768851100167e+00 -2.5015130819333873e+01 5.5947462632978841e+01 6.2962381467073989e+00 4.3590388843950166e+01 -1.0911592916379638e+00 -1.0011751841428733e+01 -1.3556400083499938e+00 -2.0428830364427046e-02 1.9389719005128541e+01 -6.5083926823659510e-01 -2.8015045153302758e+00 -6.5098437071589788e-01 3.1705512844108430e+00 1.7518297719451235e+02 -5.3174305757632965e+00 -1.4476712434209347e+00 -6.5626475613818513e-02 4.6306176609606116e+00 -3.8877117198645927e-01 -3.9789927205977738e-01 1.0895572437627155e-01 -6.8853292611037159e+02 -1.5721548046533940e+00 -4.1489941701231881e-01 -1.3347091628620888e+02 4.7520929466004418e+01 -1.1588220367171562e+02 5.2806008248970393e-01 9.9710928985120219e+01 1.1763296793526388e+02 -9.1967333119916930e+00 3.1498092671798830e+00 2.3423143945540154e+01 -3.8090450015591188e+01 -6.0917014718867346e+00 -4.0966722205076088e+01 1.0981856825955132e+00 -4.8219822016201022e+01 1.4245395951976363e+00 -2.3697604414840026e-01 1.0263191236365856e+01 1.8259963115561618e+01 7.1934602576509860e+01 4.1132526355936250e-01 8.3752006946921256e+00 -8.9354943182961051e+01 -2.0185181413000976e+01 2.6571677855208775e-01 7.7779547571811758e-01 -9.3219166761128633e+00 -6.8785313928995473e-01 -3.3664310854873882e+00 1.4152562280003744e-01 -8.3319282280564195e+00 -3.8200664903899906e-01 -2.2158505713750991e-02 9.7585963255370416e+00 1.2330700686269807e+01 -4.1223413636124775e+00 -1.9069175196395687e+00 -3.1563228406216695e+00 -1.5018807501882952e+02 1.9157919842964020e+01 9.8745793981378138e-01 -5.1409773994442531e-01 2.2834935239049230e+00 5.0769353240268034e-01 6.4291346827243245e-03 -1.4702109769603067e-02 5.6692045962178931e+01 -7.7725335712256935e+00 3.8647472906932201e-01 3.1460722114369673e+01 -1.4565897651697924e+01 2.1166480435188532e+01 -6.5790407008009765e+01 -1.6209183292445509e+01 1.3171018746797927e+00 4.6396234330091069e+01 -4.9457062253227697e+00 -6.7026381032922995e+00 3.3729255327606324e+00 -1.1478813057240661e+01 1.6156443553219447e+01 -5.4922779332128213e-01 8.4227593813901649e+00 -2.4866291590026641e+00 -1.2577599422921026e-02 -2.6030611449896242e+00 -6.7549851028570700e+00 1.2822428506626977e+00 -1.2463313601064507e-01 -4.2108473100232269e+00 3.0916308614162542e+01 3.5780615113917271e+00 1.2178240704512522e-01 7.7165702187734952e-01 -9.9841602352732606e-01 -1.9412073209663583e-01 2.5169827686955215e-01 2.6050444625419309e-03 -3.7146572474734285e+01 9.7000111606980681e+00 8.7819691193600296e+00 3.0938231029015981e+01 8.1446149567733528e+00 -1.5797106504915973e+01 3.3586724062931935e+01 3.8594862338823077e+00 1.6840809004497714e+00 -2.9435275842191800e+01 3.2876015982827007e+00 1.1802335567122631e+01 2.0968963633076783e+00 2.7813910820546841e+01 3.9487474431732380e+01 -1.6891110079573291e+01 -9.2624184678713846e+00 3.0251114607986835e+00 1.0027704977719210e-01 -2.0267200554994815e+01 9.9471129029716394e+00 -2.5517131107410243e+01 -9.3833501339828729e-01 1.2363541421640321e+00 -7.3772498878184706e+01 -1.0637633390358360e+01 -1.9499426963299360e-01 2.0085897951916643e-01 -4.0582575633008524e+00 -1.7773447001513887e-01 -1.0812280377553805e+00 2.1824804471151288e-02 7.5989812564976376e+00 -1.2239639265111606e+00 -2.9380890837815185e-02 -1.8517290957655405e+01 -3.9015025440181745e+01 -6.2084623553373603e+00 9.9912507716603405e-01 2.0095845888012605e+00 2.6963768347044635e+01 -1.5131216424488230e+00 5.2136718217467681e-02 1.9845956812880416e-01 -2.7803268719870005e+00 -2.7767510589210609e-01 4.3224492431949102e-01 4.2822074266895382e-02 -1.0934846744241572e+01 -8.7199315641169051e-01 -4.4739372344516637e-03 -4.9856613967112935e+00 -1.8133078374740137e+01 -5.5334987889877993e+00 -7.5367221106315441e-02 2.2158856957448378e+00 -8.6367405851312526e+01 4.6332730635876942e+00 3.3854886608431656e-01 -4.0345192477935754e-01 -7.4409151505249627e-01 -1.4303426503599592e-01 8.0965673074526734e-03 -2.7572815306490028e-02 7.1593774036929574e+00 3.2086199061453762e+00 8.9473598639950644e+00 -3.0927177976181902e+01 -7.7191489260878186e+00 3.4197993116270936e+01 -3.0032689995254064e+01 -6.2519297952951689e+00 -1.6865273501025513e+00 2.4460044939836905e+01 -1.9879750557565501e+00 6.9913496106622350e+00 1.5473817546771897e+01 1.5383248473316566e+01 5.2863377383099376e+01 -1.7393304145292504e+01 -1.5948936128694280e-01 -1.9294177246064557e+00 5.9220442587040334e-01 -2.5463754095631859e+00 -5.0512374725989737e+00 3.5091352508636824e+01 2.3456448277052822e-01 1.6175978571960137e-01 3.7297937277303883e-01 5.6897686436343760e+00 -4.5813324276610778e-02 1.5420162082273043e+00 2.7733686498565504e+00 1.5492120680460980e-01 1.2485389414927939e-02 1.0110369155421495e-01 -3.6485591231980017e+01 
      </Row>
      <Row Index="1">
        5.6374912822242607e-02 1.2060397186469245e+02 7.8769139875378258e-02 3.6983459107047975e+02 -7.7156937200686684e+02 -1.1702700158162770e+01 -9.4349137083792840e+00 -8.0468208065589153e+01 -5.5676711491791139e+01 2.2712389667696192e+02 -8.3240508433565008e-01 -3.9687754346509045e+00 9.6895474615221246e+00 -2.8672048558339958e-01 -7.7989891233624520e-01 -1.9187168910953509e-01 -4.0777062769392503e-01 6.8781237534011908e+00 -1.1067598298206832e-04 -5.9158822734692706e+01 -2.2393578258666054e+01 4.3944406083370708e+00 4.4357500753609802e-01 3.0376407672457804e+00 1.5068869324216473e+02 -3.1918265008775393e+00 8.9211916823582538e-02 3.1243056423319970e-01 -4.9259065342092168e-01 -5.6659307858062613e-02 1.2656549459183988e-01 -1.3063617799595181e-02 2.5713703413492919e+00 -1.0380601778848819e+02 -8.2740516848910817e-02 -3.6175796134830262e+02 6.6699493919209010e+02 4.2312619478127544e+00 9.0917304772026100e+00 6.2346732046861803e+01 4.2919694723455905e+01 -2.4695560324476088e+02 -1.1917323596722684e-01 3.9472907935116419e+00 -1.0100175980552599e+01 4.0399902934586418e-01 1.0455782257119983e+00 2.2838757202782795e-01 -2.1179617857576414e+00 -1.7463898436795624e+00 -2.4129944527189515e-02 -4.5813890400901585e+01 3.6702336663288946e+01 -2.6763736362273676e+01 1.0310407946733262e+00 1.1316053844087037e+01 8.4862862914097832e+00 2.7537284427153224e+01 -2.7617693449275527e-01 8.7396907244324495e-01 1.9486684620451626e+00 -8.9194748106532162e-02 -2.2591101041647299e-02 7.9018299720832574e-02 -1.5924318501041945e+00 -1.9071028954853197e+00 5.9122037765616210e-03 -3.1080050771416978e+00 1.8642237098238859e+01 2.6837800610962255e+01 1.5808656584019129e-01 8.0197420190001303e+00 2.0084968520117513e+01 -2.8342508087801772e+01 -9.1501908628512341e-01 -3.4699791727869722e-01 1.2981763338957677e+00 7.1149558049448738e-02 3.1242081991904591e-03 -9.0587671009550730e-03 -2.2196767845965105e+01 1.4817094770151058e+01 6.2588387118448691e-02 -4.8077743040056475e+00 -9.6546925584191357e+00 7.2715464391743126e+01 -1.4272251656949209e+00 -5.8242442168334172e+01 -1.3192494910708774e+01 -3.0318500717540580e+01 3.5666344406070367e+00 5.0534727870612866e+00 -2.2087830112496931e-01 -2.2966795291692690e+00 -5.8361657793550865e+00 -6.2668154237113205e-01 7.0462525378099894e-01 -3.3455108834986778e+00 4.1746949155322052e-03 1.2400629170526827e+00 4.7250536783154260e+00 9.8996786759287829e+00 -6.4837461806434327e-01 4.0746934908505494e+00 -8.6138694667240543e+01 -2.3432015404865684e+01 -8.0885636605952271e-02 -3.6436517063842766e-01 -8.6126217651176340e-01 -5.0287612717788477e-02 -1.4309367659839378e-01 -1.1924450800711306e-02 1.0967032852181546e+01 -2.7055333390595990e+00 -7.8503659223356981e-01 -4.6725685670662642e+00 -2.0362396573095111e+01 1.3649759172310326e+01 5.6994744618577036e+00 2.8952045732527267e+01 -1.2758567512573791e+01 2.6596475076615192e+01 1.8032575622514422e+00 -1.0338986045768390e+00 7.0186512263164218e+00 1.4802470967132454e+01 -9.5387683499579357e-01 8.5920784294361301e+00 5.9460521865027616e-01 6.1416415322882578e-01 -3.0065681775686692e-02 1.4346940093621271e+01 2.3824143455023545e+00 2.0403673542356277e+01 9.9319710893497692e-01 1.1157673852589767e+00 1.2127708630007146e+02 3.5805474692395052e+01 -2.4587282429841917e-01 1.2051475818573643e-01 -9.1746411812014850e-01 -3.4093755040629781e-02 -3.0005284474154337e-01 5.4242648725214643e-02 9.0059470973696065e-01 5.2177331875445558e+00 -2.9913553071947568e-03 8.6685070466580783e+00 -2.9803917991853691e+01 -3.2267576523482262e+00 -1.0251040532847520e-01 -4.8832481724885781e+00 -4.7233162907631367e+00 3.3818875963738968e+00 -5.9806307188350630e-02 8.9042641211549256e-02 -8.5995315101160008e-01 -6.4476481744389358e-03 1.8651181481348900e-01 3.6969346253136741e-02 -1.1040737134925394e+00 1.1144747377751170e+00 -1.0560132512537346e-03 -8.9896028169164310e+00 -1.2888034492627670e+01 -4.4838879149017430e+00 -3.1931061676885975e-02 -3.6753227605824446e+00 -1.6620921175456681e+02 9.4108750454919008e+00 -8.0775840604700111e-02 8.4176784845914732e-02 -4.4271301346266068e-01 -1.7529905305496918e-02 2.9415938631480287e-01 4.1911434185068486e-03 -1.1656568123861359e+01 1.2413646000723446e+00 -7.7380001107103258e-01 4.6235228777031558e+00 1.9999806023542877e+01 9.7381748323100510e+00 5.2923351422253901e+00 -3.0207941555320183e+01 1.2757721269590547e+01 -2.8072737666968123e+01 4.6025423073372664e+00 4.4602678710886963e+00 8.4374521467525483e+00 1.2494076468775358e+01 -6.5103512396503156e+00 8.1557694184136054e+00 -3.9184524364033191e-04 -8.2814086515948393e+00 2.8475272993615020e-02 -1.4187078244582159e+00 -1.3460170965657556e+00 -6.6361004869399709e+00 -3.3989270481745160e-02 -1.5992805097588780e+00 2.7104796578396385e+01 -7.4553651527626723e+00 6.6336281731026348e-02 -1.4131619753344145e+00 -1.5372220530520675e-01 2.3043909800476770e-02 -1.7613340875474670e-01 3.6589265536751708e-02 -2.4236089981305337e+01 
      </Row>
      <Row Index="2">
        1.8640577688389659e-01 7.8769139917401476e-02 1.2725312615605003e-01 -1.1486839558048842e+00 1.0119303005528781e+00 -5.3041451682815932e-02 2.2204697924766453e-02 4.3814661722034032e-01 5.6025056099315407e-01 -6.4844834885308344e-01 4.6564835997831855e-01 1.2772746113949601e-01 2.9915668185255839e-01 -1.5765437646003566e-01 -9.3281054758766357e-02 -5.2651063001560833e-02 -1.8425491363459584e-02 8.1464239637278002e-02 3.2026398905641408e-03 5.5359521282298929e-01 -2.1259872831627813e-01 -1.7071243463841590e-02 2.0672621679241464e-02 -1.1658701946304174e-02 -7.7624219154071539e-01 2.4123726731163231e-01 2.9655994087467830e-02 2.2062836172841993e-03 -1.1335568677024827e-01 1.8622704845987503e-02 1.0099520674357076e-02 -3.7670446103646865e-03 -4.0371424783298293e-01 -4.2085082237576676e-02 -7.4834127286212040e-02 2.2172342663979308e+00 -1.0417051097718542e+00 -6.2223269725109276e-02 -6.1233542227782767e-02 -2.1204354578142315e-01 2.0674379859428882e-01 5.4676908598356455e-01 -3.9040513373960251e-01 -1.4049041764558579e-01 -1.4657873256006226e-01 1.3593624443014826e-01 1.0740543454235096e-01 5.6365954739232685e-02 -2.4185301554929239e-01 -1.1659249115204551e-02 1.5991791943764037e-02 6.6816121110093007e-01 -2.1646969557395579e-01 -4.2713492802503339e-01 -5.5485583054056153e-02 2.4689134106257171e-02 1.0054859396873326e+00 4.3792210937595399e-01 -3.0286074212914182e-02 -1.8757555253538227e-02 1.0797823564322329e-01 4.4734825646335671e-02 1.0295222076814603e-03 1.4815677366373334e-02 2.3243347339773512e-02 -1.0576408484047395e-02 5.3252426753075174e-03 -3.0985989943212644e-01 7.0839412057649376e-02 -8.0493078726885159e-02 2.5272603622027807e-04 -1.1704248535901604e-01 1.8019640928845786e+00 -2.5790201297291038e-01 3.7644179098983099e-02 8.3914998848547973e-03 -5.8944429331195064e-02 -3.9774667873228656e-02 1.1035317637425966e-02 1.1355237111104199e-03 3.4242834413823209e-01 -6.5765958779418909e-01 1.9880252485128973e-02 4.9742016532377775e-01 1.9947917319406372e-02 -5.6965028629133485e-01 1.2451344971062479e+00 -2.4685610715623163e-01 8.1569939544897352e-01 7.2304577391962166e-01 9.3679647478416284e-02 -1.7382327766194972e-02 7.6344630481197662e-02 -1.3605498527575677e-01 -2.1882806606157268e-02 -1.3191645871062127e-02 -2.5387255011945165e-02 -1.4862499984908517e-02 -4.4174860291389464e-05 1.3830981850755819e-01 6.2335340854520138e-02 1.0594772733414384e-01 2.0897970140284827e-02 8.7406259288232493e-02 -6.4109209270620349e-01 -2.7226409761329762e-01 1.8995834252014496e-02 1.5298918326643041e-03 1.3718884489118042e-02 1.3352417094300821e-02 -2.0140186105095478e-02 2.7175540171191356e-04 -9.7512725204447648e-02 2.6170294103282044e-01 -2.3283282157006074e-01 4.8694088028881666e-01 -3.5436148738412498e-02 1.9122262356475694e-01 -7.5337215368874966e-01 5.6050550846656222e-02 8.1769585374240705e-01 -2.8573551758238125e-01 -1.2087481145699575e-02 1.2995226711846897e-01 1.3841880567635467e-02 -2.6106367813384779e-01 2.9105606433017539e-01 8.7587891394315776e-02 1.1005578753573841e-01 2.8540130432745947e-03 -8.2669638069610904e-03 -1.8318580594535376e+00 -9.5552378503374058e-02 -7.3294121534447376e-01 -6.0011399169157542e-03 1.2616129318417180e-01 -1.0759423640711248e+00 2.7441547802190236e-01 9.5059512613679953e-03 -1.7345079659240148e-02 9.6935471856607114e-02 4.3222513300315013e-03 -2.2513388511170573e-02 -2.5368695874487361e-03 -9.9175718600177820e-02 2.1302171796403219e-02 1.2085180060520898e-03 -6.3217571043327681e-01 -4.7159576471939996e-02 4.3593098768120342e-02 -5.8263625963193427e-02 1.2343608697520381e-02 -5.4648229786696700e-02 9.8866834828588601e-02 5.5069746112987247e-03 -1.3544098810151173e-02 7.2310052432747796e-02 1.7183156302295090e-02 1.2627745492449383e-02 1.6145047743256471e-03 1.1746457543260647e-02 2.1115059114439338e-03 6.2269182052238081e-05 3.7785448418875944e-01 -2.4375701808853067e-02 -5.2749523955782252e-02 -1.8207618154321259e-02 2.4782455739397274e-02 1.6405201447640678e+00 4.0079008026573604e-02 3.1991482434829965e-03 -7.2228724278706746e-03 9.9934059152833841e-03 1.6147731446190881e-02 2.8659108953204893e-02 5.6087938584462038e-04 -2.9390549874594551e-02 -4.8014198928624197e-01 -1.7609790058405914e-01 -4.8557038907020800e-01 2.1764331705110967e-02 -3.6551339452947218e-01 4.5163322449618959e-01 -6.7827953974938793e-02 -8.1769682488811668e-01 3.4688118673690838e-01 5.8635677023369581e-02 6.0607941764592554e-02 1.9537542676452091e-01 -3.5439948023732853e-01 3.0966719554944117e-01 9.0634349544573264e-02 1.1553437341424678e-03 -1.3209772897835440e-02 -5.7467669459171276e-02 6.3015206528521356e-02 1.6599433201077773e-02 3.3471988148446674e-01 -8.6620161544830078e-03 2.9679977716348421e-02 1.0087825761506528e-01 -8.6169985591238521e-02 -5.4581976678358506e-03 -5.1220404986727558e-02 -6.9414943068214580e-02 -1.2814315117560286e-02 -7.1178322748721261e-03 7.6863435100679445e-03 -3.6068034987274394e-01 
      </Row>
      <Row Index="3">
        9.3087466406229169e+01 3.6983459109250202e+02 -1.1486839554655006e+00 3.6473935881104815e+04 -1.7299621869848779e+03 1.3993851043599570e+03 -9.4528882055070191e+00 -1.0070457904646646e+03 9.5414829161290545e+03 -1.4714086501932306e+03 -9.9165866461960633e+01 1.6518088462795539e+01 -3.4441507114188744e+02 3.6052559233774680e+01 7.0502880023484693e+01 1.1309768699545653e+01 -1.4090425697364672e+01 -4.6627576277610501e+01 5.5404090993303512e-02 9.2520930961836712e+01 -1.3563138763083930e+02 -5.9096610882282619e+00 3.2012848067155897e-01 7.6273911692378817e+00 -3.8132112308168289e+03 1.8220826972435475e+01 1.6767650887606990e+01 1.6344771254654162e+00 4.4438239842899705e+00 -2.5982935748512537e-01 -5.3942331372166574e-01 -3.7692045734977464e-01 -7.8776596990120311e+01 -3.3856649904013204e+02 1.3485370042137066e+00 -3.2282569036728473e+04 1.2307590976258834e+03 -1.1724232897286693e+03 2.5366216700138011e-01 9.6245767350897950e+02 -1.4773782080548117e+03 1.6875417215449736e+03 1.0511097793871679e+02 -2.1627866240310588e+01 2.9138459784230372e+02 -4.1330592873087966e+01 -7.1889905701829605e+01 -1.0390176825591441e+01 -3.0463739486978966e+01 -1.8198406747614172e+01 1.4808552814011100e-01 -1.3051535743519089e+03 -4.8298546044336490e+01 -1.3838567730262139e+02 5.4621512420618572e+00 8.5936244816344853e+01 -6.5710178868309595e+03 2.2286036561456149e+02 1.2564031424208910e+01 1.4510140432423562e+00 6.2036632133867442e+01 -4.2142506373714674e+00 -5.8254225890194107e+00 -1.2978521336547648e+00 -5.7619672414103746e+00 -9.6281322189830831e+00 2.8507638169770644e-02 -1.4302432939857836e+03 1.5346464742644486e+02 2.4487261477843958e+01 1.6104606504086667e+00 2.6979002737826434e+01 4.5875871520804194e+03 -1.0067750135572987e+02 1.2117064507568573e+01 -5.1384721669179956e-01 -2.5003494275629350e+01 -2.9133043540110748e+00 3.1299326029169023e+00 9.3041293091811283e-01 3.8142508231493025e+01 1.0627764663300759e+03 2.6868642650854384e+00 8.8310603047456971e+02 1.1471142581451295e+02 -1.7096749339698090e+02 -1.3425626925487666e+02 -2.3203993248599761e+02 1.3748251393986284e+03 -2.7893644362345549e+02 5.2849824881298744e+01 2.4308906451938036e+01 -1.0430873882353717e+02 -3.5122349411435309e+01 -1.0772953597100582e+01 -1.0947195661603651e+01 8.7460302526289837e+00 -6.7988029998338675e+00 -1.5277994379222726e-02 6.3245256985848755e+02 9.9305334607723779e+01 -4.2654468204975785e+01 -2.2350741236114544e+00 -9.8175628464256093e+01 -4.5550555116994456e+03 1.7124661517581856e+00 1.3833661605423089e+00 -3.1580166917930157e+00 4.2623315357800493e+00 1.2492247093874713e+00 -7.3288724644317949e-01 -7.4891492272010085e-02 -2.0601051914545678e+01 -5.6009720723041266e+02 2.4284959513373767e+00 1.0604658200861832e+03 -1.2327091011452285e+02 4.1145427755761602e+01 9.2872425375616970e+01 6.2398353924555863e+01 1.3714868804757716e+03 -1.1347108948147252e+02 7.5668473169584232e+00 -2.7276331517363724e+02 1.4923802923634912e+02 7.1538787497216575e+01 2.2756860300797874e+02 2.4384494986064198e+01 8.6342507785604141e+00 9.6433334724559927e-01 -2.4561472437984455e-01 -2.5334937394977169e+03 -1.4303546323294950e+02 -1.2317474855667973e+02 2.7541172745529252e+00 -5.4194410869238254e+01 -2.0315380462086760e+03 1.3949889586166614e+02 2.8342724320758350e+00 -7.6730810199153865e-01 9.6286724482440746e+00 3.8574956150348925e+00 -3.2278376707346013e+00 1.2149663372052393e+00 1.1114853780933799e+01 1.6167595308364053e+01 -2.5469377794832271e-03 -3.6561793494189624e+02 -4.6755637998277604e+02 5.9000172236999788e+01 -6.4624899158723448e-01 2.5163567237457073e+01 -2.9957438355099512e+03 6.7852728542666227e+01 2.1150617806459273e+00 -1.1525541094598175e+00 6.7883625894238264e+00 1.4930925722560993e+00 1.8507998379216701e+00 5.9481678498791690e-01 -2.2731121649478155e+01 2.7399375262644980e+00 4.2089661309416826e-02 6.1480120458822012e+02 -7.8194587221357324e+01 -5.2375872977149584e+01 -1.4494442156550065e+00 1.0687976082498949e+01 2.2389494120746385e+03 3.0932470694566291e+01 3.2463849628828036e+00 1.6844890251589106e-01 5.1026488920425566e+00 1.3349696926318444e-01 1.2748577539078667e+00 -1.9636368687234729e-01 -8.7028415418498071e+00 5.2814886458896854e+02 5.1242480734955524e+00 -1.0601609334191257e+03 1.1568391812018115e+02 -1.8938255807238602e+02 -4.2504506814006419e+01 -7.3821077775936772e+01 -1.3714703659950756e+03 1.2654427596940877e+01 5.7494010112096404e+01 -2.5059681608442602e+02 4.9258050537646341e+01 3.3325575488508065e+01 2.0544557744175791e+02 1.3219784986001985e+01 -1.2244874339569489e+00 -1.6660264913316915e+01 -5.7857640711922143e-01 1.2802175235400406e+02 -2.0461245417937519e+01 4.3980679631933208e+02 9.6297025660628677e-01 -1.7008215007988227e+01 -6.9979222838578789e+02 1.9839928949320083e+00 -1.6031229998408705e+00 6.6654588833095687e+00 6.1949689358328541e+00 -1.6403416994904525e+00 -2.7620156120123278e+00 7.9181839664509157e-01 3.8671945803758439e+02 
      </Row>
      <Row Index="4">
        -1.2443688315816274e+02 -7.7156937199770925e+02 1.0119303010753757e+00 -1.7299621867809144e+03 1.2654410537084481e+04 2.2533743056494677e+02 4.1663781077731812e+01 1.1031314810250717e+03 -3.9651204644871177e+02 7.5394170880872559e+02 2.4860732178953675e+01 2.8874409174647603e+01 -5.0506509693504540e+01 -1.5683378702353252e+00 1.3321063392515143e+01 1.3467122889670069e-01 3.2087763368412894e+00 -2.9943606757205423e+01 -3.9736902047879288e-02 -2.3420657499693743e+02 4.9946851258012930e+02 -4.2532718384864289e+01 -2.7346216414337743e+00 -3.0341520372352090e+01 1.3311240957563177e+02 -1.1593971798434882e+02 -1.3424293771710349e+01 -3.4498201604487306e+00 3.7501042373020308e+00 9.7121219259439684e-01 -1.3091833666595014e+00 6.5719913748734315e-01 8.2312467615517846e+01 6.6722443810575442e+02 -8.8668652699085282e-01 1.7530960414627853e+03 -1.0209423177045312e+04 -8.7057119102499200e+01 -3.1874091781214737e+01 -8.8953199400267204e+02 5.2610361970363010e+02 -5.3145336953681203e+02 -3.2695890472974071e+01 -3.6909095031680422e+01 2.2384554656668115e+01 1.0902292644249227e+00 -1.4890760753386786e+01 5.3209290223954708e-02 3.6999711136492550e+01 1.9322913614372126e+01 1.6999990925465169e-01 1.8940171993320519e+02 -7.6065684365309687e+02 2.4131704463367532e+02 -3.2239633036817281e+00 -1.6029420064221813e+02 -4.4886540864617564e+02 -2.9189648347195021e+02 -5.5323452540191935e+00 -4.3784427799878305e+00 2.2881335538462508e+00 8.0642178515166241e-01 1.7829084155383867e+00 -8.9754854559177399e-01 1.9384695096856916e+01 1.9196682220378349e+01 -1.0337758942625896e-02 6.5922592769401533e+01 -4.5162378418218418e+02 -2.2420232588113504e+02 2.3849469339495357e+00 -9.6088323157075592e+01 -2.1116462188194264e+03 6.3385567781336704e+01 -1.4431063904464763e+01 2.4249589372524998e+00 -4.5392011158869945e+00 -1.0535499393057774e+00 -9.7293727990165824e-01 2.1579910851388551e-02 5.9992474806474647e+01 -1.3219672833037621e+03 2.7050505300724002e+00 -2.8588159043796622e+01 4.0304687699951910e+02 -3.2069297673538313e+02 -2.5224010209396783e+02 2.5227702375148792e+02 1.5380981675072690e+02 -3.7307523910490090e+01 -3.9257705361422537e+00 -3.3902617206201164e+01 4.8320358823898061e+01 -1.8911366915978775e+01 -1.2437872203832853e+01 5.4949133379780895e+00 -9.1526153094753440e+00 2.8798540397519709e+01 -2.1097658692974072e-02 6.1188071433847654e+01 -9.2240616338975045e+01 -1.1037895029403677e+02 4.7037821107423241e+00 -2.5795157247787216e+01 2.0574689266045680e+03 4.4956841561990704e+00 -4.6139708945588609e-01 -6.9800914245744394e-01 -4.3863342490480051e-01 6.0586241379274519e-01 2.6867224627669922e-01 -1.4987290886417509e-01 -2.4137141182514995e+01 5.2363864522186657e+02 2.6205170244065727e+01 -2.9209823995254737e+01 1.9960544915260084e+02 -4.2838575084066201e+02 7.8259567121997208e+01 -1.1504260633715876e+02 1.4882332322142611e+02 4.7191601325311694e+01 -5.8207594744939101e+01 9.8415620146766102e+01 -3.8193316021729970e+01 -9.2040577858189550e+01 3.4505521937333754e+01 -2.2277461062407400e+02 -7.4011881736306009e+00 -1.2458434896295060e+01 2.9893619012222594e-01 -5.3384866457608405e+02 -1.1670034818604108e+02 -1.4469283549654500e+02 -1.0980009998113584e+01 8.2854325201663528e+00 -1.8921342639616923e+03 -1.3183107920762268e+02 -2.9431759919732272e+00 2.7279875331232688e+00 2.4440667869371104e+00 -1.5404660188590986e+00 3.5980912163652690e+00 -8.0400700530203761e-01 -1.1948962415484715e+01 -2.4662308324303432e+01 3.7210787508424603e-03 -1.6081492979223958e+02 9.2355909570103552e+02 6.0999025667606929e+01 4.7307949888055525e+00 4.3869648692384544e+01 1.5699724274519831e+03 -3.3450923731937337e+01 -3.0066246263700078e+00 -2.2558563488931895e+00 -2.6566855230265389e+00 5.3135930250594554e-01 -1.8908303124661998e+00 -5.9313796282563569e-01 9.7121556289130240e+00 -8.0528577196339874e+00 2.9782275515050555e-02 6.3721105928795623e+01 3.5368117912164968e+02 4.9387556580843011e+01 1.9463385143634646e+00 4.8180192180519718e+01 3.7880949726469862e+02 -6.1999665567353304e+01 -1.9121333987306528e+00 2.5766619714895711e-01 5.1634932393909470e+00 2.1206586261726468e-01 -2.7376849435469097e+00 -2.4787652690537409e-01 3.8994205060860395e+01 -7.5390074839425620e+02 2.9316736242167224e+01 2.9171175185298779e+01 -2.0496859194330935e+02 -7.5023755320851706e+01 -1.7943477769315064e+02 1.2610686878140547e+02 -1.4877259754937404e+02 -6.9129828088248360e+00 -5.0797105740094963e+01 5.6214675056472878e+01 -1.0785340431283657e+01 -1.1167567222064383e+02 2.3979526144760470e+01 -2.1949345362592811e+02 3.6394745494189173e-01 7.0047726584246632e+01 -4.5878143863210324e-01 2.0127762646107485e+01 7.5746862755679032e+01 1.4572459416866445e+02 4.9810942092467769e-01 2.3800794511790166e+01 -3.7236127068900748e+02 3.1289354104600303e+01 1.6406728714983103e+00 1.0487478574998665e+01 1.5314784008120451e+01 -3.0109597504200702e-01 2.6409305222409181e+00 -1.8538649758927506e+00 2.5593902361563423e+02 
      </Row>
      <Row Index="5">
        8.0362283465313453e+01 -1.1702700517435289e+01 -5.3041467918745866e-02 1.3993851577708056e+03 2.2533743683439252e+02 2.9752810149251600e+05 -4.4154721638286176e+00 -8.8347389173469105e+02 -1.7800710277829785e+03 -4.6606199240735839e+02 9.8519454530759873e+01 -2.6427506271702503e+00 5.6380156443088708e+01 4.5828754620268441e+01 4.1837107173361261e+02 -3.7096235298569873e+00 -4.7933213834234367e+00 -1.1601801464750835e+01 -3.8395767548472508e-02 1.3440687845416876e+03 3.1703980923903481e+02 -1.8939360845077788e+03 -5.2322857251710673e+00 4.7774653645033531e+01 1.0861111283501150e+03 -1.6373494265729519e+02 -1.9481143752072285e+01 -4.5162191065284816e+00 -6.7680553383585746e+01 4.5029184584033000e-01 -8.5632007949751312e+00 1.1587710936366760e+00 -1.1596026206168644e+02 2.3824536638173125e+01 -7.7942895761534492e-01 -1.4395573211929195e+03 -1.0921881608092826e+02 -2.6771992871384794e+05 1.0294247859595760e+01 1.7129693632108683e+02 -1.1968167700264075e+03 4.7617081146555574e+02 -9.6451109002568103e+01 -4.3911183137858956e+00 -1.8972095438225335e+02 -4.5794342031386101e+01 -3.6187776202722455e+02 3.9437061893509737e+00 -1.0036127477756093e+01 9.9412432375345361e-03 -4.3964109122941686e-02 7.3003085600628845e+02 -5.7224723988116466e+01 -2.3894209657167616e+04 1.1773861871126487e+01 1.6331212856768389e+02 -1.8393238966315985e+03 -2.7185221572197554e+02 -7.7794663613171569e+00 -2.1711111253173132e+00 7.6725579033843246e+01 -1.0444740511126227e+00 -4.0422979681955098e+01 5.4767040433180814e-02 -1.8436395713312599e+01 2.1615415349424580e+00 -1.7978224666148890e-01 -7.0649170976592671e+01 -8.0058467866261125e+01 6.2498815826235714e+03 1.1055074040446026e+01 1.6831832971683144e+02 1.2516522012355736e+03 1.5028783840010823e+02 -1.0977565994342788e+00 -1.7312559725953314e+00 -9.2927146808764562e+01 -1.9023906658006196e+00 -4.7792978956964340e+00 2.5978277454084253e-01 -2.2085728016045550e+03 -1.0219739140916290e+03 -7.2649785422298322e+01 2.4452943647374741e+02 -1.0174977945982334e+01 9.1731099467310396e+03 -4.1795675957193162e+03 6.4754119171726484e+02 4.0474991596999753e+03 4.5700649948145137e+03 1.4769967350439622e+01 -2.3951175511724171e+02 2.3899297822737808e+03 -9.1366427420466732e+02 1.7588062475772324e+03 5.0965579487662673e+01 -4.1545056872283226e-01 8.5851903898964679e+00 -1.9903073957659689e-01 -1.5933516721013848e+02 8.0609042240263605e+01 4.8337167320707595e+03 -2.2607249997925294e-02 -3.7304100711639643e+02 3.4243509703874588e+02 3.4338354002729608e+02 4.2454250318717168e-01 -5.3997632693971127e+00 -6.2242630797446363e+00 1.4227326891640368e-01 1.6842107217900423e+01 2.9836101443788632e-01 -2.7046333610026877e+03 5.4021185150364909e+02 2.9843205116259719e+03 2.3993174328534184e+02 1.6307121708439217e+02 -9.4748137729371774e+02 1.5557850390433950e+03 -1.2886454189163260e+01 4.0770799423864228e+03 -2.2474851636646144e+03 2.6884729832344010e+02 7.9161001728077508e+02 2.1191688433474110e+03 1.6154815054185117e+03 1.3007716890645788e+04 -1.8562601798006253e+03 9.2227893665145871e+01 6.3273478854484893e+00 -8.7012376750823073e-01 5.4645113347122697e+02 -9.2320202145310986e+01 5.8743564636373785e+03 -8.9494048374215254e+00 -7.1472654050831557e+02 -2.8682776175170147e+03 -1.8763182059987332e+02 5.3070725744154998e+00 7.0692136975661182e+00 6.5172426276343288e+01 7.9226520769093156e-01 1.8554123913204137e+01 2.0693800418355696e-01 1.2563495660271826e+01 -1.0304145713206796e+00 1.3824171031239751e-01 -6.6695917019314629e+02 2.0967428880878219e+02 6.4985585548212566e+03 7.8721980307378354e+00 -5.2665293229084881e+01 4.2282844034433365e+03 -7.0518614639100178e+01 6.3483990554062455e+00 2.4741609734052412e+00 6.7500600771095918e+01 2.0256989122304958e+00 9.7580011980924866e+00 -3.5653226589336373e-01 -6.4634290422021877e+01 -1.0915543485265857e+00 -5.2590757304328939e-02 -1.2141804463303515e+01 7.4147466334833808e+01 -5.8070853213153187e+03 1.9738424162511095e+00 -3.5152786793492822e+01 1.0916591165355198e+03 -2.0520830730139778e+01 -4.4931582179898761e+00 1.7304457032260743e+00 1.0587085785656557e+01 -8.9020010370346014e-01 -4.0973091917512392e+01 4.2219042206566382e-01 -4.9218879174176664e+03 -4.5578784504187297e+02 2.9101281137919973e+03 -2.3839269735420896e+02 -1.6910698224621632e+02 -1.7515551486667311e+04 -2.6289386290759890e+03 2.3339352946846998e+02 -4.0760096910039429e+03 2.5296126337215537e+03 2.9629948314604644e+02 5.5322910672169041e+02 4.3578889139269013e+03 7.0041180792092018e+02 1.4763216606067894e+04 -1.8058673757124650e+03 -1.9524316469663745e+00 1.4865541413214189e+01 3.3910321874227134e-01 5.0760994997752391e+01 2.4993260094285006e+01 2.0979397034898044e+04 2.3876276862590942e+00 -5.8086404878898065e+01 -8.2881047880265924e+03 5.7646026057853305e+01 2.0285325645269836e-01 3.0865772837675991e+01 -5.9529086435086015e+01 -6.4752931097196598e-01 2.2639194475356135e+01 2.5344744229774108e-01 -1.2818272373487860e+04 
      </Row>
      <Row Index="6">
        6.7537731797962053e-01 -9.4349137075666363e+00 2.2204697930833434e-02 -9.4528882207944207e+00 4.1663781069194499e+01 -4.4154716085131440e+00 2.0908696924401521e+01 1.5246801186269408e+01 7.8749863624325371e+00 -9.8916195386884013e+01 -5.9053337864341930e+00 8.9103851517351167e+00 1.5138402280831826e+01 5.7343543658312679e-01 -1.6470503149727422e+00 5.8021378005582019e-02 -5.9574118807432436e-02 -1.6684503798185180e-01 -6.8179149606479965e-04 4.1433287809704495e+00 1.8506522009361817e+00 -6.5534139814446624e-01 -3.5646964025614941e-01 -1.0992699669249535e+00 -1.8129486795146249e+01 1.5325866239381245e+00 -2.0101274130371549e-01 -1.1372618812919288e-01 -1.3275887820242760e-01 -9.0838541110972448e-03 3.5910577675072330e-03 2.8383656242310901e-02 4.3590025202385219e-01 9.0970883047616926e+00 -1.9870603841479553e-02 5.9778854327572049e+00 -4.1791088680497325e+01 1.1561562162934706e+01 -1.9131806931117556e+01 -1.3348954204060817e+01 2.9745167749588290e+00 1.0108274458082363e+02 5.6727818516092334e+00 -8.7199543692233057e+00 -1.2526716626127602e+01 -6.0094305351273558e-01 1.5039416212904504e+00 -7.8833557585581637e-02 4.2741567451756168e-02 1.4661804592745327e+00 -1.4415579852859045e-03 6.0959278692476460e+00 -3.6508575976032489e+00 5.7948638418279188e+00 -4.4552049887204559e-01 -2.2829377439569072e+00 9.6402034493644351e+00 9.3909612407201841e+00 5.6967656613559303e-01 -5.8536145743192636e-01 -7.1563587488518010e-01 -4.8423669869639308e-02 -2.7663629205623153e-03 -1.9834271386031992e-02 -3.8527038688854987e-02 -1.2864889887507402e-01 2.7688200577790645e-03 1.9197945351879842e-01 1.2801479767330495e+00 -4.7168679515777114e+00 6.8889368055537747e-01 -3.1005936340512563e-01 4.1879101315224034e+01 1.0444777608514908e+00 -1.7827947324276788e-01 -3.4049978694601746e-01 -5.0698514563192187e-02 -2.3653464406018898e-02 -5.0795752560003390e-02 -7.4008146897248106e-03 7.8502629322424067e+00 1.2168079541253235e+01 -3.1568044954326677e-02 1.4224206916409230e+00 4.2260055752727226e+00 -3.1202094094624044e+00 2.2491664601074135e+01 1.7059881432792989e+00 -1.5933817777658987e+00 1.6718214293992222e+01 -1.3420963632623424e+00 -7.1693092910116540e-01 6.7876890531391609e-01 -5.0202230491031452e-01 2.2993026107820960e+00 -4.6779384735059618e-02 -5.8817821947471316e-02 -8.2152722697982838e-01 8.9772904499107326e-04 -1.2245556219505147e+00 5.7878272214333570e-01 -3.0290660221775454e+00 -4.4095705483881087e-02 -1.2996494895437465e+00 -4.2927614661585039e+01 -5.6289771599536764e-01 -3.7004950036748530e-02 -2.2844415155106601e-01 -9.8013724162268279e-02 1.4376189313520471e-02 1.9306901114508876e-02 7.7502484423852026e-04 -3.0388204426658660e+00 -7.2741649655192990e+00 9.6136596487676951e-01 2.0468415191203846e+00 1.1370818437254115e-01 -1.2625508114940772e+01 -1.2232139393735768e+01 -9.4675379611915389e-01 -1.5129075006698258e+00 -1.2216130318878868e+01 -3.5120131370578429e+00 2.1236001062723875e+00 1.7612839742546385e+00 -6.3751326545497209e+00 -1.8628988728132079e+00 -6.0864164299786836e+00 8.8655085269429890e-02 3.9099154698322458e-01 -1.3174755108233314e-02 -7.9442605131106916e+00 -1.7593164753759538e+00 -1.3257837858164976e+00 -6.5727930195014306e-01 -2.2069364577675827e+00 -3.4658750954140487e+00 6.3718522074758255e-01 -1.4263403240092565e-01 4.3050046770130690e-01 9.4121473362651642e-04 7.5450944166874923e-02 7.5587511824120490e-02 1.5996991130669123e-02 -2.0786873405526762e-02 1.9577761192853896e-01 3.5759065360066143e-03 -4.4431445927732227e-01 -5.1649804825392280e+00 1.7614750041892364e+00 5.4163929716740722e-01 4.5883825245718324e-01 1.8406367911644338e+01 1.1255778044683353e+00 1.5436131576582968e-02 6.2540729470272893e-03 9.5153522939241952e-03 -1.9748992292375533e-02 -3.0839871730504953e-02 -6.9564850468034223e-03 -5.8313731379585043e-01 1.5516186102750851e-01 -6.8988783383908125e-04 1.1318425120506106e+00 -2.0943558683325065e+00 1.3331560972685432e+00 -2.2107617679090197e-03 4.7826007930405878e-01 2.1577304749980613e+01 -7.2011080912270842e-01 7.1407508653226204e-03 1.3189226305805501e-01 1.8631193442327676e-01 -6.4810104972634619e-03 5.8363148027383183e-02 -1.8338867589617336e-03 5.3981689014961622e+00 5.6293756231585217e+00 9.1413083246976734e-01 -2.0385250805918602e+00 -4.9540896602612738e-02 6.2135927918520224e+00 9.1826255180448833e+00 3.1922199586016653e-01 1.5128532169665050e+00 1.3496819470799636e+01 -3.9976117952977837e+00 9.1973465628898099e-01 3.9965633628015667e+00 -6.8989147039314620e+00 4.1814452308585004e-01 -6.1858188390185340e+00 1.9376804075472709e-03 -3.1503722598537554e-01 1.8670495933472142e-03 3.9754175201057346e-01 -5.4266331474444318e-01 -1.7052740942116704e+00 1.9907474600763408e-01 2.2823310213297465e-01 2.1988977912842840e+00 2.4031968043872620e-01 3.6649592203354120e-03 2.3574564207083792e-01 -6.7166988550170859e-01 -1.6020846358052454e-03 -5.2954549650444077e-02 -5.5629211506320886e-04 -4.5437954226419802e-01 
      </Row>
      <Row Index="7">
        -1.0529285118879940e+02 -8.0468208057505393e+01 4.3814661725658688e-01 -1.0070457908914204e+03 1.1031314809449798e+03 -8.8347390716670543e+02 1.5246801194152621e+01 1.5497383080131922e+03 8.8882575548792738e+02 -4.2955136452655057e+02 -1.8978619693958887e-01 1.6843399124006808e+01 1.4510980581427077e+02 -2.2123393002030407e+00 3.5138228353150588e+01 -1.6959462745392279e-01 3.8333097479685483e+00 6.9837296417020909e+00 3.3476492906569136e-02 -1.5895636434180091e+02 1.3606542399303180e+01 -3.3437057323207746e+01 -5.2100347581895023e-01 -1.6780111891909556e+01 -3.0619697907942702e+02 3.1545699919130811e+01 1.6996592250432450e+00 -6.7143699372327781e-01 -5.4426431390897339e+00 5.1452435162328491e-01 -1.4470108197419804e+00 -3.9722241707277617e-02 1.1043424300497466e+02 7.6088382366623335e+01 -2.2475806228898965e-01 1.1902339406439760e+03 -1.0566800059230143e+03 8.1503755576579056e+02 -1.0238956623850623e+01 -1.0592817313775738e+03 -1.1929409224802475e+03 2.4553306743000678e+02 -5.0058200157092347e-01 -9.7744409688295821e+00 -1.3730415597279088e+02 1.1500246100319909e+00 -3.6025209861129184e+01 2.1329527138349691e-01 7.8993405190731023e+00 8.8230521970183187e+00 1.4312778847324240e-01 1.2354500203649559e+02 -6.9435466204325394e+01 2.0024685413008478e+02 -3.8792960754194992e+00 -1.8619823676773635e+02 5.0605578996241093e+02 8.2321285041000579e+01 1.6766695830927747e+00 -2.0296392667003920e+00 -1.6518813033673609e+01 1.5810104583240978e+00 -1.3772872345653244e+00 -6.7574596646227947e-02 3.9569853041789917e+00 4.6958505067353054e+00 -2.9462715173039555e-02 -4.3737073482090011e+01 -1.7016937144231633e+01 -2.0055869565471090e+02 2.0451077084172153e-01 -2.1079876793588934e+02 2.1635487541781863e+03 1.6561034081859951e+00 2.7210973056571713e-01 -5.2794627434768615e-01 4.4215961872686469e+00 -1.6455752399448840e+00 -1.7732613821276821e-01 -2.8558270361156268e-02 -2.3835357506236569e+01 -1.6844805132221427e+02 -1.9110396358120367e+00 -2.1060921485018957e+02 -1.9227182713742991e+01 -3.4163976167824853e+02 1.8519619087073477e+02 3.8413655681208178e+02 4.6496319430772564e+02 1.4124451325798421e+02 -4.0849157741428712e+00 -6.9982207498247391e+00 -1.4489348116831309e+01 -7.6088636819160982e-01 2.5400265202011234e+01 2.1526414982359556e+00 -1.9512113991673949e+00 9.1916109841381832e-01 4.6280498224890387e-02 -1.4689094578729055e+01 -6.2373497014251463e+01 -7.6785565827797669e+01 1.1813557105166588e+00 2.2359786938733046e+02 -1.3077123670432484e+03 -8.9090524778054743e+01 -6.7025150519184562e-02 2.2852093332482255e+00 -2.0922014029975555e+00 4.7966541338952767e-01 2.4060055263558531e+00 -1.0421153984136428e-02 1.2469207707208980e+00 7.9535164805616702e+01 1.1577067796958707e+01 -2.2408665365703132e+02 7.6249580151971713e+01 -7.2162458973505181e+01 -1.0218721975903067e+02 -1.6667860901634288e+02 4.6551428500746988e+02 1.9482320369431363e+01 2.0361252281722866e+00 1.8249575917734028e+01 -2.4248828165447208e+01 -7.8786148149634592e+00 -5.5952572449311553e+01 -2.7508708621356860e+01 1.5357434513370833e+00 1.8506778356553024e+00 -6.8845535600651625e-02 1.1874351849649338e+02 -8.1990189903748387e+00 -2.2329186712391675e+02 -3.5809133325782838e-02 9.5437902606080769e+01 -9.6982779803665244e+02 7.4119482870413123e+00 5.4213797228332261e-01 1.0660972881618731e+00 6.0329147497831137e-02 7.4244907711328989e-01 3.5868284753196980e+00 -7.1348524945077707e-02 -1.9081967379019744e+00 -1.9504317817867955e+00 1.2860937231901220e-02 -1.0624683240639365e+02 2.7647509165888497e+01 3.3290781051425483e+01 -1.6728038031591150e-01 3.6990530125644703e+01 4.5325239734631032e+02 5.4855796702181934e+00 1.4974913599958728e-01 3.6887540559919607e-02 -5.8350740601576234e-01 6.1105330099493038e-01 -4.2819507461873592e+00 1.1880577068297451e-02 2.0970885720572369e+01 -1.1768970926689164e+00 -2.5899617364525951e-03 9.9762767067401313e+01 4.4513743207397312e+00 5.0209863046452426e+01 2.0733376108529633e-01 1.0169710442617077e+02 2.5095816799503059e+03 5.6045328547133408e+00 -4.3826155855347615e-01 3.9518530809632324e-01 -5.2087143250101091e+00 4.4978850055415265e-01 -3.1633026689124311e+00 5.0649357081453461e-02 4.6432386191320356e+00 -8.7396139008124692e+01 9.8726636342615421e+00 2.2434562678247769e+02 -7.7990215551962876e+01 2.1164415133233479e+02 8.3188467221368029e+01 1.8172335749166800e+02 -4.6554461639812507e+02 -7.5042979470435967e+00 -2.4480212268589057e+00 1.6655651349090352e+01 -4.9877807586843119e+01 -6.7374862617101083e+00 -3.5988220260285281e+01 -2.5335120294873768e+01 3.3522701812797351e-01 -9.7861867524562935e+00 -4.1704924776865809e-01 2.4596333131264124e+01 -4.8402219246269595e-01 -3.7033594140891566e+01 -2.7146275786802310e-01 7.0113575795522721e+01 -6.8626298185104076e+01 -2.8214422759093338e-01 -3.8715165345975855e-02 -7.4826877485705268e-01 -1.2093531647163449e+01 -5.1589087630546615e-01 2.5084097210452541e+00 -4.1522577161119845e-02 1.7572780636959791e+02 
      </Row>
      <Row Index="8">
        -1.7266079493633268e+02 -5.5676713887681061e+01 5.6025046764139574e-01 9.5414829618422664e+03 -3.9651201904036134e+02 -1.7800651916934739e+03 7.8749843558411721e+00 8.8882573351818337e+02 8.2476941445265186e+05 4.2737227301973803e+02 -2.3419204452740132e+01 -2.7443748632295719e+01 3.4714208582852143e+02 -3.6114789778918439e+00 3.9648036670753779e+00 5.8245118905169990e+00 -3.3770806680492619e+01 1.0261992778036222e+02 7.8665038885352534e-02 2.6840380680282428e+03 -4.0844253827396597e+02 -2.1613688878232557e+02 4.0936055612006794e-01 5.1859061955093374e+01 9.8192247093505022e+04 -2.8682248721203450e+02 3.1799930389446409e+00 -4.3192496896620591e-01 2.3246284300704385e+00 8.1619894552113292e-01 -2.5758258344186551e+00 6.8008837221363216e-01 1.3640684423680847e+02 3.2830259414824397e+01 1.1473051400155165e-01 -1.0409832511235961e+03 4.1843455486330606e+02 6.0688306379714322e+02 1.7093845923914373e+00 -8.7113087925499042e+02 -7.5547912484751781e+04 -8.4810176140030626e+02 2.0334425729353793e+01 4.0827662227517493e+01 -3.2099637528639028e+02 -9.9374703266577491e-01 3.3774711483219590e+00 -3.7510776017266418e+00 -1.0036357266777458e+02 6.8693864295439084e+00 6.1166049872516504e-01 -9.8095727028931742e+02 2.3621200875812474e+02 -3.7647361887032207e+02 -5.4888488064873826e+00 1.8785698807511051e+02 -1.1930458754634857e+05 -4.1726224110019530e+01 6.0354645296580802e+00 -1.6749432438135861e+00 3.1600393877359693e+01 -8.9007446988101435e+00 1.3916537557970457e+01 -2.0650033500306604e+00 -1.6953792989947601e+01 2.2617605802932854e+01 3.1674047616979806e-01 -2.9921021551106469e+03 -4.8067382086068392e+01 -1.2124534363063176e+03 -1.1512843799478425e+01 3.1792393166625175e+01 -1.4567879708830069e+05 -7.2438839560987617e+01 -1.3822348376453922e-01 -2.4242332156417143e+00 -2.8460959166841349e-01 -4.0166515904701949e+00 -4.2635436009103209e+00 5.1415295083309043e-01 -2.8781510350040662e+01 -1.9300208586883166e+03 -2.5435351816220813e+00 1.7053348679589726e+02 -3.5107133110676818e+02 -1.0219738705653053e+03 -6.9095408934244915e+00 7.2040969338232912e+01 8.0288433797301841e+04 -3.4327431554074928e+02 -4.1144966206308268e+01 -3.1516822347208386e+01 1.3016683628887165e+01 3.1443883988565982e+01 -8.7806783639749739e+01 3.0992328086934638e+01 1.1953820880438590e+01 -3.6924817978888321e+01 5.6576778379740386e-02 7.3935681967325036e+02 1.8958539641699986e+01 2.3178657323932566e+03 5.4476707660217727e+00 -1.0352569726528600e+02 7.6758142988055944e+04 -1.9778721764597020e+02 -2.7182404223468990e+00 1.8857973648596982e-01 -1.4672745855706447e+01 1.1917185911158210e+00 5.7660690837577349e+00 -4.3752365820845612e-01 2.0523828316519439e+02 1.0961873808316300e+03 2.6953850527377625e+02 2.0663067884969294e+02 -3.6016890142665852e+02 8.8646149478278130e+02 -9.0023539724654711e-02 -1.3517642295855694e+02 8.0257393352027866e+04 3.3242809244163664e+02 1.3750749740620734e+01 -2.0130659995228143e+02 -5.4209027804406105e+02 4.5952238877705793e+02 -1.9669596788076165e+03 -1.8003726297119260e+03 4.9845770746809819e+01 -1.0341314638746908e+01 -4.2071289501336184e-01 -1.1871427266426854e+04 4.5176304342942626e+02 1.2156977475313470e+03 2.2787374636428979e+00 -1.3986469370999976e+02 1.9669118801229466e+04 6.3133900422513989e-02 -2.7575159676969214e+00 1.1909452197794337e+01 -1.6618626033011417e+00 5.4414058572890562e+00 -5.5803537248999078e+00 5.4603944095083934e-01 2.5059466525924620e+01 -3.1544232502270759e+00 2.8401119410516429e-02 5.7793971182394671e+02 -3.4072491054285570e+02 -3.6451812889325174e+02 1.5268317894572823e+00 -2.1076159793146303e+01 7.5871343466281891e+04 -4.3026086945935162e+01 -1.5381388073117455e+00 4.6139668071982314e+00 -1.2123892074134119e+01 1.8708528156841517e+00 -2.5588104745507536e+00 -7.4562913726103533e-02 -3.7792752257315442e+01 -2.0666263562381985e+01 -4.9468913939665460e-02 8.9000082284810094e+02 -1.6073305137854277e+01 5.7247780020194841e+02 2.4423834395688608e+00 3.4271807839168559e+01 -7.7173726404531399e+03 -4.9730119835092140e+01 9.4949421221654973e-01 4.6545646357809964e+00 -1.7059916949806830e+01 -6.3175008021711498e-02 4.8001047297801591e-01 -7.4892918649978357e-01 7.7235230399755096e+01 -9.7611957874552706e+02 2.6727831196370471e+02 -2.0650688239171905e+02 3.9165628028841815e+02 5.5949291179650645e+03 8.0066018812043467e+00 1.1761532105280173e+02 -8.0256873446075013e+04 -4.3024152085730566e+02 -2.7313326681219564e+01 -2.0627370416255980e+02 -5.0157207790215762e+02 4.8663183334611153e+02 -2.0470680109510756e+03 -1.7705437302943549e+03 -1.1864879568234556e+00 -8.4124582354375832e+01 -1.3462821836575860e+00 1.1949040338714096e+03 -3.6430918698121218e+01 -1.3735122835468712e+04 -1.2565717118624207e+00 5.7623020468905999e+01 7.3359564371142333e+04 1.4045766791852145e+01 2.3093468990691690e-01 2.3751391793954440e+01 2.4284880315287680e+01 -1.7554517817461264e+00 3.2192317109200488e+00 -2.2477193719705859e+00 -5.8389249910018189e+04 
      </Row>
      <Row Index="9">
        3.4947559311781674e+01 2.2712389668590706e+02 -6.4844834896965597e-01 -1.4714086500616349e+03 7.5394170868436049e+02 -4.6606199712209127e+02 -9.8916195396682070e+01 -4.2955136448566498e+02 4.2737225579496589e+02 6.8442146877794166e+03 -1.7621032214934644e+01 -1.6343261236331625e+02 8.0677196061495124e+01 -1.4073948765090826e+01 -4.1843037534216130e+00 2.1685972854968010e+00 -9.3563374347946171e-01 2.6352371902263826e+01 2.5546523327724991e-02 -2.3919737864283357e+02 -3.3420005160331743e+02 1.8964179255355287e+01 5.5232452168148702e+00 2.7879591545308813e+01 -5.1334360302183777e+03 2.7739506370028698e+02 -5.5519346066999731e-01 1.1974791322647484e+01 -4.2641906731648199e+01 -6.5975639821123111e-01 2.8602504825422237e-01 -9.2703897529293755e-02 -2.2355899513768520e+01 -2.2929974946698024e+02 6.3740075656062134e-01 1.5251960218370423e+03 -3.9764600779382272e+02 4.2434411066411985e+02 9.9291955089915064e+01 3.3557857938543168e+02 1.1356464202636453e+03 -6.3576319117064122e+03 8.8023852433293559e+00 1.4574503828728496e+02 -5.3919802951357497e+01 1.6087035080635381e+01 4.5312049836223594e+00 -1.6371160803417046e+00 1.6024872389529499e+00 -1.2651171786104255e+01 1.2539343532276614e-01 -5.2505907622668815e+01 -6.1419592429818636e+01 -1.1238230274903981e+02 5.0939541075042776e+00 7.5695357286823338e+01 1.6048597123897634e+03 1.1174299997501339e+02 -4.0849622339758689e+00 2.2969059123639894e+01 -2.7529873337903695e+01 -9.3747348534247621e-01 2.7604112407766053e+00 1.0761823449254582e-02 2.3499358513883095e+00 -3.2540201567826671e+01 3.9933614276179696e-02 3.1670169998116023e+01 -2.3455433288181666e+00 2.1294051806822472e+02 -6.7758096032328408e-01 7.4771985921809375e+01 -1.0190674325527084e+01 -2.2647611234941502e+02 -1.2155552470736093e+00 -1.8929909331930259e+00 -1.5895693463270206e+01 1.1987203183874704e+00 5.5407973572969649e-01 -1.4949518393782668e-01 -3.6889729645206751e+02 -9.5578872057617923e+02 -1.0587810623745515e+00 -2.3552058893150388e+02 -2.5061718187335828e+01 1.1256612217856386e+03 -2.0127454682267583e+02 -5.5153235642868992e+02 -4.5684617631910078e+02 7.7602501424566094e+02 -3.1780349223155142e+01 5.0310317613194570e+01 3.0213803007268143e+02 -6.7798059757120654e+00 1.0413187189562166e+01 9.0949975429561913e+00 -2.8173696760223459e+00 8.9833584112111566e+00 -7.2581450948121962e-02 -2.4058906389147296e+01 -1.3171115049592061e+01 -1.2334323050181162e+00 -4.5534408751061406e-01 9.1487595414364478e+01 1.8948804993135855e+03 -3.1249064676435586e+02 -4.2370907820418324e-01 -3.3943726211959557e-01 -1.2788658228690508e+00 -5.2413706170885321e-01 -1.3484447057476898e+00 -7.7733845469967408e-02 1.4859759789314876e+02 5.1025057172006882e+02 -3.3260316772978882e+01 -2.5416633908312326e+02 -7.7608798025174110e+01 -2.6953275780648346e+02 1.0756725122546271e+02 2.9271110272268606e+02 -4.5052581691676824e+02 -4.9515404042494083e+01 4.3951384359012422e+01 4.0425082908728848e+02 -2.7739191292284886e+01 1.2320590249303157e+02 -8.1211786681072141e+01 4.6932640749231780e+00 2.1440373884836617e+01 1.8192038918095630e+01 1.3879170090823068e-01 2.5651429851308967e+02 -2.4457512763429349e+01 1.5963778969838313e+02 5.5867526662100175e-01 -4.0043333646276835e+00 3.0521146793279331e+02 1.1317302859252993e+02 -5.3752124462083799e+00 -7.4726915860070715e+00 2.4837488431299658e+01 -1.5889466909714329e+00 6.8460410982875786e-01 2.3864328322547834e-01 -3.2407527391716044e+00 -4.9587313908742194e+00 -1.8376006142379830e-02 1.5895440311205675e+02 2.9510936173930025e+02 -5.7184728330056004e+01 -1.0651163816728220e+00 -3.9395033528271775e+01 -8.0126202962361276e+02 -1.1695352225898432e+01 -1.5822685475753602e+00 -4.1359738819394103e+00 1.4569073277726943e+01 -2.1544288497117314e-02 7.6032977218118347e-01 -9.0178295927860988e-02 -3.8317483071932656e+00 2.2648949951621304e+00 -1.5757192337858772e-02 -1.1494287647458623e+02 9.3101935180155351e+01 -2.3310544923798631e+01 -1.2137318259347691e+00 -6.7828045314199414e+00 -1.6788693100651471e+03 -3.2475095381655152e+01 -8.7779833830151333e-01 -4.2903496352797923e+00 2.7875109068267796e+00 -1.3599706379618937e-03 -6.3973577146030358e-02 7.8441730564462464e-03 -1.9409804216206777e+02 -4.5812953356341950e+02 -3.4112255936195531e+01 2.5255411842594970e+02 8.9105999391930908e+01 2.4138638686334525e+02 -8.7275297250030150e+01 -3.0017842062620252e+02 4.5054729230585508e+02 1.5532658366610298e+02 -8.2069920219817527e-01 4.3538539457539832e+02 2.5297685477471441e+02 1.1655344326799461e+02 -6.6446433200702472e+01 1.4521807166891431e+01 -1.1422683656093557e-02 5.2735290408233382e+01 1.1540719604004618e-01 6.7946653794760223e+00 2.3961170626360563e+01 1.6862642623787067e+02 -8.2036441579955355e-01 -7.2971627463918178e+00 4.6969843389768414e+01 -5.8985829877277816e+01 5.3962822291671841e-01 -7.3228506901952926e+01 -6.1158646257349972e+01 3.9142177842093129e-01 -2.6220457352979665e-01 -4.7506728138657994e-01 -2.6129021161550338e+02 
      </Row>
      <Row Index="10">
        -5.0227768931659504e+00 -8.3240508633133459e-01 4.6564835994240972e-01 -9.9165866293658667e+01 2.4860732204829219e+01 9.8519454209666947e+01 -5.9053337880029613e+00 -1.8978614680713690e-01 -2.3419221284479136e+01 -1.7621032216447816e+01 6.0462411435791488e+01 1.4889382019020747e+00 -1.3247153625408146e+00 -8.0770274423906940e-02 -1.3024114688617949e+00 -3.0148419252537737e+00 -1.3551570407377700e-02 7.1839037985497356e-01 -2.2757165047381546e-03 4.4279770970775303e+00 2.7029975545096931e+00 -2.7282887242307656e+00 -8.8959536705244258e-02 3.4333887197658441e-01 6.8248345571337268e+00 -1.5350602436805616e+00 -5.0829930554368055e+00 -6.5954204001894112e-02 -3.2716924339803860e-01 7.4980343281856321e-03 3.5886088011907180e-02 3.5371661463851017e-01 2.9257601603216807e+00 9.9276504043689329e-01 -4.0656994702242744e-01 8.6029560349503299e+01 -1.8779390129667590e+01 -8.8358179490368457e+01 6.1662560806344375e+00 -5.0386941839485644e-01 1.5708430400741236e-01 1.4461577986035309e+01 -5.7672629275033692e+01 -1.3270167235081685e+00 7.8011513677935795e-01 1.2705912506307104e-01 1.2094827062519613e+00 2.8583654569875514e+00 -5.0228368852701166e-01 -4.0422982416711051e-01 -2.3496945942359085e-02 5.2771772742937628e+00 1.8756199956554269e+00 5.2684905432511240e+00 9.8119681323747088e-01 3.4756436653032097e-01 -4.9671186779742129e+00 1.3850739321214292e+00 -6.2415196702072731e+00 -1.2640466391162741e-01 6.2285880533664795e-01 4.8242765098579943e-02 -4.8586965573223395e-02 1.6990571910514513e-01 6.5383104349763244e-03 3.0579595928041270e-01 9.2675631014174087e-03 2.1883108422091979e+00 -1.6757292275196960e+00 -8.7069239372041807e-01 1.8465084276826649e-01 -2.2462938010108147e-01 -2.4471638163704768e+01 -2.2014237860343400e-01 -2.4248546406712901e+00 -8.9125691501283910e-03 8.3743861314740542e-02 -2.1641709769846251e-03 -5.6969772011508546e-02 -6.1256905403257234e-02 6.7901815425259144e+00 -4.4966907093296342e+00 9.7310958725138619e-04 2.3989982254329334e+00 -2.0970877255494997e+00 -1.2251213358963469e+01 -1.1439241457678150e+01 -3.7017988212359274e+00 1.1960233172227163e+01 2.1578572166140475e+00 1.0796049067867393e+01 3.5716810749102468e-01 -9.2246314749183966e-01 3.0628294883632607e+00 6.2160440080261026e-01 -5.0834307650476940e-01 -7.1641439038501176e-03 1.7117830840014392e-01 3.5782611851677415e-03 -3.4984983981676123e+00 -6.9368820905724693e-01 -1.1577965220908652e+01 -3.2482775979011080e-01 -1.4194100768418139e+00 1.6057281211455120e+01 -1.5287248971673684e+00 -3.5416588684658779e-01 -2.5392372510133043e-02 6.0581863077004527e-02 4.5979371186920526e-03 8.3413846633053415e-02 -7.1624901606923308e-02 -6.2371800263066604e+00 2.6040423967582740e+00 5.2414064106401126e-01 2.0898925617606210e+00 1.2208521319805641e+00 6.9870057157631891e+00 2.4306522309946534e+00 1.8888341208205475e+00 1.1990870427456684e+01 -2.0710870063138600e+00 -2.2457076035914891e+00 -9.8962432920446020e+00 2.6853027191993988e+00 -3.6420932136576343e+00 7.6201768014453659e+00 1.3256089663371537e+01 3.7109063384954766e-01 -2.6259593250372504e-01 6.2542214553985009e-03 -7.9514549022781011e-01 2.0289653205683180e+00 -1.8174982186104899e+01 -3.1991000213068332e-01 -7.4590025286772743e-01 -1.0600069286971120e+01 1.3197799723248522e+00 -9.6359645065522503e-01 7.6835739685048310e-02 1.2040606106668683e-01 3.8659234074600590e-03 1.8763643083980241e-01 2.3123704251582222e-03 4.4777389659406808e-02 -2.1215961705793324e-01 1.3619719149461917e-02 -2.3364500948619025e+00 2.5659775714444812e+00 3.5356104126046830e+00 3.3745254188990537e-01 1.1540214247665048e-01 -8.1799959917552769e+00 3.0492527627643540e-03 -8.6082801175997725e-01 1.9112580107275789e-02 4.9938491337513824e-02 -3.1985396180025383e-02 -8.5863131380797597e-02 -1.3998849756268514e-01 4.0016412099703302e-02 -4.8578126874552652e-02 5.3799421092454447e-03 -3.9039317187386366e+00 3.2421903516176531e-01 -3.1680160169314675e+00 1.6301270757127018e-01 1.4945730608559415e-02 -2.2991456959516654e+01 2.0458092365012703e-01 -6.9274341512797832e-01 4.6124559728408343e-02 8.6283882906343645e-03 -1.2121355099270481e-02 -1.2649979518916510e-01 -4.5003156981183956e-02 -1.1102146889869715e+00 -2.6215596687188345e+00 5.3315906490991072e-01 -2.0721915945499205e+00 -1.2905764284331038e+00 -4.4287325100858652e+00 -8.6852961582253414e+00 -1.8584414688492217e+00 -1.1991734496608842e+01 1.6240103307013669e+00 8.3625238921889107e+00 -9.4359760644828157e+00 1.7446686495936774e+00 -5.1634975011109141e-01 8.2191744398145765e+00 1.2592321386370505e+01 4.8874627314457464e-03 -1.4963532573469873e-01 -4.1047764893276217e-02 -2.3526254382017409e-01 9.5351085603325725e-03 5.8423578522876873e+01 7.5407944228535584e-02 -7.1264604067903470e-02 -2.1078694452882409e+01 -4.8248053817348979e-01 3.8425607122948069e-01 2.8563066832573247e-01 -5.4870455799282514e-02 -7.5606683732118984e-03 8.4145619362533619e-02 -4.8195275093121670e-01 -3.7292352009900114e+01 
      </Row>
      <Row Index="11">
        -2.5015130824167429e+01 -3.9687754338955550e+00 1.2772746111523814e-01 1.6518088510357416e+01 2.8874409164893507e+01 -2.6427510851078750e+00 8.9103851508645064e+00 1.6843399138964745e+01 -2.7443754552263385e+01 -1.6343261235871131e+02 1.4889382016429311e+00 1.9294382821562511e+01 3.1255988575206970e+01 1.4864471155703209e+00 -2.7936966483650321e+00 -2.5387878592450075e-01 9.8073521942223296e-02 -9.6777767322926778e-01 -6.1838526956227880e-05 -5.0668637394746625e+00 8.2706653709513702e+00 -1.5262530997507193e+00 1.7119641368476285e-01 -1.2968509093334002e+00 8.6025162849342450e+01 1.5867507148128823e+01 4.2499709942619646e-02 3.4359972847975329e-01 1.7656518514019903e-01 -7.7003242768455243e-02 5.0876525423562885e-02 3.1123429150985760e-02 2.3242620007491023e+01 4.2163647007884766e+00 -1.3197749170488948e-01 -2.4585832609875908e+01 -4.3505340734293569e+01 1.3624786659310757e+01 -9.6303121735766268e+00 -1.3390330791434621e+01 -1.6543059691436838e+01 1.6036778730285033e+02 -1.1362085194031206e+00 -1.8561151488751314e+01 -2.5993776994489437e+01 -1.3363579767881737e+00 2.6017063821888740e+00 2.6728545250088753e-01 1.1924752859135470e+00 2.1700492267212823e-02 -1.6667894021439703e-02 1.1266211519959910e+00 -1.9978241304677908e+00 3.8483573614155375e-01 -1.0439099687726703e+00 -3.3718513967629278e+00 -2.9459710027716937e+01 3.4614561776801708e+01 7.7583996378130626e-02 -2.3380104242190902e-01 -1.3281274371241807e+00 -1.2084411826350450e-01 1.1276813448054934e-01 2.2650139445051492e-02 -2.9519921898173784e-01 6.9876868201540931e-02 -4.0576410949491049e-03 1.3295480784203049e+00 2.2553729656201540e+00 6.1697282929009134e-01 -5.4516748586906671e-01 -2.1708228319605958e+00 4.9376544117926109e+00 -1.6048776021705592e+01 3.2359923084862885e-01 -2.1511790846998002e-02 3.7450789117362770e-02 4.5355621419621406e-02 6.0470618369319329e-03 1.7079465044232855e-02 -5.3575598979928003e+00 1.1869686109181622e+01 1.6906052807068164e-01 2.4198889316598979e+00 7.2444821967699227e+00 8.1608726866736561e+00 1.1217678368882645e+01 -1.2017090606560711e+01 2.0652539905931917e+01 4.3786606431813269e+00 4.9488193927069393e+00 2.4859809276072173e+00 -3.6614375621198860e+00 -2.4163838374204998e+00 -1.9507076266469774e+00 -6.3848761804775056e-01 4.1092486446821574e-01 -8.2931859734388524e-01 -1.8391812618918368e-03 1.0977609524945819e-01 1.5077026503578870e+00 -7.7299002106537316e+00 4.9203629417095884e-02 -2.7880806819276813e+00 -6.5784743020769383e+01 -2.4769195725026592e+01 5.5172941951808135e-02 3.8012609588297774e-02 -1.9425848433638748e-01 -4.3405670528708223e-02 -3.3786771355773359e-03 2.3478405928008678e-03 3.7183252921244048e+00 -8.2710062523525529e+00 5.1187111849175775e+00 4.2445838784587337e+00 -4.8240749379272074e-01 -2.3066327978727998e+01 -6.4433190041995916e+00 4.3883586831663308e+00 2.0748675929227829e+01 3.3817014094827300e+00 -3.9639538565235952e+00 -1.6901148500073093e+00 5.5153247605859406e+00 -4.7416036911533013e+00 4.0150221296404780e+00 -4.8412565132330467e+00 1.0754545000756650e+00 3.3842232132128025e-01 -2.6591351422396853e-03 -1.7462199709270294e+01 2.9542176168733931e+00 -1.1312453704864538e+01 6.9659164267883544e-01 2.8033322488143142e-01 -3.5895933854299074e+01 2.0332617955523748e+01 2.5141515627498245e-01 -6.6606508585428559e-01 2.4769043019256642e-01 1.1821103957785617e-01 1.1794271509285537e-01 1.3756401865004292e-02 -7.2333686654714846e-02 8.3238091845461160e-02 -8.7112225411227831e-04 4.5614959469520127e+00 -1.3587029866292804e+01 1.2875255052356351e+00 -5.8538306735441359e-01 1.4746478306587882e+00 1.2339354898082092e+01 5.2726997613016664e+00 1.4450683703034684e-01 -2.3417390979191421e-01 -7.3499343770137671e-02 -1.3536607736181094e-02 -3.9282688077126870e-02 1.5520197566520649e-02 -1.1853456568162528e+00 1.6082256594117439e-02 -7.5845594504991842e-05 -4.9015055718731659e-01 -4.3919582377603783e+00 1.7014973181851722e-01 -1.8885382716343191e-01 4.2662569753072277e-01 6.4090154169006155e+00 3.0142127697369716e+00 1.1254399419247396e-01 -3.7503480416844237e-01 3.3206569756567705e-01 -9.4385723431420487e-03 -3.0542936614979865e-02 1.3006044912857478e-02 -1.1919311988634069e+00 4.2584258728706619e+00 5.2654435259425263e+00 -4.2099967526249245e+00 4.3322975708570821e-01 -4.4143517875630778e+00 4.1916520464153653e+00 -5.8964232605112334e+00 -2.0747521896959370e+01 -2.9221830414842884e+00 1.1884980784649404e+00 -5.6514416173664017e-01 5.5787270415449939e+00 -7.0611218109144982e+00 2.1812099375381422e+00 -5.4649312068458968e+00 -2.1397323632086240e-02 -7.1286254207674260e-01 1.7587592288631139e-02 -1.4144165452168900e-01 -1.0045185362889884e+00 2.5722550459710284e+01 -1.8403408425935297e-01 5.3556136606853877e-01 -8.8471257201751428e+00 -3.3043685440539479e+00 -6.3499410612901319e-02 -3.1455050757228138e+00 -8.2634022450804023e-01 1.0086294680226399e-02 4.7290044072170190e-03 5.3136021757849400e-02 -1.6661743127208975e+01 
      </Row>
      <Row Index="12">
        5.5947462633924019e+01 9.6895474644192170e+00 2.9915668191323652e-01 -3.4441507106594099e+02 -5.0506509678661295e+01 5.6380163485229104e+01 1.5138402281887664e+01 1.4510980578087418e+02 3.4714207530051772e+02 8.0677196210629631e+01 -1.3247153450208149e+00 3.1255988590994207e+01 4.3566004477911047e+03 1.2583740904742340e+00 -9.2563319252790386e+00 1.8585112206451382e-01 4.9584823133511247e+00 -1.4850871059207515e+01 1.4894883285441748e-02 -1.9983292019181420e+01 1.0080241549228759e+02 -1.0707146726873296e+02 -3.7810639131279972e-01 3.9776460526637436e+00 -4.5895827163150534e+02 6.6137071913484448e+01 -5.9500095207021353e-01 -7.8794050092184520e-01 2.5287838954675863e+01 -9.2193375435128289e-02 5.1651895530620462e-01 -1.4664344136048925e-02 -5.8195282004655738e+01 -1.6642069558680632e+01 -7.9882480528912017e-02 2.7674467742211880e+02 -5.9138457331860259e+00 -4.5090351974624809e+02 -1.6496087640416086e+01 -1.2094663778052234e+02 1.3133429520128891e+02 8.2858698092501470e+01 1.1450298580466196e+00 -3.0215985495391671e+01 -3.5036483506711502e+03 -1.7382775307800200e+00 8.0151921209220660e+00 -1.4814848419107318e-01 1.9203804988220554e+00 2.8252241005958467e-01 1.0666935248836712e-01 1.2669899132235980e+02 -1.2407657671986158e+01 6.8364445799370333e+02 -1.3573261435761950e+00 -1.0554833010683979e+01 -3.1136025943560526e+01 -5.7731003626313736e+01 7.4451179628615893e-01 8.1043396200573681e-01 -4.6298545298083542e+02 2.8201002131161346e-01 1.5460417593759672e+00 -4.7370663344657893e-02 1.2311363812907054e+01 -2.4833789202886747e+00 5.1288254253719856e-02 -2.3714985286042527e+00 1.7310818172232757e+01 -2.8811706163284384e+02 -2.3308575486987784e+00 -1.1447079274421977e+01 2.9412968971010622e+02 9.9681920942922808e+00 1.8810296527954904e+00 -1.1086316740682620e+00 1.7988833033744907e+01 1.3513586761611496e-01 9.8549575429405678e-02 -2.7930682155201225e-02 1.7370048204924223e+02 -1.5313199696334445e+02 -4.1294663386704142e+00 3.3320853678146250e+01 3.0331205846632656e+00 6.8051263995523186e+02 4.3767955924831313e+01 -4.6493138105112536e+02 2.1945126567043189e+00 5.8043965031065920e+02 -4.4990638409961406e+01 -5.0739390783489839e+01 1.0356986725630759e+02 6.9079019645868343e+00 6.0567316939533988e+01 7.1545086311542470e+00 -4.3517795258538943e+00 -5.0785270023048099e+00 1.5492132382606605e-02 9.8743104174968721e+00 3.9313929169938340e+00 -3.5769521998501455e+02 -1.5643662795388358e-01 -2.4592426352801340e+01 -5.6866181462220266e+02 -2.8962287562596188e+01 2.3644453485315120e-01 -1.1464579104946928e+00 9.8690384588612687e+00 3.7361651542727692e-02 7.5501710685693058e-01 4.6215036918519914e-03 -8.1076037638476976e+01 7.6856573532222058e+01 5.6248704732280835e+01 3.5637419545726857e+01 3.5075856177711557e+01 -5.9087938141627183e+02 -1.9394190399258459e+01 2.0159681179265465e+02 1.0592808970617170e+01 -2.3686696397471337e+02 2.3717086297833010e+01 2.0164032753464548e+02 -1.2860074785234258e+02 -7.1134454113964658e+00 -1.3004008825592138e+02 -1.4500592825093690e+02 -1.8064675820764478e+01 6.4265542668210038e+00 -6.5053076859147296e-02 -2.8297453876467125e+02 2.3633918526819798e+01 -2.1101004579328583e+02 -2.8146239793560568e-01 1.0118915845256879e+01 -5.9072873108452768e+01 -1.6754354384400358e+01 2.5897763727774175e+00 1.4556425362072751e+00 -2.4774018037108679e+01 2.7407279814595142e-01 2.0214401951244443e+00 -1.6524941716268832e-01 -7.3197101828947169e+00 -2.9739921061008276e+00 1.6862999609398265e-03 4.4713173333122427e+01 -7.6837751249934129e+01 -6.8506058995523631e+01 -5.0527352885422183e-01 -5.8059999233898836e+00 7.4468166752252728e+01 -3.5109617216249163e+00 -2.8216727546321829e-01 6.5618121431715615e-01 -2.3111288558838510e+01 -6.6306857528930618e-02 4.4626837244765571e-02 5.7695418535217355e-02 6.6206691586185116e+00 1.1668102529014419e+00 -1.8115738923473568e-02 1.8949365414880219e+01 -3.6271833360663159e+01 -7.2080686118948663e+01 -6.8530734937375115e-01 -4.8804098815850567e+00 1.3788041027732726e+02 3.3806752541119067e-01 -2.3382902747528078e-01 -4.9571431128994448e-01 -4.7596353731875041e+01 -7.9781222107969896e-02 1.2370749381574662e+00 3.1530986197856548e-02 7.7285443040485845e+01 -6.3748701247497820e+01 5.2204369058115859e+01 -3.5702338224697684e+01 -3.2983364853684364e+01 9.6170570049404887e+02 2.2815121294546554e+01 -2.4702180942726477e+02 -1.0645681866153609e+01 2.8725710119334963e+02 -2.0051912038900625e+01 1.5246856590627573e+02 1.7706189044506209e+02 -1.6798409735999087e-01 -6.6950282674568683e+01 -1.3794935162495142e+02 6.7969424150937741e-01 3.5393289396427008e+00 -4.1929653137628087e-01 5.1744082696484170e+00 -6.8867953209613759e+00 3.1454033764391724e+01 -4.7542373097041590e-01 1.9557320517780994e+00 -3.7083005704904799e+01 1.3356415958655118e+01 -4.3680351148672747e-02 -6.3199704621136377e-01 2.0590999229101332e+01 1.4336465504362961e-02 -6.7526439837716623e-01 1.0494290747344015e-01 3.0702340392040504e+01 
      </Row>
      <Row Index="13">
        6.2962381437181847e+00 -2.8672048582954801e-01 -1.5765437646954272e-01 3.6052559295604922e+01 -1.5683378649773587e+00 4.5828754756001672e+01 5.7343543594757040e-01 -2.2123392842330247e+00 -3.6114850170847603e+00 -1.4073948759230209e+01 -8.0770273596386666e-02 1.4864471161598323e+00 1.2583740820087712e+00 4.8065982749327638e+00 -8.7898015655508388e-01 -8.9479109786185340e-02 8.5204806362901980e-02 -2.9232860033432928e-01 4.9669314176215796e-03 -3.5884207220008904e+00 2.1952107505452290e+00 -1.2203759055193908e+00 -5.8214948211960955e-03 -1.5014205739489239e-01 2.0708141768700443e+00 -1.2091241066608092e+00 -9.4175053981899071e-02 -4.3111733427264820e-02 2.2803178048229711e-01 -4.3316019355980728e-02 2.7752523948623653e-02 5.2416496438796867e-03 -6.7342925989819662e+00 2.6937958520087690e-01 1.5726921710101452e-01 -3.7136961896045364e+01 2.3401610766927234e+00 -4.3032721480941291e+01 -6.1478759807846339e-01 1.7516283850006857e+00 -6.9260221888183082e+00 1.6026436840482106e+01 6.2420614939943497e-02 -1.4525015357241366e+00 -1.0142460765184185e+00 -4.2005488990322197e+00 7.7921319782967746e-01 8.0063743431174603e-02 -3.6004963504768384e-01 3.0171334252355075e-02 3.5711806359393458e-02 -4.2434131785007594e+00 -2.2637081137271764e-01 3.9347409022105353e+00 -1.0935320700956908e-01 4.6857370241339424e-01 -1.2558003303696751e+01 -8.5450826965137239e-01 4.0004876986885304e-02 -1.5734811885702316e-01 3.7075327647798417e-01 -2.7760971839578263e-01 5.2140666743130559e-02 8.2963680611863877e-04 4.4032440057850408e-01 6.6641348454560767e-02 -8.4694195842711650e-03 2.9910808340447907e+00 -7.9850141075530701e-01 4.9385633038163590e-01 -2.5902192939255275e-03 4.6875105656488447e-02 9.4040029457642298e+00 7.6224397146744183e-01 6.2142768918249658e-04 1.2864239310295122e-02 3.3525030606166428e-01 -8.0625428240810981e-02 1.6655156200794302e-02 1.4830563784800660e-02 8.0761547743752473e+00 3.1459238345054992e+00 -1.3024298821063279e-01 1.5474634667021974e+00 1.6035299346903003e+00 -1.6511055759053193e+00 1.0674326515371533e+00 -2.7933848136661528e+00 4.7359195642156919e+00 1.0331016286774712e+01 -9.0934828691905167e-02 -6.7965724876366718e-01 1.0061306751203745e+00 3.2404604348883086e+00 -1.7056141732652996e-01 1.9599655111908643e-02 -1.5889877370797478e-01 -1.0643756030096085e-01 2.9365584444159543e-03 4.3688509659730812e-01 3.8799460140726971e-01 -5.7245791007940809e+00 -1.2136395052738003e-02 -4.9522030630186009e-01 -3.8017166549761896e+00 1.6418811880262685e-01 3.0947890953748614e-02 5.0239248025511607e-02 -1.4113585263748973e-01 2.7993588255667612e-02 -5.1261536126005619e-03 -2.5395074360392983e-03 -4.7990004777187494e+00 -2.0622807634612279e+00 1.6973592513237803e+00 2.1168849539846661e+00 -2.2278955940623746e-01 -6.0559289285051818e+00 -6.2340061482757836e-01 1.0023618067289704e+00 4.7395541654786939e+00 -6.5156555924918678e+00 -1.0558223648721787e+00 -9.8645079208426845e-01 1.4455375345432699e+00 -6.9391004905201346e+00 7.9425709061547245e+00 -2.4806522391866626e-01 -8.3918551016282095e-01 -1.9078965979007378e-02 -7.7772629249303615e-04 -2.5242421130426465e+00 1.6869252911803301e-01 -5.3200670031874324e+00 3.5642920685409862e-02 -3.6522548319453563e-02 -1.7584088758379949e+01 -9.7641302800069774e-02 7.8213653620554879e-02 -3.2738730207584332e-02 -2.9146764669448483e-01 -2.8012321887178393e-02 7.4557443952261160e-03 -8.7160984863464547e-03 -4.1377468753773705e-01 3.9598390025774116e-02 3.9198247080325724e-03 -1.5039242586599109e+00 -3.3084890457745286e-01 1.3388151547031697e+00 -6.2498122476414897e-02 -6.5870423330034233e-02 1.6580931820208207e+00 8.5693934151613860e-02 1.6924942004410644e-02 -1.5366264672278085e-02 -2.0683626865326232e-01 4.4750862829167959e-02 2.4444962308669993e-02 -3.1769540241298245e-03 2.5585335640590756e-01 3.0240763512352942e-02 3.3707717424602823e-03 -4.2710946384892168e-01 -2.4248518080386017e-01 -1.9387782359744605e+00 -3.7628479895387201e-02 -1.4841940028350820e-02 1.9027187144986328e+01 2.8004322004932192e-01 1.2795953287631168e-02 -3.3092342963277233e-02 2.9251174351657028e-02 2.1168143121834238e-02 6.0020088422489626e-02 -1.9650159336719597e-03 2.0142575912319529e+00 1.2563665820443148e+00 1.6067095487486061e+00 -2.1054271839317202e+00 2.2471489359489460e-01 -8.8045967738808031e+00 3.3795639014924195e-01 -1.1028501432813798e+00 -4.7385725273634307e+00 6.8120716635079361e+00 -9.5114669209215208e-01 -1.7522708141692993e+00 3.3735290027398150e+00 -3.6029506097886084e+00 7.8162131961208354e+00 -2.6302639873457057e-01 1.9575518293200755e-02 -6.6528614283734286e-02 -5.0517515423736878e-02 -1.6151742220394238e-01 -3.5753312644120960e-02 2.3690425869738153e+01 -1.2638622970685933e-02 5.5428714599911610e-02 -9.7818634753068245e+00 3.9375119639679323e-02 -7.2660667399210288e-04 4.8839630695730829e-02 2.6902808170324766e-01 -2.7561998437090951e-02 -3.3565744561554839e-02 8.9155712526879927e-03 -1.3714076930707193e+01 
      </Row>
      <Row Index="14">
        4.3590388836957615e+01 -7.7989891438228298e-01 -9.3281054797903273e-02 7.0502880099302644e+01 1.3321063414242587e+01 4.1837106984537456e+02 -1.6470503153383085e+00 3.5138228387971012e+01 3.9647935579147315e+00 -4.1843037716392573e+00 -1.3024114742030335e+00 -2.7936966505191125e+00 -9.2563319304842224e+00 -8.7898015886780367e-01 3.3891667162173924e+01 1.1969758759679011e-01 -6.6153690977968554e-02 3.6573544382545720e-01 -6.6390413305411237e-05 6.5021270357751177e+00 -5.1298137969689890e+00 -6.0253679932511677e+00 -7.0006174082480055e-02 3.0450056598557207e-01 1.9340280364966020e+01 -9.6352247898181531e-02 -1.3781784287317134e-01 -1.7711508909199924e-02 6.1802285091630438e-01 1.0307864175708309e-02 -5.1033454899054242e-01 1.2054098034685851e-02 -4.0182398809669223e+01 4.6351623480783566e-01 9.0898030282814221e-02 -6.7232608656037769e+01 -1.7503036654887083e+01 -3.8601952708412159e+02 1.7254225466092716e+00 -2.7386318018155862e+01 -2.1233062487017122e+01 -7.5003704335184551e-02 1.2351577747741029e+00 2.8441905346457563e+00 8.1159313496840753e+00 7.4231072503985340e-01 -3.1219681438250653e+01 -1.2784259293399008e-01 -4.5045415538762388e+00 2.8479373383360240e-01 5.1752634475491777e-03 1.7990808688685149e+00 -2.3116295953106487e+00 -1.7276234652059202e+01 2.2917714019104007e-01 -3.1240700414262932e+00 -1.3570224800932920e+01 2.7761883412117072e-01 3.6173905065772782e-02 1.1800380886157646e-01 1.5135533281665552e+00 1.2796145158833716e-01 -2.2526538020185409e+00 -1.5883030084238178e-02 4.7183922296262715e-01 1.3134152308942906e-01 -1.5568025904846294e-03 -2.2428054739450203e+00 6.0837524945600308e-01 -9.4758831882811592e+00 -3.2917078470389213e-03 -2.4559392879143913e+00 1.3778901561504917e+01 2.1445581743043949e+00 -6.9815345278037455e-02 -6.8882425420137630e-02 7.7323569619903698e-01 -1.0337059919076630e-02 -1.6466046001053136e-01 -7.3472511997307172e-03 1.9722348077018923e+00 9.6558875598447003e-02 -1.5611302369099078e-01 -4.3750778518675304e-01 -3.4640352130799670e+00 -1.4440013929601491e+01 2.1794272905182282e+01 2.9170445661202931e+00 3.6031947004739777e+00 4.6576447772026484e+01 1.4823126860417943e+00 -1.6220098161591825e+00 1.5193702086331271e+00 -9.8697417117386816e+00 2.0208770759705828e+01 -6.5792030902889775e-01 -4.9494818778736516e-01 -8.3628858134062511e-02 7.1134983220752790e-03 -4.8560254236474520e-01 7.9419699337498928e-02 1.6542825389929931e+01 -1.6865000039001421e-01 2.1035447542600991e+00 1.7375351911818143e+01 2.8834787161047259e-01 7.0270214067230108e-02 5.7095975633014717e-03 2.6619517767130674e-02 9.4086611900008055e-03 7.7576640011104936e-01 -1.4054310425827193e-02 -1.1662955962006549e+00 9.8238894537800547e-01 1.8300149941140391e+00 6.8855554343698344e-01 -3.3005264678990898e-02 3.3976299515953770e+01 -1.1639077028988117e+01 4.4082705132382216e-03 3.6615788142080419e+00 -2.3701581180584867e+01 3.9163284406075709e+00 -5.2805327823056372e+00 -5.8740866312036673e+00 2.3760973640421177e+01 2.3648340835937534e+00 1.4477049674991790e+01 -2.3470408409472086e+00 5.1597608569986519e-02 8.0669380682369812e-03 4.2894300067098357e+00 9.4906755146608646e-01 -1.0117117568968524e+01 -3.6855354498997706e-01 -1.6638243223044924e+00 -1.9214891129668104e+00 -1.4990033440605615e+00 -7.5935055346720404e-02 3.0016422962557243e-02 -4.4314811941627236e-01 -1.8299140677362047e-02 5.0387283917554981e-02 2.3063552706727814e-03 6.0707928326485217e-01 -8.5591711836681836e-02 -1.9456437204190373e-03 -2.5781496473721290e+00 -4.4318726686824554e+00 1.0305823595970196e+01 1.5260374149811118e-01 -4.4328606186064018e-02 1.9324870867130812e+01 8.4269989611357232e-02 -6.8613794118187965e-02 1.8565798574315950e-02 -6.9839083116342238e-01 7.3884516908221121e-03 -1.5380489910992168e-01 5.5611390489946158e-04 8.3370432188939958e-01 -1.1187984229579596e-01 -3.3717638591127877e-03 1.1183213642685814e+00 -1.1755463717031707e+00 -6.8622531148410983e+00 6.5163591849001889e-02 2.2286115651793521e+00 7.6320393468723040e+01 3.2729830160442930e-01 -8.0958228663881471e-02 2.6668468699334369e-02 -5.6456208982683620e-01 7.3179339387028364e-03 -9.2716376785905652e-01 4.3716245392717568e-03 -3.3408778536946571e+00 7.1192453648878029e-01 1.6856216227024865e+00 -6.7265009730303049e-01 5.7946710059781914e-02 1.4404323981693778e+01 1.0012941859776937e+01 1.1783539499026112e+00 -3.6657740320806624e+00 2.0307429708429254e+01 5.5338856190721497e+00 -6.5329647353584930e+00 -2.7467370766416934e+00 1.3913780161126535e+01 2.0500210019651192e+01 1.3790167288423310e+01 1.5593185711622604e-02 -3.2669175656460858e-01 -2.2316666094688124e-03 6.1107101940535236e-01 -4.3056990401392459e-01 2.6039484769634541e+01 3.1287872290069574e-02 1.1240531666205564e+00 -1.5640628938449222e+01 5.7573584340918948e-01 2.0599842761420684e-02 3.5610294142107946e-01 -6.4217458933419236e-02 -3.0565007549876455e-03 3.6147468702999452e-01 -2.0960212149554319e-02 -9.2440597047393460e+00 
      </Row>
      <Row Index="15">
        -1.0911592917042876e+00 -1.9187168903632745e-01 -5.2651062999107816e-02 1.1309768698563062e+01 1.3467122817615973e-01 -3.7096235429722810e+00 5.8021378014772695e-02 -1.6959462771866640e-01 5.8245120351216428e+00 2.1685972862665501e+00 -3.0148419252646921e+00 -2.5387878592540425e-01 1.8585112172964102e-01 -8.9479109796461787e-02 1.1969758755750748e-01 3.9463971784772256e-01 3.5599115050521553e-03 3.8083731280497135e-02 2.3551260314800099e-03 -1.2788366947025067e+00 4.6733486320502493e-01 3.7860999444432997e-02 -2.8950914286468479e-02 -2.4644238381953953e-02 -9.8158721056188369e+00 -1.4064694878132400e-01 -2.9864731160832880e-01 -1.5098780034721315e-03 -2.7562978803715055e-02 4.4547259821243130e-03 -2.9716220090849343e-03 1.1833118475331115e-02 1.0797197319547642e+00 1.8551387398339703e-01 5.3235113292120856e-02 -1.1416525808124153e+01 1.4644524818054521e+00 3.3814874720100363e+00 -4.2537549825976351e-02 3.1102486202971136e-01 -1.0797709427429254e+00 -1.9800249983040317e+00 2.2942006960026107e+00 2.3354597796866439e-01 -1.2925775369163062e-01 7.9048133304261248e-02 -1.3099808835756921e-01 -3.4165963689567574e-01 1.5237474852595756e-01 -6.9760187763147741e-02 8.3839937026318687e-03 -5.6946107158110237e-01 2.3596305701025244e-01 1.7492646577704374e-01 1.1882629340643103e-02 -1.4642718776254782e-02 1.0519233213967709e+00 -3.9625021329490551e-01 -2.1716095592413942e-02 1.4588555440416762e-02 -5.6031711898825165e-02 9.5882563391116171e-03 -7.2120101512518353e-04 -4.3083870729956106e-02 -5.3016335813416138e-02 5.7627632597671008e-03 1.6752662248235017e-03 -1.6281110097351537e-01 -4.9312450157268017e-01 6.7587960062525099e-03 3.5420788158004875e-02 -1.1969039305484763e-02 1.9896617460200701e+00 -1.3108887357816990e-01 -4.8219303044699824e-01 -3.2608791250752119e-03 -1.9651654426251497e-03 2.1929243550145999e-03 3.9271026205799364e-03 -5.5878668586059749e-03 -1.2333206909826711e+00 -1.1014825296402764e+00 -1.1478540044244818e-02 -6.7419808174520313e-02 2.2763642519461769e-01 4.5149802871083011e-01 -1.0340143200043448e+00 -5.7280975918762689e-02 -7.1346368890408485e-01 -4.7981431756494430e-01 -2.2908710901819518e-01 -1.0618661688157657e-01 2.1930777736804430e-01 -1.8912559507193816e-01 -3.7624426636507557e-01 1.4121840975313510e-01 1.4289508918818861e-02 6.8505977071006363e-02 -3.6162927578926342e-04 -8.7209000607600728e-02 -2.5034551392534032e-01 -1.5947060708663230e-01 -5.2239703999645837e-03 1.3531833594306164e-01 9.7049740553256925e-01 1.1037203805233659e-01 -5.8423070659174015e-02 -1.1760026585641237e-02 2.9307971465897253e-03 4.3633333527059309e-04 -1.9948354282381731e-02 -1.0119483694881470e-02 5.8123212550419279e-01 5.2637080719769092e-01 -1.6854853663609484e-01 -3.8616155774583660e-02 9.1535753609385040e-02 -9.5757756389694304e-01 6.8064715860068659e-01 2.6555653463915974e-02 -7.1168945628596703e-01 3.0550346096403302e-01 -6.5321547861412199e-02 7.5788581975080649e-02 -1.4849872558758648e-01 -8.8162360093069020e-02 3.7640041149660386e-01 -4.9232550180214768e-01 8.7673330877227507e-02 -5.6959561818347382e-02 -8.4339918513721274e-04 5.3316349228238025e-01 -1.2548356158825769e-03 -7.1856613097512678e-02 -4.4568672839746526e-02 3.9587653543103229e-02 1.8603237595380051e+00 -8.1628415233758744e-02 -1.4561349005050978e-01 2.2963127206550027e-02 1.0597914098725347e-02 -2.6551985895650887e-03 -5.9050558500221006e-03 -5.8632562137589696e-03 2.6642144006312929e-02 -3.8356478839435923e-02 -4.6928035841187210e-04 -5.7168858121115207e-01 1.2797801560638087e+00 6.2833021596446770e-02 1.6904595839733694e-02 -1.4980454692183898e-02 -3.1649390400016273e+00 -1.2048587696078528e-01 -2.0382015350251217e-01 4.1452155855883355e-03 1.3509570398508863e-02 1.9628272712822192e-03 2.8818355326633016e-03 -1.7289299359557163e-02 -1.8170829053113735e-02 -1.4956231980813195e-02 -1.0387865673975021e-04 -1.7751297436603508e-01 3.7541082211789800e-01 -2.2086735906221122e-02 2.9566249527395172e-03 4.5237782059038167e-02 9.3256070498000554e-01 -8.2531968573881898e-02 -1.2082704230233965e-01 1.0693744153636109e-02 -6.6705552359671572e-03 1.8975809739977256e-03 1.5316520777271608e-02 -8.0172078279530934e-03 -4.7060945302707569e-01 -5.9610226297418445e-01 -1.7296165460870727e-01 3.7169450686370453e-02 -8.2997517323698200e-02 -5.7725642179224224e-01 -4.1415341122976823e-01 -3.8321021297923252e-02 7.1180074826406781e-01 -3.0223772766100865e-01 -1.8148001870590313e-01 -2.0224763093968978e-02 2.8380361653979946e-02 -2.7662000765745232e-01 5.2720836677679905e-03 -3.8500156270396035e-01 -9.7753327944682337e-04 4.9268461343719705e-02 -3.8826545453315361e-03 1.8591375084745052e-02 7.6529722822291091e-02 3.6532406433118614e-01 5.1412972810454677e-03 8.9594267367081593e-03 -5.9569813483506928e-01 3.0838273429821400e-03 6.2712965303780510e-02 2.6301756786959354e-02 -1.7409005693641851e-02 -9.4296094673096409e-05 -9.1285076620067490e-03 -6.8656387982509587e-02 2.3702543461235798e-01 
      </Row>
      <Row Index="16">
