<?xml version="1.0"?>
<MethodSetup Method="DL::DNN_CPU">
  <GeneralInfo>
    <Info name="TMVA Release" value="4.2.1 [262657]"/>
    <Info name="ROOT Release" value="6.26/02 [399874]"/>
    <Info name="Creator" value="s1412595"/>
    <Info name="Date" value="Sun May  1 13:30:40 2022"/>
    <Info name="Host" value="Linux root-ubuntu-2004-1 5.4.0-73-generic #82-Ubuntu SMP Wed Apr 14 17:39:42 UTC 2021 x86_64 x86_64 x86_64 GNU/Linux"/>
    <Info name="Dir" value="/home/s1412595/Desktop/MSc/TMVA/runs/run_fs1_hp1"/>
    <Info name="Training events" value="120000"/>
    <Info name="TrainingTime" value="7.72031924e+02"/>
    <Info name="AnalysisType" value="Classification"/>
  </GeneralInfo>
  <Options>
    <Option name="V" modified="Yes">True</Option>
    <Option name="VerbosityLevel" modified="No">Verbose</Option>
    <Option name="VarTransform" modified="Yes">N</Option>
    <Option name="H" modified="Yes">False</Option>
    <Option name="CreateMVAPdfs" modified="No">False</Option>
    <Option name="IgnoreNegWeightsInTraining" modified="No">False</Option>
    <Option name="InputLayout" modified="No">0|0|0</Option>
    <Option name="BatchLayout" modified="No">0|0|0</Option>
    <Option name="Layout" modified="Yes">TANH|128,TANH|128,TANH|128,LINEAR</Option>
    <Option name="ErrorStrategy" modified="Yes">CROSSENTROPY</Option>
    <Option name="WeightInitialization" modified="Yes">XAVIERUNIFORM</Option>
    <Option name="RandomSeed" modified="No">0</Option>
    <Option name="ValidationSize" modified="No">20%</Option>
    <Option name="Architecture" modified="Yes">CPU</Option>
    <Option name="TrainingStrategy" modified="Yes">LearningRate=1e-2,Momentum=0.9,ConvergenceSteps=20,BatchSize=100,TestRepetitions=1,WeightDecay=1e-4,Regularization=None,DropConfig=0.0+0.5+0.5+0.5</Option>
  </Options>
  <Variables NVar="11">
    <Variable VarIndex="0" Expression="Xicst_PT" Label="Xicst_PT" Title="Xicst_PT" Unit="" Internal="Xicst_PT" Type="F" Min="2.32683643e+03" Max="4.92342539e+04"/>
    <Variable VarIndex="1" Expression="Kbach_ProbNNk" Label="Kbach_ProbNNk" Title="Kbach_ProbNNk" Unit="" Internal="Kbach_ProbNNk" Type="F" Min="5.10000885e-01" Max="9.99803305e-01"/>
    <Variable VarIndex="2" Expression="Lc_PT" Label="Lc_PT" Title="Lc_PT" Unit="" Internal="Lc_PT" Type="F" Min="2.52761890e+03" Max="4.00415273e+04"/>
    <Variable VarIndex="3" Expression="pibach_PT" Label="pibach_PT" Title="pibach_PT" Unit="" Internal="pibach_PT" Type="F" Min="2.00006271e+02" Max="3.32139111e+03"/>
    <Variable VarIndex="4" Expression="pibach_ProbNNpi" Label="pibach_ProbNNpi" Title="pibach_ProbNNpi" Unit="" Internal="pibach_ProbNNpi" Type="F" Min="1.00149095e-01" Max="9.99639690e-01"/>
    <Variable VarIndex="5" Expression="Xicst_IPCHI2_OWNPV" Label="Xicst_IPCHI2_OWNPV" Title="Xicst_IPCHI2_OWNPV" Unit="" Internal="Xicst_IPCHI2_OWNPV" Type="F" Min="1.37118786e-05" Max="2.63996133e+04"/>
    <Variable VarIndex="6" Expression="Lc_IPCHI2_OWNPV" Label="Lc_IPCHI2_OWNPV" Title="Lc_IPCHI2_OWNPV" Unit="" Internal="Lc_IPCHI2_OWNPV" Type="F" Min="1.04185083e-05" Max="8.99999237e+00"/>
    <Variable VarIndex="7" Expression="Xicst_FDCHI2_OWNPV" Label="Xicst_FDCHI2_OWNPV" Title="Xicst_FDCHI2_OWNPV" Unit="" Internal="Xicst_FDCHI2_OWNPV" Type="F" Min="1.69576111e-03" Max="2.45688275e+06"/>
    <Variable VarIndex="8" Expression="Xicst_ENDVERTEX_CHI2" Label="Xicst_ENDVERTEX_CHI2" Title="Xicst_ENDVERTEX_CHI2" Unit="" Internal="Xicst_ENDVERTEX_CHI2" Type="F" Min="1.72308029e-03" Max="5.99373703e+01"/>
    <Variable VarIndex="9" Expression="pibach_IPCHI2_OWNPV" Label="pibach_IPCHI2_OWNPV" Title="pibach_IPCHI2_OWNPV" Unit="" Internal="pibach_IPCHI2_OWNPV" Type="F" Min="8.96283200e-06" Max="8.99967575e+00"/>
    <Variable VarIndex="10" Expression="Kbach_IPCHI2_OWNPV" Label="Kbach_IPCHI2_OWNPV" Title="Kbach_IPCHI2_OWNPV" Unit="" Internal="Kbach_IPCHI2_OWNPV" Type="F" Min="1.30371254e-05" Max="8.99991798e+00"/>
  </Variables>
  <Spectators NSpec="1">
    <Spectator SpecIndex="0" Expression="Xicst_M" Label="Xicst_M" Title="Xicst Mass" Unit="F" Internal="Xicst_M" Type="F" Min="2.92377637e+03" Max="3.90779272e+03"/>
  </Spectators>
  <Classes NClass="2">
    <Class Name="Signal" Index="0"/>
    <Class Name="Background" Index="1"/>
  </Classes>
  <Transformations NTransformations="1">
    <Transform Name="Normalize">
      <Selection>
        <Input NInputs="11">
          <Input Type="Variable" Label="Xicst_PT" Expression="Xicst_PT"/>
          <Input Type="Variable" Label="Kbach_ProbNNk" Expression="Kbach_ProbNNk"/>
          <Input Type="Variable" Label="Lc_PT" Expression="Lc_PT"/>
          <Input Type="Variable" Label="pibach_PT" Expression="pibach_PT"/>
          <Input Type="Variable" Label="pibach_ProbNNpi" Expression="pibach_ProbNNpi"/>
          <Input Type="Variable" Label="Xicst_IPCHI2_OWNPV" Expression="Xicst_IPCHI2_OWNPV"/>
          <Input Type="Variable" Label="Lc_IPCHI2_OWNPV" Expression="Lc_IPCHI2_OWNPV"/>
          <Input Type="Variable" Label="Xicst_FDCHI2_OWNPV" Expression="Xicst_FDCHI2_OWNPV"/>
          <Input Type="Variable" Label="Xicst_ENDVERTEX_CHI2" Expression="Xicst_ENDVERTEX_CHI2"/>
          <Input Type="Variable" Label="pibach_IPCHI2_OWNPV" Expression="pibach_IPCHI2_OWNPV"/>
          <Input Type="Variable" Label="Kbach_IPCHI2_OWNPV" Expression="Kbach_IPCHI2_OWNPV"/>
        </Input>
        <Output NOutputs="11">
          <Output Type="Variable" Label="Xicst_PT" Expression="Xicst_PT"/>
          <Output Type="Variable" Label="Kbach_ProbNNk" Expression="Kbach_ProbNNk"/>
          <Output Type="Variable" Label="Lc_PT" Expression="Lc_PT"/>
          <Output Type="Variable" Label="pibach_PT" Expression="pibach_PT"/>
          <Output Type="Variable" Label="pibach_ProbNNpi" Expression="pibach_ProbNNpi"/>
          <Output Type="Variable" Label="Xicst_IPCHI2_OWNPV" Expression="Xicst_IPCHI2_OWNPV"/>
          <Output Type="Variable" Label="Lc_IPCHI2_OWNPV" Expression="Lc_IPCHI2_OWNPV"/>
          <Output Type="Variable" Label="Xicst_FDCHI2_OWNPV" Expression="Xicst_FDCHI2_OWNPV"/>
          <Output Type="Variable" Label="Xicst_ENDVERTEX_CHI2" Expression="Xicst_ENDVERTEX_CHI2"/>
          <Output Type="Variable" Label="pibach_IPCHI2_OWNPV" Expression="pibach_IPCHI2_OWNPV"/>
          <Output Type="Variable" Label="Kbach_IPCHI2_OWNPV" Expression="Kbach_IPCHI2_OWNPV"/>
        </Output>
      </Selection>
      <Class ClassIndex="0">
        <Ranges>
          <Range Index="0" Min="3.3086733398437500e+03" Max="4.9234253906250000e+04"/>
          <Range Index="1" Min="5.1000088453292847e-01" Max="9.9980330467224121e-01"/>
          <Range Index="2" Min="2.5326340332031250e+03" Max="4.0041527343750000e+04"/>
          <Range Index="3" Min="2.0000627136230469e+02" Max="3.3213911132812500e+03"/>
          <Range Index="4" Min="1.0023375600576401e-01" Max="9.9963968992233276e-01"/>
          <Range Index="5" Min="1.3711878636968322e-05" Max="5.0999150390625000e+03"/>
          <Range Index="6" Min="1.0418508281873073e-05" Max="8.9987192153930664e+00"/>
          <Range Index="7" Min="3.1707067973911762e-03" Max="4.9887138671875000e+03"/>
          <Range Index="8" Min="1.7230802914127707e-03" Max="5.7858459472656250e+01"/>
          <Range Index="9" Min="2.5563955205143429e-05" Max="8.9967641830444336e+00"/>
          <Range Index="10" Min="2.9180013370933011e-05" Max="8.9999179840087891e+00"/>
        </Ranges>
      </Class>
      <Class ClassIndex="1">
        <Ranges>
          <Range Index="0" Min="2.3268364257812500e+03" Max="3.6822753906250000e+04"/>
          <Range Index="1" Min="5.1001447439193726e-01" Max="9.9980223178863525e-01"/>
          <Range Index="2" Min="2.5276188964843750e+03" Max="3.0730033203125000e+04"/>
          <Range Index="3" Min="2.0001296997070312e+02" Max="3.2623430175781250e+03"/>
          <Range Index="4" Min="1.0014909505844116e-01" Max="9.9933230876922607e-01"/>
          <Range Index="5" Min="2.6691805032896809e-05" Max="2.6399613281250000e+04"/>
          <Range Index="6" Min="2.8562481020344421e-05" Max="8.9999923706054688e+00"/>
          <Range Index="7" Min="1.6957611078396440e-03" Max="2.4568827500000000e+06"/>
          <Range Index="8" Min="4.3928395025432110e-03" Max="5.9937370300292969e+01"/>
          <Range Index="9" Min="8.9628319983603433e-06" Max="8.9996757507324219e+00"/>
          <Range Index="10" Min="1.3037125427217688e-05" Max="8.9995861053466797e+00"/>
        </Ranges>
      </Class>
      <Class ClassIndex="2">
        <Ranges>
          <Range Index="0" Min="2.3268364257812500e+03" Max="4.9234253906250000e+04"/>
          <Range Index="1" Min="5.1000088453292847e-01" Max="9.9980330467224121e-01"/>
          <Range Index="2" Min="2.5276188964843750e+03" Max="4.0041527343750000e+04"/>
          <Range Index="3" Min="2.0000627136230469e+02" Max="3.3213911132812500e+03"/>
          <Range Index="4" Min="1.0014909505844116e-01" Max="9.9963968992233276e-01"/>
          <Range Index="5" Min="1.3711878636968322e-05" Max="2.6399613281250000e+04"/>
          <Range Index="6" Min="1.0418508281873073e-05" Max="8.9999923706054688e+00"/>
          <Range Index="7" Min="1.6957611078396440e-03" Max="2.4568827500000000e+06"/>
          <Range Index="8" Min="1.7230802914127707e-03" Max="5.9937370300292969e+01"/>
          <Range Index="9" Min="8.9628319983603433e-06" Max="8.9996757507324219e+00"/>
          <Range Index="10" Min="1.3037125427217688e-05" Max="8.9999179840087891e+00"/>
        </Ranges>
      </Class>
    </Transform>
  </Transformations>
  <MVAPdfs/>
  <Weights NetDepth="4" InputDepth="1" InputHeight="1" InputWidth="11" BatchSize="1" BatchDepth="1" BatchHeight="100" BatchWidth="11" LossFunction="C" Initialization="F" Regularization="0" OutputFunction="S" WeightDecay="9.9999997473787516e-05">
    <DenseLayer Width="128" ActivationFunction="3">
      <Weights Rows="128" Columns="11">
        3.585833e+00  3.338150e+00  -1.892641e-01  2.313333e+00  -1.432805e+00  -1.765235e-01  1.570767e+00  -1.011754e-01  -5.470730e-01  1.083819e+00  1.915579e+00  -1.358454e+00  -5.085300e+00  8.749263e-01  -9.930165e-01  7.878737e-01  7.488517e-01  2.982449e+00  8.762583e-01  7.631612e-01  1.908849e+00  -1.598441e+00  4.040772e-01  2.074030e+00  5.912803e-01  1.655716e-01  -4.932416e+00  1.097905e+00  3.170598e-01  9.766666e-01  1.020367e+00  -1.210111e+00  3.226944e+00  -5.512588e+00  -6.146595e-01  1.536384e+00  -2.584823e+00  -5.039500e-01  1.288382e+00  1.095538e+00  1.130931e+00  1.510299e+00  -2.608296e-01  -9.650849e-01  2.163445e+00  1.595764e+00  3.870017e-01  8.545305e-01  8.912916e-01  -1.129960e+00  -2.451647e+00  -1.015227e+00  -1.228784e+00  -5.955567e-01  5.670313e-01  -9.108489e-02  -1.586786e+00  5.558990e-01  4.883038e-01  -6.195313e-01  1.294060e+00  5.133083e-01  1.567180e+00  1.027451e+00  1.266905e+00  -6.071419e-02  -3.599172e+00  -2.228541e+00  1.428977e+00  -1.009257e+00  -9.893758e-01  1.135215e+00  1.823602e+00  1.472040e+00  1.359711e+00  1.252274e+00  -6.937507e-01  6.062565e+00  1.556797e-01  -1.449708e+00  3.055590e+00  1.895190e+00  -1.114088e+00  -3.034749e-01  -1.095818e+00  -1.507725e+00  5.760577e-02  3.714352e-01  -4.649503e-01  -3.480588e-01  -1.115877e-01  -8.087292e-01  2.270134e-03  2.159006e-01  -8.190597e-01  6.967174e-01  5.055229e+00  -4.300073e-01  -1.087634e+00  -3.407735e-01  9.330567e-01  -1.431439e+00  -1.413101e+00  6.668072e-01  -1.404673e+00  -2.416770e-01  -1.637130e+00  -1.715134e+00  -7.611009e-01  -9.623090e-01  3.716487e+00  5.130304e+00  -1.261126e+00  4.268383e-01  7.807289e-01  -3.605074e-01  6.241720e-01  -1.797252e-01  -3.050306e-01  9.046924e-02  -2.226139e-01  -2.427273e+00  1.513452e-01  -1.554333e+00  -1.471745e+00  -2.839989e-02  -6.429475e-01  -1.162505e+00  -8.720766e-01  -1.429757e+00  6.863578e-02  -3.598717e+00  3.259248e+00  -2.993157e-01  8.595720e-01  1.734122e+00  1.634154e+00  1.565789e+00  3.583702e-01  1.212619e+00  1.155570e+00  7.678632e-01  -4.658281e-01  -6.121337e+00  2.258206e-01  1.655447e+00  -1.449363e+00  -4.187777e+00  -4.051283e-02  6.393405e-01  1.678241e-01  5.837618e-01  5.782553e-02  -7.972116e-01  -3.302022e+00  -1.069277e+00  2.034071e+00  -1.293201e+00  4.185187e-01  1.695657e+00  1.262108e+00  1.768756e+00  2.026636e+00  7.544920e-01  -1.486484e+00  5.560293e-02  -1.824615e+00  1.221449e+00  9.582154e-01  -3.451229e+00  1.128716e+00  1.239390e+00  1.154660e+00  2.998277e-01  -8.915370e-01  1.291134e+00  -3.489249e+00  -3.880947e+00  3.805784e-01  -1.141366e+00  9.034919e-03  3.986391e-01  -1.998958e+00  4.954045e-01  2.571591e-01  1.604739e+00  -1.595474e+00  -8.898301e-01  -4.494292e+00  -1.370999e+00  -1.205772e+00  9.924170e-01  -1.375517e+00  -1.474549e+00  -1.751517e+00  -1.527844e+00  -1.067660e+00  -2.294945e+00  6.032826e+00  4.356078e+00  -5.421172e-01  5.185472e-01  -5.246568e-02  4.614759e-01  -8.067033e-01  5.077793e-01  9.505913e-01  -1.658516e+00  -5.018394e-01  4.532666e+00  4.959805e+00  -8.452928e-01  -4.667537e-04  3.087324e-02  -5.713596e-01  3.397759e-01  -2.680817e-01  -5.647078e-01  6.402631e-01  -5.858393e-01  3.114683e+00  5.577868e-01  1.767002e+00  2.877295e+00  -1.081399e+00  6.987916e-01  2.629324e-02  8.665385e-01  -3.106551e-01  -1.632144e+00  -6.227110e-01  -5.907074e+00  -1.619726e-01  1.083391e+00  -3.548287e+00  -7.760246e-01  1.584694e+00  -2.564170e-01  1.538482e+00  1.954694e+00  4.933938e-01  4.500640e-01  5.030303e+00  4.825006e+00  -1.136295e+00  6.767649e-01  6.998577e-02  -3.174332e-01  -1.139779e-02  3.876373e-02  -5.159708e-01  1.402231e-01  -7.858111e-01  4.353457e+00  5.475245e-01  1.720109e+00  2.003691e+00  1.014859e+00  4.221070e-01  -6.982242e-01  4.095520e-01  1.092962e+00  1.575978e+00  8.045331e-01  -9.434483e-01  -9.551734e-01  6.701111e-01  9.335436e-01  -2.676168e+00  1.363830e+00  2.186367e+00  1.735333e+00  1.203611e+00  1.375708e+00  6.635557e-01  6.840620e-01  -1.076334e+00  1.570739e+00  6.670518e-01  1.307107e-01  1.423310e+00  2.078225e-01  1.649329e+00  1.413079e+00  1.011452e+00  1.591627e-01  -6.348205e+00  -5.417894e-01  2.285607e+00  3.133893e-01  -4.491390e+00  -5.976423e-01  1.359636e-01  -3.666067e-01  -6.200867e-01  2.312748e-01  6.406260e-01  1.320514e+00  2.125492e+00  -2.354372e+00  -1.349422e+00  9.912207e-01  -1.376416e+00  -4.452834e-01  -1.546440e+00  -8.828830e-01  -2.165469e-01  -1.229200e+00  4.722401e+00  4.920995e+00  -1.089157e+00  6.040112e-01  -1.382059e-01  -4.154818e-01  -3.957637e-02  -3.747516e-01  -6.943581e-01  1.959143e-01  -6.105167e-01  -4.387630e+00  -2.706477e+00  -7.613455e-01  -1.883115e+00  -3.910557e-01  -6.969535e-01  1.242617e+00  -6.371627e-01  -5.662795e-01  -1.018369e+00  1.053977e+00  -5.446514e+00  -7.730522e-01  1.648542e+00  -3.229068e+00  -7.053221e-01  1.560582e+00  3.327423e-01  1.361652e+00  1.576858e+00  1.134411e-01  -4.332555e-01  4.402237e+00  4.505607e+00  -7.575539e-01  9.598840e-01  1.607699e-01  -3.023840e-01  -2.667836e-01  -3.459883e-01  -1.717685e-01  1.091074e+00  -2.642499e-01  -1.036213e+00  1.457352e+00  -1.302070e+00  -1.387113e+00  2.651856e-01  -1.158180e+00  3.209281e-02  -1.253137e+00  -1.368734e+00  -1.762983e+00  4.677507e-01  -4.261972e+00  -2.300068e+00  1.736622e+00  1.158851e+00  -2.551297e+00  7.675678e-01  1.742604e+00  4.794014e-01  8.762619e-01  2.675820e+00  1.781338e+00  4.790486e+00  5.186334e+00  -6.660743e-01  2.151973e-01  -2.834149e-01  -1.739089e-01  -1.247448e+00  -1.481983e-01  -1.516531e-01  -7.543101e-01  -3.093583e-01  -6.035993e+00  -4.152766e-01  1.271927e+00  -1.425542e+00  -3.582695e+00  2.659870e-01  2.049672e+00  9.186423e-02  -3.395808e-02  1.682155e+00  5.780567e-01  -9.590816e-01  1.099599e-01  -3.800512e-01  -1.479360e+00  5.977675e-01  -1.391217e+00  -4.767673e-01  -1.043378e+00  -4.178445e-01  1.604085e-01  -9.829514e-01  -5.727196e+00  -1.851439e+00  1.929750e+00  -2.278874e+00  2.994500e-02  1.176787e+00  -1.183637e-01  1.372810e+00  1.468419e+00  -1.380046e-01  -2.681560e-01  -6.226258e+00  -1.722853e-01  1.444287e+00  -3.593014e+00  -6.212317e-01  1.509140e+00  1.366340e-01  1.786247e+00  1.792998e+00  7.011119e-02  7.699243e-02  1.149599e+00  3.545155e-01  1.175512e+00  7.256206e-01  -7.289160e-01  1.639653e+00  2.895734e-01  1.747677e+00  1.929568e+00  4.281032e-01  1.166850e+00  -5.274445e+00  -2.834607e+00  8.422489e-01  -2.596195e+00  -2.500561e-02  8.078279e-01  -4.163167e-01  5.473698e-01  1.164431e+00  4.284327e-01  -1.687129e-01  4.131746e+00  1.373265e+00  1.185361e-01  2.378844e+00  -1.607123e+00  2.856281e-01  -2.123310e-01  3.062085e-01  6.834647e-01  9.233413e-01  2.194076e+00  6.089657e+00  5.144405e-01  -1.831875e+00  1.931171e-01  4.230953e+00  6.168116e-01  -1.342465e+00  9.393359e-01  6.601921e-01  -6.634571e-01  -3.957437e-01  -4.195205e+00  -3.755123e+00  1.165938e+00  -1.880269e+00  -2.416157e-01  9.028627e-01  8.330575e-01  8.581930e-01  1.272697e+00  -1.446209e-01  1.527878e+00  -5.176253e+00  -3.841833e+00  1.245506e+00  -1.439972e+00  4.541465e-01  5.637777e-01  -2.194860e-02  4.357365e-01  3.056425e-01  -1.539150e+00  5.552521e-02  -6.007131e+00  -2.728476e-01  1.177239e+00  -3.639158e+00  -4.730673e-01  1.741075e+00  3.408692e-01  1.735081e+00  1.836072e+00  -2.527614e-02  -1.052237e-02  6.006684e+00  5.212733e-01  -1.262510e+00  2.829701e+00  5.776311e-01  -1.514440e+00  -3.845221e-01  -1.489076e+00  -1.556978e+00  -1.817204e-01  8.405735e-02  -3.266900e+00  -1.097072e+00  -2.340064e+00  -1.566095e+00  1.978457e-01  -6.518653e-01  9.990838e-01  -1.094153e+00  -6.675469e-01  3.940580e-01  -1.057713e+00  5.427135e+00  3.669978e+00  -1.089195e+00  7.811623e-01  -2.351358e-01  4.842507e-01  -1.241414e+00  4.342477e-01  6.205992e-01  -7.245525e-01  -5.039409e-01  3.560868e+00  2.054605e+00  9.545540e-01  7.183441e-01  2.531110e+00  4.407336e-01  1.857960e+00  3.943617e-01  6.426910e-01  2.644057e+00  2.170596e+00  -7.381042e-01  8.831416e-01  -1.059415e+00  -4.227724e-01  3.586037e-01  -1.630493e+00  -2.924534e-01  -1.563477e+00  -1.273746e+00  -5.557289e-01  -2.868459e-01  -3.495044e+00  -1.539774e+00  -1.098682e+00  -1.162372e+00  2.194961e-01  -9.655887e-01  1.491147e+00  -8.703966e-01  -5.444542e-01  1.921810e-01  3.587117e+00  -5.396337e+00  -3.424153e+00  4.863399e-01  -5.058312e-01  -1.139243e+00  -6.046601e-01  1.914897e+00  -4.980954e-01  -1.079710e+00  6.617066e-01  1.687746e+00  -7.386268e-01  -3.688304e+00  4.554506e-01  5.546307e-01  -1.471093e-01  6.215147e-01  -1.622498e-01  8.203400e-01  1.263923e+00  2.927598e+00  -1.485705e+00  -5.787376e+00  2.612348e-01  1.424518e+00  -1.354980e+00  -4.830148e+00  -1.304934e-01  6.888561e-01  -3.438896e-01  1.318374e-01  -5.041204e-01  -1.468151e-01  -5.781822e-01  4.132521e-01  -9.812989e-01  -5.864893e-01  1.351043e+00  -1.759484e+00  7.107361e-01  -1.637157e+00  -1.957904e+00  -6.108463e-01  -1.038704e+00  -5.791708e+00  -5.993559e-02  6.110898e-01  -3.897176e+00  -5.266724e-01  1.875708e+00  -1.363242e-01  1.854163e+00  2.051984e+00  4.588068e-01  5.416955e-02  5.184474e+00  4.319671e+00  -5.488095e-01  6.174194e-01  -3.454888e-01  1.099432e-01  -3.868940e-01  5.881003e-02  -3.447301e-01  -5.968497e-01  -9.772345e-01  5.473300e+00  4.998013e+00  -7.716056e-01  6.749305e-01  -8.220800e-01  -5.736250e-02  6.463474e-01  3.031944e-01  -3.721683e-01  1.627097e-01  -2.912809e-01  -4.470995e+00  -4.851523e+00  1.378982e+00  -6.753199e-02  6.428707e-01  4.109821e-01  -2.348214e-01  3.190255e-01  3.407642e-01  -5.253463e-01  1.248000e+00  5.671526e+00  4.368524e+00  -4.253535e-01  4.730577e-01  5.000297e-01  4.323912e-01  -2.973162e-01  2.506049e-01  5.470027e-01  -8.134837e-01  1.172584e-01  4.574043e+00  1.754845e+00  7.120255e-01  2.671434e+00  -4.579370e-01  8.504233e-01  5.275527e-01  1.022154e+00  4.068605e-01  8.430192e-01  7.257290e-01  1.522823e+00  3.332044e+00  -1.712243e+00  -1.684243e+00  1.477812e+00  -1.311060e+00  -3.237009e+00  -1.306752e+00  -1.088206e+00  -8.035784e-01  2.784258e-01  -3.595232e+00  -8.158539e-01  -9.721909e-01  -2.424494e+00  -1.173798e+00  -1.166803e+00  1.761205e+00  -1.070207e+00  -3.476836e-01  -7.774610e-01  -1.555474e+00  6.208352e+00  -2.398209e-01  -1.379671e+00  3.225935e+00  7.139483e-01  -1.658336e+00  -5.769558e-02  -1.584766e+00  -1.843314e+00  -2.021721e-01  3.953536e-02  -5.691180e+00  -6.248816e-01  1.292104e+00  -3.010580e+00  -7.174394e-01  1.303840e+00  9.623805e-01  1.484143e+00  1.666428e+00  -4.263586e-01  -6.828479e-01  5.116607e+00  2.316611e+00  -1.674855e+00  1.862869e+00  4.564265e-01  -1.178131e+00  -1.337599e+00  -9.583548e-01  -1.175582e+00  1.510574e-01  -1.043099e+00  -5.750881e+00  -3.538134e-01  1.372706e+00  -3.237705e+00  -5.151451e-01  1.282799e+00  3.375771e-01  1.209150e+00  1.464554e+00  -3.227603e-01  -1.776241e-01  -5.382573e+00  -2.843473e+00  1.620966e+00  -1.275158e+00  5.266041e-01  7.773445e-01  -3.876685e-01  5.244980e-01  1.274421e+00  3.745480e-01  7.990814e-02  -5.159399e-01  -2.529150e+00  1.178583e+00  9.074751e-01  1.315464e+00  1.537241e+00  1.611859e+00  1.499182e+00  1.454945e+00  1.130667e+00  4.372787e-01  -5.614852e+00  -4.070128e+00  1.169687e+00  -9.559887e-01  2.981103e-01  6.766937e-02  -1.982533e-01  -1.343786e-03  5.382059e-01  1.684849e-03  -1.964477e-02  5.695846e+00  7.177757e-01  -1.302226e+00  2.572474e+00  5.701819e-01  -1.415797e+00  -7.283837e-02  -1.277501e+00  -1.533426e+00  4.761750e-02  4.957281e-02  -3.951514e+00  -2.519572e+00  1.234209e+00  -1.952589e+00  -1.577349e+00  1.079368e+00  3.647271e-01  7.688991e-01  1.499781e+00  5.988226e-01  8.357919e-02  -5.796000e+00  -4.085979e-01  2.377035e+00  7.251400e-01  -5.339844e+00  -9.574032e-01  4.940540e-02  -1.165028e+00  -9.064505e-01  2.156695e-01  1.283113e-01  -3.884967e+00  7.274981e-03  -1.533150e-01  -3.291296e+00  -1.744640e+00  2.307494e-01  1.509889e+00  -2.476918e-03  1.898900e+00  1.609817e+00  -1.469481e+00  6.319602e-01  2.007213e+00  -1.626984e-01  -1.081874e+00  8.750551e-01  -1.302939e+00  -2.215027e+00  -1.051744e+00  -1.200430e+00  -3.163032e+00  -1.724184e+00  -4.831404e+00  6.935608e-01  1.958409e-01  -2.400883e+00  -2.103112e+00  5.447757e-01  8.087377e-01  7.457220e-01  6.950910e-01  -1.101095e+00  -1.653794e+00  -3.318913e+00  -5.156737e+00  1.057530e+00  -1.897955e+00  -5.107324e-01  7.701845e-01  1.726631e-01  4.039727e-01  7.871496e-01  -7.146321e-01  -8.294613e-01  -4.718925e+00  -1.791738e+00  1.127568e+00  -2.100043e+00  -1.216387e+00  1.575810e+00  1.055032e+00  1.354560e+00  1.925688e+00  3.247652e-02  -8.991670e-01  -4.797867e+00  -4.921658e+00  9.171803e-01  -1.085478e+00  1.352891e+00  3.013388e-01  6.320432e-01  1.334502e-01  2.923351e-01  8.052137e-01  2.169743e-01  -5.824980e+00  8.705611e-02  1.052234e+00  -3.479366e+00  -1.183733e+00  1.573362e+00  7.611611e-02  1.477665e+00  1.841449e+00  7.080290e-01  -2.847398e-01  -4.069874e+00  -4.311388e+00  1.899477e-02  -1.136750e+00  2.838486e-01  -7.727513e-01  -1.658431e+00  -4.973538e-01  -8.778964e-01  1.669635e+00  -1.063066e+00  4.574301e+00  5.047594e+00  -1.200507e+00  1.607198e-01  2.699451e-01  -4.515334e-02  -9.941796e-02  -2.164669e-01  -3.219117e-01  -2.578878e-01  2.969021e-01  -3.080319e+00  8.650881e-01  -2.235495e+00  -2.436302e+00  3.374332e-01  -1.007037e+00  9.256189e-01  -8.703192e-01  -8.832842e-01  -4.118040e-01  6.327794e-01  -5.131477e+00  -4.758956e-01  6.434818e-01  -1.790068e+00  -1.468967e+00  7.883406e-01  3.647899e-01  5.546796e-01  3.499727e-01  -1.974507e+00  -1.263165e+00  2.962000e+00  1.962344e+00  2.915156e-01  1.578291e+00  -4.286654e-01  -8.803748e-01  -1.510154e-01  -5.756441e-01  -3.810191e-02  3.142848e-01  1.244067e+00  3.512098e+00  3.630065e+00  -1.345204e+00  1.626263e-01  2.202234e+00  -6.388443e-01  -9.083145e-01  -6.267711e-01  -6.058555e-01  -2.251276e+00  1.989176e-01  -5.266364e+00  -8.859898e-01  1.598655e+00  -6.351348e-01  -4.452381e+00  2.245232e-01  2.844363e-01  1.510563e-01  1.287520e-01  -6.043264e-03  2.487011e-01  5.305128e+00  1.590715e+00  -5.333826e-01  4.995956e-01  2.373720e+00  4.636302e-01  -2.017693e+00  2.894959e-01  -1.535503e-01  -2.169645e+00  -1.583791e+00  -3.802089e+00  -5.504931e+00  4.475159e-01  -7.590371e-01  4.365025e-01  1.691319e-01  -4.095232e-01  3.543483e-01  4.623068e-01  -6.793559e-02  7.590311e-01  5.400959e+00  5.426025e+00  -5.171916e-01  2.030232e-01  -6.467430e-01  1.775585e-01  4.312009e-02  3.121709e-01  4.367766e-01  -3.541161e-01  2.992531e-02  -5.782670e+00  -1.416726e-01  1.664153e+00  -2.911421e+00  -5.719299e-01  1.499584e+00  5.720748e-02  1.522277e+00  1.446514e+00  7.062360e-02  3.754796e-02  -5.230333e+00  -5.003910e+00  5.528378e-01  -6.394767e-01  1.096617e+00  -2.513502e-02  -1.203978e-01  1.481106e-01  -7.306770e-02  -6.879782e-01  -1.338200e-01  4.277656e+00  5.511055e+00  -9.115818e-01  -1.957802e-01  -3.485565e-01  -9.553505e-02  -8.975140e-01  -1.973445e-01  8.904532e-02  -6.808577e-01  -7.982544e-01  5.928594e+00  9.843097e-01  -1.024801e+00  2.472649e+00  1.338512e+00  -8.540410e-01  -1.952758e-01  -7.300773e-01  -1.182750e+00  1.532633e-01  4.232293e-01  5.517644e+00  4.949978e+00  -3.847505e-01  2.427899e-01  -2.651377e-01  4.894565e-01  -1.433126e-01  3.335806e-01  9.262770e-01  -1.311390e+00  -1.175632e-01  5.876721e+00  -5.803461e-02  -1.982112e+00  7.423407e-02  5.739789e+00  8.738059e-01  -5.894127e-01  1.124752e+00  2.777975e-01  1.418171e-02  -1.729518e-01  -5.399434e+00  -4.887040e+00  4.052558e-01  -5.502113e-01  9.890631e-01  -2.465406e-01  2.532426e-01  -9.234579e-02  -3.385798e-02  3.174083e-01  -4.384013e-01  -4.008337e+00  -3.011434e+00  -8.555859e-01  -2.513925e+00  1.777007e+00  -2.212732e-01  -9.465551e-01  -2.155275e-01  -5.479588e-01  -5.745643e-02  -5.424785e-01  9.401172e-01  -9.934248e-01  8.132750e-01  9.822665e-01  2.643904e-02  9.746108e-01  -3.260995e-01  1.216632e+00  1.327351e+00  6.409236e-01  -1.381078e-01  -5.751722e+00  -7.938898e-01  1.429260e+00  -2.492872e+00  -4.736587e-01  1.488173e+00  5.818104e-01  1.340598e+00  1.534087e+00  -1.381481e-01  -5.170721e-01  -3.539406e+00  -2.408916e+00  5.094481e-01  -2.540921e+00  -2.029280e+00  1.597811e+00  6.849986e-01  1.569782e+00  1.646260e+00  -9.404057e-01  5.064744e-02  3.404302e+00  1.463773e+00  -3.385293e-01  1.824613e+00  1.986858e+00  -6.784043e-01  -1.237376e+00  -7.068635e-01  -1.299088e+00  -2.359558e+00  -8.594813e-01  2.109264e+00  3.650068e+00  4.471111e-01  6.958767e-01  -3.434253e-01  8.921726e-03  -1.773221e+00  4.981511e-02  2.522652e-03  -1.802714e+00  -9.799187e-01  -5.206675e+00  -3.478694e+00  1.385714e+00  -1.943077e+00  -1.734986e-01  6.054327e-01  -3.383743e-01  5.265386e-01  1.103630e+00  7.184399e-01  8.207275e-01  5.084676e-01  2.455963e+00  -6.222833e-01  -3.869845e-01  2.644257e+00  -1.500996e+00  -7.832428e-01  -1.210397e+00  -9.347847e-01  -6.186641e-01  -4.944999e-01  -5.833322e+00  -7.836635e-01  1.131989e+00  -1.702269e+00  -3.048449e+00  2.225486e-01  1.317173e+00  4.474580e-01  5.316319e-01  2.906716e-01  9.219012e-01  -3.458411e+00  -1.187060e-01  -5.038552e-01  -1.785237e+00  -1.285952e+00  -1.069966e+00  5.262612e+00  -8.944725e-01  -1.243397e+00  -1.223976e+00  -1.292419e+00  -4.645886e+00  -4.222405e+00  1.484354e+00  -5.351146e-01  -2.822365e-01  2.712692e-01  1.356178e+00  -1.365459e-01  6.582615e-01  6.678469e-01  -1.358129e+00  4.590722e+00  1.343449e+00  3.774564e-01  2.981936e+00  7.764460e-01  2.918157e-01  -1.007297e-01  2.181749e-02  1.057780e-01  1.525030e+00  8.012910e-01  -5.771199e+00  -1.338942e-01  1.388294e+00  -2.175511e+00  -3.862883e+00  4.888262e-01  8.894002e-01  6.431487e-01  1.345431e+00  3.095792e-01  -3.149532e-01  5.700121e+00  5.521905e-01  -2.723681e-01  1.730942e+00  3.116058e+00  2.952238e-02  -1.003862e+00  9.732351e-02  4.012636e-02  4.039084e-01  -2.931386e-01  -3.020311e+00  -3.892338e+00  2.624483e-01  -5.172681e-01  7.436366e-02  -4.956866e-01  -7.293290e-01  -5.060700e-01  -1.845753e-01  -3.488343e+00  -6.414818e-01  7.609593e-01  -1.069896e+00  9.511130e-01  6.188764e-01  3.567666e-02  1.639614e+00  1.952250e-01  1.332874e+00  1.636921e+00  5.006666e-01  2.631966e-01  -4.043983e+00  -4.762758e+00  1.109994e+00  -2.280390e-01  7.381925e-01  2.370778e-01  3.518831e-01  2.672306e-01  3.089164e-01  1.144470e-01  -3.959096e-01  4.226271e+00  5.079658e+00  -1.455443e+00  3.914221e-01  1.581392e-01  -5.554281e-01  5.419202e-02  -4.331684e-01  -1.919187e-01  2.119427e-01  7.935153e-02  -8.355209e-01  -1.172473e+00  1.615966e+00  8.768862e-01  -1.729406e+00  1.714152e+00  1.675944e+00  1.669053e+00  1.299746e+00  1.098651e+00  5.130523e-01  -2.497640e-01  1.802721e+00  4.363409e-01  2.004373e-02  -3.148490e+00  9.647910e-01  9.890299e-01  1.103436e+00  1.411994e+00  3.453366e+00  -1.242877e+00  -3.362952e+00  2.756605e-01  -1.416676e+00  -3.133506e+00  -1.582407e+00  -8.021957e-01  2.120453e+00  -7.624857e-01  -4.669090e-01  2.756258e+00  -1.118708e+00  3.408031e+00  2.869426e+00  -1.369091e+00  4.537244e-01  1.892284e+00  -9.463027e-01  -1.705060e+00  -8.057537e-01  -1.022492e+00  -4.509047e-01  -5.252504e-01  -5.412443e+00  -4.938676e+00  1.150929e+00  -1.182548e-01  -1.418042e-01  -1.405744e-01  -1.934039e-01  -4.507817e-01  -6.566175e-01  -3.500709e-01  -2.341178e-01  5.201184e+00  5.018755e+00  -5.809720e-01  6.171567e-01  -6.280011e-01  4.523428e-01  -4.668283e-02  1.556953e-01  3.172330e-01  -5.122408e-01  -3.592958e-01  -5.706331e+00  3.061640e-01  1.578723e+00  -7.679721e-01  -5.682883e+00  -2.653856e-01  3.158666e-01  -5.955582e-01  -2.197683e-01  8.706418e-02  2.092990e-03  5.025651e+00  4.188760e+00  -1.144102e+00  2.965859e-01  3.944133e-01  -5.242686e-01  -1.522895e+00  -3.742663e-01  -6.116278e-02  -7.111918e-01  -1.296677e+00  -6.254416e+00  -1.985491e+00  1.075626e+00  6.912892e-01  -4.804030e+00  -1.003277e+00  1.386645e-01  -9.606133e-01  -1.511330e+00  3.856617e-01  3.195117e-01  6.090982e+00  1.456897e-01  -1.262884e+00  3.564609e+00  6.784379e-01  -1.739089e+00  -2.559485e-01  -1.741660e+00  -1.903832e+00  2.564766e-02  4.637770e-02  -5.283988e+00  -2.580393e-02  6.187566e-01  -3.595788e+00  -1.002366e+00  1.442197e+00  3.010438e-01  1.486361e+00  2.057352e+00  6.036766e-01  -1.323798e-01  1.873962e+00  -1.196788e+00  1.388907e+00  1.159581e+00  -4.909996e-01  1.341136e+00  2.800620e-02  1.134009e+00  1.309012e+00  1.405303e+00  6.014850e-01  
      </Weights>
      <Biases Rows="128" Columns="1">
        5.609810e-02  -7.742610e-01  -1.015623e+00  -1.114790e+00  9.254845e-01  -1.444939e+00  -1.315811e+00  1.117598e+00  -3.348991e-01  1.567839e+00  3.510331e-01  7.755193e-01  -1.419523e+00  2.454424e-02  -1.568606e+00  -1.217275e+00  -4.643501e-01  1.564889e+00  -3.208089e-01  4.211093e-01  -8.669589e-01  -1.543899e+00  1.340968e-01  -5.757422e-01  -1.554155e+00  -1.571332e+00  5.563878e-01  1.549086e+00  3.788598e-01  6.975309e-01  -1.420570e+00  3.602239e-01  1.109893e+00  -6.693756e-01  1.069217e-01  -3.445386e-02  1.202666e+00  -1.243128e+00  -1.664139e+00  -1.559090e+00  -7.389748e-01  -2.820456e-01  -8.116344e-01  -8.214888e-01  -5.550083e-01  -1.527117e+00  1.363522e+00  7.548209e-01  -4.571985e-01  -2.928726e-01  1.621079e+00  9.953173e-01  5.765157e-01  -7.294852e-01  3.100362e-01  1.746769e+00  -1.792232e+00  -1.788180e-02  -1.116035e-01  -3.350414e-01  -3.983132e-01  -1.033789e+00  1.373865e+00  1.042241e+00  1.578215e+00  -1.445805e+00  1.019522e+00  -1.152763e+00  -7.219617e-01  -1.586187e+00  -1.409316e-01  1.197085e+00  -8.637757e-01  9.940711e-01  -1.133581e-01  1.244832e+00  -7.001862e-01  -5.613307e-01  -1.381064e+00  -2.159798e-01  -1.350873e+00  6.350971e-01  1.636286e-01  8.141428e-01  -5.808432e-01  7.650574e-01  7.130578e-01  -6.467508e-02  -3.444614e-01  -3.152747e-01  -3.375531e-01  -1.394665e+00  -3.567595e-02  3.785469e-02  7.673869e-01  -4.418348e-01  -9.412175e-01  2.118051e-01  3.532991e-01  -1.132622e+00  -1.325929e+00  -1.423828e+00  5.278139e-01  -2.679520e-02  -5.934034e-01  1.305128e+00  -2.927307e-01  1.010329e+00  -6.922214e-02  -2.094957e-01  -6.350929e-01  -2.529554e-01  3.100212e-01  -1.427655e+00  -2.342854e-01  5.370383e-01  -1.677467e+00  -9.478193e-01  8.336926e-01  7.417311e-01  3.048259e-01  -3.402197e-01  4.098168e-01  3.916300e-01  8.353602e-01  1.737034e+00  -1.319580e+00  -1.208467e+00  
      </Biases>
    </DenseLayer>
    <DenseLayer Width="128" ActivationFunction="3">
      <Weights Rows="128" Columns="128">
        -1.120238e+00  1.028870e+00  -2.864008e+00  -1.335764e+00  1.389674e+00  6.104311e-01  -1.663568e+00  2.515002e+00  1.539388e+00  -1.907362e+00  2.434589e+00  1.539560e-01  -3.249656e+00  -6.995617e-01  -1.371129e+00  9.452204e-01  2.570640e+00  9.101748e-02  3.704296e+00  3.952384e+00  -4.010692e-01  -1.668933e+00  1.033862e+00  1.902989e+00  4.341732e-01  3.726406e-01  -4.299068e+00  -3.928882e-01  3.010946e+00  4.917079e-01  -4.750553e-01  3.642249e+00  -1.339911e+00  -3.220747e+00  3.459592e+00  -3.407841e+00  2.644443e+00  -2.321259e+00  -4.105314e+00  -5.804738e-01  1.038852e+00  -3.781589e+00  1.651629e+00  2.029710e+00  -2.379479e+00  -2.206097e+00  -1.971474e-01  -1.630060e+00  3.251694e+00  -2.908548e-01  -3.150735e-01  1.072528e-01  -3.847831e+00  2.629786e-01  -5.593714e-01  2.881388e+00  -5.216797e+00  -2.306009e-01  -3.708595e-01  -2.636733e+00  -1.901903e+00  7.305217e-01  2.593457e+00  4.146786e-02  2.069607e+00  1.547163e-01  1.159904e+00  -4.487685e+00  -9.161381e-01  -1.459440e+00  -6.853396e-01  4.262595e+00  1.804073e+00  -3.628861e+00  -8.419122e-01  1.325456e+00  3.202579e-01  2.310503e+00  -3.558348e+00  -1.109882e+00  -2.355642e+00  -1.088344e+00  -5.632852e-02  2.900691e+00  -2.294206e+00  -6.115369e-01  1.871813e+00  -2.242383e+00  1.573668e+00  8.870159e-01  2.419178e+00  -2.141308e+00  -5.238041e-01  1.670502e+00  2.243178e+00  1.909497e+00  3.022395e+00  -1.797884e+00  -2.001939e-01  3.002865e+00  -1.189072e+00  3.061218e+00  -9.095678e-01  2.711547e+00  -2.618920e+00  -4.525463e-01  -3.144202e+00  2.848289e+00  -1.822148e+00  -1.758499e+00  -7.280309e-01  -1.225817e-01  -1.028908e+00  1.440976e+00  -8.705645e-01  1.718816e+00  6.427138e-01  -1.517133e+00  -3.208237e-03  -1.578812e+00  -1.237031e+00  5.453014e-01  -4.149455e+00  -8.549566e-01  -4.785570e+00  7.295762e-01  3.026787e-04  4.360475e-02  -1.823553e+00  6.237078e-01  -1.826296e+00  1.147947e+00  3.205488e+00  3.297230e-01  -6.094894e-01  -2.200696e+00  4.521989e-01  1.274883e+00  -2.131656e+00  -3.400131e-01  -8.122012e-01  -1.309016e+00  -9.253559e-01  -2.414905e+00  7.239830e+00  -2.237138e+00  -1.056473e+00  -7.585670e-01  -4.406148e-01  3.386659e+00  -2.665493e+00  -8.037531e-01  -4.350303e+00  -2.864945e+00  1.154564e+00  -7.210439e-01  6.743879e-01  3.544126e+00  -7.267368e-01  -1.958064e+00  1.123975e+00  3.410427e-01  8.618868e-01  -8.432486e-01  -1.140924e+00  -9.055319e-01  2.369256e+00  -2.176986e+00  3.031065e+00  -3.407966e+00  5.535107e-01  1.365286e+00  3.034827e+00  2.699847e+00  -6.581179e-01  1.027176e+00  -1.093026e+00  -2.610231e+00  4.174963e-01  2.140626e+00  -6.980417e-01  1.660431e-02  7.895683e-01  2.828367e+00  1.523233e+00  -1.348696e+00  -2.643150e+00  -1.103377e+00  -3.078131e-01  -9.748549e-01  2.351636e+00  4.055783e+00  -4.844482e+00  7.311004e-01  -3.641335e+00  6.780383e-01  -4.743594e-01  7.171535e-02  1.782903e+00  -5.334571e+00  -8.197047e-01  9.211159e-01  -2.712165e+00  3.805048e+00  2.577602e-01  9.570767e-01  -2.218482e+00  -3.329817e-01  2.840183e+00  3.244441e-02  -1.500987e+00  1.935833e+00  -1.191869e+00  -3.314007e-01  -2.533538e+00  4.395446e+00  -2.214431e-01  1.004268e+00  -5.129125e-01  1.992717e+00  3.178978e+00  2.425775e-01  -1.260166e+00  -2.030968e+00  -1.402629e+00  4.103451e+00  1.455640e+00  -1.630618e-01  1.075382e+00  -1.254141e+00  -3.657167e-01  -9.002854e-03  -3.424641e-02  -1.575787e-01  3.827764e+00  2.169504e+00  -1.345694e+00  -7.726476e-01  -1.102626e-01  -6.718332e-01  -1.980584e+00  2.545974e+00  1.725209e+00  -4.568800e-01  3.141785e-01  -3.042567e+00  -1.963184e-01  2.213198e-01  1.954195e+00  -3.919145e+00  -1.906912e-01  -8.921378e-01  2.754172e+00  -3.152594e+00  1.152801e+00  1.991816e+00  2.156862e+00  -2.511895e+00  -1.998005e+00  8.129067e-01  2.685155e+00  -1.286108e-01  5.437202e-01  -3.491960e-01  -1.313429e+00  2.235902e+00  -1.289405e+00  -6.330542e-01  3.840458e-01  1.564436e+00  -1.462280e+00  1.353904e+00  2.781255e+00  2.631783e-01  -2.895364e+00  -1.078506e+00  -3.672775e-01  5.130745e-01  -1.679684e+00  -4.985344e-01  5.284293e-01  1.136889e+00  1.985086e+00  1.153806e+00  -3.230754e+00  1.521094e+00  3.263135e-01  -4.178493e+00  1.441257e+00  2.503505e+00  -1.302100e+00  2.257189e+00  3.926524e-01  1.111637e+00  -2.807383e+00  -2.985278e+00  6.299971e-01  -7.532242e-01  -1.101335e-01  2.338180e+00  -8.491290e-01  1.495345e+00  -1.328535e+00  1.346156e+00  -1.204890e+00  -1.428791e+00  1.383699e+00  -1.553990e+00  2.948786e+00  -3.939719e-01  2.367563e+00  -5.246358e-01  1.657616e+00  -2.042574e+00  -3.965947e+00  3.879706e-01  -1.365791e+00  -7.287262e-01  1.092206e+00  -2.673699e+00  -1.240002e-01  3.700353e-02  -9.193833e-01  2.258631e+00  1.230328e+00  -3.681152e+00  1.810858e+00  -3.773665e+00  -1.280551e-03  3.925108e+00  -8.742442e-01  -5.013502e-01  -1.642453e+00  4.360847e+00  -5.087422e-01  9.620855e-01  -2.541923e+00  2.826112e+00  -4.598612e-01  2.080951e+00  1.804083e+00  -1.591597e+00  1.288660e+00  3.410945e+00  -3.754014e+00  -4.497824e-01  -3.712916e+00  5.794344e-01  4.066394e+00  -3.093267e-01  -1.499007e+00  -3.810299e+00  -3.203548e+00  2.253235e+00  6.711224e-01  -1.983087e+00  -2.274969e+00  1.495377e-01  4.003490e+00  -2.913506e+00  1.170392e+00  -6.261559e-01  5.522721e-02  2.351224e+00  1.326882e+00  1.612900e+00  -8.137954e-01  -5.077696e-01  2.589694e+00  -4.156112e-01  2.058265e+00  -3.739856e+00  2.730947e+00  2.031718e+00  -1.900225e-01  6.656603e-01  1.917716e+00  -4.899022e+00  -5.957052e-01  -6.302009e+00  4.738955e+00  1.524505e+00  -4.546526e-01  -3.775611e-01  1.492915e+00  -1.868316e+00  -2.850249e-01  -2.278311e+00  2.085053e+00  7.684673e-01  -2.470182e+00  1.487618e+00  7.748877e-01  1.669107e-01  -9.910644e-01  -1.737893e+00  3.860880e+00  5.151139e-01  -3.235417e+00  3.869412e-01  -1.673187e+00  1.468682e+00  7.198192e-01  1.575393e+00  -3.453484e-01  -3.032817e+00  1.861091e+00  2.339978e-01  -3.007920e+00  -1.169085e+00  -2.395614e-01  7.024129e-01  -7.441352e-02  -7.252640e-01  -3.336728e+00  9.269764e-01  3.371309e+00  2.764490e+00  -5.463544e-01  -8.003168e-01  -7.209033e-01  -8.587551e-01  -5.938599e+00  -1.234895e+00  9.054017e-01  4.508002e+00  9.709499e-01  -2.170089e+00  1.409178e+00  -3.004631e+00  2.376483e+00  1.201670e+00  -1.856817e+00  1.926715e+00  4.409881e-01  -5.406073e-01  2.388845e-02  -2.508739e+00  -1.262883e+00  -1.982835e+00  -3.548791e+00  1.610998e+00  2.326434e+00  -4.056206e-01  3.867252e-01  1.337249e+00  -4.208064e-01  -6.081524e-01  4.748596e+00  -5.728014e+00  4.252998e+00  -2.696445e+00  3.289129e+00  4.953305e-01  -5.787610e-01  -8.083300e-01  -2.584460e+00  -3.318713e+00  -1.710881e+00  -2.341306e-01  -2.128395e-01  -1.252311e+00  -3.324398e+00  2.754039e-01  -4.215629e+00  2.033373e-01  -2.615345e-01  1.039119e+00  -1.456808e+00  -1.474917e+00  1.223568e+00  -5.444555e-01  3.708766e+00  8.163438e-01  3.289585e-01  -4.114825e+00  2.663136e+00  -6.864634e-01  3.672100e+00  1.750206e+00  1.553632e+00  -2.141745e+00  2.678002e+00  1.585004e+00  -1.095797e+00  -3.162664e+00  -1.303573e+00  -1.215590e+00  -1.122169e+00  2.098103e+00  -1.756616e+00  3.271997e+00  -6.795135e-01  -2.624588e-01  -3.028211e+00  -1.498925e-01  -2.711210e+00  -2.217834e+00  3.333861e+00  -5.116426e-01  1.271012e-01  1.690947e+00  6.476700e-01  6.570517e-01  -2.872890e+00  -5.238976e-01  -4.855588e-01  -6.793315e-01  -4.899680e-01  5.073025e+00  -2.875787e+00  8.854731e-01  -4.205535e+00  -6.599515e-01  -1.671706e+00  -2.337907e+00  -8.442361e-01  -2.880597e+00  -2.260449e+00  -9.824705e-01  -3.265560e+00  2.912043e+00  -2.285652e-01  1.848780e+00  -5.054770e-01  -1.245950e+00  9.377139e-01  -1.722640e-01  -5.441249e+00  5.717511e-01  -5.032181e-01  1.229718e+00  1.156037e+00  -4.366645e+00  -3.003707e+00  -1.072338e+00  7.229387e-01  -2.121252e+00  -8.972105e-01  1.676095e+00  2.245644e-01  -1.487115e+00  -1.740169e+00  2.109165e+00  2.985788e+00  -5.347156e-01  4.707901e+00  -1.118145e-01  -2.690176e+00  -1.128849e+00  -2.165987e+00  -7.597972e-01  -2.101868e+00  3.786485e-01  -1.761272e+00  1.299990e+00  5.636386e-01  -2.109829e+00  2.308687e+00  3.705613e+00  -4.047984e-01  5.946603e-01  9.258338e-01  -1.250388e+00  -7.041031e-01  -2.736140e+00  -4.555308e-01  6.797096e-01  -2.125693e+00  -8.383706e-01  1.129511e+00  -1.306382e+00  1.316548e+00  -3.507062e+00  1.992792e+00  -1.944998e+00  5.571504e+00  -2.847946e+00  -5.979220e-01  -2.523145e+00  -1.788198e+00  1.307613e+00  -8.855847e-01  4.228012e-01  -2.218182e+00  -3.603657e-01  -1.554733e+00  -8.778319e-01  1.394141e+00  -3.769660e-01  -1.667638e+00  1.122857e+00  -2.802444e+00  8.569007e-02  -9.622186e-01  3.033143e+00  -3.290732e-01  -2.936587e-01  2.394368e+00  1.525127e+00  1.709088e+00  1.152730e+00  5.327000e-01  -2.409391e+00  1.244833e+00  3.342047e+00  1.837825e+00  8.299453e-01  2.576946e+00  -5.113037e+00  6.967117e-01  -2.321999e+00  -1.611668e+00  -2.572261e-01  1.403825e+00  -2.166431e+00  -2.101968e+00  2.827754e+00  -1.795847e+00  1.628624e+00  -2.627862e+00  1.070837e+00  -5.586271e-01  1.712030e+00  1.120409e+00  -2.682431e+00  -4.469574e+00  -5.740045e-02  -3.886712e+00  -8.992400e-01  -2.809600e+00  -1.071104e+00  -1.665567e+00  -1.133595e-01  1.652987e+00  -1.287818e+00  -1.664097e-01  3.445094e+00  -2.457716e+00  -3.235580e+00  -8.760498e-01  -7.438273e-01  -2.344246e-01  -6.492131e-01  -1.328305e+00  -9.918534e-01  -1.084909e-01  4.471723e+00  9.541673e-01  -1.226281e+00  5.213537e-01  -5.671638e-01  2.490982e+00  -3.836874e+00  3.832155e-02  1.410365e+00  -5.036752e-01  9.131902e-01  1.275986e+00  -3.262385e+00  2.114803e-01  2.157739e-01  -1.924959e-01  4.816066e-01  -3.892861e-01  9.896638e-01  -6.883398e+00  -9.051817e-01  -2.567641e+00  -2.945046e-02  2.939603e+00  5.559704e-02  1.639656e+00  -1.841956e+00  8.793172e-02  -1.642678e+00  -2.076754e+00  3.532452e-01  -2.318299e+00  2.295785e-01  8.143234e-01  -1.417427e-01  4.435164e+00  5.834388e-01  1.669369e+00  8.389812e-01  3.041174e+00  -4.095826e-01  1.524178e+00  1.054031e-01  7.828470e-01  1.408744e+00  -1.551634e+00  3.894845e-01  -6.115282e+00  4.138563e-01  1.883459e+00  6.441783e-01  -3.470018e-02  2.096300e+00  -1.078757e+00  -2.904872e+00  8.648875e-01  -1.657255e-01  5.296479e-01  -5.250086e+00  6.114387e-01  -2.025609e+00  1.969228e+00  2.400419e+00  1.973865e+00  2.292607e+00  -1.379179e+00  -4.123458e+00  -8.957919e-01  -1.233335e+00  4.518639e-01  1.373100e+00  1.071091e+00  2.930207e+00  -8.861750e-01  2.086253e+00  -1.862876e+00  -2.517579e+00  -4.743757e-01  -8.643315e-01  8.119748e-01  -3.755620e+00  2.011153e+00  2.486177e+00  1.659406e-01  -1.412476e+00  5.344831e-02  -1.033316e+00  1.682663e+00  -2.146279e+00  8.993312e+00  4.923116e-01  6.729218e-01  9.936512e-01  -1.171085e+00  -2.571522e+00  4.162013e+00  -1.954144e-01  2.949365e+00  -1.950448e+00  -5.628905e+00  1.773109e+00  -8.378481e-01  9.903806e-02  -3.843152e+00  2.703307e+00  -2.038547e+00  1.147914e+00  -8.345535e-01  -4.557162e+00  -2.393691e+00  -1.955214e+00  -1.870042e+00  -5.495387e-01  3.446616e-01  -2.278926e+00  -6.721833e+00  2.200146e-03  -3.297813e+00  5.522333e-01  -2.501357e-01  1.639587e+00  -2.043592e+00  -8.735940e-01  -1.582400e-02  2.743464e+00  2.770607e-01  2.179569e+00  -1.210303e+00  -2.309124e+00  -2.591545e-01  1.692013e-01  1.250145e+00  -2.363419e+00  -4.961853e-01  8.643969e-01  -1.782106e-02  -2.191261e+00  -1.407709e+00  -1.512524e+00  -4.274112e+00  -4.954651e+00  1.704756e+00  4.199331e+00  -1.191492e+00  1.080200e+00  -2.592242e+00  -1.151463e-01  3.716424e+00  -8.086893e-01  -9.202262e-01  -2.111989e-01  1.086965e-01  -1.876760e+00  1.613785e+00  1.482502e-02  -2.655704e+00  1.633414e+00  2.276722e+00  2.522062e-01  4.125359e+00  -3.884384e+00  7.448629e-02  -2.702738e+00  -4.652175e+00  1.761460e+00  2.513460e+00  3.176462e+00  -3.666348e+00  -5.802439e-01  -1.584200e+00  -7.642093e-01  4.883254e-02  2.086485e+00  2.928783e+00  -1.882432e-01  2.586797e+00  2.823140e-01  1.642360e-02  -3.057355e+00  -1.593634e+00  2.256616e+00  -5.085858e-01  -1.156619e+00  -2.017254e+00  -1.673521e+00  -1.392568e+00  3.255122e+00  -8.367632e-01  2.193064e-01  6.393406e-01  -1.474120e+00  -3.515704e-01  -2.220885e+00  1.230273e+00  3.858709e+00  6.397091e-01  -6.440589e-01  1.513388e+00  -5.589724e-02  1.692714e+00  2.809882e-02  1.309222e-03  6.426541e-01  -6.408340e-01  1.115253e+00  -3.512080e+00  -5.196431e-01  1.046269e+00  2.639147e+00  3.553603e-02  2.686625e+00  -1.206940e+00  3.112319e+00  1.883701e+00  1.532856e+00  -2.284532e+00  -9.423776e-01  -1.343009e+00  1.507460e-01  -1.548090e-01  -2.506295e+00  3.613465e+00  3.568534e+00  1.251819e+00  1.738356e+00  1.842330e+00  2.207466e+00  4.737238e+00  -2.312405e+00  3.872298e+00  -2.503918e+00  6.416321e-01  5.500140e-01  4.449069e-01  2.405624e-01  1.380252e+00  -5.311083e-01  -5.855091e-01  -1.217194e+00  -4.106785e-01  -5.022898e+00  3.888789e+00  5.406232e-01  2.380723e+00  3.022912e+00  1.441687e+00  -2.226179e+00  2.469235e+00  -1.335371e+00  -1.051501e+00  2.771197e+00  1.572718e+00  3.173353e+00  -4.793910e-01  1.581827e+00  4.007084e-02  2.146146e+00  9.685802e-01  -1.914017e+00  -1.412483e+00  -2.308901e+00  1.710957e+00  1.619735e+00  1.362728e+00  1.110173e+00  -3.230594e+00  -1.829402e+00  -2.182226e+00  -1.606414e+00  2.347414e+00  -7.280642e-01  -1.640374e+00  2.829284e+00  -2.701545e+00  3.202654e+00  8.128461e-01  -3.136988e+00  -1.965087e+00  -2.312221e+00  2.244436e-01  2.369896e+00  -1.342026e+00  1.701867e+00  -4.406672e+00  -2.607577e+00  -1.610594e-01  3.045959e+00  -3.656029e+00  1.689912e+00  6.620935e-01  -1.229454e+00  -1.765982e-01  2.401826e+00  -2.530471e-01  1.911711e+00  -2.798850e-01  1.963620e+00  -2.519715e+00  1.522084e+00  -1.547813e+00  -1.222699e+00  1.565266e+00  -1.061209e+00  -4.318470e-01  -8.178616e-01  -1.528913e+00  2.313024e+00  -4.410187e+00  1.258534e+00  -6.171611e+00  3.682866e+00  -6.474559e-01  -1.701915e+00  -2.175559e+00  -2.421712e+00  1.102584e+00  1.558396e+00  1.651280e+00  1.322657e+00  9.894647e-01  -2.017077e+00  1.752845e+00  3.051295e+00  -2.685265e-01  2.555325e-01  -1.380687e+00  -2.057892e+00  3.066658e+00  1.416688e+00  -1.140433e+00  -2.492144e+00  -1.664418e+00  -1.494421e+00  2.354404e+00  -1.678355e+00  2.750865e-01  -5.036972e-01  8.408599e-01  3.334036e+00  -1.637600e+00  1.682982e+00  4.444949e+00  -1.482247e+00  -4.423231e-01  -2.772297e+00  1.031537e+00  4.585271e+00  -1.122121e+00  2.279478e+00  -1.000413e+00  -5.418264e-01  -1.069783e+00  2.025297e+00  3.694179e+00  -2.355101e+00  3.694923e-01  -1.896246e+00  2.583431e+00  1.203198e+00  -1.518165e-01  1.011015e+00  1.903508e+00  6.722725e-01  1.875755e+00  -6.838822e+00  3.370999e+00  3.634160e+00  -2.024491e+00  -1.463960e+00  4.491203e+00  -6.437778e-01  -1.135160e+00  -1.503508e+00  7.443634e-01  2.178931e-01  -4.584283e-01  2.826920e+00  -1.658691e+00  -1.118291e-01  3.810842e-01  -2.935570e+00  1.143828e+00  -4.357577e+00  3.349137e-01  3.307152e+00  -8.411956e-01  -1.273108e-01  -6.474088e-01  6.710220e-01  1.789096e-01  -7.609544e-01  -2.466496e+00  -1.308957e+00  -3.688754e+00  7.408631e-01  -2.312570e-01  -2.306545e+00  4.200794e-02  -8.155703e+00  -3.502233e-01  -9.382879e-01  -1.298269e+00  -6.902490e-01  -1.816728e+00  -1.284717e+00  -1.562229e+00  3.591824e-01  -8.090544e-01  -8.812368e-01  -1.450700e+00  -1.403409e+00  -4.139174e-01  -2.897831e+00  -2.723809e+00  -4.723302e+00  -1.130118e+00  -1.094465e+00  -1.666042e+00  1.746394e+00  -5.824727e-01  -1.602344e+00  -3.698164e-02  -3.749425e+00  4.350053e+00  -3.150368e+00  1.855151e+00  -1.314867e+00  -4.374042e-01  -2.469080e+00  -1.365398e+00  -8.145981e-01  1.189677e+00  6.240138e-01  -5.198480e+00  -1.585421e+00  1.109083e+00  -3.230909e-01  2.996196e-01  -1.193364e+00  -5.256785e-01  -1.711200e+00  5.294290e+00  -2.511458e+00  1.030577e-02  -5.622374e+00  -1.866363e+00  1.612854e+00  -7.077330e-02  3.613268e+00  1.745801e+00  -1.068884e+00  -3.748932e+00  -1.095643e+00  -4.235021e-01  -6.295527e-01  6.397265e-01  2.256239e+00  -4.223896e+00  1.311516e+00  -6.541317e-01  2.216977e+00  5.427755e-01  6.863491e-01  3.174225e+00  -1.360665e+00  -2.875569e-01  2.684877e+00  -1.415131e+00  -4.080777e+00  7.678128e-01  -1.684741e+00  9.411524e-01  2.582486e-01  6.152897e-01  -1.704993e+00  -5.480167e-01  -3.033286e-01  -3.469481e+00  -9.852766e-01  1.038257e+00  -1.314491e+00  1.404864e+00  3.767332e+00  -7.325475e-01  -4.370144e-01  -5.607077e-01  1.502792e+00  -6.058109e-01  8.944138e-01  -3.508284e+00  2.978361e+00  2.154964e+00  2.950749e-01  2.629812e+00  -1.161221e-01  6.413215e-02  -1.698564e+00  -1.029565e+00  -4.106246e+00  -3.021307e+00  -2.518233e+00  -1.337365e+00  4.265134e+00  -3.317813e+00  -2.651494e+00  2.355915e-01  -1.090733e+00  3.221303e-01  2.085692e+00  -6.981320e-01  1.458233e+00  -2.319492e+00  -2.009590e+00  1.384093e+00  -1.075460e+00  1.246876e+00  1.016874e+00  -1.024685e+00  -2.726408e-01  -2.328287e-01  1.676898e+00  -8.616354e-01  1.244621e+00  5.397607e+00  3.279023e+00  -7.623507e-01  -2.374770e+00  4.260321e+00  -2.174986e+00  -2.569547e+00  1.306338e+00  -8.136186e-01  -9.013769e-01  9.595860e-01  1.459610e+00  4.183284e-01  6.485037e-01  -2.976314e+00  -7.694632e-01  5.197630e+00  -2.615198e+00  1.050279e+00  -1.440727e+00  -5.103443e-01  8.847996e-01  1.790914e+00  -6.588100e-01  2.878394e+00  -2.746493e+00  -1.695854e+00  -6.812315e-01  1.387440e+00  -2.261356e+00  2.535022e+00  -1.456759e+00  9.908430e-02  4.838643e-01  -7.002736e-02  -1.616129e+00  2.088876e+00  9.432579e-01  1.604428e+00  -4.345518e-02  5.096009e+00  -4.653192e+00  1.034845e+00  6.708404e-02  7.528362e-01  -9.149666e-01  7.135514e-01  -4.549775e-01  -1.783135e+00  6.611500e-01  3.283451e+00  -3.047729e-02  3.170320e-01  -3.421150e+00  5.806639e-02  -7.086551e-01  -1.952848e-01  1.199439e+00  -2.331642e-01  9.619706e-01  2.576966e-01  2.584850e+00  -2.031333e-01  2.806162e+00  4.333874e+00  -3.880905e-01  1.880986e-01  1.329797e+00  3.350779e-01  1.099328e+00  -1.818679e+00  -3.965686e-01  5.277763e+00  -3.389132e+00  -9.677272e-01  4.519800e+00  5.842500e-01  7.464387e+00  4.167094e+00  -3.517133e+00  3.481140e-01  3.857608e-01  1.536305e+00  1.466514e+00  1.400343e-01  -8.325738e-01  -2.366589e+00  -3.257895e+00  2.320471e+00  -4.795059e-01  -1.511806e+00  -3.722557e+00  -6.327475e-01  2.882120e-01  -6.303772e-02  -5.077934e-01  -2.755433e+00  7.480712e-01  -2.022557e+00  -2.091068e+00  -3.243225e+00  1.456007e+00  -6.170869e+00  6.381168e+00  1.279520e-01  3.407101e+00  -4.210333e+00  1.408685e-01  -1.043704e-01  -2.160051e+00  -3.895758e+00  -6.877751e-01  -2.481320e+00  -1.908540e+00  3.957061e-01  2.246837e+00  -4.884968e-01  1.063740e+00  1.483204e+00  -1.551233e-02  8.261147e-01  -8.432469e-01  1.335669e+00  8.072057e-01  -8.244435e-01  -3.580353e+00  4.055633e+00  1.511297e+00  1.158902e+00  2.549501e+00  3.890723e+00  -9.883794e-01  1.256648e+00  3.025639e+00  -3.419439e+00  -4.488652e-01  1.334968e+00  7.882428e-01  2.536109e+00  -1.713797e+00  -6.090878e-01  -1.087734e+00  -4.688758e-01  -1.082277e+00  1.333691e+00  5.032243e+00  5.306360e-01  8.700451e-01  -3.476988e-01  4.274943e-01  9.039109e-01  -8.090233e-01  -8.010417e-01  1.492107e+00  -1.712149e+00  6.104152e-01  9.540681e-02  -7.430384e-01  4.965650e-01  1.325079e-01  1.052264e+00  1.422725e-01  -1.513082e+00  3.058997e+00  -1.163916e+00  2.828673e+00  4.327734e-01  1.018623e+00  1.116435e+00  -1.054207e+00  -2.242867e+00  9.719084e-01  2.726722e+00  1.583827e+00  -6.206998e-01  -8.813057e-01  1.799057e+00  -2.423814e+00  -1.981806e+00  -6.744609e+00  3.987924e-01  4.249149e-01  1.745008e+00  7.881170e-01  7.314444e-01  4.021545e-01  1.666522e+00  -1.703797e+00  -1.729956e+00  -1.406232e-02  8.105410e-01  -2.278289e+00  2.200497e+00  -1.146568e+00  -3.571658e+00  -1.543626e+00  6.102675e-01  -7.375898e-01  -8.814392e-01  -3.285552e+00  2.290199e+00  2.073499e-01  -6.967163e+00  5.793809e+00  9.367141e-01  -2.074274e-01  1.616419e+00  -5.739116e-01  2.322247e+00  3.217413e+00  -2.070529e+00  6.409622e-01  -8.243801e-01  -3.478092e-01  -9.825252e-01  -3.584733e-01  9.245193e-01  -1.406876e+00  1.074430e-01  1.609280e+00  1.542403e-01  -1.820952e+00  -3.246664e-01  8.930894e-02  -6.088004e+00  7.152002e+00  -3.136270e-01  8.336312e-01  2.402003e+00  -7.296356e-01  -7.753766e-01  7.913988e-01  7.310489e-01  1.113659e+00  2.266875e-01  -4.300593e-01  6.800639e-01  3.201352e-01  -8.253679e-02  8.633187e-01  1.827328e+00  1.882639e+00  1.499072e+00  8.659319e-01  1.661900e+00  4.922709e-01  3.260860e-01  -3.667701e+00  -2.548053e-01  -4.768555e+00  -7.787953e-01  2.895843e+00  9.374110e-02  -3.262285e+00  5.626273e-01  3.922151e-01  7.136866e-01  -3.523341e-01  9.303984e-01  5.020438e+00  -2.434468e+00  1.963429e+00  1.921873e+00  1.401713e+00  3.577222e+00  -2.302420e+00  1.042217e+00  1.383964e-01  3.960300e+00  -3.139462e-02  -1.495675e+00  2.193387e+00  1.703608e+00  5.121462e-01  -1.392237e+00  3.958136e+00  3.608894e+00  -1.878550e+00  9.348039e-02  2.003261e+00  7.897499e-01  1.060917e+00  8.855117e-02  4.601974e+00  -2.755709e+00  -4.411384e+00  -1.784002e+00  9.487894e-01  -4.256076e+00  -1.323871e-01  7.432956e-01  3.405490e+00  1.180374e+00  -1.451572e+00  4.210921e+00  -2.287043e+00  -5.563633e-01  2.901760e+00  -6.625267e-01  -2.922493e+00  -5.561574e-02  1.834152e+00  -2.747339e+00  1.556849e+00  1.206385e+00  2.713963e+00  -1.660710e-01  6.802563e-01  1.863529e-02  2.239748e-01  3.203658e-01  2.280381e+00  9.154354e-01  1.157636e+00  -9.666563e-01  -1.567162e-01  4.031097e-02  -1.167573e+00  3.919905e+00  3.437632e+00  -1.570685e+00  -6.045004e-01  3.223897e-01  1.712121e+00  -5.079043e+00  7.437378e-01  2.426627e-01  2.396236e+00  -1.764644e+00  2.947430e+00  1.498838e+00  -6.899538e-01  -5.104126e-01  6.526057e-01  -7.917145e-01  2.002514e+00  1.376755e+00  3.540058e+00  2.311559e-01  2.374192e+00  8.511107e-01  1.028068e+00  2.230722e+00  -2.258244e+00  4.339736e-01  2.115837e+00  -8.350905e-01  -1.627669e+00  3.332939e+00  1.009351e+00  -2.235886e+00  8.290876e-01  2.070654e+00  -2.097545e+00  8.269408e-01  1.097640e+00  -2.506305e-01  1.092883e+00  -2.041211e+00  8.601085e-02  3.881159e+00  -2.200285e-02  1.566363e+00  -4.328053e+00  1.888482e+00  -1.742481e-01  -8.915078e-01  -5.723641e-01  -1.385875e-01  -6.812025e-01  1.496611e+00  -2.630745e+00  2.716286e-01  1.791817e+00  -4.918531e-01  2.247118e+00  -5.236684e-01  2.260432e-01  1.887743e+00  -2.394307e+00  -2.214398e-01  -2.652418e-01  -8.417069e-01  5.852373e-01  2.707530e-01  3.127780e-01  -6.745722e-01  -1.342676e+00  -6.449721e-01  -3.085658e+00  -1.085508e+00  -2.972577e+00  -1.337319e+00  5.810685e-02  1.848268e+00  -7.185519e-01  -2.642860e+00  -1.112096e+00  6.326452e-01  -1.290102e+00  -2.102788e+00  -2.962280e+00  -2.102400e+00  3.180014e-01  -3.522398e+00  1.545855e+00  -4.837952e+00  -1.363751e+00  2.767920e+00  -2.358254e-01  2.619069e+00  -4.406421e+00  1.637723e+00  3.033879e+00  -1.277140e+00  1.275204e+00  7.549930e-01  -7.768816e-01  -1.105092e+00  -3.739294e+00  -3.760557e+00  8.763685e-01  -5.763047e+00  -7.800772e-01  3.329511e-01  1.877979e+00  1.773978e+00  2.219719e+00  1.394032e+00  -8.392724e-01  4.595336e+00  8.267545e-01  4.172408e-01  -1.318821e+00  -1.082800e+00  2.508071e+00  2.249679e-01  1.348740e+00  -1.502315e+00  -1.834417e+00  6.943961e-02  -1.240620e+00  -2.355875e+00  5.879461e-02  -5.468728e-01  -2.436486e+00  -7.759851e+00  2.659215e+00  -4.025902e+00  1.320507e+00  -1.309193e+00  -2.251182e+00  7.547659e-01  -2.809738e+00  2.727080e+00  1.176766e+00  1.615733e+00  -1.579430e+00  -2.086050e-01  -1.443049e+00  9.594268e-01  2.934655e-01  2.448277e+00  -1.046284e+00  1.466419e+00  -1.985355e+00  -1.316705e+00  -1.141241e+00  -1.435089e+00  -1.993160e+00  -1.973307e+00  5.334278e-01  -3.797313e+00  -2.379467e+00  1.469272e+00  3.697912e+00  -3.719119e+00  6.463324e-01  5.893141e-01  3.217332e-01  1.064010e+00  -7.283301e-01  -1.124942e+00  -1.340043e+00  -1.178083e+00  1.832948e+00  1.325000e-01  1.004798e+00  -2.803601e+00  -1.500740e+00  -1.701538e+00  5.932017e+00  -5.520867e+00  -2.873497e-01  -2.305500e+00  2.119489e+00  -2.915378e-01  -7.611669e-01  1.869606e+00  -2.376726e+00  -1.491428e+00  4.462122e+00  1.731992e+00  -5.163962e-01  -9.996600e-01  9.440078e-01  -2.342892e-01  -1.596973e+00  -4.031785e+00  -9.344176e-01  5.768026e-01  -2.167134e-01  2.415546e-01  -1.830133e-01  3.801622e-01  -3.595667e+00  -1.209385e+00  8.409637e-01  -1.512690e+00  -5.429710e-02  6.250849e-01  1.786945e+00  1.421314e+00  1.807953e+00  -2.596172e+00  -4.147051e-01  9.111937e-01  -1.859164e+00  -6.060985e-01  -4.054221e+00  1.255666e+00  2.734263e-02  -4.550817e+00  -2.762094e-01  -6.695121e-01  2.798435e-01  7.879220e-01  -1.648146e+00  -1.011606e+00  -4.265658e+00  4.238838e+00  3.108152e+00  6.563328e-01  -1.964263e+00  1.295230e-01  1.533736e+00  -1.106011e+00  -1.390443e+00  -2.674495e+00  8.292781e-01  -5.179098e+00  2.530860e+00  -2.013908e+00  1.719926e+00  -1.485299e+00  -6.398952e-01  3.077475e+00  2.575621e+00  5.951343e+00  -2.426157e+00  -3.888500e-03  -4.041561e+00  -3.870055e-01  4.613202e-01  2.715743e+00  7.246453e+00  -1.108136e+00  1.882560e+00  4.626715e-01  -5.612520e-01  -1.596229e+00  -2.018547e+00  -2.270237e-01  2.793401e+00  -5.668081e+00  1.650874e-01  6.088075e-02  -1.594636e+00  1.403869e+00  -2.524284e+00  2.188146e-01  -6.438103e-02  9.300256e-01  -1.692917e+00  -2.219105e-01  -3.997097e+00  2.348744e+00  1.703305e+00  -7.754806e-01  -1.141405e+00  2.037999e+00  3.244526e+00  1.222035e-01  -6.229752e-01  -3.599619e+00  -3.501869e+00  3.571088e-03  -5.833012e-02  -9.005049e-01  1.384323e+00  -2.449382e+00  -3.722617e-01  1.864958e+00  3.703124e+00  -1.964471e+00  -1.640988e+00  -8.175026e-01  -1.014104e+00  -3.809938e-01  -5.797238e-01  -3.112842e+00  -1.680238e+00  -1.672515e+00  2.122619e+00  -1.655905e+00  -1.763987e+00  -1.640665e+00  8.284849e-01  -2.667117e-01  6.424031e+00  -2.470316e+00  -1.153030e+00  -2.637559e+00  -7.971959e-01  -3.960027e+00  -1.645637e+00  -3.066278e+00  8.042016e-01  7.378954e-01  1.096129e+00  -1.422757e+00  -2.918544e-01  1.282954e+00  7.467266e-01  -3.632919e+00  -1.114652e+00  6.088229e-01  -1.185152e+00  4.929215e-01  -9.039394e-01  -1.757825e+00  5.496344e-01  -2.302542e-01  2.073862e+00  -2.234900e+00  -6.469958e-01  -1.335252e+00  -2.527531e-01  -7.335635e-01  -1.403081e+00  -1.139099e+00  4.268030e+00  -7.809502e-01  -4.745396e+00  -1.884836e+00  -9.091560e-01  -3.200050e+00  8.060253e-01  1.495375e-01  2.659272e+00  -1.219138e+00  5.461769e-01  6.855482e-01  2.075154e+00  -1.019885e+00  2.388163e+00  2.913572e+00  1.957826e+00  -4.662594e-01  3.285717e+00  -1.998456e+00  -5.217129e+00  1.192947e+00  7.825969e-01  3.339692e-01  -1.532438e+00  -1.271565e-01  3.206478e+00  4.475152e-01  -4.097600e+00  -5.151941e+00  1.589595e+00  -2.422230e+00  4.829486e-01  -4.328900e-01  -2.865783e+00  1.427003e+00  2.139409e-01  -2.566699e+00  1.144867e+00  5.175870e-01  -1.907883e+00  2.866353e+00  1.073070e+00  8.442121e-01  -6.639018e-01  1.217790e-01  5.613566e-01  1.092040e+00  1.904827e+00  -7.625352e-01  4.759557e+00  -6.275433e-01  -1.817995e+00  -1.010316e+00  2.180476e+00  1.738124e+00  8.146873e-02  3.057377e+00  -1.042618e+00  3.817665e-01  2.735245e+00  -5.376466e+00  2.697061e+00  1.385847e+00  -7.680936e-01  2.807245e+00  -5.278541e+00  -3.931295e+00  3.224148e+00  7.762091e-01  -2.259757e+00  1.849257e+00  -6.299754e-01  1.435918e+00  3.111257e+00  1.868851e+00  -1.578238e+00  -2.455510e+00  -2.991230e-01  1.667923e+00  -1.962929e-02  -1.468752e+00  -1.609909e+00  3.312434e-01  -6.618692e-01  -8.613847e-01  -1.559353e+00  -2.807867e+00  -3.242020e+00  1.432014e+00  -2.663035e+00  1.856145e+00  -4.214565e+00  1.384594e+00  -1.432615e+00  2.801818e+00  1.596689e-01  -2.086933e+00  -5.553961e-01  -1.147146e+00  1.110990e+00  -1.401063e+00  7.404903e-02  -3.790922e-01  1.274308e+00  -9.967457e-01  2.659441e+00  -1.510632e+00  9.234349e-01  3.119230e+00  2.654171e-02  -1.372005e+00  -3.649264e+00  -3.986720e+00  1.663584e+00  -2.961883e+00  -2.849702e+00  -5.156547e-01  -1.118085e+00  -3.356567e-01  -4.431258e+00  -3.112136e+00  -8.185027e-01  -2.750285e-01  -8.425000e-02  -3.428051e+00  2.546903e+00  -1.266892e+00  -1.616005e+00  -4.690908e+00  -2.092036e+00  1.871350e+00  -3.334918e-01  -7.166536e-01  -1.185361e+00  -1.914181e+00  -2.386557e+00  -5.437017e+00  -3.131482e-01  -3.374235e+00  2.917814e+00  3.013517e+00  -2.866460e+00  -4.324866e-01  -3.228421e+00  2.078884e+00  -8.459785e-01  -1.355001e-01  -2.232563e-01  6.404546e-01  -2.480167e-01  -2.475642e+00  -1.172436e+00  -4.769016e+00  1.014223e+00  -1.775770e+00  5.617459e-01  -2.628156e+00  1.559769e+00  -1.207489e+00  1.756165e+00  4.649563e+00  1.987801e+00  4.007972e+00  -3.584485e-01  1.639598e+00  -3.702525e+00  -5.534784e-01  -7.716588e-01  -5.769966e-01  6.761022e-01  9.293340e-01  -3.898528e+00  1.523500e+00  2.701262e+00  -6.879001e-01  4.855371e-01  -1.104921e+00  -1.633254e+00  -5.590376e+00  -4.374163e-01  1.442504e+00  1.394061e+00  1.023248e+00  -6.548663e-01  3.864413e+00  -2.495033e+00  1.678932e+00  -2.646574e+00  3.808754e-01  -2.897049e+00  3.665253e-01  2.913694e+00  -2.456920e+00  -5.263026e-01  2.896183e+00  5.144781e-01  -1.499436e+00  -5.182182e-01  -3.346265e+00  -1.775443e+00  1.506228e+00  -1.933141e+00  -2.092830e-01  1.482445e+00  -7.303931e-01  6.803921e-01  1.398256e+00  1.389320e-01  -3.676600e+00  -2.908259e-01  8.625736e-01  -5.946066e-02  1.995543e+00  -1.427745e+00  -4.136603e-01  7.768167e-01  1.568912e-01  8.444230e-01  -2.586119e-01  -7.983792e-01  -4.286682e+00  -1.404934e+00  -4.257898e-01  4.801637e+00  -3.452711e+00  -6.107852e-01  5.791789e-01  -2.055295e+00  -1.181431e+00  3.313089e+00  -3.049188e+00  -1.417728e+00  6.483938e-01  -4.748823e+00  -9.321851e-01  4.572507e+00  -4.924135e+00  2.028729e+00  1.778800e-02  4.629551e+00  1.334721e+00  -3.474861e-01  3.754176e+00  1.483520e-01  -7.437978e-01  -2.332706e+00  -7.448960e-01  1.892084e+00  3.214424e-01  -1.457061e+00  2.214196e+00  -1.519310e+00  5.665077e+00  -9.065112e-01  -1.583104e+00  9.139125e-01  2.749289e+00  -3.287350e+00  2.835487e-01  2.752479e+00  -2.409982e-01  5.248143e-01  -1.200243e-01  9.640046e-01  1.317639e+00  -1.169263e+00  6.061816e-01  -1.876309e+00  -1.379670e+00  4.841859e+00  2.649929e+00  -1.199619e+00  1.755409e+00  3.382541e+00  -3.230286e+00  4.630146e-01  3.874878e+00  -1.503818e+00  -1.390695e+00  4.440337e-01  3.576335e+00  -1.250837e+00  -1.248372e-01  7.881742e-02  1.114531e+00  1.128575e+00  -1.066817e+00  7.493153e-01  2.945770e-01  2.789627e+00  -1.393345e+00  -3.623801e-01  -1.621553e+00  -1.862615e+00  1.980716e+00  4.865606e-01  3.198803e+00  -2.915329e+00  -2.097043e+00  3.704691e+00  -1.547982e+00  1.758304e+00  2.023899e+00  1.965293e+00  1.225601e+00  3.774798e+00  2.704463e+00  3.132032e-01  -1.463439e+00  2.569569e+00  2.044597e+00  -6.362414e-01  1.197043e-01  3.732579e+00  -1.197805e+00  -5.165041e-01  -2.055302e+00  2.554037e+00  2.243179e+00  1.128297e-01  -5.538555e-01  -1.720371e+00  -3.843328e+00  1.832169e+00  2.724600e+00  -1.752928e+00  -1.263767e-01  -2.051682e-01  -1.511474e+00  2.300769e-02  9.081350e-01  9.446913e-02  1.680068e+00  -2.559367e+00  2.157481e+00  3.933627e+00  3.525802e+00  -1.407491e+00  -4.976528e-02  -1.298551e+00  6.754437e-01  -4.421318e+00  -4.292431e-01  -1.181718e+00  5.492084e-01  -1.811040e+00  3.303530e+00  1.005520e+00  2.219461e+00  -3.027552e+00  1.296945e+00  -1.803970e+00  3.648909e+00  -2.549064e+00  1.168659e+00  -1.184436e+00  -3.951405e-01  -1.990361e+00  6.807815e-01  2.971941e-01  -8.406435e-01  2.871742e+00  -1.998160e+00  -2.242632e+00  1.110409e+00  -1.815078e+00  1.838281e+00  -2.796996e+00  5.360596e-01  -2.031034e-01  1.040716e+00  1.220622e+00  1.439691e+00  -1.857321e+00  -2.219731e+00  -1.420625e+00  -2.900281e+00  6.496144e-01  -1.814726e+00  -1.620086e-01  -2.555508e+00  3.455900e+00  -3.155579e+00  -9.273945e-01  -1.349382e+00  2.144920e+00  -2.711164e+00  8.873852e-01  6.739768e-01  1.824634e+00  -3.283807e-02  1.238459e+00  -3.371792e+00  -6.379861e-01  -3.134716e-01  -5.655293e-01  3.198873e+00  -2.764294e-01  5.873239e-01  -4.847456e-01  6.559215e-01  1.332336e+00  4.473122e+00  1.720709e+00  -4.803767e-01  1.306684e+00  -2.411447e+00  2.134736e+00  -5.593485e-01  9.324288e-01  -1.604319e+00  7.147067e-01  4.640956e-01  -3.292204e+00  4.063444e+00  -5.918461e-01  5.052590e-01  -2.766886e+00  3.274142e+00  -2.510241e+00  2.672153e-01  -1.968213e+00  -7.110715e-01  2.496036e+00  -9.175012e-01  3.633711e-01  2.909217e+00  1.177663e-03  2.375937e-01  9.988549e-02  -3.797774e-01  3.900084e-01  -5.829759e-01  5.578017e-01  -1.411070e+00  2.301606e+00  -5.526106e-01  -2.414721e+00  6.024504e-01  -9.615240e-01  -1.127026e+00  -3.771388e-02  1.309394e+00  -1.380801e+00  -2.018335e+00  -2.671024e+00  2.694837e+00  1.615996e-02  5.618405e+00  4.779991e+00  4.311266e+00  2.113781e+00  -1.132358e+00  -2.701907e+00  -1.776876e+00  -9.352570e-01  9.731556e-01  -1.854394e+00  1.149394e+00  1.896897e+00  -6.780844e-01  -4.912151e+00  -6.198906e-01  8.665630e-02  3.585013e-01  1.980763e+00  -3.890128e+00  2.066693e+00  -8.754236e-01  2.004544e+00  6.600027e-01  5.766987e-01  2.446251e+00  -5.589360e-02  -6.441104e+00  2.791338e+00  -3.810413e+00  6.648172e-01  -5.425444e+00  2.472181e+00  -1.553721e+00  3.931256e-01  1.550509e+00  -2.586265e+00  -1.363883e+00  -9.523627e-01  -8.496097e-01  -3.169247e+00  -1.777224e+00  1.091483e+00  3.955035e-01  1.995394e+00  -2.854864e+00  1.723588e+00  -1.640227e+00  9.127225e-01  -1.953944e+00  2.298846e-01  4.336402e-01  1.447087e+00  -4.834948e+00  -2.112366e+00  -1.312998e+00  -1.233339e+00  -3.379853e+00  -1.111453e+00  1.360619e+00  -5.433476e-01  4.387109e+00  -6.532394e-01  -2.746287e+00  -4.789941e-01  -1.735616e+00  1.070093e+00  2.894366e+00  1.155854e+00  -5.007333e+00  3.353727e+00  -6.027861e-01  1.694374e+00  6.181203e-01  -1.241467e+00  -4.716316e-01  -2.580300e+00  -4.893589e+00  -2.845243e+00  4.772041e-01  4.675796e-01  -1.080897e+00  6.648503e-01  -2.979202e+00  -5.064026e-01  3.515023e+00  -1.604751e-01  2.061688e+00  -3.749859e+00  6.174201e+00  -1.587762e-01  4.365702e-01  -1.538689e+00  -1.534679e+00  2.320693e+00  -1.486216e+00  1.644091e+00  -4.469427e-01  4.080770e-01  1.058991e+00  2.676139e+00  -6.800345e-01  6.737340e-01  -4.635594e-01  2.693539e+00  2.892922e-01  -8.016063e-01  -4.718775e-01  1.953620e+00  -2.612323e+00  8.464014e-01  -3.705576e-01  -1.269107e+00  5.680792e-01  8.564479e-01  1.323584e+00  -2.111166e-01  -1.588083e+00  1.444637e+00  -9.312330e-01  -1.670019e+00  -2.550471e-01  4.290997e+00  -9.744716e-01  -6.132277e-01  -5.915514e+00  3.926061e-01  2.415688e+00  -1.385625e+00  -1.440523e+00  -1.784411e+00  -4.205598e+00  5.572029e+00  -2.047367e-01  -1.949876e+00  -1.866591e+00  -2.358082e+00  2.331699e+00  1.758217e+00  3.507793e-01  3.196149e+00  2.059149e+00  -1.268337e+00  -1.170091e+00  2.791795e-02  2.667106e-01  -7.975549e-01  -7.082227e-01  -1.172940e-01  -2.377434e-01  1.411848e+00  -1.788911e+00  -1.464905e+00  -5.958097e-01  7.195044e-01  2.923755e+00  -4.708344e+00  3.928226e+00  -1.407917e+00  2.147942e+00  9.383906e-01  -1.018586e+00  -1.762112e+00  -2.062547e-01  2.436961e+00  -1.097160e+00  3.955396e+00  -2.522804e+00  3.036392e-01  1.429413e+00  -1.115664e+00  -1.300984e+00  -4.806671e-01  1.755138e+00  -1.777667e+00  -3.012543e+00  1.728259e+00  2.933855e+00  8.770444e-01  -1.179837e+00  -1.975078e+00  -1.723851e+00  -5.640532e-01  1.352305e-02  2.073306e+00  -3.092883e+00  9.136996e-01  9.056217e-01  4.591943e-01  1.930041e+00  7.718731e-01  1.470848e+00  -1.559490e+00  2.788198e+00  -2.301768e+00  -2.454442e+00  3.169049e+00  -1.452859e+00  1.443805e+00  6.987361e-01  2.849124e+00  2.012059e+00  4.834576e-01  2.083931e+00  4.128187e-01  2.603929e+00  3.046172e-01  5.732080e-01  2.809854e+00  -3.757493e+00  2.598124e-01  -5.574603e-02  -1.737608e+00  -2.697149e-01  2.128303e+00  4.713120e+00  3.943958e-01  3.528923e+00  2.730681e+00  2.406116e+00  8.512123e-01  -1.993364e+00  2.662792e+00  -1.530617e-01  8.876111e-01  -8.363562e-01  -2.641931e+00  -9.819285e-01  2.664790e+00  -1.059628e+00  1.941592e+00  5.718871e-01  2.061119e+00  1.964475e+00  -1.540334e+00  1.601289e+00  1.406793e+00  1.340929e+00  -2.679981e+00  -7.506418e-01  2.033795e+00  3.177619e+00  3.223017e+00  1.606714e+00  -1.869343e+00  -2.663532e-01  -6.259851e-01  1.962824e+00  2.639491e+00  -5.329173e+00  6.921930e-01  -1.117271e+00  7.151837e+00  -4.939761e-01  1.025266e+00  4.940980e-01  -4.736356e+00  8.629529e-01  4.829017e-01  6.926195e-01  7.853252e-01  -2.257170e+00  3.521613e+00  3.462040e+00  2.389192e+00  -1.673761e+00  1.517470e+00  2.105946e+00  -1.883142e+00  5.234903e-01  1.054904e+00  2.276056e+00  1.555619e-01  2.667362e-01  -1.399564e+00  1.638465e-01  3.022015e-02  -2.177902e-01  -1.750039e+00  1.480713e-01  -7.970585e-01  8.537142e-01  -2.426404e+00  -1.444390e+00  -1.009570e+00  1.361149e+00  -1.510987e-01  3.900053e+00  -3.972539e+00  2.134754e+00  -2.393318e+00  2.024416e-01  -1.753300e+00  2.858039e+00  2.881610e+00  6.821639e-01  3.902483e-01  -1.610264e+00  -2.486342e+00  6.763062e-01  -1.313168e+00  -9.265045e-01  -1.166450e+00  3.537478e+00  7.775094e-01  -1.812860e-01  4.030083e+00  -1.155647e+00  -2.444056e+00  1.437133e+00  2.033874e+00  2.211227e-01  1.500433e+00  2.785300e+00  -8.232476e-01  2.599599e+00  4.433104e+00  -5.522770e-02  -2.087848e+00  1.253916e+00  -9.994076e-01  3.205616e+00  2.514437e+00  -4.742803e+00  2.600980e+00  4.707139e+00  1.915765e+00  -8.104919e-01  -9.695977e-01  -3.063346e-01  2.473062e+00  1.828843e+00  4.101499e-01  4.737820e-01  1.489710e-01  3.812651e-01  1.872479e+00  -1.849793e+00  -6.569180e-02  1.834464e+00  1.675775e+00  -1.259416e+00  -3.306303e+00  2.897811e+00  -3.740026e-01  3.573889e+00  -2.840907e+00  2.264815e+00  2.396243e-01  4.635968e+00  -2.595975e+00  -1.042882e+00  2.403132e+00  -1.474022e+00  -9.291348e-01  -1.391469e+00  -4.053134e-01  -1.522343e+00  5.065355e-01  -2.153687e+00  1.168005e+00  -3.106117e-01  -2.991583e+00  1.892180e+00  2.922676e-01  1.319575e+00  6.900527e-02  1.500405e+00  1.264924e+00  8.095312e-01  -4.472753e+00  -6.877437e-01  4.002088e+00  6.315819e-01  7.512369e-01  -4.296999e-01  1.573861e+00  -4.203834e-01  3.687176e+00  -1.001785e+00  -2.864616e+00  2.306832e+00  2.447777e+00  -1.270107e+00  1.078297e+00  -2.164131e+00  7.435356e-01  -8.469688e-01  -3.758218e+00  1.713632e+00  -8.809156e-01  7.496392e-01  -3.325384e-01  -1.217851e+00  1.812308e+00  3.924193e+00  -9.087830e-01  3.308377e+00  -3.190156e+00  -1.784859e-02  -1.584064e+00  2.603094e+00  -4.613007e-01  -5.120804e+00  1.287839e-01  2.031064e+00  3.673744e-01  1.965128e+00  1.331583e+00  2.589127e-01  5.308065e-01  -1.709699e+00  9.087383e-01  4.733062e+00  -8.120077e-01  8.025972e-01  -2.612589e+00  7.667591e-01  1.763128e+00  -1.488951e+00  -1.068426e+00  4.020151e+00  8.646683e-01  1.659964e+00  -9.671091e-01  8.093311e-01  -1.829879e+00  -1.021406e-02  -1.058681e+00  5.680737e-01  -1.303585e+00  -2.790317e+00  4.081021e+00  -3.339188e-01  -8.493823e-01  1.079637e+00  -8.562981e-01  -2.301499e+00  3.137056e+00  1.937030e+00  1.837393e+00  -1.014384e+00  -3.020202e+00  1.861996e+00  -1.028137e+00  2.541053e+00  -2.115163e-01  3.706597e-01  3.401372e+00  3.156552e-01  -4.163203e-01  7.288990e-01  1.483015e+00  -9.440119e-01  3.088847e+00  1.537488e+00  3.708337e+00  3.015559e+00  1.603565e+00  9.250689e-01  -9.909940e-03  -3.145299e+00  1.195652e+00  4.343722e-01  1.727809e+00  -5.077076e-02  6.912052e-02  -3.273526e+00  1.445157e+00  5.342703e-01  1.504778e+00  5.274573e+00  -2.380455e+00  3.176398e+00  -4.182978e-01  3.046824e+00  -9.001526e-01  7.155859e-01  -1.048282e+00  7.041498e-01  1.380708e+00  1.209834e+00  3.044899e+00  -1.887197e+00  -1.210431e+00  1.443507e+00  1.196727e+00  2.076095e+00  -1.516849e+00  6.253584e-02  -2.926233e-01  -2.256705e+00  4.785757e+00  1.339047e+00  7.555574e-01  2.279184e+00  5.692319e-01  5.002735e-01  1.037504e+00  1.850904e+00  1.900991e+00  -5.691238e-01  1.169560e+00  -1.538247e-01  1.256985e+00  -1.193109e-01  3.200157e+00  -3.698847e+00  6.281167e-01  -1.694589e+00  3.019678e+00  2.811517e-01  1.598564e-01  -3.153936e+00  -1.603991e-01  -6.510303e+00  1.676881e+00  -4.257136e+00  1.145370e+00  4.399846e-01  -2.783293e-01  3.412260e+00  -1.764627e+00  1.513392e+00  9.121578e-01  4.032178e+00  1.028548e+00  1.116096e+00  -3.798499e-01  4.795725e+00  4.805478e-02  -8.363470e-01  1.298403e+00  2.827334e+00  1.804018e+00  -6.130611e-01  -2.024957e+00  2.355513e+00  -6.962223e-01  -3.124040e-01  -4.379406e-01  4.830948e+00  -1.114925e+00  1.636188e+00  -3.240232e+00  5.568894e+00  -1.386849e+00  1.979664e+00  -1.135626e+00  -1.177009e+00  6.272651e-01  -3.549652e+00  1.446213e+00  1.305440e+00  -2.370147e+00  -2.868747e+00  1.887377e+00  1.276394e+00  7.053944e-02  -3.659102e-01  1.893834e+00  -5.000865e-01  5.545998e-01  -5.176209e+00  -4.884891e+00  1.316825e+00  4.214426e+00  -1.430052e+00  1.882723e+00  1.037695e+00  -8.426531e-01  9.462276e-01  5.558156e-01  2.385730e+00  2.188892e+00  9.520994e-01  -1.767072e+00  4.063927e+00  -7.902988e-01  2.504413e+00  -4.640927e-01  1.087479e+00  3.315639e+00  -1.187124e+00  -9.771813e-01  2.441696e+00  1.377884e+00  1.986301e+00  2.121402e+00  -4.894369e-01  -4.938003e-01  -1.815145e+00  4.492514e+00  -4.404055e+00  4.508769e-02  -4.322494e-01  -8.122790e-01  1.961731e+00  1.040618e+00  1.768583e+00  -2.759055e+00  3.660107e+00  -2.088518e-01  1.209702e+00  -5.803607e-01  3.697738e+00  -5.239247e+00  1.289075e+00  -1.265689e+00  8.494858e-01  -1.797627e+00  -2.612596e+00  2.524726e+00  -1.192496e+00  7.511811e-01  -6.723546e-01  -1.223903e+00  -1.314208e-01  -3.801980e+00  1.398265e+00  -1.290640e+00  2.072378e+00  -1.740972e+00  -1.396855e+00  -1.387909e+00  1.550047e+00  8.681130e-01  2.722502e+00  -6.108851e-01  7.553540e-01  1.640049e+00  1.612443e+00  4.743622e-01  3.158806e+00  1.096817e+00  -3.322709e+00  -2.083841e+00  2.974510e-01  4.783154e+00  -1.370019e+00  3.980030e+00  -3.844086e+00  1.675246e+00  -5.290703e+00  2.374192e-01  -3.047139e+00  -3.789200e-01  1.714640e-01  -1.167801e-02  1.407360e+00  -2.649620e+00  -5.300840e-01  2.608268e+00  2.063097e+00  -1.669419e-01  -2.209470e+00  -1.022389e-01  1.350827e+00  -1.902037e+00  -1.986545e+00  -1.753577e+00  -1.492127e+00  -1.712515e+00  -2.213556e+00  -2.596025e+00  8.281931e-01  -2.691906e+00  -9.837843e-01  2.404500e+00  3.446981e+00  -2.592412e+00  4.387824e-01  -1.535644e+00  2.582381e+00  2.135372e-01  -3.824144e+00  1.112545e-01  -2.894810e+00  -3.902498e+00  -1.266484e+00  1.339562e+00  -1.995941e+00  -1.216638e+00  -1.964448e+00  1.740817e-01  2.545807e-01  -2.755124e-01  -2.848271e+00  1.547334e+00  -2.125152e+00  1.834683e+00  -2.079055e+00  1.763300e+00  -2.582981e+00  1.146713e-01  -2.551165e+00  2.508227e+00  2.212232e-01  6.118308e-01  1.918718e-01  -1.943272e+00  3.417835e+00  4.003816e-02  -3.241338e-01  3.950164e-01  -7.114383e-01  -1.305712e+00  3.205722e+00  1.498751e+00  -2.503054e+00  1.144658e+00  6.859623e-01  -1.338064e+00  2.700438e+00  1.443921e-01  -3.176797e+00  1.304444e+00  -4.333497e+00  -6.347271e-01  8.513410e-01  -1.612473e+00  -2.933652e-01  -3.365648e-01  -1.086110e+00  5.265136e-01  9.602993e-01  3.490515e+00  3.412171e+00  3.947622e-01  8.459384e-01  1.824325e-01  -1.103476e+00  -2.342821e+00  1.236697e+00  1.808283e+00  -7.052786e-01  -2.291381e+00  -2.220617e+00  2.907176e+00  -4.566327e-01  2.378800e+00  -2.293868e+00  1.741883e+00  8.060747e-01  -3.725586e+00  -6.233883e-01  -9.989852e-01  1.312568e+00  7.279217e+00  -1.084623e+00  2.036475e-01  -1.486887e-01  -2.894864e-01  -1.091291e+00  -8.857159e-02  1.159941e-01  -4.719214e+00  -3.607318e-01  7.346809e-01  3.597441e-01  5.967335e-01  -2.326641e-01  3.747509e+00  -2.922865e+00  -1.829155e+00  1.440814e+00  1.620604e+00  -3.298310e+00  1.668712e+00  -1.879224e+00  -1.833399e+00  -3.544934e+00  -1.831119e+00  -9.279270e-03  5.427371e-01  1.760778e+00  7.026766e-01  -3.292534e+00  -2.199855e-01  1.073103e+00  -2.296201e+00  6.761415e+00  1.147578e+00  -1.551643e+00  3.600505e+00  1.737766e+00  -2.612589e+00  2.945421e+00  1.245727e+00  -1.434238e+00  1.038538e+00  -7.229052e-01  9.455063e-01  -2.043365e+00  -2.929878e+00  1.211099e+00  5.285723e-01  2.363775e+00  -3.237756e-02  5.478764e+00  -1.341887e+00  6.107120e-01  3.412706e-01  -5.142979e-01  -6.184755e-01  2.978008e-01  2.707309e+00  2.376170e+00  1.071635e+00  -1.484685e+00  -4.342360e+00  -2.129921e+00  3.433526e+00  -1.092019e+00  1.803993e+00  -5.318548e-02  4.867098e+00  -2.295496e+00  2.003109e+00  -2.778228e+00  6.398943e-01  6.158009e-01  1.071697e+00  -1.309575e+00  1.407422e+00  1.895505e+00  -5.354162e-01  2.909333e+00  -6.844737e-01  2.974639e+00  -1.074525e+00  2.230071e+00  2.600192e+00  4.362054e+00  -1.353892e+00  2.053374e+00  1.499127e+00  3.219002e+00  1.024402e+00  2.164640e+00  1.174989e+00  2.065448e-01  9.944118e-02  -4.233730e-01  3.338521e-01  3.522831e-01  -2.837312e+00  1.601863e+00  2.024395e+00  -1.531798e+00  -1.867803e+00  4.569255e-01  -1.522609e+00  -3.520749e-02  8.805445e-01  9.388843e-01  -1.127763e+00  2.972908e+00  -1.912192e+00  2.821581e+00  -2.991681e+00  2.634307e+00  2.600972e+00  1.330472e+00  3.731304e-01  -1.636486e+00  -2.041644e-02  -9.803417e-01  2.478955e+00  -1.303236e+00  2.133067e+00  3.740808e+00  2.776146e-01  4.428755e-01  -2.803226e+00  -7.142309e-01  2.570752e+00  3.510449e-01  -5.940076e-02  4.475918e+00  8.733674e-01  1.636399e+00  1.777096e-01  3.263597e+00  -4.465069e-01  -5.678315e-01  5.091867e-01  5.577853e-01  1.700237e+00  2.054103e+00  5.452815e+00  8.996554e-01  -2.306246e+00  -7.625723e-01  5.451441e+00  8.381132e-01  2.301464e+00  -1.829359e+00  1.719453e+00  -5.573481e+00  -2.489177e+00  -1.169034e-01  -9.405710e-01  2.869741e+00  -3.003045e+00  -1.123536e+00  -5.435244e-01  -8.723533e-01  -9.703095e-01  2.967034e+00  6.689735e-01  -6.650550e-01  -5.759218e-02  6.214966e+00  -4.059215e+00  -3.932838e-01  -6.649005e-01  1.840061e+00  -1.373073e+00  1.356850e+00  3.512764e+00  1.078025e-01  -1.953761e+00  1.795371e-01  8.380166e-01  4.155328e+00  -3.972472e-01  1.701040e+00  -3.308019e+00  3.035274e+00  8.461230e-02  -3.397875e-01  1.785703e+00  3.331711e+00  -3.426583e-01  -3.848915e-01  -4.798231e-01  -1.550393e+00  -9.495678e-01  1.949750e+00  -4.605815e-01  1.521778e+00  -3.502310e+00  1.529237e+00  2.355208e-01  -9.087669e-01  -6.419415e-01  -2.033201e+00  1.855596e+00  -5.622828e+00  1.589601e+00  -3.267102e-01  2.433540e+00  -3.095778e+00  1.747248e-01  -6.298048e-01  1.316467e+00  7.014455e-01  -2.794561e+00  -2.022978e+00  -1.083156e+00  1.142718e+00  2.131117e-01  3.605943e-01  -9.060494e-01  -2.132602e+00  4.549372e-01  -1.946164e+00  1.533024e+00  2.203775e+00  4.147444e+00  -2.043245e+00  2.251394e+00  -4.275034e+00  -2.719386e+00  6.238484e-01  -5.188254e-01  -3.815557e+00  1.506886e-01  -5.174996e+00  2.957295e-01  -1.648193e+00  2.158701e+00  1.227501e+00  1.446176e+00  1.716920e-04  -7.776344e-01  1.686933e+00  -4.281961e+00  1.080037e+00  1.790420e+00  -4.126123e-01  -5.736690e-01  -1.242821e+00  1.870915e+00  -2.936949e+00  -7.331786e-01  2.999657e-01  2.268911e+00  3.044424e+00  -1.038932e+00  2.205629e+00  -1.158644e+00  -1.163052e-01  -5.752587e-01  6.503584e-01  -1.381861e-01  -2.217866e+00  1.106650e+00  3.390990e+00  7.233190e-01  7.586617e-01  1.842550e+00  -3.350473e+00  1.455484e+00  9.757761e-01  3.195292e+00  -2.608183e+00  1.089914e+00  -1.689801e+00  6.226179e+00  -1.865131e+00  1.088805e+00  3.133486e+00  -2.699397e+00  -2.145358e+00  -1.891931e+00  -1.387896e+00  -4.864014e-02  2.854679e-01  -8.393751e-01  4.179773e+00  5.998030e-01  9.826966e-01  -2.746378e+00  3.375823e+00  1.597940e+00  6.926428e-03  -6.912253e-02  3.284720e+00  -1.909199e+00  1.071996e+00  -7.739727e-01  8.328621e-01  -1.175865e+00  4.172451e+00  -2.502749e+00  -6.718271e-01  1.016092e+00  -7.615336e-01  -1.786808e+00  1.136353e+00  -1.709162e+00  8.354069e-01  3.517968e+00  4.395275e+00  1.834669e+00  2.596757e+00  -1.379668e+00  -2.740999e-01  -1.687328e+00  -1.657046e-01  -1.157748e-01  3.158121e-01  -9.924119e-01  2.649333e+00  -3.044557e-01  3.456382e-01  -2.121323e+00  -2.439938e+00  -2.417734e-01  -1.128587e-01  -3.590937e-01  -1.725680e+00  -1.026724e+00  5.850709e-01  -2.469779e+00  -8.939817e+00  -2.003851e+00  -4.890184e-01  -5.264599e-01  -4.569986e+00  2.839398e+00  6.197282e-01  -3.224419e+00  -1.512985e-01  -1.892885e-01  -2.565655e+00  1.032201e+00  1.554453e+00  -1.834177e+00  1.177372e+00  1.865619e-01  -2.415006e+00  -1.495043e-01  9.210446e-01  2.202024e+00  1.065106e-01  -2.526279e+00  -4.105128e-01  -2.964571e-01  -4.177196e-01  4.060266e-01  -3.946173e-01  2.635396e+00  -3.643566e-01  1.551133e+00  -2.414684e+00  -6.197588e-01  -4.231393e-02  2.666601e+00  -3.086528e-01  -1.536198e+00  4.604864e-01  2.044125e+00  -7.332042e-01  -2.258943e+00  -4.794264e+00  3.530453e+00  -4.093752e+00  -2.251851e+00  -2.969230e-01  -5.919943e-01  1.356890e+00  1.153453e+00  -2.153574e+00  -1.224800e+00  -1.262979e+00  6.164473e-01  2.867708e+00  6.625510e-01  -1.176694e+00  8.433642e-01  -4.967572e-01  -1.434034e+00  -3.784525e-01  -1.614979e+00  1.069618e+00  3.057034e+00  1.709907e+00  -2.400896e+00  -4.394341e+00  -6.922064e-01  1.447227e+00  2.622872e+00  -5.633663e-02  1.390867e-02  -1.850606e+00  2.120174e+00  -7.231537e+00  1.393770e+00  2.018766e+00  -5.817002e+00  -1.894895e+00  -5.157154e+00  -1.574505e+00  5.752186e+00  7.212638e-02  -7.242186e-01  -5.901261e-02  6.292299e-01  -1.178247e+00  -2.600243e+00  7.175547e-01  6.437560e-01  1.025313e+00  -1.176701e+00  8.639950e-01  2.224082e+00  4.469854e-01  1.955005e+00  -6.271335e-01  2.149402e+00  1.183423e+00  -3.872585e+00  -2.102102e+00  -5.995546e-02  -1.668302e+00  -2.520840e+00  6.529089e+00  -3.061606e+00  1.888612e+00  -4.083703e+00  4.434123e+00  1.640570e+00  1.263825e+00  1.833813e+00  -2.066806e+00  2.461369e+00  -1.235039e+00  -8.635675e-01  -1.831841e+00  -1.954316e-01  -1.684169e+00  -5.195048e+00  9.759919e-01  -6.189801e+00  -4.002266e+00  7.743189e-01  2.100526e+00  1.566873e+00  1.563845e+00  -5.460737e-01  5.966079e-01  2.537776e-01  -3.670938e-01  1.151958e+00  -5.908399e-01  1.248017e+00  4.315993e-01  3.108682e+00  -7.793305e-01  6.621417e-01  1.716063e-01  2.213298e+00  1.915830e+00  -1.216027e+00  -2.813261e+00  -1.722462e+00  4.134505e-01  1.557897e+00  -2.627188e+00  2.613365e+00  2.222531e+00  3.441580e+00  5.374574e+00  2.394030e+00  4.966664e-01  7.196905e-02  -1.811488e+00  -1.901495e+00  1.729076e+00  4.403700e+00  -6.910055e-01  -2.722906e+00  2.010903e-02  3.925611e-02  -2.108423e-01  9.354929e-01  -6.260103e-01  -6.168067e-01  1.359389e+00  1.360360e+00  1.277188e+00  1.491151e+00  1.278215e-01  4.177041e+00  1.973842e+00  3.801252e-01  4.080338e+00  -9.389058e-01  -4.028567e+00  5.512215e+00  6.780998e-01  1.825548e+00  1.266017e+00  -3.754743e-02  2.465354e+00  -6.225247e-01  6.956842e-01  2.542301e+00  1.149311e-01  9.982428e-01  1.842938e+00  -3.412124e-01  1.303038e+00  -9.090190e-01  1.553477e+00  1.668033e+00  -2.485484e+00  -1.970307e-01  -9.249173e-02  -2.804406e+00  1.326095e+00  3.882714e+00  -1.482824e+00  -3.213573e-01  -1.075010e+00  3.940749e+00  1.712099e+00  -2.024944e-01  -1.678070e+00  -5.380139e-01  -7.516483e-01  -9.162315e-01  -2.131341e+00  2.819260e+00  1.383689e+00  -6.733614e-02  -1.641520e+00  -3.137336e+00  2.970947e+00  2.964538e-01  3.813734e-01  -9.859489e-01  4.038185e+00  -5.162691e-01  3.869379e+00  -1.978897e+00  9.386243e-01  1.942193e+00  2.151607e+00  5.384024e-01  -3.841183e-01  2.021641e+00  -4.685987e-01  -9.159634e-02  1.437467e+00  -3.297418e-01  9.355374e-01  2.836644e+00  -7.931290e-02  -5.586548e+00  5.837343e-01  9.524893e-01  -2.317578e+00  -3.511790e+00  -1.372558e+00  -2.609289e+00  -1.688707e+00  -1.406596e+00  -1.273632e+00  2.528937e+00  -7.370358e-01  2.430477e-01  3.062926e+00  1.059167e+00  2.956016e+00  1.672721e-01  4.684015e-02  4.185923e-01  -1.712228e+00  -8.245116e-01  2.192106e+00  1.726733e+00  -1.278124e+00  -2.681151e+00  5.499839e+00  -1.020492e+00  -1.152611e+00  -1.206744e+00  -3.716181e+00  1.218597e+00  5.258212e+00  3.919341e-01  4.147851e-01  2.380405e+00  1.643335e-02  -1.040614e+00  5.952895e+00  -8.147456e-02  3.933103e+00  -2.744798e-01  -2.316319e+00  -1.821601e+00  -1.204994e+00  -1.775207e-01  -1.023349e+00  -1.185287e+00  -1.598343e+00  -6.034093e-01  1.917686e+00  4.582335e-01  2.256876e+00  -1.325011e+00  9.461329e-01  -1.410704e-01  -4.587067e-01  -1.097830e+00  -7.613863e-01  2.050285e+00  -1.680632e+00  -1.347428e+00  3.727324e+00  -2.071656e+00  1.674888e+00  -9.120732e-01  1.846498e+00  -2.244905e+00  2.710404e+00  -1.135991e-01  6.019925e-01  -3.183225e+00  9.063679e-01  2.114079e+00  6.609077e-01  -2.241341e+00  9.655241e-01  -4.210179e+00  1.331271e+00  3.915969e-01  1.379894e+00  -1.855371e+00  -3.307156e+00  -5.345732e-01  -3.680825e+00  -8.835866e-01  5.227302e+00  8.422488e-02  1.418635e+00  -2.504116e+00  -1.109276e+00  -1.652645e+00  9.436096e-01  -1.735720e+00  3.502550e+00  -4.917459e+00  1.581428e+00  3.205120e+00  1.524470e+00  1.357731e+00  -2.674131e-02  -3.543495e+00  -1.890534e+00  -2.228298e+00  -2.688843e+00  -2.516362e-01  -1.254416e+00  3.461686e+00  -1.472739e+00  -2.968487e-02  6.429294e-02  -2.627349e+00  -2.388348e+00  2.059071e+00  -1.874615e+00  -1.932947e+00  -3.672018e-01  -3.050403e+00  -1.394232e+00  2.305278e+00  2.276015e-01  -3.183771e+00  2.000889e+00  -1.941210e+00  -4.366628e+00  2.762977e+00  -2.344790e+00  -2.787369e-01  -3.345506e+00  1.471759e+00  -2.074080e+00  -1.658845e+00  7.739194e-01  -1.321736e-01  -2.488169e+00  2.138279e+00  -9.328158e-01  -3.336831e-03  -1.114245e+00  -6.314063e-01  -1.398678e+00  8.410372e-01  4.382109e+00  3.518389e-01  -1.623400e+00  -3.230551e+00  2.602688e-01  -1.510207e+00  -1.578187e+00  -1.545264e-02  -2.617388e+00  2.643436e+00  -2.629186e+00  -7.620538e-01  6.211955e-01  -2.300696e+00  -1.699767e+00  -3.373902e+00  -2.744015e+00  2.546448e+00  1.537943e+00  2.991714e+00  -1.317793e+00  -2.259805e+00  1.739333e+00  -1.040887e+00  8.181021e-01  2.240936e+00  1.848537e-01  -3.040709e+00  -1.939104e+00  -1.756831e+00  -9.537521e-01  1.116288e+00  -3.284226e-01  1.455751e+00  -2.438217e+00  -3.417263e+00  -1.194661e+00  1.289715e+00  5.479199e-01  -2.311191e+00  2.567515e+00  -1.925734e+00  -1.545668e+00  -1.744434e+00  -3.504073e+00  3.134097e+00  -1.856763e+00  1.052891e-01  4.846485e-01  2.889383e+00  2.664419e+00  -2.502613e+00  2.134763e+00  -9.267246e-01  6.433938e+00  -1.010709e+00  1.255352e+00  -1.841798e+00  -1.916535e+00  -1.227206e+00  -1.351791e+00  4.043996e+00  -1.176374e+00  -9.197968e-01  -1.043919e+00  3.164436e+00  2.319218e+00  -5.125858e+00  -1.615631e-01  -9.800932e-01  -2.351210e+00  7.982255e-01  7.004291e-01  1.825564e+00  -2.601083e-01  -3.163215e+00  1.170599e+00  3.375460e-01  1.021348e+00  1.065485e+00  4.665669e-01  -2.113119e+00  -1.368110e-01  3.293378e+00  8.686407e-01  -1.887432e-01  -5.050091e-02  -2.414356e+00  4.197698e-01  -8.915887e-01  -2.404281e+00  -2.442543e+00  7.626314e-01  -1.730867e+00  -3.127825e-01  3.106757e+00  -2.699893e+00  -1.305659e+00  -2.155015e+00  1.218197e+00  -2.535547e+00  -1.796460e+00  3.689903e-02  -2.098125e+00  -1.673526e+00  1.401997e-01  -4.675546e+00  -2.711325e+00  -1.063657e+00  -1.479606e+00  6.736824e-01  -7.480697e-02  -3.869969e+00  2.213226e+00  -2.633204e+00  3.989408e+00  -6.819113e-01  -2.861801e+00  2.876392e+00  -1.485069e+00  2.970095e+00  -3.671299e+00  2.099782e-01  1.567551e+00  -2.568517e+00  8.110199e-01  -1.444407e+00  1.647360e+00  4.135284e+00  4.195254e-01  -3.128629e+00  -8.613968e-01  -2.066110e-01  -4.511972e-01  1.412094e+00  -1.102765e+00  8.703834e-01  1.803110e+00  1.384542e+00  -5.305898e+00  1.437335e+00  4.402209e-01  -2.084016e+00  -1.236954e+00  -5.111699e-01  -2.543009e+00  7.845758e-01  3.659081e+00  -2.854595e+00  8.829084e-01  2.166495e+00  6.629929e-01  1.920372e+00  3.034092e+00  2.245479e+00  -5.849677e+00  -4.613519e+00  1.425830e+00  -2.790885e+00  -2.963995e-02  -1.089678e+00  -2.799689e+00  -2.024376e+00  -4.028045e+00  1.403345e+00  -3.954715e-01  3.882137e-02  -1.367943e+00  -2.278419e+00  2.214250e+00  3.699047e-01  -3.557083e+00  -1.281613e+00  -3.452950e-01  -3.757501e+00  1.638279e+00  7.167156e-01  -4.388973e-01  -1.495910e+00  2.291394e+00  2.996689e+00  8.237208e-01  2.733126e+00  -8.739385e-01  2.994549e+00  -3.060269e+00  -3.639519e+00  -1.898836e+00  -1.273548e+00  2.151679e-01  -1.548067e+00  -1.146829e+00  -8.092264e-01  8.505739e-01  2.080884e+00  -3.247165e+00  -3.289176e+00  -1.507506e+00  -7.544386e-01  4.964324e-01  1.731857e+00  7.000281e-01  2.254859e+00  -5.789080e-01  1.395289e+00  8.017576e-01  2.357560e+00  -1.137023e+00  2.584279e-01  -2.472141e+00  -1.416989e+00  -6.058499e-01  -5.944551e-01  -1.139534e+00  2.574040e-01  -3.032290e+00  -1.692400e+00  -1.370039e+00  -3.393240e+00  -2.835180e+00  -2.239021e+00  -2.348872e+00  -3.884249e+00  9.043688e-01  1.145598e+00  1.128852e+00  -3.097605e-01  6.934653e-01  -3.393284e-01  -3.237681e+00  1.835492e+00  -2.885585e-02  -9.393181e-01  3.576935e+00  -3.057401e+00  -7.038074e-01  -1.597211e+00  1.912681e+00  -7.726912e-01  2.137529e+00  -3.144922e+00  -1.191435e+00  1.658607e+00  2.211946e+00  1.734613e+00  -1.199108e+00  2.234204e+00  -1.904738e+00  -1.338256e-01  -3.157996e+00  -1.953199e+00  -5.046367e-01  -3.572284e-01  -3.997458e-01  -1.734078e+00  1.673082e+00  -9.552841e-01  2.795669e+00  2.429114e+00  -2.016296e+00  -3.871555e+00  -2.043625e+00  -2.152044e+00  3.422593e-01  -8.413984e-01  3.257646e+00  -1.485213e+00  1.315091e+00  5.825910e+00  -8.599203e-01  -5.853835e-01  1.360325e-01  -9.538276e-01  -2.242176e+00  3.350426e+00  1.162025e-01  -4.179867e-01  3.483929e+00  3.820539e-01  -4.485202e-01  3.717589e-01  -3.596178e+00  -3.379647e-01  -3.709621e+00  -9.359792e-01  -1.620654e-01  -1.739381e+00  1.382341e+00  4.161074e+00  -2.163509e+00  -3.580950e+00  -5.281328e+00  2.677303e+00  -1.754645e-01  -5.269337e-01  -1.077265e+00  1.010427e+00  -2.013648e-01  2.339834e+00  -1.167329e+00  2.569066e+00  -3.058192e+00  -5.124039e+00  -3.948125e-01  -7.834830e-01  -2.242094e+00  7.605004e-01  1.968215e+00  3.692565e-01  -1.422557e+00  -9.880974e-01  -1.752402e+00  9.304879e-02  -9.706718e-01  -2.371616e+00  2.160532e-01  -1.880757e+00  -8.408815e-01  -2.113542e+00  -2.633201e+00  1.964154e+00  -3.938562e+00  -4.959240e-01  -2.635101e+00  -3.159654e+00  -2.989402e+00  -3.414954e+00  -1.652500e+00  3.938276e+00  -1.189883e+00  4.333810e-01  2.367479e-01  -2.838422e-01  -4.540106e-01  3.311126e+00  1.182436e+00  4.659768e+00  -1.883574e+00  -4.864958e-01  -1.297422e+00  -7.719232e-01  1.782842e+00  1.868876e+00  -1.279874e+00  -2.597318e+00  5.000272e-01  -2.919767e+00  -1.187234e+00  -2.552072e-01  2.714733e+00  -2.558452e+00  -9.320526e-01  -6.487332e-01  1.789678e-01  -2.032962e+00  2.714137e-01  -3.256203e-01  -1.506533e+00  -5.216874e-01  2.938704e+00  -4.269280e-01  1.581221e+00  2.380666e+00  1.065289e+00  1.328755e+00  -9.749388e-01  -9.035491e-01  2.797033e+00  -1.025418e+00  3.063133e+00  5.412073e-01  2.623772e+00  -1.678703e+00  -2.405634e+00  3.230048e+00  1.496458e+00  -8.174418e-01  -5.168634e-01  1.472903e+00  1.142978e+00  1.704114e+00  1.696867e+00  1.400477e+00  -2.758708e+00  5.521680e-02  -2.040340e+00  -2.216181e+00  -1.880824e-01  6.959271e-01  -1.602349e+00  2.404787e+00  3.943329e+00  1.482716e+00  8.547619e-01  -1.115744e+00  1.124010e+00  4.449551e+00  2.437296e+00  1.137342e-01  3.231066e+00  -1.027672e+00  -1.624812e+00  1.288740e+00  1.419155e+00  -5.112460e-01  2.230152e+00  -1.960571e+00  4.083238e-01  2.444038e+00  6.162224e-01  1.493369e+00  -8.168682e-01  1.239077e-02  9.704334e-01  -2.521481e-01  -2.647254e+00  9.634075e-01  1.739448e+00  -2.361706e+00  -1.840553e+00  -2.849285e+00  -2.542938e+00  1.813876e+00  3.001391e-01  -3.616268e+00  1.079280e+00  -2.089345e-01  2.659676e+00  -2.833666e-01  -2.443842e+00  1.666092e-01  2.925002e+00  3.527863e+00  -3.687279e+00  -4.924156e-01  2.079048e+00  -3.953018e+00  2.557009e+00  -1.901594e+00  -3.546912e-01  -1.329924e+00  -7.536355e-01  6.854705e-02  -1.212286e+00  -2.319878e+00  -8.414723e-01  -1.374025e+00  -4.609966e+00  1.586742e+00  2.369200e+00  2.394594e+00  1.021153e+00  -4.460374e-01  -4.848886e-01  -2.080659e+00  -4.558715e-01  4.104541e+00  -2.929676e-01  -2.004423e+00  1.149215e+00  -1.659477e+00  -2.126090e+00  -9.251899e-01  1.809286e+00  5.021100e+00  -1.459329e+00  -2.057731e+00  1.532273e-01  -1.416757e+00  4.502507e+00  2.368975e+00  4.683405e-01  1.672890e+00  -1.377944e-02  -8.891587e-01  1.234015e+00  -9.270374e-01  -9.465144e-01  -1.221465e+00  -1.145799e+00  5.463913e-01  1.263736e+00  -5.217026e-01  -5.817730e-01  -1.126370e+00  -2.305966e+00  -3.227569e+00  1.778653e+00  -3.750194e-01  1.346236e+00  -5.329362e-01  8.137548e-01  5.194215e-01  5.949223e-01  -2.106375e+00  1.751823e+00  -3.214798e+00  5.575559e-01  -5.582128e+00  -1.093462e+00  2.429153e-01  1.410673e+00  -2.780368e-01  1.027781e+00  -1.584491e+00  1.718959e+00  8.017324e-01  7.167808e-01  4.058279e+00  -1.399337e+00  7.184302e-01  -1.417297e+00  4.096169e+00  -1.301535e+00  3.671670e-01  9.315842e-01  1.029611e+00  1.087939e-02  -6.902159e-01  -3.180873e-02  -1.684821e+00  1.488394e+00  -4.207669e-01  3.630896e+00  -1.379716e+00  1.243374e+00  5.985861e-01  3.473103e+00  1.930938e+00  -5.233462e-01  2.312036e+00  -2.024002e+00  2.635729e-02  -6.083012e-01  -9.601113e-01  4.630475e+00  7.615023e-01  -1.448760e+00  -2.331985e+00  -9.913998e-01  1.520987e+00  5.449749e-01  2.120557e+00  -1.211912e+00  -4.878766e+00  -6.188681e-01  -7.268771e-01  3.846452e+00  1.930788e+00  -6.147421e-01  -7.754496e-01  1.350385e+00  -3.033566e+00  -3.261683e+00  5.555465e+00  -7.432584e-01  1.228667e-01  -3.284576e+00  1.784371e+00  8.007286e-02  -3.749729e-01  6.419145e-01  -1.161619e+00  3.734231e-01  -1.770683e+00  -2.152225e+00  -3.376920e+00  4.488828e-01  -1.644217e+00  3.744070e+00  1.502571e+00  2.044919e+00  3.919315e+00  -4.684871e+00  1.963668e-01  9.144911e-01  1.711767e+00  -1.563074e+00  5.510210e-01  -6.157762e-01  8.136028e-01  -1.971352e+00  3.759687e+00  3.166975e+00  -6.636804e-01  -2.185839e+00  -1.770726e+00  2.211618e+00  -2.062628e+00  -2.420727e+00  -1.269793e+00  -1.327509e+00  2.562385e+00  2.007209e+00  2.116952e-01  -7.089835e-01  -3.291195e+00  2.701292e-01  -2.159538e+00  1.844588e+00  3.486278e+00  2.909493e+00  5.013645e-01  -2.002045e+00  1.639824e+00  -1.619094e+00  9.003960e-01  -1.844116e+00  1.362535e+00  1.003212e+00  -1.717758e+00  -2.195882e+00  -1.683973e+00  1.016806e+00  -1.155120e+00  3.144745e+00  2.437321e-01  1.133266e+00  2.483088e-02  -1.312198e+00  1.901693e+00  -9.893548e-01  1.629830e+00  4.879934e+00  1.690516e+00  9.689426e-01  3.053027e+00  -1.864774e+00  2.148890e+00  -1.243595e+00  -4.403063e-01  -2.362655e-01  3.336760e+00  2.234029e+00  9.506760e-01  -2.320249e-01  -1.400262e-01  -3.983546e+00  5.533387e-01  1.301689e+00  -1.983925e+00  9.345409e-01  9.629528e-01  1.849219e+00  -9.024018e-01  5.313127e-01  1.247629e+00  1.219510e-01  2.256824e+00  1.288702e-01  -1.586435e+00  2.310783e+00  -7.954183e-01  4.376744e-01  -4.165667e+00  -1.757661e-01  3.990059e-01  -4.054334e-02  3.994816e+00  6.934471e-01  2.855858e+00  -2.940408e+00  4.810845e-01  -1.009696e+00  2.010320e+00  2.041004e+00  1.921625e+00  1.115723e+00  3.579690e+00  -1.937937e+00  8.392694e-01  5.237020e-02  -3.130952e-01  -2.916905e-01  -2.683587e+00  3.366048e+00  1.253974e+00  3.703257e+00  1.276302e+00  -2.517691e+00  -1.325019e+00  -1.187376e+00  -1.280799e+00  1.463579e+00  5.875409e+00  -3.447866e-01  3.007020e+00  -2.443295e+00  -8.513893e-01  -3.088773e+00  -1.783965e+00  5.527337e-01  1.140107e+00  3.227768e+00  -2.883554e+00  1.749581e+00  -7.901763e-01  2.421659e+00  4.157862e-01  -2.007065e+00  -5.351595e-01  -4.005580e+00  -9.105088e-01  3.404696e+00  1.190801e+00  1.683086e+00  4.045566e+00  -2.715440e+00  -2.002880e-01  -5.389594e-01  4.399441e+00  -1.951014e+00  5.565279e-01  -1.202665e+00  1.596402e+00  1.821941e+00  2.564793e+00  -4.858326e-01  2.143099e-01  7.981788e-01  4.967199e-01  4.194989e+00  2.171386e+00  1.806256e+00  -2.181808e+00  1.260304e+00  -3.429111e+00  -8.524352e-01  -1.169860e+00  -2.496383e+00  7.448278e-01  1.184536e+00  -3.166652e-01  1.044557e+00  -3.386767e+00  9.763992e-01  2.360079e+00  7.711229e-01  -1.943593e+00  2.256870e+00  1.711103e+00  -4.457631e+00  -1.678852e-01  -1.293902e+00  -1.653147e+00  -3.952310e+00  -2.228161e+00  2.263948e+00  -1.103175e+00  1.920707e+00  8.907220e-01  1.025275e+00  4.612157e+00  3.224129e-01  9.649257e-01  -3.522853e+00  5.181485e+00  8.387952e-01  -3.028017e+00  -2.118083e+00  2.813210e-01  2.188247e-01  -2.360258e-01  -9.139786e-01  1.361955e-01  -1.429049e-01  -5.364528e-01  -2.529406e+00  1.616301e+00  1.059220e-01  5.819322e-01  -1.359032e+00  -1.799775e+00  -2.820653e+00  -1.478035e+00  2.497216e-01  3.535629e+00  2.606409e+00  8.748707e-01  -1.234611e+00  6.775528e+00  4.816560e-01  -1.226906e+00  -6.981378e-01  9.237052e-01  -1.504290e+00  -1.972186e-01  2.688738e-02  -2.838758e+00  4.030026e+00  1.958687e+00  -3.097131e+00  3.185723e+00  -8.904423e-01  4.414803e+00  -8.072293e-01  -1.655577e+00  1.371258e+00  2.112506e-01  -2.632413e+00  6.720577e-02  -3.950096e+00  2.409460e-01  -2.088013e+00  1.313795e+00  -1.214315e-01  2.832815e+00  4.505176e-01  -6.819229e-01  -2.774398e-01  -1.196633e+00  -1.611504e-01  6.431243e-02  1.416532e+00  1.038827e+00  1.563100e-01  2.276556e+00  -6.278312e-01  4.559235e+00  1.093487e-02  2.143494e-01  1.095951e+00  -2.169430e+00  -1.283138e+00  -7.279425e-01  3.447405e-01  -1.035344e+00  -1.389313e+00  -4.507360e+00  2.834148e+00  6.722746e-01  -1.382420e+00  -2.674245e+00  -6.312528e-01  1.370238e+00  -2.866507e-01  -2.024885e-01  -3.772635e+00  -7.620469e-01  -6.673201e-01  1.167724e+00  8.882934e-01  -1.060439e+00  -1.436139e+00  -1.313274e+00  -1.459291e-01  1.499308e+00  -1.155475e+00  2.793980e+00  -4.966586e+00  -2.560497e+00  4.388390e+00  3.239071e+00  1.221208e+00  4.517942e-01  -1.146941e+00  8.689352e-01  -6.668975e-01  5.107393e-01  2.093554e+00  6.754305e-01  1.018944e+00  -4.843020e+00  2.805965e-01  2.085879e-02  -2.520006e+00  -3.837902e-01  -2.904124e+00  -1.327689e+00  2.122246e-01  -1.528144e-01  -1.563347e+00  7.955249e-01  6.891138e+00  -1.044162e+00  6.159213e-01  6.848943e-01  1.205965e+00  -3.341951e+00  3.673436e+00  -7.326162e-01  6.425531e+00  -4.064067e-01  1.615207e+00  -1.345421e+00  1.154715e+00  -9.075865e-01  6.513376e-01  -3.503555e-01  2.328295e+00  2.925182e+00  -8.928518e-01  2.175354e+00  -1.404393e+00  1.768558e+00  -7.437135e-03  1.610214e+00  -2.581768e+00  8.237534e-01  -4.976770e-01  2.780563e+00  -1.468907e-01  -3.760025e-01  -1.756037e+00  -6.807370e-01  -5.400478e-01  3.394870e-01  5.165894e+00  2.458607e+00  2.147015e+00  -1.410477e+00  -1.782201e+00  2.600276e+00  -1.715302e-01  -1.565554e+00  -9.273467e-01  3.263797e-01  1.677764e+00  1.950689e+00  6.242231e-01  4.565131e+00  6.967958e-01  -9.721236e-01  1.975083e+00  6.330688e+00  -5.530057e-01  -2.364379e-01  9.067404e-01  1.225252e+00  1.134675e-01  8.532488e-01  4.159583e+00  -5.420251e+00  -2.968311e+00  3.522952e-01  2.542281e-01  -2.290736e-01  1.606322e+00  -1.489699e+00  