<?xml version="1.0"?>
<MethodSetup Method="BDT::BDTF">
  <GeneralInfo>
    <Info name="TMVA Release" value="4.2.1 [262657]"/>
    <Info name="ROOT Release" value="6.26/02 [399874]"/>
    <Info name="Creator" value="s1412595"/>
    <Info name="Date" value="Sun May  1 13:33:57 2022"/>
    <Info name="Host" value="Linux root-ubuntu-2004-1 5.4.0-73-generic #82-Ubuntu SMP Wed Apr 14 17:39:42 UTC 2021 x86_64 x86_64 x86_64 GNU/Linux"/>
    <Info name="Dir" value="/home/s1412595/Desktop/MSc/TMVA/runs/run_fs1_hp1"/>
    <Info name="Training events" value="120000"/>
    <Info name="TrainingTime" value="4.69422610e+01"/>
    <Info name="AnalysisType" value="Classification"/>
  </GeneralInfo>
  <Options>
    <Option name="V" modified="Yes">False</Option>
    <Option name="VerbosityLevel" modified="No">Default</Option>
    <Option name="VarTransform" modified="No">None</Option>
    <Option name="H" modified="Yes">False</Option>
    <Option name="CreateMVAPdfs" modified="No">False</Option>
    <Option name="IgnoreNegWeightsInTraining" modified="No">False</Option>
    <Option name="NTrees" modified="Yes">50</Option>
    <Option name="MaxDepth" modified="Yes">3</Option>
    <Option name="MinNodeSize" modified="Yes">2.5%</Option>
    <Option name="nCuts" modified="Yes">20</Option>
    <Option name="BoostType" modified="Yes">AdaBoost</Option>
    <Option name="AdaBoostR2Loss" modified="No">quadratic</Option>
    <Option name="UseBaggedBoost" modified="No">False</Option>
    <Option name="Shrinkage" modified="No">1.000000e+00</Option>
    <Option name="AdaBoostBeta" modified="Yes">5.000000e-01</Option>
    <Option name="UseRandomisedTrees" modified="No">False</Option>
    <Option name="UseNvars" modified="No">3</Option>
    <Option name="UsePoissonNvars" modified="No">True</Option>
    <Option name="BaggedSampleFraction" modified="No">6.000000e-01</Option>
    <Option name="UseYesNoLeaf" modified="No">True</Option>
    <Option name="NegWeightTreatment" modified="No">inverseboostnegweights</Option>
    <Option name="Css" modified="No">1.000000e+00</Option>
    <Option name="Cts_sb" modified="No">1.000000e+00</Option>
    <Option name="Ctb_ss" modified="No">1.000000e+00</Option>
    <Option name="Cbb" modified="No">1.000000e+00</Option>
    <Option name="NodePurityLimit" modified="No">5.000000e-01</Option>
    <Option name="SeparationType" modified="Yes">giniindex</Option>
    <Option name="RegressionLossFunctionBDTG" modified="No">huber</Option>
    <Option name="HuberQuantile" modified="No">7.000000e-01</Option>
    <Option name="DoBoostMonitor" modified="No">False</Option>
    <Option name="UseFisherCuts" modified="Yes">True</Option>
    <Option name="MinLinCorrForFisher" modified="No">8.000000e-01</Option>
    <Option name="UseExclusiveVars" modified="No">False</Option>
    <Option name="DoPreselection" modified="No">False</Option>
    <Option name="SigToBkgFraction" modified="No">1.000000e+00</Option>
    <Option name="PruneMethod" modified="No">nopruning</Option>
    <Option name="PruneStrength" modified="No">0.000000e+00</Option>
    <Option name="PruningValFraction" modified="No">5.000000e-01</Option>
    <Option name="SkipNormalization" modified="No">False</Option>
    <Option name="nEventsMin" modified="No">0</Option>
    <Option name="UseBaggedGrad" modified="No">False</Option>
    <Option name="GradBaggingFraction" modified="No">6.000000e-01</Option>
    <Option name="UseNTrainEvents" modified="No">0</Option>
    <Option name="NNodesMax" modified="No">0</Option>
  </Options>
  <Variables NVar="11">
    <Variable VarIndex="0" Expression="Xicst_PT" Label="Xicst_PT" Title="Xicst_PT" Unit="" Internal="Xicst_PT" Type="F" Min="2.32683643e+03" Max="4.92342539e+04"/>
    <Variable VarIndex="1" Expression="Kbach_ProbNNk" Label="Kbach_ProbNNk" Title="Kbach_ProbNNk" Unit="" Internal="Kbach_ProbNNk" Type="F" Min="5.10000885e-01" Max="9.99803305e-01"/>
    <Variable VarIndex="2" Expression="Lc_PT" Label="Lc_PT" Title="Lc_PT" Unit="" Internal="Lc_PT" Type="F" Min="2.52761890e+03" Max="4.00415273e+04"/>
    <Variable VarIndex="3" Expression="pibach_PT" Label="pibach_PT" Title="pibach_PT" Unit="" Internal="pibach_PT" Type="F" Min="2.00006271e+02" Max="3.32139111e+03"/>
    <Variable VarIndex="4" Expression="pibach_ProbNNpi" Label="pibach_ProbNNpi" Title="pibach_ProbNNpi" Unit="" Internal="pibach_ProbNNpi" Type="F" Min="1.00149095e-01" Max="9.99639690e-01"/>
    <Variable VarIndex="5" Expression="Xicst_IPCHI2_OWNPV" Label="Xicst_IPCHI2_OWNPV" Title="Xicst_IPCHI2_OWNPV" Unit="" Internal="Xicst_IPCHI2_OWNPV" Type="F" Min="1.37118786e-05" Max="2.63996133e+04"/>
    <Variable VarIndex="6" Expression="Lc_IPCHI2_OWNPV" Label="Lc_IPCHI2_OWNPV" Title="Lc_IPCHI2_OWNPV" Unit="" Internal="Lc_IPCHI2_OWNPV" Type="F" Min="1.04185083e-05" Max="8.99999237e+00"/>
    <Variable VarIndex="7" Expression="Xicst_FDCHI2_OWNPV" Label="Xicst_FDCHI2_OWNPV" Title="Xicst_FDCHI2_OWNPV" Unit="" Internal="Xicst_FDCHI2_OWNPV" Type="F" Min="1.69576111e-03" Max="2.45688275e+06"/>
    <Variable VarIndex="8" Expression="Xicst_ENDVERTEX_CHI2" Label="Xicst_ENDVERTEX_CHI2" Title="Xicst_ENDVERTEX_CHI2" Unit="" Internal="Xicst_ENDVERTEX_CHI2" Type="F" Min="1.72308029e-03" Max="5.99373703e+01"/>
    <Variable VarIndex="9" Expression="pibach_IPCHI2_OWNPV" Label="pibach_IPCHI2_OWNPV" Title="pibach_IPCHI2_OWNPV" Unit="" Internal="pibach_IPCHI2_OWNPV" Type="F" Min="8.96283200e-06" Max="8.99967575e+00"/>
    <Variable VarIndex="10" Expression="Kbach_IPCHI2_OWNPV" Label="Kbach_IPCHI2_OWNPV" Title="Kbach_IPCHI2_OWNPV" Unit="" Internal="Kbach_IPCHI2_OWNPV" Type="F" Min="1.30371254e-05" Max="8.99991798e+00"/>
  </Variables>
  <Spectators NSpec="1">
    <Spectator SpecIndex="0" Expression="Xicst_M" Label="Xicst_M" Title="Xicst Mass" Unit="F" Internal="Xicst_M" Type="F" Min="2.92377637e+03" Max="3.90779272e+03"/>
  </Spectators>
  <Classes NClass="2">
    <Class Name="Signal" Index="0"/>
    <Class Name="Background" Index="1"/>
  </Classes>
  <Transformations NTransformations="0"/>
  <MVAPdfs/>
  <Weights NTrees="50" AnalysisType="0">
    <BinaryTree type="DecisionTree" boostWeight="6.3382927455748772e-01" itree="0">
      <Node pos="s" depth="0" NCoef="12" fC0="3.0630142523752535e-04" fC1="0.0000000000000000e+00" fC2="-2.9959515593661160e-04" fC3="0.0000000000000000e+00" fC4="0.0000000000000000e+00" fC5="-5.6743426304334087e-05" fC6="0.0000000000000000e+00" fC7="-1.3484706798949046e-07" fC8="0.0000000000000000e+00" fC9="0.0000000000000000e+00" fC10="0.0000000000000000e+00" fC11="-6.2362741245622166e-01" IVar="11" Cut="-1.4925053715705872e-01" cType="0" res="-9.9000000000000000e+01" rms="0.0000000000000000e+00" purity="5.0000000000000000e-01" nType="0">
        <Node pos="l" depth="1" NCoef="0" IVar="2" Cut="6.1468959960937500e+03" cType="0" res="-9.9000000000000000e+01" rms="0.0000000000000000e+00" purity="7.2071331739425659e-01" nType="0">
          <Node pos="l" depth="2" NCoef="12" fC0="1.7126639693254735e-04" fC1="0.0000000000000000e+00" fC2="-1.8011516373065166e-04" fC3="0.0000000000000000e+00" fC4="0.0000000000000000e+00" fC5="-3.8598198461515402e-05" fC6="0.0000000000000000e+00" fC7="-1.7073643181154651e-04" fC8="0.0000000000000000e+00" fC9="0.0000000000000000e+00" fC10="0.0000000000000000e+00" fC11="-3.5045883009293954e-01" IVar="-1" Cut="-6.6896572709083557e-02" cType="0" res="-9.9000000000000000e+01" rms="0.0000000000000000e+00" purity="7.9740339517593384e-01" nType="1"/>
          <Node pos="r" depth="2" NCoef="12" fC0="-1.4545487462875803e-04" fC1="0.0000000000000000e+00" fC2="3.6130859411401175e-04" fC3="0.0000000000000000e+00" fC4="0.0000000000000000e+00" fC5="-1.4806358698812500e-03" fC6="0.0000000000000000e+00" fC7="1.0513500888555328e-04" fC8="0.0000000000000000e+00" fC9="0.0000000000000000e+00" fC10="0.0000000000000000e+00" fC11="-7.9325210761431786e-01" IVar="11" Cut="-9.1114595532417297e-02" cType="0" res="-9.9000000000000000e+01" rms="0.0000000000000000e+00" purity="5.3423994779586792e-01" nType="0">
            <Node pos="l" depth="3" NCoef="0" IVar="-1" Cut="0.0000000000000000e+00" cType="1" res="-9.9000000000000000e+01" rms="0.0000000000000000e+00" purity="6.3047295808792114e-01" nType="1"/>
            <Node pos="r" depth="3" NCoef="0" IVar="-1" Cut="0.0000000000000000e+00" cType="1" res="-9.9000000000000000e+01" rms="0.0000000000000000e+00" purity="2.8825560212135315e-01" nType="-1"/>
          </Node>
        </Node>
        <Node pos="r" depth="1" NCoef="12" fC0="9.8765993647664395e-04" fC1="0.0000000000000000e+00" fC2="-1.0672617131788189e-03" fC3="0.0000000000000000e+00" fC4="0.0000000000000000e+00" fC5="-6.6806581820844145e-05" fC6="0.0000000000000000e+00" fC7="-1.3782891667196944e-07" fC8="0.0000000000000000e+00" fC9="0.0000000000000000e+00" fC10="0.0000000000000000e+00" fC11="-6.5971081852437929e-01" IVar="-1" Cut="1.1830691248178482e-02" cType="0" res="-9.9000000000000000e+01" rms="0.0000000000000000e+00" purity="1.8397000432014465e-01" nType="-1"/>
      </Node>
    </BinaryTree>
    <BinaryTree type="DecisionTree" boostWeight="4.4456995364270735e-01" itree="1">
      <Node pos="s" depth="0" NCoef="12" fC0="2.4449165241447320e-04" fC1="0.0000000000000000e+00" fC2="-2.5336193764028797e-04" fC3="0.0000000000000000e+00" fC4="0.0000000000000000e+00" fC5="-5.8033705799520437e-05" fC6="0.0000000000000000e+00" fC7="-1.3629402740907857e-07" fC8="0.0000000000000000e+00" fC9="0.0000000000000000e+00" fC10="0.0000000000000000e+00" fC11="-3.9825310819384480e-01" IVar="11" Cut="-1.6037596762180328e-01" cType="0" res="-9.9000000000000000e+01" rms="0.0000000000000000e+00" purity="4.8498278856277466e-01" nType="0">
        <Node pos="l" depth="1" NCoef="0" IVar="1" Cut="9.5315676927566528e-01" cType="0" res="-9.9000000000000000e+01" rms="0.0000000000000000e+00" purity="5.9699559211730957e-01" nType="0">
          <Node pos="l" depth="2" NCoef="0" IVar="-1" Cut="1.1040650390625000e+04" cType="0" res="-9.9000000000000000e+01" rms="0.0000000000000000e+00" purity="7.0608645677566528e-01" nType="1"/>
          <Node pos="r" depth="2" NCoef="12" fC0="1.4889323284755817e-04" fC1="0.0000000000000000e+00" fC2="-1.6631288140906444e-04" fC3="0.0000000000000000e+00" fC4="0.0000000000000000e+00" fC5="-1.0041988761277270e-03" fC6="0.0000000000000000e+00" fC7="4.5085942388457912e-05" fC8="0.0000000000000000e+00" fC9="0.0000000000000000e+00" fC10="0.0000000000000000e+00" fC11="-1.6360612783232481e-01" IVar="11" Cut="1.9907325506210327e-02" cType="0" res="-9.9000000000000000e+01" rms="0.0000000000000000e+00" purity="4.4764512777328491e-01" nType="0">
            <Node pos="l" depth="3" NCoef="0" IVar="-1" Cut="0.0000000000000000e+00" cType="1" res="-9.9000000000000000e+01" rms="0.0000000000000000e+00" purity="6.0553938150405884e-01" nType="1"/>
            <Node pos="r" depth="3" NCoef="0" IVar="-1" Cut="0.0000000000000000e+00" cType="1" res="-9.9000000000000000e+01" rms="0.0000000000000000e+00" purity="3.9028015732765198e-01" nType="-1"/>
          </Node>
        </Node>
        <Node pos="r" depth="1" NCoef="12" fC0="1.2234221907366522e-03" fC1="0.0000000000000000e+00" fC2="-1.3319190885359604e-03" fC3="0.0000000000000000e+00" fC4="0.0000000000000000e+00" fC5="-7.4843367475054416e-05" fC6="0.0000000000000000e+00" fC7="-1.8185128119554676e-07" fC8="0.0000000000000000e+00" fC9="0.0000000000000000e+00" fC10="0.0000000000000000e+00" fC11="-5.9052445021248379e-01" IVar="-1" Cut="3.8649521768093109e-02" cType="0" res="-9.9000000000000000e+01" rms="0.0000000000000000e+00" purity="1.6703593730926514e-01" nType="-1"/>
      </Node>
    </BinaryTree>
    <BinaryTree type="DecisionTree" boostWeight="3.5085855371538294e-01" itree="2">
      <Node pos="s" depth="0" NCoef="12" fC0="1.5635041160095154e-04" fC1="0.0000000000000000e+00" fC2="-1.5361340355257190e-04" fC3="0.0000000000000000e+00" fC4="0.0000000000000000e+00" fC5="-5.9224956135775169e-05" fC6="0.0000000000000000e+00" fC7="-1.4181102804127469e-07" fC8="0.0000000000000000e+00" fC9="0.0000000000000000e+00" fC10="0.0000000000000000e+00" fC11="-3.1019342690703622e-01" IVar="11" Cut="-1.3829533755779266e-01" cType="0" res="-9.9000000000000000e+01" rms="0.0000000000000000e+00" purity="4.8094195127487183e-01" nType="0">
        <Node pos="l" depth="1" NCoef="12" fC0="9.5347693640376928e-05" fC1="0.0000000000000000e+00" fC2="-8.5239353425948584e-05" fC3="0.0000000000000000e+00" fC4="0.0000000000000000e+00" fC5="-4.2771399491084200e-04" fC6="0.0000000000000000e+00" fC7="-1.3228480617216831e-05" fC8="0.0000000000000000e+00" fC9="0.0000000000000000e+00" fC10="0.0000000000000000e+00" fC11="-2.6609953366082978e-01" IVar="11" Cut="7.8525818884372711e-02" cType="0" res="-9.9000000000000000e+01" rms="0.0000000000000000e+00" purity="5.4197406768798828e-01" nType="0">
          <Node pos="l" depth="2" NCoef="0" IVar="2" Cut="7.9308237304687500e+03" cType="0" res="-9.9000000000000000e+01" rms="0.0000000000000000e+00" purity="7.6893752813339233e-01" nType="0">
            <Node pos="l" depth="3" NCoef="0" IVar="-1" Cut="0.0000000000000000e+00" cType="1" res="-9.9000000000000000e+01" rms="0.0000000000000000e+00" purity="8.3912128210067749e-01" nType="1"/>
            <Node pos="r" depth="3" NCoef="0" IVar="-1" Cut="0.0000000000000000e+00" cType="1" res="-9.9000000000000000e+01" rms="0.0000000000000000e+00" purity="4.3723446130752563e-01" nType="-1"/>
          </Node>
          <Node pos="r" depth="2" NCoef="0" IVar="4" Cut="9.5680677890777588e-01" cType="0" res="-9.9000000000000000e+01" rms="0.0000000000000000e+00" purity="4.8926419019699097e-01" nType="0">
            <Node pos="l" depth="3" NCoef="0" IVar="-1" Cut="0.0000000000000000e+00" cType="1" res="-9.9000000000000000e+01" rms="0.0000000000000000e+00" purity="5.9643155336380005e-01" nType="1"/>
            <Node pos="r" depth="3" NCoef="0" IVar="-1" Cut="0.0000000000000000e+00" cType="1" res="-9.9000000000000000e+01" rms="0.0000000000000000e+00" purity="3.9286550879478455e-01" nType="-1"/>
          </Node>
        </Node>
        <Node pos="r" depth="1" NCoef="12" fC0="1.3852903412019486e-03" fC1="0.0000000000000000e+00" fC2="-1.4982447828014828e-03" fC3="0.0000000000000000e+00" fC4="0.0000000000000000e+00" fC5="-8.3674616344479481e-05" fC6="0.0000000000000000e+00" fC7="-2.1925898263671255e-07" fC8="0.0000000000000000e+00" fC9="0.0000000000000000e+00" fC10="0.0000000000000000e+00" fC11="-6.4256431640982192e-01" IVar="-1" Cut="1.0450733453035355e-01" cType="0" res="-9.9000000000000000e+01" rms="0.0000000000000000e+00" purity="1.7790585756301880e-01" nType="-1"/>
      </Node>
    </BinaryTree>
    <BinaryTree type="DecisionTree" boostWeight="2.5035333393585946e-01" itree="3">
      <Node pos="s" depth="0" NCoef="12" fC0="1.4508846783161663e-04" fC1="0.0000000000000000e+00" fC2="-1.4920276565321401e-04" fC3="0.0000000000000000e+00" fC4="0.0000000000000000e+00" fC5="-6.1224613267534989e-05" fC6="0.0000000000000000e+00" fC7="-1.4558553277235097e-07" fC8="0.0000000000000000e+00" fC9="0.0000000000000000e+00" fC10="0.0000000000000000e+00" fC11="-2.4155639962867248e-01" IVar="11" Cut="-7.8719042241573334e-02" cType="0" res="-9.9000000000000000e+01" rms="0.0000000000000000e+00" purity="4.8909828066825867e-01" nType="0">
        <Node pos="l" depth="1" NCoef="12" fC0="6.5537918558062694e-05" fC1="0.0000000000000000e+00" fC2="-5.0027235659230086e-05" fC3="0.0000000000000000e+00" fC4="0.0000000000000000e+00" fC5="0.0000000000000000e+00" fC6="0.0000000000000000e+00" fC7="0.0000000000000000e+00" fC8="0.0000000000000000e+00" fC9="0.0000000000000000e+00" fC10="0.0000000000000000e+00" fC11="-2.5755880258595681e-01" IVar="11" Cut="3.6012433469295502e-02" cType="0" res="-9.9000000000000000e+01" rms="0.0000000000000000e+00" purity="5.5898004770278931e-01" nType="0">
          <Node pos="l" depth="2" NCoef="0" IVar="-1" Cut="9.2997330427169800e-01" cType="0" res="-9.9000000000000000e+01" rms="0.0000000000000000e+00" purity="7.1629250049591064e-01" nType="1"/>
          <Node pos="r" depth="2" NCoef="0" IVar="3" Cut="3.0635906982421875e+02" cType="0" res="-9.9000000000000000e+01" rms="0.0000000000000000e+00" purity="5.0163275003433228e-01" nType="0">
            <Node pos="l" depth="3" NCoef="0" IVar="-1" Cut="0.0000000000000000e+00" cType="1" res="-9.9000000000000000e+01" rms="0.0000000000000000e+00" purity="5.2348345518112183e-01" nType="1"/>
            <Node pos="r" depth="3" NCoef="0" IVar="-1" Cut="0.0000000000000000e+00" cType="1" res="-9.9000000000000000e+01" rms="0.0000000000000000e+00" purity="4.0364262461662292e-01" nType="-1"/>
          </Node>
        </Node>
        <Node pos="r" depth="1" NCoef="12" fC0="1.1621686348212751e-03" fC1="0.0000000000000000e+00" fC2="-1.2853230677425203e-03" fC3="0.0000000000000000e+00" fC4="0.0000000000000000e+00" fC5="-1.0229989680973097e-04" fC6="0.0000000000000000e+00" fC7="-1.9174168337092445e-07" fC8="0.0000000000000000e+00" fC9="0.0000000000000000e+00" fC10="0.0000000000000000e+00" fC11="-5.3209866032869479e-01" IVar="11" Cut="2.8831586241722107e-02" cType="0" res="-9.9000000000000000e+01" rms="0.0000000000000000e+00" purity="3.2852670550346375e-01" nType="0">
          <Node pos="l" depth="2" NCoef="0" IVar="3" Cut="4.3365661621093750e+02" cType="1" res="-9.9000000000000000e+01" rms="0.0000000000000000e+00" purity="5.1845711469650269e-01" nType="0">
            <Node pos="l" depth="3" NCoef="0" IVar="-1" Cut="0.0000000000000000e+00" cType="1" res="-9.9000000000000000e+01" rms="0.0000000000000000e+00" purity="5.5337703227996826e-01" nType="1"/>
            <Node pos="r" depth="3" NCoef="0" IVar="-1" Cut="0.0000000000000000e+00" cType="1" res="-9.9000000000000000e+01" rms="0.0000000000000000e+00" purity="3.9074563980102539e-01" nType="-1"/>
          </Node>
          <Node pos="r" depth="2" NCoef="12" fC0="1.2885229930604276e-03" fC1="0.0000000000000000e+00" fC2="-1.4162626531757008e-03" fC3="0.0000000000000000e+00" fC4="0.0000000000000000e+00" fC5="-6.8886667241880567e-05" fC6="0.0000000000000000e+00" fC7="-2.2627929838130634e-07" fC8="0.0000000000000000e+00" fC9="0.0000000000000000e+00" fC10="0.0000000000000000e+00" fC11="-4.2580007054089380e-01" IVar="-1" Cut="-6.7015364766120911e-02" cType="0" res="-9.9000000000000000e+01" rms="0.0000000000000000e+00" purity="1.6933842003345490e-01" nType="-1"/>
        </Node>
      </Node>
    </BinaryTree>
    <BinaryTree type="DecisionTree" boostWeight="2.4194920674330553e-01" itree="4">
      <Node pos="s" depth="0" NCoef="12" fC0="1.1967183639877694e-04" fC1="0.0000000000000000e+00" fC2="-1.2248545809949947e-04" fC3="0.0000000000000000e+00" fC4="0.0000000000000000e+00" fC5="-6.3672910083748091e-05" fC6="0.0000000000000000e+00" fC7="-1.4959720144669696e-07" fC8="0.0000000000000000e+00" fC9="0.0000000000000000e+00" fC10="0.0000000000000000e+00" fC11="-2.0396714032276594e-01" IVar="11" Cut="-1.0330263525247574e-01" cType="0" res="-9.9000000000000000e+01" rms="0.0000000000000000e+00" purity="4.6149256825447083e-01" nType="0">
        <Node pos="l" depth="1" NCoef="12" fC0="7.4692988027290838e-05" fC1="0.0000000000000000e+00" fC2="-7.1484848324717556e-05" fC3="0.0000000000000000e+00" fC4="0.0000000000000000e+00" fC5="0.0000000000000000e+00" fC6="0.0000000000000000e+00" fC7="0.0000000000000000e+00" fC8="0.0000000000000000e+00" fC9="0.0000000000000000e+00" fC10="0.0000000000000000e+00" fC11="-1.7150670248576549e-01" IVar="11" Cut="1.6068078577518463e-02" cType="0" res="-9.9000000000000000e+01" rms="0.0000000000000000e+00" purity="4.9970835447311401e-01" nType="0">
          <Node pos="l" depth="2" NCoef="0" IVar="2" Cut="6.1468959960937500e+03" cType="0" res="-9.9000000000000000e+01" rms="0.0000000000000000e+00" purity="6.2309390306472778e-01" nType="0">
            <Node pos="l" depth="3" NCoef="0" IVar="-1" Cut="0.0000000000000000e+00" cType="1" res="-9.9000000000000000e+01" rms="0.0000000000000000e+00" purity="6.7826437950134277e-01" nType="1"/>
            <Node pos="r" depth="3" NCoef="0" IVar="-1" Cut="0.0000000000000000e+00" cType="1" res="-9.9000000000000000e+01" rms="0.0000000000000000e+00" purity="2.8384518623352051e-01" nType="-1"/>
          </Node>
          <Node pos="r" depth="2" NCoef="12" fC0="5.3316360534180482e-05" fC1="0.0000000000000000e+00" fC2="-9.1519538383438392e-05" fC3="0.0000000000000000e+00" fC4="0.0000000000000000e+00" fC5="0.0000000000000000e+00" fC6="0.0000000000000000e+00" fC7="0.0000000000000000e+00" fC8="0.0000000000000000e+00" fC9="0.0000000000000000e+00" fC10="0.0000000000000000e+00" fC11="1.4068666532697610e-01" IVar="-1" Cut="-6.4443618059158325e-02" cType="0" res="-9.9000000000000000e+01" rms="0.0000000000000000e+00" purity="4.4719192385673523e-01" nType="-1"/>
        </Node>
        <Node pos="r" depth="1" NCoef="12" fC0="1.4559765139903571e-03" fC1="0.0000000000000000e+00" fC2="-1.5732758658440792e-03" fC3="0.0000000000000000e+00" fC4="0.0000000000000000e+00" fC5="-1.4454948856441866e-04" fC6="0.0000000000000000e+00" fC7="-2.3463634250139918e-07" fC8="0.0000000000000000e+00" fC9="0.0000000000000000e+00" fC10="0.0000000000000000e+00" fC11="-5.9558229872584489e-01" IVar="-1" Cut="3.4748066216707230e-02" cType="0" res="-9.9000000000000000e+01" rms="0.0000000000000000e+00" purity="1.9262771308422089e-01" nType="-1"/>
      </Node>
    </BinaryTree>
    <BinaryTree type="DecisionTree" boostWeight="1.7037086268731585e-01" itree="5">
      <Node pos="s" depth="0" NCoef="0" IVar="1" Cut="8.5985976457595825e-01" cType="0" res="-9.9000000000000000e+01" rms="0.0000000000000000e+00" purity="4.9446070194244385e-01" nType="0">
        <Node pos="l" depth="1" NCoef="12" fC0="6.0139344688502589e-05" fC1="0.0000000000000000e+00" fC2="-5.5577109033756240e-05" fC3="0.0000000000000000e+00" fC4="0.0000000000000000e+00" fC5="-4.7417886418056527e-05" fC6="0.0000000000000000e+00" fC7="-1.5439911263951997e-07" fC8="0.0000000000000000e+00" fC9="0.0000000000000000e+00" fC10="0.0000000000000000e+00" fC11="-1.4781765751078943e-01" IVar="11" Cut="-7.9912140965461731e-02" cType="0" res="-9.9000000000000000e+01" rms="0.0000000000000000e+00" purity="5.4256802797317505e-01" nType="0">
          <Node pos="l" depth="2" NCoef="12" fC0="4.4071184249912845e-05" fC1="0.0000000000000000e+00" fC2="-3.9048933516121768e-05" fC3="0.0000000000000000e+00" fC4="0.0000000000000000e+00" fC5="-1.0476915944274002e-03" fC6="0.0000000000000000e+00" fC7="-1.3137774789853210e-04" fC8="0.0000000000000000e+00" fC9="0.0000000000000000e+00" fC10="0.0000000000000000e+00" fC11="-1.1956431441284265e-01" IVar="-1" Cut="3.0503051355481148e-02" cType="0" res="-9.9000000000000000e+01" rms="0.0000000000000000e+00" purity="5.5522918701171875e-01" nType="1"/>
          <Node pos="r" depth="2" NCoef="0" IVar="-1" Cut="0.0000000000000000e+00" cType="1" res="-9.9000000000000000e+01" rms="0.0000000000000000e+00" purity="2.1108719706535339e-01" nType="-1"/>
        </Node>
        <Node pos="r" depth="1" NCoef="12" fC0="1.1916228174850228e-04" fC1="0.0000000000000000e+00" fC2="-1.5733656486588749e-04" fC3="0.0000000000000000e+00" fC4="0.0000000000000000e+00" fC5="0.0000000000000000e+00" fC6="0.0000000000000000e+00" fC7="0.0000000000000000e+00" fC8="0.0000000000000000e+00" fC9="0.0000000000000000e+00" fC10="0.0000000000000000e+00" fC11="5.2776324875350777e-02" IVar="-1" Cut="-2.8952740132808685e-02" cType="0" res="-9.9000000000000000e+01" rms="0.0000000000000000e+00" purity="3.5687240958213806e-01" nType="-1"/>
      </Node>
    </BinaryTree>
    <BinaryTree type="DecisionTree" boostWeight="2.1527249996911713e-01" itree="6">
      <Node pos="s" depth="0" NCoef="0" IVar="4" Cut="8.7114101648330688e-01" cType="0" res="-9.9000000000000000e+01" rms="0.0000000000000000e+00" purity="4.7595784068107605e-01" nType="0">
        <Node pos="l" depth="1" NCoef="12" fC0="9.4064541140551463e-05" fC1="0.0000000000000000e+00" fC2="-1.0549342818901166e-04" fC3="0.0000000000000000e+00" fC4="0.0000000000000000e+00" fC5="-2.3013458297510474e-04" fC6="0.0000000000000000e+00" fC7="-5.6492189903866642e-09" fC8="0.0000000000000000e+00" fC9="0.0000000000000000e+00" fC10="0.0000000000000000e+00" fC11="-1.0014267694038514e-01" IVar="11" Cut="-1.7369590699672699e-02" cType="0" res="-9.9000000000000000e+01" rms="0.0000000000000000e+00" purity="5.1223814487457275e-01" nType="0">
          <Node pos="l" depth="2" NCoef="12" fC0="-4.2432184728554390e-05" fC1="0.0000000000000000e+00" fC2="8.8193756107974558e-05" fC3="0.0000000000000000e+00" fC4="0.0000000000000000e+00" fC5="0.0000000000000000e+00" fC6="0.0000000000000000e+00" fC7="0.0000000000000000e+00" fC8="0.0000000000000000e+00" fC9="0.0000000000000000e+00" fC10="0.0000000000000000e+00" fC11="-2.3012615171852846e-01" IVar="11" Cut="-7.5459368526935577e-03" cType="0" res="-9.9000000000000000e+01" rms="0.0000000000000000e+00" purity="5.7425099611282349e-01" nType="0">
            <Node pos="l" depth="3" NCoef="0" IVar="-1" Cut="0.0000000000000000e+00" cType="1" res="-9.9000000000000000e+01" rms="0.0000000000000000e+00" purity="6.7996513843536377e-01" nType="1"/>
            <Node pos="r" depth="3" NCoef="0" IVar="-1" Cut="0.0000000000000000e+00" cType="1" res="-9.9000000000000000e+01" rms="0.0000000000000000e+00" purity="4.8435938358306885e-01" nType="-1"/>
          </Node>
          <Node pos="r" depth="2" NCoef="12" fC0="5.3748759578211278e-04" fC1="0.0000000000000000e+00" fC2="-6.4615406040061097e-04" fC3="0.0000000000000000e+00" fC4="0.0000000000000000e+00" fC5="-1.8832150013725301e-04" fC6="0.0000000000000000e+00" fC7="-7.4892100260346520e-08" fC8="0.0000000000000000e+00" fC9="0.0000000000000000e+00" fC10="0.0000000000000000e+00" fC11="-2.3857349025008957e-02" IVar="11" Cut="-3.2724902033805847e-02" cType="0" res="-9.9000000000000000e+01" rms="0.0000000000000000e+00" purity="4.4732594490051270e-01" nType="0">
            <Node pos="l" depth="3" NCoef="0" IVar="-1" Cut="0.0000000000000000e+00" cType="1" res="-9.9000000000000000e+01" rms="0.0000000000000000e+00" purity="5.5484336614608765e-01" nType="1"/>
            <Node pos="r" depth="3" NCoef="0" IVar="-1" Cut="0.0000000000000000e+00" cType="1" res="-9.9000000000000000e+01" rms="0.0000000000000000e+00" purity="2.6889005303382874e-01" nType="-1"/>
          </Node>
        </Node>
        <Node pos="r" depth="1" NCoef="12" fC0="4.9388182909778919e-05" fC1="0.0000000000000000e+00" fC2="-4.9052255570564918e-05" fC3="0.0000000000000000e+00" fC4="0.0000000000000000e+00" fC5="0.0000000000000000e+00" fC6="0.0000000000000000e+00" fC7="0.0000000000000000e+00" fC8="0.0000000000000000e+00" fC9="0.0000000000000000e+00" fC10="0.0000000000000000e+00" fC11="-8.8153427996951972e-02" IVar="-1" Cut="-3.6791723221540451e-02" cType="0" res="-9.9000000000000000e+01" rms="0.0000000000000000e+00" purity="3.9352327585220337e-01" nType="-1"/>
      </Node>
    </BinaryTree>
    <BinaryTree type="DecisionTree" boostWeight="1.3839959484218253e-01" itree="7">
      <Node pos="s" depth="0" NCoef="0" IVar="1" Cut="9.7647935152053833e-01" cType="0" res="-9.9000000000000000e+01" rms="0.0000000000000000e+00" purity="4.8912385106086731e-01" nType="0">
        <Node pos="l" depth="1" NCoef="0" IVar="0" Cut="1.1757113281250000e+04" cType="0" res="-9.9000000000000000e+01" rms="0.0000000000000000e+00" purity="5.5376499891281128e-01" nType="0">
          <Node pos="l" depth="2" NCoef="0" IVar="-1" Cut="9.9642813205718994e-01" cType="0" res="-9.9000000000000000e+01" rms="0.0000000000000000e+00" purity="6.8240898847579956e-01" nType="1"/>
          <Node pos="r" depth="2" NCoef="0" IVar="6" Cut="3.0000319480895996e+00" cType="1" res="-9.9000000000000000e+01" rms="0.0000000000000000e+00" purity="5.2080637216567993e-01" nType="0">
            <Node pos="l" depth="3" NCoef="0" IVar="-1" Cut="0.0000000000000000e+00" cType="1" res="-9.9000000000000000e+01" rms="0.0000000000000000e+00" purity="5.4543167352676392e-01" nType="1"/>
            <Node pos="r" depth="3" NCoef="0" IVar="-1" Cut="0.0000000000000000e+00" cType="1" res="-9.9000000000000000e+01" rms="0.0000000000000000e+00" purity="4.5079448819160461e-01" nType="-1"/>
          </Node>
        </Node>
        <Node pos="r" depth="1" NCoef="12" fC0="1.0725358418163255e-04" fC1="0.0000000000000000e+00" fC2="-1.3810377889795925e-04" fC3="0.0000000000000000e+00" fC4="0.0000000000000000e+00" fC5="-2.0003166549830789e-04" fC6="0.0000000000000000e+00" fC7="-5.4271915668079218e-08" fC8="0.0000000000000000e+00" fC9="0.0000000000000000e+00" fC10="0.0000000000000000e+00" fC11="2.0640418853785050e-02" IVar="11" Cut="-5.3138673305511475e-02" cType="0" res="-9.9000000000000000e+01" rms="0.0000000000000000e+00" purity="4.4999593496322632e-01" nType="0">
          <Node pos="l" depth="2" NCoef="0" IVar="0" Cut="4.6948564453125000e+03" cType="0" res="-9.9000000000000000e+01" rms="0.0000000000000000e+00" purity="4.9801889061927795e-01" nType="0">
            <Node pos="l" depth="3" NCoef="0" IVar="-1" Cut="0.0000000000000000e+00" cType="1" res="-9.9000000000000000e+01" rms="0.0000000000000000e+00" purity="5.1069283485412598e-01" nType="1"/>
            <Node pos="r" depth="3" NCoef="0" IVar="-1" Cut="0.0000000000000000e+00" cType="1" res="-9.9000000000000000e+01" rms="0.0000000000000000e+00" purity="3.9166754484176636e-01" nType="-1"/>
          </Node>
          <Node pos="r" depth="2" NCoef="12" fC0="5.5447929865730080e-04" fC1="0.0000000000000000e+00" fC2="-6.6008996172960686e-04" fC3="0.0000000000000000e+00" fC4="0.0000000000000000e+00" fC5="-1.9545951474055575e-04" fC6="0.0000000000000000e+00" fC7="-1.1654168201141465e-07" fC8="0.0000000000000000e+00" fC9="0.0000000000000000e+00" fC10="0.0000000000000000e+00" fC11="1.2733491187460705e-01" IVar="-1" Cut="-2.4301661178469658e-02" cType="0" res="-9.9000000000000000e+01" rms="0.0000000000000000e+00" purity="2.4402943253517151e-01" nType="-1"/>
        </Node>
      </Node>
    </BinaryTree>
    <BinaryTree type="DecisionTree" boostWeight="1.2730945648677150e-01" itree="8">
      <Node pos="s" depth="0" NCoef="0" IVar="1" Cut="9.7647935152053833e-01" cType="0" res="-9.9000000000000000e+01" rms="0.0000000000000000e+00" purity="4.7155877947807312e-01" nType="0">
        <Node pos="l" depth="1" NCoef="0" IVar="0" Cut="1.3643168945312500e+04" cType="0" res="-9.9000000000000000e+01" rms="0.0000000000000000e+00" purity="5.3387844562530518e-01" nType="0">
          <Node pos="l" depth="2" NCoef="0" IVar="-1" Cut="0.0000000000000000e+00" cType="1" res="-9.9000000000000000e+01" rms="0.0000000000000000e+00" purity="6.9747662544250488e-01" nType="1"/>
          <Node pos="r" depth="2" NCoef="12" fC0="1.7087558810101275e-06" fC1="0.0000000000000000e+00" fC2="1.9585827367207209e-05" fC3="0.0000000000000000e+00" fC4="0.0000000000000000e+00" fC5="3.4568209870124515e-06" fC6="0.0000000000000000e+00" fC7="-2.0107660117022236e-04" fC8="0.0000000000000000e+00" fC9="0.0000000000000000e+00" fC10="0.0000000000000000e+00" fC11="-1.3630932190240735e-01" IVar="11" Cut="-7.7557894401252270e-03" cType="0" res="-9.9000000000000000e+01" rms="0.0000000000000000e+00" purity="5.1254266500473022e-01" nType="0">
            <Node pos="l" depth="3" NCoef="0" IVar="-1" Cut="0.0000000000000000e+00" cType="1" res="-9.9000000000000000e+01" rms="0.0000000000000000e+00" purity="5.4992079734802246e-01" nType="1"/>
            <Node pos="r" depth="3" NCoef="0" IVar="-1" Cut="0.0000000000000000e+00" cType="1" res="-9.9000000000000000e+01" rms="0.0000000000000000e+00" purity="4.7005715966224670e-01" nType="-1"/>
          </Node>
        </Node>
        <Node pos="r" depth="1" NCoef="12" fC0="8.4199277982517645e-05" fC1="0.0000000000000000e+00" fC2="-1.0880308550752866e-04" fC3="0.0000000000000000e+00" fC4="0.0000000000000000e+00" fC5="-2.0193185819916774e-04" fC6="0.0000000000000000e+00" fC7="-5.3828328363272542e-08" fC8="0.0000000000000000e+00" fC9="0.0000000000000000e+00" fC10="0.0000000000000000e+00" fC11="1.7990057360934106e-02" IVar="-1" Cut="-7.1039557456970215e-02" cType="0" res="-9.9000000000000000e+01" rms="0.0000000000000000e+00" purity="4.3388155102729797e-01" nType="-1"/>
      </Node>
    </BinaryTree>
    <BinaryTree type="DecisionTree" boostWeight="1.0705594510773665e-01" itree="9">
      <Node pos="s" depth="0" NCoef="12" fC0="6.2902939644940946e-05" fC1="0.0000000000000000e+00" fC2="-7.2163062572517866e-05" fC3="0.0000000000000000e+00" fC4="0.0000000000000000e+00" fC5="-6.4931416738707134e-05" fC6="0.0000000000000000e+00" fC7="-1.7224260079934996e-07" fC8="0.0000000000000000e+00" fC9="0.0000000000000000e+00" fC10="0.0000000000000000e+00" fC11="-5.5102513060556045e-02" IVar="11" Cut="-5.0426185131072998e-02" cType="0" res="-9.9000000000000000e+01" rms="0.0000000000000000e+00" purity="4.8922145366668701e-01" nType="0">
        <Node pos="l" depth="1" NCoef="12" fC0="6.9504404347450531e-06" fC1="0.0000000000000000e+00" fC2="-4.4531297553940571e-08" fC3="0.0000000000000000e+00" fC4="0.0000000000000000e+00" fC5="0.0000000000000000e+00" fC6="0.0000000000000000e+00" fC7="0.0000000000000000e+00" fC8="0.0000000000000000e+00" fC9="0.0000000000000000e+00" fC10="0.0000000000000000e+00" fC11="-5.7897363927641866e-02" IVar="11" Cut="5.4382365196943283e-02" cType="0" res="-9.9000000000000000e+01" rms="0.0000000000000000e+00" purity="5.1498842239379883e-01" nType="0">
          <Node pos="l" depth="2" NCoef="0" IVar="-1" Cut="0.0000000000000000e+00" cType="1" res="-9.9000000000000000e+01" rms="0.0000000000000000e+00" purity="6.9144392013549805e-01" nType="1"/>
          <Node pos="r" depth="2" NCoef="12" fC0="-3.0509989140911557e-06" fC1="0.0000000000000000e+00" fC2="5.5792277799733179e-06" fC3="0.0000000000000000e+00" fC4="0.0000000000000000e+00" fC5="0.0000000000000000e+00" fC6="0.0000000000000000e+00" fC7="0.0000000000000000e+00" fC8="0.0000000000000000e+00" fC9="0.0000000000000000e+00" fC10="0.0000000000000000e+00" fC11="-1.0060133335002441e-02" IVar="11" Cut="-6.2400815077126026e-03" cType="0" res="-9.9000000000000000e+01" rms="0.0000000000000000e+00" purity="5.0910174846649170e-01" nType="0">
            <Node pos="l" depth="3" NCoef="0" IVar="-1" Cut="0.0000000000000000e+00" cType="1" res="-9.9000000000000000e+01" rms="0.0000000000000000e+00" purity="5.1803761720657349e-01" nType="1"/>
            <Node pos="r" depth="3" NCoef="0" IVar="-1" Cut="0.0000000000000000e+00" cType="1" res="-9.9000000000000000e+01" rms="0.0000000000000000e+00" purity="2.5266048312187195e-01" nType="-1"/>
          </Node>
        </Node>
        <Node pos="r" depth="1" NCoef="12" fC0="1.2455990111362723e-03" fC1="0.0000000000000000e+00" fC2="-1.4096404059301031e-03" fC3="0.0000000000000000e+00" fC4="0.0000000000000000e+00" fC5="-1.6098260027789981e-04" fC6="0.0000000000000000e+00" fC7="-2.5315191351567754e-07" fC8="0.0000000000000000e+00" fC9="0.0000000000000000e+00" fC10="0.0000000000000000e+00" fC11="-3.7565984913079609e-02" IVar="-1" Cut="-7.6771788299083710e-02" cType="0" res="-9.9000000000000000e+01" rms="0.0000000000000000e+00" purity="1.8042866885662079e-01" nType="-1"/>
      </Node>
    </BinaryTree>
    <BinaryTree type="DecisionTree" boostWeight="8.1844715068005280e-02" itree="10">
      <Node pos="s" depth="0" NCoef="0" IVar="1" Cut="7.6656407117843628e-01" cType="0" res="-9.9000000000000000e+01" rms="0.0000000000000000e+00" purity="4.6802765130996704e-01" nType="0">
        <Node pos="l" depth="1" NCoef="12" fC0="4.9397653128804744e-05" fC1="0.0000000000000000e+00" fC2="-5.3937100661337788e-05" fC3="0.0000000000000000e+00" fC4="0.0000000000000000e+00" fC5="-5.2530268635455013e-05" fC6="0.0000000000000000e+00" fC7="-1.7449341289901444e-07" fC8="0.0000000000000000e+00" fC9="0.0000000000000000e+00" fC10="0.0000000000000000e+00" fC11="-6.3398812212037164e-02" IVar="11" Cut="-4.1291251778602600e-02" cType="0" res="-9.9000000000000000e+01" rms="0.0000000000000000e+00" purity="4.8386695981025696e-01" nType="0">
          <Node pos="l" depth="2" NCoef="0" IVar="0" Cut="1.6549697265625000e+04" cType="0" res="-9.9000000000000000e+01" rms="0.0000000000000000e+00" purity="5.0175422430038452e-01" nType="0">
            <Node pos="l" depth="3" NCoef="0" IVar="-1" Cut="0.0000000000000000e+00" cType="1" res="-9.9000000000000000e+01" rms="0.0000000000000000e+00" purity="6.7472070455551147e-01" nType="1"/>
            <Node pos="r" depth="3" NCoef="0" IVar="-1" Cut="0.0000000000000000e+00" cType="1" res="-9.9000000000000000e+01" rms="0.0000000000000000e+00" purity="4.9604105949401855e-01" nType="-1"/>
          </Node>
          <Node pos="r" depth="2" NCoef="0" IVar="-1" Cut="3.2466796875000000e+02" cType="1" res="-9.9000000000000000e+01" rms="0.0000000000000000e+00" purity="2.5686460733413696e-01" nType="-1"/>
        </Node>
        <Node pos="r" depth="1" NCoef="12" fC0="8.2401951622218227e-05" fC1="0.0000000000000000e+00" fC2="-1.1487251013433417e-04" fC3="0.0000000000000000e+00" fC4="0.0000000000000000e+00" fC5="-1.0726033221437803e-03" fC6="0.0000000000000000e+00" fC7="5.6081182342243051e-05" fC8="0.0000000000000000e+00" fC9="0.0000000000000000e+00" fC10="0.0000000000000000e+00" fC11="7.3786373706703004e-02" IVar="-1" Cut="-4.2806062847375870e-02" cType="0" res="-9.9000000000000000e+01" rms="0.0000000000000000e+00" purity="3.7437060475349426e-01" nType="-1"/>
      </Node>
    </BinaryTree>
    <BinaryTree type="DecisionTree" boostWeight="1.2711271154363235e-01" itree="11">
      <Node pos="s" depth="0" NCoef="0" IVar="1" Cut="7.4324011802673340e-01" cType="0" res="-9.9000000000000000e+01" rms="0.0000000000000000e+00" purity="4.8739847540855408e-01" nType="0">
        <Node pos="l" depth="1" NCoef="0" IVar="4" Cut="5.7131081819534302e-01" cType="0" res="-9.9000000000000000e+01" rms="0.0000000000000000e+00" purity="5.0194060802459717e-01" nType="0">
          <Node pos="l" depth="2" NCoef="12" fC0="5.2688542909230919e-05" fC1="0.0000000000000000e+00" fC2="-6.0066618451168943e-05" fC3="0.0000000000000000e+00" fC4="0.0000000000000000e+00" fC5="-4.7424392543895316e-05" fC6="0.0000000000000000e+00" fC7="-1.7657106003132961e-07" fC8="0.0000000000000000e+00" fC9="0.0000000000000000e+00" fC10="0.0000000000000000e+00" fC11="-5.0714731925373006e-02" IVar="11" Cut="-1.6087407246232033e-02" cType="0" res="-9.9000000000000000e+01" rms="0.0000000000000000e+00" purity="5.1192563772201538e-01" nType="0">
            <Node pos="l" depth="3" NCoef="0" IVar="-1" Cut="0.0000000000000000e+00" cType="1" res="-9.9000000000000000e+01" rms="0.0000000000000000e+00" purity="5.5113065242767334e-01" nType="1"/>
            <Node pos="r" depth="3" NCoef="0" IVar="-1" Cut="0.0000000000000000e+00" cType="1" res="-9.9000000000000000e+01" rms="0.0000000000000000e+00" purity="4.4787046313285828e-01" nType="-1"/>
          </Node>
          <Node pos="r" depth="2" NCoef="0" IVar="-1" Cut="3.6938431859016418e-01" cType="0" res="-9.9000000000000000e+01" rms="0.0000000000000000e+00" purity="3.9811140298843384e-01" nType="-1"/>
        </Node>
        <Node pos="r" depth="1" NCoef="12" fC0="8.1738481326482586e-05" fC1="0.0000000000000000e+00" fC2="-1.1431229044502938e-04" fC3="0.0000000000000000e+00" fC4="0.0000000000000000e+00" fC5="-1.0284354160551171e-03" fC6="0.0000000000000000e+00" fC7="5.3977405465488240e-05" fC8="0.0000000000000000e+00" fC9="0.0000000000000000e+00" fC10="0.0000000000000000e+00" fC11="7.5417092038917846e-02" IVar="-1" Cut="-2.5124037638306618e-02" cType="0" res="-9.9000000000000000e+01" rms="0.0000000000000000e+00" purity="3.8595280051231384e-01" nType="-1"/>
      </Node>
    </BinaryTree>
    <BinaryTree type="DecisionTree" boostWeight="7.3014488504137026e-02" itree="12">
      <Node pos="s" depth="0" NCoef="0" IVar="6" Cut="1.2857221364974976e+00" cType="1" res="-9.9000000000000000e+01" rms="0.0000000000000000e+00" purity="4.8761934041976929e-01" nType="0">
        <Node pos="l" depth="1" NCoef="0" IVar="4" Cut="6.1417514085769653e-01" cType="0" res="-9.9000000000000000e+01" rms="0.0000000000000000e+00" purity="5.2030682563781738e-01" nType="0">
          <Node pos="l" depth="2" NCoef="0" IVar="-1" Cut="9.8128932714462280e-01" cType="0" res="-9.9000000000000000e+01" rms="0.0000000000000000e+00" purity="5.3018414974212646e-01" nType="1"/>
          <Node pos="r" depth="2" NCoef="0" IVar="-1" Cut="0.0000000000000000e+00" cType="1" res="-9.9000000000000000e+01" rms="0.0000000000000000e+00" purity="4.3160194158554077e-01" nType="-1"/>
        </Node>
        <Node pos="r" depth="1" NCoef="0" IVar="-1" Cut="7.1991622447967529e-01" cType="0" res="-9.9000000000000000e+01" rms="0.0000000000000000e+00" purity="4.6162548661231995e-01" nType="-1"/>
      </Node>
    </BinaryTree>
    <BinaryTree type="DecisionTree" boostWeight="1.3654291687652895e-01" itree="13">
      <Node pos="s" depth="0" NCoef="12" fC0="3.5777729637878748e-05" fC1="0.0000000000000000e+00" fC2="-4.2045181350674747e-05" fC3="0.0000000000000000e+00" fC4="0.0000000000000000e+00" fC5="-5.6982320344979077e-05" fC6="0.0000000000000000e+00" fC7="-1.8818538884449062e-07" fC8="0.0000000000000000e+00" fC9="0.0000000000000000e+00" fC10="0.0000000000000000e+00" fC11="-2.4864972706849887e-02" IVar="11" Cut="-2.8259269893169403e-02" cType="0" res="-9.9000000000000000e+01" rms="0.0000000000000000e+00" purity="4.9129697680473328e-01" nType="0">
        <Node pos="l" depth="1" NCoef="12" fC0="-1.6440058823585493e-05" fC1="0.0000000000000000e+00" fC2="2.7525566836373369e-05" fC3="0.0000000000000000e+00" fC4="0.0000000000000000e+00" fC5="0.0000000000000000e+00" fC6="0.0000000000000000e+00" fC7="0.0000000000000000e+00" fC8="0.0000000000000000e+00" fC9="0.0000000000000000e+00" fC10="0.0000000000000000e+00" fC11="-3.9522826548412993e-02" IVar="11" Cut="-2.1747326478362083e-02" cType="0" res="-9.9000000000000000e+01" rms="0.0000000000000000e+00" purity="5.1157981157302856e-01" nType="0">
          <Node pos="l" depth="2" NCoef="12" fC0="5.0696422952318836e-05" fC1="0.0000000000000000e+00" fC2="-6.0300642517315105e-05" fC3="0.0000000000000000e+00" fC4="0.0000000000000000e+00" fC5="0.0000000000000000e+00" fC6="0.0000000000000000e+00" fC7="0.0000000000000000e+00" fC8="0.0000000000000000e+00" fC9="0.0000000000000000e+00" fC10="0.0000000000000000e+00" fC11="-3.0691383455769050e-02" IVar="11" Cut="-2.6013981550931931e-02" cType="0" res="-9.9000000000000000e+01" rms="0.0000000000000000e+00" purity="5.2410739660263062e-01" nType="0">
            <Node pos="l" depth="3" NCoef="0" IVar="-1" Cut="0.0000000000000000e+00" cType="1" res="-9.9000000000000000e+01" rms="0.0000000000000000e+00" purity="5.4130232334136963e-01" nType="1"/>
            <Node pos="r" depth="3" NCoef="0" IVar="-1" Cut="0.0000000000000000e+00" cType="1" res="-9.9000000000000000e+01" rms="0.0000000000000000e+00" purity="4.2284995317459106e-01" nType="-1"/>
          </Node>
          <Node pos="r" depth="2" NCoef="0" IVar="-1" Cut="8.7081396579742432e-01" cType="0" res="-9.9000000000000000e+01" rms="0.0000000000000000e+00" purity="3.8935005664825439e-01" nType="-1"/>
        </Node>
        <Node pos="r" depth="1" NCoef="12" fC0="1.7607607451865144e-03" fC1="0.0000000000000000e+00" fC2="-1.9058463318365991e-03" fC3="-2.0965854592593638e-03" fC4="0.0000000000000000e+00" fC5="-1.7905305278065621e-04" fC6="0.0000000000000000e+00" fC7="-4.0376280760454094e-07" fC8="0.0000000000000000e+00" fC9="0.0000000000000000e+00" fC10="0.0000000000000000e+00" fC11="9.4191707698832464e-02" IVar="-1" Cut="-6.9167397916316986e-02" cType="0" res="-9.9000000000000000e+01" rms="0.0000000000000000e+00" purity="2.4655148386955261e-01" nType="-1"/>
      </Node>
    </BinaryTree>
    <BinaryTree type="DecisionTree" boostWeight="8.3991215580941414e-02" itree="14">
      <Node pos="s" depth="0" NCoef="12" fC0="2.6427018505920029e-05" fC1="0.0000000000000000e+00" fC2="-3.1212021141361819e-05" fC3="0.0000000000000000e+00" fC4="0.0000000000000000e+00" fC5="-5.4247023916053102e-05" fC6="0.0000000000000000e+00" fC7="-1.9442258487640013e-07" fC8="0.0000000000000000e+00" fC9="0.0000000000000000e+00" fC10="0.0000000000000000e+00" fC11="-1.7348628303681727e-02" IVar="11" Cut="-1.5434526838362217e-02" cType="0" res="-9.9000000000000000e+01" rms="0.0000000000000000e+00" purity="4.7635257244110107e-01" nType="0">
        <Node pos="l" depth="1" NCoef="12" fC0="-3.1541909373110270e-05" fC1="0.0000000000000000e+00" fC2="4.6120811247887889e-05" fC3="0.0000000000000000e+00" fC4="0.0000000000000000e+00" fC5="0.0000000000000000e+00" fC6="0.0000000000000000e+00" fC7="0.0000000000000000e+00" fC8="0.0000000000000000e+00" fC9="0.0000000000000000e+00" fC10="0.0000000000000000e+00" fC11="-3.0623269436175327e-02" IVar="11" Cut="-4.3112024664878845e-02" cType="0" res="-9.9000000000000000e+01" rms="0.0000000000000000e+00" purity="4.9679228663444519e-01" nType="0">
          <Node pos="l" depth="2" NCoef="12" fC0="2.0772676709006455e-05" fC1="0.0000000000000000e+00" fC2="-2.1131632191072500e-05" fC3="0.0000000000000000e+00" fC4="0.0000000000000000e+00" fC5="0.0000000000000000e+00" fC6="0.0000000000000000e+00" fC7="0.0000000000000000e+00" fC8="0.0000000000000000e+00" fC9="0.0000000000000000e+00" fC10="0.0000000000000000e+00" fC11="-3.7256782816533190e-02" IVar="11" Cut="2.6715343818068504e-02" cType="0" res="-9.9000000000000000e+01" rms="0.0000000000000000e+00" purity="5.0454509258270264e-01" nType="0">
            <Node pos="l" depth="3" NCoef="0" IVar="-1" Cut="0.0000000000000000e+00" cType="1" res="-9.9000000000000000e+01" rms="0.0000000000000000e+00" purity="6.2226122617721558e-01" nType="1"/>
            <Node pos="r" depth="3" NCoef="0" IVar="-1" Cut="0.0000000000000000e+00" cType="1" res="-9.9000000000000000e+01" rms="0.0000000000000000e+00" purity="4.9576991796493530e-01" nType="-1"/>
          </Node>
          <Node pos="r" depth="2" NCoef="0" IVar="-1" Cut="0.0000000000000000e+00" cType="1" res="-9.9000000000000000e+01" rms="0.0000000000000000e+00" purity="2.8570103645324707e-01" nType="-1"/>
        </Node>
        <Node pos="r" depth="1" NCoef="0" IVar="3" Cut="5.4366174316406250e+02" cType="1" res="-9.9000000000000000e+01" rms="0.0000000000000000e+00" purity="3.6908504366874695e-01" nType="0">
          <Node pos="l" depth="2" NCoef="12" fC0="1.0272633497983401e-03" fC1="0.0000000000000000e+00" fC2="-1.1335846039536716e-03" fC3="0.0000000000000000e+00" fC4="0.0000000000000000e+00" fC5="-9.9949498125185524e-05" fC6="0.0000000000000000e+00" fC7="-2.4123790180589273e-07" fC8="0.0000000000000000e+00" fC9="0.0000000000000000e+00" fC10="0.0000000000000000e+00" fC11="-3.4084865021222405e-01" IVar="11" Cut="-1.3556925952434540e-01" cType="0" res="-9.9000000000000000e+01" rms="0.0000000000000000e+00" purity="4.2832353711128235e-01" nType="0">
            <Node pos="l" depth="3" NCoef="0" IVar="-1" Cut="0.0000000000000000e+00" cType="1" res="-9.9000000000000000e+01" rms="0.0000000000000000e+00" purity="5.2388769388198853e-01" nType="1"/>
            <Node pos="r" depth="3" NCoef="0" IVar="-1" Cut="0.0000000000000000e+00" cType="1" res="-9.9000000000000000e+01" rms="0.0000000000000000e+00" purity="1.0451082140207291e-01" nType="-1"/>
          </Node>
          <Node pos="r" depth="2" NCoef="0" IVar="-1" Cut="0.0000000000000000e+00" cType="1" res="-9.9000000000000000e+01" rms="0.0000000000000000e+00" purity="1.7815659940242767e-01" nType="-1"/>
        </Node>
      </Node>
    </BinaryTree>
    <BinaryTree type="DecisionTree" boostWeight="9.9356914806634000e-02" itree="15">
      <Node pos="s" depth="0" NCoef="0" IVar="1" Cut="7.1991622447967529e-01" cType="0" res="-9.9000000000000000e+01" rms="0.0000000000000000e+00" purity="4.9098876118659973e-01" nType="0">
        <Node pos="l" depth="1" NCoef="0" IVar="8" Cut="2.8558015823364258e+00" cType="1" res="-9.9000000000000000e+01" rms="0.0000000000000000e+00" purity="4.9945756793022156e-01" nType="0">
          <Node pos="l" depth="2" NCoef="0" IVar="10" Cut="2.1418619155883789e+00" cType="1" res="-9.9000000000000000e+01" rms="0.0000000000000000e+00" purity="5.2093207836151123e-01" nType="0">
            <Node pos="l" depth="3" NCoef="0" IVar="-1" Cut="0.0000000000000000e+00" cType="1" res="-9.9000000000000000e+01" rms="0.0000000000000000e+00" purity="5.3975856304168701e-01" nType="1"/>
            <Node pos="r" depth="3" NCoef="0" IVar="-1" Cut="0.0000000000000000e+00" cType="1" res="-9.9000000000000000e+01" rms="0.0000000000000000e+00" purity="4.5621988177299500e-01" nType="-1"/>
          </Node>
          <Node pos="r" depth="2" NCoef="0" IVar="9" Cut="1.7138750553131104e+00" cType="1" res="-9.9000000000000000e+01" rms="0.0000000000000000e+00" purity="4.7058209776878357e-01" nType="0">
            <Node pos="l" depth="3" NCoef="0" IVar="-1" Cut="0.0000000000000000e+00" cType="1" res="-9.9000000000000000e+01" rms="0.0000000000000000e+00" purity="5.3213554620742798e-01" nType="1"/>
            <Node pos="r" depth="3" NCoef="0" IVar="-1" Cut="0.0000000000000000e+00" cType="1" res="-9.9000000000000000e+01" rms="0.0000000000000000e+00" purity="4.3868759274482727e-01" nType="-1"/>
          </Node>
        </Node>
        <Node pos="r" depth="1" NCoef="12" fC0="7.4645383312410175e-05" fC1="0.0000000000000000e+00" fC2="-1.0850093943155966e-04" fC3="0.0000000000000000e+00" fC4="0.0000000000000000e+00" fC5="-1.0422732888450148e-03" fC6="0.0000000000000000e+00" fC7="5.5255935500843212e-05" fC8="0.0000000000000000e+00" fC9="0.0000000000000000e+00" fC10="0.0000000000000000e+00" fC11="9.3084082924688852e-02" IVar="11" Cut="4.1875797323882580e-03" cType="0" res="-9.9000000000000000e+01" rms="0.0000000000000000e+00" purity="4.2051231861114502e-01" nType="0">
          <Node pos="l" depth="2" NCoef="0" IVar="1" Cut="6.1998748779296875e-01" cType="0" res="-9.9000000000000000e+01" rms="0.0000000000000000e+00" purity="4.8848852515220642e-01" nType="0">
            <Node pos="l" depth="3" NCoef="0" IVar="-1" Cut="0.0000000000000000e+00" cType="1" res="-9.9000000000000000e+01" rms="0.0000000000000000e+00" purity="5.1072657108306885e-01" nType="1"/>
            <Node pos="r" depth="3" NCoef="0" IVar="-1" Cut="0.0000000000000000e+00" cType="1" res="-9.9000000000000000e+01" rms="0.0000000000000000e+00" purity="4.6413177251815796e-01" nType="-1"/>
          </Node>
          <Node pos="r" depth="2" NCoef="0" IVar="-1" Cut="1.2858734130859375e+00" cType="1" res="-9.9000000000000000e+01" rms="0.0000000000000000e+00" purity="3.4915244579315186e-01" nType="-1"/>
        </Node>
      </Node>
    </BinaryTree>
    <BinaryTree type="DecisionTree" boostWeight="9.3580262272218842e-02" itree="16">
      <Node pos="s" depth="0" NCoef="12" fC0="2.6565142636058537e-05" fC1="0.0000000000000000e+00" fC2="-3.2656189970022393e-05" fC3="0.0000000000000000e+00" fC4="0.0000000000000000e+00" fC5="-5.3419388146670314e-05" fC6="0.0000000000000000e+00" fC7="-1.9428453382116056e-07" fC8="0.0000000000000000e+00" fC9="0.0000000000000000e+00" fC10="0.0000000000000000e+00" fC11="-9.1360088634244042e-03" IVar="11" Cut="-2.1286865696310997e-02" cType="0" res="-9.9000000000000000e+01" rms="0.0000000000000000e+00" purity="4.8818740248680115e-01" nType="0">
        <Node pos="l" depth="1" NCoef="12" fC0="-2.3239142213578315e-05" fC1="0.0000000000000000e+00" fC2="3.7087912932450928e-05" fC3="0.0000000000000000e+00" fC4="0.0000000000000000e+00" fC5="0.0000000000000000e+00" fC6="0.0000000000000000e+00" fC7="0.0000000000000000e+00" fC8="0.0000000000000000e+00" fC9="0.0000000000000000e+00" fC10="0.0000000000000000e+00" fC11="-4.3137957758201007e-02" IVar="11" Cut="-3.3854864537715912e-02" cType="0" res="-9.9000000000000000e+01" rms="0.0000000000000000e+00" purity="5.0451725721359253e-01" nType="0">
          <Node pos="l" depth="2" NCoef="12" fC0="2.2494204829294370e-05" fC1="0.0000000000000000e+00" fC2="-2.2281408541861310e-05" fC3="0.0000000000000000e+00" fC4="0.0000000000000000e+00" fC5="0.0000000000000000e+00" fC6="0.0000000000000000e+00" fC7="0.0000000000000000e+00" fC8="0.0000000000000000e+00" fC9="0.0000000000000000e+00" fC10="0.0000000000000000e+00" fC11="-4.2430959099618915e-02" IVar="11" Cut="-2.3348744958639145e-02" cType="0" res="-9.9000000000000000e+01" rms="0.0000000000000000e+00" purity="5.1120632886886597e-01" nType="0">
            <Node pos="l" depth="3" NCoef="0" IVar="-1" Cut="0.0000000000000000e+00" cType="1" res="-9.9000000000000000e+01" rms="0.0000000000000000e+00" purity="5.1881599426269531e-01" nType="1"/>
            <Node pos="r" depth="3" NCoef="0" IVar="-1" Cut="0.0000000000000000e+00" cType="1" res="-9.9000000000000000e+01" rms="0.0000000000000000e+00" purity="3.1689131259918213e-01" nType="-1"/>
          </Node>
          <Node pos="r" depth="2" NCoef="0" IVar="-1" Cut="0.0000000000000000e+00" cType="1" res="-9.9000000000000000e+01" rms="0.0000000000000000e+00" purity="3.5626104474067688e-01" nType="-1"/>
        </Node>
        <Node pos="r" depth="1" NCoef="12" fC0="1.1466377508102651e-03" fC1="0.0000000000000000e+00" fC2="-1.2513453565075815e-03" fC3="-1.5247165094177818e-03" fC4="0.0000000000000000e+00" fC5="-1.1897209781487129e-04" fC6="0.0000000000000000e+00" fC7="-3.5396891315450878e-07" fC8="0.0000000000000000e+00" fC9="0.0000000000000000e+00" fC10="0.0000000000000000e+00" fC11="1.7347201071473237e-01" IVar="11" Cut="-6.0568746179342270e-02" cType="0" res="-9.9000000000000000e+01" rms="0.0000000000000000e+00" purity="2.9698723554611206e-01" nType="0">
          <Node pos="l" depth="2" NCoef="0" IVar="-1" Cut="0.0000000000000000e+00" cType="1" res="-9.9000000000000000e+01" rms="0.0000000000000000e+00" purity="5.3455615043640137e-01" nType="1"/>
          <Node pos="r" depth="2" NCoef="0" IVar="-1" Cut="0.0000000000000000e+00" cType="1" res="-9.9000000000000000e+01" rms="0.0000000000000000e+00" purity="2.2015256807208061e-02" nType="-1"/>
        </Node>
      </Node>
    </BinaryTree>
    <BinaryTree type="DecisionTree" boostWeight="7.9282689003292425e-02" itree="17">
      <Node pos="s" depth="0" NCoef="12" fC0="2.7252273710211349e-05" fC1="0.0000000000000000e+00" fC2="-3.3955841118700598e-05" fC3="0.0000000000000000e+00" fC4="0.0000000000000000e+00" fC5="-5.5320188898260070e-05" fC6="0.0000000000000000e+00" fC7="-1.9547966153659324e-07" fC8="0.0000000000000000e+00" fC9="0.0000000000000000e+00" fC10="0.0000000000000000e+00" fC11="-6.4749192001011197e-03" IVar="11" Cut="-2.8531204909086227e-02" cType="0" res="-9.9000000000000000e+01" rms="0.0000000000000000e+00" purity="4.6979585289955139e-01" nType="0">
        <Node pos="l" depth="1" NCoef="0" IVar="0" Cut="1.3640628906250000e+04" cType="0" res="-9.9000000000000000e+01" rms="0.0000000000000000e+00" purity="4.7942027449607849e-01" nType="0">
          <Node pos="l" depth="2" NCoef="0" IVar="-1" Cut="1.2855670452117920e+00" cType="1" res="-9.9000000000000000e+01" rms="0.0000000000000000e+00" purity="5.8102959394454956e-01" nType="1"/>
          <Node pos="r" depth="2" NCoef="0" IVar="-1" Cut="6.4017822265625000e+02" cType="1" res="-9.9000000000000000e+01" rms="0.0000000000000000e+00" purity="4.7294467687606812e-01" nType="-1"/>
        </Node>
        <Node pos="r" depth="1" NCoef="0" IVar="-1" Cut="0.0000000000000000e+00" cType="1" res="-9.9000000000000000e+01" rms="0.0000000000000000e+00" purity="2.1614468097686768e-01" nType="-1"/>
      </Node>
    </BinaryTree>
    <BinaryTree type="DecisionTree" boostWeight="1.4946068776590374e-01" itree="18">
      <Node pos="s" depth="0" NCoef="12" fC0="2.3709740606046325e-05" fC1="0.0000000000000000e+00" fC2="-3.1667740167958039e-05" fC3="0.0000000000000000e+00" fC4="0.0000000000000000e+00" fC5="-5.5312312643833865e-05" fC6="0.0000000000000000e+00" fC7="-1.9793523570127992e-07" fC8="0.0000000000000000e+00" fC9="0.0000000000000000e+00" fC10="0.0000000000000000e+00" fC11="8.1296369570988385e-03" IVar="11" Cut="9.7353965975344181e-04" cType="0" res="-9.9000000000000000e+01" rms="0.0000000000000000e+00" purity="4.8727929592132568e-01" nType="0">
        <Node pos="l" depth="1" NCoef="12" fC0="-1.2867282669588951e-04" fC1="0.0000000000000000e+00" fC2="1.5109860401036723e-04" fC3="4.0076729877922202e-04" fC4="0.0000000000000000e+00" fC5="0.0000000000000000e+00" fC6="0.0000000000000000e+00" fC7="0.0000000000000000e+00" fC8="0.0000000000000000e+00" fC9="0.0000000000000000e+00" fC10="0.0000000000000000e+00" fC11="-4.3389960272000788e-02" IVar="11" Cut="-1.4816049486398697e-02" cType="0" res="-9.9000000000000000e+01" rms="0.0000000000000000e+00" purity="5.1260280609130859e-01" nType="0">
          <Node pos="l" depth="2" NCoef="12" fC0="-1.3018415106528762e-04" fC1="0.0000000000000000e+00" fC2="1.7838960630769921e-04" fC3="4.9143592701298218e-05" fC4="0.0000000000000000e+00" fC5="0.0000000000000000e+00" fC6="0.0000000000000000e+00" fC7="0.0000000000000000e+00" fC8="0.0000000000000000e+00" fC9="0.0000000000000000e+00" fC10="0.0000000000000000e+00" fC11="-5.0768926357498564e-02" IVar="-1" Cut="-1.9560251384973526e-02" cType="0" res="-9.9000000000000000e+01" rms="0.0000000000000000e+00" purity="5.6999421119689941e-01" nType="1"/>
          <Node pos="r" depth="2" NCoef="0" IVar="-1" Cut="9.1387528181076050e-01" cType="0" res="-9.9000000000000000e+01" rms="0.0000000000000000e+00" purity="4.1123852133750916e-01" nType="-1"/>
        </Node>
        <Node pos="r" depth="1" NCoef="12" fC0="2.4473103602845489e-04" fC1="0.0000000000000000e+00" fC2="-3.0002248718032087e-04" fC3="0.0000000000000000e+00" fC4="0.0000000000000000e+00" fC5="-5.7612835363165533e-05" fC6="0.0000000000000000e+00" fC7="-1.9293088065489452e-07" fC8="0.0000000000000000e+00" fC9="0.0000000000000000e+00" fC10="0.0000000000000000e+00" fC11="1.2283498193427719e-02" IVar="11" Cut="2.7222696691751480e-02" cType="0" res="-9.9000000000000000e+01" rms="0.0000000000000000e+00" purity="4.6472123265266418e-01" nType="0">
          <Node pos="l" depth="2" NCoef="0" IVar="3" Cut="4.7247012329101562e+02" cType="1" res="-9.9000000000000000e+01" rms="0.0000000000000000e+00" purity="5.4331153631210327e-01" nType="0">
            <Node pos="l" depth="3" NCoef="0" IVar="-1" Cut="0.0000000000000000e+00" cType="1" res="-9.9000000000000000e+01" rms="0.0000000000000000e+00" purity="6.0175991058349609e-01" nType="1"/>
            <Node pos="r" depth="3" NCoef="0" IVar="-1" Cut="0.0000000000000000e+00" cType="1" res="-9.9000000000000000e+01" rms="0.0000000000000000e+00" purity="4.9522799253463745e-01" nType="-1"/>
          </Node>
          <Node pos="r" depth="2" NCoef="0" IVar="-1" Cut="6.3749279785156250e+02" cType="1" res="-9.9000000000000000e+01" rms="0.0000000000000000e+00" purity="4.1270607709884644e-01" nType="-1"/>
        </Node>
      </Node>
    </BinaryTree>
    <BinaryTree type="DecisionTree" boostWeight="8.6554165543200307e-02" itree="19">
      <Node pos="s" depth="0" NCoef="0" IVar="4" Cut="3.5714641213417053e-01" cType="0" res="-9.9000000000000000e+01" rms="0.0000000000000000e+00" purity="4.9499052762985229e-01" nType="0">
        <Node pos="l" depth="1" NCoef="0" IVar="3" Cut="6.4591839599609375e+02" cType="1" res="-9.9000000000000000e+01" rms="0.0000000000000000e+00" purity="4.9937558174133301e-01" nType="0">
          <Node pos="l" depth="2" NCoef="12" fC0="-3.3443531661403072e-05" fC1="0.0000000000000000e+00" fC2="4.3950966865347995e-05" fC3="0.0000000000000000e+00" fC4="0.0000000000000000e+00" fC5="-5.0065585915223636e-05" fC6="0.0000000000000000e+00" fC7="-1.9657128905694664e-07" fC8="0.0000000000000000e+00" fC9="0.0000000000000000e+00" fC10="0.0000000000000000e+00" fC11="-5.9367444353027616e-03" IVar="11" Cut="-1.1662700213491917e-02" cType="0" res="-9.9000000000000000e+01" rms="0.0000000000000000e+00" purity="5.1051384210586548e-01" nType="0">
            <Node pos="l" depth="3" NCoef="0" IVar="-1" Cut="0.0000000000000000e+00" cType="1" res="-9.9000000000000000e+01" rms="0.0000000000000000e+00" purity="5.3098350763320923e-01" nType="1"/>
            <Node pos="r" depth="3" NCoef="0" IVar="-1" Cut="0.0000000000000000e+00" cType="1" res="-9.9000000000000000e+01" rms="0.0000000000000000e+00" purity="4.4139611721038818e-01" nType="-1"/>
          </Node>
          <Node pos="r" depth="2" NCoef="12" fC0="1.1256707735665336e-04" fC1="0.0000000000000000e+00" fC2="-1.2334480612291219e-04" fC3="0.0000000000000000e+00" fC4="0.0000000000000000e+00" fC5="1.2970203971685810e-04" fC6="0.0000000000000000e+00" fC7="-1.2373475000000635e-04" fC8="0.0000000000000000e+00" fC9="0.0000000000000000e+00" fC10="0.0000000000000000e+00" fC11="-2.0526698395862600e-01" IVar="11" Cut="-1.0170382261276245e-01" cType="0" res="-9.9000000000000000e+01" rms="0.0000000000000000e+00" purity="4.5642906427383423e-01" nType="0">
            <Node pos="l" depth="3" NCoef="0" IVar="-1" Cut="0.0000000000000000e+00" cType="1" res="-9.9000000000000000e+01" rms="0.0000000000000000e+00" purity="5.0486582517623901e-01" nType="1"/>
            <Node pos="r" depth="3" NCoef="0" IVar="-1" Cut="0.0000000000000000e+00" cType="1" res="-9.9000000000000000e+01" rms="0.0000000000000000e+00" purity="1.8476372957229614e-01" nType="-1"/>
          </Node>
        </Node>
        <Node pos="r" depth="1" NCoef="0" IVar="-1" Cut="0.0000000000000000e+00" cType="1" res="-9.9000000000000000e+01" rms="0.0000000000000000e+00" purity="3.8370376825332642e-01" nType="-1"/>
      </Node>
    </BinaryTree>
    <BinaryTree type="DecisionTree" boostWeight="1.0663426569385087e-01" itree="20">
      <Node pos="s" depth="0" NCoef="0" IVar="3" Cut="6.4591839599609375e+02" cType="1" res="-9.9000000000000000e+01" rms="0.0000000000000000e+00" purity="4.8379075527191162e-01" nType="0">
        <Node pos="l" depth="1" NCoef="0" IVar="4" Cut="9.1397392749786377e-01" cType="0" res="-9.9000000000000000e+01" rms="0.0000000000000000e+00" purity="4.9488088488578796e-01" nType="0">
          <Node pos="l" depth="2" NCoef="0" IVar="4" Cut="9.9148106575012207e-01" cType="0" res="-9.9000000000000000e+01" rms="0.0000000000000000e+00" purity="5.1717358827590942e-01" nType="0">
            <Node pos="l" depth="3" NCoef="0" IVar="-1" Cut="0.0000000000000000e+00" cType="1" res="-9.9000000000000000e+01" rms="0.0000000000000000e+00" purity="5.9293901920318604e-01" nType="1"/>
            <Node pos="r" depth="3" NCoef="0" IVar="-1" Cut="0.0000000000000000e+00" cType="1" res="-9.9000000000000000e+01" rms="0.0000000000000000e+00" purity="4.8459783196449280e-01" nType="-1"/>
          </Node>
          <Node pos="r" depth="2" NCoef="12" fC0="-2.5560067625228472e-05" fC1="0.0000000000000000e+00" fC2="3.2957679239943347e-05" fC3="0.0000000000000000e+00" fC4="0.0000000000000000e+00" fC5="0.0000000000000000e+00" fC6="0.0000000000000000e+00" fC7="0.0000000000000000e+00" fC8="0.0000000000000000e+00" fC9="0.0000000000000000e+00" fC10="0.0000000000000000e+00" fC11="-1.2974973268004009e-03" IVar="-1" Cut="-1.3167972676455975e-02" cType="0" res="-9.9000000000000000e+01" rms="0.0000000000000000e+00" purity="4.6429383754730225e-01" nType="-1"/>
        </Node>
        <Node pos="r" depth="1" NCoef="12" fC0="1.0598742565312427e-04" fC1="0.0000000000000000e+00" fC2="-1.1624040103688816e-04" fC3="0.0000000000000000e+00" fC4="0.0000000000000000e+00" fC5="1.3449020248812346e-04" fC6="0.0000000000000000e+00" fC7="-1.2776573156588462e-04" fC8="0.0000000000000000e+00" fC9="0.0000000000000000e+00" fC10="0.0000000000000000e+00" fC11="-1.9282283766809002e-01" IVar="11" Cut="-3.8604572415351868e-02" cType="0" res="-9.9000000000000000e+01" rms="0.0000000000000000e+00" purity="4.4050088524818420e-01" nType="0">
          <Node pos="l" depth="2" NCoef="0" IVar="1" Cut="9.5321905612945557e-01" cType="0" res="-9.9000000000000000e+01" rms="0.0000000000000000e+00" purity="5.3773158788681030e-01" nType="0">
            <Node pos="l" depth="3" NCoef="0" IVar="-1" Cut="0.0000000000000000e+00" cType="1" res="-9.9000000000000000e+01" rms="0.0000000000000000e+00" purity="5.6920522451400757e-01" nType="1"/>
            <Node pos="r" depth="3" NCoef="0" IVar="-1" Cut="0.0000000000000000e+00" cType="1" res="-9.9000000000000000e+01" rms="0.0000000000000000e+00" purity="4.6707570552825928e-01" nType="-1"/>
          </Node>
          <Node pos="r" depth="2" NCoef="12" fC0="4.7121918836992452e-04" fC1="0.0000000000000000e+00" fC2="-5.2659238629068335e-04" fC3="0.0000000000000000e+00" fC4="0.0000000000000000e+00" fC5="-9.4620628995949641e-04" fC6="-2.3681650936433738e-02" fC7="0.0000000000000000e+00" fC8="0.0000000000000000e+00" fC9="0.0000000000000000e+00" fC10="0.0000000000000000e+00" fC11="-3.5361493200621036e-01" IVar="-1" Cut="-4.9594875425100327e-02" cType="0" res="-9.9000000000000000e+01" rms="0.0000000000000000e+00" purity="3.1051501631736755e-01" nType="-1"/>
        </Node>
      </Node>
    </BinaryTree>
    <BinaryTree type="DecisionTree" boostWeight="8.0630827948847808e-02" itree="21">
      <Node pos="s" depth="0" NCoef="0" IVar="3" Cut="6.4591839599609375e+02" cType="1" res="-9.9000000000000000e+01" rms="0.0000000000000000e+00" purity="4.9874275922775269e-01" nType="0">
        <Node pos="l" depth="1" NCoef="0" IVar="8" Cut="5.7105474472045898e+00" cType="1" res="-9.9000000000000000e+01" rms="0.0000000000000000e+00" purity="5.1229912042617798e-01" nType="0">
          <Node pos="l" depth="2" NCoef="0" IVar="4" Cut="9.1395890712738037e-01" cType="0" res="-9.9000000000000000e+01" rms="0.0000000000000000e+00" purity="5.2037787437438965e-01" nType="0">
            <Node pos="l" depth="3" NCoef="0" IVar="-1" Cut="0.0000000000000000e+00" cType="1" res="-9.9000000000000000e+01" rms="0.0000000000000000e+00" purity="5.3525716066360474e-01" nType="1"/>
            <Node pos="r" depth="3" NCoef="0" IVar="-1" Cut="0.0000000000000000e+00" cType="1" res="-9.9000000000000000e+01" rms="0.0000000000000000e+00" purity="4.9960687756538391e-01" nType="-1"/>
          </Node>
          <Node pos="r" depth="2" NCoef="0" IVar="-1" Cut="3.0000889301300049e+00" cType="0" res="-9.9000000000000000e+01" rms="0.0000000000000000e+00" purity="4.6480101346969604e-01" nType="-1"/>
        </Node>
        <Node pos="r" depth="1" NCoef="12" fC0="9.2943142534067090e-05" fC1="0.0000000000000000e+00" fC2="-1.0175110946232210e-04" fC3="0.0000000000000000e+00" fC4="0.0000000000000000e+00" fC5="1.3274271049867320e-04" fC6="0.0000000000000000e+00" fC7="-1.2961654534163691e-04" fC8="0.0000000000000000e+00" fC9="0.0000000000000000e+00" fC10="0.0000000000000000e+00" fC11="-1.7084804706003068e-01" IVar="11" Cut="-4.2890058830380440e-03" cType="0" res="-9.9000000000000000e+01" rms="0.0000000000000000e+00" purity="4.4538748264312744e-01" nType="0">
          <Node pos="l" depth="2" NCoef="12" fC0="-2.7817162704241564e-05" fC1="0.0000000000000000e+00" fC2="5.1479609227403741e-05" fC3="0.0000000000000000e+00" fC4="0.0000000000000000e+00" fC5="8.1216711811362176e-03" fC6="0.0000000000000000e+00" fC7="-8.2177043073058016e-03" fC8="0.0000000000000000e+00" fC9="0.0000000000000000e+00" fC10="0.0000000000000000e+00" fC11="-1.2742732660802550e-01" IVar="11" Cut="-1.8571568652987480e-02" cType="0" res="-9.9000000000000000e+01" rms="0.0000000000000000e+00" purity="5.6119757890701294e-01" nType="0">
            <Node pos="l" depth="3" NCoef="0" IVar="-1" Cut="0.0000000000000000e+00" cType="1" res="-9.9000000000000000e+01" rms="0.0000000000000000e+00" purity="6.1168318986892700e-01" nType="1"/>
            <Node pos="r" depth="3" NCoef="0" IVar="-1" Cut="0.0000000000000000e+00" cType="1" res="-9.9000000000000000e+01" rms="0.0000000000000000e+00" purity="4.8917096853256226e-01" nType="-1"/>
          </Node>
          <Node pos="r" depth="2" NCoef="12" fC0="3.2758084510289056e-04" fC1="0.0000000000000000e+00" fC2="-3.7426643979736855e-04" fC3="0.0000000000000000e+00" fC4="0.0000000000000000e+00" fC5="-9.0227083199325689e-04" fC6="-2.3251859102381631e-02" fC7="0.0000000000000000e+00" fC8="0.0000000000000000e+00" fC9="0.0000000000000000e+00" fC10="0.0000000000000000e+00" fC11="-2.1145500792090638e-01" IVar="-1" Cut="4.0500566363334656e-02" cType="0" res="-9.9000000000000000e+01" rms="0.0000000000000000e+00" purity="3.6409869790077209e-01" nType="-1"/>
        </Node>
      </Node>
    </BinaryTree>
    <BinaryTree type="DecisionTree" boostWeight="1.0096734162316716e-01" itree="22">
      <Node pos="s" depth="0" NCoef="0" IVar="3" Cut="4.9728100585937500e+02" cType="1" res="-9.9000000000000000e+01" rms="0.0000000000000000e+00" purity="5.0091427564620972e-01" nType="0">
        <Node pos="l" depth="1" NCoef="12" fC0="-4.0617970896320433e-05" fC1="0.0000000000000000e+00" fC2="5.0229124614747588e-05" fC3="0.0000000000000000e+00" fC4="0.0000000000000000e+00" fC5="-4.9231471900915314e-05" fC6="0.0000000000000000e+00" fC7="-1.9784202377788622e-07" fC8="0.0000000000000000e+00" fC9="0.0000000000000000e+00" fC10="0.0000000000000000e+00" fC11="9.4102652145898504e-03" IVar="11" Cut="3.3278912305831909e-02" cType="1" res="-9.9000000000000000e+01" rms="0.0000000000000000e+00" purity="5.1981449127197266e-01" nType="0">
          <Node pos="l" depth="2" NCoef="12" fC0="-7.6645848589630851e-05" fC1="0.0000000000000000e+00" fC2="9.7983978632553779e-05" fC3="0.0000000000000000e+00" fC4="0.0000000000000000e+00" fC5="-4.7912787330775803e-05" fC6="0.0000000000000000e+00" fC7="-2.0584154880700648e-07" fC8="0.0000000000000000e+00" fC9="0.0000000000000000e+00" fC10="0.0000000000000000e+00" fC11="5.1974678006444161e-03" IVar="11" Cut="-3.7151034921407700e-02" cType="0" res="-9.9000000000000000e+01" rms="0.0000000000000000e+00" purity="5.2621579170227051e-01" nType="0">
            <Node pos="l" depth="3" NCoef="0" IVar="-1" Cut="0.0000000000000000e+00" cType="1" res="-9.9000000000000000e+01" rms="0.0000000000000000e+00" purity="5.4122138023376465e-01" nType="1"/>
            <Node pos="r" depth="3" NCoef="0" IVar="-1" Cut="0.0000000000000000e+00" cType="1" res="-9.9000000000000000e+01" rms="0.0000000000000000e+00" purity="4.3887427449226379e-01" nType="-1"/>
          </Node>
          <Node pos="r" depth="2" NCoef="0" IVar="-1" Cut="0.0000000000000000e+00" cType="1" res="-9.9000000000000000e+01" rms="0.0000000000000000e+00" purity="4.0069723129272461e-01" nType="-1"/>
        </Node>
        <Node pos="r" depth="1" NCoef="12" fC0="7.6227566460389162e-05" fC1="0.0000000000000000e+00" fC2="-8.7685441732336756e-05" fC3="0.0000000000000000e+00" fC4="0.0000000000000000e+00" fC5="9.0285159585627530e-05" fC6="0.0000000000000000e+00" fC7="-1.4443798002628560e-04" fC8="0.0000000000000000e+00" fC9="0.0000000000000000e+00" fC10="0.0000000000000000e+00" fC11="-8.5934981761292342e-02" IVar="11" Cut="-4.4285345822572708e-02" cType="0" res="-9.9000000000000000e+01" rms="0.0000000000000000e+00" purity="4.7104039788246155e-01" nType="0">
          <Node pos="l" depth="2" NCoef="12" fC0="2.3099030920561938e-05" fC1="0.0000000000000000e+00" fC2="-1.8270106793955138e-05" fC3="0.0000000000000000e+00" fC4="0.0000000000000000e+00" fC5="0.0000000000000000e+00" fC6="0.0000000000000000e+00" fC7="0.0000000000000000e+00" fC8="0.0000000000000000e+00" fC9="0.0000000000000000e+00" fC10="0.0000000000000000e+00" fC11="-9.9530542431856384e-02" IVar="11" Cut="-3.2712753862142563e-02" cType="0" res="-9.9000000000000000e+01" rms="0.0000000000000000e+00" purity="5.0787776708602905e-01" nType="0">
            <Node pos="l" depth="3" NCoef="0" IVar="-1" Cut="0.0000000000000000e+00" cType="1" res="-9.9000000000000000e+01" rms="0.0000000000000000e+00" purity="5.1976770162582397e-01" nType="1"/>
            <Node pos="r" depth="3" NCoef="0" IVar="-1" Cut="0.0000000000000000e+00" cType="1" res="-9.9000000000000000e+01" rms="0.0000000000000000e+00" purity="4.2478439211845398e-01" nType="-1"/>
          </Node>
          <Node pos="r" depth="2" NCoef="12" fC0="5.9814501655597232e-04" fC1="0.0000000000000000e+00" fC2="-6.8329447460813489e-04" fC3="0.0000000000000000e+00" fC4="0.0000000000000000e+00" fC5="7.1439575156945377e-05" fC6="0.0000000000000000e+00" fC7="-1.8182471328847058e-04" fC8="0.0000000000000000e+00" fC9="0.0000000000000000e+00" fC10="0.0000000000000000e+00" fC11="-2.1470767661587217e-01" IVar="-1" Cut="-3.4956339746713638e-02" cType="0" res="-9.9000000000000000e+01" rms="0.0000000000000000e+00" purity="3.4706032276153564e-01" nType="-1"/>
        </Node>
      </Node>
    </BinaryTree>
    <BinaryTree type="DecisionTree" boostWeight="6.2996281199175136e-02" itree="23">
      <Node pos="s" depth="0" NCoef="0" IVar="3" Cut="6.4591839599609375e+02" cType="1" res="-9.9000000000000000e+01" rms="0.0000000000000000e+00" purity="4.8787009716033936e-01" nType="0">
        <Node pos="l" depth="1" NCoef="0" IVar="6" Cut="4.2857255935668945e+00" cType="1" res="-9.9000000000000000e+01" rms="0.0000000000000000e+00" purity="4.9989321827888489e-01" nType="0">
          <Node pos="l" depth="2" NCoef="0" IVar="0" Cut="4.5861083984375000e+03" cType="0" res="-9.9000000000000000e+01" rms="0.0000000000000000e+00" purity="5.0648641586303711e-01" nType="0">
            <Node pos="l" depth="3" NCoef="0" IVar="-1" Cut="0.0000000000000000e+00" cType="1" res="-9.9000000000000000e+01" rms="0.0000000000000000e+00" purity="5.1078951358795166e-01" nType="1"/>
            <Node pos="r" depth="3" NCoef="0" IVar="-1" Cut="0.0000000000000000e+00" cType="1" res="-9.9000000000000000e+01" rms="0.0000000000000000e+00" purity="4.4883605837821960e-01" nType="-1"/>
          </Node>
          <Node pos="r" depth="2" NCoef="0" IVar="-1" Cut="9.7643733024597168e-01" cType="0" res="-9.9000000000000000e+01" rms="0.0000000000000000e+00" purity="4.5948624610900879e-01" nType="-1"/>
        </Node>
        <Node pos="r" depth="1" NCoef="12" fC0="7.6205853804009555e-05" fC1="0.0000000000000000e+00" fC2="-8.4366389282276592e-05" fC3="0.0000000000000000e+00" fC4="0.0000000000000000e+00" fC5="1.4126334055558152e-04" fC6="0.0000000000000000e+00" fC7="-1.3254841196058982e-04" fC8="0.0000000000000000e+00" fC9="0.0000000000000000e+00" fC10="0.0000000000000000e+00" fC11="-1.3134662350094570e-01" IVar="11" Cut="-1.0641967877745628e-02" cType="0" res="-9.9000000000000000e+01" rms="0.0000000000000000e+00" purity="4.4024017453193665e-01" nType="0">
          <Node pos="l" depth="2" NCoef="0" IVar="2" Cut="1.0131638671875000e+04" cType="0" res="-9.9000000000000000e+01" rms="0.0000000000000000e+00" purity="5.2981686592102051e-01" nType="0">
            <Node pos="l" depth="3" NCoef="0" IVar="-1" Cut="0.0000000000000000e+00" cType="1" res="-9.9000000000000000e+01" rms="0.0000000000000000e+00" purity="5.7325935363769531e-01" nType="1"/>
            <Node pos="r" depth="3" NCoef="0" IVar="-1" Cut="0.0000000000000000e+00" cType="1" res="-9.9000000000000000e+01" rms="0.0000000000000000e+00" purity="4.9975898861885071e-01" nType="-1"/>
          </Node>
          <Node pos="r" depth="2" NCoef="12" fC0="2.8883695853387017e-04" fC1="0.0000000000000000e+00" fC2="-3.3104213434292186e-04" fC3="0.0000000000000000e+00" fC4="0.0000000000000000e+00" fC5="-9.3106275599923486e-04" fC6="-2.4819400344491205e-02" fC7="0.0000000000000000e+00" fC8="0.0000000000000000e+00" fC9="0.0000000000000000e+00" fC10="0.0000000000000000e+00" fC11="-1.5489453093921662e-01" IVar="-1" Cut="-8.1316649913787842e-02" cType="0" res="-9.9000000000000000e+01" rms="0.0000000000000000e+00" purity="3.6425352096557617e-01" nType="-1"/>
        </Node>
      </Node>
    </BinaryTree>
    <BinaryTree type="DecisionTree" boostWeight="4.0980304085117644e-02" itree="24">
      <Node pos="s" depth="0" NCoef="0" IVar="3" Cut="7.9455578613281250e+02" cType="1" res="-9.9000000000000000e+01" rms="0.0000000000000000e+00" purity="4.8227444291114807e-01" nType="0">
        <Node pos="l" depth="1" NCoef="0" IVar="-1" Cut="8.5639581680297852e+00" cType="1" res="-9.9000000000000000e+01" rms="0.0000000000000000e+00" purity="4.8827207088470459e-01" nType="-1"/>
        <Node pos="r" depth="1" NCoef="12" fC0="9.8557973881150730e-05" fC1="0.0000000000000000e+00" fC2="-1.1098146747056207e-04" fC3="0.0000000000000000e+00" fC4="0.0000000000000000e+00" fC5="4.1534804741874721e-04" fC6="0.0000000000000000e+00" fC7="-3.4448266354391357e-04" fC8="0.0000000000000000e+00" fC9="0.0000000000000000e+00" fC10="0.0000000000000000e+00" fC11="-1.7332057131431489e-01" IVar="11" Cut="-4.9677062779664993e-02" cType="0" res="-9.9000000000000000e+01" rms="0.0000000000000000e+00" purity="4.2874637246131897e-01" nType="0">
          <Node pos="l" depth="2" NCoef="0" IVar="6" Cut="1.2855402231216431e+00" cType="1" res="-9.9000000000000000e+01" rms="0.0000000000000000e+00" purity="5.2009552717208862e-01" nType="0">
            <Node pos="l" depth="3" NCoef="0" IVar="-1" Cut="0.0000000000000000e+00" cType="1" res="-9.9000000000000000e+01" rms="0.0000000000000000e+00" purity="5.4909420013427734e-01" nType="1"/>
            <Node pos="r" depth="3" NCoef="0" IVar="-1" Cut="0.0000000000000000e+00" cType="1" res="-9.9000000000000000e+01" rms="0.0000000000000000e+00" purity="4.9680140614509583e-01" nType="-1"/>
          </Node>
          <Node pos="r" depth="2" NCoef="0" IVar="-1" Cut="0.0000000000000000e+00" cType="1" res="-9.9000000000000000e+01" rms="0.0000000000000000e+00" purity="2.7667608857154846e-01" nType="-1"/>
        </Node>
      </Node>
    </BinaryTree>
    <BinaryTree type="DecisionTree" boostWeight="4.3857847704114786e-02" itree="25">
      <Node pos="s" depth="0" NCoef="0" IVar="3" Cut="7.9455578613281250e+02" cType="1" res="-9.9000000000000000e+01" rms="0.0000000000000000e+00" purity="4.9193689227104187e-01" nType="0">
        <Node pos="l" depth="1" NCoef="0" IVar="8" Cut="8.5639581680297852e+00" cType="1" res="-9.9000000000000000e+01" rms="0.0000000000000000e+00" purity="4.9851498007774353e-01" nType="0">
          <Node pos="l" depth="2" NCoef="0" IVar="3" Cut="5.3974841308593750e+02" cType="1" res="-9.9000000000000000e+01" rms="0.0000000000000000e+00" purity="5.0160932540893555e-01" nType="0">
            <Node pos="l" depth="3" NCoef="0" IVar="-1" Cut="0.0000000000000000e+00" cType="1" res="-9.9000000000000000e+01" rms="0.0000000000000000e+00" purity="5.0906699895858765e-01" nType="1"/>
            <Node pos="r" depth="3" NCoef="0" IVar="-1" Cut="0.0000000000000000e+00" cType="1" res="-9.9000000000000000e+01" rms="0.0000000000000000e+00" purity="4.7838151454925537e-01" nType="-1"/>
          </Node>
          <Node pos="r" depth="2" NCoef="0" IVar="-1" Cut="0.0000000000000000e+00" cType="1" res="-9.9000000000000000e+01" rms="0.0000000000000000e+00" purity="4.3833771347999573e-01" nType="-1"/>
        </Node>
        <Node pos="r" depth="1" NCoef="12" fC0="9.5946512310205793e-05" fC1="0.0000000000000000e+00" fC2="-1.0792078081007184e-04" fC3="0.0000000000000000e+00" fC4="0.0000000000000000e+00" fC5="4.1777117613603614e-04" fC6="0.0000000000000000e+00" fC7="-3.4481575055995690e-04" fC8="0.0000000000000000e+00" fC9="0.0000000000000000e+00" fC10="0.0000000000000000e+00" fC11="-1.7007536747666854e-01" IVar="11" Cut="-6.1122406274080276e-02" cType="0" res="-9.9000000000000000e+01" rms="0.0000000000000000e+00" purity="4.3301811814308167e-01" nType="0">
          <Node pos="l" depth="2" NCoef="0" IVar="0" Cut="1.4297607421875000e+04" cType="0" res="-9.9000000000000000e+01" rms="0.0000000000000000e+00" purity="5.0497460365295410e-01" nType="0">
            <Node pos="l" depth="3" NCoef="0" IVar="-1" Cut="0.0000000000000000e+00" cType="1" res="-9.9000000000000000e+01" rms="0.0000000000000000e+00" purity="5.3623729944229126e-01" nType="1"/>
            <Node pos="r" depth="3" NCoef="0" IVar="-1" Cut="0.0000000000000000e+00" cType="1" res="-9.9000000000000000e+01" rms="0.0000000000000000e+00" purity="4.8238268494606018e-01" nType="-1"/>
          </Node>
          <Node pos="r" depth="2" NCoef="0" IVar="-1" Cut="0.0000000000000000e+00" cType="1" res="-9.9000000000000000e+01" rms="0.0000000000000000e+00" purity="2.7270725369453430e-01" nType="-1"/>
        </Node>
      </Node>
    </BinaryTree>
    <BinaryTree type="DecisionTree" boostWeight="4.9277595987899055e-02" itree="26">
      <Node pos="s" depth="0" NCoef="0" IVar="3" Cut="7.9455578613281250e+02" cType="1" res="-9.9000000000000000e+01" rms="0.0000000000000000e+00" purity="4.8805078864097595e-01" nType="0">
        <Node pos="l" depth="1" NCoef="0" IVar="0" Cut="1.0863726562500000e+04" cType="0" res="-9.9000000000000000e+01" rms="0.0000000000000000e+00" purity="4.9368858337402344e-01" nType="0">
          <Node pos="l" depth="2" NCoef="0" IVar="3" Cut="4.8876211547851562e+02" cType="0" res="-9.9000000000000000e+01" rms="0.0000000000000000e+00" purity="5.3304332494735718e-01" nType="0">
            <Node pos="l" depth="3" NCoef="0" IVar="-1" Cut="0.0000000000000000e+00" cType="1" res="-9.9000000000000000e+01" rms="0.0000000000000000e+00" purity="5.5948668718338013e-01" nType="1"/>
            <Node pos="r" depth="3" NCoef="0" IVar="-1" Cut="0.0000000000000000e+00" cType="1" res="-9.9000000000000000e+01" rms="0.0000000000000000e+00" purity="4.7546660900115967e-01" nType="-1"/>
          </Node>
          <Node pos="r" depth="2" NCoef="0" IVar="-1" Cut="5.3974841308593750e+02" cType="1" res="-9.9000000000000000e+01" rms="0.0000000000000000e+00" purity="4.8919361829757690e-01" nType="-1"/>
        </Node>
        <Node pos="r" depth="1" NCoef="12" fC0="9.1775407540192397e-05" fC1="0.0000000000000000e+00" fC2="-1.0480123115296697e-04" fC3="0.0000000000000000e+00" fC4="0.0000000000000000e+00" fC5="4.2262448224098594e-04" fC6="0.0000000000000000e+00" fC7="-3.4965560669890399e-04" fC8="0.0000000000000000e+00" fC9="0.0000000000000000e+00" fC10="0.0000000000000000e+00" fC11="-1.4567252163031225e-01" IVar="11" Cut="8.3733471110463142e-03" cType="0" res="-9.9000000000000000e+01" rms="0.0000000000000000e+00" purity="4.3739110231399536e-01" nType="0">
          <Node pos="l" depth="2" NCoef="0" IVar="-1" Cut="0.0000000000000000e+00" cType="1" res="-9.9000000000000000e+01" rms="0.0000000000000000e+00" purity="5.7002937793731689e-01" nType="1"/>
          <Node pos="r" depth="2" NCoef="12" fC0="3.0735772804260826e-04" fC1="0.0000000000000000e+00" fC2="-3.5475611559467464e-04" fC3="0.0000000000000000e+00" fC4="0.0000000000000000e+00" fC5="-1.6358978140390882e-03" fC6="0.0000000000000000e+00" fC7="2.8766337282581185e-04" fC8="0.0000000000000000e+00" fC9="0.0000000000000000e+00" fC10="0.0000000000000000e+00" fC11="-2.5948837214364906e-01" IVar="-1" Cut="1.6991253942251205e-02" cType="0" res="-9.9000000000000000e+01" rms="0.0000000000000000e+00" purity="3.6045092344284058e-01" nType="-1"/>
        </Node>
      </Node>
    </BinaryTree>
    <BinaryTree type="DecisionTree" boostWeight="5.9086180086745613e-02" itree="27">
      <Node pos="s" depth="0" NCoef="12" fC0="1.2725725334256017e-05" fC1="0.0000000000000000e+00" fC2="-1.7100747109316008e-05" fC3="0.0000000000000000e+00" fC4="0.0000000000000000e+00" fC5="-5.0225927771228293e-05" fC6="0.0000000000000000e+00" fC7="-2.0235612797734719e-07" fC8="0.0000000000000000e+00" fC9="0.0000000000000000e+00" fC10="0.0000000000000000e+00" fC11="5.0081501466848833e-03" IVar="11" Cut="-8.8520916178822517e-03" cType="0" res="-9.9000000000000000e+01" rms="0.0000000000000000e+00" purity="4.9790236353874207e-01" nType="0">
        <Node pos="l" depth="1" NCoef="0" IVar="2" Cut="9.7194707031250000e+03" cType="0" res="-9.9000000000000000e+01" rms="0.0000000000000000e+00" purity="5.0693327188491821e-01" nType="0">
          <Node pos="l" depth="2" NCoef="0" IVar="-1" Cut="0.0000000000000000e+00" cType="1" res="-9.9000000000000000e+01" rms="0.0000000000000000e+00" purity="5.4936373233795166e-01" nType="1"/>
          <Node pos="r" depth="2" NCoef="12" fC0="-1.9153957647050785e-05" fC1="0.0000000000000000e+00" fC2="2.3741394262015049e-05" fC3="0.0000000000000000e+00" fC4="0.0000000000000000e+00" fC5="0.0000000000000000e+00" fC6="0.0000000000000000e+00" fC7="0.0000000000000000e+00" fC8="0.0000000000000000e+00" fC9="0.0000000000000000e+00" fC10="0.0000000000000000e+00" fC11="7.2536542618687749e-03" IVar="11" Cut="6.4689107239246368e-03" cType="1" res="-9.9000000000000000e+01" rms="0.0000000000000000e+00" purity="5.0430351495742798e-01" nType="0">
            <Node pos="l" depth="3" NCoef="0" IVar="-1" Cut="0.0000000000000000e+00" cType="1" res="-9.9000000000000000e+01" rms="0.0000000000000000e+00" purity="5.1455521583557129e-01" nType="1"/>
            <Node pos="r" depth="3" NCoef="0" IVar="-1" Cut="0.0000000000000000e+00" cType="1" res="-9.9000000000000000e+01" rms="0.0000000000000000e+00" purity="4.7783970832824707e-01" nType="-1"/>
          </Node>
        </Node>
        <Node pos="r" depth="1" NCoef="12" fC0="2.5147048057475962e-04" fC1="0.0000000000000000e+00" fC2="-3.0989323442113593e-04" fC3="0.0000000000000000e+00" fC4="0.0000000000000000e+00" fC5="-5.2493587269437338e-05" fC6="0.0000000000000000e+00" fC7="-2.2289033537344301e-07" fC8="0.0000000000000000e+00" fC9="0.0000000000000000e+00" fC10="0.0000000000000000e+00" fC11="1.2284344011110956e-01" IVar="11" Cut="-4.6897131949663162e-02" cType="0" res="-9.9000000000000000e+01" rms="0.0000000000000000e+00" purity="4.4097754359245300e-01" nType="0">
          <Node pos="l" depth="2" NCoef="0" IVar="3" Cut="7.2918695068359375e+02" cType="1" res="-9.9000000000000000e+01" rms="0.0000000000000000e+00" purity="4.9069201946258545e-01" nType="0">
            <Node pos="l" depth="3" NCoef="0" IVar="-1" Cut="0.0000000000000000e+00" cType="1" res="-9.9000000000000000e+01" rms="0.0000000000000000e+00" purity="5.3674852848052979e-01" nType="1"/>
            <Node pos="r" depth="3" NCoef="0" IVar="-1" Cut="0.0000000000000000e+00" cType="1" res="-9.9000000000000000e+01" rms="0.0000000000000000e+00" purity="3.7580406665802002e-01" nType="-1"/>
          </Node>
          <Node pos="r" depth="2" NCoef="0" IVar="-1" Cut="0.0000000000000000e+00" cType="1" res="-9.9000000000000000e+01" rms="0.0000000000000000e+00" purity="2.9204282164573669e-01" nType="-1"/>
        </Node>
      </Node>
    </BinaryTree>
    <BinaryTree type="DecisionTree" boostWeight="4.2966424621833962e-02" itree="28">
      <Node pos="s" depth="0" NCoef="0" IVar="3" Cut="7.9455578613281250e+02" cType="1" res="-9.9000000000000000e+01" rms="0.0000000000000000e+00" purity="4.9170243740081787e-01" nType="0">
        <Node pos="l" depth="1" NCoef="0" IVar="4" Cut="3.1431353092193604e-01" cType="0" res="-9.9000000000000000e+01" rms="0.0000000000000000e+00" purity="4.9785515666007996e-01" nType="0">
          <Node pos="l" depth="2" NCoef="0" IVar="3" Cut="3.1325366210937500e+02" cType="1" res="-9.9000000000000000e+01" rms="0.0000000000000000e+00" purity="5.0002610683441162e-01" nType="0">
            <Node pos="l" depth="3" NCoef="0" IVar="-1" Cut="0.0000000000000000e+00" cType="1" res="-9.9000000000000000e+01" rms="0.0000000000000000e+00" purity="5.1993405818939209e-01" nType="1"/>
            <Node pos="r" depth="3" NCoef="0" IVar="-1" Cut="0.0000000000000000e+00" cType="1" res="-9.9000000000000000e+01" rms="0.0000000000000000e+00" purity="4.9287900328636169e-01" nType="-1"/>
          </Node>
          <Node pos="r" depth="2" NCoef="0" IVar="-1" Cut="0.0000000000000000e+00" cType="1" res="-9.9000000000000000e+01" rms="0.0000000000000000e+00" purity="4.2815771698951721e-01" nType="-1"/>
        </Node>
        <Node pos="r" depth="1" NCoef="12" fC0="7.4278884747395649e-05" fC1="0.0000000000000000e+00" fC2="-8.3093721543387903e-05" fC3="0.0000000000000000e+00" fC4="0.0000000000000000e+00" fC5="4.3150364433620263e-04" fC6="0.0000000000000000e+00" fC7="-3.5943734274983941e-04" fC8="0.0000000000000000e+00" fC9="0.0000000000000000e+00" fC10="0.0000000000000000e+00" fC11="-1.3673534352050054e-01" IVar="11" Cut="-2.7855751104652882e-03" cType="0" res="-9.9000000000000000e+01" rms="0.0000000000000000e+00" purity="4.3597406148910522e-01" nType="0">
          <Node pos="l" depth="2" NCoef="0" IVar="-1" Cut="0.0000000000000000e+00" cType="1" res="-9.9000000000000000e+01" rms="0.0000000000000000e+00" purity="5.4883748292922974e-01" nType="1"/>
          <Node pos="r" depth="2" NCoef="0" IVar="-1" Cut="1.7140501737594604e+00" cType="1" res="-9.9000000000000000e+01" rms="0.0000000000000000e+00" purity="3.5779464244842529e-01" nType="-1"/>
        </Node>
      </Node>
    </BinaryTree>
    <BinaryTree type="DecisionTree" boostWeight="4.7676963226195024e-02" itree="29">
      <Node pos="s" depth="0" NCoef="0" IVar="3" Cut="7.9455578613281250e+02" cType="1" res="-9.9000000000000000e+01" rms="0.0000000000000000e+00" purity="4.9660953879356384e-01" nType="0">
        <Node pos="l" depth="1" NCoef="0" IVar="0" Cut="5.1724667968750000e+03" cType="0" res="-9.9000000000000000e+01" rms="0.0000000000000000e+00" purity="5.0309383869171143e-01" nType="0">
          <Node pos="l" depth="2" NCoef="0" IVar="6" Cut="6.8571467399597168e+00" cType="1" res="-9.9000000000000000e+01" rms="0.0000000000000000e+00" purity="5.0766384601593018e-01" nType="0">
            <Node pos="l" depth="3" NCoef="0" IVar="-1" Cut="0.0000000000000000e+00" cType="1" res="-9.9000000000000000e+01" rms="0.0000000000000000e+00" purity="5.1001232862472534e-01" nType="1"/>
            <Node pos="r" depth="3" NCoef="0" IVar="-1" Cut="0.0000000000000000e+00" cType="1" res="-9.9000000000000000e+01" rms="0.0000000000000000e+00" purity="4.4389787316322327e-01" nType="-1"/>
          </Node>
          <Node pos="r" depth="2" NCoef="12" fC0="2.5648906591260902e-04" fC1="0.0000000000000000e+00" fC2="-3.1318992085001848e-04" fC3="0.0000000000000000e+00" fC4="0.0000000000000000e+00" fC5="0.0000000000000000e+00" fC6="0.0000000000000000e+00" fC7="0.0000000000000000e+00" fC8="0.0000000000000000e+00" fC9="0.0000000000000000e+00" fC10="0.0000000000000000e+00" fC11="-5.6830383923608396e-02" IVar="11" Cut="-3.4721493721008301e-02" cType="0" res="-9.9000000000000000e+01" rms="0.0000000000000000e+00" purity="4.7480607032775879e-01" nType="0">
            <Node pos="l" depth="3" NCoef="0" IVar="-1" Cut="0.0000000000000000e+00" cType="1" res="-9.9000000000000000e+01" rms="0.0000000000000000e+00" purity="5.2598142623901367e-01" nType="1"/>
            <Node pos="r" depth="3" NCoef="0" IVar="-1" Cut="0.0000000000000000e+00" cType="1" res="-9.9000000000000000e+01" rms="0.0000000000000000e+00" purity="3.6611786484718323e-01" nType="-1"/>
          </Node>
        </Node>
        <Node pos="r" depth="1" NCoef="0" IVar="1" Cut="9.0651154518127441e-01" cType="0" res="-9.9000000000000000e+01" rms="0.0000000000000000e+00" purity="4.3764534592628479e-01" nType="0">
          <Node pos="l" depth="2" NCoef="0" IVar="1" Cut="9.9526071548461914e-01" cType="0" res="-9.9000000000000000e+01" rms="0.0000000000000000e+00" purity="4.5658922195434570e-01" nType="0">
            <Node pos="l" depth="3" NCoef="0" IVar="-1" Cut="0.0000000000000000e+00" cType="1" res="-9.9000000000000000e+01" rms="0.0000000000000000e+00" purity="5.1849198341369629e-01" nType="1"/>
            <Node pos="r" depth="3" NCoef="0" IVar="-1" Cut="0.0000000000000000e+00" cType="1" res="-9.9000000000000000e+01" rms="0.0000000000000000e+00" purity="4.1824504733085632e-01" nType="-1"/>
          </Node>
          <Node pos="r" depth="2" NCoef="0" IVar="-1" Cut="0.0000000000000000e+00" cType="1" res="-9.9000000000000000e+01" rms="0.0000000000000000e+00" purity="3.8638436794281006e-01" nType="-1"/>
        </Node>
      </Node>
    </BinaryTree>
    <BinaryTree type="DecisionTree" boostWeight="3.0486602591401294e-02" itree="30">
      <Node pos="s" depth="0" NCoef="0" IVar="3" Cut="9.4319311523437500e+02" cType="1" res="-9.9000000000000000e+01" rms="0.0000000000000000e+00" purity="4.8799344897270203e-01" nType="0">
        <Node pos="l" depth="1" NCoef="0" IVar="4" Cut="3.1431353092193604e-01" cType="0" res="-9.9000000000000000e+01" rms="0.0000000000000000e+00" purity="4.9150127172470093e-01" nType="0">
          <Node pos="l" depth="2" NCoef="0" IVar="2" Cut="1.0943133789062500e+04" cType="0" res="-9.9000000000000000e+01" rms="0.0000000000000000e+00" purity="4.9345451593399048e-01" nType="0">
            <Node pos="l" depth="3" NCoef="0" IVar="-1" Cut="0.0000000000000000e+00" cType="1" res="-9.9000000000000000e+01" rms="0.0000000000000000e+00" purity="5.5439931154251099e-01" nType="1"/>
            <Node pos="r" depth="3" NCoef="0" IVar="-1" Cut="0.0000000000000000e+00" cType="1" res="-9.9000000000000000e+01" rms="0.0000000000000000e+00" purity="4.9142625927925110e-01" nType="-1"/>
          </Node>
          <Node pos="r" depth="2" NCoef="0" IVar="-1" Cut="0.0000000000000000e+00" cType="1" res="-9.9000000000000000e+01" rms="0.0000000000000000e+00" purity="4.2849123477935791e-01" nType="-1"/>
        </Node>
        <Node pos="r" depth="1" NCoef="0" IVar="-1" Cut="0.0000000000000000e+00" cType="1" res="-9.9000000000000000e+01" rms="0.0000000000000000e+00" purity="4.2004469037055969e-01" nType="-1"/>
      </Node>
    </BinaryTree>
    <BinaryTree type="DecisionTree" boostWeight="5.6726723627577053e-02" itree="31">
      <Node pos="s" depth="0" NCoef="0" IVar="3" Cut="9.4319311523437500e+02" cType="1" res="-9.9000000000000000e+01" rms="0.0000000000000000e+00" purity="4.9515947699546814e-01" nType="0">
        <Node pos="l" depth="1" NCoef="12" fC0="-8.2341060314096108e-06" fC1="0.0000000000000000e+00" fC2="1.2690289057128081e-05" fC3="0.0000000000000000e+00" fC4="0.0000000000000000e+00" fC5="-7.0585639684421077e-05" fC6="0.0000000000000000e+00" fC7="-1.8816019631826843e-07" fC8="0.0000000000000000e+00" fC9="0.0000000000000000e+00" fC10="0.0000000000000000e+00" fC11="-1.2800378917643742e-02" IVar="11" Cut="-1.2415309436619282e-02" cType="0" res="-9.9000000000000000e+01" rms="0.0000000000000000e+00" purity="4.9864566326141357e-01" nType="0">
          <Node pos="l" depth="2" NCoef="12" fC0="2.0137611541183809e-05" fC1="0.0000000000000000e+00" fC2="-2.1514618334531527e-05" fC3="0.0000000000000000e+00" fC4="0.0000000000000000e+00" fC5="0.0000000000000000e+00" fC6="0.0000000000000000e+00" fC7="0.0000000000000000e+00" fC8="0.0000000000000000e+00" fC9="0.0000000000000000e+00" fC10="0.0000000000000000e+00" fC11="-2.5670269271528684e-02" IVar="11" Cut="-1.5727721154689789e-02" cType="0" res="-9.9000000000000000e+01" rms="0.0000000000000000e+00" purity="5.0129896402359009e-01" nType="0">
            <Node pos="l" depth="3" NCoef="0" IVar="-1" Cut="0.0000000000000000e+00" cType="1" res="-9.9000000000000000e+01" rms="0.0000000000000000e+00" purity="5.1349484920501709e-01" nType="1"/>
            <Node pos="r" depth="3" NCoef="0" IVar="-1" Cut="0.0000000000000000e+00" cType="1" res="-9.9000000000000000e+01" rms="0.0000000000000000e+00" purity="2.8510013222694397e-01" nType="-1"/>
          </Node>
          <Node pos="r" depth="2" NCoef="0" IVar="-1" Cut="0.0000000000000000e+00" cType="1" res="-9.9000000000000000e+01" rms="0.0000000000000000e+00" purity="4.2114901542663574e-01" nType="-1"/>
        </Node>
        <Node pos="r" depth="1" NCoef="0" IVar="-1" Cut="0.0000000000000000e+00" cType="1" res="-9.9000000000000000e+01" rms="0.0000000000000000e+00" purity="4.2748904228210449e-01" nType="-1"/>
      </Node>
    </BinaryTree>
    <BinaryTree type="DecisionTree" boostWeight="3.1647323376171412e-02" itree="32">
      <Node pos="s" depth="0" NCoef="0" IVar="3" Cut="7.9455578613281250e+02" cType="1" res="-9.9000000000000000e+01" rms="0.0000000000000000e+00" purity="4.8463115096092224e-01" nType="0">
        <Node pos="l" depth="1" NCoef="0" IVar="4" Cut="3.1431353092193604e-01" cType="0" res="-9.9000000000000000e+01" rms="0.0000000000000000e+00" purity="4.8850718140602112e-01" nType="0">
          <Node pos="l" depth="2" NCoef="0" IVar="1" Cut="9.5315545797348022e-01" cType="1" res="-9.9000000000000000e+01" rms="0.0000000000000000e+00" purity="4.9045124650001526e-01" nType="0">
            <Node pos="l" depth="3" NCoef="0" IVar="-1" Cut="0.0000000000000000e+00" cType="1" res="-9.9000000000000000e+01" rms="0.0000000000000000e+00" purity="5.0039297342300415e-01" nType="1"/>
            <Node pos="r" depth="3" NCoef="0" IVar="-1" Cut="0.0000000000000000e+00" cType="1" res="-9.9000000000000000e+01" rms="0.0000000000000000e+00" purity="4.7952216863632202e-01" nType="-1"/>
          </Node>
          <Node pos="r" depth="2" NCoef="0" IVar="-1" Cut="0.0000000000000000e+00" cType="1" res="-9.9000000000000000e+01" rms="0.0000000000000000e+00" purity="4.2606163024902344e-01" nType="-1"/>
        </Node>
        <Node pos="r" depth="1" NCoef="0" IVar="0" Cut="1.1698056640625000e+04" cType="0" res="-9.9000000000000000e+01" rms="0.0000000000000000e+00" purity="4.4924589991569519e-01" nType="0">
          <Node pos="l" depth="2" NCoef="0" IVar="1" Cut="9.7645288705825806e-01" cType="0" res="-9.9000000000000000e+01" rms="0.0000000000000000e+00" purity="4.7146651148796082e-01" nType="0">
            <Node pos="l" depth="3" NCoef="0" IVar="-1" Cut="0.0000000000000000e+00" cType="1" res="-9.9000000000000000e+01" rms="0.0000000000000000e+00" purity="5.0127130746841431e-01" nType="1"/>
            <Node pos="r" depth="3" NCoef="0" IVar="-1" Cut="0.0000000000000000e+00" cType="1" res="-9.9000000000000000e+01" rms="0.0000000000000000e+00" purity="4.3692311644554138e-01" nType="-1"/>
          </Node>
          <Node pos="r" depth="2" NCoef="0" IVar="-1" Cut="0.0000000000000000e+00" cType="1" res="-9.9000000000000000e+01" rms="0.0000000000000000e+00" purity="4.0486907958984375e-01" nType="-1"/>
        </Node>
      </Node>
    </BinaryTree>
    <BinaryTree type="DecisionTree" boostWeight="3.1330027553212451e-02" itree="33">
      <Node pos="s" depth="0" NCoef="0" IVar="1" Cut="7.1991622447967529e-01" cType="0" res="-9.9000000000000000e+01" rms="0.0000000000000000e+00" purity="4.8473390936851501e-01" nType="0">
        <Node pos="l" depth="1" NCoef="0" IVar="10" Cut="4.2856822013854980e+00" cType="1" res="-9.9000000000000000e+01" rms="0.0000000000000000e+00" purity="4.8942375183105469e-01" nType="0">
          <Node pos="l" depth="2" NCoef="0" IVar="-1" Cut="3.4285750389099121e+00" cType="1" res="-9.9000000000000000e+01" rms="0.0000000000000000e+00" purity="4.9350056052207947e-01" nType="-1"/>
          <Node pos="r" depth="2" NCoef="0" IVar="6" Cut="2.9976370334625244e+00" cType="0" res="-9.9000000000000000e+01" rms="0.0000000000000000e+00" purity="4.6216285228729248e-01" nType="0">
            <Node pos="l" depth="3" NCoef="0" IVar="-1" Cut="0.0000000000000000e+00" cType="1" res="-9.9000000000000000e+01" rms="0.0000000000000000e+00" purity="5.0585943460464478e-01" nType="1"/>
            <Node pos="r" depth="3" NCoef="0" IVar="-1" Cut="0.0000000000000000e+00" cType="1" res="-9.9000000000000000e+01" rms="0.0000000000000000e+00" purity="4.4442519545555115e-01" nType="-1"/>
          </Node>
        </Node>
        <Node pos="r" depth="1" NCoef="0" IVar="-1" Cut="2.5711627006530762e+00" cType="1" res="-9.9000000000000000e+01" rms="0.0000000000000000e+00" purity="4.4488829374313354e-01" nType="-1"/>
      </Node>
    </BinaryTree>
    <BinaryTree type="DecisionTree" boostWeight="3.5652323553999395e-02" itree="34">
      <Node pos="s" depth="0" NCoef="0" IVar="1" Cut="7.1991622447967529e-01" cType="0" res="-9.9000000000000000e+01" rms="0.0000000000000000e+00" purity="4.9203550815582275e-01" nType="0">
        <Node pos="l" depth="1" NCoef="0" IVar="10" Cut="4.2856822013854980e+00" cType="1" res="-9.9000000000000000e+01" rms="0.0000000000000000e+00" purity="4.9666613340377808e-01" nType="0">
          <Node pos="l" depth="2" NCoef="0" IVar="6" Cut="3.4285750389099121e+00" cType="1" res="-9.9000000000000000e+01" rms="0.0000000000000000e+00" purity="5.0133270025253296e-01" nType="0">
            <Node pos="l" depth="3" NCoef="0" IVar="-1" Cut="0.0000000000000000e+00" cType="1" res="-9.9000000000000000e+01" rms="0.0000000000000000e+00" purity="5.0774466991424561e-01" nType="1"/>
            <Node pos="r" depth="3" NCoef="0" IVar="-1" Cut="0.0000000000000000e+00" cType="1" res="-9.9000000000000000e+01" rms="0.0000000000000000e+00" purity="4.7590026259422302e-01" nType="-1"/>
          </Node>
          <Node pos="r" depth="2" NCoef="0" IVar="-1" Cut="5.6854643821716309e+00" cType="0" res="-9.9000000000000000e+01" rms="0.0000000000000000e+00" purity="4.6542754769325256e-01" nType="-1"/>
        </Node>
