<?xml version="1.0"?>
<MethodSetup Method="MLP::MLP">
  <GeneralInfo>
    <Info name="TMVA Release" value="4.2.1 [262657]"/>
    <Info name="ROOT Release" value="6.26/02 [399874]"/>
    <Info name="Creator" value="s1412595"/>
    <Info name="Date" value="Sun May  1 13:10:33 2022"/>
    <Info name="Host" value="Linux root-ubuntu-2004-1 5.4.0-73-generic #82-Ubuntu SMP Wed Apr 14 17:39:42 UTC 2021 x86_64 x86_64 x86_64 GNU/Linux"/>
    <Info name="Dir" value="/home/s1412595/Desktop/MSc/TMVA/runs/run_fs1_hp1"/>
    <Info name="Training events" value="120000"/>
    <Info name="TrainingTime" value="7.91125388e+02"/>
    <Info name="AnalysisType" value="Classification"/>
  </GeneralInfo>
  <Options>
    <Option name="NCycles" modified="Yes">600</Option>
    <Option name="HiddenLayers" modified="Yes">N+5</Option>
    <Option name="NeuronType" modified="Yes">tanh</Option>
    <Option name="RandomSeed" modified="No">1</Option>
    <Option name="EstimatorType" modified="No">CE</Option>
    <Option name="NeuronInputType" modified="No">sum</Option>
    <Option name="V" modified="Yes">False</Option>
    <Option name="VerbosityLevel" modified="No">Default</Option>
    <Option name="VarTransform" modified="Yes">N</Option>
    <Option name="H" modified="Yes">True</Option>
    <Option name="CreateMVAPdfs" modified="No">False</Option>
    <Option name="IgnoreNegWeightsInTraining" modified="No">False</Option>
    <Option name="TrainingMethod" modified="No">BP</Option>
    <Option name="LearningRate" modified="No">2.000000e-02</Option>
    <Option name="DecayRate" modified="No">1.000000e-02</Option>
    <Option name="TestRate" modified="Yes">5</Option>
    <Option name="EpochMonitoring" modified="No">False</Option>
    <Option name="Sampling" modified="No">1.000000e+00</Option>
    <Option name="SamplingEpoch" modified="No">1.000000e+00</Option>
    <Option name="SamplingImportance" modified="No">1.000000e+00</Option>
    <Option name="SamplingTraining" modified="No">True</Option>
    <Option name="SamplingTesting" modified="No">False</Option>
    <Option name="ResetStep" modified="No">50</Option>
    <Option name="Tau" modified="No">3.000000e+00</Option>
    <Option name="BPMode" modified="No">sequential</Option>
    <Option name="BatchSize" modified="No">-1</Option>
    <Option name="ConvergenceImprove" modified="No">1.000000e-30</Option>
    <Option name="ConvergenceTests" modified="No">-1</Option>
    <Option name="UseRegulator" modified="Yes">False</Option>
    <Option name="UpdateLimit" modified="No">10000</Option>
    <Option name="CalculateErrors" modified="No">False</Option>
    <Option name="WeightRange" modified="No">1.000000e+00</Option>
  </Options>
  <Variables NVar="11">
    <Variable VarIndex="0" Expression="Xicst_PT" Label="Xicst_PT" Title="Xicst_PT" Unit="" Internal="Xicst_PT" Type="F" Min="2.32683643e+03" Max="4.92342539e+04"/>
    <Variable VarIndex="1" Expression="Kbach_ProbNNk" Label="Kbach_ProbNNk" Title="Kbach_ProbNNk" Unit="" Internal="Kbach_ProbNNk" Type="F" Min="5.10000885e-01" Max="9.99803305e-01"/>
    <Variable VarIndex="2" Expression="Lc_PT" Label="Lc_PT" Title="Lc_PT" Unit="" Internal="Lc_PT" Type="F" Min="2.52761890e+03" Max="4.00415273e+04"/>
    <Variable VarIndex="3" Expression="pibach_PT" Label="pibach_PT" Title="pibach_PT" Unit="" Internal="pibach_PT" Type="F" Min="2.00006271e+02" Max="3.32139111e+03"/>
    <Variable VarIndex="4" Expression="pibach_ProbNNpi" Label="pibach_ProbNNpi" Title="pibach_ProbNNpi" Unit="" Internal="pibach_ProbNNpi" Type="F" Min="1.00149095e-01" Max="9.99639690e-01"/>
    <Variable VarIndex="5" Expression="Xicst_IPCHI2_OWNPV" Label="Xicst_IPCHI2_OWNPV" Title="Xicst_IPCHI2_OWNPV" Unit="" Internal="Xicst_IPCHI2_OWNPV" Type="F" Min="1.37118786e-05" Max="2.63996133e+04"/>
    <Variable VarIndex="6" Expression="Lc_IPCHI2_OWNPV" Label="Lc_IPCHI2_OWNPV" Title="Lc_IPCHI2_OWNPV" Unit="" Internal="Lc_IPCHI2_OWNPV" Type="F" Min="1.04185083e-05" Max="8.99999237e+00"/>
    <Variable VarIndex="7" Expression="Xicst_FDCHI2_OWNPV" Label="Xicst_FDCHI2_OWNPV" Title="Xicst_FDCHI2_OWNPV" Unit="" Internal="Xicst_FDCHI2_OWNPV" Type="F" Min="1.69576111e-03" Max="2.45688275e+06"/>
    <Variable VarIndex="8" Expression="Xicst_ENDVERTEX_CHI2" Label="Xicst_ENDVERTEX_CHI2" Title="Xicst_ENDVERTEX_CHI2" Unit="" Internal="Xicst_ENDVERTEX_CHI2" Type="F" Min="1.72308029e-03" Max="5.99373703e+01"/>
    <Variable VarIndex="9" Expression="pibach_IPCHI2_OWNPV" Label="pibach_IPCHI2_OWNPV" Title="pibach_IPCHI2_OWNPV" Unit="" Internal="pibach_IPCHI2_OWNPV" Type="F" Min="8.96283200e-06" Max="8.99967575e+00"/>
    <Variable VarIndex="10" Expression="Kbach_IPCHI2_OWNPV" Label="Kbach_IPCHI2_OWNPV" Title="Kbach_IPCHI2_OWNPV" Unit="" Internal="Kbach_IPCHI2_OWNPV" Type="F" Min="1.30371254e-05" Max="8.99991798e+00"/>
  </Variables>
  <Spectators NSpec="1">
    <Spectator SpecIndex="0" Expression="Xicst_M" Label="Xicst_M" Title="Xicst Mass" Unit="F" Internal="Xicst_M" Type="F" Min="2.92377637e+03" Max="3.90779272e+03"/>
  </Spectators>
  <Classes NClass="2">
    <Class Name="Signal" Index="0"/>
    <Class Name="Background" Index="1"/>
  </Classes>
  <Transformations NTransformations="1">
    <Transform Name="Normalize">
      <Selection>
        <Input NInputs="11">
          <Input Type="Variable" Label="Xicst_PT" Expression="Xicst_PT"/>
          <Input Type="Variable" Label="Kbach_ProbNNk" Expression="Kbach_ProbNNk"/>
          <Input Type="Variable" Label="Lc_PT" Expression="Lc_PT"/>
          <Input Type="Variable" Label="pibach_PT" Expression="pibach_PT"/>
          <Input Type="Variable" Label="pibach_ProbNNpi" Expression="pibach_ProbNNpi"/>
          <Input Type="Variable" Label="Xicst_IPCHI2_OWNPV" Expression="Xicst_IPCHI2_OWNPV"/>
          <Input Type="Variable" Label="Lc_IPCHI2_OWNPV" Expression="Lc_IPCHI2_OWNPV"/>
          <Input Type="Variable" Label="Xicst_FDCHI2_OWNPV" Expression="Xicst_FDCHI2_OWNPV"/>
          <Input Type="Variable" Label="Xicst_ENDVERTEX_CHI2" Expression="Xicst_ENDVERTEX_CHI2"/>
          <Input Type="Variable" Label="pibach_IPCHI2_OWNPV" Expression="pibach_IPCHI2_OWNPV"/>
          <Input Type="Variable" Label="Kbach_IPCHI2_OWNPV" Expression="Kbach_IPCHI2_OWNPV"/>
        </Input>
        <Output NOutputs="11">
          <Output Type="Variable" Label="Xicst_PT" Expression="Xicst_PT"/>
          <Output Type="Variable" Label="Kbach_ProbNNk" Expression="Kbach_ProbNNk"/>
          <Output Type="Variable" Label="Lc_PT" Expression="Lc_PT"/>
          <Output Type="Variable" Label="pibach_PT" Expression="pibach_PT"/>
          <Output Type="Variable" Label="pibach_ProbNNpi" Expression="pibach_ProbNNpi"/>
          <Output Type="Variable" Label="Xicst_IPCHI2_OWNPV" Expression="Xicst_IPCHI2_OWNPV"/>
          <Output Type="Variable" Label="Lc_IPCHI2_OWNPV" Expression="Lc_IPCHI2_OWNPV"/>
          <Output Type="Variable" Label="Xicst_FDCHI2_OWNPV" Expression="Xicst_FDCHI2_OWNPV"/>
          <Output Type="Variable" Label="Xicst_ENDVERTEX_CHI2" Expression="Xicst_ENDVERTEX_CHI2"/>
          <Output Type="Variable" Label="pibach_IPCHI2_OWNPV" Expression="pibach_IPCHI2_OWNPV"/>
          <Output Type="Variable" Label="Kbach_IPCHI2_OWNPV" Expression="Kbach_IPCHI2_OWNPV"/>
        </Output>
      </Selection>
      <Class ClassIndex="0">
        <Ranges>
          <Range Index="0" Min="3.3086733398437500e+03" Max="4.9234253906250000e+04"/>
          <Range Index="1" Min="5.1000088453292847e-01" Max="9.9980330467224121e-01"/>
          <Range Index="2" Min="2.5326340332031250e+03" Max="4.0041527343750000e+04"/>
          <Range Index="3" Min="2.0000627136230469e+02" Max="3.3213911132812500e+03"/>
          <Range Index="4" Min="1.0023375600576401e-01" Max="9.9963968992233276e-01"/>
          <Range Index="5" Min="1.3711878636968322e-05" Max="5.0999150390625000e+03"/>
          <Range Index="6" Min="1.0418508281873073e-05" Max="8.9987192153930664e+00"/>
          <Range Index="7" Min="3.1707067973911762e-03" Max="4.9887138671875000e+03"/>
          <Range Index="8" Min="1.7230802914127707e-03" Max="5.7858459472656250e+01"/>
          <Range Index="9" Min="2.5563955205143429e-05" Max="8.9967641830444336e+00"/>
          <Range Index="10" Min="2.9180013370933011e-05" Max="8.9999179840087891e+00"/>
        </Ranges>
      </Class>
      <Class ClassIndex="1">
        <Ranges>
          <Range Index="0" Min="2.3268364257812500e+03" Max="3.6822753906250000e+04"/>
          <Range Index="1" Min="5.1001447439193726e-01" Max="9.9980223178863525e-01"/>
          <Range Index="2" Min="2.5276188964843750e+03" Max="3.0730033203125000e+04"/>
          <Range Index="3" Min="2.0001296997070312e+02" Max="3.2623430175781250e+03"/>
          <Range Index="4" Min="1.0014909505844116e-01" Max="9.9933230876922607e-01"/>
          <Range Index="5" Min="2.6691805032896809e-05" Max="2.6399613281250000e+04"/>
          <Range Index="6" Min="2.8562481020344421e-05" Max="8.9999923706054688e+00"/>
          <Range Index="7" Min="1.6957611078396440e-03" Max="2.4568827500000000e+06"/>
          <Range Index="8" Min="4.3928395025432110e-03" Max="5.9937370300292969e+01"/>
          <Range Index="9" Min="8.9628319983603433e-06" Max="8.9996757507324219e+00"/>
          <Range Index="10" Min="1.3037125427217688e-05" Max="8.9995861053466797e+00"/>
        </Ranges>
      </Class>
      <Class ClassIndex="2">
        <Ranges>
          <Range Index="0" Min="2.3268364257812500e+03" Max="4.9234253906250000e+04"/>
          <Range Index="1" Min="5.1000088453292847e-01" Max="9.9980330467224121e-01"/>
          <Range Index="2" Min="2.5276188964843750e+03" Max="4.0041527343750000e+04"/>
          <Range Index="3" Min="2.0000627136230469e+02" Max="3.3213911132812500e+03"/>
          <Range Index="4" Min="1.0014909505844116e-01" Max="9.9963968992233276e-01"/>
          <Range Index="5" Min="1.3711878636968322e-05" Max="2.6399613281250000e+04"/>
          <Range Index="6" Min="1.0418508281873073e-05" Max="8.9999923706054688e+00"/>
          <Range Index="7" Min="1.6957611078396440e-03" Max="2.4568827500000000e+06"/>
          <Range Index="8" Min="1.7230802914127707e-03" Max="5.9937370300292969e+01"/>
          <Range Index="9" Min="8.9628319983603433e-06" Max="8.9996757507324219e+00"/>
          <Range Index="10" Min="1.3037125427217688e-05" Max="8.9999179840087891e+00"/>
        </Ranges>
      </Class>
    </Transform>
  </Transformations>
  <MVAPdfs/>
  <Weights>
    <Layout NLayers="3">
      <Layer Index="0" NNeurons="12">
        <Neuron NSynapses="16">
          2.3225750865945280e+00 2.5360047524180298e+00 4.2431840064064446e+00 1.7158837797890039e+00 -8.4043294771454811e+00 -3.6242313171738663e+00 2.1659163628684254e+01 2.3203217327719394e+00 -2.8606264901488681e+00 -1.6987006389968269e+00 -1.7653568944095155e+00 -5.7959724198734513e+01 -2.8455852686822891e-01 2.8439046614420178e+00 -5.4864922823091111e-01 1.5789812227788853e+00 
        </Neuron>
        <Neuron NSynapses="16">
          2.5951960079624187e-01 -5.0933383426587181e-02 3.5923364468657787e-01 1.1777253483564945e-01 2.2882145445328019e+00 1.8637070564752587e-02 9.8699759186531885e-02 3.9372606189612092e-01 -3.1437201506779816e-01 -3.2603108960825022e-01 1.1885081057825069e+00 1.6307114117153551e-01 -1.4961333364046505e+00 -1.7625295827515133e-01 -3.1002229035114071e-01 6.6924691388041611e+00 
        </Neuron>
        <Neuron NSynapses="16">
          -1.2053171182840274e+00 -1.2424274160954951e+00 -4.7366390479675928e+00 -1.0649311196816347e+00 3.6806477557534683e+00 2.0838134608257506e+00 -2.5659265982192252e+01 1.4942849465516530e+00 1.3708331222934185e+00 1.5333408703173044e+00 8.2983368597688791e+00 5.0619230132319480e+01 2.5220771539350767e-01 -3.3184965533395899e-01 3.1286581243542329e+00 4.5220117022039021e+00 
        </Neuron>
        <Neuron NSynapses="16">
          -2.2413652997478324e+00 -4.3959284042191538e-01 8.3080214883426660e+00 3.3745549901779376e-01 4.2463352826481238e+00 2.3172257085099823e+00 -2.5868695206378627e+00 -1.4305044231691824e-01 -1.3314321692696480e+00 -7.0622877092826131e-01 3.3344267220138182e+00 4.2687490229639904e+00 -5.5724413454760113e-01 3.2598375015486929e+00 2.0952301707731649e+00 -9.6403635930307408e-01 
        </Neuron>
        <Neuron NSynapses="16">
          8.4311704551289246e+00 3.6312730991677689e-01 5.8386827884991488e-01 -1.1481561759763292e-01 5.8958707710398017e-01 -7.2413806046214537e+00 -8.4873898282303503e-02 -1.1046904661428867e+00 2.5853971908249229e-01 1.6696033082424180e-01 2.9889498537719286e+00 -9.3495410051617975e-02 -1.4234397226839932e+00 -3.8310551118429981e+00 4.0407575438908111e-01 -5.0059999413281098e-01 
        </Neuron>
        <Neuron NSynapses="16">
          7.3144090232406072e+00 1.7967078784472468e+00 -6.8134935380048145e-01 -1.6663592271182583e+00 -1.9197233268770015e+00 2.1749688497502460e+00 4.1306154398895663e+00 -8.5272618478973961e-01 2.8459183153207196e-01 -1.0010910205665888e+00 -7.5988544592613583e-01 1.3276431265956443e+00 2.4827857019826047e+00 -3.4491960664979375e+00 -2.5156543768479311e+00 1.9167231021918147e+00 
        </Neuron>
        <Neuron NSynapses="16">
          7.9419832615884908e-02 -3.9946830470780154e-01 1.2225853861159713e-01 -2.2207880460879917e-01 -2.6824759151967542e-01 3.5371154289193196e-01 -5.2340263236056575e-02 8.8021383789062746e-01 6.3792578377908837e-01 -2.4683692187138911e-01 -4.8870750189560447e-01 3.3510025870060037e-02 3.7993632528933663e-01 1.4477430864032431e-01 7.5933933078131077e-01 -4.4507716016142496e-01 
        </Neuron>
        <Neuron NSynapses="16">
          5.7973630228949373e+00 1.7134469460628008e+00 -2.9283072480239714e+00 9.8088800453437186e-01 -8.3623246983774790e-01 1.3512978417255579e+00 3.4045105434289700e+00 -8.1237946180916398e-01 1.7629255994680226e-01 8.0268072862014994e-01 -8.3324788232962588e-01 1.8112735114719904e+00 1.8791331258195512e+00 -1.7856116431252806e+00 -1.9896064096124706e+00 5.6350375005620190e-01 
        </Neuron>
        <Neuron NSynapses="16">
          -9.2261966734739236e+00 -4.1949736111551497e+00 -3.3683741329513417e+00 -1.8750113723714399e+00 3.0861211047207342e+00 -1.6255028656038068e+01 4.8147734793850483e-01 7.9178140863384017e-01 -3.0433199944644849e+00 -8.2619663808893085e-01 -3.4679641431603612e+00 4.2286593262110256e-01 1.7875481187619235e+00 -1.3676831887258232e+00 -1.0474517747142363e-01 6.1815402440024303e-01 
        </Neuron>
        <Neuron NSynapses="16">
          1.2706334619289206e+00 8.9844403007388429e-01 4.1739471897881963e-01 -5.5060054772313438e-01 1.6833876363817888e+00 2.5766769905764177e+00 -2.4889424063099904e-02 1.1010216668440576e+00 2.0125403323745692e+00 -3.1669882777634045e-01 -3.5315030029687061e-01 -2.9923418058309594e-02 1.0058850452715622e+00 4.1183774961045988e-01 5.8420053348102463e-01 2.9663850029571015e-01 
        </Neuron>
        <Neuron NSynapses="16">
          4.3471283855505631e-02 -6.3277964753979576e-01 5.9872157814214222e-01 5.6197238438360075e-01 -5.4921509954297709e-01 3.5388417623443091e-01 -4.3994852148496487e-02 -7.9854032205449038e-02 2.9564175552442151e-01 -3.1228210063639977e-01 1.8789595077258459e-01 1.7617430778685658e-03 2.4739737263456299e-01 -3.3922162108107140e-01 -7.2521483912050855e-01 -4.0094008674312737e-01 
        </Neuron>
        <Neuron NSynapses="16">
          -4.8511153532723643e+00 -1.2685877737856983e+00 1.9923816267416459e+00 -8.6090141632614003e-01 -3.4842110737930915e-01 -1.1560842280702908e+00 -7.8372629658317250e-01 -2.0073635414266779e+00 -1.9634295398645565e+00 -1.2467147186583520e+00 7.9817569450701464e-01 1.8017252543793332e+00 -1.4696633862615176e+00 1.2731519543745911e+00 5.9016406870677196e-01 6.4537979987523364e-01 
        </Neuron>
      </Layer>
      <Layer Index="1" NNeurons="17">
        <Neuron NSynapses="1">
          1.4264703893517499e+00 
        </Neuron>
        <Neuron NSynapses="1">
          1.6441046158228652e+00 
        </Neuron>
        <Neuron NSynapses="1">
          1.3409052001269373e+00 
        </Neuron>
        <Neuron NSynapses="1">
          8.4294526763384237e-01 
        </Neuron>
        <Neuron NSynapses="1">
          2.7187928766370245e-01 
        </Neuron>
        <Neuron NSynapses="1">
          -7.2937489233425234e-01 
        </Neuron>
        <Neuron NSynapses="1">
          -5.7613915640047733e+00 
        </Neuron>
        <Neuron NSynapses="1">
          1.8244431623261184e+00 
        </Neuron>
        <Neuron NSynapses="1">
          -6.5149530638155762e-01 
        </Neuron>
        <Neuron NSynapses="1">
          -5.9497350853598552e-01 
        </Neuron>
        <Neuron NSynapses="1">
          2.3439538471186580e-01 
        </Neuron>
        <Neuron NSynapses="1">
          -4.1800340101069526e+00 
        </Neuron>
        <Neuron NSynapses="1">
          3.9779397181617999e+00 
        </Neuron>
        <Neuron NSynapses="1">
          3.4823527068023591e-01 
        </Neuron>
        <Neuron NSynapses="1">
          4.3032942845923133e-01 
        </Neuron>
        <Neuron NSynapses="1">
          3.9224478150343062e-01 
        </Neuron>
        <Neuron NSynapses="1">
          -1.3854086031907840e+00 
        </Neuron>
      </Layer>
      <Layer Index="2" NNeurons="1">
        <Neuron NSynapses="0"/>
      </Layer>
    </Layout>
  </Weights>
</MethodSetup>
